{"learner":{"attributes":{"best_iteration":"76","best_score":"0.3955012709112197"},"feature_names":[],"feature_types":[],"gradient_booster":{"model":{"gbtree_model_param":{"num_parallel_tree":"1","num_trees":"127"},"iteration_indptr":[0,1,2,3,4,5,6,7,8,9,10,11,12,13,14,15,16,17,18,19,20,21,22,23,24,25,26,27,28,29,30,31,32,33,34,35,36,37,38,39,40,41,42,43,44,45,46,47,48,49,50,51,52,53,54,55,56,57,58,59,60,61,62,63,64,65,66,67,68,69,70,71,72,73,74,75,76,77,78,79,80,81,82,83,84,85,86,87,88,89,90,91,92,93,94,95,96,97,98,99,100,101,102,103,104,105,106,107,108,109,110,111,112,113,114,115,116,117,118,119,120,121,122,123,124,125,126,127],"tree_info":[0,0,0,0,0,0,0,0,0,0,0,0,0,0,0,0,0,0,0,0,0,0,0,0,0,0,0,0,0,0,0,0,0,0,0,0,0,0,0,0,0,0,0,0,0,0,0,0,0,0,0,0,0,0,0,0,0,0,0,0,0,0,0,0,0,0,0,0,0,0,0,0,0,0,0,0,0,0,0,0,0,0,0,0,0,0,0,0,0,0,0,0,0,0,0,0,0,0,0,0,0,0,0,0,0,0,0,0,0,0,0,0,0,0,0,0,0,0,0,0,0,0,0,0,0,0,0],"trees":[{"base_weights":[-2.4190871E-2,-4.8053223E-1,8.6569804E-1,-6.7995894E-1,1.4571376E-3,3.6696907E-2,1.2750329E-1,-9.148644E-2,-3.2141995E-2],"categories":[],"categories_nodes":[],"categories_segments":[],"categories_sizes":[],"default_left":[0,0,0,0,0,0,0,0,0],"id":0,"left_children":[1,3,5,7,-1,-1,-1,-1,-1],"loss_changes":[7.06701E1,1.1364649E1,1.1576782E1,6.6122093E0,0E0,0E0,0E0,0E0,0E0],"parents":[2147483647,0,0,1,1,2,2,3,3],"right_children":[2,4,6,8,-1,-1,-1,-1,-1],"split_conditions":[7.15E2,2E0,2.375E7,3.18E2,1.4571376E-3,3.6696907E-2,1.2750329E-1,-9.148644E-2,-3.2141995E-2],"split_indices":[0,3,15,0,0,0,0,0,0],"split_type":[0,0,0,0,0,0,0,0,0],"sum_hessian":[1.72E2,1.14E2,5.8E1,8.1E1,3.3E1,2.7E1,3.1E1,4.8E1,3.3E1],"tree_param":{"num_deleted":"0","num_feature":"17","num_nodes":"9","size_leaf_vector":"1"}},{"base_weights":[4.3476142E-2,-4.4443193E-1,3.6243892E-1,-1.3303148E-2,-6.0724E-2,2.376794E-2,7.683688E-2,-2.866358E-2,2.6254317E-2],"categories":[],"categories_nodes":[],"categories_segments":[],"categories_sizes":[],"default_left":[0,0,0,0,0,0,0,0,0],"id":1,"left_children":[1,3,5,-1,-1,7,-1,-1,-1],"loss_changes":[2.8329117E1,3.5695095E0,1.5104169E1,0E0,0E0,4.596375E0,0E0,0E0,0E0],"parents":[2147483647,0,0,1,1,2,2,5,5],"right_children":[2,4,6,-1,-1,8,-1,-1,-1],"split_conditions":[1.87175E7,9.249E6,2E0,-1.3303148E-2,-6.0724E-2,1.06E2,7.683688E-2,-2.866358E-2,2.6254317E-2],"split_indices":[15,15,3,0,0,10,0,0,0],"split_type":[0,0,0,0,0,0,0,0,0],"sum_hessian":[1.8E2,7.1E1,1.09E2,2.5E1,4.6E1,6E1,4.9E1,2.6E1,3.4E1],"tree_param":{"num_deleted":"0","num_feature":"17","num_nodes":"9","size_leaf_vector":"1"}},{"base_weights":[1.6976954E-2,-4.7644407E-1,7.603442E-1,-5.977147E-1,-7.565044E-3,4.04164E-2,1.361265E-1,-2.6384586E-2,-7.754194E-1,-9.5682055E-2,-5.5024054E-2],"categories":[],"categories_nodes":[],"categories_segments":[],"categories_sizes":[],"default_left":[0,0,0,0,0,0,0,0,0,0,0],"id":2,"left_children":[1,3,5,7,-1,-1,-1,-1,9,-1,-1],"loss_changes":[6.528462E1,5.1554623E0,1.4646393E1,4.660475E0,0E0,0E0,0E0,0E0,1.6384468E0,0E0,0E0],"parents":[2147483647,0,0,1,1,2,2,3,3,8,8],"right_children":[2,4,6,8,-1,-1,-1,-1,10,-1,-1],"split_conditions":[4.3681914E4,3.2167594E4,7.686343E4,1E0,-7.565044E-3,4.04164E-2,1.361265E-1,-2.6384586E-2,1.8323332E4,-9.5682055E-2,-5.5024054E-2],"split_indices":[5,5,5,2,0,0,0,0,5,0,0],"split_type":[0,0,0,0,0,0,0,0,0,0,0],"sum_hessian":[1.76E2,1.06E2,7E1,8.1E1,2.5E1,4.5E1,2.5E1,2.9E1,5.2E1,2.7E1,2.5E1],"tree_param":{"num_deleted":"0","num_feature":"17","num_nodes":"11","size_leaf_vector":"1"}},{"base_weights":[-1.1221262E-2,-4.286733E-1,6.544446E-1,-1.51451295E-2,-5.560242E-1,3.142716E-2,1.1128118E-1,-7.428291E-2,-2.1592936E-2],"categories":[],"categories_nodes":[],"categories_segments":[],"categories_sizes":[],"default_left":[0,0,0,0,0,0,0,0,0],"id":3,"left_children":[1,3,5,-1,7,-1,-1,-1,-1],"loss_changes":[4.974382E1,3.7992802E0,1.0409039E1,0E0,4.604454E0,0E0,0E0,0E0,0E0],"parents":[2147483647,0,0,1,1,2,2,4,4],"right_children":[2,4,6,-1,8,-1,-1,-1,-1],"split_conditions":[4.3681914E4,1E0,6.8373164E4,-1.51451295E-2,2.9041748E4,3.142716E-2,1.1128118E-1,-7.428291E-2,-2.1592936E-2],"split_indices":[5,2,5,0,5,0,0,0,0],"split_type":[0,0,0,0,0,0,0,0,0],"sum_hessian":[1.77E2,1.09E2,6.8E1,3.5E1,7.4E1,4E1,2.8E1,4.7E1,2.7E1],"tree_param":{"num_deleted":"0","num_feature":"17","num_nodes":"9","size_leaf_vector":"1"}},{"base_weights":[-1.2039197E-2,-4.1365695E-1,4.729876E-1,-1.372605E-2,-5.763894E-1,1.6789187E-2,7.891408E-2,-7.458256E-2,-3.440087E-2],"categories":[],"categories_nodes":[],"categories_segments":[],"categories_sizes":[],"default_left":[0,0,0,0,0,0,0,0,0],"id":4,"left_children":[1,3,5,-1,7,-1,-1,-1,-1],"loss_changes":[3.5258823E1,4.3737698E0,7.776985E0,0E0,2.1846008E0,0E0,0E0,0E0,0E0],"parents":[2147483647,0,0,1,1,2,2,4,4],"right_children":[2,4,6,-1,8,-1,-1,-1,-1],"split_conditions":[5.58E2,1E0,2.011E3,-1.372605E-2,3.55E2,1.6789187E-2,7.891408E-2,-7.458256E-2,-3.440087E-2],"split_indices":[0,2,1,0,0,0,0,0,0],"split_type":[0,0,0,0,0,0,0,0,0],"sum_hessian":[1.79E2,9.8E1,8.1E1,3.7E1,6.1E1,4.2E1,3.9E1,3.4E1,2.7E1],"tree_param":{"num_deleted":"0","num_feature":"17","num_nodes":"9","size_leaf_vector":"1"}},{"base_weights":[-1.0740205E-2,-2.8724182E-1,6.5945107E-1,-4.3891728E-1,6.236538E-3,3.8180288E-2,9.224146E-2,-6.324E-2,-1.5513296E-2],"categories":[],"categories_nodes":[],"categories_segments":[],"categories_sizes":[],"default_left":[0,0,0,0,0,0,0,0,0],"id":5,"left_children":[1,3,5,7,-1,-1,-1,-1,-1],"loss_changes":[3.298911E1,6.7087526E0,3.4444084E0,4.7337418E0,0E0,0E0,0E0,0E0,0E0],"parents":[2147483647,0,0,1,1,2,2,3,3],"right_children":[2,4,6,8,-1,-1,-1,-1,-1],"split_conditions":[8.53E2,2E0,1.002E3,3.18E2,6.236538E-3,3.8180288E-2,9.224146E-2,-6.324E-2,-1.5513296E-2],"split_indices":[0,3,0,0,0,0,0,0,0],"split_type":[0,0,0,0,0,0,0,0,0],"sum_hessian":[1.76E2,1.25E2,5.1E1,8.7E1,3.8E1,2.6E1,2.5E1,5.1E1,3.6E1],"tree_param":{"num_deleted":"0","num_feature":"17","num_nodes":"9","size_leaf_vector":"1"}},{"base_weights":[3.0646658E-2,-3.2330295E-1,5.562295E-1,-4.0393338E-1,-5.657224E-3,2.521878E-2,1.0250025E-1,-2.3595152E-2,-4.7347015E-1,-6.317275E-2,-3.09981E-2],"categories":[],"categories_nodes":[],"categories_segments":[],"categories_sizes":[],"default_left":[0,0,0,0,0,0,0,0,0,0,0],"id":6,"left_children":[1,3,5,7,-1,-1,-1,-1,9,-1,-1],"loss_changes":[3.329314E1,2.2783566E0,1.000342E1,8.461189E-1,0E0,0E0,0E0,0E0,1.2789574E0,0E0,0E0],"parents":[2147483647,0,0,1,1,2,2,3,3,8,8],"right_children":[2,4,6,8,-1,-1,-1,-1,10,-1,-1],"split_conditions":[4.3681914E4,3.2167594E4,7.686343E4,1.0512667E7,-5.657224E-3,2.521878E-2,1.0250025E-1,-2.3595152E-2,1.87175E7,-6.317275E-2,-3.09981E-2],"split_indices":[5,5,5,15,0,0,0,0,15,0,0],"split_type":[0,0,0,0,0,0,0,0,0,0,0],"sum_hessian":[1.77E2,1.06E2,7.1E1,8.1E1,2.5E1,4.4E1,2.7E1,2.5E1,5.6E1,2.7E1,2.9E1],"tree_param":{"num_deleted":"0","num_feature":"17","num_nodes":"11","size_leaf_vector":"1"}},{"base_weights":[4.42757E-2,-2.100902E-1,3.9772722E-1,-3.0131182E-1,1.723771E-4,9.543555E-3,6.0166623E-2,-5.756782E-3,-4.2973805E-2],"categories":[],"categories_nodes":[],"categories_segments":[],"categories_sizes":[],"default_left":[0,0,0,0,0,0,0,0,0],"id":7,"left_children":[1,3,5,7,-1,-1,-1,-1,-1],"loss_changes":[1.5907018E1,1.9906864E0,4.504609E0,2.229086E0,0E0,0E0,0E0,0E0,0E0],"parents":[2147483647,0,0,1,1,2,2,3,3],"right_children":[2,4,6,8,-1,-1,-1,-1,-1],"split_conditions":[2.3723666E7,1.87175E7,2E0,6.865E4,1.723771E-4,9.543555E-3,6.0166623E-2,-5.756782E-3,-4.2973805E-2],"split_indices":[15,15,3,16,0,0,0,0,0],"split_type":[0,0,0,0,0,0,0,0,0],"sum_hessian":[1.75E2,1.02E2,7.3E1,7.1E1,3.1E1,3E1,4.3E1,2.5E1,4.6E1],"tree_param":{"num_deleted":"0","num_feature":"17","num_nodes":"9","size_leaf_vector":"1"}},{"base_weights":[-1.473004E-2,-3.1217074E-1,3.4380972E-1,-5.070523E-1,2.3351105E-2,1.3069893E-2,6.184072E-2,-7.226505E-2,-3.5205238E-2],"categories":[],"categories_nodes":[],"categories_segments":[],"categories_sizes":[],"default_left":[0,0,0,0,0,0,0,0,0],"id":8,"left_children":[1,3,5,7,-1,-1,-1,-1,-1],"loss_changes":[1.9516594E1,1.0752736E1,4.776308E0,2.2185001E0,0E0,0E0,0E0,0E0,0E0],"parents":[2147483647,0,0,1,1,2,2,3,3],"right_children":[2,4,6,8,-1,-1,-1,-1,-1],"split_conditions":[5.58E2,1E0,2.498975E7,2.16E2,2.3351105E-2,1.3069893E-2,6.184072E-2,-7.226505E-2,-3.5205238E-2],"split_indices":[0,12,15,0,0,0,0,0,0],"split_type":[0,0,0,0,0,0,0,0,0],"sum_hessian":[1.81E2,9.9E1,8.2E1,7.3E1,2.6E1,4.7E1,3.5E1,2.9E1,4.4E1],"tree_param":{"num_deleted":"0","num_feature":"17","num_nodes":"9","size_leaf_vector":"1"}},{"base_weights":[-2.1121458E-3,-1.1995587E-1,5.3561587E-2,-3.308032E-1,7.3281385E-2,-4.3445405E-2,-2.3727423E-2,-1.8990444E-3,2.3543533E-2],"categories":[],"categories_nodes":[],"categories_segments":[],"categories_sizes":[],"default_left":[0,0,0,0,0,0,0,0,0],"id":9,"left_children":[1,3,-1,5,7,-1,-1,-1,-1],"loss_changes":[1.1280363E1,5.972801E0,0E0,5.7552004E-1,1.1565635E0,0E0,0E0,0E0,0E0],"parents":[2147483647,0,0,1,1,3,3,4,4],"right_children":[2,4,-1,6,8,-1,-1,-1,-1],"split_conditions":[4E0,1.87175E7,5.3561587E-2,2.004E3,2.03E2,-4.3445405E-2,-2.3727423E-2,-1.8990444E-3,2.3543533E-2],"split_indices":[11,15,0,1,10,0,0,0,0],"split_type":[0,0,0,0,0,0,0,0,0],"sum_hessian":[1.76E2,1.45E2,3.1E1,6.9E1,7.6E1,3.1E1,3.8E1,4.9E1,2.7E1],"tree_param":{"num_deleted":"0","num_feature":"17","num_nodes":"9","size_leaf_vector":"1"}},{"base_weights":[2.0107064E-2,-1.3458695E-1,9.236987E-2,-3.2105792E-1,1.0677263E-1,-8.271266E-3,-4.4726586E-1,-1.670341E-3,1.8066797E-2,-5.601002E-2,-3.1442795E-2],"categories":[],"categories_nodes":[],"categories_segments":[],"categories_sizes":[],"default_left":[0,0,0,0,0,0,0,0,0,0,0],"id":10,"left_children":[1,3,-1,5,7,-1,9,-1,-1,-1,-1],"loss_changes":[2.4865412E1,6.8752766E0,0E0,2.5499773E0,6.1434627E-1,0E0,6.6325474E-1,0E0,0E0,0E0,0E0],"parents":[2147483647,0,0,1,1,3,3,4,4,6,6],"right_children":[2,4,-1,6,8,-1,10,-1,-1,-1,-1],"split_conditions":[7.38383E4,3.4997883E4,9.236987E-2,1E0,2.0972E7,-8.271266E-3,1.8323332E4,-1.670341E-3,1.8066797E-2,-5.601002E-2,-3.1442795E-2],"split_indices":[5,5,0,2,15,0,5,0,0,0,0],"split_type":[0,0,0,0,0,0,0,0,0,0,0],"sum_hessian":[1.76E2,1.51E2,2.5E1,8.5E1,6.6E1,3E1,5.5E1,2.5E1,4.1E1,2.8E1,2.7E1],"tree_param":{"num_deleted":"0","num_feature":"17","num_nodes":"11","size_leaf_vector":"1"}},{"base_weights":[-1.0579183E-2,-1.5457983E-1,5.862972E-2,-2.3863286E-1,2.0516431E-2,-3.9615855E-1,7.7604E-4,-5.12934E-2,-2.7817702E-2],"categories":[],"categories_nodes":[],"categories_segments":[],"categories_sizes":[],"default_left":[0,0,0,0,0,0,0,0,0],"id":11,"left_children":[1,3,-1,5,-1,7,-1,-1,-1],"loss_changes":[1.5475785E1,4.4334083E0,0E0,4.5830393E0,0E0,8.4928226E-1,0E0,0E0,0E0],"parents":[2147483647,0,0,1,1,3,3,5,5],"right_children":[2,4,-1,6,-1,8,-1,-1,-1],"split_conditions":[6.5291574E4,1E0,5.862972E-2,3.4997883E4,2.0516431E-2,1.2715829E4,7.7604E-4,-5.12934E-2,-2.7817702E-2],"split_indices":[5,12,0,5,0,5,0,0,0],"split_type":[0,0,0,0,0,0,0,0,0],"sum_hessian":[1.78E2,1.44E2,3.4E1,1.17E2,2.7E1,7.1E1,4.6E1,3.4E1,3.7E1],"tree_param":{"num_deleted":"0","num_feature":"17","num_nodes":"9","size_leaf_vector":"1"}},{"base_weights":[1.3363618E-2,-3.3911634E-2,1.096289E-1,-4.59676E-2,3.0361113E-1,-1.5999852E-2,1.8824803E-2,4.3241426E-2,1.2062877E-2],"categories":[],"categories_nodes":[],"categories_segments":[],"categories_sizes":[],"default_left":[0,0,0,0,0,0,0,0,0],"id":12,"left_children":[1,-1,3,5,7,-1,-1,-1,-1],"loss_changes":[6.0091352E0,0E0,4.2093873E0,2.1133294E0,1.4090977E0,0E0,0E0,0E0,0E0],"parents":[2147483647,0,0,2,2,3,3,4,4],"right_children":[2,-1,4,6,8,-1,-1,-1,-1],"split_conditions":[2.004E3,-3.3911634E-2,1E0,1.3E2,1E1,-1.5999852E-2,1.8824803E-2,4.3241426E-2,1.2062877E-2],"split_indices":[1,0,3,8,9,0,0,0,0],"split_type":[0,0,0,0,0,0,0,0,0],"sum_hessian":[1.75E2,3.7E1,1.38E2,7.7E1,6.1E1,5.2E1,2.5E1,3.5E1,2.6E1],"tree_param":{"num_deleted":"0","num_feature":"17","num_nodes":"9","size_leaf_vector":"1"}},{"base_weights":[9.749856E-3,-7.828842E-2,5.3421844E-2,-1.8748668E-1,1.354042E-1,-2.5301653E-1,-4.0816786E-3,3.656265E-3,2.292308E-2,-2.9028257E-2,-1.9241018E-2],"categories":[],"categories_nodes":[],"categories_segments":[],"categories_sizes":[],"default_left":[0,0,0,0,0,0,0,0,0,0,0],"id":13,"left_children":[1,3,-1,5,7,9,-1,-1,-1,-1,-1],"loss_changes":[8.353018E0,3.6422899E0,0E0,9.796326E-1,4.831388E-1,1.0450411E-1,0E0,0E0,0E0,0E0,0E0],"parents":[2147483647,0,0,1,1,3,3,4,4,5,5],"right_children":[2,4,-1,6,8,10,-1,-1,-1,-1,-1],"split_conditions":[5.8E1,1.06E2,5.3421844E-2,1.9207E5,3.56E2,1.46145E7,-4.0816786E-3,3.656265E-3,2.292308E-2,-2.9028257E-2,-1.9241018E-2],"split_indices":[12,10,0,16,10,15,0,0,0,0,0],"split_type":[0,0,0,0,0,0,0,0,0,0,0],"sum_hessian":[1.79E2,1.54E2,2.5E1,1.02E2,5.2E1,7E1,3.2E1,2.6E1,2.6E1,4.1E1,2.9E1],"tree_param":{"num_deleted":"0","num_feature":"17","num_nodes":"11","size_leaf_vector":"1"}},{"base_weights":[-1.0791422E-2,-1.4107965E-1,3.2152742E-1,-2.4723014E-1,2.9303122E-2,1.778474E-2,4.52841E-2,-3.1075668E-1,-8.556173E-3,-3.7066303E-2,-2.6258219E-2],"categories":[],"categories_nodes":[],"categories_segments":[],"categories_sizes":[],"default_left":[0,0,0,0,0,0,0,0,0,0,0],"id":14,"left_children":[1,3,5,7,-1,-1,-1,9,-1,-1,-1],"loss_changes":[7.8388624E0,6.0629873E0,8.8168716E-1,1.051786E0,0E0,0E0,0E0,1.1911678E-1,0E0,0E0,0E0],"parents":[2147483647,0,0,1,1,2,2,3,3,7,7],"right_children":[2,4,6,8,-1,-1,-1,10,-1,-1,-1],"split_conditions":[8.53E2,2.3E1,9.92E2,5.12E2,2.9303122E-2,1.778474E-2,4.52841E-2,1.54E2,-8.556173E-3,-3.7066303E-2,-2.6258219E-2],"split_indices":[0,12,0,0,0,0,0,0,0,0,0],"split_type":[0,0,0,0,0,0,0,0,0,0,0],"sum_hessian":[1.79E2,1.29E2,5E1,1.04E2,2.5E1,2.5E1,2.5E1,7.4E1,3E1,3E1,4.4E1],"tree_param":{"num_deleted":"0","num_feature":"17","num_nodes":"11","size_leaf_vector":"1"}},{"base_weights":[-1.2169034E-2,-2.0704196E-1,2.58217E-1,-1.2544611E-3,-2.6843297E-1,1.2331008E-2,5.07722E-2,-4.218771E-2,-1.8958148E-1,-2.2264889E-2,-1.4540702E-2],"categories":[],"categories_nodes":[],"categories_segments":[],"categories_sizes":[],"default_left":[0,0,0,0,0,0,0,0,0,0,0],"id":15,"left_children":[1,3,5,-1,7,-1,-1,-1,9,-1,-1],"loss_changes":[9.432446E0,1.2384334E0,2.4618888E0,0E0,8.758645E-1,0E0,0E0,0E0,4.6504855E-2,0E0,0E0],"parents":[2147483647,0,0,1,1,2,2,4,4,8,8],"right_children":[2,4,6,-1,8,-1,-1,-1,10,-1,-1],"split_conditions":[4.139261E4,8.6695E4,7.38383E4,-1.2544611E-3,1.2715829E4,1.2331008E-2,5.07722E-2,-4.218771E-2,2.9041748E4,-2.2264889E-2,-1.4540702E-2],"split_indices":[5,16,5,0,5,0,0,0,5,0,0],"split_type":[0,0,0,0,0,0,0,0,0,0,0],"sum_hessian":[1.77E2,1.03E2,7.4E1,2.5E1,7.8E1,4.9E1,2.5E1,2.5E1,5.3E1,2.8E1,2.5E1],"tree_param":{"num_deleted":"0","num_feature":"17","num_nodes":"11","size_leaf_vector":"1"}},{"base_weights":[-1.3144743E-2,-1.2336475E-1,2.7148578E-2,-2.1260683E-1,1.656137E-2,-3.2050118E-2,-1.1291549E-1,-1.6811797E-2,-5.3530964E-3],"categories":[],"categories_nodes":[],"categories_segments":[],"categories_sizes":[],"default_left":[0,0,0,0,0,0,0,0,0],"id":16,"left_children":[1,3,-1,5,-1,-1,7,-1,-1],"loss_changes":[5.6177034E0,3.3619967E0,0E0,1.0286674E0,0E0,0E0,1.6474372E-1,0E0,0E0],"parents":[2147483647,0,0,1,1,3,3,6,6],"right_children":[2,4,-1,6,-1,-1,8,-1,-1],"split_conditions":[8.53E2,1E0,2.7148578E-2,3.75E2,1.656137E-2,-3.2050118E-2,5.58E2,-1.6811797E-2,-5.3530964E-3],"split_indices":[0,12,0,0,0,0,0,0,0],"split_type":[0,0,0,0,0,0,0,0,0],"sum_hessian":[1.77E2,1.28E2,4.9E1,9.8E1,3E1,4.6E1,5.2E1,2.6E1,2.6E1],"tree_param":{"num_deleted":"0","num_feature":"17","num_nodes":"9","size_leaf_vector":"1"}},{"base_weights":[-1.655397E-2,-9.756209E-2,4.161024E-2,-2.0421502E-1,3.157645E-2,-1.0805415E-2,-2.548905E-1,9.439187E-3,-2.3391724E-3,-3.2916207E-2,-1.7081548E-2],"categories":[],"categories_nodes":[],"categories_segments":[],"categories_sizes":[],"default_left":[0,0,0,0,0,0,0,0,0,0,0],"id":17,"left_children":[1,3,-1,5,7,-1,9,-1,-1,-1,-1],"loss_changes":[5.998872E0,1.989761E0,0E0,3.5742474E-1,2.3009601E-1,0E0,2.622378E-1,0E0,0E0,0E0,0E0],"parents":[2147483647,0,0,1,1,3,3,4,4,6,6],"right_children":[2,4,-1,6,8,-1,10,-1,-1,-1,-1],"split_conditions":[6.8373164E4,3.2167594E4,4.161024E-2,1E0,2E0,-1.0805415E-2,2.8E2,9.439187E-3,-2.3391724E-3,-3.2916207E-2,-1.7081548E-2],"split_indices":[5,5,0,2,10,0,0,0,0,0,0],"split_type":[0,0,0,0,0,0,0,0,0,0,0],"sum_hessian":[1.69E2,1.43E2,2.6E1,7.8E1,6.5E1,2.8E1,5E1,3E1,3.5E1,2.5E1,2.5E1],"tree_param":{"num_deleted":"0","num_feature":"17","num_nodes":"11","size_leaf_vector":"1"}},{"base_weights":[-1.7186841E-2,-8.012597E-2,2.818209E-2,-2.3735493E-2,-3.8548145E-3,-6.400729E-2,1.5310896E-2,-1.3196354E-2,-1.379701E-4],"categories":[],"categories_nodes":[],"categories_segments":[],"categories_sizes":[],"default_left":[0,0,0,0,0,0,0,0,0],"id":18,"left_children":[1,3,-1,-1,5,7,-1,-1,-1],"loss_changes":[3.353595E0,1.7619143E0,0E0,0E0,9.5397604E-1,3.1050125E-1,0E0,0E0,0E0],"parents":[2147483647,0,0,1,1,4,4,5,5],"right_children":[2,4,-1,-1,6,8,-1,-1,-1],"split_conditions":[1.1E1,1.46145E7,2.818209E-2,-2.3735493E-2,2.68E2,2.3536E7,1.5310896E-2,-1.3196354E-2,-1.379701E-4],"split_indices":[11,15,0,0,7,15,0,0,0],"split_type":[0,0,0,0,0,0,0,0,0],"sum_hessian":[1.76E2,1.46E2,3E1,4.7E1,9.9E1,7.2E1,2.7E1,3.4E1,3.8E1],"tree_param":{"num_deleted":"0","num_feature":"17","num_nodes":"9","size_leaf_vector":"1"}},{"base_weights":[9.940606E-3,-7.336819E-2,4.7373462E-2,-1.5953349E-1,5.2987125E-2,-1.14232846E-1,-2.5556827E-2,-8.4248715E-4,1.2286822E-2,-2.59195E-2,-1.0945379E-3],"categories":[],"categories_nodes":[],"categories_segments":[],"categories_sizes":[],"default_left":[0,0,0,0,0,0,0,0,0,0,0],"id":19,"left_children":[1,3,-1,5,7,9,-1,-1,-1,-1,-1],"loss_changes":[7.1055336E0,1.7068943E0,0E0,3.753965E-1,2.7569354E-1,9.7039336E-1,0E0,0E0,0E0,0E0,0E0],"parents":[2147483647,0,0,1,1,3,3,4,4,5,5],"right_children":[2,4,-1,6,8,10,-1,-1,-1,-1,-1],"split_conditions":[7.686343E4,3.7336453E4,4.7373462E-2,2.011E3,1.9729E5,2.004E3,-2.5556827E-2,-8.4248715E-4,1.2286822E-2,-2.59195E-2,-1.0945379E-3],"split_indices":[5,5,0,1,16,1,0,0,0,0,0],"split_type":[0,0,0,0,0,0,0,0,0,0,0],"sum_hessian":[1.82E2,1.55E2,2.7E1,9.2E1,6.3E1,6.4E1,2.8E1,3.4E1,2.9E1,2.6E1,3.8E1],"tree_param":{"num_deleted":"0","num_feature":"17","num_nodes":"11","size_leaf_vector":"1"}},{"base_weights":[2.2391468E-2,-4.757048E-2,4.3053858E-2,-9.0928145E-2,1.3946126E-2,-1.698628E-1,3.7590552E-3,-1.3816375E-1,-2.2672776E-2,-2.1770844E-2,-5.644797E-3],"categories":[],"categories_nodes":[],"categories_segments":[],"categories_sizes":[],"default_left":[0,0,0,0,0,0,0,0,0,0,0],"id":20,"left_children":[1,3,-1,5,-1,7,-1,9,-1,-1,-1],"loss_changes":[5.0746746E0,1.2452885E0,0E0,1.264313E0,0E0,1.0747194E-1,0E0,3.2571363E-1,0E0,0E0,0E0],"parents":[2147483647,0,0,1,1,3,3,5,5,7,7],"right_children":[2,4,-1,6,-1,8,-1,10,-1,-1,-1],"split_conditions":[7.5880875E4,1E0,4.3053858E-2,6.21E2,1.3946126E-2,2.011E3,3.7590552E-3,2.003E3,-2.2672776E-2,-2.1770844E-2,-5.644797E-3],"split_indices":[5,12,0,0,0,1,0,1,0,0,0],"split_type":[0,0,0,0,0,0,0,0,0,0,0],"sum_hessian":[1.76E2,1.51E2,2.5E1,1.23E2,2.8E1,7.6E1,4.7E1,5.1E1,2.5E1,2.5E1,2.6E1],"tree_param":{"num_deleted":"0","num_feature":"17","num_nodes":"11","size_leaf_vector":"1"}},{"base_weights":[-8.599011E-3,-7.050894E-2,3.5171427E-2,-1.433011E-1,1.1384713E-2,-1.7309843E-1,-4.666286E-3,-2.7719438E-2,-1.2337028E-1,-5.0845114E-3,-1.991439E-2],"categories":[],"categories_nodes":[],"categories_segments":[],"categories_sizes":[],"default_left":[0,0,0,0,0,0,0,0,0,0,0],"id":21,"left_children":[1,3,-1,5,-1,7,-1,-1,9,-1,-1],"loss_changes":[4.106974E0,2.123204E0,0E0,3.1731296E-1,0E0,4.1098142E-1,0E0,0E0,3.196041E-1,0E0,0E0],"parents":[2147483647,0,0,1,1,3,3,5,5,8,8],"right_children":[2,4,-1,6,-1,8,-1,-1,10,-1,-1],"split_conditions":[6.7E1,5.1201473E4,3.5171427E-2,1.53E2,1.1384713E-2,2.005E3,-4.666286E-3,-2.7719438E-2,2.011E3,-5.0845114E-3,-1.991439E-2],"split_indices":[12,5,0,8,0,1,0,0,1,0,0],"split_type":[0,0,0,0,0,0,0,0,0,0,0],"sum_hessian":[1.82E2,1.56E2,2.6E1,1.12E2,4.4E1,8.5E1,2.7E1,2.6E1,5.9E1,3.1E1,2.8E1],"tree_param":{"num_deleted":"0","num_feature":"17","num_nodes":"11","size_leaf_vector":"1"}},{"base_weights":[1.3487856E-3,-5.7296526E-2,2.725412E-2,-1.4297324E-1,6.385139E-2,-2.5105713E-2,-9.534172E-2,-3.472329E-3,1.9291943E-2,-5.082469E-3,-1.5116659E-2],"categories":[],"categories_nodes":[],"categories_segments":[],"categories_sizes":[],"default_left":[0,0,0,0,0,0,0,0,0,0,0],"id":22,"left_children":[1,3,-1,5,7,-1,9,-1,-1,-1,-1],"loss_changes":[2.8624609E0,1.5453031E0,0E0,4.2395735E-1,7.955148E-1,0E0,1.463967E-1,0E0,0E0,0E0,0E0],"parents":[2147483647,0,0,1,1,3,3,4,4,6,6],"right_children":[2,4,-1,6,8,-1,10,-1,-1,-1,-1],"split_conditions":[4E0,6.19E2,2.725412E-2,6E1,2.011E3,-2.5105713E-2,2.01E3,-3.472329E-3,1.9291943E-2,-5.082469E-3,-1.5116659E-2],"split_indices":[11,0,0,0,1,0,1,0,0,0,0],"split_type":[0,0,0,0,0,0,0,0,0,0,0],"sum_hessian":[1.78E2,1.47E2,3.1E1,8.6E1,6.1E1,2.5E1,6.1E1,3.5E1,2.6E1,3.5E1,2.6E1],"tree_param":{"num_deleted":"0","num_feature":"17","num_nodes":"11","size_leaf_vector":"1"}},{"base_weights":[6.5245824E-3,-5.2870873E-2,3.340579E-2,-1.0403556E-1,4.7485486E-2,5.037869E-3,-1.5688333E-1,-6.727159E-4,9.987176E-3,-2.0932019E-2,-8.151869E-3],"categories":[],"categories_nodes":[],"categories_segments":[],"categories_sizes":[],"default_left":[0,0,0,0,0,0,0,0,0,0,0],"id":23,"left_children":[1,3,-1,5,7,-1,9,-1,-1,-1,-1],"loss_changes":[3.4221098E0,7.7001065E-1,0E0,8.157879E-1,1.4551179E-1,0E0,2.7537596E-1,0E0,0E0,0E0,0E0],"parents":[2147483647,0,0,1,1,3,3,4,4,6,6],"right_children":[2,4,-1,6,8,-1,10,-1,-1,-1,-1],"split_conditions":[7.5880875E4,4.0780664E4,3.340579E-2,8.67E4,1.9225E5,5.037869E-3,3.75E2,-6.727159E-4,9.987176E-3,-2.0932019E-2,-8.151869E-3],"split_indices":[5,5,0,16,16,0,0,0,0,0,0],"split_type":[0,0,0,0,0,0,0,0,0,0,0],"sum_hessian":[1.74E2,1.48E2,2.6E1,9.8E1,5E1,2.5E1,7.3E1,2.5E1,2.5E1,4.2E1,3.1E1],"tree_param":{"num_deleted":"0","num_feature":"17","num_nodes":"11","size_leaf_vector":"1"}},{"base_weights":[8.042601E-3,-6.1350312E-2,1.7548129E-1,-1.991454E-2,-2.2542268E-2,4.9252203E-3,2.8642682E-2,-8.958741E-2,1.0644536E-2,-1.649315E-2,-2.0126367E-3],"categories":[],"categories_nodes":[],"categories_segments":[],"categories_sizes":[],"default_left":[0,0,0,0,0,0,0,0,0,0,0],"id":24,"left_children":[1,3,5,-1,7,-1,-1,9,-1,-1,-1],"loss_changes":[2.1021962E0,6.7999804E-1,7.2813416E-1,0E0,8.829837E-1,0E0,0E0,3.4732354E-1,0E0,0E0,0E0],"parents":[2147483647,0,0,1,1,2,2,4,4,7,7],"right_children":[2,4,6,-1,8,-1,-1,10,-1,-1,-1],"split_conditions":[8.53E2,2.003E3,2.011E3,-1.991454E-2,1E0,4.9252203E-3,2.8642682E-2,3.06E2,1.0644536E-2,-1.649315E-2,-2.0126367E-3],"split_indices":[0,1,1,0,3,0,0,0,0,0,0],"split_type":[0,0,0,0,0,0,0,0,0,0,0],"sum_hessian":[1.79E2,1.27E2,5.2E1,2.7E1,1E2,2.5E1,2.7E1,6.6E1,3.4E1,3.1E1,3.5E1],"tree_param":{"num_deleted":"0","num_feature":"17","num_nodes":"11","size_leaf_vector":"1"}},{"base_weights":[-4.6724454E-3,-6.749261E-2,2.5436437E-2,-1.1382184E-1,1.1527091E-2,-2.220639E-2,-7.366331E-2,-4.408706E-3,-1.0144289E-2],"categories":[],"categories_nodes":[],"categories_segments":[],"categories_sizes":[],"default_left":[0,0,0,0,0,0,0,0,0],"id":25,"left_children":[1,3,-1,5,-1,-1,7,-1,-1],"loss_changes":[2.7509875E0,1.1646721E0,0E0,4.57448E-1,0E0,0E0,6.2078565E-2,0E0,0E0],"parents":[2147483647,0,0,1,1,3,3,6,6],"right_children":[2,4,-1,6,-1,-1,8,-1,-1],"split_conditions":[1E0,9.61E2,2.5436437E-2,1.96E2,1.1527091E-2,-2.220639E-2,2.125E7,-4.408706E-3,-1.0144289E-2],"split_indices":[12,0,0,0,0,0,15,0,0],"split_type":[0,0,0,0,0,0,0,0,0],"sum_hessian":[1.67E2,1.35E2,3.2E1,1.08E2,2.7E1,2.8E1,8E1,4E1,4E1],"tree_param":{"num_deleted":"0","num_feature":"17","num_nodes":"9","size_leaf_vector":"1"}},{"base_weights":[-7.695326E-3,-6.370192E-2,2.8861437E-2,-9.162627E-2,5.924623E-3,-1.506403E-1,-1.3067888E-2,-2.066685E-2,-1.0224248E-2,-5.8529754E-3,3.6393653E-3],"categories":[],"categories_nodes":[],"categories_segments":[],"categories_sizes":[],"default_left":[0,0,0,0,0,0,0,0,0,0,0],"id":26,"left_children":[1,3,-1,5,-1,7,9,-1,-1,-1,-1],"loss_changes":[2.9225621E0,5.1354915E-1,0E0,5.589931E-1,0E0,1.6597319E-1,1.2130665E-1,0E0,0E0,0E0,0E0],"parents":[2147483647,0,0,1,1,3,3,5,5,6,6],"right_children":[2,4,-1,6,-1,8,10,-1,-1,-1,-1],"split_conditions":[7.686343E4,1E0,2.8861437E-2,3.4997883E4,5.924623E-3,1.2715829E4,1.72E2,-2.066685E-2,-1.0224248E-2,-5.8529754E-3,3.6393653E-3],"split_indices":[5,12,0,5,0,5,8,0,0,0,0],"split_type":[0,0,0,0,0,0,0,0,0,0,0],"sum_hessian":[1.74E2,1.47E2,2.7E1,1.2E2,2.7E1,6.8E1,5.2E1,3E1,3.8E1,2.7E1,2.5E1],"tree_param":{"num_deleted":"0","num_feature":"17","num_nodes":"11","size_leaf_vector":"1"}},{"base_weights":[-1.6501347E-2,-5.429574E-2,2.0799244E-2,-1.6484357E-2,-2.1600157E-2,1.37542365E-2,-7.877363E-3,9.322271E-3,-6.19916E-3],"categories":[],"categories_nodes":[],"categories_segments":[],"categories_sizes":[],"default_left":[0,0,0,0,0,0,0,0,0],"id":27,"left_children":[1,3,-1,-1,5,7,-1,-1,-1],"loss_changes":[1.5300375E0,5.5306095E-1,0E0,0E0,2.4364346E-1,4.5723447E-1,0E0,0E0,0E0],"parents":[2147483647,0,0,1,1,4,4,5,5],"right_children":[2,4,-1,-1,6,8,-1,-1,-1],"split_conditions":[7.686343E4,7.50065E3,2.0799244E-2,-1.6484357E-2,1E0,1.77026E5,-7.877363E-3,9.322271E-3,-6.19916E-3],"split_indices":[5,5,0,0,3,16,0,0,0],"split_type":[0,0,0,0,0,0,0,0,0],"sum_hessian":[1.78E2,1.53E2,2.5E1,3.4E1,1.19E2,7.4E1,4.5E1,3.6E1,3.8E1],"tree_param":{"num_deleted":"0","num_feature":"17","num_nodes":"9","size_leaf_vector":"1"}},{"base_weights":[8.615907E-3,-4.2920645E-2,1.3291897E-1,-8.2036376E-2,1.1368864E-2,4.936439E-3,2.1155065E-2,-1.122034E-1,-1.18939344E-4,-2.3644824E-2,-3.7389665E-3],"categories":[],"categories_nodes":[],"categories_segments":[],"categories_sizes":[],"default_left":[0,0,0,0,0,0,0,0,0,0,0],"id":28,"left_children":[1,3,5,7,-1,-1,-1,9,-1,-1,-1],"loss_changes":[1.1588122E0,7.9344016E-1,3.377688E-1,2.5107455E-1,0E0,0E0,0E0,6.883007E-1,0E0,0E0,0E0],"parents":[2147483647,0,0,1,1,2,2,3,3,7,7],"right_children":[2,4,6,8,-1,-1,-1,10,-1,-1,-1],"split_conditions":[8.08E2,2.3E1,2.011E3,1E0,1.1368864E-2,4.936439E-3,2.1155065E-2,1.54E2,-1.18939344E-4,-2.3644824E-2,-3.7389665E-3],"split_indices":[0,12,1,3,0,0,0,0,0,0,0],"split_type":[0,0,0,0,0,0,0,0,0,0,0],"sum_hessian":[1.79E2,1.27E2,5.2E1,1.02E2,2.5E1,2.6E1,2.6E1,7.4E1,2.8E1,2.7E1,4.7E1],"tree_param":{"num_deleted":"0","num_feature":"17","num_nodes":"11","size_leaf_vector":"1"}},{"base_weights":[-2.234755E-2,-6.349697E-2,1.671428E-2,-1.9950455E-2,-3.0166473E-2,3.2052275E-2,-1.3673966E-2,-4.9338145E-3,1.2770176E-2],"categories":[],"categories_nodes":[],"categories_segments":[],"categories_sizes":[],"default_left":[0,0,0,0,0,0,0,0,0],"id":29,"left_children":[1,3,-1,-1,5,7,-1,-1,-1],"loss_changes":[1.2659974E0,5.9689736E-1,0E0,0E0,7.205146E-1,5.434622E-1,0E0,0E0,0E0],"parents":[2147483647,0,0,1,1,4,4,5,5],"right_children":[2,4,-1,-1,6,8,-1,-1,-1],"split_conditions":[2.3E1,1.0603E5,1.671428E-2,-1.9950455E-2,1E0,6.19E2,-1.3673966E-2,-4.9338145E-3,1.2770176E-2],"split_indices":[12,16,0,0,3,0,0,0,0],"split_type":[0,0,0,0,0,0,0,0,0],"sum_hessian":[1.6E2,1.32E2,2.8E1,2.5E1,1.07E2,6.8E1,3.9E1,3.7E1,3.1E1],"tree_param":{"num_deleted":"0","num_feature":"17","num_nodes":"9","size_leaf_vector":"1"}},{"base_weights":[-1.11923115E-2,-4.9585167E-2,1.51741905E-2,-1.9240776E-2,-1.0312487E-2,-1.0659122E-2,2.8559592E-2,-3.1365946E-2,1.2815857E-2,3.3258356E-3,-9.243506E-3],"categories":[],"categories_nodes":[],"categories_segments":[],"categories_sizes":[],"default_left":[0,0,0,0,0,0,0,0,0,0,0],"id":30,"left_children":[1,3,-1,-1,5,-1,7,9,-1,-1,-1],"loss_changes":[1.1147493E0,8.057155E-1,0E0,0E0,4.2969537E-1,0E0,4.9343866E-1,2.0829475E-1,0E0,0E0,0E0],"parents":[2147483647,0,0,1,1,4,4,6,6,7,7],"right_children":[2,4,-1,-1,6,-1,8,10,-1,-1,-1],"split_conditions":[4E0,7.0461626E3,1.51741905E-2,-1.9240776E-2,2.006E3,-1.0659122E-2,5.7165688E4,1.77026E5,1.2815857E-2,3.3258356E-3,-9.243506E-3],"split_indices":[11,5,0,0,1,0,5,16,0,0,0],"split_type":[0,0,0,0,0,0,0,0,0,0,0],"sum_hessian":[1.76E2,1.43E2,3.3E1,3E1,1.13E2,3.2E1,8.1E1,5.1E1,3E1,2.5E1,2.6E1],"tree_param":{"num_deleted":"0","num_feature":"17","num_nodes":"11","size_leaf_vector":"1"}},{"base_weights":[1.160025E-2,-2.3570642E-2,2.1135762E-2,-4.6027333E-2,7.877333E-3,-1.59189E-2,-1.5220834E-2,-7.248914E-2,5.8383304E-3,-1.0115325E-2,-3.9016984E-3],"categories":[],"categories_nodes":[],"categories_segments":[],"categories_sizes":[],"default_left":[0,0,0,0,0,0,0,0,0,0,0],"id":31,"left_children":[1,3,-1,5,-1,-1,7,9,-1,-1,-1],"loss_changes":[1.2204183E0,3.4377518E-1,0E0,4.22883E-1,0E0,0E0,4.1310507E-1,4.882303E-2,0E0,0E0,0E0],"parents":[2147483647,0,0,1,1,3,3,6,6,7,7],"right_children":[2,4,-1,6,-1,-1,8,10,-1,-1,-1],"split_conditions":[7.686343E4,1E0,2.1135762E-2,1.2833333E7,7.877333E-3,-1.59189E-2,6.21E2,9E0,5.8383304E-3,-1.0115325E-2,-3.9016984E-3],"split_indices":[5,12,0,15,0,0,0,8,0,0,0],"split_type":[0,0,0,0,0,0,0,0,0,0,0],"sum_hessian":[1.72E2,1.47E2,2.5E1,1.21E2,2.6E1,2.5E1,9.6E1,5.4E1,4.2E1,2.8E1,2.6E1],"tree_param":{"num_deleted":"0","num_feature":"17","num_nodes":"11","size_leaf_vector":"1"}},{"base_weights":[2.603613E-2,-8.747608E-3,2.1831483E-2,7.129439E-3,-3.2822803E-2,-1.2340254E-2,-2.5996747E-3,9.017481E-3,-4.084629E-2,-1.0350197E-2,2.7169315E-3],"categories":[],"categories_nodes":[],"categories_segments":[],"categories_sizes":[],"default_left":[0,0,0,0,0,0,0,0,0,0,0],"id":32,"left_children":[1,3,-1,-1,5,-1,7,-1,9,-1,-1],"loss_changes":[1.1790279E0,2.9139408E-1,0E0,0E0,3.1724113E-1,0E0,3.1593454E-1,0E0,2.712906E-1,0E0,0E0],"parents":[2147483647,0,0,1,1,4,4,6,6,8,8],"right_children":[2,4,-1,-1,6,-1,8,-1,10,-1,-1],"split_conditions":[7.686343E4,1.24E2,2.1831483E-2,7.129439E-3,1.52635E7,-1.2340254E-2,1.6266667E5,9.017481E-3,4.139261E4,-1.0350197E-2,2.7169315E-3],"split_indices":[5,0,0,0,15,0,16,0,5,0,0],"split_type":[0,0,0,0,0,0,0,0,0,0,0],"sum_hessian":[1.75E2,1.49E2,2.6E1,3.4E1,1.15E2,2.8E1,8.7E1,2.5E1,6.2E1,3.2E1,3E1],"tree_param":{"num_deleted":"0","num_feature":"17","num_nodes":"11","size_leaf_vector":"1"}},{"base_weights":[6.8262047E-3,-3.1223625E-2,1.662345E-2,-1.4620773E-2,-6.137271E-3,5.5294115E-2,-8.793213E-2,1.1794626E-3,1.27356425E-2,-4.93084E-3,-1.2763045E-2],"categories":[],"categories_nodes":[],"categories_segments":[],"categories_sizes":[],"default_left":[0,0,0,0,0,0,0,0,0,0,0],"id":33,"left_children":[1,3,-1,-1,5,7,9,-1,-1,-1,-1],"loss_changes":[1.1333656E0,4.34667E-1,0E0,0E0,6.3295853E-1,2.2419438E-1,7.650486E-2,0E0,0E0,0E0,0E0],"parents":[2147483647,0,0,1,1,4,4,5,5,6,6],"right_children":[2,4,-1,-1,6,8,10,-1,-1,-1,-1],"split_conditions":[4E0,6E1,1.662345E-2,-1.4620773E-2,1E0,7.08E2,7.82E2,1.1794626E-3,1.27356425E-2,-4.93084E-3,-1.2763045E-2],"split_indices":[11,0,0,0,3,0,0,0,0,0,0],"split_type":[0,0,0,0,0,0,0,0,0,0,0],"sum_hessian":[1.85E2,1.5E2,3.5E1,2.6E1,1.24E2,7.1E1,5.3E1,4.5E1,2.6E1,2.8E1,2.5E1],"tree_param":{"num_deleted":"0","num_feature":"17","num_nodes":"11","size_leaf_vector":"1"}},{"base_weights":[1.8973692E-3,-2.7747948E-2,1.5516979E-2,-7.004077E-2,3.1768188E-2,-1.1553342E-2,-2.4002616E-3,1.5638232E-2,-7.911982E-3],"categories":[],"categories_nodes":[],"categories_segments":[],"categories_sizes":[],"default_left":[0,0,0,0,0,0,0,0,0],"id":34,"left_children":[1,3,-1,5,7,-1,-1,-1,-1],"loss_changes":[8.1310374E-1,3.7979093E-1,0E0,1.8153387E-1,8.829203E-1,0E0,0E0,0E0,0E0],"parents":[2147483647,0,0,1,1,3,3,4,4],"right_children":[2,4,-1,6,8,-1,-1,-1,-1],"split_conditions":[3.8256E7,6E0,1.5516979E-2,1.46145E7,2.01E3,-1.1553342E-2,-2.4002616E-3,1.5638232E-2,-7.911982E-3],"split_indices":[15,9,0,15,1,0,0,0,0],"split_type":[0,0,0,0,0,0,0,0,0],"sum_hessian":[1.77E2,1.49E2,2.8E1,8.7E1,6.2E1,4.3E1,4.4E1,2.9E1,3.3E1],"tree_param":{"num_deleted":"0","num_feature":"17","num_nodes":"9","size_leaf_vector":"1"}},{"base_weights":[6.3763144E-3,-1.8880593E-2,1.5087257E-2,1.18021825E-2,-1.6448764E-2,1.2430018E-2,-1.7861959E-2,-1.4408869E-2,2.9069323E-2,-7.314736E-5,8.296813E-3],"categories":[],"categories_nodes":[],"categories_segments":[],"categories_sizes":[],"default_left":[0,0,0,0,0,0,0,0,0,0,0],"id":35,"left_children":[1,3,-1,5,-1,-1,7,-1,9,-1,-1],"loss_changes":[6.378666E-1,6.676179E-1,0E0,4.160276E-1,0E0,0E0,5.906628E-1,0E0,1.1731528E-1,0E0,0E0],"parents":[2147483647,0,0,1,1,3,3,6,6,8,8],"right_children":[2,4,-1,6,-1,-1,8,-1,10,-1,-1],"split_conditions":[3.37225E5,2.3435E5,1.5087257E-2,8.6695E4,-1.6448764E-2,1.2430018E-2,1.3007E5,-1.4408869E-2,1.978675E5,-7.314736E-5,8.296813E-3],"split_indices":[16,16,0,16,0,0,16,0,16,0,0],"split_type":[0,0,0,0,0,0,0,0,0,0,0],"sum_hessian":[1.73E2,1.48E2,2.5E1,1.23E2,2.5E1,2.5E1,9.8E1,2.6E1,7.2E1,4.7E1,2.5E1],"tree_param":{"num_deleted":"0","num_feature":"17","num_nodes":"11","size_leaf_vector":"1"}},{"base_weights":[2.5252317E-4,-2.8934708E-2,1.2386161E-2,-1.1483442E-2,1.1270559E-2,-5.934156E-3,7.3676206E-2,1.607286E-2,-1.6104939E-3],"categories":[],"categories_nodes":[],"categories_segments":[],"categories_sizes":[],"default_left":[0,0,0,0,0,0,0,0,0],"id":36,"left_children":[1,3,-1,-1,5,-1,7,-1,-1],"loss_changes":[6.421657E-1,4.9861565E-1,0E0,0E0,4.4062492E-1,0E0,4.1681868E-1,0E0,0E0],"parents":[2147483647,0,0,1,1,4,4,6,6],"right_children":[2,4,-1,-1,6,-1,8,-1,-1],"split_conditions":[4E0,1.46145E7,1.2386161E-2,-1.1483442E-2,6.19E2,-5.934156E-3,1.83E2,1.607286E-2,-1.6104939E-3],"split_indices":[11,15,0,0,0,0,9,0,0],"split_type":[0,0,0,0,0,0,0,0,0],"sum_hessian":[1.76E2,1.43E2,3.3E1,4.5E1,9.8E1,4.6E1,5.2E1,2.6E1,2.6E1],"tree_param":{"num_deleted":"0","num_feature":"17","num_nodes":"9","size_leaf_vector":"1"}},{"base_weights":[1.2861115E-3,-2.3595497E-2,1.431558E-2,-9.907612E-3,-6.768309E-3,4.2529937E-2,-5.59608E-2,1.1312105E-2,-3.6264502E-3,-1.3745049E-2,2.9824215E-3],"categories":[],"categories_nodes":[],"categories_segments":[],"categories_sizes":[],"default_left":[0,0,0,0,0,0,0,0,0,0,0],"id":37,"left_children":[1,3,-1,-1,5,7,9,-1,-1,-1,-1],"loss_changes":[6.3876814E-1,1.9492888E-1,0E0,0E0,3.1036818E-1,3.6008224E-1,4.5149744E-1,0E0,0E0,0E0,0E0],"parents":[2147483647,0,0,1,1,4,4,5,5,6,6],"right_children":[2,4,-1,-1,6,8,10,-1,-1,-1,-1],"split_conditions":[3.8256E7,2.001E3,1.431558E-2,-9.907612E-3,3E0,2.01E3,7.54E2,1.1312105E-2,-3.6264502E-3,-1.3745049E-2,2.9824215E-3],"split_indices":[15,1,0,0,10,1,0,0,0,0,0],"split_type":[0,0,0,0,0,0,0,0,0,0,0],"sum_hessian":[1.79E2,1.53E2,2.6E1,2.7E1,1.26E2,6.3E1,6.3E1,3.3E1,3E1,3.2E1,3.1E1],"tree_param":{"num_deleted":"0","num_feature":"17","num_nodes":"11","size_leaf_vector":"1"}},{"base_weights":[-1.394072E-3,8.784653E-3,-2.725081E-2,-1.7821131E-2,7.7246213E-3,-5.969961E-2,6.61797E-2,-9.271679E-3,-2.4471332E-3,1.2906442E-2,-1.2543885E-3],"categories":[],"categories_nodes":[],"categories_segments":[],"categories_sizes":[],"default_left":[0,0,0,0,0,0,0,0,0,0,0],"id":38,"left_children":[1,-1,3,-1,5,7,9,-1,-1,-1,-1],"loss_changes":[4.108162E-1,0E0,7.30004E-1,0E0,4.493165E-1,5.9377447E-2,3.0360013E-1,0E0,0E0,0E0,0E0],"parents":[2147483647,0,0,2,2,4,4,5,5,6,6],"right_children":[2,-1,4,-1,6,8,10,-1,-1,-1,-1],"split_conditions":[1.83E2,8.784653E-3,1.45795E7,-1.7821131E-2,6.21E2,2.9223635E4,1.78E2,-9.271679E-3,-2.4471332E-3,1.2906442E-2,-1.2543885E-3],"split_indices":[0,0,15,0,0,5,9,0,0,0,0],"split_type":[0,0,0,0,0,0,0,0,0,0,0],"sum_hessian":[1.76E2,3.9E1,1.37E2,2.5E1,1.12E2,5.2E1,6E1,2.6E1,2.6E1,3.3E1,2.7E1],"tree_param":{"num_deleted":"0","num_feature":"17","num_nodes":"11","size_leaf_vector":"1"}},{"base_weights":[4.218206E-3,-1.8894918E-2,1.4184575E-2,6.6630975E-3,-4.5328222E-2,-8.177508E-2,1.428907E-3,-1.1950005E-2,-5.6214216E-3],"categories":[],"categories_nodes":[],"categories_segments":[],"categories_sizes":[],"default_left":[0,0,0,0,0,0,0,0,0],"id":39,"left_children":[1,3,-1,-1,5,7,-1,-1,-1],"loss_changes":[5.752606E-1,3.5343367E-1,0E0,0E0,2.5973916E-1,6.46393E-2,0E0,0E0,0E0],"parents":[2147483647,0,0,1,1,4,4,5,5],"right_children":[2,4,-1,-1,6,8,-1,-1,-1],"split_conditions":[7.686343E4,1.24E2,1.4184575E-2,6.6630975E-3,1.08E2,1.87175E7,1.428907E-3,-1.1950005E-2,-5.6214216E-3],"split_indices":[5,0,0,0,8,15,0,0,0],"split_type":[0,0,0,0,0,0,0,0,0],"sum_hessian":[1.79E2,1.54E2,2.5E1,3.6E1,1.18E2,7.3E1,4.5E1,2.8E1,4.5E1],"tree_param":{"num_deleted":"0","num_feature":"17","num_nodes":"9","size_leaf_vector":"1"}},{"base_weights":[-1.2085859E-2,-4.0912684E-2,1.08664E-2,-1.4076278E-2,-1.1758491E-2,5.1638626E-2,-9.30291E-3,9.919471E-3,-1.1349152E-3],"categories":[],"categories_nodes":[],"categories_segments":[],"categories_sizes":[],"default_left":[0,0,0,0,0,0,0,0,0],"id":40,"left_children":[1,3,-1,-1,5,7,-1,-1,-1],"loss_changes":[6.1359197E-1,4.1171378E-1,0E0,0E0,5.767117E-1,1.8983926E-1,0E0,0E0,0E0],"parents":[2147483647,0,0,1,1,4,4,5,5],"right_children":[2,4,-1,-1,6,8,-1,-1,-1],"split_conditions":[4E0,7.0461626E3,1.08664E-2,-1.4076278E-2,1E0,2E0,-9.30291E-3,9.919471E-3,-1.1349152E-3],"split_indices":[11,5,0,0,3,10,0,0,0],"split_type":[0,0,0,0,0,0,0,0,0],"sum_hessian":[1.74E2,1.41E2,3.3E1,3.1E1,1.1E2,6.2E1,4.8E1,3.5E1,2.7E1],"tree_param":{"num_deleted":"0","num_feature":"17","num_nodes":"9","size_leaf_vector":"1"}},{"base_weights":[5.6003868E-3,-2.1538483E-2,1.703058E-2,-4.3326646E-2,9.074476E-3,-1.6903954E-2,-8.193309E-3,2.525904E-2,-1.1080849E-2,-6.8111736E-3,8.189325E-3,2.5036202E-3,-3.962148E-3],"categories":[],"categories_nodes":[],"categories_segments":[],"categories_sizes":[],"default_left":[0,0,0,0,0,0,0,0,0,0,0,0,0],"id":41,"left_children":[1,3,-1,5,-1,-1,7,9,-1,11,-1,-1,-1],"loss_changes":[8.216633E-1,3.904701E-1,0E0,5.860379E-1,0E0,0E0,3.632344E-1,1.4585951E-1,0E0,5.532792E-2,0E0,0E0,0E0],"parents":[2147483647,0,0,1,1,3,3,6,6,7,7,9,9],"right_children":[2,4,-1,6,-1,-1,8,10,-1,12,-1,-1,-1],"split_conditions":[6.7E1,2E0,1.703058E-2,1.0295E5,9.074476E-3,-1.6903954E-2,2.3435E5,5.1201473E4,-1.1080849E-2,1.72E5,8.189325E-3,2.5036202E-3,-3.962148E-3],"split_indices":[12,11,0,16,0,0,16,5,0,16,0,0,0],"split_type":[0,0,0,0,0,0,0,0,0,0,0,0,0],"sum_hessian":[1.82E2,1.57E2,2.5E1,1.32E2,2.5E1,2.8E1,1.04E2,7.9E1,2.5E1,5.1E1,2.8E1,2.6E1,2.5E1],"tree_param":{"num_deleted":"0","num_feature":"17","num_nodes":"13","size_leaf_vector":"1"}},{"base_weights":[1.0586389E-2,-1.9330652E-2,8.460008E-2,-5.165637E-2,7.6273135E-3,2.3854394E-3,1.399626E-2,-8.8680536E-2,-1.0608946E-4,-6.127671E-3,-1.1208146E-2],"categories":[],"categories_nodes":[],"categories_segments":[],"categories_sizes":[],"default_left":[0,0,0,0,0,0,0,0,0,0,0],"id":42,"left_children":[1,3,5,7,-1,-1,-1,9,-1,-1,-1],"loss_changes":[4.0020412E-1,4.0260944E-1,1.7153904E-1,1.8161169E-1,0E0,0E0,0E0,2.9043436E-2,0E0,0E0,0E0],"parents":[2147483647,0,0,1,1,2,2,3,3,7,7],"right_children":[2,4,6,8,-1,-1,-1,10,-1,-1,-1],"split_conditions":[8.08E2,1E0,2.498975E7,2.2E1,7.6273135E-3,2.3854394E-3,1.399626E-2,2.008E3,-1.0608946E-4,-6.127671E-3,-1.1208146E-2],"split_indices":[0,12,15,8,0,0,0,1,0,0,0],"split_type":[0,0,0,0,0,0,0,0,0,0,0],"sum_hessian":[1.79E2,1.28E2,5.1E1,9.6E1,3.2E1,2.5E1,2.6E1,5.5E1,4.1E1,2.7E1,2.8E1],"tree_param":{"num_deleted":"0","num_feature":"17","num_nodes":"11","size_leaf_vector":"1"}},{"base_weights":[7.677572E-3,-1.1297381E-2,1.219618E-2,3.600088E-2,-4.092518E-2,-2.2909078E-3,1.1103228E-2,-2.9087053E-3,-9.277917E-3,4.0522898E-3,-4.06424E-3],"categories":[],"categories_nodes":[],"categories_segments":[],"categories_sizes":[],"default_left":[0,0,0,0,0,0,0,0,0,0,0],"id":43,"left_children":[1,3,-1,5,7,-1,-1,9,-1,-1,-1],"loss_changes":[3.9605173E-1,2.2148427E-1,0E0,2.7216953E-1,1.9094686E-1,0E0,0E0,9.5060535E-2,0E0,0E0,0E0],"parents":[2147483647,0,0,1,1,3,3,4,4,7,7],"right_children":[2,4,-1,6,8,-1,-1,10,-1,-1,-1],"split_conditions":[7.894556E4,2.0038172E4,1.219618E-2,7.50065E3,1E0,-2.2909078E-3,1.1103228E-2,2E0,-9.277917E-3,4.0522898E-3,-4.06424E-3],"split_indices":[5,5,0,5,3,0,0,10,0,0,0],"split_type":[0,0,0,0,0,0,0,0,0,0,0],"sum_hessian":[1.81E2,1.56E2,2.5E1,6E1,9.6E1,3.4E1,2.6E1,5.6E1,4E1,2.6E1,3E1],"tree_param":{"num_deleted":"0","num_feature":"17","num_nodes":"11","size_leaf_vector":"1"}},{"base_weights":[-1.0021936E-2,9.926818E-3,-9.495383E-3,-1.40078785E-2,8.012546E-3,1.1120899E-2,-9.175492E-3,4.01101E-2,-4.8343064E-3,9.0893265E-3,-8.5538806E-4],"categories":[],"categories_nodes":[],"categories_segments":[],"categories_sizes":[],"default_left":[0,0,0,0,0,0,0,0,0,0,0],"id":44,"left_children":[1,3,-1,5,-1,7,-1,9,-1,-1,-1],"loss_changes":[2.9405397E-1,2.3802823E-1,0E0,2.0811135E-1,0E0,1.415679E-1,0E0,1.3669956E-1,0E0,0E0,0E0],"parents":[2147483647,0,0,1,1,3,3,5,5,7,7],"right_children":[2,4,-1,6,-1,8,-1,10,-1,-1,-1],"split_conditions":[2.5524667E5,5.3826355E4,-9.495383E-3,6E0,8.012546E-3,2.01E3,-9.175492E-3,1.9E2,-4.8343064E-3,9.0893265E-3,-8.5538806E-4],"split_indices":[16,5,0,10,0,1,0,0,0,0,0],"split_type":[0,0,0,0,0,0,0,0,0,0,0],"sum_hessian":[1.72E2,1.4E2,3.2E1,1.05E2,3.5E1,8E1,2.5E1,5.4E1,2.6E1,2.6E1,2.8E1],"tree_param":{"num_deleted":"0","num_feature":"17","num_nodes":"11","size_leaf_vector":"1"}},{"base_weights":[-1.1486372E-2,-9.544321E-3,3.4412746E-3,4.34015E-2,-4.3621358E-2,5.57356E-3,1.2175284E-2,-1.0264948E-2,1.4966568E-3,5.1977555E-3,-4.44742E-3],"categories":[],"categories_nodes":[],"categories_segments":[],"categories_sizes":[],"default_left":[0,0,0,0,0,0,0,0,0,0,0],"id":45,"left_children":[1,-1,3,5,7,9,-1,-1,-1,-1,-1],"loss_changes":[2.1589226E-1,0E0,2.7834633E-1,2.3643099E-1,2.3670313E-1,1.3004455E-1,0E0,0E0,0E0,0E0,0E0],"parents":[2147483647,0,0,2,2,3,3,4,4,5,5],"right_children":[2,-1,4,6,8,10,-1,-1,-1,-1,-1],"split_conditions":[2.001E3,-9.544321E-3,3E0,4.346551E4,5.26707E4,2.01E3,1.2175284E-2,-1.0264948E-2,1.4966568E-3,5.1977555E-3,-4.44742E-3],"split_indices":[1,0,10,5,5,1,0,0,0,0,0],"split_type":[0,0,0,0,0,0,0,0,0,0,0],"sum_hessian":[1.71E2,2.5E1,1.46E2,7.9E1,6.7E1,5.4E1,2.5E1,3.3E1,3.4E1,2.8E1,2.6E1],"tree_param":{"num_deleted":"0","num_feature":"17","num_nodes":"11","size_leaf_vector":"1"}},{"base_weights":[1.1433596E-2,-9.886693E-3,9.699724E-3,-6.5795407E-3,2.0605942E-2,4.7349382E-2,-3.6242146E-3,-4.0933E-4,9.42395E-3],"categories":[],"categories_nodes":[],"categories_segments":[],"categories_sizes":[],"default_left":[0,0,0,0,0,0,0,0,0],"id":46,"left_children":[1,3,-1,-1,5,7,-1,-1,-1],"loss_changes":[3.2020125E-1,2.4173313E-1,0E0,0E0,1.4158487E-1,1.5235141E-1,0E0,0E0,0E0],"parents":[2147483647,0,0,1,1,4,4,5,5],"right_children":[2,4,-1,-1,6,8,-1,-1,-1],"split_conditions":[4E0,1.5126E7,9.699724E-3,-6.5795407E-3,2.3435E5,6.05E2,-3.6242146E-3,-4.0933E-4,9.42395E-3],"split_indices":[11,15,0,0,16,0,0,0,0],"split_type":[0,0,0,0,0,0,0,0,0],"sum_hessian":[1.74E2,1.4E2,3.4E1,4.9E1,9.1E1,6.2E1,2.9E1,3E1,3.2E1],"tree_param":{"num_deleted":"0","num_feature":"17","num_nodes":"9","size_leaf_vector":"1"}},{"base_weights":[7.1432763E-3,-4.0804114E-2,1.3349079E-2,-1.6253097E-2,-2.2606392E-4,-8.787222E-3,3.8288552E-2,8.74385E-3,-4.0689763E-3],"categories":[],"categories_nodes":[],"categories_segments":[],"categories_sizes":[],"default_left":[0,0,0,0,0,0,0,0,0],"id":47,"left_children":[1,3,-1,-1,5,-1,7,-1,-1],"loss_changes":[1.0353125E0,6.1245364E-1,0E0,0E0,3.2067636E-1,0E0,2.5975528E-1,0E0,0E0],"parents":[2147483647,0,0,1,1,4,4,6,6],"right_children":[2,4,-1,-1,6,-1,8,-1,-1],"split_conditions":[2.8377E7,1E0,1.3349079E-2,-1.6253097E-2,1.45795E7,-8.787222E-3,2.009E3,8.74385E-3,-4.0689763E-3],"split_indices":[15,2,0,0,15,0,1,0,0],"split_type":[0,0,0,0,0,0,0,0,0],"sum_hessian":[1.69E2,1.23E2,4.6E1,3E1,9.3E1,2.8E1,6.5E1,4E1,2.5E1],"tree_param":{"num_deleted":"0","num_feature":"17","num_nodes":"9","size_leaf_vector":"1"}},{"base_weights":[1.2947644E-2,-1.26970885E-2,1.1955288E-2,8.379545E-3,-9.115491E-3,-2.6196761E-2,9.253996E-3,-7.729375E-3,4.184431E-3,4.73538E-3,-3.9139916E-3],"categories":[],"categories_nodes":[],"categories_segments":[],"categories_sizes":[],"default_left":[0,0,0,0,0,0,0,0,0,0,0],"id":48,"left_children":[1,3,-1,5,-1,7,-1,-1,9,-1,-1],"loss_changes":[4.936132E-1,2.4219334E-1,0E0,3.3997914E-1,0E0,1.2917158E-1,0E0,0E0,1.0097851E-1,0E0,0E0],"parents":[2147483647,0,0,1,1,3,3,5,5,8,8],"right_children":[2,4,-1,6,-1,8,-1,-1,10,-1,-1],"split_conditions":[1E0,2.36195E5,1.1955288E-2,1.9395769E5,-9.115491E-3,2.005E3,9.253996E-3,-7.729375E-3,2E0,4.73538E-3,-3.9139916E-3],"split_indices":[12,16,0,16,0,1,0,0,9,0,0],"split_type":[0,0,0,0,0,0,0,0,0,0,0],"sum_hessian":[1.79E2,1.45E2,3.4E1,1.15E2,3E1,8.2E1,3.3E1,3E1,5.2E1,2.6E1,2.6E1],"tree_param":{"num_deleted":"0","num_feature":"17","num_nodes":"11","size_leaf_vector":"1"}},{"base_weights":[4.845951E-3,7.007886E-2,-2.2631746E-2,1.4404359E-2,-1.1055033E-4,5.881116E-3,-1.2263681E-2,-5.595959E-2,7.2752694E-3,-9.718346E-3,-1.4189943E-3],"categories":[],"categories_nodes":[],"categories_segments":[],"categories_sizes":[],"default_left":[0,0,0,0,0,0,0,0,0,0,0],"id":49,"left_children":[1,3,5,-1,-1,7,-1,9,-1,-1,-1],"loss_changes":[3.206421E-1,2.7921122E-1,3.6000147E-1,0E0,0E0,4.1347435E-1,0E0,8.816013E-2,0E0,0E0,0E0],"parents":[2147483647,0,0,1,1,2,2,5,5,7,7],"right_children":[2,4,6,-1,-1,8,-1,10,-1,-1,-1],"split_conditions":[2.8E2,8.8E4,2.5524667E5,1.4404359E-2,-1.1055033E-4,1.66E2,-1.2263681E-2,9E0,7.2752694E-3,-9.718346E-3,-1.4189943E-3],"split_indices":[0,16,16,0,0,9,0,8,0,0,0],"split_type":[0,0,0,0,0,0,0,0,0,0,0],"sum_hessian":[1.77E2,5.2E1,1.25E2,2.5E1,2.7E1,9.8E1,2.7E1,5.1E1,4.7E1,2.5E1,2.6E1],"tree_param":{"num_deleted":"0","num_feature":"17","num_nodes":"11","size_leaf_vector":"1"}},{"base_weights":[5.6913737E-3,-1.8967729E-2,1.5153023E-2,5.450365E-3,-3.572727E-2,-1.1772725E-2,-1.217448E-2,1.1578191E-2,-7.2817975E-3,4.505317E-3,-1.2045709E-3],"categories":[],"categories_nodes":[],"categories_segments":[],"categories_sizes":[],"default_left":[0,0,0,0,0,0,0,0,0,0,0],"id":50,"left_children":[1,3,-1,-1,5,-1,7,9,-1,-1,-1],"loss_changes":[6.46604E-1,1.9157466E-1,0E0,0E0,2.4191412E-1,0E0,1.4344716E-1,5.7480987E-2,0E0,0E0,0E0],"parents":[2147483647,0,0,1,1,4,4,6,6,7,7],"right_children":[2,4,-1,-1,6,-1,8,10,-1,-1,-1],"split_conditions":[7.686343E4,4.7235073E3,1.5153023E-2,5.450365E-3,1E0,-1.1772725E-2,2.98E2,2E0,-7.2817975E-3,4.505317E-3,-1.2045709E-3],"split_indices":[5,5,0,0,2,0,7,9,0,0,0],"split_type":[0,0,0,0,0,0,0,0,0,0,0],"sum_hessian":[1.78E2,1.53E2,2.5E1,2.8E1,1.25E2,2.7E1,9.8E1,7.1E1,2.7E1,2.9E1,4.2E1],"tree_param":{"num_deleted":"0","num_feature":"17","num_nodes":"11","size_leaf_vector":"1"}},{"base_weights":[-1.5214096E-2,-8.239934E-3,8.137296E-3,6.0941447E-3,-2.0482615E-2,-5.6512833E-2,4.0188436E-3,-1.4597951E-2,4.1674078E-3],"categories":[],"categories_nodes":[],"categories_segments":[],"categories_sizes":[],"default_left":[0,0,0,0,0,0,0,0,0],"id":51,"left_children":[1,-1,3,-1,5,7,-1,-1,-1],"loss_changes":[2.799292E-1,0E0,2.022445E-1,0E0,1.9245237E-1,4.8922873E-1,0E0,0E0,0E0],"parents":[2147483647,0,0,2,2,4,4,5,5],"right_children":[2,-1,4,-1,6,8,-1,-1,-1],"split_conditions":[2.005E3,-8.239934E-3,2.01E3,6.0941447E-3,8.8E1,3.8256E7,4.0188436E-3,-1.4597951E-2,4.1674078E-3],"split_indices":[1,0,1,0,7,15,0,0,0],"split_type":[0,0,0,0,0,0,0,0,0],"sum_hessian":[1.77E2,4.5E1,1.32E2,4.6E1,8.6E1,5.4E1,3.2E1,2.8E1,2.6E1],"tree_param":{"num_deleted":"0","num_feature":"17","num_nodes":"9","size_leaf_vector":"1"}},{"base_weights":[2.477678E-2,-6.0195597E-3,1.5934322E-2,-7.5872326E-3,1.949705E-2,7.5458423E-3,-1.6410142E-2,1.8909595E-3,-7.147549E-3],"categories":[],"categories_nodes":[],"categories_segments":[],"categories_sizes":[],"default_left":[0,0,0,0,0,0,0,0,0],"id":52,"left_children":[1,3,-1,-1,5,-1,7,-1,-1],"loss_changes":[7.3447436E-1,2.599281E-1,0E0,0E0,2.1624577E-1,0E0,1.2971455E-1,0E0,0E0],"parents":[2147483647,0,0,1,1,4,4,6,6],"right_children":[2,4,-1,-1,6,-1,8,-1,-1],"split_conditions":[1E0,2.003E3,1.5934322E-2,-7.5872326E-3,2.01E3,7.5458423E-3,9E0,1.8909595E-3,-7.147549E-3],"split_indices":[12,1,0,0,1,0,8,0,0],"split_type":[0,0,0,0,0,0,0,0,0],"sum_hessian":[1.76E2,1.44E2,3.2E1,3.8E1,1.06E2,4.1E1,6.5E1,4E1,2.5E1],"tree_param":{"num_deleted":"0","num_feature":"17","num_nodes":"9","size_leaf_vector":"1"}},{"base_weights":[2.994433E-2,5.499768E-3,1.679386E-2,9.534816E-3,-1.3537289E-2,-7.873242E-3,9.286421E-3,4.7736052E-2,-4.91586E-3,7.0540677E-3,1.8709922E-3],"categories":[],"categories_nodes":[],"categories_segments":[],"categories_sizes":[],"default_left":[0,0,0,0,0,0,0,0,0,0,0],"id":53,"left_children":[1,3,-1,-1,5,-1,7,9,-1,-1,-1],"loss_changes":[5.8264166E-1,2.544372E-1,0E0,0E0,1.8375447E-1,0E0,2.0908809E-1,3.5748243E-2,0E0,0E0,0E0],"parents":[2147483647,0,0,1,1,4,4,6,6,7,7],"right_children":[2,4,-1,-1,6,-1,8,10,-1,-1,-1],"split_conditions":[7.38383E4,8.927E4,1.679386E-2,9.534816E-3,1.404325E5,-7.873242E-3,1.12E2,2.11222E5,-4.91586E-3,7.0540677E-3,1.8709922E-3],"split_indices":[5,16,0,0,16,0,10,16,0,0,0],"split_type":[0,0,0,0,0,0,0,0,0,0,0],"sum_hessian":[1.72E2,1.47E2,2.5E1,2.5E1,1.22E2,3.1E1,9.1E1,5.5E1,3.6E1,3E1,2.5E1],"tree_param":{"num_deleted":"0","num_feature":"17","num_nodes":"11","size_leaf_vector":"1"}},{"base_weights":[-4.5944643E-3,-2.2513106E-2,9.844198E-3,2.698033E-3,-1.4770292E-2,-2.2866867E-2,1.0107032E-2,5.152117E-3,-4.705955E-2,-1.053225E-2,-9.238925E-4],"categories":[],"categories_nodes":[],"categories_segments":[],"categories_sizes":[],"default_left":[0,0,0,0,0,0,0,0,0,0,0],"id":54,"left_children":[1,3,-1,5,-1,7,-1,-1,9,-1,-1],"loss_changes":[3.3639172E-1,4.896061E-1,0E0,3.292453E-1,0E0,1.8958779E-1,0E0,0E0,1.7310667E-1,0E0,0E0],"parents":[2147483647,0,0,1,1,3,3,5,5,8,8],"right_children":[2,4,-1,6,-1,8,-1,-1,10,-1,-1],"split_conditions":[3.83522E7,2.28365E5,9.844198E-3,1.9395769E5,-1.4770292E-2,6.289E4,1.0107032E-2,5.152117E-3,1.3007E5,-1.053225E-2,-9.238925E-4],"split_indices":[15,16,0,16,0,16,0,0,16,0,0],"split_type":[0,0,0,0,0,0,0,0,0,0,0],"sum_hessian":[1.8E2,1.54E2,2.6E1,1.29E2,2.5E1,1.03E2,2.6E1,2.5E1,7.8E1,3E1,4.8E1],"tree_param":{"num_deleted":"0","num_feature":"17","num_nodes":"11","size_leaf_vector":"1"}},{"base_weights":[-4.9581495E-3,1.5950173E-2,-9.193844E-3,-6.480262E-3,1.2317534E-2,6.9396994E-3,-2.8093353E-2,-4.614062E-3,-7.2153956E-3,2.3880992E-3,-4.5602694E-3],"categories":[],"categories_nodes":[],"categories_segments":[],"categories_sizes":[],"default_left":[0,0,0,0,0,0,0,0,0,0,0],"id":55,"left_children":[1,3,-1,5,-1,-1,7,9,-1,-1,-1],"loss_changes":[3.3790964E-1,3.6156428E-1,0E0,2.0694235E-1,0E0,0E0,1.0104923E-1,7.70073E-2,0E0,0E0,0E0],"parents":[2147483647,0,0,1,1,3,3,6,6,7,7],"right_children":[2,4,-1,6,-1,-1,8,10,-1,-1,-1],"split_conditions":[2.5524667E5,2.6E2,-9.193844E-3,8.6695E4,1.2317534E-2,6.9396994E-3,6E0,1E0,-7.2153956E-3,2.3880992E-3,-4.5602694E-3],"split_indices":[16,10,0,16,0,0,10,3,0,0,0],"split_type":[0,0,0,0,0,0,0,0,0,0,0],"sum_hessian":[1.84E2,1.49E2,3.5E1,1.24E2,2.5E1,2.7E1,9.7E1,6.4E1,3.3E1,3.8E1,2.6E1],"tree_param":{"num_deleted":"0","num_feature":"17","num_nodes":"11","size_leaf_vector":"1"}},{"base_weights":[-8.2625274E-4,-1.7859869E-2,6.9223787E-3,-1.0711472E-2,5.7397923E-3,7.3494674E-3,-3.7033696E-2,-8.144549E-3,2.2414096E-3],"categories":[],"categories_nodes":[],"categories_segments":[],"categories_sizes":[],"default_left":[0,0,0,0,0,0,0,0,0],"id":56,"left_children":[1,3,-1,-1,5,-1,7,-1,-1],"loss_changes":[2.195929E-1,3.1235963E-1,0E0,0E0,3.4469905E-1,0E0,1.9455892E-1,0E0,0E0],"parents":[2147483647,0,0,1,1,4,4,6,6],"right_children":[2,4,-1,-1,6,-1,8,-1,-1],"split_conditions":[4E0,7.0461626E3,6.9223787E-3,-1.0711472E-2,1.7437667E5,7.3494674E-3,2.011E3,-8.144549E-3,2.2414096E-3],"split_indices":[11,5,0,0,16,0,1,0,0],"split_type":[0,0,0,0,0,0,0,0,0],"sum_hessian":[1.82E2,1.47E2,3.5E1,3E1,1.17E2,4.5E1,7.2E1,4.1E1,3.1E1],"tree_param":{"num_deleted":"0","num_feature":"17","num_nodes":"9","size_leaf_vector":"1"}},{"base_weights":[-1.1467203E-2,6.6135E-3,-9.566832E-3,-1.4653068E-2,1.0009899E-2,8.102778E-3,-7.951169E-3,-6.89547E-3,4.649647E-2,1.0031845E-2,2.3879371E-4],"categories":[],"categories_nodes":[],"categories_segments":[],"categories_sizes":[],"default_left":[0,0,0,0,0,0,0,0,0,0,0],"id":57,"left_children":[1,3,-1,5,-1,7,-1,-1,9,-1,-1],"loss_changes":[2.6705542E-1,2.897435E-1,0E0,1.7627789E-1,0E0,2.6651448E-1,0E0,0E0,1.4220098E-1,0E0,0E0],"parents":[2147483647,0,0,1,1,3,3,5,5,8,8],"right_children":[2,4,-1,6,-1,8,-1,-1,10,-1,-1],"split_conditions":[2.5524667E5,2.6E2,-9.566832E-3,6E0,1.0009899E-2,7.50065E3,-7.951169E-3,-6.89547E-3,4.2E2,1.0031845E-2,2.3879371E-4],"split_indices":[16,10,0,10,0,5,0,0,0,0,0],"split_type":[0,0,0,0,0,0,0,0,0,0,0],"sum_hessian":[1.74E2,1.44E2,3E1,1.18E2,2.6E1,8.8E1,3E1,2.9E1,5.9E1,2.6E1,3.3E1],"tree_param":{"num_deleted":"0","num_feature":"17","num_nodes":"11","size_leaf_vector":"1"}},{"base_weights":[-4.5810333E-3,-2.1511676E-2,9.090188E-3,-2.8083676E-3,-1.1204277E-2,-4.7383502E-2,6.454641E-2,-1.3447454E-3,-1.0308981E-2,3.3868214E-3,9.274206E-3],"categories":[],"categories_nodes":[],"categories_segments":[],"categories_sizes":[],"default_left":[0,0,0,0,0,0,0,0,0,0,0],"id":58,"left_children":[1,3,-1,5,-1,7,9,-1,-1,-1,-1],"loss_changes":[2.8970796E-1,2.5705644E-1,0E0,3.843567E-1,0E0,1.4417847E-1,4.097359E-2,0E0,0E0,0E0,0E0],"parents":[2147483647,0,0,1,1,3,3,5,5,6,6],"right_children":[2,4,-1,6,-1,8,10,-1,-1,-1,-1],"split_conditions":[3.8256E7,2.28365E5,9.090188E-3,6E0,-1.1204277E-2,3.64E2,7.28E2,-1.3447454E-3,-1.0308981E-2,3.3868214E-3,9.274206E-3],"split_indices":[15,16,0,9,0,0,0,0,0,0,0],"split_type":[0,0,0,0,0,0,0,0,0,0,0],"sum_hessian":[1.77E2,1.51E2,2.6E1,1.26E2,2.5E1,7.6E1,5E1,4.8E1,2.8E1,2.5E1,2.5E1],"tree_param":{"num_deleted":"0","num_feature":"17","num_nodes":"11","size_leaf_vector":"1"}},{"base_weights":[5.366281E-3,-7.2461404E-3,2.0358067E-2,5.1747574E-3,8.965188E-3,6.881258E-3,-2.2917792E-2,-7.6478147E-3,1.0735133E-3,4.0065083E-3,-3.795384E-3],"categories":[],"categories_nodes":[],"categories_segments":[],"categories_sizes":[],"default_left":[0,0,0,0,0,0,0,0,0,0,0],"id":59,"left_children":[1,-1,3,5,-1,-1,7,-1,9,-1,-1],"loss_changes":[2.0216063E-1,0E0,1.5209192E-1,2.1610686E-1,0E0,0E0,1.0802066E-1,0E0,9.130314E-2,0E0,0E0],"parents":[2147483647,0,0,2,2,3,3,6,6,8,8],"right_children":[2,-1,4,6,-1,-1,8,-1,10,-1,-1],"split_conditions":[2.001E3,-7.2461404E-3,7.686343E4,1.3284664E4,8.965188E-3,6.881258E-3,3.225781E4,-7.6478147E-3,5.2072066E4,4.0065083E-3,-3.795384E-3],"split_indices":[1,0,5,5,0,0,5,0,5,0,0],"split_type":[0,0,0,0,0,0,0,0,0,0,0],"sum_hessian":[1.71E2,2.7E1,1.44E2,1.19E2,2.5E1,3.6E1,8.3E1,2.5E1,5.8E1,2.9E1,2.9E1],"tree_param":{"num_deleted":"0","num_feature":"17","num_nodes":"11","size_leaf_vector":"1"}},{"base_weights":[-2.1276432E-3,-2.5794793E-2,9.190745E-3,-7.0760556E-2,4.9653918E-2,-1.746878E-2,-1.9368766E-2,1.5721694E-3,8.167638E-3,3.8217183E-3,-9.171368E-3],"categories":[],"categories_nodes":[],"categories_segments":[],"categories_sizes":[],"default_left":[0,0,0,0,0,0,0,0,0,0,0],"id":60,"left_children":[1,3,-1,5,7,-1,9,-1,-1,-1,-1],"loss_changes":[3.7626186E-1,4.6151567E-1,0E0,4.5060214E-1,5.4132164E-2,0E0,2.4513593E-1,0E0,0E0,0E0,0E0],"parents":[2147483647,0,0,1,1,3,3,4,4,6,6],"right_children":[2,4,-1,6,8,-1,10,-1,-1,-1,-1],"split_conditions":[4E0,2.011E3,9.190745E-3,1.289E5,6.25E2,-1.746878E-2,2.0933333E5,1.5721694E-3,8.167638E-3,3.8217183E-3,-9.171368E-3],"split_indices":[11,1,0,16,0,0,16,0,0,0,0],"split_type":[0,0,0,0,0,0,0,0,0,0,0],"sum_hessian":[1.67E2,1.34E2,3.3E1,8.4E1,5E1,2.7E1,5.7E1,2.5E1,2.5E1,3.2E1,2.5E1],"tree_param":{"num_deleted":"0","num_feature":"17","num_nodes":"11","size_leaf_vector":"1"}},{"base_weights":[9.366807E-3,1.0779642E-2,-7.5314604E-3,-8.604872E-3,9.353438E-3,5.8017265E-2,-2.562678E-2,7.802059E-3,3.7370701E-3,-6.385676E-3,3.589756E-3],"categories":[],"categories_nodes":[],"categories_segments":[],"categories_sizes":[],"default_left":[0,0,0,0,0,0,0,0,0,0,0],"id":61,"left_children":[1,-1,3,-1,5,7,9,-1,-1,-1,-1],"loss_changes":[2.9521418E-1,0E0,2.0231974E-1,0E0,2.1597296E-1,1.8973306E-2,1.763458E-1,0E0,0E0,0E0,0E0],"parents":[2147483647,0,0,2,2,4,4,5,5,6,6],"right_children":[2,-1,4,-1,6,8,10,-1,-1,-1,-1],"split_conditions":[8.4473336E4,1.0779642E-2,1.46145E7,-8.604872E-3,2.009E3,2.109E7,3.8256E7,7.802059E-3,3.7370701E-3,-6.385676E-3,3.589756E-3],"split_indices":[16,0,15,0,1,15,15,0,0,0,0],"split_type":[0,0,0,0,0,0,0,0,0,0,0],"sum_hessian":[1.76E2,2.5E1,1.51E2,2.6E1,1.25E2,5.2E1,7.3E1,2.5E1,2.7E1,4.5E1,2.8E1],"tree_param":{"num_deleted":"0","num_feature":"17","num_nodes":"11","size_leaf_vector":"1"}},{"base_weights":[6.499057E-3,-1.48499925E-2,8.710359E-3,6.6059395E-3,-9.720221E-3,7.217042E-3,-1.3063974E-2,-8.627585E-3,1.9555446E-2,-5.2643412E-5,4.1732914E-3],"categories":[],"categories_nodes":[],"categories_segments":[],"categories_sizes":[],"default_left":[0,0,0,0,0,0,0,0,0,0,0],"id":62,"left_children":[1,3,-1,5,-1,-1,7,-1,9,-1,-1],"loss_changes":[3.041596E-1,2.4801418E-1,0E0,1.4538337E-1,0E0,0E0,2.0945437E-1,0E0,2.7189251E-2,0E0,0E0],"parents":[2147483647,0,0,1,1,3,3,6,6,8,8],"right_children":[2,4,-1,6,-1,-1,8,-1,10,-1,-1],"split_conditions":[3.38536E7,8.8E2,8.710359E-3,2.002E3,-9.720221E-3,7.217042E-3,1E0,-8.627585E-3,4.75E2,-5.2643412E-5,4.1732914E-3],"split_indices":[15,0,0,1,0,0,2,0,0,0,0],"split_type":[0,0,0,0,0,0,0,0,0,0,0],"sum_hessian":[1.75E2,1.39E2,3.6E1,1.11E2,2.8E1,2.5E1,8.6E1,2.6E1,6E1,3.2E1,2.8E1],"tree_param":{"num_deleted":"0","num_feature":"17","num_nodes":"11","size_leaf_vector":"1"}},{"base_weights":[6.681395E-3,7.3511214E-3,-1.883061E-2,7.211942E-3,-1.0240718E-2,-4.0924363E-2,7.122197E-3,-7.5546303E-3,-3.6043394E-4],"categories":[],"categories_nodes":[],"categories_segments":[],"categories_sizes":[],"default_left":[0,0,0,0,0,0,0,0,0],"id":63,"left_children":[1,-1,3,5,-1,7,-1,-1,-1],"loss_changes":[2.9634285E-1,0E0,2.7498347E-1,3.017917E-1,0E0,7.208482E-2,0E0,0E0,0E0],"parents":[2147483647,0,0,2,2,3,3,5,5],"right_children":[2,-1,4,6,-1,8,-1,-1,-1],"split_conditions":[2.24E2,7.3511214E-3,3.4526E7,1.44E2,-1.0240718E-2,9E0,7.122197E-3,-7.5546303E-3,-3.6043394E-4],"split_indices":[0,0,15,9,0,8,0,0,0],"split_type":[0,0,0,0,0,0,0,0,0],"sum_hessian":[1.72E2,4.7E1,1.25E2,9.6E1,2.9E1,5.5E1,4.1E1,2.8E1,2.7E1],"tree_param":{"num_deleted":"0","num_feature":"17","num_nodes":"9","size_leaf_vector":"1"}},{"base_weights":[3.1934157E-3,7.072359E-3,-2.087561E-2,1.0734759E-2,-5.1702607E-2,-2.9133842E-3,6.940177E-3,-1.6867358E-2,3.1469632E-3],"categories":[],"categories_nodes":[],"categories_segments":[],"categories_sizes":[],"default_left":[0,0,0,0,0,0,0,0,0],"id":64,"left_children":[1,-1,3,5,7,-1,-1,-1,-1],"loss_changes":[2.9079503E-1,0E0,1.2918279E-1,1.5639408E-1,6.5713346E-1,0E0,0E0,0E0,0E0],"parents":[2147483647,0,0,2,2,3,3,4,4],"right_children":[2,-1,4,6,8,-1,-1,-1,-1],"split_conditions":[2.24E2,7.072359E-3,1E0,7.8E1,2.011E3,-2.9133842E-3,6.940177E-3,-1.6867358E-2,3.1469632E-3],"split_indices":[0,0,3,9,1,0,0,0,0],"split_type":[0,0,0,0,0,0,0,0,0],"sum_hessian":[1.77E2,4.6E1,1.31E2,6.5E1,6.6E1,3.9E1,2.6E1,2.7E1,3.9E1],"tree_param":{"num_deleted":"0","num_feature":"17","num_nodes":"9","size_leaf_vector":"1"}},{"base_weights":[-7.916916E-3,7.3637054E-3,-6.9686384E-3,-1.572735E-2,6.2716873E-3,1.0841663E-2,-8.538377E-3,4.0474283E-3,-4.5421408E-3],"categories":[],"categories_nodes":[],"categories_segments":[],"categories_sizes":[],"default_left":[0,0,0,0,0,0,0,0,0],"id":65,"left_children":[1,3,-1,5,-1,7,-1,-1,-1],"loss_changes":[1.6663529E-1,1.824855E-1,0E0,1.8784662E-1,0E0,1.2521285E-1,0E0,0E0,0E0],"parents":[2147483647,0,0,1,1,3,3,5,5],"right_children":[2,4,-1,6,-1,8,-1,-1,-1],"split_conditions":[2.5524667E5,1.9395769E5,-6.9686384E-3,7.15E2,6.2716873E-3,1.62875E7,-8.538377E-3,4.0474283E-3,-4.5421408E-3],"split_indices":[16,16,0,0,0,15,0,0,0],"split_type":[0,0,0,0,0,0,0,0,0],"sum_hessian":[1.75E2,1.41E2,3.4E1,1E2,4.1E1,7.3E1,2.7E1,4.8E1,2.5E1],"tree_param":{"num_deleted":"0","num_feature":"17","num_nodes":"9","size_leaf_vector":"1"}},{"base_weights":[-1.5084962E-2,5.3704376E-3,-4.258982E-2,-1.6973192E-2,-1.20581705E-2,-7.039842E-2,6.2205386E-3,-2.563225E-3,-1.1753126E-2],"categories":[],"categories_nodes":[],"categories_segments":[],"categories_sizes":[],"default_left":[0,0,0,0,0,0,0,0,0],"id":66,"left_children":[1,-1,3,5,-1,7,-1,-1,-1],"loss_changes":[3.2393426E-1,0E0,2.4169578E-1,3.977816E-1,0E0,1.1514497E-1,0E0,0E0,0E0],"parents":[2147483647,0,0,2,2,3,3,5,5],"right_children":[2,-1,4,6,-1,8,-1,-1,-1],"split_conditions":[2.24E2,5.3704376E-3,2.5524667E5,1.9395769E5,-1.20581705E-2,7.15E2,6.2205386E-3,-2.563225E-3,-1.1753126E-2],"split_indices":[0,0,16,16,0,0,0,0,0],"split_type":[0,0,0,0,0,0,0,0,0],"sum_hessian":[1.69E2,4.8E1,1.21E2,9.2E1,2.9E1,5.5E1,3.7E1,2.9E1,2.6E1],"tree_param":{"num_deleted":"0","num_feature":"17","num_nodes":"9","size_leaf_vector":"1"}},{"base_weights":[3.672341E-3,-1.0520395E-2,8.704989E-3,1.5961077E-2,-7.6484974E-3,-1.7142985E-2,6.2391576E-3,7.6793157E-3,-1.1055964E-2],"categories":[],"categories_nodes":[],"categories_segments":[],"categories_sizes":[],"default_left":[0,0,0,0,0,0,0,0,0],"id":67,"left_children":[1,3,-1,5,-1,7,-1,-1,-1],"loss_changes":[2.1155308E-1,2.6848716E-1,0E0,1.7014378E-1,0E0,5.788783E-1,0E0,0E0,0E0],"parents":[2147483647,0,0,1,1,3,3,5,5],"right_children":[2,4,-1,6,-1,8,-1,-1,-1],"split_conditions":[3.74E2,6E0,8.704989E-3,1E0,-7.6484974E-3,2.007E3,6.2391576E-3,7.6793157E-3,-1.1055964E-2],"split_indices":[10,10,0,3,0,1,0,0,0],"split_type":[0,0,0,0,0,0,0,0,0],"sum_hessian":[1.77E2,1.52E2,2.5E1,1.09E2,4.3E1,6.4E1,4.5E1,3.2E1,3.2E1],"tree_param":{"num_deleted":"0","num_feature":"17","num_nodes":"9","size_leaf_vector":"1"}},{"base_weights":[-7.2292066E-3,-3.1039981E-2,9.761295E-3,-1.2873776E-2,-3.3437607E-3,5.4858837E-2,-8.167086E-3,1.0315062E-2,2.089042E-3],"categories":[],"categories_nodes":[],"categories_segments":[],"categories_sizes":[],"default_left":[0,0,0,0,0,0,0,0,0],"id":68,"left_children":[1,3,-1,-1,5,7,-1,-1,-1],"loss_changes":[4.4488794E-1,3.9191914E-1,0E0,0E0,5.2418816E-1,1.0611121E-1,0E0,0E0,0E0],"parents":[2147483647,0,0,1,1,4,4,5,5],"right_children":[2,4,-1,-1,6,8,-1,-1,-1],"split_conditions":[4E0,7.0461626E3,9.761295E-3,-1.2873776E-2,1E0,2.007E3,-8.167086E-3,1.0315062E-2,2.089042E-3],"split_indices":[11,5,0,0,3,1,0,0,0],"split_type":[0,0,0,0,0,0,0,0,0],"sum_hessian":[1.76E2,1.44E2,3.2E1,3.1E1,1.13E2,6.5E1,4.8E1,2.6E1,3.9E1],"tree_param":{"num_deleted":"0","num_feature":"17","num_nodes":"9","size_leaf_vector":"1"}},{"base_weights":[-1.3682571E-2,-8.940018E-3,3.238581E-3,2.2857383E-2,-6.3444586E-3,-4.994211E-3,9.5792E-3,5.3792098E-3,-4.369329E-3],"categories":[],"categories_nodes":[],"categories_segments":[],"categories_sizes":[],"default_left":[0,0,0,0,0,0,0,0,0],"id":69,"left_children":[1,-1,3,5,-1,7,-1,-1,-1],"loss_changes":[2.2450462E-1,0E0,1.8983728E-1,2.2798908E-1,0E0,1.8889837E-1,0E0,0E0,0E0],"parents":[2147483647,0,0,2,2,3,3,5,5],"right_children":[2,-1,4,6,-1,8,-1,-1,-1],"split_conditions":[7.50065E3,-8.940018E-3,2.5524667E5,5.7165688E4,-6.3444586E-3,2.8219113E4,9.5792E-3,5.3792098E-3,-4.369329E-3],"split_indices":[5,0,16,5,0,5,0,0,0],"split_type":[0,0,0,0,0,0,0,0,0],"sum_hessian":[1.74E2,3.1E1,1.43E2,1.11E2,3.2E1,8.1E1,3E1,3.2E1,4.9E1],"tree_param":{"num_deleted":"0","num_feature":"17","num_nodes":"9","size_leaf_vector":"1"}},{"base_weights":[3.23349E-4,-1.3798881E-2,6.342196E-3,2.349559E-3,-8.020675E-3,5.8495086E-3,-1.4520206E-2,-5.1347263E-2,7.8105903E-3,-1.0339135E-2,2.5729283E-3],"categories":[],"categories_nodes":[],"categories_segments":[],"categories_sizes":[],"default_left":[0,0,0,0,0,0,0,0,0,0,0],"id":70,"left_children":[1,3,-1,5,-1,-1,7,9,-1,-1,-1],"loss_changes":[1.5592535E-1,1.5353926E-1,0E0,1.1072013E-1,0E0,0E0,3.1101376E-1,2.6339978E-1,0E0,0E0,0E0],"parents":[2147483647,0,0,1,1,3,3,6,6,7,7],"right_children":[2,4,-1,6,-1,-1,8,10,-1,-1,-1],"split_conditions":[2.657475E5,9.46E2,6.342196E-3,2.002E3,-8.020675E-3,5.8495086E-3,1E0,4.76E2,7.8105903E-3,-1.0339135E-2,2.5729283E-3],"split_indices":[16,0,0,1,0,0,3,0,0,0,0],"split_type":[0,0,0,0,0,0,0,0,0,0,0],"sum_hessian":[1.73E2,1.42E2,3.1E1,1.15E2,2.7E1,2.6E1,8.9E1,6.4E1,2.5E1,3.8E1,2.6E1],"tree_param":{"num_deleted":"0","num_feature":"17","num_nodes":"11","size_leaf_vector":"1"}},{"base_weights":[-1.7135015E-3,-1.866913E-2,7.0033544E-3,1.6940843E-2,-1.0055287E-2,6.906835E-3,-2.3988077E-2,-8.935244E-3,3.3955367E-3],"categories":[],"categories_nodes":[],"categories_segments":[],"categories_sizes":[],"default_left":[0,0,0,0,0,0,0,0,0],"id":71,"left_children":[1,3,-1,5,-1,-1,7,-1,-1],"loss_changes":[2.227134E-1,4.3325335E-1,0E0,2.2354318E-1,0E0,0E0,2.2649273E-1,0E0,0E0],"parents":[2147483647,0,0,1,1,3,3,6,6],"right_children":[2,4,-1,6,-1,-1,8,-1,-1],"split_conditions":[4E0,2E0,7.0033544E-3,2.007E3,-1.0055287E-2,6.906835E-3,1.9076E7,-8.935244E-3,3.3955367E-3],"split_indices":[11,3,0,1,0,0,15,0,0],"split_type":[0,0,0,0,0,0,0,0,0],"sum_hessian":[1.81E2,1.47E2,3.4E1,1.03E2,4.4E1,4.5E1,5.8E1,2.7E1,3.1E1],"tree_param":{"num_deleted":"0","num_feature":"17","num_nodes":"9","size_leaf_vector":"1"}},{"base_weights":[3.94345E-3,-8.039228E-3,1.815634E-2,9.333108E-3,-5.5692657E-3,-4.6432033E-2,4.718794E-2,-1.049044E-3,-7.899319E-3,6.981534E-3,2.1875335E-3],"categories":[],"categories_nodes":[],"categories_segments":[],"categories_sizes":[],"default_left":[0,0,0,0,0,0,0,0,0,0,0],"id":72,"left_children":[1,-1,3,-1,5,7,9,-1,-1,-1,-1],"loss_changes":[2.1601875E-1,0E0,2.7518895E-1,0E0,2.5657606E-1,7.7581406E-2,2.8256193E-2,0E0,0E0,0E0,0E0],"parents":[2147483647,0,0,2,2,4,4,5,5,6,6],"right_children":[2,-1,4,-1,6,8,10,-1,-1,-1,-1],"split_conditions":[2.001E3,-8.039228E-3,1.463975E7,9.333108E-3,2.8377E7,1.6266667E5,3.893975E7,-1.049044E-3,-7.899319E-3,6.981534E-3,2.1875335E-3],"split_indices":[1,0,15,0,15,16,15,0,0,0,0],"split_type":[0,0,0,0,0,0,0,0,0,0,0],"sum_hessian":[1.78E2,2.5E1,1.53E2,3.6E1,1.17E2,6.6E1,5.1E1,3.2E1,3.4E1,2.6E1,2.5E1],"tree_param":{"num_deleted":"0","num_feature":"17","num_nodes":"11","size_leaf_vector":"1"}},{"base_weights":[5.2114297E-3,2.1219589E-2,-5.8970107E-3,3.5462825E-4,7.72162E-3,-3.806491E-2,4.878895E-3,-8.174243E-3,-2.498834E-4],"categories":[],"categories_nodes":[],"categories_segments":[],"categories_sizes":[],"default_left":[0,0,0,0,0,0,0,0,0],"id":73,"left_children":[1,3,-1,5,-1,7,-1,-1,-1],"loss_changes":[1.8002383E-1,1.6354401E-1,0E0,1.9352202E-1,0E0,8.9895144E-2,0E0,0E0,0E0],"parents":[2147483647,0,0,1,1,3,3,5,5],"right_children":[2,4,-1,6,-1,8,-1,-1,-1],"split_conditions":[2.5524667E5,1.9232E5,-5.8970107E-3,2.009E3,7.72162E-3,1.0603E5,4.878895E-3,-8.174243E-3,-2.498834E-4],"split_indices":[16,16,0,1,0,16,0,0,0],"split_type":[0,0,0,0,0,0,0,0,0],"sum_hessian":[1.73E2,1.39E2,3.4E1,1.02E2,3.7E1,5.7E1,4.5E1,2.5E1,3.2E1],"tree_param":{"num_deleted":"0","num_feature":"17","num_nodes":"9","size_leaf_vector":"1"}},{"base_weights":[2.5117643E-2,5.864527E-4,1.2611118E-2,-1.3623231E-2,6.1087464E-3,1.472606E-2,-4.948756E-2,-2.3287255E-3,6.9088773E-3,-7.243734E-3,-2.4634413E-3],"categories":[],"categories_nodes":[],"categories_segments":[],"categories_sizes":[],"default_left":[0,0,0,0,0,0,0,0,0,0,0],"id":74,"left_children":[1,3,-1,5,-1,7,9,-1,-1,-1,-1],"loss_changes":[4.310096E-1,1.22049935E-1,0E0,1.1765252E-1,0E0,1.3593185E-1,2.7304627E-2,0E0,0E0,0E0,0E0],"parents":[2147483647,0,0,1,1,3,3,5,5,6,6],"right_children":[2,4,-1,6,-1,8,10,-1,-1,-1,-1],"split_conditions":[1E0,9.76E2,1.2611118E-2,2.125E7,6.1087464E-3,2.007E3,2.1639333E5,-2.3287255E-3,6.9088773E-3,-7.243734E-3,-2.4634413E-3],"split_indices":[12,0,0,15,0,1,16,0,0,0,0],"split_type":[0,0,0,0,0,0,0,0,0,0,0],"sum_hessian":[1.73E2,1.4E2,3.3E1,1.14E2,2.6E1,6.4E1,5E1,3.8E1,2.6E1,2.5E1,2.5E1],"tree_param":{"num_deleted":"0","num_feature":"17","num_nodes":"11","size_leaf_vector":"1"}},{"base_weights":[6.553613E-3,-6.1104763E-3,1.8221706E-2,7.5443992E-3,-8.451655E-4,-4.6377997E-3,1.737791E-2,6.8254196E-3,-6.199001E-3,-5.2223387E-3,4.003202E-3],"categories":[],"categories_nodes":[],"categories_segments":[],"categories_sizes":[],"default_left":[0,0,0,0,0,0,0,0,0,0,0],"id":75,"left_children":[1,-1,3,-1,5,-1,7,-1,9,-1,-1],"loss_changes":[1.4479229E-1,0E0,1.7026755E-1,0E0,9.871624E-2,0E0,1.0238109E-1,0E0,1.276281E-1,0E0,0E0],"parents":[2147483647,0,0,2,2,4,4,6,6,8,8],"right_children":[2,-1,4,-1,6,-1,8,-1,10,-1,-1],"split_conditions":[2.001E3,-6.1104763E-3,1.175E5,7.5443992E-3,1E0,-4.6377997E-3,1.72E5,6.8254196E-3,2.011E3,-5.2223387E-3,4.003202E-3],"split_indices":[1,0,16,0,2,0,16,0,1,0,0],"split_type":[0,0,0,0,0,0,0,0,0,0,0],"sum_hessian":[1.81E2,2.6E1,1.55E2,3.8E1,1.17E2,3.3E1,8.4E1,2.6E1,5.8E1,2.9E1,2.9E1],"tree_param":{"num_deleted":"0","num_feature":"17","num_nodes":"11","size_leaf_vector":"1"}},{"base_weights":[1.1810515E-3,-1.3979041E-2,6.3124336E-3,5.405813E-3,-4.8213106E-2,-1.094868E-2,-5.773577E-3,2.5233505E-3,-4.25215E-3],"categories":[],"categories_nodes":[],"categories_segments":[],"categories_sizes":[],"default_left":[0,0,0,0,0,0,0,0,0],"id":76,"left_children":[1,3,-1,-1,5,-1,7,-1,-1],"loss_changes":[1.6240175E-1,3.2636356E-1,0E0,0E0,2.4120757E-1,0E0,6.4881936E-2,0E0,0E0],"parents":[2147483647,0,0,1,1,4,4,6,6],"right_children":[2,4,-1,-1,6,-1,8,-1,-1],"split_conditions":[4E0,2.007E3,6.3124336E-3,5.405813E-3,2.011E3,-1.094868E-2,2.016E3,2.5233505E-3,-4.25215E-3],"split_indices":[11,1,0,0,1,0,1,0,0],"split_type":[0,0,0,0,0,0,0,0,0],"sum_hessian":[1.71E2,1.38E2,3.3E1,4.6E1,9.2E1,3.7E1,5.5E1,3E1,2.5E1],"tree_param":{"num_deleted":"0","num_feature":"17","num_nodes":"9","size_leaf_vector":"1"}},{"base_weights":[1.7181525E-3,1.31420065E-2,-2.2877099E-2,-4.19018E-2,7.1662865E-3,-5.9621334E-2,1.7969385E-3,-2.3456337E-2,-1.6025936E-2,-8.1722215E-3,7.9389533E-4],"categories":[],"categories_nodes":[],"categories_segments":[],"categories_sizes":[],"default_left":[0,0,0,0,0,0,0,0,0,0,0],"id":77,"left_children":[1,-1,3,5,-1,7,-1,9,-1,-1,-1],"loss_changes":[5.804057E-1,0E0,2.7818778E-1,1.3686523E-1,0E0,3.5655868E-1,0E0,1.3601507E-1,0E0,0E0,0E0],"parents":[2147483647,0,0,2,2,3,3,5,5,7,7],"right_children":[2,-1,4,6,-1,8,-1,10,-1,-1,-1],"split_conditions":[7E1,1.31420065E-2,3.74E2,3.07E2,7.1662865E-3,1.08E2,1.7969385E-3,2.007E3,-1.6025936E-2,-8.1722215E-3,7.9389533E-4],"split_indices":[0,0,10,7,0,10,0,1,0,0,0],"split_type":[0,0,0,0,0,0,0,0,0,0,0],"sum_hessian":[1.8E2,2.8E1,1.52E2,1.27E2,2.5E1,9.8E1,2.9E1,7.3E1,2.5E1,2.5E1,4.8E1],"tree_param":{"num_deleted":"0","num_feature":"17","num_nodes":"11","size_leaf_vector":"1"}},{"base_weights":[-7.428686E-3,-4.7414064E-2,2.2432145E-2,1.4362576E-4,-1.2597481E-2,-7.831129E-3,1.06539335E-2,3.7548605E-3,-6.714731E-3],"categories":[],"categories_nodes":[],"categories_segments":[],"categories_sizes":[],"default_left":[0,0,0,0,0,0,0,0,0],"id":78,"left_children":[1,3,5,-1,-1,7,-1,-1,-1],"loss_changes":[2.0404303E-1,2.8033432E-1,2.5027952E-1,0E0,0E0,1.990192E-1,0E0,0E0,0E0],"parents":[2147483647,0,0,1,1,2,2,5,5],"right_children":[2,4,6,-1,-1,8,-1,-1,-1],"split_conditions":[1.9076E7,3.85E2,9.18E2,1.4362576E-4,-1.2597481E-2,2.011E3,1.06539335E-2,3.7548605E-3,-6.714731E-3],"split_indices":[15,0,0,0,0,1,0,0,0],"split_type":[0,0,0,0,0,0,0,0,0],"sum_hessian":[1.69E2,7.2E1,9.7E1,4.5E1,2.7E1,7.2E1,2.5E1,4.1E1,3.1E1],"tree_param":{"num_deleted":"0","num_feature":"17","num_nodes":"9","size_leaf_vector":"1"}},{"base_weights":[3.935977E-3,-7.4340138E-3,6.4962963E-3,-5.7469434E-3,1.5336075E-2,5.862683E-3,-1.203031E-2,-4.0470418E-3,1.8497996E-3],"categories":[],"categories_nodes":[],"categories_segments":[],"categories_sizes":[],"default_left":[0,0,0,0,0,0,0,0,0],"id":79,"left_children":[1,3,-1,-1,5,-1,7,-1,-1],"loss_changes":[1.2815616E-1,1.7861387E-1,0E0,0E0,1.2865414E-1,0E0,5.8919925E-2,0E0,0E0],"parents":[2147483647,0,0,1,1,4,4,6,6],"right_children":[2,4,-1,-1,6,-1,8,-1,-1],"split_conditions":[2.3E1,2.005E3,6.4962963E-3,-5.7469434E-3,2.01E3,5.862683E-3,2.014E3,-4.0470418E-3,1.8497996E-3],"split_indices":[12,1,0,0,1,0,1,0,0],"split_type":[0,0,0,0,0,0,0,0,0],"sum_hessian":[1.83E2,1.55E2,2.8E1,4.8E1,1.07E2,4.1E1,6.6E1,3.4E1,3.2E1],"tree_param":{"num_deleted":"0","num_feature":"17","num_nodes":"9","size_leaf_vector":"1"}},{"base_weights":[6.3013253E-3,-6.925521E-3,6.6232407E-3,4.683631E-2,-3.4274798E-2,8.994292E-3,1.9283063E-4,-1.0166424E-2,-9.223585E-3,6.5883384E-3,-4.8888028E-3],"categories":[],"categories_nodes":[],"categories_segments":[],"categories_sizes":[],"default_left":[0,0,0,0,0,0,0,0,0,0,0],"id":80,"left_children":[1,3,-1,5,7,-1,-1,-1,9,-1,-1],"loss_changes":[1.4472996E-1,2.2215739E-1,0E0,9.855398E-2,1.67881E-1,0E0,0E0,0E0,2.2367255E-1,0E0,0E0],"parents":[2147483647,0,0,1,1,3,3,4,4,8,8],"right_children":[2,4,-1,6,8,-1,-1,-1,10,-1,-1],"split_conditions":[4E0,2.007E3,6.6232407E-3,3.9E2,1.3007E5,8.994292E-3,1.9283063E-4,-1.0166424E-2,1.77026E5,6.5883384E-3,-4.8888028E-3],"split_indices":[11,1,0,0,16,0,0,0,16,0,0],"split_type":[0,0,0,0,0,0,0,0,0,0,0],"sum_hessian":[1.81E2,1.49E2,3.2E1,5E1,9.9E1,2.5E1,2.5E1,2.6E1,7.3E1,2.5E1,4.8E1],"tree_param":{"num_deleted":"0","num_feature":"17","num_nodes":"11","size_leaf_vector":"1"}},{"base_weights":[-1.037188E-2,-2.45581E-2,7.2961873E-3,3.67474E-3,-3.8094066E-2,-1.2163543E-2,-1.0432212E-2,-3.0346805E-2,2.3048562E-3,6.1107555E-4,-7.825711E-3],"categories":[],"categories_nodes":[],"categories_segments":[],"categories_sizes":[],"default_left":[0,0,0,0,0,0,0,0,0,0,0],"id":81,"left_children":[1,3,-1,-1,5,-1,7,9,-1,-1,-1],"loss_changes":[2.1103962E-1,1.2753388E-1,0E0,0E0,2.8759474E-1,0E0,6.404127E-2,1.0527977E-1,0E0,0E0,0E0],"parents":[2147483647,0,0,1,1,4,4,6,6,7,7],"right_children":[2,4,-1,-1,6,-1,8,10,-1,-1,-1],"split_conditions":[7.686343E4,4.7235073E3,7.2961873E-3,3.67474E-3,1E0,-1.2163543E-2,1.9729E5,6.24E2,2.3048562E-3,6.1107555E-4,-7.825711E-3],"split_indices":[5,5,0,0,2,0,16,0,0,0,0],"split_type":[0,0,0,0,0,0,0,0,0,0,0],"sum_hessian":[1.76E2,1.51E2,2.5E1,2.7E1,1.24E2,3E1,9.4E1,5.9E1,3.5E1,3.4E1,2.5E1],"tree_param":{"num_deleted":"0","num_feature":"17","num_nodes":"11","size_leaf_vector":"1"}},{"base_weights":[-1.3772384E-3,-1.02878455E-2,4.3815747E-3,5.3024343E-3,-7.131128E-3,-1.3976415E-2,6.7609656E-3,-3.5896514E-2,4.473371E-3,-8.411494E-3,-2.8962176E-4],"categories":[],"categories_nodes":[],"categories_segments":[],"categories_sizes":[],"default_left":[0,0,0,0,0,0,0,0,0,0,0],"id":82,"left_children":[1,3,-1,5,-1,7,-1,9,-1,-1,-1],"loss_changes":[7.3338926E-2,1.4498672E-1,0E0,1.4749274E-1,0E0,1.2257738E-1,0E0,1.09550714E-1,0E0,0E0,0E0],"parents":[2147483647,0,0,1,1,3,3,5,5,7,7],"right_children":[2,4,-1,6,-1,8,-1,10,-1,-1,-1],"split_conditions":[2.657475E5,2.1687E5,4.3815747E-3,1.77E2,-7.131128E-3,1E0,6.7609656E-3,1.01986E5,4.473371E-3,-8.411494E-3,-2.8962176E-4],"split_indices":[16,16,0,9,0,3,0,16,0,0,0],"split_type":[0,0,0,0,0,0,0,0,0,0,0],"sum_hessian":[1.8E2,1.51E2,2.9E1,1.21E2,3E1,9.3E1,2.8E1,6.8E1,2.5E1,2.7E1,4.1E1],"tree_param":{"num_deleted":"0","num_feature":"17","num_nodes":"11","size_leaf_vector":"1"}},{"base_weights":[4.971205E-3,2.0996854E-2,-6.6080797E-3,1.9511351E-3,1.0882514E-2,3.7852544E-2,-3.0615004E-2,7.7467053E-3,-1.3883279E-3,-7.117813E-3,3.140719E-3],"categories":[],"categories_nodes":[],"categories_segments":[],"categories_sizes":[],"default_left":[0,0,0,0,0,0,0,0,0,0,0],"id":83,"left_children":[1,3,-1,5,-1,7,9,-1,-1,-1,-1],"loss_changes":[2.0406798E-1,2.4400957E-1,0E0,1.4262846E-1,0E0,1.1994588E-1,1.6324762E-1,0E0,0E0,0E0,0E0],"parents":[2147483647,0,0,1,1,3,3,5,5,6,6],"right_children":[2,4,-1,6,-1,8,10,-1,-1,-1,-1],"split_conditions":[2.6548666E5,2.8377E7,-6.6080797E-3,1.62875E7,1.0882514E-2,2.39E2,1.16E2,7.7467053E-3,-1.3883279E-3,-7.117813E-3,3.140719E-3],"split_indices":[16,15,0,15,0,0,8,0,0,0,0],"split_type":[0,0,0,0,0,0,0,0,0,0,0],"sum_hessian":[1.77E2,1.45E2,3.2E1,1.2E2,2.5E1,5.7E1,6.3E1,3.2E1,2.5E1,3.8E1,2.5E1],"tree_param":{"num_deleted":"0","num_feature":"17","num_nodes":"11","size_leaf_vector":"1"}},{"base_weights":[1.3960486E-2,-9.494204E-3,1.4200988E-2,1.08120935E-2,-9.319288E-3,-2.640594E-2,6.718927E-3,3.010141E-3,-1.0840319E-2],"categories":[],"categories_nodes":[],"categories_segments":[],"categories_sizes":[],"default_left":[0,0,0,0,0,0,0,0,0],"id":84,"left_children":[1,3,-1,5,-1,7,-1,-1,-1],"loss_changes":[5.239327E-1,2.525499E-1,0E0,2.535639E-1,0E0,3.4150475E-1,0E0,0E0,0E0],"parents":[2147483647,0,0,1,1,3,3,5,5],"right_children":[2,4,-1,6,-1,8,-1,-1,-1],"split_conditions":[9.9E2,2.016E3,1.4200988E-2,2.009E3,-9.319288E-3,2.006E3,6.718927E-3,3.010141E-3,-1.0840319E-2],"split_indices":[0,1,0,1,0,1,0,0,0],"split_type":[0,0,0,0,0,0,0,0,0],"sum_hessian":[1.73E2,1.47E2,2.6E1,1.19E2,2.8E1,7.2E1,4.7E1,4.3E1,2.9E1],"tree_param":{"num_deleted":"0","num_feature":"17","num_nodes":"9","size_leaf_vector":"1"}},{"base_weights":[1.4196703E-2,1.0644084E-2,-1.2959069E-2,1.1990988E-2,-9.902063E-3,-2.0040883E-2,8.468898E-3,2.7387429E-3,-4.53137E-3],"categories":[],"categories_nodes":[],"categories_segments":[],"categories_sizes":[],"default_left":[0,0,0,0,0,0,0,0,0],"id":85,"left_children":[1,-1,3,5,-1,7,-1,-1,-1],"loss_changes":[4.2972764E-1,0E0,2.867704E-1,2.438771E-1,0E0,8.874226E-2,0E0,0E0,0E0],"parents":[2147483647,0,0,2,2,3,3,5,5],"right_children":[2,-1,4,6,-1,8,-1,-1,-1],"split_conditions":[1.83E2,1.0644084E-2,3.4526E7,1.62E2,-9.902063E-3,2.6520268E4,8.468898E-3,2.7387429E-3,-4.53137E-3],"split_indices":[0,0,15,10,0,5,0,0,0],"split_type":[0,0,0,0,0,0,0,0,0],"sum_hessian":[1.7E2,3.8E1,1.32E2,1.03E2,2.9E1,7.2E1,3.1E1,2.5E1,4.7E1],"tree_param":{"num_deleted":"0","num_feature":"17","num_nodes":"9","size_leaf_vector":"1"}},{"base_weights":[9.755674E-3,2.5048189E-2,-7.64929E-3,5.0265912E-2,-2.0150188E-2,8.058585E-3,1.2804131E-2,-7.7613974E-3,3.8059894E-3,3.3582523E-3,-2.857389E-3],"categories":[],"categories_nodes":[],"categories_segments":[],"categories_sizes":[],"default_left":[0,0,0,0,0,0,0,0,0,0,0],"id":86,"left_children":[1,3,-1,5,7,9,-1,-1,-1,-1,-1],"loss_changes":[2.2745778E-1,1.674237E-1,0E0,3.075412E-1,1.8023747E-1,5.8929898E-2,0E0,0E0,0E0,0E0,0E0],"parents":[2147483647,0,0,1,1,3,3,4,4,5,5],"right_children":[2,4,-1,6,8,10,-1,-1,-1,-1,-1],"split_conditions":[6.8E1,3.5E1,-7.64929E-3,1E0,3.2E1,1.54202E5,1.2804131E-2,-7.7613974E-3,3.8059894E-3,3.3582523E-3,-2.857389E-3],"split_indices":[11,7,0,3,9,16,0,0,0,0,0],"split_type":[0,0,0,0,0,0,0,0,0,0,0],"sum_hessian":[1.7E2,1.45E2,2.5E1,9.3E1,5.2E1,6.1E1,3.2E1,2.6E1,2.6E1,3.6E1,2.5E1],"tree_param":{"num_deleted":"0","num_feature":"17","num_nodes":"11","size_leaf_vector":"1"}},{"base_weights":[7.1015735E-3,-1.2274036E-2,1.0173037E-2,-7.426157E-3,4.2914515E-3,2.0873073E-2,-3.8333063E-3,-1.6709374E-3,7.44221E-3],"categories":[],"categories_nodes":[],"categories_segments":[],"categories_sizes":[],"default_left":[0,0,0,0,0,0,0,0,0],"id":87,"left_children":[1,3,-1,-1,5,7,-1,-1,-1],"loss_changes":[3.1294203E-1,1.4613192E-1,0E0,0E0,8.066667E-2,1.6626883E-1,0E0,0E0,0E0],"parents":[2147483647,0,0,1,1,4,4,5,5],"right_children":[2,4,-1,-1,6,8,-1,-1,-1],"split_conditions":[2.3E1,1.54E2,1.0173037E-2,-7.426157E-3,9.46E2,1.08E2,-3.8333063E-3,-1.6709374E-3,7.44221E-3],"split_indices":[12,0,0,0,0,8,0,0,0],"split_type":[0,0,0,0,0,0,0,0,0],"sum_hessian":[1.69E2,1.41E2,2.8E1,2.9E1,1.12E2,8.1E1,3.1E1,4.8E1,3.3E1],"tree_param":{"num_deleted":"0","num_feature":"17","num_nodes":"9","size_leaf_vector":"1"}},{"base_weights":[-1.2297608E-2,3.7331198E-4,-6.972438E-3,-1.6333736E-2,4.0772376E-3,9.969163E-3,-5.539919E-3,-4.246184E-3,5.8920435E-3],"categories":[],"categories_nodes":[],"categories_segments":[],"categories_sizes":[],"default_left":[0,0,0,0,0,0,0,0,0],"id":88,"left_children":[1,3,-1,5,-1,7,-1,-1,-1],"loss_changes":[1.2882009E-1,9.920854E-2,0E0,1.0741587E-1,0E0,1.6419543E-1,0E0,0E0,0E0],"parents":[2147483647,0,0,1,1,3,3,5,5],"right_children":[2,4,-1,6,-1,8,-1,-1,-1],"split_conditions":[2.6548666E5,1.9232E5,-6.972438E-3,3.2167594E4,4.0772376E-3,7.50065E3,-5.539919E-3,-4.246184E-3,5.8920435E-3],"split_indices":[16,16,0,5,0,5,0,0,0],"split_type":[0,0,0,0,0,0,0,0,0],"sum_hessian":[1.76E2,1.45E2,3.1E1,1.03E2,4.2E1,6.2E1,4.1E1,3E1,3.2E1],"tree_param":{"num_deleted":"0","num_feature":"17","num_nodes":"9","size_leaf_vector":"1"}},{"base_weights":[-1.0339039E-2,5.375094E-3,-2.257924E-2,1.4671786E-2,-6.4758874E-2,-1.5243643E-2,7.854072E-3,-3.800595E-3,-1.0960024E-2,-5.483761E-4,-2.629413E-3],"categories":[],"categories_nodes":[],"categories_segments":[],"categories_sizes":[],"default_left":[0,0,0,0,0,0,0,0,0,0,0],"id":89,"left_children":[1,-1,3,5,7,9,-1,-1,-1,-1,-1],"loss_changes":[1.4163452E-1,0E0,2.3820655E-1,1.5596123E-1,8.100879E-2,5.8954908E-3,0E0,0E0,0E0,0E0,0E0],"parents":[2147483647,0,0,2,2,3,3,4,4,5,5],"right_children":[2,-1,4,6,8,10,-1,-1,-1,-1,-1],"split_conditions":[4.7235073E3,5.375094E-3,1E0,1.03E2,6.145195E4,3.3132746E4,7.854072E-3,-3.800595E-3,-1.0960024E-2,-5.483761E-4,-2.629413E-3],"split_indices":[5,0,3,9,5,5,0,0,0,0,0],"split_type":[0,0,0,0,0,0,0,0,0,0,0],"sum_hessian":[1.78E2,2.8E1,1.5E2,8E1,7E1,5.5E1,2.5E1,4.5E1,2.5E1,3E1,2.5E1],"tree_param":{"num_deleted":"0","num_feature":"17","num_nodes":"11","size_leaf_vector":"1"}},{"base_weights":[-1.032206E-2,6.8628886E-3,-9.361141E-3,-4.598844E-3,2.7938057E-2,9.548657E-3,-1.1798208E-2,-6.2966384E-3,3.4012345E-3],"categories":[],"categories_nodes":[],"categories_segments":[],"categories_sizes":[],"default_left":[0,0,0,0,0,0,0,0,0],"id":90,"left_children":[1,3,-1,-1,5,-1,7,-1,-1],"loss_changes":[2.5112402E-1,1.6390704E-1,0E0,0E0,2.8295973E-1,0E0,1.5919247E-1,0E0,0E0],"parents":[2147483647,0,0,1,1,4,4,6,6],"right_children":[2,4,-1,-1,6,-1,8,-1,-1],"split_conditions":[1.1E1,2.005E3,-9.361141E-3,-4.598844E-3,2.01E3,9.548657E-3,7E1,-6.2966384E-3,3.4012345E-3],"split_indices":[12,1,0,0,1,0,7,0,0],"split_type":[0,0,0,0,0,0,0,0,0],"sum_hessian":[1.74E2,1.45E2,2.9E1,4.1E1,1.04E2,3.8E1,6.6E1,3.1E1,3.5E1],"tree_param":{"num_deleted":"0","num_feature":"17","num_nodes":"9","size_leaf_vector":"1"}},{"base_weights":[6.2903314E-4,-1.4845397E-2,6.5603666E-3,6.3373083E-3,-4.9974855E-2,-1.1185283E-2,-1.1044476E-3,-3.3683446E-3,2.4597323E-3],"categories":[],"categories_nodes":[],"categories_segments":[],"categories_sizes":[],"default_left":[0,0,0,0,0,0,0,0,0],"id":91,"left_children":[1,3,-1,-1,5,-1,7,-1,-1],"loss_changes":[1.8295956E-1,4.0708965E-1,0E0,0E0,3.0832464E-1,0E0,4.9394127E-2,0E0,0E0],"parents":[2147483647,0,0,1,1,4,4,6,6],"right_children":[2,4,-1,-1,6,-1,8,-1,-1],"split_conditions":[4E0,2.007E3,6.5603666E-3,6.3373083E-3,2.011E3,-1.1185283E-2,2.929176E4,-3.3683446E-3,2.4597323E-3],"split_indices":[11,1,0,0,1,0,5,0,0],"split_type":[0,0,0,0,0,0,0,0,0],"sum_hessian":[1.8E2,1.46E2,3.4E1,4.5E1,1.01E2,4.4E1,5.7E1,2.5E1,3.2E1],"tree_param":{"num_deleted":"0","num_feature":"17","num_nodes":"9","size_leaf_vector":"1"}},{"base_weights":[-8.869987E-3,4.663785E-3,-6.584508E-3,-1.4291434E-2,6.403256E-3,4.873398E-3,-3.3686776E-2,-6.559702E-3,-1.0109248E-4],"categories":[],"categories_nodes":[],"categories_segments":[],"categories_sizes":[],"default_left":[0,0,0,0,0,0,0,0,0],"id":92,"left_children":[1,3,-1,5,-1,-1,7,-1,-1],"loss_changes":[1.4064509E-1,1.6746664E-1,0E0,1.3977283E-1,0E0,0E0,9.064811E-2,0E0,0E0],"parents":[2147483647,0,0,1,1,3,3,6,6],"right_children":[2,4,-1,6,-1,-1,8,-1,-1],"split_conditions":[2.5524667E5,5.3826355E4,-6.584508E-3,2.002E3,6.403256E-3,4.873398E-3,2.009E3,-6.559702E-3,-1.0109248E-4],"split_indices":[16,5,0,1,0,0,1,0,0],"split_type":[0,0,0,0,0,0,0,0,0],"sum_hessian":[1.81E2,1.47E2,3.4E1,1.12E2,3.5E1,2.6E1,8.6E1,4.3E1,4.3E1],"tree_param":{"num_deleted":"0","num_feature":"17","num_nodes":"9","size_leaf_vector":"1"}},{"base_weights":[2.0309312E-2,1.3071704E-2,-1.1508636E-3,-7.440564E-3,2.5560232E-2,-9.197124E-3,1.341965E-2,5.198566E-3,-4.939382E-3],"categories":[],"categories_nodes":[],"categories_segments":[],"categories_sizes":[],"default_left":[0,0,0,0,0,0,0,0,0],"id":93,"left_children":[1,-1,3,-1,5,7,-1,-1,-1],"loss_changes":[4.0768194E-1,0E0,2.8562552E-1,0E0,4.0525654E-1,2.0423408E-1,0E0,0E0,0E0],"parents":[2147483647,0,0,2,2,4,4,5,5],"right_children":[2,-1,4,-1,6,8,-1,-1,-1],"split_conditions":[7E1,1.3071704E-2,2.006E3,-7.440564E-3,9.47E2,1.7437667E5,1.341965E-2,5.198566E-3,-4.939382E-3],"split_indices":[0,0,1,0,0,16,0,0,0],"split_type":[0,0,0,0,0,0,0,0,0],"sum_hessian":[1.71E2,2.7E1,1.44E2,3.8E1,1.06E2,8.1E1,2.5E1,3.2E1,4.9E1],"tree_param":{"num_deleted":"0","num_feature":"17","num_nodes":"9","size_leaf_vector":"1"}},{"base_weights":[-3.5823649E-3,7.0548337E-3,-6.0969354E-3,-9.456728E-3,5.9690266E-3,1.7762255E-2,-5.524461E-3,-2.41145E-3,8.293422E-3],"categories":[],"categories_nodes":[],"categories_segments":[],"categories_sizes":[],"default_left":[0,0,0,0,0,0,0,0,0],"id":94,"left_children":[1,3,-1,5,-1,7,-1,-1,-1],"loss_changes":[1.0542526E-1,1.2745208E-1,0E0,1.4056681E-1,0E0,1.9577244E-1,0E0,0E0,0E0],"parents":[2147483647,0,0,1,1,3,3,5,5],"right_children":[2,4,-1,6,-1,8,-1,-1,-1],"split_conditions":[3.82025E7,2.06E2,-6.0969354E-3,2.0972E7,5.9690266E-3,2.009E3,-5.524461E-3,-2.41145E-3,8.293422E-3],"split_indices":[15,8,0,15,0,1,0,0,0],"split_type":[0,0,0,0,0,0,0,0,0],"sum_hessian":[1.71E2,1.45E2,2.6E1,1.11E2,3.4E1,7E1,4.1E1,4.3E1,2.7E1],"tree_param":{"num_deleted":"0","num_feature":"17","num_nodes":"9","size_leaf_vector":"1"}},{"base_weights":[-6.058533E-4,-1.3555326E-2,6.555059E-3,8.3515E-3,-1.0382806E-2,-4.1289087E-3,2.858558E-2,7.514793E-3,-1.6475862E-3],"categories":[],"categories_nodes":[],"categories_segments":[],"categories_sizes":[],"default_left":[0,0,0,0,0,0,0,0,0],"id":95,"left_children":[1,3,-1,5,-1,-1,7,-1,-1],"loss_changes":[1.4652604E-1,2.8366235E-1,0E0,1.1769433E-1,0E0,0E0,1.7538595E-1,0E0,0E0],"parents":[2147483647,0,0,1,1,3,3,6,6],"right_children":[2,4,-1,6,-1,-1,8,-1,-1],"split_conditions":[2.657475E5,2.1687E5,6.555059E-3,7.50065E3,-1.0382806E-2,-4.1289087E-3,1.597775E5,7.514793E-3,-1.6475862E-3],"split_indices":[16,16,0,5,0,0,16,0,0],"split_type":[0,0,0,0,0,0,0,0,0],"sum_hessian":[1.69E2,1.42E2,2.7E1,1.15E2,2.7E1,3.3E1,8.2E1,4E1,4.2E1],"tree_param":{"num_deleted":"0","num_feature":"17","num_nodes":"9","size_leaf_vector":"1"}},{"base_weights":[1.1931381E-2,-5.0219446E-3,8.238553E-3,1.4425564E-2,-2.7634613E-2,-1.8234555E-2,7.5582615E-3,2.2877268E-3,-1.062251E-2,-2.5751384E-5,-3.5510268E-3],"categories":[],"categories_nodes":[],"categories_segments":[],"categories_sizes":[],"default_left":[0,0,0,0,0,0,0,0,0,0,0],"id":96,"left_children":[1,3,-1,5,7,9,-1,-1,-1,-1,-1],"loss_changes":[2.0943935E-1,6.284457E-2,0E0,1.5517776E-1,2.6443386E-1,1.5829733E-2,0E0,0E0,0E0,0E0,0E0],"parents":[2147483647,0,0,1,1,3,3,4,4,5,5],"right_children":[2,4,-1,6,8,10,-1,-1,-1,-1,-1],"split_conditions":[1E0,2.01E3,8.238553E-3,1.9395769E5,1.52E2,2E0,7.5582615E-3,2.2877268E-3,-1.062251E-2,-2.5751384E-5,-3.5510268E-3],"split_indices":[12,1,0,16,9,10,0,0,0,0,0],"split_type":[0,0,0,0,0,0,0,0,0,0,0],"sum_hessian":[1.74E2,1.41E2,3.3E1,7.6E1,6.5E1,5E1,2.6E1,4E1,2.5E1,2.5E1,2.5E1],"tree_param":{"num_deleted":"0","num_feature":"17","num_nodes":"11","size_leaf_vector":"1"}},{"base_weights":[-5.0302423E-3,-1.8363325E-2,2.973638E-3,-2.6178039E-3,-5.786916E-3,-2.4947936E-2,5.6743617E-3,1.60478E-3,-6.5230876E-3],"categories":[],"categories_nodes":[],"categories_segments":[],"categories_sizes":[],"default_left":[0,0,0,0,0,0,0,0,0],"id":97,"left_children":[1,3,-1,5,-1,7,-1,-1,-1],"loss_changes":[8.3520845E-2,8.07137E-2,0E0,1.2601718E-1,0E0,1.14995405E-1,0E0,0E0,0E0],"parents":[2147483647,0,0,1,1,3,3,5,5],"right_children":[2,4,-1,6,-1,8,-1,-1,-1],"split_conditions":[2.8377E7,2.125E7,2.973638E-3,6E0,-5.786916E-3,2.006E3,5.6743617E-3,1.60478E-3,-6.5230876E-3],"split_indices":[15,15,0,9,0,1,0,0,0],"split_type":[0,0,0,0,0,0,0,0,0],"sum_hessian":[1.78E2,1.29E2,4.9E1,9.3E1,3.6E1,6.8E1,2.5E1,3.4E1,3.4E1],"tree_param":{"num_deleted":"0","num_feature":"17","num_nodes":"9","size_leaf_vector":"1"}},{"base_weights":[-1.849994E-2,-2.9675897E-2,3.963712E-3,-8.270729E-3,-1.2212531E-2,-7.759221E-3,1.4158091E-2,-3.8217388E-3,3.7211347E-2,6.9115344E-3,1.4403054E-3],"categories":[],"categories_nodes":[],"categories_segments":[],"categories_sizes":[],"default_left":[0,0,0,0,0,0,0,0,0,0,0],"id":98,"left_children":[1,3,-1,5,-1,-1,7,-1,9,-1,-1],"loss_changes":[1.1228135E-1,2.839508E-1,0E0,1.8456486E-1,0E0,0E0,1.1009041E-1,0E0,4.48481E-2,0E0,0E0],"parents":[2147483647,0,0,1,1,3,3,6,6,8,8],"right_children":[2,4,-1,6,-1,-1,8,-1,10,-1,-1],"split_conditions":[3.8256E7,6.1289062E4,3.963712E-3,1E0,-1.2212531E-2,-7.759221E-3,1.46145E7,-3.8217388E-3,1.9613334E7,6.9115344E-3,1.4403054E-3],"split_indices":[15,5,0,2,0,0,15,0,15,0,0],"split_type":[0,0,0,0,0,0,0,0,0,0,0],"sum_hessian":[1.7E2,1.43E2,2.7E1,1.17E2,2.6E1,2.8E1,8.9E1,2.7E1,6.2E1,2.5E1,3.7E1],"tree_param":{"num_deleted":"0","num_feature":"17","num_nodes":"11","size_leaf_vector":"1"}},{"base_weights":[-3.121587E-3,-1.5175277E-2,6.1280373E-3,1.6363801E-3,-8.189863E-3,-2.5055379E-2,8.64196E-3,4.7967057E-3,-9.752102E-3],"categories":[],"categories_nodes":[],"categories_segments":[],"categories_sizes":[],"default_left":[0,0,0,0,0,0,0,0,0],"id":99,"left_children":[1,3,-1,5,-1,7,-1,-1,-1],"loss_changes":[1.3289776E-1,1.6166312E-1,0E0,2.6467478E-1,0E0,4.756318E-1,0E0,0E0,0E0],"parents":[2147483647,0,0,1,1,3,3,5,5],"right_children":[2,4,-1,6,-1,8,-1,-1,-1],"split_conditions":[9.76E2,2.016E3,6.1280373E-3,2E0,-8.189863E-3,2.007E3,8.64196E-3,4.7967057E-3,-9.752102E-3],"split_indices":[0,1,0,3,0,1,0,0,0],"split_type":[0,0,0,0,0,0,0,0,0],"sum_hessian":[1.69E2,1.43E2,2.6E1,1.15E2,2.8E1,8.8E1,2.7E1,4.4E1,4.4E1],"tree_param":{"num_deleted":"0","num_feature":"17","num_nodes":"9","size_leaf_vector":"1"}},{"base_weights":[9.019119E-3,-1.0963851E-2,1.1289393E-2,3.1986136E-3,-3.167734E-2,-6.546329E-2,7.095692E-4,-9.445505E-3,-3.1723573E-3],"categories":[],"categories_nodes":[],"categories_segments":[],"categories_sizes":[],"default_left":[0,0,0,0,0,0,0,0,0],"id":100,"left_children":[1,3,-1,-1,5,7,-1,-1,-1],"loss_changes":[3.6033854E-1,1.3090126E-1,0E0,0E0,1.301529E-1,4.8846737E-2,0E0,0E0,0E0],"parents":[2147483647,0,0,1,1,4,4,5,5],"right_children":[2,4,-1,-1,6,8,-1,-1,-1],"split_conditions":[3.24E2,2.24E2,1.1289393E-2,3.1986136E-3,7.8E1,6.38E2,7.095692E-4,-9.445505E-3,-3.1723573E-3],"split_indices":[10,0,0,0,8,0,0,0,0],"split_type":[0,0,0,0,0,0,0,0,0],"sum_hessian":[1.72E2,1.45E2,2.7E1,4.7E1,9.8E1,5.2E1,4.6E1,2.7E1,2.5E1],"tree_param":{"num_deleted":"0","num_feature":"17","num_nodes":"9","size_leaf_vector":"1"}},{"base_weights":[3.5358816E-3,1.9086165E-2,-5.6171757E-3,3.2851752E-3,7.132428E-3,6.904951E-3,-1.8676827E-2,3.2670656E-4,-5.069422E-3],"categories":[],"categories_nodes":[],"categories_segments":[],"categories_sizes":[],"default_left":[0,0,0,0,0,0,0,0,0],"id":101,"left_children":[1,3,-1,5,-1,-1,7,-1,-1],"loss_changes":[1.6169752E-1,1.1367281E-1,0E0,1.558315E-1,0E0,0E0,5.7075102E-2,0E0,0E0],"parents":[2147483647,0,0,1,1,3,3,6,6],"right_children":[2,4,-1,6,-1,-1,8,-1,-1],"split_conditions":[2.5524667E5,5.6096793E4,-5.6171757E-3,1.0512667E7,7.132428E-3,6.904951E-3,2.0759E7,3.2670656E-4,-5.069422E-3],"split_indices":[16,5,0,15,0,0,15,0,0],"split_type":[0,0,0,0,0,0,0,0,0],"sum_hessian":[1.72E2,1.37E2,3.5E1,1.06E2,3.1E1,2.6E1,8E1,4.8E1,3.2E1],"tree_param":{"num_deleted":"0","num_feature":"17","num_nodes":"9","size_leaf_vector":"1"}},{"base_weights":[-1.9245612E-2,-4.55306E-3,-9.779311E-3,-3.166522E-2,4.200623E-2,4.271533E-3,-8.3306566E-2,8.384711E-3,2.9492358E-4,-1.5221772E-2,-2.4712926E-3],"categories":[],"categories_nodes":[],"categories_segments":[],"categories_sizes":[],"default_left":[0,0,0,0,0,0,0,0,0,0,0],"id":102,"left_children":[1,3,-1,5,7,-1,9,-1,-1,-1,-1],"loss_changes":[2.0497797E-1,1.919409E-1,0E0,3.723052E-1,9.1266744E-2,0E0,2.2639024E-1,0E0,0E0,0E0,0E0],"parents":[2147483647,0,0,1,1,3,3,4,4,6,6],"right_children":[2,4,-1,6,8,-1,10,-1,-1,-1,-1],"split_conditions":[2.58E2,2E0,-9.779311E-3,2.007E3,2.014E3,4.271533E-3,1.4613E5,8.384711E-3,2.9492358E-4,-1.5221772E-2,-2.4712926E-3],"split_indices":[8,3,0,1,1,0,16,0,0,0,0],"split_type":[0,0,0,0,0,0,0,0,0,0,0],"sum_hessian":[1.77E2,1.5E2,2.7E1,9.5E1,5.5E1,3.9E1,5.6E1,2.6E1,2.9E1,2.5E1,3.1E1],"tree_param":{"num_deleted":"0","num_feature":"17","num_nodes":"11","size_leaf_vector":"1"}},{"base_weights":[2.3651875E-3,-3.2742187E-2,3.3059504E-2,-1.1433489E-2,5.8051404E-3,-2.4424093E-3,6.952251E-2,-2.93294E-3,3.957502E-3,1.1085248E-2,1.643319E-3],"categories":[],"categories_nodes":[],"categories_segments":[],"categories_sizes":[],"default_left":[0,0,0,0,0,0,0,0,0,0,0],"id":103,"left_children":[1,3,5,-1,7,-1,9,-1,-1,-1,-1],"loss_changes":[1.939723E-1,2.648589E-1,2.0291635E-1,0E0,6.997709E-2,0E0,1.2763497E-1,0E0,0E0,0E0,0E0],"parents":[2147483647,0,0,1,1,2,2,4,4,6,6],"right_children":[2,4,6,-1,8,-1,10,-1,-1,-1,-1],"split_conditions":[2.009E3,1E0,1E0,-1.1433489E-2,2.003E3,-2.4424093E-3,2.015E3,-2.93294E-3,3.957502E-3,1.1085248E-2,1.643319E-3],"split_indices":[1,2,3,0,1,0,1,0,0,0,0],"split_type":[0,0,0,0,0,0,0,0,0,0,0],"sum_hessian":[1.78E2,8.3E1,9.5E1,2.6E1,5.7E1,3.7E1,5.8E1,2.8E1,2.9E1,3.2E1,2.6E1],"tree_param":{"num_deleted":"0","num_feature":"17","num_nodes":"11","size_leaf_vector":"1"}},{"base_weights":[1.0853764E-2,2.7687464E-2,-4.833553E-3,6.795763E-3,8.161737E-3,5.034852E-3,-3.2850172E-2,-5.8498215E-3,-8.7226153E-4],"categories":[],"categories_nodes":[],"categories_segments":[],"categories_sizes":[],"default_left":[0,0,0,0,0,0,0,0,0],"id":104,"left_children":[1,3,-1,5,-1,-1,7,-1,-1],"loss_changes":[1.7968938E-1,1.5718159E-1,0E0,1.777763E-1,0E0,0E0,3.2906268E-2,0E0,0E0],"parents":[2147483647,0,0,1,1,3,3,6,6],"right_children":[2,4,-1,6,-1,-1,8,-1,-1],"split_conditions":[2.08E2,1.08E2,-4.833553E-3,2.24E2,8.161737E-3,5.034852E-3,1E0,-5.8498215E-3,-8.7226153E-4],"split_indices":[7,8,0,0,0,0,2,0,0],"split_type":[0,0,0,0,0,0,0,0,0],"sum_hessian":[1.78E2,1.39E2,3.9E1,1.01E2,3.8E1,4.8E1,5.3E1,2.5E1,2.8E1],"tree_param":{"num_deleted":"0","num_feature":"17","num_nodes":"9","size_leaf_vector":"1"}},{"base_weights":[5.0982726E-3,-7.354528E-3,8.009794E-3,3.5321543E-3,-1.9887185E-2,-7.6367925E-3,-3.0308904E-3,5.1930756E-3,-2.3401918E-2,-6.8738232E-3,3.3124388E-4],"categories":[],"categories_nodes":[],"categories_segments":[],"categories_sizes":[],"default_left":[0,0,0,0,0,0,0,0,0,0,0],"id":105,"left_children":[1,3,-1,-1,5,-1,7,-1,9,-1,-1],"loss_changes":[1.7056909E-1,8.467303E-2,0E0,0E0,1.1591936E-1,0E0,1.0757966E-1,0E0,8.500682E-2,0E0,0E0],"parents":[2147483647,0,0,1,1,4,4,6,6,8,8],"right_children":[2,4,-1,-1,6,-1,8,-1,10,-1,-1],"split_conditions":[7.686343E4,1.24E2,8.009794E-3,3.5321543E-3,1.404325E5,-7.6367925E-3,1.7745333E5,5.1930756E-3,3.2167594E4,-6.8738232E-3,3.3124388E-4],"split_indices":[5,0,0,0,16,0,16,0,5,0,0],"split_type":[0,0,0,0,0,0,0,0,0,0,0],"sum_hessian":[1.81E2,1.56E2,2.5E1,3.5E1,1.21E2,2.7E1,9.4E1,2.5E1,6.9E1,2.5E1,4.4E1],"tree_param":{"num_deleted":"0","num_feature":"17","num_nodes":"11","size_leaf_vector":"1"}},{"base_weights":[-2.223256E-2,-1.0390938E-2,-8.807308E-3,-7.3685604E-3,9.887453E-3,4.5832815E-3,-2.6211464E-3,-3.5124465E-3,2.9941748E-3],"categories":[],"categories_nodes":[],"categories_segments":[],"categories_sizes":[],"default_left":[0,0,0,0,0,0,0,0,0],"id":106,"left_children":[1,3,-1,-1,5,-1,7,-1,-1],"loss_changes":[1.3786404E-1,1.958227E-1,0E0,0E0,5.2276764E-2,0E0,9.3132675E-2,0E0,0E0],"parents":[2147483647,0,0,1,1,4,4,6,6],"right_children":[2,4,-1,-1,6,-1,8,-1,-1],"split_conditions":[4.8E1,2.003E3,-8.807308E-3,-7.3685604E-3,2.008E3,4.5832815E-3,1E0,-3.5124465E-3,2.9941748E-3],"split_indices":[12,1,0,0,1,0,3,0,0],"split_type":[0,0,0,0,0,0,0,0,0],"sum_hessian":[1.77E2,1.51E2,2.6E1,3.6E1,1.15E2,2.9E1,8.6E1,4.3E1,4.3E1],"tree_param":{"num_deleted":"0","num_feature":"17","num_nodes":"9","size_leaf_vector":"1"}},{"base_weights":[-3.6406384E-3,9.234019E-3,-5.6874487E-3,-5.9928717E-3,4.6718842E-3,1.1556463E-2,-4.7691516E-3,7.0860544E-3,-2.4019508E-3],"categories":[],"categories_nodes":[],"categories_segments":[],"categories_sizes":[],"default_left":[0,0,0,0,0,0,0,0,0],"id":107,"left_children":[1,3,-1,5,-1,7,-1,-1,-1],"loss_changes":[1.2320597E-1,8.304269E-2,0E0,7.6656625E-2,0E0,1.5782724E-1,0E0,0E0,0E0],"parents":[2147483647,0,0,1,1,3,3,5,5],"right_children":[2,4,-1,6,-1,8,-1,-1,-1],"split_conditions":[2.5524667E5,1.9395769E5,-5.6874487E-3,1.597775E5,4.6718842E-3,2.007E3,-4.7691516E-3,7.0860544E-3,-2.4019508E-3],"split_indices":[16,16,0,16,0,1,0,0,0],"split_type":[0,0,0,0,0,0,0,0,0],"sum_hessian":[1.78E2,1.44E2,3.4E1,1.03E2,4.1E1,7.3E1,3E1,2.7E1,4.6E1],"tree_param":{"num_deleted":"0","num_feature":"17","num_nodes":"9","size_leaf_vector":"1"}},{"base_weights":[-2.0132178E-2,-7.4581644E-3,-8.029638E-3,-2.6708456E-2,7.6948963E-3,-4.941706E-2,-1.5392989E-3,-8.957296E-3,5.954406E-4,4.2832787E-3,-3.7543518E-3],"categories":[],"categories_nodes":[],"categories_segments":[],"categories_sizes":[],"default_left":[0,0,0,0,0,0,0,0,0,0,0],"id":108,"left_children":[1,3,-1,5,-1,7,9,-1,-1,-1,-1],"loss_changes":[1.313174E-1,2.3603527E-1,0E0,6.736758E-2,0E0,1.3838983E-1,9.2670284E-2,0E0,0E0,0E0,0E0],"parents":[2147483647,0,0,1,1,3,3,5,5,6,6],"right_children":[2,4,-1,6,-1,8,10,-1,-1,-1,-1],"split_conditions":[2.6548666E5,2.49E2,-8.029638E-3,2.009E3,7.6948963E-3,1.404325E5,1.7728E7,-8.957296E-3,5.954406E-4,4.2832787E-3,-3.7543518E-3],"split_indices":[16,10,0,1,0,16,15,0,0,0,0],"split_type":[0,0,0,0,0,0,0,0,0,0,0],"sum_hessian":[1.72E2,1.43E2,2.9E1,1.17E2,2.6E1,6.1E1,5.6E1,3.5E1,2.6E1,2.5E1,3.1E1],"tree_param":{"num_deleted":"0","num_feature":"17","num_nodes":"11","size_leaf_vector":"1"}},{"base_weights":[-1.2249471E-2,-2.6083687E-2,4.6295896E-3,-1.1767664E-2,-7.2558963E-4,3.1045817E-2,-9.828328E-3,7.1918466E-3,1.007422E-2,-1.5429679E-3,3.6110175E-3],"categories":[],"categories_nodes":[],"categories_segments":[],"categories_sizes":[],"default_left":[0,0,0,0,0,0,0,0,0,0,0],"id":109,"left_children":[1,3,-1,-1,5,7,-1,-1,9,-1,-1],"loss_changes":[1.4375512E-1,3.320497E-1,0E0,0E0,3.532999E-1,7.2991654E-2,0E0,0E0,3.907023E-2,0E0,0E0],"parents":[2147483647,0,0,1,1,4,4,5,5,8,8],"right_children":[2,4,-1,-1,6,8,-1,-1,10,-1,-1],"split_conditions":[3E0,7.0461626E3,4.6295896E-3,-1.1767664E-2,9.08E2,3.64E2,-9.828328E-3,7.1918466E-3,1.66E2,-1.5429679E-3,3.6110175E-3],"split_indices":[11,5,0,0,0,0,0,0,9,0,0],"split_type":[0,0,0,0,0,0,0,0,0,0,0],"sum_hessian":[1.75E2,1.42E2,3.3E1,3E1,1.12E2,8.5E1,2.7E1,2.8E1,5.7E1,2.9E1,2.8E1],"tree_param":{"num_deleted":"0","num_feature":"17","num_nodes":"11","size_leaf_vector":"1"}},{"base_weights":[-8.09449E-3,-2.385803E-2,6.0459473E-3,-1.2490682E-4,-1.1714945E-2,-7.3750853E-3,2.792456E-2,5.0043363E-2,-2.3342127E-3,2.8227721E-3,7.6646768E-3],"categories":[],"categories_nodes":[],"categories_segments":[],"categories_sizes":[],"default_left":[0,0,0,0,0,0,0,0,0,0,0],"id":110,"left_children":[1,3,-1,5,-1,-1,7,9,-1,-1,-1],"loss_changes":[1.9055675E-1,3.1660116E-1,0E0,2.3955387E-1,0E0,0E0,9.6420564E-2,3.207828E-2,0E0,0E0,0E0],"parents":[2147483647,0,0,1,1,3,3,6,6,7,7],"right_children":[2,4,-1,6,-1,-1,8,10,-1,-1,-1],"split_conditions":[4E0,9.08E2,6.0459473E-3,7.0461626E3,-1.1714945E-2,-7.3750853E-3,1.83E2,1.08E2,-2.3342127E-3,2.8227721E-3,7.6646768E-3],"split_indices":[11,0,0,5,0,0,7,8,0,0,0],"split_type":[0,0,0,0,0,0,0,0,0,0,0],"sum_hessian":[1.74E2,1.42E2,3.2E1,1.14E2,2.8E1,3.1E1,8.3E1,5.8E1,2.5E1,3.3E1,2.5E1],"tree_param":{"num_deleted":"0","num_feature":"17","num_nodes":"11","size_leaf_vector":"1"}},{"base_weights":[-4.935269E-3,-1.9354403E-2,7.068937E-3,-5.5472134E-4,-1.1405454E-2,-2.627554E-2,5.3292452E-3,-6.133513E-3,-6.8431753E-3,-5.8465037E-3,5.163561E-3],"categories":[],"categories_nodes":[],"categories_segments":[],"categories_sizes":[],"default_left":[0,0,0,0,0,0,0,0,0,0,0],"id":111,"left_children":[1,3,-1,5,-1,7,-1,9,-1,-1,-1],"loss_changes":[2.0419034E-1,2.7944893E-1,0E0,1.842194E-1,0E0,7.6000296E-2,0E0,1.9045396E-1,0E0,0E0,0E0],"parents":[2147483647,0,0,1,1,3,3,5,5,7,7],"right_children":[2,4,-1,6,-1,8,-1,10,-1,-1,-1],"split_conditions":[3.8256E7,2.28365E5,7.068937E-3,1.03E2,-1.1405454E-2,3.2167594E4,5.3292452E-3,7.50065E3,-6.8431753E-3,-5.8465037E-3,5.163561E-3],"split_indices":[15,16,0,9,0,5,0,5,0,0,0],"split_type":[0,0,0,0,0,0,0,0,0,0,0],"sum_hessian":[1.85E2,1.56E2,2.9E1,1.31E2,2.5E1,8.9E1,4.2E1,6.1E1,2.8E1,3.2E1,2.9E1],"tree_param":{"num_deleted":"0","num_feature":"17","num_nodes":"11","size_leaf_vector":"1"}},{"base_weights":[1.5985372E-2,2.9243814E-2,-6.367016E-3,8.593346E-3,1.1993219E-2,-5.885461E-3,3.4195326E-2,9.163016E-3,-1.3774447E-2,-7.485423E-3,4.7835116E-3],"categories":[],"categories_nodes":[],"categories_segments":[],"categories_sizes":[],"default_left":[0,0,0,0,0,0,0,0,0,0,0],"id":112,"left_children":[1,3,-1,-1,5,-1,7,-1,9,-1,-1],