tree
version=v4
num_class=1
num_tree_per_iteration=1
label_index=0
max_feature_idx=5
objective=regression
feature_names=Column_0 Column_1 Column_2 Column_3 Column_4 Column_5
feature_infos=[1993:2021] [0:2] [68.929999999999993:135068.88320000001] [0:114770250] [0:73442252571.428574] [69.929999999999993:135559.88320000001]
tree_sizes=648 639 715 716 721 720 799 802 720 801 800 803 725 801 799 803 804 800 805 799 805 801 724 725 806 722 727 811 726 801 724 820 724 806 813 737 818 814 728 735 734 736 734 821 815 737 734 822 737 818 822 738 740 826 741 821 739 822 740 739 821 740

Tree=0
num_leaves=6
num_cat=0
split_feature=2 2 2 1 2
split_gain=100.706 18.2102 14.1379 4.52725 4.12586
threshold=50812.395950000013 72899.619250000018 36728.902150000009 1.0000000180025095e-35 18092.625600000003
decision_type=2 2 2 2 2
left_child=2 -2 3 -1 -5
right_child=1 -3 -4 4 -6
leaf_value=-0.017639859671105419 0.033201097176381034 0.090941300339737116 0.0065975144822375672 -0.052517510244374538 -0.028200026433103695
leaf_weight=35 36 22 30 33 37
leaf_count=35 36 22 30 33 37
internal_value=-1.79991e-09 0.0551026 -0.0236737 -0.0323226 -0.039664
internal_weight=0 58 135 105 70
internal_count=193 58 135 105 70
is_linear=0
shrinkage=1


Tree=1
num_leaves=6
num_cat=0
split_feature=2 2 2 1 2
split_gain=90.8871 16.4347 12.7595 4.08584 3.72359
threshold=50812.395950000013 72899.619250000018 36728.902150000009 1.0000000180025095e-35 18092.625600000003
decision_type=2 2 2 2 2
left_child=2 -2 3 -1 -5
right_child=1 -3 -4 4 -6
leaf_value=-0.016757864419903075 0.031541044052897226 0.086394238539717422 0.0062676404478649297 -0.049891631869655673 -0.026790023126916307
leaf_weight=35 36 22 30 33 37
leaf_count=35 36 22 30 33 37
internal_value=0 0.0523474 -0.02249 -0.0307065 -0.0376808
internal_weight=0 58 135 105 70
internal_count=193 58 135 105 70
is_linear=0
shrinkage=0.05


Tree=2
num_leaves=7
num_cat=0
split_feature=4 2 2 0 0 4
split_gain=87.5498 17.376 9.99192 3.4561 4.15246 1.42731
threshold=22727825300.000004 36728.902150000009 72899.619250000018 2003.5000000000002 2011.5000000000002 15067902000.000002
decision_type=2 2 2 2 2 2
left_child=1 3 -2 -1 -5 -3
right_child=2 5 -4 4 -6 -7
leaf_value=-0.040971861550441163 0.040421468537786734 -0.0019914495525881651 0.088744009435176852 -0.011432406894470518 -0.036808463704905342 0.015929043089970948
leaf_weight=39 23 20 20 38 28 25
leaf_count=39 23 20 20 38 28 25
internal_value=0 -0.0180305 0.0628971 -0.0291712 -0.022198 0.00796438
internal_weight=0 150 43 105 66 45
internal_count=193 150 43 105 66 45
is_linear=0
shrinkage=0.05


Tree=3
num_leaves=7
num_cat=0
split_feature=4 2 2 1 4 4
split_gain=79.0137 15.6818 9.01771 3.54455 3.2037 1.28814
threshold=22727825300.000004 36728.902150000009 72899.619250000018 1.0000000180025095e-35 6443574375.000001 15067902000.000002
decision_type=2 2 2 2 2 2
left_child=1 3 -2 -1 -5 -3
right_child=2 5 -4 4 -6 -7
leaf_value=-0.014720745214394161 0.03840039450189342 -0.0018918774928897619 0.08430680543184281 -0.04347207114100457 -0.021857117501397929 0.015132590802852064
leaf_weight=35 23 20 20 40 30 25
leaf_count=35 23 20 20 40 30 25
internal_value=0 -0.017129 0.0597522 -0.0277126 -0.0342085 0.00756616
internal_weight=0 150 43 105 70 45
internal_count=193 150 43 105 70 45
is_linear=0
shrinkage=0.05


Tree=4
num_leaves=7
num_cat=0
split_feature=2 2 2 1 0 3
split_gain=67.1636 12.9542 8.66231 2.76718 2.64484 0.879655
threshold=50073.023400000005 72899.619250000018 21365.624850000004 1.0000000180025095e-35 2007.5000000000002 13746333.333333334
decision_type=2 2 2 2 2 2
left_child=2 -2 3 -1 -4 -5
right_child=1 -3 4 5 -6 -7
leaf_value=-0.019748477473855022 0.026083361954452135 0.074067388610406362 -0.016103726580134922 -0.048358747214078901 0.0040632815188567702 -0.033706861805348175
leaf_weight=25 39 22 37 20 29 21
leaf_count=25 39 22 37 20 29 21
internal_value=0 0.0433891 -0.020051 -0.0328596 -0.00724247 -0.0408541
internal_weight=0 61 132 66 66 41
internal_count=193 61 132 66 66 41
is_linear=0
shrinkage=0.05


Tree=5
num_leaves=7
num_cat=0
split_feature=4 2 2 1 2 4
split_gain=65.4823 12.7941 7.23393 3.25588 2.21757 1.24804
threshold=22727825300.000004 35162.097200000011 72899.619250000018 1.0000000180025095e-35 18092.625600000003 14011077166.66667
decision_type=2 2 2 2 2 2
left_child=1 3 -2 -1 -5 -3
right_child=2 5 -4 4 -6 -7
leaf_value=-0.013251021770494326 0.035271945790104245 -0.0030715148208070209 0.076388098001480109 -0.041300491920926358 -0.023105588533422528 0.01310956301592971
leaf_weight=35 23 22 20 33 34 26
leaf_count=35 23 22 20 33 34 26
internal_value=0 -0.0155934 0.0543957 -0.0256107 -0.0320673 0.00569324
internal_weight=0 150 43 102 67 48
internal_count=193 150 43 102 67 48
is_linear=0
shrinkage=0.05


Tree=6
num_leaves=8
num_cat=0
split_feature=4 2 2 0 0 4 4
split_gain=59.0978 11.5596 6.52862 2.74343 3.29258 0.909228 0.7497
threshold=22727825300.000004 36728.902150000009 72899.619250000018 2003.5000000000002 2012.5000000000002 15067902000.000002 6614758583.3333349
decision_type=2 2 2 2 2 2 2
left_child=1 3 -2 -1 6 -3 -5
right_child=2 5 -4 4 -6 -7 -8
leaf_value=-0.034414341396246204 0.033508348724116448 -0.001557565211551264 0.072568692043423658 -0.0023689678914490201 -0.031989461570978171 0.012745448485016823 -0.015895333252847196
leaf_weight=39 23 20 20 21 25 25 20
leaf_count=39 23 20 20 21 25 25 20
internal_value=0 -0.0148138 0.051676 -0.0239005 -0.0176878 0.00638855 -0.00896719
internal_weight=0 150 43 105 66 45 41
internal_count=193 150 43 105 66 45 41
is_linear=0
shrinkage=0.05


Tree=7
num_leaves=8
num_cat=0
split_feature=4 5 5 1 3 4 5
split_gain=53.3358 10.4824 5.89208 2.77656 2.27261 1.01082 0.689295
threshold=22727825300.000004 35472.097200000011 72899.619250000018 1.0000000180025095e-35 13123000.000000002 13367985000.000002 24057.872250000004
decision_type=2 2 2 2 2 2 2
left_child=1 3 -2 -1 -5 -3 -6
right_child=2 5 -4 4 6 -7 -8
leaf_value=-0.01172662270388433 0.031832932745632918 -0.0033903699438087645 0.068940259143710145 -0.042272847890853886 -0.028198927968740461 0.011327130617324398 -0.015745359370484949
leaf_weight=35 23 20 20 22 25 28 20
leaf_count=35 23 20 20 22 25 28 20
internal_value=0 -0.0140731 0.0490922 -0.0231403 -0.0291027 0.00519484 -0.022664
internal_weight=0 150 43 102 67 48 45
internal_count=193 150 43 102 67 48 45
is_linear=0
shrinkage=0.05


Tree=8
num_leaves=7
num_cat=0
split_feature=4 2 2 1 2 2
split_gain=48.1355 9.4604 5.3176 2.50585 1.76034 0.923626
threshold=22727825300.000004 35162.097200000011 72899.619250000018 1.0000000180025095e-35 16003.000000000002 47554.123650000001
decision_type=2 2 2 2 2 2
left_child=1 3 -2 -1 -5 -3
right_child=2 5 -4 4 -6 -7
leaf_value=-0.011140291807906969 0.030241286009550096 -0.0017175020705908536 0.065493246018886564 -0.036648198136438929 -0.020349809587807272 0.012166182376930249
leaf_weight=35 23 25 20 30 37 23
leaf_count=35 23 25 20 30 37 23
internal_value=0 -0.0133694 0.0466375 -0.0219833 -0.0276476 0.0049351
internal_weight=0 150 43 102 67 48
internal_count=193 150 43 102 67 48
is_linear=0
shrinkage=0.05


Tree=9
num_leaves=8
num_cat=0
split_feature=4 2 2 2 1 4 3
split_gain=43.4423 8.5449 4.79914 2.2141 1.57275 0.712537 0.653887
threshold=22727825300.000004 36728.902150000009 72899.619250000018 21365.624850000004 1.0000000180025095e-35 15067902000.000002 13746333.333333334
decision_type=2 2 2 2 2 2 2
left_child=1 3 -2 4 -1 -3 -6
right_child=2 5 -4 -5 6 -7 -8
leaf_value=-0.016210350528359414 0.028729221095209534 -0.0015061359410174192 0.062218583673238764 -0.01106820588779206 -0.038592085763812067 0.011155649561434985 -0.025959608233755545
leaf_weight=25 23 20 20 39 20 25 21
leaf_count=25 23 20 20 39 20 25 21
internal_value=0 -0.012701 0.0443057 -0.0205135 -0.0260947 0.00552819 -0.0321218
internal_weight=0 150 43 105 66 45 41
internal_count=193 150 43 105 66 45 41
is_linear=0
shrinkage=0.05


Tree=10
num_leaves=8
num_cat=0
split_feature=4 2 2 4 4 4 0
split_gain=39.2067 7.71476 4.33122 2.19066 2.74752 0.947442 0.86283
threshold=22727825300.000004 35162.097200000011 72899.619250000018 234030000.00000003 8826534904.7619076 4115208000.0000005 2005.5000000000002
decision_type=2 2 2 2 2 2 2
left_child=1 3 -2 -1 5 -5 -3
right_child=2 6 -4 4 -6 -7 -8
leaf_value=-0.0054536328065123169 0.027292760461568834 -0.0031374382875150163 0.0591076546907425 -0.034588357625585618 -0.0074932964146137235 -0.022083597936268365 0.010375867525322571
leaf_weight=21 23 21 20 33 20 28 27
leaf_count=21 23 21 20 33 20 28 27
internal_value=0 -0.0120659 0.0420904 -0.0198446 -0.0235756 -0.0288485 0.0044638
internal_weight=0 150 43 102 81 61 48
internal_count=193 150 43 102 81 61 48
is_linear=0
shrinkage=0.05


Tree=11
num_leaves=8
num_cat=0
split_feature=2 2 2 0 1 3 0
split_gain=33.2066 6.18509 4.82355 1.79139 1.3427 0.595704 0.543077
threshold=50073.023400000005 72899.619250000018 21365.624850000004 2009.5000000000002 1.0000000180025095e-35 13746333.333333334 2003.5000000000002
decision_type=2 2 2 2 2 2 2
left_child=2 -2 4 6 -1 -6 -4
right_child=1 -3 3 -5 5 -7 -8
leaf_value=-0.014523875715211035 0.018550888575517979 0.051707058230584316 -0.016591134537011384 0.0067224598884501538 -0.03540134645998478 -0.023343980840096871 -0.0053254950346182228
leaf_weight=25 39 22 20 23 20 21 23
leaf_count=25 39 22 20 23 20 21 23
internal_value=0 0.0305089 -0.0140988 -0.0045408 -0.0236568 -0.0292256 -0.0105653
internal_weight=0 61 132 66 66 41 43
internal_count=193 61 132 66 66 41 43
is_linear=0
shrinkage=0.05


Tree=12
num_leaves=7
num_cat=0
split_feature=4 5 5 0 1 0
split_gain=32.4883 6.30556 3.47931 1.98295 2.41232 0.632977
threshold=22727825300.000004 36851.402150000009 72899.619250000018 2003.5000000000002 1.0000000180025095e-35 2005.5000000000002
decision_type=2 2 2 2 2 2
left_child=1 3 -2 -1 -5 -3
right_child=2 5 -4 4 -6 -7
leaf_value=-0.026633352115272714 0.025052006081070589 -0.0019541669730097056 0.053566917292773721 -0.00092425570323097488 -0.02036642890710097 0.009979807483032347
leaf_weight=39 23 20 20 27 39 25
leaf_count=39 23 20 20 27 39 25
internal_value=0 -0.0109836 0.0383148 -0.0176947 -0.0124128 0.00467582
internal_weight=0 150 43 105 66 45
internal_count=193 150 43 105 66 45
is_linear=0
shrinkage=0.05


Tree=13
num_leaves=8
num_cat=0
split_feature=4 2 2 2 4 4 4
split_gain=29.3207 5.8745 3.14008 1.65097 1.17651 0.823047 0.590052
threshold=22727825300.000004 21365.624850000004 72899.619250000018 47554.123650000001 331200000.00000006 11065740000.000002 2556926500.0000005
decision_type=2 2 2 2 2 2 2
left_child=1 4 -2 5 -1 -3 -6
right_child=2 3 -4 -5 6 -7 -8
leaf_value=-0.012156436562707479 0.023799405408942181 -0.010973553874396852 0.050888570835813884 0.0097521459521806766 -0.032377319889409201 0.00077073235476676088 -0.020785064534689097
leaf_weight=22 23 35 20 23 21 26 23
leaf_count=22 23 35 20 23 21 26 23
internal_value=0 -0.0104344 0.036399 -0.00166352 -0.0215973 -0.00596779 -0.0263177
internal_weight=0 150 43 84 66 61 44
internal_count=193 150 43 84 66 61 44
is_linear=0
shrinkage=0.05


Tree=14
num_leaves=8
num_cat=0
split_feature=4 2 2 0 2 4 4
split_gain=26.4619 5.30174 2.83392 2.7043 1.22699 1.0618 0.532522
threshold=22727825300.000004 21365.624850000004 72899.619250000018 2002.5000000000002 40842.935700000009 331200000.00000006 2556926500.0000005
decision_type=2 2 2 2 2 2 2
left_child=1 5 -2 -3 -5 -1 -7
right_child=2 3 -4 4 -6 6 -8
leaf_value=-0.011548614660701291 0.022609434532932939 -0.017119194853252598 0.048344142721034593 -0.0020604951304113986 0.012202109046280385 -0.030758453479834965 -0.019745811228842839
leaf_weight=22 23 21 20 38 25 21 23
leaf_count=22 23 21 20 38 25 21 23
internal_value=0 -0.00991267 0.0345791 -0.00158035 0.00359927 -0.0205174 -0.0250018
internal_weight=0 150 43 84 63 66 44
internal_count=193 150 43 84 63 66 44
is_linear=0
shrinkage=0.05


Tree=15
num_leaves=8
num_cat=0
split_feature=4 2 2 0 2 1 2
split_gain=23.8819 4.78482 2.55761 2.44063 1.10736 1.0287 0.239411
threshold=22727825300.000004 21365.624850000004 72899.619250000018 2002.5000000000002 40842.935700000009 1.0000000180025095e-35 6718.1331500000015
decision_type=2 2 2 2 2 2 2
left_child=1 5 -2 -3 -5 -1 -7
right_child=2 3 -4 4 -6 6 -8
leaf_value=-0.011497559666808229 0.021478963853872341 -0.016263235169407426 0.045926935970783234 -0.0019574703403601522 0.011592003837227822 -0.028094635513566793 -0.020450841560959818
leaf_weight=25 23 21 20 38 25 21 20
leaf_count=25 23 21 20 38 25 21 20
internal_value=0 -0.00941703 0.0328501 -0.00150133 0.00341931 -0.0194916 -0.024366
internal_weight=0 150 43 84 63 66 41
internal_count=193 150 43 84 63 66 41
is_linear=0
shrinkage=0.05


Tree=16
num_leaves=8
num_cat=0
split_feature=4 2 2 4 0 4 2
split_gain=21.5534 4.33251 2.30825 2.02314 1.02735 0.947502 0.909191
threshold=22727825300.000004 28403.752200000006 72899.619250000018 234030000.00000003 2004.5000000000002 4115208000.0000005 40842.935700000009
decision_type=2 2 2 2 2 2 2
left_child=1 3 -2 -1 -3 -5 -6
right_child=2 4 -4 5 6 -7 -8
leaf_value=-0.0025975389988161625 0.020405015381781952 -0.0076119562999034931 0.043630589284002784 -0.026712739264423198 -0.0020005692273289675 -0.014539332002882037 0.012712486824464232
leaf_weight=20 23 24 20 33 21 31 21
leaf_count=20 23 24 20 33 21 31 21
internal_value=0 -0.00894618 0.0312076 -0.0164785 0.000640353 -0.0208162 0.00535596
internal_weight=0 150 43 84 66 64 42
internal_count=193 150 43 84 66 64 42
is_linear=0
shrinkage=0.05


Tree=17
num_leaves=8
num_cat=0
split_feature=4 2 0 2 0 0 2
split_gain=19.4519 3.95443 2.0872 2.08319 0.91884 1.64037 0.881485
threshold=22727825300.000004 21365.624850000004 2002.5000000000002 72899.619250000018 2010.5000000000002 2002.5000000000002 40842.935700000009
decision_type=2 2 2 2 2 2 2
left_child=1 4 -3 -2 5 -1 -4
right_child=3 2 6 -5 -6 -7 -8
leaf_value=-0.022557163176437221 0.019384764491215997 -0.01495401906293063 -0.0015494987546270224 0.041449059634469453 -0.026293612856950078 -0.0034220006560818071 0.010539374690502883
leaf_weight=24 23 21 38 20 21 21 25
leaf_count=24 23 21 38 20 21 21 25
internal_value=0 -0.00849887 -0.00130275 0.0296472 -0.0176576 -0.0136274 0.00324767
internal_weight=0 150 84 43 66 45 63
internal_count=193 150 84 43 66 45 63
is_linear=0
shrinkage=0.05


Tree=18
num_leaves=8
num_cat=0
split_feature=4 4 4 2 4 2 2
split_gain=17.5554 3.60553 4.62187 1.88008 0.818255 0.428678 0.110932
threshold=22727825300.000004 8826534904.7619076 77698000.000000015 72899.619250000018 2556926500.0000005 47554.123650000001 35162.097200000011
decision_type=2 2 2 2 2 2 2
left_child=1 2 -1 -2 -4 6 -3
right_child=3 5 4 -5 -6 -7 -8
leaf_value=0.0057601009584253744 0.018415526430244033 -0.0045758322789333766 -0.027862204142190795 0.039376607241574678 -0.016538924174622084 0.0068684981248918033 0.00056929076143371119
leaf_weight=21 23 20 27 20 39 21 22
leaf_count=21 23 20 27 20 39 21 22
internal_value=0 -0.00807393 -0.0146705 0.0281649 -0.0211712 0.00103565 -0.00188077
internal_weight=0 150 87 43 66 63 42
internal_count=193 150 87 43 66 63 42
is_linear=0
shrinkage=0.05


Tree=19
num_leaves=8
num_cat=0
split_feature=2 2 2 0 0 0 0
split_gain=14.882 3.6659 1.41438 1.2037 0.793758 1.37684 0.586846
threshold=40842.935700000009 72899.619250000018 21365.624850000004 2007.5000000000002 2010.5000000000002 2002.5000000000002 2007.5000000000002
decision_type=2 2 2 2 2 2 2
left_child=2 3 4 -2 5 -1 -4
right_child=1 -3 6 -5 -6 -7 -8
leaf_value=-0.02045792161176602 0.00085983076798064372 0.034431334576484833 -0.0097973758055429384 0.016172805995765059 -0.024049410720666253 -0.0029270955294902839 0.00098151678077714605
leaf_weight=24 21 22 28 33 21 21 23
leaf_count=24 21 22 28 33 21 21 23
internal_value=0 0.017227 -0.0111902 0.0102178 -0.0160227 -0.0122769 -0.00493631
internal_weight=0 76 117 54 66 45 51
internal_count=193 76 117 54 66 45 51
is_linear=0
shrinkage=0.05


Tree=20
num_leaves=8
num_cat=0
split_feature=4 4 4 2 4 2 2
split_gain=14.4773 2.96171 4.00897 1.52856 0.682777 0.328531 0.0827955
threshold=22727825300.000004 8826534904.7619076 77698000.000000015 72899.619250000018 2556926500.0000005 47554.123650000001 35162.097200000011
decision_type=2 2 2 2 2 2 2
left_child=1 2 -1 -2 -4 6 -3
right_child=3 5 4 -5 -6 -7 -8
leaf_value=0.0057171211223162356 0.016785976825200995 -0.0039571763575077063 -0.025477082461670592 0.03568620953708887 -0.015133587707980321 0.0060305414366580191 0.00048782267523082823
leaf_weight=21 23 20 27 20 39 21 22
leaf_count=21 23 20 27 20 39 21 22
internal_value=0 -0.00733201 -0.0133107 0.0255768 -0.019365 0.000924285 -0.00162884
internal_weight=0 150 87 43 66 63 42
internal_count=193 150 87 43 66 63 42
is_linear=0
shrinkage=0.05


Tree=21
num_leaves=8
num_cat=0
split_feature=4 2 0 2 3 0 4
split_gain=13.0657 2.70472 1.66453 1.37953 0.726065 0.700014 1.24365
threshold=22727825300.000004 21365.624850000004 2002.5000000000002 72899.619250000018 23331333.33333334 2009.5000000000002 697863000.00000012
decision_type=2 2 2 2 2 2 2
left_child=1 5 -3 -2 -4 6 -1
right_child=3 2 4 -5 -6 -7 -8
leaf_value=-0.0024927093478089028 0.015946677849506555 -0.013204956977140338 0.007850621680928661 0.033901899904012676 -0.002951643682484116 -0.021822162819179623 -0.019304820184003226
leaf_weight=22 23 21 35 20 28 22 22
leaf_count=22 23 21 35 20 28 22 22
internal_value=0 -0.00696541 -0.00101403 0.0242979 0.00304961 -0.0145399 -0.0108988
internal_weight=0 150 84 43 63 66 44
internal_count=193 150 84 43 63 66 44
is_linear=0
shrinkage=0.05


Tree=22
num_leaves=7
num_cat=0
split_feature=4 4 4 2 2 0
split_gain=11.838 3.19231 3.01509 0.983925 0.391157 0.236533
threshold=25291768500.000004 11065740000.000002 77698000.000000015 11292.266650000003 40842.935700000009 2002.5000000000002
decision_type=2 2 2 2 2 2
left_child=1 2 -1 -4 -3 -5
right_child=-2 4 3 5 -6 -7
leaf_value=0.0055749421318372098 0.026778736765332087 -0.0015701856561160339 -0.022872654286523662 -0.015145369204269213 0.0066705206577252181 -0.0081010532408701975
leaf_weight=21 34 24 30 22 36 26
leaf_count=21 34 24 30 22 36 26
internal_value=0 -0.00572627 -0.0112417 -0.0157693 0.00337424 -0.0113297
internal_weight=0 159 99 78 60 48
internal_count=193 159 99 78 60 48
is_linear=0
shrinkage=0.05


Tree=23
num_leaves=7
num_cat=0
split_feature=4 4 4 4 2 4
split_gain=10.6838 2.88106 2.72112 0.891012 0.353019 0.119798
threshold=25291768500.000004 11065740000.000002 77698000.000000015 2556926500.0000005 40842.935700000009 6614758583.3333349
decision_type=2 2 2 2 2 2
left_child=1 2 -1 -4 -3 -5
right_child=-2 4 3 5 -6 -7
leaf_value=0.0052961949780139898 0.025439800486406861 -0.0014916763505122314 -0.022325425110412418 -0.013662832602858544 0.0063369945416020023 -0.0088077933251581812
leaf_weight=21 34 24 27 24 36 27
leaf_count=21 34 24 27 24 36 27
internal_value=0 -0.00543996 -0.0106796 -0.0149808 0.00320553 -0.0110925
internal_weight=0 159 99 78 60 51
internal_count=193 159 99 78 60 51
is_linear=0
shrinkage=0.05


Tree=24
num_leaves=8
num_cat=0
split_feature=2 2 2 0 0 0 0
split_gain=8.95933 2.47132 0.94141 0.660183 0.589075 1.08425 0.39978
threshold=40842.935700000009 68159.249100000015 21365.624850000004 2008.5000000000002 2009.5000000000002 2002.5000000000002 2008.5000000000002
decision_type=2 2 2 2 2 2 2
left_child=2 3 4 -2 5 -1 -4
right_child=1 -3 6 -5 -6 -7 -8
leaf_value=-0.01644988840368266 -0.00016884268483235724 0.025171517387830786 -0.0072840872166367865 0.011651531927378125 -0.019305371048606256 -0.00068683935955050402 0.0017107974870928695
leaf_weight=24 21 28 30 27 22 20 21
leaf_count=24 21 28 30 27 22 20 21
internal_value=0 0.0133664 -0.00868246 0.00648012 -0.012625 -0.00928487 -0.00358031
internal_weight=0 76 117 48 66 44 51
internal_count=193 76 117 48 66 44 51
is_linear=0
shrinkage=0.05


Tree=25
num_leaves=7
num_cat=0
split_feature=4 4 4 2 3 0
split_gain=8.87585 2.35244 2.37527 0.747 0.39678 0.187354
threshold=25291768500.000004 11065740000.000002 77698000.000000015 11292.266650000003 27302625.000000004 2002.5000000000002
decision_type=2 2 2 2 2 2
left_child=1 2 -1 -4 -3 -5
right_child=-2 4 3 5 -6 -7
leaf_value=0.0052331066321736827 0.023187586504911237 0.0059476141830122004 -0.019900903208181261 -0.01323917263778805 -0.0024899562482129448 -0.0069697922883698573
leaf_weight=21 34 38 30 22 22 26
leaf_count=21 34 38 30 22 22 26
internal_value=0 -0.00495835 -0.00969301 -0.0137116 0.00285384 -0.00984326
internal_weight=0 159 99 78 60 48
internal_count=193 159 99 78 60 48
is_linear=0
shrinkage=0.05


Tree=26
num_leaves=7
num_cat=0
split_feature=4 4 4 4 3 4
split_gain=8.01046 2.12308 2.14368 0.681854 0.358094 0.0883594
threshold=25291768500.000004 11065740000.000002 77698000.000000015 2556926500.0000005 27302625.000000004 6614758583.3333349
decision_type=2 2 2 2 2 2
left_child=1 2 -1 -4 -3 -5
right_child=-2 4 3 5 -6 -7
leaf_value=0.0049714516138746629 0.022028207630907726 0.0056502335496540915 -0.019450980535259954 -0.011831978879248103 -0.0023654585450210357 -0.0076623834238422131
leaf_weight=21 34 38 27 24 22 27
leaf_count=21 34 38 27 24 22 27
internal_value=0 -0.00471043 -0.00920836 -0.013026 0.00271115 -0.00962455
internal_weight=0 159 99 78 60 51
internal_count=193 159 99 78 60 51
is_linear=0
shrinkage=0.05


Tree=27
num_leaves=8
num_cat=0
split_feature=4 4 4 0 4 2 2
split_gain=7.22944 1.92796 2.23475 0.373315 0.637315 0.240092 0.0400042
threshold=25291768500.000004 8826534904.7619076 77698000.000000015 1999.5000000000002 3188736666.666667 47554.123650000001 35162.097200000011
decision_type=2 2 2 2 2 2 2
left_child=1 2 -1 -4 -5 6 -3
right_child=-2 5 3 4 -6 -7 -8
leaf_value=0.0047228786562170302 0.020926797263981667 -0.0024813612597063186 -0.0084991990754913014 -0.022392270319244786 -0.010488680944862692 0.0049935939263862873 0.00060837416041811766
leaf_weight=21 34 20 21 23 22 30 22
leaf_count=21 34 20 21 23 22 30 22
internal_value=0 -0.00447491 -0.00948363 -0.0140039 -0.0165727 0.00157729 -0.000862928
internal_weight=0 159 87 66 45 72 42
internal_count=193 159 87 66 45 72 42
is_linear=0
shrinkage=0.05


Tree=28
num_leaves=7
num_cat=0
split_feature=4 4 4 4 2 4
split_gain=6.52457 1.74341 1.75057 0.543492 0.201834 0.0702013
threshold=25291768500.000004 11065740000.000002 77698000.000000015 2556926500.0000005 40842.935700000009 6614758583.3333349
decision_type=2 2 2 2 2 2
left_child=1 2 -1 -4 -3 -5
right_child=-2 4 3 5 -6 -7
leaf_value=0.0044867352360770819 0.01988045746162671 -0.0010775435017421843 -0.017513185432525696 -0.010707795309523743 0.0048419649661001242 -0.0069912439315683306
leaf_weight=21 34 24 27 24 36 27
leaf_count=21 34 24 27 24 36 27
internal_value=0 -0.00425117 -0.00832712 -0.011777 0.00247416 -0.00874021
internal_weight=0 159 99 78 60 51
internal_count=193 159 99 78 60 51
is_linear=0
shrinkage=0.05


Tree=29
num_leaves=8
num_cat=0
split_feature=4 0 0 3 3 4 2
split_gain=5.90528 1.17667 1.19277 1.40845 1.04673 1.01438 1.01029
threshold=19942094571.428577 2003.5000000000002 2014.5000000000002 16820250.000000004 13336000.000000002 11065740000.000002 72899.619250000018
decision_type=2 2 2 2 2 2 2
left_child=1 4 3 -3 -1 -5 -2
right_child=6 2 -4 5 -6 -7 -8
leaf_value=-0.019367075023119865 0.0084336998034268609 0.011632043419310569 -0.012202292642640798 -0.011566331710624086 -0.0045870636478066449 0.0028972561772981731 0.022540327944708144
leaf_weight=23 30 22 22 22 25 27 22
leaf_count=23 30 22 22 22 25 27 22
internal_value=0 -0.00531133 -0.00202988 0.00112213 -0.0116692 -0.0035966 0.0144019
internal_weight=0 141 93 71 48 49 52
internal_count=193 141 93 71 48 49 52
is_linear=0
shrinkage=0.05


Tree=30
num_leaves=7
num_cat=0
split_feature=2 2 0 3 0 0
split_gain=5.2025 1.61319 1.19208 0.604657 0.44752 0.69411
threshold=65264.830100000006 21365.624850000004 2010.5000000000002 18508166.666666668 2009.5000000000002 2002.5000000000002
decision_type=2 2 2 2 2 2
left_child=1 4 3 -3 5 -1
right_child=-2 2 -4 -5 -6 -7
leaf_value=-0.012430076991828781 0.018766093187995495 -0.0097087857834994799 0.007739043200530836 0.00047234419267624624 -0.01543122215027159 0.00018209502566605808
leaf_weight=24 31 25 36 35 22 20
leaf_count=24 31 25 36 35 22 20
internal_value=0 -0.00359104 0.00054602 -0.00376979 -0.00960859 -0.00669727
internal_weight=0 162 96 60 66 44
internal_count=193 162 96 60 66 44
is_linear=0
shrinkage=0.05


Tree=31
num_leaves=8
num_cat=0
split_feature=4 2 1 3 2 1 3
split_gain=5.00144 1.31914 0.493415 0.989602 0.579341 0.246332 0.494765
threshold=25291768500.000004 21365.624850000004 1.0000000180025095e-35 15707750.000000002 40842.935700000009 1.0000000180025095e-35 13746333.333333334
decision_type=2 2 2 2 2 2 2
left_child=1 5 -3 -4 -5 -1 -7
right_child=-2 2 3 4 -6 6 -8
leaf_value=-0.0052163259340450166 0.017405962818713091 0.0066572108983316211 -0.011339014918194154 -0.0034417191363620356 0.0072184846252202998 -0.017141659585759045 -0.0061531985200764172
leaf_weight=25 34 22 20 26 25 20 21
leaf_count=25 34 22 20 26 25 20 21
internal_value=0 -0.00372203 0.000114578 -0.00191272 0.00178387 -0.00912816 -0.0115134
internal_weight=0 159 93 71 51 66 41
internal_count=193 159 93 71 51 66 41
is_linear=0
shrinkage=0.05


Tree=32
num_leaves=7
num_cat=0
split_feature=4 5 0 3 0 4
split_gain=4.5138 1.19052 0.76158 0.484337 0.39019 0.654042
threshold=25291768500.000004 21465.624850000004 2002.5000000000002 21217333.33333334 2009.5000000000002 697863000.00000012
decision_type=2 2 2 2 2 2
left_child=1 4 -3 -4 5 -1
right_child=-2 2 3 -5 -6 -7
leaf_value=0.00014271990565413778 0.016535664551124415 -0.0080195327109487905 0.0066994043212616821 -0.0015607390745675991 -0.014108651463704353 -0.012049322185339406
leaf_weight=22 34 22 36 35 22 22
leaf_count=22 34 22 36 35 22 22
internal_value=0 -0.00353593 0.000108849 0.0026275 -0.00867175 -0.0059533
internal_weight=0 159 93 71 66 44
internal_count=193 159 93 71 66 44
is_linear=0
shrinkage=0.05


Tree=33
num_leaves=8
num_cat=0
split_feature=4 4 4 0 4 3 4
split_gain=4.07371 1.08865 1.4969 0.385047 0.449178 0.127135 0.30552
threshold=25291768500.000004 8826534904.7619076 77698000.000000015 1999.5000000000002 2556926500.0000005 27302625.000000004 13367985000.000002
decision_type=2 2 2 2 2 2 2
left_child=1 2 -1 -4 -5 6 -3
right_child=-2 5 3 4 -6 -7 -8
leaf_value=0.0045041657585118506 0.01570888140293605 -0.0022044387129426467 -0.0052318919516567679 -0.01877164971416018 -0.0087585120464306488 -0.0019787164277989757 0.0057736584078520543
leaf_weight=21 34 20 21 21 24 22 30
leaf_count=21 34 20 21 21 24 22 30
internal_value=0 -0.00335913 -0.00712289 -0.0108224 -0.0134313 0.00118874 0.00258242
internal_weight=0 159 87 66 45 72 50
internal_count=193 159 87 66 45 72 50
is_linear=0
shrinkage=0.05


Tree=34
num_leaves=8
num_cat=0
split_feature=2 4 4 3 4 3 4
split_gain=3.75036 1.03897 1.35096 0.232299 0.136064 0.0907347 0.0117005
threshold=65264.830100000006 8826534904.7619076 77698000.000000015 13123000.000000002 18990179500.000004 17499000.000000004 12548848100.000002
decision_type=2 2 2 2 2 2 2
left_child=1 2 -1 -4 6 -5 -3
right_child=-2 4 3 5 -6 -7 -8
leaf_value=0.0042789568636743798 0.01593324486166239 0.00065660783300353662 -0.014205392562629036 -0.0058231094576926398 0.0042754808571189643 -0.010476345261558891 -0.00089309506824818163
leaf_weight=21 31 21 24 22 25 20 29
leaf_count=21 31 21 24 22 25 20 29
internal_value=0 -0.00304895 -0.00676674 -0.0102813 0.00126368 -0.00803894 -0.00024222
internal_weight=0 162 87 66 75 42 50
internal_count=193 162 87 66 75 42 50
is_linear=0
shrinkage=0.05


Tree=35
num_leaves=7
num_cat=0
split_feature=4 0 3 2 1 2
split_gain=3.39924 0.901071 1.04304 0.579059 0.729937 0.491618
threshold=25291768500.000004 2003.5000000000002 15057500.000000002 40842.935700000009 1.0000000180025095e-35 28403.752200000006
decision_type=2 2 2 2 2 2
left_child=1 2 -1 4 -3 -6
right_child=-2 3 -4 -5 5 -7
leaf_value=-0.014296199387360004 0.014349644562667786 0.0036220909029777561 0.00013597230648710614 0.005314748597541644 -0.010998818407663043 -0.00079851378409546763
leaf_weight=31 34 28 21 31 27 21
leaf_count=31 34 28 21 31 27 21
internal_value=0 -0.00306848 -0.00846782 -0.000444497 -0.00279366 -0.00653619
internal_weight=0 159 52 107 76 48
internal_count=193 159 52 107 76 48
is_linear=0
shrinkage=0.05


Tree=36
num_leaves=8
num_cat=0
split_feature=2 2 1 4 3 2 2
split_gain=3.15827 0.855537 0.449372 0.519754 0.363147 0.189257 0.211321
threshold=65264.830100000006 21365.624850000004 1.0000000180025095e-35 11591232000.000002 27302625.000000004 3191.7903000000001 11292.266650000003
decision_type=2 2 2 2 2 2 2
left_child=1 5 -3 -4 -5 -1 -7
right_child=-2 2 3 4 -6 6 -8
leaf_value=-0.0036382238962687553 0.014621513802558184 0.0064888016490096401 -0.0068702674856216742 0.0059150732423101241 -0.003088231964890535 -0.012750785913141001 -0.0056575159586611246
leaf_weight=24 31 22 29 24 21 21 21
leaf_count=24 31 22 29 24 21 21 21
internal_value=0 -0.00279794 0.000214841 -0.00165039 0.00171353 -0.00718018 -0.00920415
internal_weight=0 162 96 74 45 66 42
internal_count=193 162 96 74 45 66 42
is_linear=0
shrinkage=0.05


Tree=37
num_leaves=8
num_cat=0
split_feature=4 2 1 3 2 2 4
split_gain=2.86912 0.722924 0.357018 0.692007 0.376344 0.170804 0.19627
threshold=25291768500.000004 21365.624850000004 1.0000000180025095e-35 15707750.000000002 40842.935700000009 3191.7903000000001 3188736666.666667
decision_type=2 2 2 2 2 2 2
left_child=1 5 -3 -4 -5 -1 -7
right_child=-2 2 3 4 -6 6 -8
leaf_value=-0.0034563119445616998 0.013183319352067294 0.005586459235796197 -0.0095858888910152016 -0.0028238893822372822 0.0057680423422716565 -0.0120028780519285 -0.0051591157633811245
leaf_weight=24 34 22 20 26 25 22 20
leaf_count=24 34 22 20 26 25 22 20
internal_value=0 -0.00281907 2.11211e-05 -0.00170335 0.00138784 -0.00682117 -0.00874394
internal_weight=0 159 93 71 51 66 42
internal_count=193 159 93 71 51 66 42
is_linear=0
shrinkage=0.05


Tree=38
num_leaves=7
num_cat=0
split_feature=2 0 3 2 0 4
split_gain=2.64344 0.876759 0.804155 0.526846 0.5777 0.549916
threshold=65264.830100000006 2004.5000000000002 13336000.000000002 40842.935700000009 2011.5000000000002 7385471750.000001
decision_type=2 2 2 2 2 2
left_child=1 2 -1 4 5 -3
right_child=-2 3 -4 -5 -6 -7
leaf_value=-0.014821614223815824 0.013376809279584595 0.0070882156602151336 -0.0025646666566899513 0.005004608217212889 -0.0076934319191301866 -0.0044965047494042662
leaf_weight=23 31 21 32 36 30 20
leaf_count=23 31 21 32 36 30 20
internal_value=0 -0.00255976 -0.0076903 7.74334e-05 -0.00242085 0.00143713
internal_weight=0 162 55 107 71 41
internal_count=193 162 55 107 71 41
is_linear=0
shrinkage=0.05


Tree=39
num_leaves=7
num_cat=0
split_feature=5 0 3 1 5 3
split_gain=2.3857 0.791275 0.72575 0.508475 0.777343 0.197562
threshold=65264.830100000006 2004.5000000000002 13336000.000000002 1.0000000180025095e-35 29227.027000000002 24645000.000000004
decision_type=2 2 2 2 2 2
left_child=1 2 -1 -3 -5 -6
right_child=-2 3 -4 4 5 -7
leaf_value=-0.014080533502704424 0.012707969197823155 0.0050171831905026923 -0.0024364333872654246 -0.0088422331455928673 0.0054849914583610373 -0.0012436507483168195
leaf_weight=23 31 35 32 28 20 24
leaf_count=23 31 35 32 28 20 24
internal_value=0 -0.00243177 -0.00730578 7.35616e-05 -0.00232959 0.00181482
internal_weight=0 162 55 107 72 44
internal_count=193 162 55 107 72 44
is_linear=0
shrinkage=0.05


Tree=40
num_leaves=7
num_cat=0
split_feature=4 2 1 3 2 2
split_gain=2.22712 0.605318 0.33939 0.496618 0.275752 0.179516
threshold=26955484875.000004 20550.950700000005 1.0000000180025095e-35 15707750.000000002 40842.935700000009 3191.7903000000001
decision_type=2 2 2 2 2 2
left_child=1 5 -3 -4 -5 -1
right_child=-2 2 3 4 -6 -7
leaf_value=-0.0027785644090423983 0.012278338599829906 0.0052637697313912216 -0.0080918534412852579 -0.0024732633801509761 0.004677630998552419 -0.0082746547521450192
leaf_weight=24 31 24 21 28 26 39
leaf_count=24 31 24 21 28 26 39
internal_value=0 -0.00234956 8.85715e-05 -0.00156749 0.00096976 -0.00618091
internal_weight=0 162 99 75 54 63
internal_count=193 162 99 75 54 63
is_linear=0
shrinkage=0.05


Tree=41
num_leaves=7
num_cat=0
split_feature=2 2 1 4 3 2
split_gain=2.01535 0.613544 0.38608 0.283793 0.25793 0.162013
threshold=70404.391950000005 20550.950700000005 1.0000000180025095e-35 11591232000.000002 27302625.000000004 3191.7903000000001
decision_type=2 2 2 2 2 2
left_child=1 5 -3 -4 -5 -1
right_child=-2 2 3 4 -6 -7
leaf_value=-0.0026396353496238589 0.013244977317750454 0.0057931696549057971 -0.0051699239702429622 0.0044317103367155558 -0.0027563839064290128 -0.0078609218101542543
leaf_weight=24 25 25 30 26 24 39
leaf_count=24 25 25 30 26 24 39
internal_value=0 -0.00197098 0.00036955 -0.00132533 0.000981425 -0.00587186
internal_weight=0 168 105 80 50 63
internal_count=193 168 105 80 50 63
is_linear=0
shrinkage=0.05


Tree=42
num_leaves=7
num_cat=0
split_feature=4 0 0 4 4 2
split_gain=1.88511 0.597032 0.398757 0.687543 0.288975 0.252113
threshold=26955484875.000004 2003.5000000000002 2012.5000000000002 5051848666.6666679 3188736666.666667 37419.561600000008
decision_type=2 2 2 2 2 2
left_child=1 4 3 -3 -1 -5
right_child=-2 2 -4 5 -6 -7
leaf_value=-0.010928976865993305 0.011296316509645793 0.0099206561944447467 -0.0044814811806593623 -0.0046133147468790407 -0.0033844919595867398 0.0021852670268466077
leaf_weight=22 31 20 35 25 30 30
leaf_count=22 31 20 35 25 30 30
internal_value=0 -0.00216164 -7.46689e-05 0.00198184 -0.00657639 -0.000904997
internal_weight=0 162 110 75 52 55
internal_count=193 162 110 75 52 55
is_linear=0
shrinkage=0.05


Tree=43
num_leaves=8
num_cat=0
split_feature=2 2 1 4 2 3 4
split_gain=1.70397 0.535267 0.447248 0.301701 0.26158 0.179644 0.0815802
threshold=70404.391950000005 13875.028400000001 1.0000000180025095e-35 8826534904.7619076 3191.7903000000001 29223333.33333334 14011077166.66667
decision_type=2 2 2 2 2 2 2
left_child=1 4 -3 -4 -1 6 -5
right_child=-2 2 3 5 -6 -7 -8
leaf_value=-0.0022889870529373487 0.012178886344656348 0.0056950555648654705 -0.0060642718350411295 -6.2705287044601782e-05 -0.0094631261019795035 -0.0035229452974384744 0.0043445452471219358
leaf_weight=24 25 27 27 21 27 21 21
leaf_count=24 25 27 27 21 27 21 21
internal_value=0 -0.00181233 5.10081e-05 -0.00164221 -0.00608706 0.000252965 0.00214092
internal_weight=0 168 117 90 51 63 42
internal_count=193 168 117 90 51 63 42
is_linear=0
shrinkage=0.05


Tree=44
num_leaves=8
num_cat=0
split_feature=4 0 3 3 4 3 4
split_gain=1.59614 0.519674 0.64262 0.377599 0.61283 0.0932293 0.123946
threshold=26955484875.000004 2003.5000000000002 15057500.000000002 11882500.000000002 8440404000.000001 21217333.33333334 16061128166.666668
decision_type=2 2 2 2 2 2 2
left_child=1 2 -1 -3 -5 -6 -7
right_child=-2 3 -4 4 5 6 -8
leaf_value=-0.010682709458013697 0.010394495555890663 0.0061723519349470742 0.00064541977730446639 -0.0080757754631340505 0.0035310608362779023 0.0024220626743044708 -0.0031444816221483057
leaf_weight=31 31 20 21 25 25 20 20
leaf_count=31 31 20 21 25 25 20 20
internal_value=0 -0.00198907 -0.00610789 -4.19928e-05 -0.00142296 0.00113582 -0.000361209
internal_weight=0 162 52 110 90 65 40
internal_count=193 162 52 110 90 65 40
is_linear=0
shrinkage=0.05


Tree=45
num_leaves=7
num_cat=0
split_feature=2 0 3 1 2 3
split_gain=1.43754 0.501002 0.591769 0.434485 0.587339 0.147871
threshold=70404.391950000005 2004.5000000000002 13336000.000000002 1.0000000180025095e-35 28403.752200000006 23890875.000000004
decision_type=2 2 2 2 2 2
left_child=1 2 -1 -3 -5 -6
right_child=-2 3 -4 4 5 -7
leaf_value=-0.011682730062824229 0.011186275360174478 0.0046999209900260783 -0.0012350657146960272 -0.0079955402770652811 0.0044734694950637364 -0.0010768861635239903
leaf_weight=23 25 37 33 26 21 28
leaf_count=23 25 37 33 26 21 28
internal_value=0 -0.00166462 -0.00552607 0.000266099 -0.00192125 0.00130184
internal_weight=0 168 56 112 75 49
internal_count=193 168 56 112 75 49
is_linear=0
shrinkage=0.05


Tree=46
num_leaves=7
num_cat=0
split_feature=4 0 3 3 4 3
split_gain=1.35209 0.402862 0.534886 0.350457 0.49863 0.0855848
threshold=25291768500.000004 2003.5000000000002 15057500.000000002 11882500.000000002 8440404000.000001 21217333.33333334
decision_type=2 2 2 2 2 2
left_child=1 2 -1 -3 -5 -6
right_child=-2 3 -4 4 5 -7
leaf_value=-0.0097192803773308006 0.009050111571388483 0.005787432389333845 0.00061575294710651399 -0.0075137958899140368 0.0031109301386168229 -0.00067605160529146321
leaf_weight=31 34 20 21 25 25 37
leaf_count=31 34 20 21 25 25 37
internal_value=0 -0.00193524 -0.00554552 -0.000180719 -0.00155271 0.000850957
internal_weight=0 159 52 107 87 62
internal_count=193 159 52 107 87 62
is_linear=0
shrinkage=0.05


Tree=47
num_leaves=8
num_cat=0
split_feature=4 2 1 3 2 2 3
split_gain=1.22122 0.372091 0.290216 0.371545 0.356807 0.226708 0.0928282
threshold=26955484875.000004 13875.028400000001 1.0000000180025095e-35 14641416.66666667 29685.286250000001 3191.7903000000001 20015250.000000004
decision_type=2 2 2 2 2 2 2
left_child=1 5 -3 -4 -5 -1 -6
right_child=-2 2 3 4 6 -7 -8
leaf_value=-0.0017391868789369863 0.0090921300748783747 0.0045070839866709249 -0.007489039606880396 -0.0052526323322672399 0.005312768139410764 -0.0084180335617727708 0.00074261060170829299
leaf_weight=24 31 26 20 20 20 27 25
leaf_count=24 31 26 20 20 20 27 25
internal_value=0 -0.00173985 -0.000115573 -0.00152956 0.000304123 -0.00527505 0.00277379
internal_weight=0 162 111 85 65 51 45
internal_count=193 162 111 85 65 51 45
is_linear=0
shrinkage=0.05


Tree=48
num_leaves=7
num_cat=0
split_feature=5 0 3 1 5 3
split_gain=1.13476 0.381424 0.471485 0.383207 0.362704 0.138913
threshold=70750.891950000005 2004.5000000000002 13336000.000000002 1.0000000180025095e-35 29227.027000000002 27302625.000000004
decision_type=2 2 2 2 2 2
left_child=1 2 -1 -3 -5 -6
right_child=-2 3 -4 4 5 -7
leaf_value=-0.010343675574530727 0.0099386566914618016 0.0043696308659540639 -0.0010180665056616293 -0.0063534638861061218 0.003174725825967336 -0.002323132511228323
leaf_weight=23 25 37 33 28 27 20
leaf_count=23 25 37 33 28 27 20
internal_value=0 -0.00147897 -0.00484823 0.000205663 -0.00184856 0.000835212
internal_weight=0 168 56 112 75 47
internal_count=193 168 56 112 75 47
is_linear=0
shrinkage=0.05


Tree=49
num_leaves=8
num_cat=0
split_feature=4 4 5 0 4 3 4
split_gain=1.03378 0.351366 0.526934 0.192189 0.303172 0.0971832 0.148552
threshold=26955484875.000004 77698000.000000015 8384.9020000000019 1998.5000000000002 8440404000.000001 19503333.333333336 17021239500.000002
decision_type=2 2 2 2 2 2 2
left_child=1 -1 -3 -4 -5 -6 -7
right_child=-2 2 3 4 5 6 -8
leaf_value=0.00443305250789438 0.0083653081433787465 -0.0090835415646433829 -0.0055393136286875236 -0.0050182507150263213 0.004240072209557349 0.0027676452994691552 -0.0027006018279201313
leaf_weight=21 31 25 20 24 22 27 23
leaf_count=21 31 25 20 24 22 27 23
internal_value=0 -0.00160077 -0.00249942 -0.00108043 -0.000151498 0.00147075 0.000252252
internal_weight=0 162 141 116 96 72 50
internal_count=193 162 141 116 96 72 50
is_linear=0
shrinkage=0.05


Tree=50
num_leaves=8
num_cat=0
split_feature=2 2 1 2 2 3 3
split_gain=0.960131 0.336859 0.289032 0.205269 0.14815 0.0768242 0.135078
threshold=72899.619250000018 13875.028400000001 1.0000000180025095e-35 3191.7903000000001 28403.752200000006 27302625.000000004 19331500.000000004
decision_type=2 2 2 2 2 2 2
left_child=1 3 -3 -1 -4 6 -6
right_child=-2 2 4 -5 5 -7 -8
leaf_value=-0.0013045137748122215 0.0098320346346802336 0.0047359998234444197 -0.0044316604910418387 -0.0076597144732389738 -0.0012159870400165137 -0.002444585120039327 0.0041755874610749913
leaf_weight=24 22 27 25 27 26 21 21
leaf_count=24 22 27 25 27 26 21 21
internal_value=0 -0.00126494 0.000181799 -0.00466903 -0.00114039 6.9638e-05 0.00119301
internal_weight=0 171 120 51 93 68 47
internal_count=193 171 120 51 93 68 47
is_linear=0
shrinkage=0.05


Tree=51
num_leaves=7
num_cat=0
split_feature=4 4 2 0 4 3
split_gain=0.876441 0.332357 0.435914 0.155883 0.240154 0.0955248
threshold=25291768500.000004 77698000.000000015 8384.9020000000019 1998.5000000000002 8440404000.000001 21217333.33333334
decision_type=2 2 2 2 2 2
left_child=1 -1 -3 -4 -5 -6
right_child=-2 2 3 4 5 -7
leaf_value=0.0043019888833874748 0.007286381377044189 -0.0084243243709206574 -0.0051326364380656743 -0.0045750249836904308 0.0032913829233767768 -0.00044868858148172305
leaf_weight=21 34 25 20 24 31 38
leaf_count=21 34 25 20 24 31 38
internal_value=0 -0.00155809 -0.00244985 -0.00112806 -0.000266859 0.00123163
internal_weight=0 159 138 113 93 69
internal_count=193 159 138 113 93 69
is_linear=0
shrinkage=0.05


Tree=52
num_leaves=7
num_cat=0
split_feature=2 0 3 1 2 3
split_gain=0.81179 0.297182 0.413793 0.306873 0.331457 0.155286
threshold=72899.619250000018 2004.5000000000002 13336000.000000002 1.0000000180025095e-35 28403.752200000006 27302625.000000004
decision_type=2 2 2 2 2 2
left_child=1 2 -1 -3 -5 -6
right_child=-2 3 -4 4 5 -7
leaf_value=-0.0092984075374577362 0.0090406577102839954 0.0040415554785647907 -0.00056196039711887188 -0.0060969605119540714 0.0030661182804784231 -0.002502506527872313
leaf_weight=23 22 37 33 26 31 21
leaf_count=23 22 37 33 26 31 21
internal_value=0 -0.00116313 -0.00415014 0.000291423 -0.00148749 0.000817251
internal_weight=0 171 56 115 78 52
internal_count=193 171 56 115 78 52
is_linear=0
shrinkage=0.05


Tree=53
num_leaves=8
num_cat=0
split_feature=4 4 2 0 2 2 4
split_gain=0.746913 0.28222 0.384932 0.134266 0.146866 0.0573484 0.0236191
threshold=26955484875.000004 77698000.000000015 8384.9020000000019 2013.5000000000002 28403.752200000006 54428.548400000007 11591232000.000002
decision_type=2 2 2 2 2 2 2
left_child=1 -1 -3 4 -4 6 -6
right_child=-2 2 3 -5 5 -7 -8
leaf_value=0.0040469589066647353 0.0071105454087017047 -0.0077934965640306473 -0.0043705643603008121 0.0027736344258300961 -0.00047565402928739786 -0.0024850967433303599 0.0018984489256664264
leaf_weight=21 31 25 34 20 20 20 22
leaf_count=21 31 25 34 20 20 20 22
internal_value=0 -0.00136066 -0.00216605 -0.000953238 -0.00172967 -0.000281438 0.000767924
internal_weight=0 162 141 116 96 62 42
internal_count=193 162 141 116 96 62 42
is_linear=0
shrinkage=0.05


Tree=54
num_leaves=7
num_cat=0
split_feature=2 4 2 0 2 2
split_gain=0.698556 0.257014 0.343938 0.24587 0.0939944 0.0604659
threshold=65264.830100000006 77698000.000000015 8384.9020000000019 2013.5000000000002 28403.752200000006 44404.218400000005
decision_type=2 2 2 2 2 2
left_child=1 -1 -3 4 -4 -6
right_child=-2 2 3 -5 5 -7
leaf_value=0.0038446111161084401 0.006876519809086476 -0.0074038217887282378 -0.0041520361398237155 0.0038201983081473205 0.00062327558662218514 -0.0025583339821813361
leaf_weight=21 31 25 34 22 32 28
leaf_count=21 31 25 34 22 32 28
internal_value=0 -0.00131588 -0.00208446 -0.000938047 -0.00205168 -0.000861476
internal_weight=0 162 141 116 94 60
internal_count=193 162 141 116 94 60
is_linear=0
shrinkage=0.05


Tree=55
num_leaves=8
num_cat=0
split_feature=4 4 2 0 4 2 4
split_gain=0.636298 0.232503 0.309588 0.119143 0.184807 0.0460661 0.125935
threshold=26955484875.000004 77698000.000000015 8384.9020000000019 1998.5000000000002 8440404000.000001 50073.023400000005 13367985000.000002
decision_type=2 2 2 2 2 2 2
left_child=1 -1 -3 -4 -5 6 -6
right_child=-2 2 3 4 5 -7 -8
leaf_value=0.0036523805132934028 0.0065629383751882181 -0.0070336307045072329 -0.0044099455862306059 -0.003967572226732349 0.0025317487724047776 0.0026841651483534537 -0.0028404131461866201
leaf_weight=21 31 25 20 24 24 28 20
leaf_count=21 31 25 20 24 24 28 20
internal_value=0 -0.00125587 -0.00198689 -0.000899227 -0.000167827 0.00109875 8.9857e-05
internal_weight=0 162 141 116 96 72 44
internal_count=193 162 141 116 96 72 44
is_linear=0
shrinkage=0.05


Tree=56
num_leaves=7
num_cat=0
split_feature=2 2 0 4 3 3
split_gain=0.593532 0.224365 0.212352 0.189931 0.127105 0.0547527
threshold=72899.619250000018 8384.9020000000019 2006.5000000000002 12548848100.000002 32708875.000000004 15057500.000000002
decision_type=2 2 2 2 2 2
left_child=1 -1 5 -4 -5 -3
right_child=-2 2 3 4 -6 -7
leaf_value=-0.0043265441760946162 0.0077303655760426254 -0.0043921589089388193 0.0050200776266003102 0.0020953883031575847 -0.0028236976562766359 -0.0011081649610908547
leaf_weight=39 22 22 27 29 24 30
leaf_count=39 22 22 27 29 24 30
internal_value=0 -0.00099455 -1.00972e-05 0.00160675 -0.000132122 -0.00249755
internal_weight=0 171 132 80 53 52
internal_count=193 171 132 80 53 52
is_linear=0
shrinkage=0.05


Tree=57
num_leaves=8
num_cat=0
split_feature=4 4 3 0 5 4 3
split_gain=0.544433 0.214501 0.258571 0.202233 0.338205 0.0513805 0.00115804
threshold=26955484875.000004 77698000.000000015 12250500.000000002 2013.5000000000002 29227.027000000002 17625364000.000004 21217333.33333334
decision_type=2 2 2 2 2 2 2
left_child=1 -1 -3 4 6 -6 -4
right_child=-2 2 3 -5 5 -7 -8
leaf_value=0.0035527214674013 0.0060707232036117109 -0.0067136641389325923 -0.0051662183040753007 0.0032882952124687705 0.0017623932109147842 -0.0014144931884948165 -0.0057042803708463909
leaf_weight=21 31 23 20 23 35 20 20
leaf_count=21 31 23 20 23 35 20 20
internal_value=0 -0.00116168 -0.00186383 -0.000918519 -0.00193701 0.000607162 -0.00543525
internal_weight=0 162 141 118 95 55 40
internal_count=193 162 141 118 95 55 40
is_linear=0
shrinkage=0.05


Tree=58
num_leaves=7
num_cat=0
split_feature=2 2 4 4 5 2
split_gain=0.506274 0.187584 0.158523 0.125419 0.0878098 0.0752611
threshold=70404.391950000005 8384.9020000000019 4400906250.000001 11065740000.000002 52908.624050000006 39942.118200000004
decision_type=2 2 2 2 2 2
left_child=1 -1 -3 -4 5 -5
right_child=-2 2 3 4 -6 -7
leaf_value=-0.0040264839760194987 0.0066384817250072963 0.0037962532877414065 -0.0031706997634548895 -0.00028005983525266254 -0.00181826482768412 0.0039530601091904661
leaf_weight=39 25 22 38 21 27 21
leaf_count=39 25 22 38 21 27 21
internal_value=0 -0.000987869 -6.92183e-05 -0.000863988 0.000406375 0.0018365
internal_weight=0 168 129 107 69 42
internal_count=193 168 129 107 69 42
is_linear=0
shrinkage=0.05


Tree=59
num_leaves=7
num_cat=0
split_feature=2 0 3 3 0 2
split_gain=0.462657 0.177237 0.328487 0.265936 0.363236 0.267358
threshold=65264.830100000006 2004.5000000000002 13336000.000000002 16108500.000000002 2013.5000000000002 29227.027000000002
decision_type=2 2 2 2 2 2
left_child=1 2 -1 -3 5 -5
right_child=-2 3 -4 4 -6 -7
leaf_value=-0.0079354740416064211 0.0055962563882912368 0.0042028611590122352 -0.00010168827429879457 -0.0081337660644203429 0.0042163165718583128 -0.00095849501887789465
leaf_weight=23 31 29 32 20 21 37
leaf_count=23 31 29 32 20 21 37
internal_value=0 -0.00107089 -0.00337764 0.000114822 -0.00140509 -0.00347613
internal_weight=0 162 55 107 78 57
internal_count=193 162 55 107 78 57
is_linear=0
shrinkage=0.05


Tree=60
num_leaves=8
num_cat=0
split_feature=4 4 2 0 0 3 2
split_gain=0.432596 0.181033 0.230566 0.22113 0.113409 0.186131 0.154703
threshold=28229532700.000004 77698000.000000015 8384.9020000000019 2013.5000000000002 2008.5000000000002 15057500.000000002 36728.902150000009
decision_type=2 2 2 2 2 2 2
left_child=1 -1 -3 4 5 -4 -7
right_child=-2 2 3 -5 -6 6 -8
leaf_value=0.0033617399544233367 0.0057463973228420529 -0.0059726643562316899 -0.0045370131159539924 0.003965539835570824 -0.0045948350327089434 -0.0019555720539453131 0.0035616114407915761
leaf_weight=21 28 25 22 21 25 24 27
leaf_count=21 28 25 22 21 25 24 27
internal_value=0 -0.000975146 -0.00160761 -0.00069058 -0.00168832 -0.000692938 0.00096529
internal_weight=0 165 144 119 98 73 51
internal_count=193 165 144 119 98 73 51
is_linear=0
shrinkage=0.05


Tree=61
num_leaves=7
num_cat=0
split_feature=2 2 4 2 3 4
split_gain=0.396167 0.165917 0.142255 0.0970596 0.0514798 0.0734638
threshold=72899.619250000018 8384.9020000000019 4400906250.000001 28403.752200000006 29223333.33333334 11591232000.000002
decision_type=2 2 2 2 2 2
left_child=1 -1 -3 -4 5 -5
right_child=-2 2 3 4 -6 -7
leaf_value=-0.003677853769980944 0.0063156339763240383 0.0037043341001580382 -0.0033040822311132044 -0.0013621526348981121 -0.0016966669322125831 0.0023590489264784589
leaf_weight=39 22 22 27 21 26 36
leaf_count=39 22 22 27 21 26 36
internal_value=0 -0.000812538 3.40329e-05 -0.000700027 0.000147075 0.00098808
internal_weight=0 171 132 110 83 57
internal_count=193 171 132 110 83 57
is_linear=0
shrinkage=0.05


end of trees

feature_importances:
Column_2=129
Column_4=124
Column_0=59
Column_3=51
Column_1=25
Column_5=13

parameters:
[boosting: gbdt]
[objective: regression]
[metric: rmse]
[tree_learner: serial]
[device_type: cpu]
[data_sample_strategy: bagging]
[data: ]
[valid: ]
[num_iterations: 10000]
[learning_rate: 0.05]
[num_leaves: 31]
[num_threads: 0]
[seed: 1237]
[deterministic: 0]
[force_col_wise: 0]
[force_row_wise: 0]
[histogram_pool_size: -1]
[max_depth: -1]
[min_data_in_leaf: 20]
[min_sum_hessian_in_leaf: 0.001]
[bagging_fraction: 1]
[pos_bagging_fraction: 1]
[neg_bagging_fraction: 1]
[bagging_freq: 0]
[bagging_seed: 32458]
[feature_fraction: 0.9]
[feature_fraction_bynode: 1]
[feature_fraction_seed: 15412]
[extra_trees: 0]
[extra_seed: 19498]
[early_stopping_round: 0]
[early_stopping_min_delta: 0]
[first_metric_only: 0]
[max_delta_step: 0]
[lambda_l1: 0]
[lambda_l2: 0]
[linear_lambda: 0]
[min_gain_to_split: 0]
[drop_rate: 0.1]
[max_drop: 50]
[skip_drop: 0.5]
[xgboost_dart_mode: 0]
[uniform_drop: 0]
[drop_seed: 818]
[top_rate: 0.2]
[other_rate: 0.1]
[min_data_per_group: 100]
[max_cat_threshold: 32]
[cat_l2: 10]
[cat_smooth: 10]
[max_cat_to_onehot: 4]
[top_k: 20]
[monotone_constraints: ]
[monotone_constraints_method: basic]
[monotone_penalty: 0]
[feature_contri: ]
[forcedsplits_filename: ]
[refit_decay_rate: 0.9]
[cegb_tradeoff: 1]
[cegb_penalty_split: 0]
[cegb_penalty_feature_lazy: ]
[cegb_penalty_feature_coupled: ]
[path_smooth: 0]
[interaction_constraints: ]
[verbosity: -1]
[saved_feature_importance_type: 0]
[use_quantized_grad: 0]
[num_grad_quant_bins: 4]
[quant_train_renew_leaf: 0]
[stochastic_rounding: 1]
[linear_tree: 0]
[max_bin: 255]
[max_bin_by_feature: ]
[min_data_in_bin: 3]
[bin_construct_sample_cnt: 200000]
[data_random_seed: 4078]
[is_enable_sparse: 1]
[enable_bundle: 1]
[use_missing: 1]
[zero_as_missing: 0]
[feature_pre_filter: 1]
[pre_partition: 0]
[two_round: 0]
[header: 0]
[label_column: ]
[weight_column: ]
[group_column: ]
[ignore_column: ]
[categorical_feature: ]
[forcedbins_filename: ]
[precise_float_parser: 0]
[parser_config_file: ]
[objective_seed: 21231]
[num_class: 1]
[is_unbalance: 0]
[scale_pos_weight: 1]
[sigmoid: 1]
[boost_from_average: 1]
[reg_sqrt: 0]
[alpha: 0.9]
[fair_c: 1]
[poisson_max_delta_step: 0.7]
[tweedie_variance_power: 1.5]
[lambdarank_truncation_level: 30]
[lambdarank_norm: 1]
[label_gain: ]
[lambdarank_position_bias_regularization: 0]
[eval_at: ]
[multi_error_top_k: 1]
[auc_mu_weights: ]
[num_machines: 1]
[local_listen_port: 12400]
[time_out: 120]
[machine_list_filename: ]
[machines: ]
[gpu_platform_id: -1]
[gpu_device_id: -1]
[gpu_use_dp: 0]
[num_gpu: 1]

end of parameters

pandas_categorical:null
