{"learner":{"attributes":{"best_iteration":"139","best_score":"0.37980072381135477"},"feature_names":[],"feature_types":[],"gradient_booster":{"model":{"gbtree_model_param":{"num_parallel_tree":"1","num_trees":"190"},"iteration_indptr":[0,1,2,3,4,5,6,7,8,9,10,11,12,13,14,15,16,17,18,19,20,21,22,23,24,25,26,27,28,29,30,31,32,33,34,35,36,37,38,39,40,41,42,43,44,45,46,47,48,49,50,51,52,53,54,55,56,57,58,59,60,61,62,63,64,65,66,67,68,69,70,71,72,73,74,75,76,77,78,79,80,81,82,83,84,85,86,87,88,89,90,91,92,93,94,95,96,97,98,99,100,101,102,103,104,105,106,107,108,109,110,111,112,113,114,115,116,117,118,119,120,121,122,123,124,125,126,127,128,129,130,131,132,133,134,135,136,137,138,139,140,141,142,143,144,145,146,147,148,149,150,151,152,153,154,155,156,157,158,159,160,161,162,163,164,165,166,167,168,169,170,171,172,173,174,175,176,177,178,179,180,181,182,183,184,185,186,187,188,189,190],"tree_info":[0,0,0,0,0,0,0,0,0,0,0,0,0,0,0,0,0,0,0,0,0,0,0,0,0,0,0,0,0,0,0,0,0,0,0,0,0,0,0,0,0,0,0,0,0,0,0,0,0,0,0,0,0,0,0,0,0,0,0,0,0,0,0,0,0,0,0,0,0,0,0,0,0,0,0,0,0,0,0,0,0,0,0,0,0,0,0,0,0,0,0,0,0,0,0,0,0,0,0,0,0,0,0,0,0,0,0,0,0,0,0,0,0,0,0,0,0,0,0,0,0,0,0,0,0,0,0,0,0,0,0,0,0,0,0,0,0,0,0,0,0,0,0,0,0,0,0,0,0,0,0,0,0,0,0,0,0,0,0,0,0,0,0,0,0,0,0,0,0,0,0,0,0,0,0,0,0,0,0,0,0,0,0,0,0,0,0,0,0,0],"trees":[{"base_weights":[-1.2200476E-3,-5.497869E-1,3.1585273E-1,7.458923E-3,-7.8215617E-1,1.8566957E-1,6.374211E-1,-1.02653205E-1,-4.4234994E-1,-1.6540414E-2,2.774566E-1,9.4573975E-2,2.4549847E-2,-5.5280138E-2,-2.9168487E-2,8.265743E-2,4.1210854E-1,3.6655147E-2,-1.0590092E-2,5.4207325E-2,2.4480836E-2],"categories":[],"categories_nodes":[],"categories_segments":[],"categories_sizes":[],"default_left":[0,0,0,0,0,0,0,0,0,0,0,0,0,0,0,0,0,0,0,0,0],"id":0,"left_children":[1,3,5,-1,7,9,11,-1,13,-1,15,-1,-1,-1,-1,17,19,-1,-1,-1,-1],"loss_changes":[2.9916647E1,9.198744E0,4.4446926E0,0E0,3.365776E0,2.59159E0,3.513772E0,0E0,1.8822098E-1,0E0,1.6184311E0,0E0,0E0,0E0,0E0,1.4841441E0,6.7179155E-1,0E0,0E0,0E0,0E0],"parents":[2147483647,0,0,1,1,2,2,4,4,5,5,6,6,8,8,10,10,15,15,16,16],"right_children":[2,4,6,-1,8,10,12,-1,14,-1,16,-1,-1,-1,-1,18,20,-1,-1,-1,-1],"split_conditions":[1.66705E7,2.205E6,2.014E3,7.458923E-3,1.32535E7,1E0,1E0,-1.02653205E-1,2.003E3,-1.6540414E-2,2.008E3,9.4573975E-2,2.4549847E-2,-5.5280138E-2,-2.9168487E-2,2.0770142E7,2.86825E7,3.6655147E-2,-1.0590092E-2,5.4207325E-2,2.4480836E-2],"split_indices":[3,3,0,0,3,1,1,0,0,0,0,0,0,0,0,3,3,0,0,0,0],"split_type":[0,0,0,0,0,0,0,0,0,0,0,0,0,0,0,0,0,0,0,0,0],"sum_hessian":[1.7E2,6.2E1,1.08E2,1.7E1,4.5E1,7.8E1,3E1,2.5E1,2E1,1.6E1,6.2E1,1.6E1,1.4E1,1E1,1E1,2.6E1,3.6E1,1E1,1.6E1,1.9E1,1.7E1],"tree_param":{"num_deleted":"0","num_feature":"6","num_nodes":"21","size_leaf_vector":"1"}},{"base_weights":[-2.4953142E-2,-5.6692225E-1,9.577558E-1,-8.0827475E-1,-2.748458E-1,6.3197637E-1,1.9798367E-1,-4.1115906E-2,-8.8437307E-1,-6.1193228E-2,-1.4156722E-1,8.694311E-3,7.660611E-1,-9.8276824E-2,-6.617516E-2,-2.4445705E-1,6.6975146E-3,6.083626E-1,1.0467917E-1,-3.5109647E-2,-5.7427334E-3,4.3248888E-2,7.533444E-2],"categories":[],"categories_nodes":[],"categories_segments":[],"categories_sizes":[],"default_left":[0,0,0,0,0,0,0,0,0,0,0,0,0,0,0,0,0,0,0,0,0,0,0],"id":1,"left_children":[1,3,5,7,9,11,-1,-1,13,-1,15,-1,17,-1,-1,19,-1,21,-1,-1,-1,-1,-1],"loss_changes":[9.5878E1,7.955078E0,2.0059055E1,1.5402336E0,2.339397E0,3.587429E0,0E0,0E0,4.8870468E-1,0E0,8.746481E-1,0E0,1.1340027E0,0E0,0E0,5.1834524E-1,0E0,3.881445E-1,0E0,0E0,0E0,0E0,0E0],"parents":[2147483647,0,0,1,1,2,2,3,3,4,4,5,5,8,8,10,10,12,12,15,15,17,17],"right_children":[2,4,6,8,10,12,-1,-1,14,-1,16,-1,18,-1,-1,20,-1,22,-1,-1,-1,-1,-1],"split_conditions":[4.3986902E4,2.2474928E4,8.482227E4,2.205E6,2.003E3,1.79996E7,1.9798367E-1,-4.1115906E-2,1.2289934E4,-6.1193228E-2,3.7336453E4,8.694311E-3,6.8070336E4,-9.8276824E-2,-6.617516E-2,2.011E3,6.6975146E-3,2.72525E7,1.0467917E-1,-3.5109647E-2,-5.7427334E-3,4.3248888E-2,7.533444E-2],"split_indices":[5,5,5,3,0,3,0,0,5,0,5,0,5,0,0,0,0,3,0,0,0,0,0],"split_type":[0,0,0,0,0,0,0,0,0,0,0,0,0,0,0,0,0,0,0,0,0,0,0],"sum_hessian":[1.78E2,1.15E2,6.3E1,6.2E1,5.3E1,4.9E1,1.4E1,1.1E1,5.1E1,1.4E1,3.9E1,1E1,3.9E1,3.3E1,1.8E1,2.6E1,1.3E1,2.7E1,1.2E1,1.6E1,1E1,1.4E1,1.3E1],"tree_param":{"num_deleted":"0","num_feature":"6","num_nodes":"23","size_leaf_vector":"1"}},{"base_weights":[-3.1116068E-2,-4.9491304E-1,8.437653E-1,-6.5026075E-1,-1.6301733E-1,5.7908815E-1,1.6909611E-1,-1.6028887E-2,-7.2831154E-1,-3.3100966E-2,4.7262394E-4,1.5873058E-2,7.147981E-1,-8.899039E-2,-5.452983E-1,5.6829345E-1,9.604497E-2,-6.469263E-2,-3.313664E-2,4.2096198E-2,6.928224E-2],"categories":[],"categories_nodes":[],"categories_segments":[],"categories_sizes":[],"default_left":[0,0,0,0,0,0,0,0,0,0,0,0,0,0,0,0,0,0,0,0,0],"id":2,"left_children":[1,3,5,7,9,11,-1,-1,13,-1,-1,-1,15,-1,17,19,-1,-1,-1,-1,-1],"loss_changes":[7.142688E1,5.823311E0,1.269902E1,2.8661919E0,1.0723906E0,2.6247826E0,0E0,0E0,1.4961662E0,0E0,0E0,0E0,7.497921E-1,0E0,5.248394E-1,1.6702366E-1,0E0,0E0,0E0,0E0,0E0],"parents":[2147483647,0,0,1,1,2,2,3,3,4,4,5,5,8,8,12,12,14,14,15,15],"right_children":[2,4,6,8,10,12,-1,-1,14,-1,-1,-1,16,-1,18,20,-1,-1,-1,-1,-1],"split_conditions":[4.3681914E4,2.8429232E4,8.464527E4,2.205E6,3.6521363E4,1.79996E7,1.6909611E-1,-1.6028887E-2,1.2289934E4,-3.3100966E-2,4.7262394E-4,1.5873058E-2,6.7945336E4,-8.899039E-2,2.4651E7,2.72525E7,9.604497E-2,-6.469263E-2,-3.313664E-2,4.2096198E-2,6.928224E-2],"split_indices":[2,2,2,3,2,3,0,0,2,0,0,0,2,0,3,3,0,0,0,0,0],"split_type":[0,0,0,0,0,0,0,0,0,0,0,0,0,0,0,0,0,0,0,0,0],"sum_hessian":[1.74E2,1.14E2,6E1,7.7E1,3.7E1,4.7E1,1.3E1,1.1E1,6.6E1,1.8E1,1.9E1,1.2E1,3.5E1,3.3E1,3.3E1,2.4E1,1.1E1,2.1E1,1.2E1,1.3E1,1.1E1],"tree_param":{"num_deleted":"0","num_feature":"6","num_nodes":"21","size_leaf_vector":"1"}},{"base_weights":[-1.5065839E-2,-3.115936E-1,1.0421758E0,-5.2484095E-1,4.391083E-3,6.453275E-2,1.1946519E-1,-7.918618E-4,-6.5786767E-1,1.5523976E-1,-2.0949417E-1,-7.8365296E-1,-4.7036048E-2,-1.1141403E-2,3.474681E-2,-1.3710176E-2,-2.6020302E-2,-5.185317E-2,-8.598202E-2],"categories":[],"categories_nodes":[],"categories_segments":[],"categories_sizes":[],"default_left":[0,0,0,0,0,0,0,0,0,0,0,0,0,0,0,0,0,0,0],"id":3,"left_children":[1,3,5,7,9,-1,-1,-1,11,13,15,17,-1,-1,-1,-1,-1,-1,-1],"loss_changes":[5.58145E1,9.368527E0,1.5889435E0,5.702242E0,1.8715874E0,0E0,0E0,0E0,1.188055E0,1.7814991E0,5.2428246E-2,3.2151031E-1,0E0,0E0,0E0,0E0,0E0,0E0,0E0],"parents":[2147483647,0,0,1,1,2,2,3,3,4,4,8,8,9,9,10,10,11,11],"right_children":[2,4,6,8,10,-1,-1,-1,12,14,16,18,-1,-1,-1,-1,-1,-1,-1],"split_conditions":[2.2945333E10,8.883001E9,2.8131662E10,2.205E6,2.51318E7,6.453275E-2,1.1946519E-1,-7.918618E-4,4.188496E9,1.348347E10,3.5334668E7,2E3,-4.7036048E-2,-1.1141403E-2,3.474681E-2,-1.3710176E-2,-2.6020302E-2,-5.185317E-2,-8.598202E-2],"split_indices":[4,4,4,3,3,0,0,0,4,4,3,0,0,0,0,0,0,0,0],"split_type":[0,0,0,0,0,0,0,0,0,0,0,0,0,0,0,0,0,0,0],"sum_hessian":[1.76E2,1.38E2,3.8E1,8.2E1,5.6E1,1.2E1,2.6E1,1.7E1,6.5E1,3.3E1,2.3E1,3.7E1,2.8E1,1.4E1,1.9E1,1.1E1,1.2E1,1E1,2.7E1],"tree_param":{"num_deleted":"0","num_feature":"6","num_nodes":"19","size_leaf_vector":"1"}},{"base_weights":[5.37253E-3,-3.7546107E-1,7.4197894E-1,-5.5860615E-1,-1.6966361E-1,4.918181E-1,1.4763512E-1,-3.008343E-1,-7.0291173E-1,-4.622675E-2,-5.415584E-2,2.3120051E-2,6.067576E-1,-1.062652E-2,-4.3222185E-2,-4.815054E-2,-7.6265514E-1,-1.6593227E-1,1.1998198E-2,4.4715047E-2,7.578356E-2,-8.668956E-2,-5.8904774E-2,-2.660857E-2,-5.169802E-4],"categories":[],"categories_nodes":[],"categories_segments":[],"categories_sizes":[],"default_left":[0,0,0,0,0,0,0,0,0,0,0,0,0,0,0,0,0,0,0,0,0,0,0,0,0],"id":4,"left_children":[1,3,5,7,9,11,-1,13,15,-1,17,-1,19,-1,-1,-1,21,23,-1,-1,-1,-1,-1,-1,-1],"loss_changes":[5.021194E1,4.3527393E0,1.0480286E1,2.0948105E0,1.9014529E0,1.2676144E0,0E0,5.6760454E-1,1.4865112E-1,0E0,8.37418E-1,0E0,4.327526E-1,0E0,0E0,0E0,1.4167786E-2,4.17248E-1,0E0,0E0,0E0,0E0,0E0,0E0,0E0],"parents":[2147483647,0,0,1,1,2,2,3,3,4,4,5,5,7,7,8,8,10,10,12,12,16,16,17,17],"right_children":[2,4,6,8,10,12,-1,14,16,-1,18,-1,20,-1,-1,-1,22,24,-1,-1,-1,-1,-1,-1,-1],"split_conditions":[4.7058926E4,2.2474928E4,8.482227E4,1E0,2.002E3,2.008E3,1.4763512E-1,4.349935E3,1.999E3,-4.622675E-2,3.7336453E4,2.3120051E-2,6.1884805E4,-1.062652E-2,-4.3222185E-2,-4.815054E-2,6.3901035E3,2.011E3,1.1998198E-2,4.4715047E-2,7.578356E-2,-8.668956E-2,-5.8904774E-2,-2.660857E-2,-5.169802E-4],"split_indices":[5,5,5,1,0,0,0,5,0,0,5,0,5,0,0,0,5,0,0,0,0,0,0,0,0],"split_type":[0,0,0,0,0,0,0,0,0,0,0,0,0,0,0,0,0,0,0,0,0,0,0,0,0],"sum_hessian":[1.77E2,1.17E2,6E1,6.1E1,5.6E1,4.6E1,1.4E1,2.3E1,3.8E1,1.5E1,4.1E1,1.5E1,3.1E1,1E1,1.3E1,1E1,2.8E1,2.5E1,1.6E1,1.7E1,1.4E1,1.5E1,1.3E1,1.5E1,1E1],"tree_param":{"num_deleted":"0","num_feature":"6","num_nodes":"25","size_leaf_vector":"1"}},{"base_weights":[3.8762782E-3,-2.5029057E-1,8.679467E-1,-4.2133656E-1,1.294446E-1,5.1639583E-2,1.2689313E-1,2.9295634E-3,-5.005634E-1,-1.3038734E-2,2.1213268E-1,-7.180547E-2,-3.557075E-1,5.440199E-3,3.5738498E-2,-4.2339057E-2,-2.4207895E-1,-1.4137024E-2,-3.2078046E-2],"categories":[],"categories_nodes":[],"categories_segments":[],"categories_sizes":[],"default_left":[0,0,0,0,0,0,0,0,0,0,0,0,0,0,0,0,0,0,0],"id":5,"left_children":[1,3,5,7,9,-1,-1,-1,11,-1,13,-1,15,-1,-1,-1,17,-1,-1],"loss_changes":[3.8650402E1,8.888038E0,4.983387E0,3.3706646E0,9.5151466E-1,0E0,0E0,0E0,2.2649746E0,0E0,7.366122E-1,0E0,2.8204203E-1,0E0,0E0,0E0,1.2109566E-1,0E0,0E0],"parents":[2147483647,0,0,1,1,2,2,3,3,4,4,8,8,10,10,12,12,16,16],"right_children":[2,4,6,8,10,-1,-1,-1,12,-1,14,-1,16,-1,-1,-1,18,-1,-1],"split_conditions":[2.2945333E10,3.7336453E4,7.552898E4,1.3101E7,2.004E3,5.1639583E-2,1.2689313E-1,2.9295634E-3,3.74535E9,-1.3038734E-2,4.96143E4,-7.180547E-2,8.874993E9,5.440199E-3,3.5738498E-2,-4.2339057E-2,1.3107902E10,-1.4137024E-2,-3.2078046E-2],"split_indices":[4,5,5,4,0,0,0,0,4,0,5,0,4,0,0,0,4,0,0],"split_type":[0,0,0,0,0,0,0,0,0,0,0,0,0,0,0,0,0,0,0],"sum_hessian":[1.74E2,1.35E2,3.9E1,9.3E1,4.2E1,2.2E1,1.7E1,1.4E1,7.9E1,1E1,3.2E1,3E1,4.9E1,1.6E1,1.6E1,2.9E1,2E1,1E1,1E1],"tree_param":{"num_deleted":"0","num_feature":"6","num_nodes":"19","size_leaf_vector":"1"}},{"base_weights":[2.7219992E-2,-2.144309E-1,8.2812977E-1,-3.4956345E-1,9.633154E-2,4.626947E-2,1.15413025E-1,1.7307287E-2,-4.3453106E-1,-3.9497353E-3,1.9027507E-1,-5.741315E-2,-3.1835774E-1,2.6379688E-2,1.2367409E-2,-3.88E-2,-2.136578E-1,-1.1627356E-2,-2.9161861E-2],"categories":[],"categories_nodes":[],"categories_segments":[],"categories_sizes":[],"default_left":[0,0,0,0,0,0,0,0,0,0,0,0,0,0,0,0,0,0,0],"id":6,"left_children":[1,3,5,7,9,-1,-1,-1,11,-1,13,-1,15,-1,-1,-1,17,-1,-1],"loss_changes":[3.424072E1,5.7448745E0,4.350403E0,4.293886E0,5.4344577E-1,0E0,0E0,0E0,1.1470861E0,0E0,8.97907E-2,0E0,2.5980377E-1,0E0,0E0,0E0,1.2552768E-1,0E0,0E0],"parents":[2147483647,0,0,1,1,2,2,3,3,4,4,8,8,10,10,12,12,16,16],"right_children":[2,4,6,8,10,-1,-1,-1,12,-1,14,-1,16,-1,-1,-1,18,-1,-1],"split_conditions":[2.3246383E10,3.6521363E4,7.372984E4,2.205E6,1.32525E10,4.626947E-2,1.15413025E-1,1.7307287E-2,4.188496E9,-3.9497353E-3,2.1147E7,-5.741315E-2,8.874993E9,2.6379688E-2,1.2367409E-2,-3.88E-2,1.3107902E10,-1.1627356E-2,-2.9161861E-2],"split_indices":[4,2,2,3,4,0,0,0,4,0,3,0,4,0,0,0,4,0,0],"split_type":[0,0,0,0,0,0,0,0,0,0,0,0,0,0,0,0,0,0,0],"sum_hessian":[1.75E2,1.35E2,4E1,9.4E1,4.1E1,2E1,2E1,1.3E1,8.1E1,1.7E1,2.4E1,3.5E1,4.6E1,1E1,1.4E1,2.6E1,2E1,1E1,1E1],"tree_param":{"num_deleted":"0","num_feature":"6","num_nodes":"19","size_leaf_vector":"1"}},{"base_weights":[1.9966282E-2,-2.5829697E-1,5.396719E-1,-3.7555417E-1,-1.1126809E-1,3.5329628E-1,1.140126E-1,-2.5611377E-1,-5.8650607E-1,-3.385411E-2,-2.6829895E-2,1.2745157E-2,4.169947E-1,-4.532062E-1,6.3247595E-4,-6.925158E-2,-4.1754037E-2,-7.563461E-2,6.5723867E-3,3.1794917E-2,5.2712012E-2,-3.061125E-2,-5.5412304E-2,-1.482221E-2,2.1402633E-3],"categories":[],"categories_nodes":[],"categories_segments":[],"categories_sizes":[],"default_left":[0,0,0,0,0,0,0,0,0,0,0,0,0,0,0,0,0,0,0,0,0,0,0,0,0],"id":7,"left_children":[1,3,5,7,9,11,-1,13,15,-1,17,-1,19,21,-1,-1,-1,23,-1,-1,-1,-1,-1,-1,-1],"loss_changes":[2.5302399E1,1.923594E0,6.423708E0,1.4371471E0,9.8882407E-1,6.373782E-1,0E0,2.1753018E0,1.0491133E-1,0E0,1.8113634E-1,0E0,2.3597765E-1,1.866374E-1,0E0,0E0,0E0,1.8630826E-1,0E0,0E0,0E0,0E0,0E0,0E0,0E0],"parents":[2147483647,0,0,1,1,2,2,3,3,4,4,5,5,7,7,8,8,10,10,12,12,13,13,17,17],"right_children":[2,4,6,8,10,12,-1,14,16,-1,18,-1,20,22,-1,-1,-1,24,-1,-1,-1,-1,-1,-1,-1],"split_conditions":[4.503925E4,2.2474928E4,8.464527E4,2.01E3,2.002E3,2.007E3,1.140126E-1,2.004E3,7.899984E3,-3.385411E-2,2.011E3,1.2745157E-2,6.1884805E4,1.999E3,6.3247595E-4,-6.925158E-2,-4.1754037E-2,3.7259355E4,6.5723867E-3,3.1794917E-2,5.2712012E-2,-3.061125E-2,-5.5412304E-2,-1.482221E-2,2.1402633E-3],"split_indices":[2,2,2,0,0,0,0,0,2,0,0,0,2,0,0,0,0,2,0,0,0,0,0,0,0],"split_type":[0,0,0,0,0,0,0,0,0,0,0,0,0,0,0,0,0,0,0,0,0,0,0,0,0],"sum_hessian":[1.73E2,1.13E2,6E1,6.2E1,5.1E1,4.7E1,1.3E1,4.1E1,2.1E1,1.3E1,3.8E1,1.1E1,3.6E1,2.3E1,1.8E1,1.1E1,1E1,2.5E1,1.3E1,2.1E1,1.5E1,1.1E1,1.2E1,1.4E1,1.1E1],"tree_param":{"num_deleted":"0","num_feature":"6","num_nodes":"25","size_leaf_vector":"1"}},{"base_weights":[-3.673405E-3,-2.6252204E-1,4.9320826E-1,-3.7555984E-1,-1.09654896E-1,3.2694253E-1,1.0399091E-1,-8.140858E-3,-4.4360635E-1,-2.894083E-2,-4.2316373E-2,1.1760342E-2,4.2487654E-1,-2.7805218E-2,-4.786755E-1,1.0007589E-2,-1.0183033E-1,3.406487E-2,5.6236412E-2,-5.81671E-2,-3.4924045E-2,-1.7930752E-2,3.4207802E-3],"categories":[],"categories_nodes":[],"categories_segments":[],"categories_sizes":[],"default_left":[0,0,0,0,0,0,0,0,0,0,0,0,0,0,0,0,0,0,0,0,0,0,0],"id":8,"left_children":[1,3,5,7,9,11,-1,-1,13,-1,15,-1,17,-1,19,-1,21,-1,-1,-1,-1,-1,-1],"loss_changes":[2.3280565E1,2.01511E0,5.295663E0,1.3249731E0,6.1717856E-1,9.546027E-1,0E0,0E0,1.8622494E-1,0E0,3.4068954E-1,0E0,1.9058084E-1,0E0,3.8343048E-1,0E0,3.0124953E-1,0E0,0E0,0E0,0E0,0E0,0E0],"parents":[2147483647,0,0,1,1,2,2,3,3,4,4,5,5,8,8,10,10,12,12,14,14,16,16],"right_children":[2,4,6,8,10,12,-1,-1,14,-1,16,-1,18,-1,20,-1,22,-1,-1,-1,-1,-1,-1],"split_conditions":[4.3681914E4,2.2474928E4,8.464527E4,2.205E6,2.002E3,2.008E3,1.0399091E-1,-8.140858E-3,1.999E3,-2.894083E-2,1.93545E7,1.1760342E-2,3.83522E7,-2.7805218E-2,7.899984E3,1.0007589E-2,3.624277E4,3.406487E-2,5.6236412E-2,-5.81671E-2,-3.4924045E-2,-1.7930752E-2,3.4207802E-3],"split_indices":[2,2,2,3,0,0,0,0,0,0,3,0,3,0,2,0,2,0,0,0,0,0,0],"split_type":[0,0,0,0,0,0,0,0,0,0,0,0,0,0,0,0,0,0,0,0,0,0,0],"sum_hessian":[1.79E2,1.18E2,6.1E1,6.7E1,5.1E1,4.8E1,1.3E1,1.3E1,5.4E1,1.3E1,3.8E1,1.6E1,3.2E1,1.1E1,4.3E1,1.1E1,2.7E1,2.2E1,1E1,2.2E1,2.1E1,1.7E1,1E1],"tree_param":{"num_deleted":"0","num_feature":"6","num_nodes":"23","size_leaf_vector":"1"}},{"base_weights":[1.614073E-2,-2.787083E-1,1.2658302E-1,-4.8303355E-2,-1.2818374E-1,2.8201923E-1,4.739302E-2,-1.9139504E-2,-3.5662514E-3,-8.114129E-3,4.7946742E-1,-3.1804245E-2,1.354646E-1,6.3697085E-2,2.764661E-2,2.0999847E-1,-7.0963465E-3,1.2913527E-1,2.923431E-1,7.4474434E-3,-1.0167089E-2,1.9328283E-2,5.505422E-3,3.9449915E-2,1.7433813E-2],"categories":[],"categories_nodes":[],"categories_segments":[],"categories_sizes":[],"default_left":[0,0,0,0,0,0,0,0,0,0,0,0,0,0,0,0,0,0,0,0,0,0,0,0,0],"id":9,"left_children":[1,3,5,-1,7,9,11,-1,-1,-1,13,-1,15,-1,-1,17,19,21,23,-1,-1,-1,-1,-1,-1],"loss_changes":[5.733946E0,1.4143693E0,1.5621855E0,0E0,1.6277757E-1,3.1222365E0,2.8109484E0,0E0,0E0,0E0,7.1915436E-1,0E0,7.452837E-1,0E0,0E0,2.6854587E-1,2.0043486E-1,1.08161956E-1,1.9643223E-1,0E0,0E0,0E0,0E0,0E0,0E0],"parents":[2147483647,0,0,1,1,2,2,4,4,5,5,6,6,10,10,12,12,15,15,16,16,17,17,18,18],"right_children":[2,4,6,-1,8,10,12,-1,-1,-1,14,-1,16,-1,-1,18,20,22,24,-1,-1,-1,-1,-1,-1],"split_conditions":[2.004E3,1.3333E7,1E0,-4.8303355E-2,1.66705E7,2.009E3,1.6322667E7,-1.9139504E-2,-3.5662514E-3,-8.114129E-3,4.6516332E7,-3.1804245E-2,2.9962E7,6.3697085E-2,2.764661E-2,2.2297E7,2.012E3,1.9613334E7,2.60135E7,7.4474434E-3,-1.0167089E-2,1.9328283E-2,5.505422E-3,3.9449915E-2,1.7433813E-2],"split_indices":[0,3,1,0,3,0,3,0,0,0,3,0,3,0,0,3,0,3,3,0,0,0,0,0,0],"split_type":[0,0,0,0,0,0,0,0,0,0,0,0,0,0,0,0,0,0,0,0,0,0,0,0,0],"sum_hessian":[1.74E2,4.7E1,1.27E2,1.9E1,2.8E1,4.2E1,8.5E1,1.6E1,1.2E1,1.5E1,2.7E1,1.6E1,6.9E1,1.4E1,1.3E1,4.5E1,2.4E1,2.4E1,2.1E1,1.3E1,1.1E1,1.2E1,1.2E1,1E1,1.1E1],"tree_param":{"num_deleted":"0","num_feature":"6","num_nodes":"25","size_leaf_vector":"1"}},{"base_weights":[8.162396E-3,-2.2545344E-1,4.1686255E-1,-2.6845E-1,-8.6761225E-5,2.1153189E-1,7.992424E-1,1.9681258E-3,-3.234076E-1,-1.7853506E-3,2.8158364E-1,5.56459E-2,9.551903E-2,-3.7469223E-1,-2.0445456E-1,1.862445E-2,3.420312E-2,-4.1835897E-2,-2.6411666E-2,-2.6088802E-2,-1.3744816E-2],"categories":[],"categories_nodes":[],"categories_segments":[],"categories_sizes":[],"default_left":[0,0,0,0,0,0,0,0,0,0,0,0,0,0,0,0,0,0,0,0,0],"id":10,"left_children":[1,3,5,7,-1,9,11,-1,13,-1,15,-1,-1,17,19,-1,-1,-1,-1,-1,-1],"loss_changes":[1.6802778E1,1.0812864E0,4.85585E0,1.4948549E0,0E0,6.959877E-1,3.0142975E-1,0E0,4.0532875E-1,0E0,1.264782E-1,0E0,0E0,1.5024233E-1,6.245792E-2,0E0,0E0,0E0,0E0,0E0,0E0],"parents":[2147483647,0,0,1,1,2,2,3,3,5,5,6,6,8,8,10,10,13,13,14,14],"right_children":[2,4,6,8,-1,10,12,-1,14,-1,16,-1,-1,18,20,-1,-1,-1,-1,-1,-1],"split_conditions":[4.3681914E4,3.5326312E4,7.20694E4,2.205E6,-8.6761225E-5,1.822575E7,8.935223E4,1.9681258E-3,2.3149666E7,-1.7853506E-3,2.72525E7,5.56459E-2,9.551903E-2,2.0038172E4,2.407764E4,1.862445E-2,3.420312E-2,-4.1835897E-2,-2.6411666E-2,-2.6088802E-2,-1.3744816E-2],"split_indices":[2,2,2,3,0,3,2,0,3,0,3,0,0,2,2,0,0,0,0,0,0],"split_type":[0,0,0,0,0,0,0,0,0,0,0,0,0,0,0,0,0,0,0,0,0],"sum_hessian":[1.74E2,1.11E2,6.3E1,9.3E1,1.8E1,4.2E1,2.1E1,1.5E1,7.8E1,1E1,3.2E1,1E1,1.1E1,5.3E1,2.5E1,1.4E1,1.8E1,3.6E1,1.7E1,1.2E1,1.3E1],"tree_param":{"num_deleted":"0","num_feature":"6","num_nodes":"21","size_leaf_vector":"1"}},{"base_weights":[-8.471507E-3,-2.0470454E-1,3.808652E-1,-3.1545293E-1,-9.77995E-2,1.986294E-1,7.098445E-1,-1.6054201E-1,-3.9903638E-1,-1.61496E-1,5.4855505E-3,8.2571125E-3,2.514511E-1,4.99343E-2,8.5581474E-2,-4.690048E-3,-2.513349E-2,-2.376688E-2,-4.581662E-2,-2.0444284E-1,-5.4863985E-3,2.0113464E-2,3.0635376E-2,-2.3468984E-2,-1.6141815E-2],"categories":[],"categories_nodes":[],"categories_segments":[],"categories_sizes":[],"default_left":[0,0,0,0,0,0,0,0,0,0,0,0,0,0,0,0,0,0,0,0,0,0,0,0,0],"id":11,"left_children":[1,3,5,7,9,11,13,15,17,19,-1,-1,21,-1,-1,-1,-1,-1,-1,23,-1,-1,-1,-1,-1],"loss_changes":[1.3677293E1,1.3780565E0,3.4561138E0,6.869216E-1,6.1172146E-1,2.2445309E-1,2.1792126E-1,2.152049E-1,2.4414873E-1,1.9028187E-1,0E0,0E0,1.2969494E-2,0E0,0E0,0E0,0E0,0E0,0E0,2.4591684E-3,0E0,0E0,0E0,0E0,0E0],"parents":[2147483647,0,0,1,1,2,2,3,3,4,4,5,5,6,6,7,7,8,8,9,9,12,12,19,19],"right_children":[2,4,6,8,10,12,14,16,18,20,-1,-1,22,-1,-1,-1,-1,-1,-1,24,-1,-1,-1,-1,-1],"split_conditions":[4.7058926E4,2.0038172E4,7.20694E4,1E0,2.011E3,2.009E3,8.8210266E4,4.9599346E3,2E3,3.7336453E4,5.4855505E-3,8.2571125E-3,6.168395E4,4.99343E-2,8.5581474E-2,-4.690048E-3,-2.513349E-2,-2.376688E-2,-4.581662E-2,2.8984143E4,-5.4863985E-3,2.0113464E-2,3.0635376E-2,-2.3468984E-2,-1.6141815E-2],"split_indices":[5,5,5,1,0,0,5,5,0,5,0,0,5,0,0,0,0,0,0,5,0,0,0,0,0],"split_type":[0,0,0,0,0,0,0,0,0,0,0,0,0,0,0,0,0,0,0,0,0,0,0,0,0],"sum_hessian":[1.77E2,1.18E2,5.9E1,5.7E1,6.1E1,3.9E1,2E1,2.1E1,3.6E1,4.3E1,1.8E1,1.3E1,2.6E1,1E1,1E1,1E1,1.1E1,1.1E1,2.5E1,3E1,1.3E1,1.6E1,1E1,1.5E1,1.5E1],"tree_param":{"num_deleted":"0","num_feature":"6","num_nodes":"25","size_leaf_vector":"1"}},{"base_weights":[-2.0734321E-2,-1.8012573E-1,4.014207E-1,-2.9129273E-1,-7.296693E-2,2.7018052E-1,7.008483E-2,-1.31228855E-2,-3.270835E-1,-1.208271E-1,9.781278E-3,1.8720817E-2,2.9588116E-2,-4.4840813E-2,-2.8136608E-1,5.6406097E-3,-1.6436848E-1,-2.4467216E-1,-3.5252582E-2,-2.385564E-2,-8.608145E-2,-3.0749112E-2,-1.3005437E-2,-1.7081698E-2,-1.2337664E-4],"categories":[],"categories_nodes":[],"categories_segments":[],"categories_sizes":[],"default_left":[0,0,0,0,0,0,0,0,0,0,0,0,0,0,0,0,0,0,0,0,0,0,0,0,0],"id":12,"left_children":[1,3,5,7,9,11,-1,-1,13,15,-1,-1,-1,-1,17,-1,19,21,-1,-1,23,-1,-1,-1,-1],"loss_changes":[1.1780399E1,1.4916353E0,1.696897E0,3.122635E-1,5.512725E-1,1.9244194E-2,0E0,0E0,1.5116596E-1,4.1055423E-1,0E0,0E0,0E0,0E0,1.5580893E-2,0E0,2.233988E-1,1.6881442E-1,0E0,0E0,1.5796073E-1,0E0,0E0,0E0,0E0],"parents":[2147483647,0,0,1,1,2,2,3,3,4,4,5,5,8,8,9,9,14,14,16,16,17,17,20,20],"right_children":[2,4,6,8,10,12,-1,-1,14,16,-1,-1,-1,-1,18,-1,20,22,-1,-1,24,-1,-1,-1,-1],"split_conditions":[1.9570973E10,2.2474928E4,8.464527E4,4.1895E7,4.96143E4,2.3246383E10,7.008483E-2,-1.31228855E-2,2.163328E3,2.6594988E4,9.781278E-3,1.8720817E-2,2.9588116E-2,-4.4840813E-2,4.42494E9,5.6406097E-3,3.4997883E4,2.829464E9,-3.5252582E-2,-2.385564E-2,1.1859644E10,-3.0749112E-2,-1.3005437E-2,-1.7081698E-2,-1.2337664E-4],"split_indices":[4,2,2,4,5,4,0,0,2,2,0,0,0,0,4,0,2,4,0,0,4,0,0,0,0],"split_type":[0,0,0,0,0,0,0,0,0,0,0,0,0,0,0,0,0,0,0,0,0,0,0,0,0],"sum_hessian":[1.73E2,1.26E2,4.7E1,6.1E1,6.5E1,3.4E1,1.3E1,1.2E1,4.9E1,5.1E1,1.4E1,1E1,2.4E1,1.1E1,3.8E1,1E1,4.1E1,2.8E1,1E1,2E1,2.1E1,1.7E1,1.1E1,1E1,1.1E1],"tree_param":{"num_deleted":"0","num_feature":"6","num_nodes":"25","size_leaf_vector":"1"}},{"base_weights":[6.138922E-3,-1.1268562E-1,4.6200234E-1,-1.7817622E-1,1.52491275E-2,2.5111774E-2,5.6576824E-1,1.0761706E-2,-2.4728012E-1,8.64976E-2,-1.0180096E-2,6.545201E-2,4.0137786E-2,-3.4965652E-1,-1.9023961E-1,1.1612843E-3,1.765996E-2,-2.5161967E-2,-4.047756E-2,-2.1613134E-1,-9.793055E-3,-1.1770954E-2,-2.5059316E-1,-1.7889429E-2,-3.0951384E-2],"categories":[],"categories_nodes":[],"categories_segments":[],"categories_sizes":[],"default_left":[0,0,0,0,0,0,0,0,0,0,0,0,0,0,0,0,0,0,0,0,0,0,0,0,0],"id":13,"left_children":[1,3,5,7,9,-1,11,-1,13,15,-1,-1,-1,17,19,-1,-1,-1,-1,21,-1,-1,23,-1,-1],"loss_changes":[9.693923E0,1.1924676E0,6.6758204E-1,1.8830576E0,4.174479E-1,0E0,8.7449074E-2,0E0,3.772912E-1,2.0711443E-1,0E0,0E0,0E0,3.8646936E-2,1.00726485E-1,0E0,0E0,0E0,0E0,1.0278261E-1,0E0,0E0,6.2916994E-2,0E0,0E0],"parents":[2147483647,0,0,1,1,2,2,3,3,4,4,6,6,8,8,9,9,13,13,14,14,19,19,22,22],"right_children":[2,4,6,8,10,-1,12,-1,14,16,-1,-1,-1,18,20,-1,-1,-1,-1,22,-1,-1,24,-1,-1],"split_conditions":[2.3246383E10,1.121244E10,2.8131662E10,7.9092E7,2.72525E7,2.5111774E-2,4.56E7,1.0761706E-2,2.829464E9,1.6945376E10,-1.0180096E-2,6.545201E-2,4.0137786E-2,7.97919E8,8.874993E9,1.1612843E-3,1.765996E-2,-2.5161967E-2,-4.047756E-2,4.42494E9,-9.793055E-3,-1.1770954E-2,1.6129E7,-1.7889429E-2,-3.0951384E-2],"split_indices":[4,4,4,4,3,0,3,0,4,4,0,0,0,4,4,0,0,0,0,4,0,0,3,0,0],"split_type":[0,0,0,0,0,0,0,0,0,0,0,0,0,0,0,0,0,0,0,0,0,0,0,0,0],"sum_hessian":[1.77E2,1.41E2,3.6E1,9.3E1,4.8E1,1.3E1,2.3E1,1.8E1,7.5E1,3E1,1.8E1,1.3E1,1E1,2.5E1,5E1,1.7E1,1.3E1,1.1E1,1.4E1,3.8E1,1.2E1,1.1E1,2.7E1,1.4E1,1.3E1],"tree_param":{"num_deleted":"0","num_feature":"6","num_nodes":"25","size_leaf_vector":"1"}},{"base_weights":[-3.1872124E-3,-1.6464254E-1,2.8251356E-1,-2.4086761E-1,-7.407594E-2,1.5453258E-1,5.25634E-1,-6.8136826E-3,-2.853036E-1,-1.1064986E-1,2.8392926E-3,6.649792E-3,2.0749893E-2,3.9706666E-2,6.181044E-2,-4.383661E-2,-2.3481664E-1,1.2629445E-3,-1.5784648E-1,-1.3100268E-2,-2.6609722E-1,-1.910239E-2,-1.0231857E-2,-3.3553153E-2,-1.9734764E-2],"categories":[],"categories_nodes":[],"categories_segments":[],"categories_sizes":[],"default_left":[0,0,0,0,0,0,0,0,0,0,0,0,0,0,0,0,0,0,0,0,0,0,0,0,0],"id":14,"left_children":[1,3,5,7,9,11,13,-1,15,17,-1,-1,-1,-1,-1,-1,19,-1,21,-1,23,-1,-1,-1,-1],"loss_changes":[8.30341E0,7.760539E-1,1.9412336E0,4.5643902E-1,2.0551682E-1,1.9136822E-1,1.6122341E-2,0E0,2.7571988E-1,2.3472816E-1,0E0,0E0,0E0,0E0,0E0,0E0,9.178758E-2,0E0,3.388059E-2,0E0,7.2217464E-2,0E0,0E0,0E0,0E0],"parents":[2147483647,0,0,1,1,2,2,3,3,4,4,5,5,6,6,8,8,9,9,16,16,18,18,20,20],"right_children":[2,4,6,8,10,12,14,-1,16,18,-1,-1,-1,-1,-1,-1,20,-1,22,-1,24,-1,-1,-1,-1],"split_conditions":[4.3681914E4,2.1509924E4,7.20694E4,4.1895E7,3.7336453E4,1.9285398E10,8.935223E4,-6.8136826E-3,2.163328E3,2.6520268E4,2.8392926E-3,6.649792E-3,2.0749893E-2,3.9706666E-2,6.181044E-2,-4.383661E-2,5.5818022E3,1.2629445E-3,3.154631E4,-1.3100268E-2,1.2289934E4,-1.910239E-2,-1.0231857E-2,-3.3553153E-2,-1.9734764E-2],"split_indices":[2,2,2,4,2,4,2,0,2,2,0,0,0,0,0,0,2,0,2,0,2,0,0,0,0],"split_type":[0,0,0,0,0,0,0,0,0,0,0,0,0,0,0,0,0,0,0,0,0,0,0,0,0],"sum_hessian":[1.78E2,1.14E2,6.4E1,6.1E1,5.3E1,4.3E1,2.1E1,1.3E1,4.8E1,3.9E1,1.4E1,1.7E1,2.6E1,1.1E1,1E1,1E1,3.8E1,1.1E1,2.8E1,1E1,2.8E1,1.6E1,1.2E1,1.2E1,1.6E1],"tree_param":{"num_deleted":"0","num_feature":"6","num_nodes":"25","size_leaf_vector":"1"}},{"base_weights":[1.3399535E-2,-8.6128846E-2,3.5394925E-1,1.7834071E-2,-1.201074E-1,1.8783305E-2,5.2766543E-2,-1.9074772E-1,2.4102697E-2,-3.328174E-2,-1.616384E-1,-8.48393E-3,6.1982024E-2,-1.8939784E-1,-1.1586133E-1,2.1914113E-3,8.001845E-2,-1.4051111E-1,-2.6802653E-2,-1.620988E-2,-5.474271E-3,1.04084285E-2,4.8678224E-3,-1.7197842E-2,-8.422318E-3],"categories":[],"categories_nodes":[],"categories_segments":[],"categories_sizes":[],"default_left":[0,0,0,0,0,0,0,0,0,0,0,0,0,0,0,0,0,0,0,0,0,0,0,0,0],"id":15,"left_children":[1,3,5,-1,7,-1,-1,9,11,-1,13,-1,15,17,19,-1,21,23,-1,-1,-1,-1,-1,-1,-1],"loss_changes":[5.995893E0,1.2525423E0,1.0551696E0,0E0,1.2474172E0,0E0,0E0,2.8531933E-1,1.7445114E-1,0E0,6.700826E-2,0E0,2.0649604E-2,1.2378311E-1,7.307941E-2,0E0,1.0772154E-2,3.5109818E-2,0E0,0E0,0E0,0E0,0E0,0E0,0E0],"parents":[2147483647,0,0,1,1,2,2,4,4,7,7,8,8,10,10,12,12,13,13,14,14,16,16,17,17],"right_children":[2,4,6,-1,8,-1,-1,10,12,-1,14,-1,16,18,20,-1,22,24,-1,-1,-1,-1,-1,-1,-1],"split_conditions":[2.3246383E10,1.3101E7,7.372984E4,1.7834071E-2,3.6521363E4,1.8783305E-2,5.2766543E-2,2.163328E3,1.161288E10,-3.328174E-2,2.407764E4,-8.48393E-3,4.346551E4,4.42494E9,8.874993E9,2.1914113E-3,5.381511E4,2.829464E9,-2.6802653E-2,-1.620988E-2,-5.474271E-3,1.04084285E-2,4.8678224E-3,-1.7197842E-2,-8.422318E-3],"split_indices":[4,4,2,0,2,0,0,2,4,0,2,0,2,4,4,0,2,4,0,0,0,0,0,0,0],"split_type":[0,0,0,0,0,0,0,0,0,0,0,0,0,0,0,0,0,0,0,0,0,0,0,0,0],"sum_hessian":[1.75E2,1.36E2,3.9E1,1.5E1,1.21E2,2.1E1,1.8E1,8.1E1,4E1,1.2E1,6.9E1,1E1,3E1,4.1E1,2.8E1,1E1,2E1,2.7E1,1.4E1,1.5E1,1.3E1,1E1,1E1,1.6E1,1.1E1],"tree_param":{"num_deleted":"0","num_feature":"6","num_nodes":"25","size_leaf_vector":"1"}},{"base_weights":[2.4809275E-2,-5.1834386E-2,4.31777E-1,-8.9644015E-2,1.3928713E-1,2.3825614E-2,5.260521E-2,9.926814E-3,-1.163072E-1,8.248087E-3,1.9395385E-2,-1.6920255E-1,-1.5671989E-2,-1.3092612E-1,-2.767582E-2,3.806627E-3,-5.0844494E-2,-5.416998E-3,-1.5581432E-1,-1.4899737E-2,2.9907376E-3,-2.7365057E-2,-7.730684E-3],"categories":[],"categories_nodes":[],"categories_segments":[],"categories_sizes":[],"default_left":[0,0,0,0,0,0,0,0,0,0,0,0,0,0,0,0,0,0,0,0,0,0,0],"id":16,"left_children":[1,3,5,7,9,-1,-1,-1,11,-1,-1,13,15,17,-1,-1,19,-1,21,-1,-1,-1,-1],"loss_changes":[5.5120845E0,1.089195E0,3.8550282E-1,6.411705E-1,6.163779E-2,0E0,0E0,0E0,5.8289325E-1,0E0,0E0,2.601781E-1,7.5649716E-2,9.6627295E-2,0E0,0E0,1.9468081E-1,0E0,3.5813695E-1,0E0,0E0,0E0,0E0],"parents":[2147483647,0,0,1,1,2,2,3,3,4,4,8,8,11,11,12,12,13,13,16,16,18,18],"right_children":[2,4,6,8,10,-1,-1,-1,12,-1,-1,14,16,18,-1,-1,20,-1,22,-1,-1,-1,-1],"split_conditions":[6.8070336E4,1.9570973E10,2.808435E10,1.3101E7,2.013E3,2.3825614E-2,5.260521E-2,9.926814E-3,1.121244E10,8.248087E-3,1.9395385E-2,2.01E3,1.3536253E10,1.997E3,-2.767582E-2,3.806627E-3,4.03299E4,-5.416998E-3,4.04192E9,-1.4899737E-2,2.9907376E-3,-2.7365057E-2,-7.730684E-3],"split_indices":[5,4,4,4,0,0,0,0,4,0,0,0,4,0,0,0,5,0,4,0,0,0,0],"split_type":[0,0,0,0,0,0,0,0,0,0,0,0,0,0,0,0,0,0,0,0,0,0,0],"sum_hessian":[1.75E2,1.48E2,2.7E1,1.24E2,2.4E1,1E1,1.7E1,1.5E1,1.09E2,1.3E1,1.1E1,7.1E1,3.8E1,5.4E1,1.7E1,1.5E1,2.3E1,1.4E1,4E1,1E1,1.3E1,1.5E1,2.5E1],"tree_param":{"num_deleted":"0","num_feature":"6","num_nodes":"23","size_leaf_vector":"1"}},{"base_weights":[-1.0473732E-2,-9.0559475E-2,2.7552065E-1,-1.8430936E-1,-2.1201644E-2,1.5003557E-2,4.143245E-2,-4.5528196E-2,-2.6627725E-1,-2.4086338E-2,1.9058088E-2,-2.391158E-2,1.6979722E-2,-4.2725306E-2,-1.6371368E-1,-4.7128648E-3,1.16332965E-2,-2.4270577E-2,-8.428086E-3,-3.952517E-2,8.043668E-3,-1.0590318E-2,1.1255318E-2,2.7566256E-3,-3.4120385E-4],"categories":[],"categories_nodes":[],"categories_segments":[],"categories_sizes":[],"default_left":[0,0,0,0,0,0,0,0,0,0,0,0,0,0,0,0,0,0,0,0,0,0,0,0,0],"id":17,"left_children":[1,3,5,7,9,-1,-1,11,13,-1,15,-1,-1,-1,17,19,-1,-1,-1,21,-1,-1,23,-1,-1],"loss_changes":[3.8728354E0,8.5439456E-1,5.822959E-1,6.249106E-1,6.855416E-1,0E0,0E0,9.576565E-1,5.079117E-1,0E0,1.5316114E-1,0E0,0E0,0E0,1.23859525E-1,1.6324887E-1,0E0,0E0,0E0,1.3264956E-1,0E0,0E0,5.59654E-3,0E0,0E0],"parents":[2147483647,0,0,1,1,2,2,3,3,4,4,7,7,8,8,10,10,14,14,15,15,19,19,22,22],"right_children":[2,4,6,8,10,-1,-1,12,14,-1,16,-1,-1,-1,18,20,-1,-1,-1,22,-1,-1,24,-1,-1],"split_conditions":[2.3246383E10,2.0038172E4,7.372984E4,3.1188872E3,1.997E3,1.5003557E-2,4.143245E-2,1.3771472E3,1.66404E9,-2.4086338E-2,5.088907E4,-2.391158E-2,1.6979722E-2,-4.2725306E-2,2.008E3,2.011E3,1.16332965E-2,-2.4270577E-2,-8.428086E-3,9.692445E9,8.043668E-3,-1.0590318E-2,2.007E3,2.7566256E-3,-3.4120385E-4],"split_indices":[4,2,2,2,0,0,0,2,4,0,2,0,0,0,0,0,0,0,0,4,0,0,0,0,0],"split_type":[0,0,0,0,0,0,0,0,0,0,0,0,0,0,0,0,0,0,0,0,0,0,0,0,0],"sum_hessian":[1.67E2,1.31E2,3.6E1,5.5E1,7.6E1,2E1,1.6E1,2.1E1,3.4E1,1.1E1,6.5E1,1.1E1,1E1,1.2E1,2.2E1,5.3E1,1.2E1,1E1,1.2E1,3.8E1,1.5E1,1.6E1,2.2E1,1E1,1.2E1],"tree_param":{"num_deleted":"0","num_feature":"6","num_nodes":"25","size_leaf_vector":"1"}},{"base_weights":[-1.4506304E-2,-1.383411E-1,1.3772765E-1,5.1001324E-3,-1.6825126E-1,8.907622E-2,3.5724666E-2,-2.7062643E-2,-1.4743003E-1,1.726495E-2,1.5218721E-1,-1.6669187E-1,-8.492641E-3,-5.344669E-3,5.6849457E-2,1.217755E-1,1.8910652E-2,-1.10064E-1,-2.328907E-2,3.431714E-3,7.4213645E-3,1.5466784E-2,7.4822456E-3,-1.5439833E-2,-3.6801216E-3],"categories":[],"categories_nodes":[],"categories_segments":[],"categories_sizes":[],"default_left":[0,0,0,0,0,0,0,0,0,0,0,0,0,0,0,0,0,0,0,0,0,0,0,0,0],"id":18,"left_children":[1,3,5,-1,7,9,-1,-1,11,13,15,17,-1,-1,19,21,-1,23,-1,-1,-1,-1,-1,-1,-1],"loss_changes":[3.318129E0,5.5791724E-1,8.1189084E-1,0E0,1.391542E-1,2.9648978E-1,0E0,0E0,7.2526574E-2,9.260915E-2,1.626879E-2,1.7679691E-1,0E0,0E0,5.669564E-3,2.2404075E-2,0E0,9.500769E-2,0E0,0E0,0E0,0E0,0E0,0E0,0E0],"parents":[2147483647,0,0,1,1,2,2,4,4,5,5,8,8,9,9,10,10,11,11,14,14,15,15,17,17],"right_children":[2,4,6,-1,8,10,-1,-1,12,14,16,18,-1,-1,20,22,-1,24,-1,-1,-1,-1,-1,-1,-1],"split_conditions":[3.7259355E4,1.3101E7,8.464527E4,5.1001324E-3,2.163328E3,1.9570973E10,3.5724666E-2,-2.7062643E-2,2.8429232E4,1.1569584E10,2.9257695E10,5.1918536E9,-8.492641E-3,-5.344669E-3,5.0626844E4,2.3823354E10,1.8910652E-2,2.829464E9,-2.328907E-2,3.431714E-3,7.4213645E-3,1.5466784E-2,7.4822456E-3,-1.5439833E-2,-3.6801216E-3],"split_indices":[2,4,2,0,2,4,0,0,2,4,4,4,0,0,2,4,0,4,0,0,0,0,0,0,0],"split_type":[0,0,0,0,0,0,0,0,0,0,0,0,0,0,0,0,0,0,0,0,0,0,0,0,0],"sum_hessian":[1.74E2,9.6E1,7.8E1,1.3E1,8.3E1,6.5E1,1.3E1,1.2E1,7.1E1,3.1E1,3.4E1,5.3E1,1.8E1,1.1E1,2E1,2.1E1,1.3E1,3E1,2.3E1,1E1,1E1,1.1E1,1E1,1.8E1,1.2E1],"tree_param":{"num_deleted":"0","num_feature":"6","num_nodes":"25","size_leaf_vector":"1"}},{"base_weights":[1.2588475E-2,-6.879189E-2,2.3951305E-1,-3.8718358E-2,-2.1224594E-1,1.2507148E-1,3.238909E-1,-1.2602061E-1,3.6337957E-2,-3.1099452E-2,-1.1236283E-2,1.9464593E-2,5.087228E-3,2.3531627E-2,4.011777E-2,-3.0035296E-2,-4.7227688E-2,2.1420991E-2,-3.166562E-2,1.0634714E-3,-1.0260442E-2,-1.3520691E-2,4.919944E-2,9.506154E-3,9.229797E-4],"categories":[],"categories_nodes":[],"categories_segments":[],"categories_sizes":[],"default_left":[0,0,0,0,0,0,0,0,0,0,0,0,0,0,0,0,0,0,0,0,0,0,0,0,0],"id":19,"left_children":[1,3,5,7,9,11,13,15,17,-1,-1,-1,-1,-1,-1,-1,19,-1,21,-1,-1,-1,23,-1,-1],"loss_changes":[3.3590407E0,5.698808E-1,4.2299438E-1,7.384689E-1,1.9191206E-1,1.0367E-1,9.042883E-2,7.0009494E-1,7.446347E-1,0E0,0E0,0E0,0E0,0E0,0E0,0E0,1.1964771E-1,0E0,3.8343138E-1,0E0,0E0,0E0,4.6782993E-2,0E0,0E0],"parents":[2147483647,0,0,1,1,2,2,3,3,4,4,5,5,6,6,7,7,8,8,16,16,18,18,22,22],"right_children":[2,4,6,8,10,12,14,16,18,-1,-1,-1,-1,-1,-1,-1,20,-1,22,-1,-1,-1,24,-1,-1],"split_conditions":[2.0313215E10,2.015E3,2.8131662E10,2.005E3,1.32535E7,2.421825E7,2.014E3,1.13685E7,1.5472E7,-3.1099452E-2,-1.1236283E-2,1.9464593E-2,5.087228E-3,2.3531627E-2,4.011777E-2,-3.0035296E-2,2.001E3,2.1420991E-2,1.0297E10,1.0634714E-3,-1.0260442E-2,-1.3520691E-2,2.2719E7,9.506154E-3,9.229797E-4],"split_indices":[4,0,4,0,3,3,0,3,3,0,0,0,0,0,0,0,0,0,4,0,0,0,3,0,0],"split_type":[0,0,0,0,0,0,0,0,0,0,0,0,0,0,0,0,0,0,0,0,0,0,0,0,0],"sum_hessian":[1.8E2,1.33E2,4.7E1,1.11E2,2.2E1,2.1E1,2.6E1,5.1E1,6E1,1E1,1.2E1,1E1,1.1E1,1.4E1,1.2E1,1.5E1,3.6E1,1.6E1,4.4E1,1.8E1,1.8E1,1.9E1,2.5E1,1.1E1,1.4E1],"tree_param":{"num_deleted":"0","num_feature":"6","num_nodes":"25","size_leaf_vector":"1"}},{"base_weights":[-2.5507537E-4,-5.7746705E-2,2.1573389E-1,-1.4575516E-1,-1.5450631E-2,1.0892565E-2,3.3498324E-2,-8.804381E-3,-1.8454254E-1,1.9063076E-2,-5.6473777E-2,-2.884366E-2,-1.664731E-3,-1.6379574E-1,4.9607992E-2,-2.5415888E-2,-1.0536334E-1,1.601256E-2,1.3977622E-2,-4.2712716E-3,-1.4845962E-2,5.9725004E-3,-7.6469374E-3,-2.6758732E-3,1.2160034E-3],"categories":[],"categories_nodes":[],"categories_segments":[],"categories_sizes":[],"default_left":[0,0,0,0,0,0,0,0,0,0,0,0,0,0,0,0,0,0,0,0,0,0,0,0,0],"id":20,"left_children":[1,3,5,7,9,-1,-1,-1,11,-1,13,-1,-1,15,17,-1,19,21,-1,-1,-1,-1,23,-1,-1],"loss_changes":[2.1855304E0,5.151633E-1,4.3477368E-1,8.4483385E-2,8.139058E-1,0E0,0E0,0E0,4.4872445E-1,0E0,9.1891795E-1,0E0,0E0,1.8442643E-1,1.2196067E-1,0E0,6.3859105E-2,3.2517362E-2,0E0,0E0,0E0,0E0,8.274869E-3,0E0,0E0],"parents":[2147483647,0,0,1,1,2,2,3,3,4,4,8,8,10,10,13,13,14,14,16,16,17,17,22,22],"right_children":[2,4,6,8,10,-1,-1,-1,12,-1,14,-1,-1,16,18,-1,20,22,-1,-1,-1,-1,24,-1,-1],"split_conditions":[2.3246383E10,2.003E3,7.8409555E4,1.997E3,1.3101E7,1.0892565E-2,3.3498324E-2,-8.804381E-3,4.3768724E9,1.9063076E-2,2.8984143E4,-2.884366E-2,-1.664731E-3,7.899984E3,5.0983066E4,-2.5415888E-2,2.009E3,2.007E3,1.3977622E-2,-4.2712716E-3,-1.4845962E-2,5.9725004E-3,3.7336453E4,-2.6758732E-3,1.2160034E-3],"split_indices":[4,0,5,0,4,0,0,0,4,0,5,0,0,5,5,0,0,0,0,0,0,0,5,0,0],"split_type":[0,0,0,0,0,0,0,0,0,0,0,0,0,0,0,0,0,0,0,0,0,0,0,0,0],"sum_hessian":[1.74E2,1.38E2,3.6E1,4.4E1,9.4E1,2E1,1.6E1,1.9E1,2.5E1,1.5E1,7.9E1,1.5E1,1E1,3.9E1,4E1,1.4E1,2.5E1,3E1,1E1,1.1E1,1.4E1,1E1,2E1,1E1,1E1],"tree_param":{"num_deleted":"0","num_feature":"6","num_nodes":"25","size_leaf_vector":"1"}},{"base_weights":[1.255464E-2,-3.821369E-2,2.5944054E-1,-7.6419376E-2,3.599366E-2,1.1210359E-2,3.7418257E-2,-4.4763748E-2,-2.1814149E-2,-7.5896555E-3,7.145814E-2,1.0550923E-1,-1.0768003E-1,2.0312532E-3,1.1676548E-2,-6.1603985E-3,2.6450634E-2,-2.4767574E-2,-7.405487E-2,-1.16797425E-1,1.3272151E-3,-1.5487576E-2,-8.058836E-3],"categories":[],"categories_nodes":[],"categories_segments":[],"categories_sizes":[],"default_left":[0,0,0,0,0,0,0,0,0,0,0,0,0,0,0,0,0,0,0,0,0,0,0],"id":21,"left_children":[1,3,5,7,9,-1,-1,11,-1,-1,13,15,17,-1,-1,-1,-1,-1,19,21,-1,-1,-1],"loss_changes":[2.2785656E0,4.3085718E-1,4.8213053E-1,4.3886542E-1,2.1176612E-1,0E0,0E0,7.960944E-1,0E0,0E0,9.031902E-2,6.805576E-1,2.5939375E-1,0E0,0E0,0E0,0E0,0E0,1.8444657E-1,3.301859E-2,0E0,0E0,0E0],"parents":[2147483647,0,0,1,1,2,2,3,3,4,4,7,7,10,10,11,11,12,12,18,18,19,19],"right_children":[2,4,6,8,10,-1,-1,12,-1,-1,14,16,18,-1,-1,-1,-1,-1,20,22,-1,-1,-1],"split_conditions":[2.662277E10,3.7336453E4,7.20694E4,2.015E3,2.004E3,1.1210359E-2,3.7418257E-2,7.97919E8,-2.1814149E-2,-7.5896555E-3,5.1823473E4,2.003E3,1.2289934E4,2.0312532E-3,1.1676548E-2,-6.1603985E-3,2.6450634E-2,-2.4767574E-2,2.008E3,6.517515E9,1.3272151E-3,-1.5487576E-2,-8.058836E-3],"split_indices":[4,2,2,0,0,0,0,4,0,0,2,0,2,0,0,0,0,0,0,4,0,0,0],"split_type":[0,0,0,0,0,0,0,0,0,0,0,0,0,0,0,0,0,0,0,0,0,0,0],"sum_hessian":[1.8E2,1.5E2,3E1,9.9E1,5.1E1,1.4E1,1.6E1,8.2E1,1.7E1,1.2E1,3.9E1,2.4E1,5.8E1,1.9E1,2E1,1.2E1,1.2E1,1E1,4.8E1,3.2E1,1.6E1,1.4E1,1.8E1],"tree_param":{"num_deleted":"0","num_feature":"6","num_nodes":"23","size_leaf_vector":"1"}},{"base_weights":[-9.183433E-3,-5.397281E-2,2.652949E-1,-1.4244331E-1,6.2352754E-3,1.7245792E-2,3.6777306E-2,-8.620284E-2,-2.4078041E-1,-1.4782635E-2,3.3458408E-2,-1.6106534E-1,2.895983E-3,-3.0715784E-2,-1.4647953E-2,-6.4133387E-3,8.126114E-2,-3.5838298E-3,-2.9374143E-2,-6.6699027E-3,2.1019338E-2,1.2540455E-1,-1.7476075E-3,4.8205424E-3,-4.2048175E-4,2.4776258E-2,-2.779684E-3],"categories":[],"categories_nodes":[],"categories_segments":[],"categories_sizes":[],"default_left":[0,0,0,0,0,0,0,0,0,0,0,0,0,0,0,0,0,0,0,0,0,0,0,0,0,0,0],"id":22,"left_children":[1,3,5,7,9,-1,-1,11,13,-1,15,17,-1,-1,-1,19,21,-1,-1,-1,23,25,-1,-1,-1,-1,-1],"loss_changes":[2.1903062E0,8.1586397E-1,1.7441869E-1,3.2213664E-1,3.9079767E-1,0E0,0E0,3.5814044E-1,9.271562E-2,0E0,1.5109345E-1,4.0483868E-1,0E0,0E0,0E0,7.416907E-2,1.5910113E-1,0E0,0E0,0E0,2.1460822E-2,4.755225E-1,0E0,0E0,0E0,0E0,0E0],"parents":[2147483647,0,0,1,1,2,2,3,3,4,4,7,7,8,8,10,10,11,11,15,15,16,16,20,20,21,21],"right_children":[2,4,6,8,10,-1,-1,12,14,-1,16,18,-1,-1,-1,20,22,-1,-1,-1,24,26,-1,-1,-1,-1,-1],"split_conditions":[6.7945336E4,2.1509924E4,8.8210266E4,2.01E3,2E3,1.7245792E-2,3.6777306E-2,2.004E3,2.017E3,-1.4782635E-2,2.011E3,2E3,2.895983E-3,-3.0715784E-2,-1.4647953E-2,3.2167594E4,2.016E3,-3.5838298E-3,-2.9374143E-2,-6.6699027E-3,4.2768312E4,5.191595E4,-1.7476075E-3,4.8205424E-3,-4.2048175E-4,2.4776258E-2,-2.779684E-3],"split_indices":[2,2,5,0,0,0,0,0,0,0,0,0,0,0,0,2,0,0,0,0,2,2,0,0,0,0,0],"split_type":[0,0,0,0,0,0,0,0,0,0,0,0,0,0,0,0,0,0,0,0,0,0,0,0,0,0,0],"sum_hessian":[1.76E2,1.52E2,2.4E1,6.1E1,9.1E1,1.4E1,1E1,4E1,2.1E1,1.3E1,7.8E1,2.4E1,1.6E1,1.1E1,1E1,4.3E1,3.5E1,1.3E1,1.1E1,1.3E1,3E1,2.4E1,1.1E1,1.4E1,1.6E1,1.3E1,1.1E1],"tree_param":{"num_deleted":"0","num_feature":"6","num_nodes":"27","size_leaf_vector":"1"}},{"base_weights":[-3.925019E-3,-5.3199086E-2,1.7252757E-1,-1.2047274E-1,-2.2897061E-2,7.553668E-3,2.6554285E-2,-2.0656712E-2,-8.7113015E-2,2.3332395E-2,-9.931012E-2,-4.6175707E-2,-1.6106827E-2,1.9084243E-2,-2.7060645E-2,-2.0224523E-2,1.4860828E-3,-7.0937127E-3,-1.4965456E-3,-8.283903E-3,7.3084068E-3,2.468605E-3,-2.495171E-3],"categories":[],"categories_nodes":[],"categories_segments":[],"categories_sizes":[],"default_left":[0,0,0,0,0,0,0,0,0,0,0,0,0,0,0,0,0,0,0,0,0,0,0],"id":23,"left_children":[1,3,5,7,9,-1,-1,-1,11,13,15,17,-1,-1,19,-1,-1,-1,-1,-1,21,-1,-1],"loss_changes":[1.5133331E0,2.7448136E-1,3.227638E-1,1.0263288E-1,3.3790785E-1,0E0,0E0,0E0,8.9443505E-2,5.1164466E-1,4.2608473E-1,1.5940215E-2,0E0,0E0,9.070678E-2,0E0,0E0,0E0,0E0,0E0,1.7434102E-2,0E0,0E0],"parents":[2147483647,0,0,1,1,2,2,3,3,4,4,8,8,9,9,10,10,11,11,14,14,20,20],"right_children":[2,4,6,8,10,-1,-1,-1,12,14,16,18,-1,-1,20,-1,-1,-1,-1,-1,22,-1,-1],"split_conditions":[2.3246383E10,2.003E3,7.20694E4,5.13301E8,2.012E3,7.553668E-3,2.6554285E-2,-2.0656712E-2,7.246157E9,1.3101E7,2.3844854E4,1.786192E4,-1.6106827E-2,1.9084243E-2,2.968143E4,-2.0224523E-2,1.4860828E-3,-7.0937127E-3,-1.4965456E-3,-8.283903E-3,4.2768312E4,2.468605E-3,-2.495171E-3],"split_indices":[4,0,5,4,0,0,0,0,4,4,5,5,0,0,5,0,0,0,0,0,5,0,0],"split_type":[0,0,0,0,0,0,0,0,0,0,0,0,0,0,0,0,0,0,0,0,0,0,0],"sum_hessian":[1.72E2,1.35E2,3.7E1,4.1E1,9.4E1,1.9E1,1.8E1,1E1,3.1E1,5.9E1,3.5E1,2.1E1,1E1,1.3E1,4.6E1,1.8E1,1.7E1,1.1E1,1E1,1.7E1,2.9E1,1.9E1,1E1],"tree_param":{"num_deleted":"0","num_feature":"6","num_nodes":"23","size_leaf_vector":"1"}},{"base_weights":[-1.8028455E-3,-8.500672E-2,9.991304E-2,4.3761204E-3,-1.2776235E-1,6.21356E-2,3.1195534E-2,-1.1303311E-2,1.36188E-2,-2.627255E-2,-8.026948E-2,1.4898251E-2,2.6859641E-2,9.669093E-4,-1.0244155E-1,-8.535341E-3,5.6310467E-2,-1.4764713E-1,-1.4242056E-3,9.8664366E-2,-3.241951E-3,-9.768972E-3,-1.712874E-2,6.0230284E-3,1.3279629E-2],"categories":[],"categories_nodes":[],"categories_segments":[],"categories_sizes":[],"default_left":[0,0,0,0,0,0,0,0,0,0,0,0,0,0,0,0,0,0,0,0,0,0,0,0,0],"id":24,"left_children":[1,3,5,7,9,11,-1,-1,-1,-1,13,-1,15,-1,17,-1,19,21,-1,23,-1,-1,-1,-1,-1],"loss_changes":[1.5233982E0,3.7889934E-1,6.2946016E-1,5.2609944E-1,4.0836704E-1,2.1045092E-1,0E0,0E0,0E0,0E0,1.02690846E-1,0E0,1.733494E-1,0E0,1.613687E-1,0E0,1.5727912E-1,1.5154123E-2,0E0,2.8732866E-2,0E0,0E0,0E0,0E0,0E0],"parents":[2147483647,0,0,1,1,2,2,3,3,4,4,5,5,10,10,12,12,14,14,16,16,17,17,19,19],"right_children":[2,4,6,8,10,12,-1,-1,-1,-1,14,-1,16,-1,18,-1,20,22,-1,24,-1,-1,-1,-1,-1],"split_conditions":[3.7336453E4,1E0,8.935223E4,1.1097014E4,1.1879E7,1E0,3.1195534E-2,-1.1303311E-2,1.36188E-2,-2.627255E-2,1.39232E7,1.4898251E-2,1.6300333E7,9.669093E-4,2.8429232E4,-8.535341E-3,2.86825E7,1.4050236E4,-1.4242056E-3,5.763941E4,-3.241951E-3,-9.768972E-3,-1.712874E-2,6.0230284E-3,1.3279629E-2],"split_indices":[2,1,2,2,3,1,0,0,0,0,3,0,3,0,2,0,3,2,0,2,0,0,0,0,0],"split_type":[0,0,0,0,0,0,0,0,0,0,0,0,0,0,0,0,0,0,0,0,0,0,0,0,0],"sum_hessian":[1.78E2,9.8E1,8E1,3.2E1,6.6E1,6.9E1,1.1E1,1.7E1,1.5E1,1.6E1,5E1,1.9E1,5E1,1E1,4E1,1E1,4E1,2.6E1,1.4E1,2.7E1,1.3E1,1E1,1.6E1,1.4E1,1.3E1],"tree_param":{"num_deleted":"0","num_feature":"6","num_nodes":"25","size_leaf_vector":"1"}},{"base_weights":[-8.443267E-3,-4.7900684E-2,1.9646345E-1,-9.0244E-2,2.120616E-2,1.0569942E-2,3.1887483E-2,2.3253744E-3,-1.2018912E-1,-8.185611E-3,1.3684541E-2,-1.555235E-1,-6.28951E-2,3.4927685E-2,-6.166795E-3,-8.025584E-3,-1.7653663E-1,-3.200495E-3,-1.0772488E-2,-3.8533811E-3,9.539984E-3,-2.44965E-2,-1.1682434E-2],"categories":[],"categories_nodes":[],"categories_segments":[],"categories_sizes":[],"default_left":[0,0,0,0,0,0,0,0,0,0,0,0,0,0,0,0,0,0,0,0,0,0,0],"id":25,"left_children":[1,3,5,7,9,-1,-1,-1,11,13,-1,15,17,19,-1,-1,21,-1,-1,-1,-1,-1,-1],"loss_changes":[1.3515357E0,4.1158357E-1,2.6627994E-1,2.9848206E-1,1.8465763E-1,0E0,0E0,0E0,1.2990534E-1,1.03609115E-1,0E0,5.2259564E-2,3.5326622E-2,1.147355E-1,0E0,0E0,1.02134645E-1,0E0,0E0,0E0,0E0,0E0,0E0],"parents":[2147483647,0,0,1,1,2,2,3,3,4,4,8,8,9,9,11,11,12,12,13,13,16,16],"right_children":[2,4,6,8,10,-1,-1,-1,12,14,-1,16,18,20,-1,-1,22,-1,-1,-1,-1,-1,-1],"split_conditions":[6.8070336E4,3.5650312E4,8.8210266E4,3.2521965E3,2.014E3,1.0569942E-2,3.1887483E-2,2.3253744E-3,2.407764E4,5.2072066E4,1.3684541E-2,2.002E3,3.0095143E4,2.005E3,-6.166795E-3,-8.025584E-3,1E0,-3.200495E-3,-1.0772488E-2,-3.8533811E-3,9.539984E-3,-2.44965E-2,-1.1682434E-2],"split_indices":[5,5,5,5,0,0,0,0,5,5,0,0,5,0,0,0,1,0,0,0,0,0,0],"split_type":[0,0,0,0,0,0,0,0,0,0,0,0,0,0,0,0,0,0,0,0,0,0,0],"sum_hessian":[1.65E2,1.39E2,2.6E1,8.6E1,5.3E1,1.6E1,1E1,1.8E1,6.8E1,4.3E1,1E1,4.1E1,2.7E1,2.4E1,1.9E1,1E1,3.1E1,1.7E1,1E1,1.1E1,1.3E1,1.3E1,1.8E1],"tree_param":{"num_deleted":"0","num_feature":"6","num_nodes":"23","size_leaf_vector":"1"}},{"base_weights":[2.213555E-3,-2.3216859E-2,1.4688616E-1,1.299254E-2,-4.677987E-2,7.907926E-3,1.9133927E-2,-1.09486766E-1,2.8238683E-3,-2.3981487E-2,-7.310798E-2,-1.6924938E-2,3.282358E-2,-1.0459831E-1,1.4875043E-3,1.4919611E-2,8.051482E-3,-3.9061313E-3,-1.6068337E-2,-3.88602E-2,7.0930205E-2,-1.1253745E-3,-8.803069E-3,1.662006E-2,-4.8110285E-3],"categories":[],"categories_nodes":[],"categories_segments":[],"categories_sizes":[],"default_left":[0,0,0,0,0,0,0,0,0,0,0,0,0,0,0,0,0,0,0,0,0,0,0,0,0],"id":26,"left_children":[1,3,5,-1,7,-1,-1,9,11,-1,13,-1,15,17,-1,-1,19,-1,-1,21,23,-1,-1,-1,-1],"loss_changes":[6.398918E-1,5.401348E-1,6.323892E-2,0E0,4.0156314E-1,0E0,0E0,2.5271475E-1,3.823922E-1,0E0,1.2900421E-1,0E0,1.804146E-1,1.1869544E-1,0E0,0E0,1.5909295E-1,0E0,0E0,4.1089434E-2,2.6883978E-1,0E0,0E0,0E0,0E0],"parents":[2147483647,0,0,1,1,2,2,4,4,7,7,8,8,10,10,12,12,13,13,16,16,19,19,20,20],"right_children":[2,4,6,-1,8,-1,-1,10,12,-1,14,-1,16,18,-1,-1,20,-1,-1,22,24,-1,-1,-1,-1],"split_conditions":[2.9257695E10,3.1188872E3,7.20694E4,1.299254E-2,2.8429232E4,7.907926E-3,1.9133927E-2,1.572096E9,2.001E3,-2.3981487E-2,2.014E3,-1.6924938E-2,1.0147712E10,5.1918536E9,1.4875043E-3,1.4919611E-2,1.9570973E10,-3.9061313E-3,-1.6068337E-2,1.6616448E10,2.477526E10,-1.1253745E-3,-8.803069E-3,1.662006E-2,-4.8110285E-3],"split_indices":[4,2,2,0,2,0,0,4,0,0,0,0,4,4,0,0,4,0,0,4,4,0,0,0,0],"split_type":[0,0,0,0,0,0,0,0,0,0,0,0,0,0,0,0,0,0,0,0,0,0,0,0,0],"sum_hessian":[1.72E2,1.47E2,2.5E1,1.9E1,1.28E2,1.1E1,1.4E1,5.6E1,7.2E1,1.1E1,4.5E1,1E1,6.2E1,3.3E1,1.2E1,1E1,5.2E1,1.6E1,1.7E1,3E1,2.2E1,2E1,1E1,1.2E1,1E1],"tree_param":{"num_deleted":"0","num_feature":"6","num_nodes":"25","size_leaf_vector":"1"}},{"base_weights":[-9.454278E-3,-5.906547E-2,5.4271024E-2,1.8606525E-2,-9.589062E-2,-7.692647E-3,7.6959066E-2,-6.333063E-3,1.3433057E-2,1.4017362E-4,-1.1676402E-1,4.372456E-2,1.8925704E-2,-2.7228115E-2,-7.703679E-2,8.899843E-2,1.35889305E-2,-1.0201069E-1,-1.8623343E-3,1.7588151E-3,1.5231795E-2,-7.1455995E-3,6.55887E-2,-4.462404E-3,-1.2606716E-1,4.144599E-3,8.37688E-3,-7.608986E-3,-1.613741E-2],"categories":[],"categories_nodes":[],"categories_segments":[],"categories_sizes":[],"default_left":[0,0,0,0,0,0,0,0,0,0,0,0,0,0,0,0,0,0,0,0,0,0,0,0,0,0,0,0,0],"id":27,"left_children":[1,3,5,7,9,-1,11,-1,-1,-1,13,15,-1,-1,17,19,21,23,-1,-1,-1,-1,25,-1,27,-1,-1,-1,-1],"loss_changes":[5.6278896E-1,2.878125E-1,2.380961E-1,3.2141653E-1,1.3825959E-1,0E0,2.4178007E-1,0E0,0E0,0E0,3.2500702E-1,7.110151E-2,0E0,0E0,6.5205574E-2,9.227593E-2,1.5062314E-1,3.8551003E-2,0E0,0E0,0E0,0E0,5.7453737E-3,0E0,2.6541084E-2,0E0,0E0,0E0,0E0],"parents":[2147483647,0,0,1,1,2,2,3,3,4,4,6,6,10,10,11,11,14,14,15,15,16,16,17,17,22,22,24,24],"right_children":[2,4,6,8,10,-1,12,-1,-1,-1,14,16,-1,-1,18,20,22,24,-1,-1,-1,-1,26,-1,28,-1,-1,-1,-1],"split_conditions":[3.7336453E4,1E0,2.004E3,2.009E3,1.997E3,-7.692647E-3,7.8409555E4,-6.333063E-3,1.3433057E-2,1.4017362E-4,3.131384E3,5.2072066E4,1.8925704E-2,-2.7228115E-2,2.82358E4,2.01E3,5.8484586E4,1.0551019E4,-1.8623343E-3,1.7588151E-3,1.5231795E-2,-7.1455995E-3,6.7945336E4,-4.462404E-3,2.007E3,4.144599E-3,8.37688E-3,-7.608986E-3,-1.613741E-2],"split_indices":[2,1,0,0,0,0,2,0,0,0,2,2,0,0,2,0,2,2,0,0,0,0,2,0,0,0,0,0,0],"split_type":[0,0,0,0,0,0,0,0,0,0,0,0,0,0,0,0,0,0,0,0,0,0,0,0,0,0,0,0,0],"sum_hessian":[1.76E2,9.9E1,7.7E1,3.2E1,6.7E1,1.1E1,6.6E1,1.9E1,1.3E1,1.2E1,5.5E1,5.2E1,1.4E1,1E1,4.5E1,2E1,3.2E1,3.1E1,1.4E1,1E1,1E1,1.2E1,2E1,1E1,2.1E1,1E1,1E1,1E1,1.1E1],"tree_param":{"num_deleted":"0","num_feature":"6","num_nodes":"29","size_leaf_vector":"1"}},{"base_weights":[-2.6951088E-3,-3.4007452E-2,1.422087E-1,-8.120875E-2,-6.8192678E-3,7.744774E-2,2.5880253E-2,-1.6092279E-3,-1.3181423E-1,1.167656E-2,-2.2732375E-2,3.3706867E-3,1.1108957E-2,-1.5194091E-2,1.6253527E-2,-1.9342719E-1,-2.2146038E-3,-1.0837275E-2,-2.8326851E-3,-2.288602E-2,-1.4040989E-2,1.3643231E-2,-5.9291604E-3,-4.285626E-3,5.761267E-3,6.0364045E-3,-2.784765E-3],"categories":[],"categories_nodes":[],"categories_segments":[],"categories_sizes":[],"default_left":[0,0,0,0,0,0,0,0,0,0,0,0,0,0,0,0,0,0,0,0,0,0,0,0,0,0,0],"id":28,"left_children":[1,3,5,7,9,11,-1,13,15,-1,17,-1,-1,-1,-1,19,-1,-1,21,-1,-1,23,-1,25,-1,-1,-1],"loss_changes":[8.1700885E-1,1.8937717E-1,2.2157961E-1,2.173092E-1,1.8948318E-1,2.862902E-2,0E0,5.675703E-1,2.1869665E-1,0E0,1.4455146E-1,0E0,0E0,0E0,0E0,7.3156357E-3,0E0,0E0,6.59238E-2,0E0,0E0,4.3604605E-2,0E0,6.261208E-2,0E0,0E0,0E0],"parents":[2147483647,0,0,1,1,2,2,3,3,4,4,5,5,7,7,8,8,10,10,15,15,18,18,21,21,23,23],"right_children":[2,4,6,8,10,12,-1,14,16,-1,18,-1,-1,-1,-1,20,-1,-1,22,-1,-1,24,-1,26,-1,-1,-1],"split_conditions":[2.662277E10,1.832981E4,8.8210266E4,3.2521965E3,5.5953055E9,6.1884805E4,2.5880253E-2,1.3771472E3,3.295296E9,1.167656E-2,7.76399E9,3.3706867E-3,1.1108957E-2,-1.5194091E-2,1.6253527E-2,9.8376E8,-2.2146038E-3,-1.0837275E-2,2.122619E10,-2.288602E-2,-1.4040989E-2,4.96143E4,-5.9291604E-3,2.9948832E4,5.761267E-3,6.0364045E-3,-2.784765E-3],"split_indices":[4,2,5,2,4,2,0,2,4,0,4,0,0,0,0,4,0,0,4,0,0,5,0,2,0,0,0],"split_type":[0,0,0,0,0,0,0,0,0,0,0,0,0,0,0,0,0,0,0,0,0,0,0,0,0,0,0],"sum_hessian":[1.78E2,1.47E2,3.1E1,5.3E1,9.4E1,2.1E1,1E1,2.1E1,3.2E1,1E1,8.4E1,1E1,1.1E1,1.1E1,1E1,2E1,1.2E1,1.5E1,6.9E1,1E1,1E1,5.4E1,1.5E1,3.9E1,1.5E1,1E1,2.9E1],"tree_param":{"num_deleted":"0","num_feature":"6","num_nodes":"27","size_leaf_vector":"1"}},{"base_weights":[-1.2635087E-2,-1.1411685E-1,2.2143142E-2,-2.0200557E-1,2.184401E-3,6.9846995E-2,-2.514168E-2,-3.315538E-2,-9.353647E-3,1.7212968E-2,4.594786E-2,-1.6610714E-2,1.2770412E-2,2.1041883E-2,1.3233799E-2,-1.4614785E-2,8.9730555E-3,5.4328464E-2,-2.7188696E-3,-8.963257E-3,4.0607914E-2,-1.1886776E-3,1.2153427E-2,9.607621E-3,-1.3622012E-3],"categories":[],"categories_nodes":[],"categories_segments":[],"categories_sizes":[],"default_left":[0,0,0,0,0,0,0,0,0,0,0,0,0,0,0,0,0,0,0,0,0,0,0,0,0],"id":29,"left_children":[1,3,5,7,-1,9,11,-1,-1,-1,13,-1,15,17,-1,19,-1,21,-1,-1,23,-1,-1,-1,-1],"loss_changes":[5.6722385E-1,4.94339E-1,2.7243626E-1,3.2028723E-1,0E0,1.3875905E-1,3.2812324E-1,0E0,0E0,0E0,1.0479689E-1,0E0,1.0458225E-1,6.569436E-2,0E0,1.5691912E-1,0E0,1.0824581E-1,0E0,0E0,6.748566E-2,0E0,0E0,0E0,0E0],"parents":[2147483647,0,0,1,1,2,2,3,3,5,5,6,6,10,10,12,12,13,13,15,15,17,17,20,20],"right_children":[2,4,6,8,-1,10,12,-1,-1,-1,14,-1,16,18,-1,20,-1,22,-1,-1,24,-1,-1,-1,-1],"split_conditions":[1.3333E7,2.009E3,2.009E3,6.485E6,2.184401E-3,4.253074E9,9.692445E9,-3.315538E-2,-9.353647E-3,1.7212968E-2,1.8868711E10,-1.6610714E-2,4.9518876E7,2.1147E7,1.3233799E-2,1.9111647E10,8.9730555E-3,9.146557E9,-2.7188696E-3,-8.963257E-3,3.2443E7,-1.1886776E-3,1.2153427E-2,9.607621E-3,-1.3622012E-3],"split_indices":[3,0,0,3,0,4,4,0,0,0,4,0,3,3,0,4,0,4,0,0,3,0,0,0,0],"split_type":[0,0,0,0,0,0,0,0,0,0,0,0,0,0,0,0,0,0,0,0,0,0,0,0,0],"sum_hessian":[1.59E2,4E1,1.19E2,2.4E1,1.6E1,5.9E1,6E1,1E1,1.4E1,1E1,4.9E1,1.2E1,4.8E1,3.9E1,1E1,3.6E1,1.2E1,2.3E1,1.6E1,1.5E1,2.1E1,1.2E1,1.1E1,1E1,1.1E1],"tree_param":{"num_deleted":"0","num_feature":"6","num_nodes":"25","size_leaf_vector":"1"}},{"base_weights":[3.4514687E-4,-2.9098729E-2,4.4926655E-2,3.878918E-2,-6.031914E-2,-4.6879775E-3,7.0817135E-2,1.5825285E-2,-2.5226178E-2,-2.0624576E-2,-1.9023536E-2,4.4843614E-2,1.3709028E-2,-6.255839E-3,1.4208221E-3,7.0428536E-3,-4.145761E-2,1.905198E-2,1.1345243E-2,-8.5766055E-2,1.7484572E-2,3.5674248E-2,-1.4413438E-3,-3.7671314E-3,-1.1184113E-2,6.460227E-3,-3.1222636E-3,5.0203493E-3,1.7901892E-3],"categories":[],"categories_nodes":[],"categories_segments":[],"categories_sizes":[],"default_left":[0,0,0,0,0,0,0,0,0,0,0,0,0,0,0,0,0,0,0,0,0,0,0,0,0,0,0,0,0],"id":30,"left_children":[1,3,5,7,9,-1,11,-1,13,-1,15,17,-1,-1,-1,-1,19,21,-1,23,25,27,-1,-1,-1,-1,-1,-1,-1],"loss_changes":[2.3102148E-1,2.2700551E-1,1.6970372E-1,2.6400745E-1,4.359838E-1,0E0,8.852646E-2,0E0,3.4748834E-2,0E0,1.1931269E-1,7.038937E-2,0E0,0E0,0E0,0E0,1.2424649E-1,1.7758597E-2,0E0,2.9646799E-2,5.0211456E-2,4.5238584E-3,0E0,0E0,0E0,0E0,0E0,0E0,0E0],"parents":[2147483647,0,0,1,1,2,2,3,3,4,4,6,6,8,8,10,10,11,11,16,16,17,17,19,19,20,20,21,21],"right_children":[2,4,6,8,10,-1,12,-1,14,-1,16,18,-1,-1,-1,-1,20,22,-1,24,26,28,-1,-1,-1,-1,-1,-1,-1],"split_conditions":[4.1274207E4,1E0,1.8968334E7,2.205E6,1.1879E7,-4.6879775E-3,7.8409555E4,1.5825285E-2,1.369982E4,-2.0624576E-2,5.33328E3,3.83522E7,1.3709028E-2,-6.255839E-3,1.4208221E-3,7.0428536E-3,2.8984143E4,2.735275E7,1.1345243E-2,1.5384833E7,1.9907666E7,5.655998E4,-1.4413438E-3,-3.7671314E-3,-1.1184113E-2,6.460227E-3,-3.1222636E-3,5.0203493E-3,1.7901892E-3],"split_indices":[5,1,3,3,3,0,5,0,5,0,5,3,0,0,0,0,5,3,0,3,3,5,0,0,0,0,0,0,0],"split_type":[0,0,0,0,0,0,0,0,0,0,0,0,0,0,0,0,0,0,0,0,0,0,0,0,0,0,0,0,0],"sum_hessian":[1.74E2,1.05E2,6.9E1,3.3E1,7.2E1,1.5E1,5.4E1,1.1E1,2.2E1,1.5E1,5.7E1,4E1,1.4E1,1.1E1,1.1E1,1.1E1,4.6E1,3E1,1E1,2.6E1,2E1,2E1,1E1,1E1,1.6E1,1E1,1E1,1E1,1E1],"tree_param":{"num_deleted":"0","num_feature":"6","num_nodes":"29","size_leaf_vector":"1"}},{"base_weights":[-3.5212166E-3,-3.0210165E-2,9.068511E-2,2.2174746E-2,-5.194897E-2,3.626529E-3,1.1440714E-1,1.8870326E-2,-4.7498245E-2,-1.8685591E-1,-3.7148476E-3,1.5698878E-2,4.2069545E-3,-1.3337836E-2,1.2393956E-3,-2.6702723E-2,-1.1560655E-2,1.7052446E-2,-9.768065E-3,3.3412494E-2,-1.9148309E-3,-2.5809878E-3,5.334906E-2,-1.9298298E-3,8.8862E-3],"categories":[],"categories_nodes":[],"categories_segments":[],"categories_sizes":[],"default_left":[0,0,0,0,0,0,0,0,0,0,0,0,0,0,0,0,0,0,0,0,0,0,0,0,0],"id":31,"left_children":[1,3,5,7,9,-1,11,-1,13,15,17,-1,-1,-1,-1,-1,-1,19,-1,21,-1,-1,23,-1,-1],"loss_changes":[4.326794E-1,1.537492E-1,4.4907033E-2,4.7306463E-1,6.1748207E-1,0E0,7.3482156E-2,0E0,1.50816E-1,1.1193377E-1,1.4021617E-1,0E0,0E0,0E0,0E0,0E0,0E0,3.558231E-2,0E0,4.9785256E-2,0E0,0E0,8.169246E-2,0E0,0E0],"parents":[2147483647,0,0,1,1,2,2,3,3,4,4,6,6,8,8,9,9,10,10,17,17,19,19,22,22],"right_children":[2,4,6,8,10,-1,12,-1,14,16,18,-1,-1,-1,-1,-1,-1,20,-1,22,-1,-1,24,-1,-1],"split_conditions":[2.3246383E10,1E0,2.8816857E10,2.205E6,1.3333E7,3.626529E-3,4.6516332E7,1.8870326E-2,2.1319142E7,9.138E6,3.10504E7,1.5698878E-2,4.2069545E-3,-1.3337836E-2,1.2393956E-3,-2.6702723E-2,-1.1560655E-2,2.1147E7,-9.768065E-3,1.4989E7,-1.9148309E-3,-2.5809878E-3,7.149704E9,-1.9298298E-3,8.8862E-3],"split_indices":[4,1,4,3,3,0,3,0,3,3,3,0,0,0,0,0,0,3,0,3,0,0,4,0,0],"split_type":[0,0,0,0,0,0,0,0,0,0,0,0,0,0,0,0,0,0,0,0,0,0,0,0,0],"sum_hessian":[1.7E2,1.33E2,3.7E1,3.9E1,9.4E1,1.2E1,2.5E1,1.1E1,2.8E1,2.4E1,7E1,1.5E1,1E1,1.1E1,1.7E1,1E1,1.4E1,5.8E1,1.2E1,4E1,1.8E1,1E1,3E1,1E1,2E1],"tree_param":{"num_deleted":"0","num_feature":"6","num_nodes":"25","size_leaf_vector":"1"}},{"base_weights":[1.1909874E-4,-1.1654575E-2,1.4682802E-2,-2.4063388E-2,8.895279E-3,-6.597694E-2,-1.9827518E-3,3.9583415E-2,-1.3766997E-1,-7.842611E-3,1.3141649E-2,-1.1549972E-2,1.9106805E-2,-2.0373918E-2,-9.444839E-3,1.4464322E-2,-1.4125464E-2,-3.2451738E-2,7.4101463E-3,-1.0395418E-3,-5.338903E-3],"categories":[],"categories_nodes":[],"categories_segments":[],"categories_sizes":[],"default_left":[0,0,0,0,0,0,0,0,0,0,0,0,0,0,0,0,0,0,0,0,0],"id":32,"left_children":[1,3,-1,5,-1,7,9,11,13,-1,15,-1,-1,-1,-1,-1,17,19,-1,-1,-1],"loss_changes":[3.0226195E-1,2.0438422E-1,0E0,1.3406348E-1,0E0,3.8384646E-1,1.1202201E-1,5.1541525E-1,6.642568E-2,0E0,2.9248226E-1,0E0,0E0,0E0,0E0,0E0,1.1235194E-1,2.5767583E-2,0E0,0E0,0E0],"parents":[2147483647,0,0,1,1,3,3,5,5,6,6,7,7,8,8,10,10,16,16,17,17],"right_children":[2,4,-1,6,-1,8,10,12,14,-1,16,-1,-1,-1,-1,-1,18,20,-1,-1,-1],"split_conditions":[8.464527E4,4.0274E7,1.4682802E-2,1.8323332E4,8.895279E-3,3.1188872E3,2E3,1.312161E3,1.0512667E7,-7.842611E-3,1.6129E7,-1.1549972E-2,1.9106805E-2,-2.0373918E-2,-9.444839E-3,1.4464322E-2,6.4055367E4,2.4651E7,7.4101463E-3,-1.0395418E-3,-5.338903E-3],"split_indices":[2,3,0,2,0,2,0,2,3,0,3,0,0,0,0,0,2,3,0,0,0],"split_type":[0,0,0,0,0,0,0,0,0,0,0,0,0,0,0,0,0,0,0,0,0],"sum_hessian":[1.73E2,1.61E2,1.2E1,1.44E2,1.7E1,4.9E1,9.5E1,2E1,2.9E1,1.5E1,8E1,1E1,1E1,1E1,1.9E1,1.3E1,6.7E1,5.6E1,1.1E1,2.8E1,2.8E1],"tree_param":{"num_deleted":"0","num_feature":"6","num_nodes":"21","size_leaf_vector":"1"}},{"base_weights":[-1.2943476E-3,-4.6295412E-2,1.8251032E-2,-1.1631218E-1,7.593788E-2,6.509342E-2,-2.3424862E-2,-2.3994435E-2,-5.2316267E-2,1.7221116E-2,-2.7238834E-3,3.5127454E-2,1.5464723E-2,-7.258129E-2,3.568043E-2,-2.9975509E-3,-7.0632696E-3,-4.3593356E-3,6.650874E-2,-1.2086001E-2,-3.9382875E-2,1.2838989E-2,-1.2296136E-2,1.0518273E-2,-4.0555987E-4,4.7430242E-4,-9.196285E-3,-3.189324E-3,6.6925545E-4],"categories":[],"categories_nodes":[],"categories_segments":[],"categories_sizes":[],"default_left":[0,0,0,0,0,0,0,0,0,0,0,0,0,0,0,0,0,0,0,0,0,0,0,0,0,0,0,0,0],"id":33,"left_children":[1,3,5,7,9,11,13,-1,15,-1,-1,17,-1,19,21,-1,-1,-1,23,-1,25,-1,27,-1,-1,-1,-1,-1,-1],"loss_changes":[1.6268452E-1,4.8810187E-1,2.5335842E-1,2.7227727E-1,2.1328717E-1,1.5826517E-1,2.0306268E-1,0E0,8.112818E-3,0E0,0E0,1.19006276E-1,0E0,5.6145713E-2,1.439109E-1,0E0,0E0,0E0,9.3212724E-2,0E0,5.6119516E-2,0E0,8.40016E-3,0E0,0E0,0E0,0E0,0E0,0E0],"parents":[2147483647,0,0,1,1,2,2,3,3,4,4,5,5,6,6,8,8,11,11,13,13,14,14,18,18,20,20,22,22],"right_children":[2,4,6,8,10,12,14,-1,16,-1,-1,18,-1,20,22,-1,-1,-1,24,-1,26,-1,28,-1,-1,-1,-1,-1,-1],"split_conditions":[1.5126E7,2.008E3,2.009E3,8.198E6,2.016E3,2.498975E7,2.014E3,-2.3994435E-2,1.997E3,1.7221116E-2,-2.7238834E-3,1E0,1.5464723E-2,2.74655E7,2.016E3,-2.9975509E-3,-7.0632696E-3,-4.3593356E-3,2.006E3,-1.2086001E-2,2.012E3,1.2838989E-2,1E0,1.0518273E-2,-4.0555987E-4,4.7430242E-4,-9.196285E-3,-3.189324E-3,6.6925545E-4],"split_indices":[3,0,0,3,0,3,0,0,0,0,0,1,0,3,0,0,0,0,0,0,0,0,1,0,0,0,0,0,0],"split_type":[0,0,0,0,0,0,0,0,0,0,0,0,0,0,0,0,0,0,0,0,0,0,0,0,0,0,0,0,0],"sum_hessian":[1.83E2,5.5E1,1.28E2,3.5E1,2E1,6E1,6.8E1,1.1E1,2.4E1,1E1,1E1,4.6E1,1.4E1,3.7E1,3.1E1,1.2E1,1.2E1,1.3E1,3.3E1,1.4E1,2.3E1,1E1,2.1E1,2.1E1,1.2E1,1.3E1,1E1,1E1,1.1E1],"tree_param":{"num_deleted":"0","num_feature":"6","num_nodes":"29","size_leaf_vector":"1"}},{"base_weights":[1.0558991E-3,-6.362381E-2,2.5114581E-2,-2.0558275E-2,-2.0856118E-2,5.658311E-2,-6.1017554E-2,1.8727258E-2,-9.841856E-3,2.999572E-2,2.3797957E-2,-1.3975485E-2,5.023161E-4,1.58049E-2,-7.82269E-3,1.7526718E-2,9.2816935E-4,-2.7206657E-2,1.4152496E-2,-8.292655E-3,-8.445678E-3,-4.508273E-3,2.983578E-4],"categories":[],"categories_nodes":[],"categories_segments":[],"categories_sizes":[],"default_left":[0,0,0,0,0,0,0,0,0,0,0,0,0,0,0,0,0,0,0,0,0,0,0],"id":34,"left_children":[1,3,5,-1,7,9,11,13,-1,15,-1,-1,-1,-1,-1,-1,17,19,-1,-1,21,-1,-1],"loss_changes":[2.75473E-1,2.8713262E-1,3.531008E-1,0E0,1.18510075E-1,4.5103315E-1,1.8269736E-1,3.6356702E-1,0E0,3.545429E-1,0E0,0E0,0E0,0E0,0E0,0E0,2.8470272E-1,6.2021207E-2,0E0,0E0,1.9396283E-2,0E0,0E0],"parents":[2147483647,0,0,1,1,2,2,4,4,5,5,6,6,7,7,9,9,16,16,17,17,20,20],"right_children":[2,4,6,-1,8,10,12,14,-1,16,-1,-1,-1,-1,-1,-1,18,20,-1,-1,22,-1,-1],"split_conditions":[2.004E3,9.559E6,2.015E3,-2.0558275E-2,2.002E3,7.0818E4,3.465584E4,2.112778E4,-9.841856E-3,2.205E6,2.3797957E-2,-1.3975485E-2,5.023161E-4,1.58049E-2,-7.82269E-3,1.7526718E-2,3.9709332E7,2.8429232E4,1.4152496E-2,-8.292655E-3,2.007E3,-4.508273E-3,2.983578E-4],"split_indices":[0,3,0,0,0,2,2,2,0,3,0,0,0,0,0,0,3,2,0,0,0,0,0],"split_type":[0,0,0,0,0,0,0,0,0,0,0,0,0,0,0,0,0,0,0,0,0,0,0],"sum_hessian":[1.75E2,4.7E1,1.28E2,1E1,3.7E1,9.4E1,3.4E1,2.5E1,1.2E1,8.3E1,1.1E1,1.5E1,1.9E1,1E1,1.5E1,1.3E1,7E1,5.9E1,1.1E1,1.4E1,4.5E1,1E1,3.5E1],"tree_param":{"num_deleted":"0","num_feature":"6","num_nodes":"23","size_leaf_vector":"1"}},{"base_weights":[-4.1337847E-3,-1.5560994E-2,1.3370731E-2,2.3251364E-2,-8.850793E-3,7.0682666E-3,1.7186215E-2,1.67005E-2,-5.794014E-3,4.1859522E-3,1.2272532E-2,1.8196525E-2,-7.922251E-3,-1.139091E-3,3.4206894E-3],"categories":[],"categories_nodes":[],"categories_segments":[],"categories_sizes":[],"default_left":[0,0,0,0,0,0,0,0,0,0,0,0,0,0,0],"id":35,"left_children":[1,-1,3,5,-1,7,-1,9,-1,11,-1,13,-1,-1,-1],"loss_changes":[4.60793E-1,0E0,1.5909152E-1,3.426978E-1,0E0,8.237052E-2,0E0,1.507475E-1,0E0,1.21807404E-1,0E0,4.2549454E-2,0E0,0E0,0E0],"parents":[2147483647,0,0,2,2,3,3,5,5,7,7,9,9,11,11],"right_children":[2,-1,4,6,-1,8,-1,10,-1,12,-1,14,-1,-1,-1],"split_conditions":[6.485E6,-1.5560994E-2,5.0860284E7,3.86E7,-8.850793E-3,3.2443E7,1.7186215E-2,2.72525E7,-5.794014E-3,2.4191666E7,1.2272532E-2,1.5126E7,-7.922251E-3,-1.139091E-3,3.4206894E-3],"split_indices":[3,0,3,3,0,3,0,3,0,3,0,3,0,0,0],"split_type":[0,0,0,0,0,0,0,0,0,0,0,0,0,0,0],"sum_hessian":[1.72E2,1.7E1,1.55E2,1.42E2,1.3E1,1.29E2,1.3E1,1.13E2,1.6E1,1.02E2,1.1E1,8.8E1,1.4E1,3.1E1,5.7E1],"tree_param":{"num_deleted":"0","num_feature":"6","num_nodes":"15","size_leaf_vector":"1"}},{"base_weights":[-8.55645E-3,-4.2371865E-2,2.7746601E-2,1.5444382E-2,-5.9937377E-2,-8.022577E-3,4.3212593E-2,-1.1804401E-2,1.3652171E-2,-1.5494552E-2,-3.3418454E-2,1.254779E-2,2.8625963E-2,7.0690117E-3,-5.7587493E-2,5.0906166E-3,9.477926E-3,-9.851238E-3,-3.0200068E-2,1.8514525E-2,-4.2966027E-3,2.5964307E-3,-6.112681E-3,-1.2121782E-2,8.845637E-3,2.6747792E-3,-6.6176862E-3],"categories":[],"categories_nodes":[],"categories_segments":[],"categories_sizes":[],"default_left":[0,0,0,0,0,0,0,0,0,0,0,0,0,0,0,0,0,0,0,0,0,0,0,0,0,0,0],"id":36,"left_children":[1,3,5,7,9,-1,11,-1,-1,-1,13,-1,15,-1,17,19,-1,-1,21,23,-1,-1,-1,25,-1,-1,-1],"loss_changes":[2.1600617E-1,9.334272E-2,1.4540824E-1,3.7168878E-1,1.7118791E-1,0E0,8.640608E-2,0E0,0E0,0E0,1.4497828E-1,0E0,1.0071868E-1,0E0,4.8582956E-2,3.2405782E-2,0E0,0E0,5.1959567E-2,8.463988E-2,0E0,0E0,0E0,6.060083E-2,0E0,0E0,0E0],"parents":[2147483647,0,0,1,1,2,2,3,3,4,4,6,6,10,10,12,12,14,14,15,15,18,18,19,19,23,23],"right_children":[2,4,6,8,10,-1,12,-1,-1,-1,14,-1,16,-1,18,20,-1,-1,22,24,-1,-1,-1,26,-1,-1,-1],"split_conditions":[3.5326312E4,3.1188872E3,1.4523E7,1.3771472E3,7.899984E3,-8.022577E-3,1.79996E7,-1.1804401E-2,1.3652171E-2,-1.5494552E-2,1.4050236E4,1.254779E-2,3.86E7,7.0690117E-3,2.3942104E4,3.2443E7,9.477926E-3,-9.851238E-3,2.82358E4,2.4969E7,-4.2966027E-3,2.5964307E-3,-6.112681E-3,6.210475E4,8.845637E-3,2.6747792E-3,-6.6176862E-3],"split_indices":[2,2,3,2,2,0,3,0,0,0,2,0,3,0,2,3,0,0,2,3,0,0,0,2,0,0,0],"split_type":[0,0,0,0,0,0,0,0,0,0,0,0,0,0,0,0,0,0,0,0,0,0,0,0,0,0,0],"sum_hessian":[1.74E2,9E1,8.4E1,2.1E1,6.9E1,1E1,7.4E1,1E1,1.1E1,1.4E1,5.5E1,1E1,6.4E1,1E1,4.5E1,4.8E1,1.6E1,1.7E1,2.8E1,3.8E1,1E1,1E1,1.8E1,2.7E1,1.1E1,1.6E1,1.1E1],"tree_param":{"num_deleted":"0","num_feature":"6","num_nodes":"27","size_leaf_vector":"1"}},{"base_weights":[1.430405E-2,4.4486737E-3,1.5108733E-2,6.9434464E-2,-1.0181821E-2,5.770661E-5,1.3395222E-2,-4.3550525E-2,2.2855641E-2,-1.1514576E-2,-2.9464118E-2,-5.3107883E-3,3.640136E-2,-5.746756E-3,-1.0528802E-2,5.96866E-2,1.6839512E-2,2.1030419E-2,-5.726836E-3,2.2810632E-3,1.1125068E-2,-1.0798844E-2,7.5610513E-3,-7.165365E-3,6.8577765E-3,4.144361E-3,-7.630752E-3],"categories":[],"categories_nodes":[],"categories_segments":[],"categories_sizes":[],"default_left":[0,0,0,0,0,0,0,0,0,0,0,0,0,0,0,0,0,0,0,0,0,0,0,0,0,0,0],"id":37,"left_children":[1,3,-1,5,7,-1,-1,9,11,-1,13,-1,15,17,-1,19,21,23,-1,-1,-1,25,-1,-1,-1,-1,-1],"loss_changes":[2.4062894E-1,1.6043705E-1,0E0,1.3764097E-1,1.5312898E-1,0E0,0E0,6.619519E-2,7.396184E-2,0E0,1.0549714E-1,0E0,2.6325054E-2,6.466612E-2,0E0,4.8802137E-2,5.6043856E-2,1.4152719E-1,0E0,0E0,0E0,8.529846E-2,0E0,0E0,0E0,0E0,0E0],"parents":[2147483647,0,0,1,1,3,3,4,4,7,7,8,8,10,10,12,12,13,13,15,15,16,16,17,17,21,21],"right_children":[2,4,-1,6,8,-1,-1,10,12,-1,14,-1,16,18,-1,20,22,24,-1,-1,-1,26,-1,-1,-1,-1,-1],"split_conditions":[8.935223E4,7.71426E8,1.5108733E-2,2.504285E3,3.624277E4,5.770661E-5,1.3395222E-2,7.899984E3,1.1569584E10,-1.1514576E-2,1.2638934E10,-5.3107883E-3,2.122619E10,2.6594988E4,-1.0528802E-2,5.088907E4,3.2686592E10,3.74535E9,-5.726836E-3,2.2810632E-3,1.1125068E-2,6.621346E4,7.5610513E-3,-7.165365E-3,6.8577765E-3,4.144361E-3,-7.630752E-3],"split_indices":[2,4,0,2,2,0,0,2,4,0,4,0,4,2,0,2,4,4,0,0,0,2,0,0,0,0,0],"split_type":[0,0,0,0,0,0,0,0,0,0,0,0,0,0,0,0,0,0,0,0,0,0,0,0,0,0,0],"sum_hessian":[1.78E2,1.67E2,1.1E1,3E1,1.37E2,1.5E1,1.5E1,6.8E1,6.9E1,1E1,5.8E1,1E1,5.9E1,4.5E1,1.3E1,2.6E1,3.3E1,3E1,1.5E1,1.6E1,1E1,2.3E1,1E1,1E1,2E1,1.3E1,1E1],"tree_param":{"num_deleted":"0","num_feature":"6","num_nodes":"27","size_leaf_vector":"1"}},{"base_weights":[-5.802551E-3,-1.623352E-2,1.372376E-2,-5.491175E-2,3.2531715E-3,1.3162122E-2,-9.73445E-2,1.0236535E-2,-7.6817004E-3,-1.0736522E-2,1.2254868E-2,-1.2814294E-1,-3.020213E-3,-1.3344076E-2,1.2643685E-2,-6.4171734E-3,-1.8143555E-2,-3.8597237E-2,3.634539E-2,2.0168016E-4,-6.127264E-3,1.0883711E-2,9.762877E-3,-1.2266653E-3,7.89693E-3],"categories":[],"categories_nodes":[],"categories_segments":[],"categories_sizes":[],"default_left":[0,0,0,0,0,0,0,0,0,0,0,0,0,0,0,0,0,0,0,0,0,0,0,0,0],"id":38,"left_children":[1,3,-1,5,7,9,11,-1,13,-1,-1,15,-1,-1,17,-1,-1,19,21,-1,-1,-1,23,-1,-1],"loss_changes":[2.6333612E-1,1.23787194E-1,0E0,1.6015214E-1,1.20002024E-1,3.0320704E-1,6.643775E-2,0E0,2.572973E-1,0E0,0E0,6.676838E-2,0E0,0E0,1.0706408E-1,0E0,0E0,2.5909878E-2,1.14558145E-1,0E0,0E0,0E0,6.957501E-2,0E0,0E0],"parents":[2147483647,0,0,1,1,3,3,4,4,5,5,6,6,8,8,11,11,14,14,17,17,18,18,22,22],"right_children":[2,4,-1,6,8,10,12,-1,14,-1,-1,16,-1,-1,18,-1,-1,20,22,-1,-1,-1,24,-1,-1],"split_conditions":[8.935223E4,1.832981E4,1.372376E-2,3.1188872E3,2.2643543E4,1.3771472E3,2.014E3,1.0236535E-2,1.4523E7,-1.0736522E-2,1.2254868E-2,1.4989E7,-3.020213E-3,-1.3344076E-2,3.7336453E4,-6.4171734E-3,-1.8143555E-2,2.8219113E4,2.007E3,2.0168016E-4,-6.127264E-3,1.0883711E-2,3.947075E7,-1.2266653E-3,7.89693E-3],"split_indices":[2,2,0,2,2,2,0,0,3,0,0,3,0,0,2,0,0,2,0,0,0,0,3,0,0],"split_type":[0,0,0,0,0,0,0,0,0,0,0,0,0,0,0,0,0,0,0,0,0,0,0,0,0],"sum_hessian":[1.74E2,1.63E2,1.1E1,5.4E1,1.09E2,2.1E1,3.3E1,1E1,9.9E1,1E1,1.1E1,2.2E1,1.1E1,1.3E1,8.6E1,1.1E1,1.1E1,2.7E1,5.9E1,1E1,1.7E1,1.5E1,4.4E1,3.4E1,1E1],"tree_param":{"num_deleted":"0","num_feature":"6","num_nodes":"25","size_leaf_vector":"1"}},{"base_weights":[-7.3881424E-3,-1.1034734E-2,5.6091645E-3,1.5022852E-2,-9.296281E-3,-2.2642924E-3,1.7817767E-2,1.1659318E-2,-2.4879888E-2,-2.368609E-3,8.096615E-3,-5.3048592E-2,1.4662885E-2,2.2613714E-2,-2.6591184E-2,-9.101833E-3,-9.010967E-4,5.70799E-3,-3.2943212E-3,-2.1556532E-3,6.552764E-3,-8.603833E-3,6.71732E-4],"categories":[],"categories_nodes":[],"categories_segments":[],"categories_sizes":[],"default_left":[0,0,0,0,0,0,0,0,0,0,0,0,0,0,0,0,0,0,0,0,0,0,0],"id":39,"left_children":[1,-1,3,5,-1,7,-1,9,11,13,-1,15,17,19,21,-1,-1,-1,-1,-1,-1,-1,-1],"loss_changes":[2.3881717E-1,0E0,1.4893678E-1,4.1219372E-1,0E0,4.2170554E-2,0E0,8.088695E-2,5.7585143E-2,4.296086E-2,0E0,4.9342744E-2,4.6305183E-2,6.775571E-2,7.186139E-2,0E0,0E0,0E0,0E0,0E0,0E0,0E0,0E0],"parents":[2147483647,0,0,2,2,3,3,5,5,7,7,8,8,9,9,11,11,12,12,13,13,14,14],"right_children":[2,-1,4,6,-1,8,-1,10,12,14,-1,16,18,20,22,-1,-1,-1,-1,-1,-1,-1,-1],"split_conditions":[6.485E6,-1.1034734E-2,6.1333332E7,3.86E7,-9.296281E-3,2.009E3,1.7817767E-2,2.498975E7,2.014E3,2.002E3,8.096615E-3,2.74655E7,1.7728E7,1.3333E7,2.004E3,-9.101833E-3,-9.010967E-4,5.70799E-3,-3.2943212E-3,-2.1556532E-3,6.552764E-3,-8.603833E-3,6.71732E-4],"split_indices":[3,0,3,3,0,0,0,3,0,0,0,3,3,3,0,0,0,0,0,0,0,0,0],"split_type":[0,0,0,0,0,0,0,0,0,0,0,0,0,0,0,0,0,0,0,0,0,0,0],"sum_hessian":[1.77E2,1.9E1,1.58E2,1.45E2,1.3E1,1.32E2,1.3E1,8.2E1,5E1,6.9E1,1.3E1,2.9E1,2.1E1,3.4E1,3.5E1,1.5E1,1.4E1,1.1E1,1E1,1.7E1,1.7E1,1.2E1,2.3E1],"tree_param":{"num_deleted":"0","num_feature":"6","num_nodes":"23","size_leaf_vector":"1"}},{"base_weights":[7.127451E-3,6.630762E-2,-1.9563021E-2,9.8328255E-2,-5.3958627E-3,-6.621841E-2,5.488746E-3,1.192727E-2,2.2976933E-2,-1.00840256E-1,1.0228149E-3,2.8674383E-2,-3.1336576E-2,7.1721324E-3,-8.156601E-3,9.717593E-4,-1.7945273E-2,-5.91683E-3,5.2715287E-2,-4.3862807E-3,-7.8481465E-4,1.8226359E-2,1.202911E-2,4.9019936E-3,-9.6764974E-4],"categories":[],"categories_nodes":[],"categories_segments":[],"categories_sizes":[],"default_left":[0,0,0,0,0,0,0,0,0,0,0,0,0,0,0,0,0,0,0,0,0,0,0,0,0],"id":40,"left_children":[1,3,5,7,-1,9,11,13,-1,15,-1,17,19,-1,-1,-1,-1,-1,21,-1,-1,23,-1,-1,-1],"loss_changes":[2.7455875E-1,2.1325974E-1,1.4061946E-1,4.85595E-1,0E0,1.12193674E-1,6.8350226E-2,1.5678927E-1,0E0,2.537894E-1,0E0,1.06598124E-1,8.776624E-3,0E0,0E0,0E0,0E0,0E0,8.870163E-2,0E0,0E0,2.367352E-2,0E0,0E0,0E0],"parents":[2147483647,0,0,1,1,2,2,3,3,5,5,6,6,7,7,9,9,11,11,12,12,18,18,21,21],"right_children":[2,4,6,8,-1,10,12,14,-1,16,-1,18,20,-1,-1,-1,-1,-1,22,-1,-1,24,-1,-1,-1],"split_conditions":[1E0,2.015E3,2.5939162E4,2.009E3,-5.3958627E-3,2.014E3,2.01E3,2.006E3,2.2976933E-2,2E3,1.0228149E-3,1.997E3,2.014E3,7.1721324E-3,-8.156601E-3,9.717593E-4,-1.7945273E-2,-5.91683E-3,5.1823473E4,-4.3862807E-3,-7.8481465E-4,2.006E3,1.202911E-2,4.9019936E-3,-9.6764974E-4],"split_indices":[1,0,5,0,0,0,0,0,0,0,0,0,0,0,0,0,0,0,5,0,0,0,0,0,0],"split_type":[0,0,0,0,0,0,0,0,0,0,0,0,0,0,0,0,0,0,0,0,0,0,0,0,0],"sum_hessian":[1.72E2,5.3E1,1.19E2,4.2E1,1.1E1,4.1E1,7.8E1,2.6E1,1.6E1,2.8E1,1.3E1,4.8E1,3E1,1.6E1,1E1,1.2E1,1.6E1,1E1,3.8E1,1.9E1,1.1E1,2.6E1,1.2E1,1.2E1,1.4E1],"tree_param":{"num_deleted":"0","num_feature":"6","num_nodes":"25","size_leaf_vector":"1"}},{"base_weights":[9.299373E-3,5.4099273E-2,-1.1730413E-2,9.629994E-2,-7.329598E-3,-2.2448871E-2,1.0041821E-2,-1.5567533E-2,2.1956277E-1,-5.2986924E-2,1.3873033E-3,-4.9452716E-3,2.8974293E-3,2.6925558E-2,1.4990972E-2,7.499562E-3,-8.685745E-2,1.6472045E-2,-7.416252E-3,-1.6547484E-2,-5.5135824E-2,6.253964E-3,-7.837086E-4,1.046509E-3,-9.366609E-3,1.0848788E-2,-2.6672839E-3,3.194099E-3,-8.2849397E-4],"categories":[],"categories_nodes":[],"categories_segments":[],"categories_sizes":[],"default_left":[0,0,0,0,0,0,0,0,0,0,0,0,0,0,0,0,0,0,0,0,0,0,0,0,0,0,0,0,0],"id":41,"left_children":[1,3,5,7,-1,9,-1,11,13,15,17,-1,-1,-1,-1,-1,19,21,-1,-1,23,-1,25,-1,-1,27,-1,-1,-1],"loss_changes":[1.7116055E-1,3.1887597E-1,1.5130974E-1,6.1013854E-1,0E0,8.305528E-2,0E0,3.7656248E-2,3.2322288E-2,2.2325574E-1,7.529884E-2,0E0,0E0,0E0,0E0,0E0,9.063128E-2,4.3770216E-2,0E0,0E0,7.6808855E-2,0E0,1.2636731E-2,0E0,0E0,1.1968231E-2,0E0,0E0,0E0],"parents":[2147483647,0,0,1,1,2,2,3,3,5,5,7,7,8,8,9,9,10,10,16,16,17,17,20,20,22,22,25,25],"right_children":[2,4,6,8,-1,10,-1,12,14,16,18,-1,-1,-1,-1,-1,20,22,-1,-1,24,-1,26,-1,-1,28,-1,-1,-1],"split_conditions":[1E0,2.015E3,8.341703E4,2.008E3,-7.329598E-3,2.8429232E4,1.0041821E-2,1.369982E4,2.3548854E4,1.998E3,6.210475E4,-4.9452716E-3,2.8974293E-3,2.6925558E-2,1.4990972E-2,7.499562E-3,3.131384E3,2.006E3,-7.416252E-3,-1.6547484E-2,1.4050236E4,6.253964E-3,2E0,1.046509E-3,-9.366609E-3,2.011E3,-2.6672839E-3,3.194099E-3,-8.2849397E-4],"split_indices":[1,0,2,0,0,2,0,2,2,0,2,0,0,0,0,0,2,0,0,0,2,0,1,0,0,0,0,0,0],"split_type":[0,0,0,0,0,0,0,0,0,0,0,0,0,0,0,0,0,0,0,0,0,0,0,0,0,0,0,0,0],"sum_hessian":[1.8E2,5.7E1,1.23E2,4.3E1,1.4E1,1.13E2,1E1,2.3E1,2E1,4.9E1,6.4E1,1.3E1,1E1,1E1,1E1,1E1,3.9E1,5.4E1,1E1,1E1,2.9E1,1.4E1,4E1,1.1E1,1.8E1,2.8E1,1.2E1,1.3E1,1.5E1],"tree_param":{"num_deleted":"0","num_feature":"6","num_nodes":"29","size_leaf_vector":"1"}},{"base_weights":[-6.3847187E-6,-8.194938E-3,1.1395152E-2,4.0509894E-2,-1.5097024E-2,-7.675819E-3,1.5409526E-2,-1.1068867E-2,-3.3957865E-3,8.237537E-3,-1.1101417E-2,-1.0746456E-2,-1.5380611E-3,9.318869E-3,-1.1738611E-2,-6.118878E-3,-4.1371033E-5],"categories":[],"categories_nodes":[],"categories_segments":[],"categories_sizes":[],"default_left":[0,0,0,0,0,0,0,0,0,0,0,0,0,0,0,0,0],"id":42,"left_children":[1,3,-1,5,7,-1,-1,-1,9,-1,11,-1,13,-1,15,-1,-1],"loss_changes":[1.670346E-1,5.675112E-2,0E0,2.9154676E-1,1.6404957E-1,0E0,0E0,0E0,8.8156044E-2,0E0,1.1226442E-1,0E0,1.09315574E-1,0E0,5.7096545E-2,0E0,0E0],"parents":[2147483647,0,0,1,1,3,3,4,4,8,8,10,10,12,12,14,14],"right_children":[2,4,-1,6,8,-1,-1,-1,10,-1,12,-1,14,-1,16,-1,-1],"split_conditions":[8.935223E4,3.1188872E3,1.1395152E-2,1.3771472E3,7.899984E3,-7.675819E-3,1.5409526E-2,-1.1068867E-2,1.232841E4,8.237537E-3,1.832981E4,-1.0746456E-2,5.77314E9,9.318869E-3,2.8429232E4,-6.118878E-3,-4.1371033E-5],"split_indices":[2,2,0,2,2,0,0,0,2,0,2,0,4,0,2,0,0],"split_type":[0,0,0,0,0,0,0,0,0,0,0,0,0,0,0,0,0],"sum_hessian":[1.77E2,1.66E2,1.1E1,2E1,1.46E2,1E1,1E1,1.5E1,1.31E2,1E1,1.21E2,1E1,1.11E2,1E1,1.01E2,1.8E1,8.3E1],"tree_param":{"num_deleted":"0","num_feature":"6","num_nodes":"17","size_leaf_vector":"1"}},{"base_weights":[-7.891281E-3,-8.434311E-2,1.3161626E-2,-1.5900197E-2,-4.5272436E-2,2.4985332E-2,-9.672551E-3,2.9202374E-3,-9.829901E-3,8.420286E-3,1.7214881E-2,-2.2488134E-3,1.1143605E-2,1.0248183E-2,-1.4102301E-2,-6.504044E-2,1.197556E-2,-4.102279E-4,-9.135693E-3,3.6731933E-3,-1.1676777E-3],"categories":[],"categories_nodes":[],"categories_segments":[],"categories_sizes":[],"default_left":[0,0,0,0,0,0,0,0,0,0,0,0,0,0,0,0,0,0,0,0,0],"id":43,"left_children":[1,3,5,-1,7,9,-1,-1,-1,11,-1,13,-1,-1,15,17,19,-1,-1,-1,-1],"loss_changes":[2.9082605E-1,1.0656348E-1,1.8691353E-1,0E0,1.0949746E-1,3.1302276E-1,0E0,0E0,0E0,1.2884358E-1,0E0,1.3427751E-1,0E0,0E0,1.296296E-1,5.2546635E-2,3.848941E-2,0E0,0E0,0E0,0E0],"parents":[2147483647,0,0,1,1,2,2,4,4,5,5,9,9,11,11,14,14,15,15,16,16],"right_children":[2,4,6,-1,8,10,-1,-1,-1,12,-1,14,-1,-1,16,18,20,-1,-1,-1,-1],"split_conditions":[1.2833333E7,2.504285E3,6.1333332E7,-1.5900197E-2,9.08961E3,8.464527E4,-9.672551E-3,2.9202374E-3,-9.829901E-3,3.947075E7,1.7214881E-2,1.4255333E7,1.1143605E-2,1.0248183E-2,2.8429232E4,8.86982E3,2.1147E7,-4.102279E-4,-9.135693E-3,3.6731933E-3,-1.1676777E-3],"split_indices":[3,2,3,0,2,2,0,0,0,3,0,3,0,0,2,2,3,0,0,0,0],"split_type":[0,0,0,0,0,0,0,0,0,0,0,0,0,0,0,0,0,0,0,0,0],"sum_hessian":[1.79E2,3.8E1,1.41E2,1.2E1,2.6E1,1.28E2,1.3E1,1.1E1,1.5E1,1.16E2,1.2E1,1.06E2,1E1,1E1,9.6E1,3.2E1,6.4E1,1E1,2.2E1,3.1E1,3.3E1],"tree_param":{"num_deleted":"0","num_feature":"6","num_nodes":"21","size_leaf_vector":"1"}},{"base_weights":[-1.6253571E-3,7.6398477E-3,-1.1482092E-2,-4.8349733E-3,1.7592244E-2,8.3475495E-3,-1.8384008E-2,-7.6313734E-2,-2.4576338E-3,-1.4038088E-2,-2.6600831E-3,1.1243972E-2,-1.6021218E-2,-8.791942E-3,-3.2387674E-3,-6.2292046E-3,8.098459E-4],"categories":[],"categories_nodes":[],"categories_segments":[],"categories_sizes":[],"default_left":[0,0,0,0,0,0,0,0,0,0,0,0,0,0,0,0,0],"id":44,"left_children":[1,3,-1,5,-1,-1,7,9,11,-1,-1,-1,13,-1,15,-1,-1],"loss_changes":[1.8021858E-1,3.346385E-1,0E0,1.7981632E-1,0E0,0E0,1.1975181E-1,8.544475E-2,1.6231868E-1,0E0,0E0,0E0,8.518552E-2,0E0,5.40645E-2,0E0,0E0],"parents":[2147483647,0,0,1,1,3,3,6,6,7,7,8,8,12,12,14,14],"right_children":[2,4,-1,6,-1,-1,8,10,12,-1,-1,-1,14,-1,16,-1,-1],"split_conditions":[6.1333332E7,3.9709332E7,-1.1482092E-2,3.1188872E3,1.7592244E-2,8.3475495E-3,1.60913E4,1.0319E7,2.2643543E4,-1.4038088E-2,-2.6600831E-3,1.1243972E-2,2.8984143E4,-8.791942E-3,1.4523E7,-6.2292046E-3,8.098459E-4],"split_indices":[3,3,0,5,0,0,5,3,5,0,0,0,5,0,3,0,0],"split_type":[0,0,0,0,0,0,0,0,0,0,0,0,0,0,0,0,0],"sum_hessian":[1.7E2,1.58E2,1.2E1,1.48E2,1E1,1.9E1,1.29E2,2.7E1,1.02E2,1.1E1,1.6E1,1E1,9.2E1,1.3E1,7.9E1,1.2E1,6.7E1],"tree_param":{"num_deleted":"0","num_feature":"6","num_nodes":"17","size_leaf_vector":"1"}},{"base_weights":[-7.974988E-3,-9.9084355E-2,6.237786E-3,1.3698189E-3,-2.2336517E-2,-1.1283932E-2,1.757429E-2,1.03133125E-2,8.462684E-3,-6.218988E-3,5.4672558E-2,3.3330575E-3,-1.5266079E-2,-8.38723E-4,8.662182E-3,-9.595536E-3,5.4687555E-3,-2.5846804E-3,1.7603784E-3],"categories":[],"categories_nodes":[],"categories_segments":[],"categories_sizes":[],"default_left":[0,0,0,0,0,0,0,0,0,0,0,0,0,0,0,0,0,0,0],"id":45,"left_children":[1,3,5,-1,-1,-1,7,-1,9,11,13,-1,15,-1,-1,-1,17,-1,-1],"loss_changes":[2.2075394E-1,3.254439E-1,2.0177096E-1,0E0,0E0,0E0,1.05149865E-1,0E0,8.4466346E-2,3.4500636E-2,6.116791E-2,0E0,1.3102491E-1,0E0,0E0,0E0,2.439596E-2,0E0,0E0],"parents":[2147483647,0,0,1,1,2,2,6,6,8,8,9,9,10,10,12,12,16,16],"right_children":[2,4,6,-1,-1,-1,8,-1,10,12,14,-1,16,-1,-1,-1,18,-1,-1],"split_conditions":[3.9688E3,1.44E3,1.997E3,1.3698189E-3,-2.2336517E-2,-1.1283932E-2,1.370473E9,1.03133125E-2,2.5314912E10,4.42494E9,6.4525793E4,3.3330575E-3,2.407764E4,-8.38723E-4,8.662182E-3,-9.595536E-3,1.121244E10,-2.5846804E-3,1.7603784E-3],"split_indices":[5,5,0,0,0,0,4,0,4,4,5,0,5,0,0,0,4,0,0],"split_type":[0,0,0,0,0,0,0,0,0,0,0,0,0,0,0,0,0,0,0],"sum_hessian":[1.69E2,2.2E1,1.47E2,1.2E1,1E1,1.2E1,1.35E2,1.2E1,1.23E2,9.4E1,2.9E1,1.7E1,7.7E1,1E1,1.9E1,1.5E1,6.2E1,1.7E1,4.5E1],"tree_param":{"num_deleted":"0","num_feature":"6","num_nodes":"19","size_leaf_vector":"1"}},{"base_weights":[7.23469E-3,4.9671598E-2,-1.0912472E-2,8.141637E-2,-7.6051317E-3,-1.55558735E-2,4.823271E-3,1.6542718E-2,2.0998206E-2,2.0287246E-2,-4.9184293E-2,1.2211448E-2,-7.6866485E-3,-4.5201443E-3,3.2402847E-2,-6.7923698E-3,-2.6661484E-3,2.3114992E-2,8.349556E-3,3.8413208E-2,-5.408671E-3,6.0680993E-3,2.744043E-3],"categories":[],"categories_nodes":[],"categories_segments":[],"categories_sizes":[],"default_left":[0,0,0,0,0,0,0,0,0,0,0,0,0,0,0,0,0,0,0,0,0,0,0],"id":46,"left_children":[1,3,5,7,-1,-1,9,11,-1,13,15,-1,-1,-1,17,-1,-1,19,-1,21,-1,-1,-1],"loss_changes":[1.3377097E-1,2.1372618E-1,2.7843654E-1,3.4682834E-1,0E0,0E0,9.370187E-2,2.9536635E-1,0E0,7.0493475E-2,8.74066E-3,0E0,0E0,0E0,3.3186086E-2,0E0,0E0,7.766473E-2,0E0,1.1529222E-2,0E0,0E0,0E0],"parents":[2147483647,0,0,1,1,2,2,3,3,6,6,7,7,9,9,10,10,14,14,17,17,19,19],"right_children":[2,4,6,8,-1,-1,10,12,-1,14,16,-1,-1,-1,18,-1,-1,20,-1,22,-1,-1,-1],"split_conditions":[1E0,6.1333332E7,1.0319E7,2.498975E7,-7.6051317E-3,-1.55558735E-2,2.9764166E7,1.1635E7,2.0998206E-2,1.3333E7,3.6714E7,1.2211448E-2,-7.6866485E-3,-4.5201443E-3,2.60135E7,-6.7923698E-3,-2.6661484E-3,2.2297E7,8.349556E-3,7.248792E9,-5.408671E-3,6.0680993E-3,2.744043E-3],"split_indices":[1,3,3,3,0,0,3,3,0,3,3,0,0,0,3,0,0,3,0,4,0,0,0],"split_type":[0,0,0,0,0,0,0,0,0,0,0,0,0,0,0,0,0,0,0,0,0,0,0],"sum_hessian":[1.72E2,5.1E1,1.21E2,4.1E1,1E1,1.1E1,1.1E2,2.8E1,1.3E1,8.6E1,2.4E1,1.3E1,1.5E1,1.3E1,7.3E1,1.2E1,1.2E1,6.3E1,1E1,5.3E1,1E1,1.6E1,3.7E1],"tree_param":{"num_deleted":"0","num_feature":"6","num_nodes":"23","size_leaf_vector":"1"}},{"base_weights":[-6.4204987E-3,2.6648888E-2,-5.309834E-2,-1.115284E-2,4.518842E-2,-1.0792545E-1,-1.3977276E-2,-5.7156784E-3,1.06416225E-1,-1.7903162E-2,-2.9624263E-3,4.449537E-3,-3.616097E-2,-3.5818838E-2,2.2291686E-2,2.4388341E-2,5.2464385E-2,-9.221086E-3,4.092163E-4,-2.1556732E-3,-5.0714347E-3,5.5986694E-3,-1.5709987E-3,8.4097125E-4,1.277943E-2],"categories":[],"categories_nodes":[],"categories_segments":[],"categories_sizes":[],"default_left":[0,0,0,0,0,0,0,0,0,0,0,0,0,0,0,0,0,0,0,0,0,0,0,0,0],"id":47,"left_children":[1,3,5,-1,7,9,11,13,15,-1,-1,-1,17,19,21,-1,23,-1,-1,-1,-1,-1,-1,-1,-1],"loss_changes":[2.6074108E-1,2.5865227E-1,1.4863415E-1,0E0,2.748819E-1,1.5615952E-1,5.608884E-2,4.211086E-2,2.8386915E-1,0E0,0E0,0E0,7.0319034E-2,4.0053576E-3,3.4171678E-2,0E0,9.8484315E-2,0E0,0E0,0E0,0E0,0E0,0E0,0E0,0E0],"parents":[2147483647,0,0,1,1,2,2,4,4,5,5,6,6,7,7,8,8,12,12,13,13,14,14,16,16],"right_children":[2,4,6,-1,8,10,12,14,16,-1,-1,-1,18,20,22,-1,24,-1,-1,-1,-1,-1,-1,-1,-1],"split_conditions":[2.01E3,2.504285E3,3.225781E4,-1.115284E-2,2.005E3,2.016E3,5.191595E4,2.8378273E4,1.892069E4,-1.7903162E-2,-2.9624263E-3,4.449537E-3,6.1884805E4,2E3,4.2027617E4,2.4388341E-2,5.1823473E4,-9.221086E-3,4.092163E-4,-2.1556732E-3,-5.0714347E-3,5.5986694E-3,-1.5709987E-3,8.4097125E-4,1.277943E-2],"split_indices":[0,2,2,0,0,0,2,2,2,0,0,0,2,0,2,0,2,0,0,0,0,0,0,0,0],"split_type":[0,0,0,0,0,0,0,0,0,0,0,0,0,0,0,0,0,0,0,0,0,0,0,0,0],"sum_hessian":[1.67E2,9.8E1,6.9E1,1.1E1,8.7E1,2.8E1,4.1E1,4.8E1,3.9E1,1.4E1,1.4E1,1.1E1,3E1,2.3E1,2.5E1,1E1,2.9E1,1.2E1,1.8E1,1.3E1,1E1,1.3E1,1.2E1,1.9E1,1E1],"tree_param":{"num_deleted":"0","num_feature":"6","num_nodes":"25","size_leaf_vector":"1"}},{"base_weights":[6.444944E-3,-6.6464017E-3,8.323459E-2,6.075842E-3,-4.8162468E-2,1.2310416E-2,2.6461428E-3,-1.5777284E-2,8.40091E-2,-9.669858E-3,-8.889116E-3,-2.5267491E-2,1.5808873E-2,1.8827725E-2,7.074193E-4,6.982257E-3,-8.679271E-3,1.383959E-2,-2.879706E-3,-5.80901E-2,2.0533916E-2,-1.2713693E-3,-9.48443E-3,6.706527E-4,6.15002E-3],"categories":[],"categories_nodes":[],"categories_segments":[],"categories_sizes":[],"default_left":[0,0,0,0,0,0,0,0,0,0,0,0,0,0,0,0,0,0,0,0,0,0,0,0,0],"id":48,"left_children":[1,3,5,7,9,-1,-1,11,13,-1,15,-1,17,-1,-1,-1,-1,-1,19,21,23,-1,-1,-1,-1],"loss_changes":[1.7949302E-1,8.110379E-2,5.5594042E-2,2.0228949E-1,6.776276E-2,0E0,0E0,6.998842E-1,2.0723644E-1,0E0,1.3483046E-1,0E0,1.9054967E-1,0E0,0E0,0E0,0E0,0E0,9.5558114E-2,3.54852E-2,2.9043296E-2,0E0,0E0,0E0,0E0],"parents":[2147483647,0,0,1,1,2,2,3,3,4,4,7,7,8,8,10,10,12,12,18,18,19,19,20,20],"right_children":[2,4,6,8,10,-1,-1,12,14,-1,16,-1,18,-1,-1,-1,-1,-1,20,22,24,-1,-1,-1,-1],"split_conditions":[2.8131662E10,2.012E3,4.000559E10,2.009E3,2.016E3,1.2310416E-2,2.6461428E-3,6.485E6,1.8048E7,-9.669858E-3,1.7633E7,-2.5267491E-2,7.97919E8,1.8827725E-2,7.074193E-4,6.982257E-3,-8.679271E-3,1.383959E-2,1.5126E7,5.1918536E9,2.498975E7,-1.2713693E-3,-9.48443E-3,6.706527E-4,6.15002E-3],"split_indices":[4,0,4,0,0,0,0,3,3,0,3,0,4,0,0,0,0,0,3,4,3,0,0,0,0],"split_type":[0,0,0,0,0,0,0,0,0,0,0,0,0,0,0,0,0,0,0,0,0,0,0,0,0],"sum_hessian":[1.77E2,1.52E2,2.5E1,1.17E2,3.5E1,1.4E1,1.1E1,9.2E1,2.5E1,1.5E1,2E1,1E1,8.2E1,1E1,1.5E1,1E1,1E1,1E1,7.2E1,2.1E1,5.1E1,1E1,1.1E1,3.9E1,1.2E1],"tree_param":{"num_deleted":"0","num_feature":"6","num_nodes":"25","size_leaf_vector":"1"}},{"base_weights":[3.5804217E-3,4.1381303E-2,-1.5350361E-2,8.0800526E-2,-9.109481E-3,-1.039319E-2,-3.3932962E-3,-1.0981495E-2,1.9058777E-1,5.8471235E-3,-1.277058E-2,2.89644E-3,-3.7757952E-3,2.8926259E-2,7.458679E-3,-6.792687E-4,-5.3618383E-2,2.2360133E-2,-2.708684E-2,-2.003632E-3,-8.232605E-3,-1.8726172E-2,7.13345E-3,2.9204108E-4,-6.529072E-3,-4.187797E-3,4.0568225E-4],"categories":[],"categories_nodes":[],"categories_segments":[],"categories_sizes":[],"default_left":[0,0,0,0,0,0,0,0,0,0,0,0,0,0,0,0,0,0,0,0,0,0,0,0,0,0,0],"id":49,"left_children":[1,3,5,7,-1,-1,9,11,13,-1,15,-1,-1,-1,-1,17,19,21,23,-1,-1,25,-1,-1,-1,-1,-1],"loss_changes":[1.2658088E-1,3.1546474E-1,1.2462999E-1,4.6561176E-1,0E0,0E0,6.1659444E-2,2.8903484E-2,2.1879876E-1,0E0,4.5402706E-2,0E0,0E0,0E0,0E0,4.4411518E-2,1.85958E-2,7.981067E-2,3.9168052E-2,0E0,0E0,1.1774171E-2,0E0,0E0,0E0,0E0,0E0],"parents":[2147483647,0,0,1,1,2,2,3,3,6,6,7,7,8,8,10,10,15,15,16,16,17,17,18,18,21,21],"right_children":[2,4,6,8,-1,-1,10,12,14,-1,16,-1,-1,-1,-1,18,20,22,24,-1,-1,26,-1,-1,-1,-1,-1],"split_conditions":[1E0,2.015E3,5.13301E8,2.008E3,-9.109481E-3,-1.039319E-2,3.1665974E9,7.71426E8,4.253074E9,5.8471235E-3,2E0,2.89644E-3,-3.7757952E-3,2.8926259E-2,7.458679E-3,2.009E3,1.7014479E10,1.091904E10,2.448325E10,-2.003632E-3,-8.232605E-3,6.517515E9,7.13345E-3,2.9204108E-4,-6.529072E-3,-4.187797E-3,4.0568225E-4],"split_indices":[1,0,4,0,0,0,4,4,4,0,1,0,0,0,0,0,4,4,4,0,0,4,0,0,0,0,0],"split_type":[0,0,0,0,0,0,0,0,0,0,0,0,0,0,0,0,0,0,0,0,0,0,0,0,0,0,0],"sum_hessian":[1.75E2,5.8E1,1.17E2,4.5E1,1.3E1,1.3E1,1.04E2,2.5E1,2E1,1.3E1,9.1E1,1E1,1.5E1,1E1,1E1,7.1E1,2E1,3.8E1,3.3E1,1E1,1E1,2.1E1,1.7E1,1.9E1,1.4E1,1E1,1.1E1],"tree_param":{"num_deleted":"0","num_feature":"6","num_nodes":"27","size_leaf_vector":"1"}},{"base_weights":[7.729001E-4,7.103838E-2,-8.6305905E-3,-6.110176E-3,1.967205E-2,-1.206935E-2,3.1846138E-3,-6.714126E-3,5.017523E-2,-5.7436586E-3,1.7227278E-3,1.1232988E-2,-2.6519797E-3,8.630866E-3,-8.300584E-3,-6.282141E-3,1.3443185E-3,7.778905E-3,-1.7493526E-3],"categories":[],"categories_nodes":[],"categories_segments":[],"categories_sizes":[],"default_left":[0,0,0,0,0,0,0,0,0,0,0,0,0,0,0,0,0,0,0],"id":50,"left_children":[1,3,5,-1,-1,-1,7,9,11,-1,13,-1,-1,-1,15,-1,17,-1,-1],"loss_changes":[1.17564216E-1,3.6078063E-1,2.082596E-1,0E0,0E0,0E0,6.685303E-2,5.1023565E-2,1.2215279E-1,0E0,8.804302E-2,0E0,0E0,0E0,4.898832E-2,0E0,1.1656511E-1,0E0,0E0],"parents":[2147483647,0,0,1,1,2,2,6,6,7,7,8,8,10,10,14,14,16,16],"right_children":[2,4,6,-1,-1,-1,8,10,12,-1,14,-1,-1,-1,16,-1,18,-1,-1],"split_conditions":[3.1188872E3,1.3771472E3,7.899984E3,-6.110176E-3,1.967205E-2,-1.206935E-2,3.86E7,1.8323332E4,5.0860284E7,-5.7436586E-3,2.3942104E4,1.1232988E-2,-2.6519797E-3,8.630866E-3,1.4523E7,-6.282141E-3,1.7728E7,7.778905E-3,-1.7493526E-3],"split_indices":[2,2,2,0,0,0,3,2,3,0,2,0,0,0,3,0,3,0,0],"split_type":[0,0,0,0,0,0,0,0,0,0,0,0,0,0,0,0,0,0,0],"sum_hessian":[1.76E2,2E1,1.56E2,1E1,1E1,1.4E1,1.42E2,1.18E2,2.4E1,1.6E1,1.02E2,1.3E1,1.1E1,1E1,9.2E1,1.3E1,7.9E1,1.5E1,6.4E1],"tree_param":{"num_deleted":"0","num_feature":"6","num_nodes":"19","size_leaf_vector":"1"}},{"base_weights":[5.4556397E-3,5.488478E-2,-1.611395E-2,-4.4492516E-3,1.0174712E-1,-5.187992E-2,-3.109701E-3,2.6006505E-2,3.347881E-2,-1.3012529E-2,-1.1881347E-2,2.5913835E-2,-3.025448E-2,-5.1372615E-3,8.641334E-3,-2.7815986E-3,1.6416809E-4,-1.0388709E-2,7.181145E-3,-4.903332E-2,1.0367789E-3,3.4308636E-3,-4.046884E-3,-1.1644097E-2,-1.4663001E-2,1.254203E-3,-4.54814E-3],"categories":[],"categories_nodes":[],"categories_segments":[],"categories_sizes":[],"default_left":[0,0,0,0,0,0,0,0,0,0,0,0,0,0,0,0,0,0,0,0,0,0,0,0,0,0,0],"id":51,"left_children":[1,3,5,-1,7,9,11,-1,13,15,-1,17,19,-1,-1,-1,-1,21,-1,23,-1,-1,-1,-1,25,-1,-1],"loss_changes":[1.8959583E-1,2.5600785E-1,5.751225E-2,0E0,3.9119285E-1,8.430451E-2,7.326505E-2,0E0,1.2571165E-1,4.818189E-3,0E0,7.572504E-2,3.7124645E-2,0E0,0E0,0E0,0E0,3.634548E-2,0E0,7.4747756E-2,0E0,0E0,0E0,0E0,1.9853985E-2,0E0,0E0],"parents":[2147483647,0,0,1,1,2,2,4,4,5,5,6,6,8,8,9,9,11,11,12,12,17,17,19,19,24,24],"right_children":[2,4,6,-1,8,10,12,-1,14,16,-1,18,20,-1,-1,-1,-1,22,-1,24,-1,-1,-1,-1,26,-1,-1],"split_conditions":[1E0,1.1097014E4,1.46145E7,-4.4492516E-3,2.6594988E4,2.6520268E4,2.2719E7,2.6006505E-2,4.503925E4,1.0319E7,-1.1881347E-2,4.152368E4,2E0,-5.1372615E-3,8.641334E-3,-2.7815986E-3,1.6416809E-4,1.6088E7,7.181145E-3,2.950543E4,1.0367789E-3,3.4308636E-3,-4.046884E-3,-1.1644097E-2,5.957439E4,1.254203E-3,-4.54814E-3],"split_indices":[1,2,3,0,2,2,3,0,2,3,0,2,1,0,0,0,0,3,0,2,0,0,0,0,2,0,0],"split_type":[0,0,0,0,0,0,0,0,0,0,0,0,0,0,0,0,0,0,0,0,0,0,0,0,0,0,0],"sum_hessian":[1.76E2,5.3E1,1.23E2,1.7E1,3.6E1,3.2E1,9.1E1,1E1,2.6E1,2.1E1,1.1E1,4.4E1,4.7E1,1E1,1.6E1,1E1,1.1E1,2.5E1,1.9E1,3.2E1,1.5E1,1E1,1.5E1,1E1,2.2E1,1.2E1,1E1],"tree_param":{"num_deleted":"0","num_feature":"6","num_nodes":"27","size_leaf_vector":"1"}},{"base_weights":[8.033384E-3,-4.2420966E-3,7.040364E-2,9.261818E-3,-6.510267E-2,1.2685092E-3,1.2342862E-2,-7.6086435E-4,1.1046897E-2,-9.05212E-3,-2.5786073E-3,2.2340573E-2,-3.0918643E-2,-5.700559E-3,4.3683823E-2,-1.1405422E-2,-8.732056E-4,1.8541839E-2,4.5920177E-3,2.5805848E-2,-5.211191E-3,-1.2082098E-2,5.4604146E-3,1.4799373E-3,3.482726E-3],"categories":[],"categories_nodes":[],"categories_segments":[],"categories_sizes":[],"default_left":[0,0,0,0,0,0,0,0,0,0,0,0,0,0,0,0,0,0,0,0,0,0,0,0,0],"id":52,"left_children":[1,3,5,7,9,-1,-1,11,-1,-1,-1,13,15,-1,17,-1,19,-1,21,23,-1,-1,-1,-1,-1],"loss_changes":[1.3504864E-1,1.22237645E-1,8.7189525E-2,1.2383682E-1,2.4648815E-2,0E0,0E0,7.8719795E-2,0E0,0E0,0E0,1.1087453E-1,1.2229478E-1,0E0,2.817222E-1,0E0,5.19238E-2,0E0,2.637563E-1,1.9669253E-3,0E0,0E0,0E0,0E0,0E0],"parents":[2147483647,0,0,1,1,2,2,3,3,4,4,7,7,11,11,12,12,14,14,16,16,18,18,19,19],"right_children":[2,4,6,8,10,-1,-1,12,-1,-1,-1,14,16,-1,18,-1,20,-1,22,24,-1,-1,-1,-1,-1],"split_conditions":[2.808435E10,1.7028E10,7.20694E4,3.06712E7,2.2945333E10,1.2685092E-3,1.2342862E-2,1.62875E7,1.1046897E-2,-9.05212E-3,-2.5786073E-3,2.504285E3,1.822575E7,-5.700559E-3,5.896401E3,-1.1405422E-2,2.4191666E7,1.8541839E-2,1.60913E4,2.0770142E7,-5.211191E-3,-1.2082098E-2,5.4604146E-3,1.4799373E-3,3.482726E-3],"split_indices":[4,4,2,3,4,0,0,3,0,0,0,2,3,0,2,0,3,0,2,3,0,0,0,0,0],"split_type":[0,0,0,0,0,0,0,0,0,0,0,0,0,0,0,0,0,0,0,0,0,0,0,0,0],"sum_hessian":[1.75E2,1.47E2,2.8E1,1.21E2,2.6E1,1.4E1,1.4E1,1.11E2,1E1,1.5E1,1.1E1,6.3E1,4.8E1,1.3E1,5E1,1.2E1,3.6E1,1E1,4E1,2.4E1,1.2E1,1.1E1,2.9E1,1.2E1,1.2E1],"tree_param":{"num_deleted":"0","num_feature":"6","num_nodes":"25","size_leaf_vector":"1"}},{"base_weights":[-1.4455327E-2,-1.1544394E-2,-4.0048584E-3,6.3005276E-3,-1.2653618E-2,-2.792351E-2,4.144547E-2,-9.1121934E-2,-9.962047E-3,8.870068E-3,-3.080795E-3,-2.4673499E-3,-1.55514255E-2,-3.0397197E-2,3.335257E-3,2.0918353E-3,-5.2650273E-2,1.655482E-2,-2.5632926E-3,-2.8335105E-3,-7.881047E-3,1.6024564E-5,5.5291066E-3],"categories":[],"categories_nodes":[],"categories_segments":[],"categories_sizes":[],"default_left":[0,0,0,0,0,0,0,0,0,0,0,0,0,0,0,0,0,0,0,0,0,0,0],"id":53,"left_children":[1,-1,3,-1,5,7,9,11,13,-1,-1,-1,-1,15,17,-1,19,21,-1,-1,-1,-1,-1],"loss_changes":[1.8000735E-1,0E0,9.120775E-2,0E0,1.1598344E-1,1.2282209E-1,1.0857754E-1,9.885335E-2,2.3470368E-2,0E0,0E0,0E0,0E0,3.9926942E-2,2.0720527E-2,0E0,1.3033047E-2,2.3488518E-2,0E0,0E0,0E0,0E0,0E0],"parents":[2147483647,0,0,2,2,4,4,5,5,6,6,7,7,8,8,13,13,14,14,16,16,17,17],"right_children":[2,-1,4,-1,6,8,10,12,14,-1,-1,-1,-1,16,18,-1,20,22,-1,-1,-1,-1,-1],"split_conditions":[2.163328E3,-1.1544394E-2,7.71426E8,6.3005276E-3,2.5314912E10,1E0,4.000559E10,9.234792E9,2.8984143E4,8.870068E-3,-3.080795E-3,-2.4673499E-3,-1.55514255E-2,9.738556E3,2E0,2.0918353E-3,6.5965317E9,1.6786962E10,-2.5632926E-3,-2.8335105E-3,-7.881047E-3,1.6024564E-5,5.5291066E-3],"split_indices":[5,0,4,0,4,1,4,4,5,0,0,0,0,5,1,0,4,4,0,0,0,0,0],"split_type":[0,0,0,0,0,0,0,0,0,0,0,0,0,0,0,0,0,0,0,0,0,0,0],"sum_hessian":[1.7E2,1.5E1,1.55E2,1.7E1,1.38E2,1.08E2,3E1,2.3E1,8.5E1,1.8E1,1.2E1,1.2E1,1.1E1,3.3E1,5.2E1,1E1,2.3E1,3.6E1,1.6E1,1.3E1,1E1,2.6E1,1E1],"tree_param":{"num_deleted":"0","num_feature":"6","num_nodes":"23","size_leaf_vector":"1"}},{"base_weights":[1.0877694E-2,1.3866208E-2,-4.270012E-3,-1.1285348E-2,7.6587917E-3,4.0760405E-2,-6.101095E-3,1.2062884E-2,9.53598E-3,-3.851329E-2,4.6434393E-3,-4.6205977E-3,7.57906E-3,-2.7271523E-3,-5.136375E-3,5.9409975E-3,-4.154754E-3,9.925407E-3,-1.8116208E-2,-2.1154287E-3,2.925224E-3,-4.904359E-3,-3.783511E-4],"categories":[],"categories_nodes":[],"categories_segments":[],"categories_sizes":[],"default_left":[0,0,0,0,0,0,0,0,0,0,0,0,0,0,0,0,0,0,0,0,0,0,0],"id":54,"left_children":[1,-1,3,-1,5,7,9,-1,11,13,15,-1,-1,-1,-1,-1,17,19,21,-1,-1,-1,-1],"loss_changes":[3.4707165E-1,0E0,2.0940292E-1,0E0,6.674796E-2,1.0608505E-1,3.6397245E-2,0E0,1.2168316E-1,2.3552403E-3,3.8312715E-2,0E0,0E0,0E0,0E0,0E0,1.3743796E-2,2.164233E-2,1.5328992E-2,0E0,0E0,0E0,0E0],"parents":[2147483647,0,0,2,2,4,4,5,5,6,6,8,8,9,9,10,10,16,16,17,17,18,18],"right_children":[2,-1,4,-1,6,8,10,-1,12,14,16,-1,-1,-1,-1,-1,18,20,22,-1,-1,-1,-1],"split_conditions":[3.1188872E3,1.3866208E-2,7.899984E3,-1.1285348E-2,1E0,2.4449752E4,2.5598162E4,1.2062884E-2,6.4055367E4,1.903208E4,3.0095143E4,-4.6205977E-3,7.57906E-3,-2.7271523E-3,-5.136375E-3,5.9409975E-3,5.2072066E4,3.7336453E4,5.8484586E4,-2.1154287E-3,2.925224E-3,-4.904359E-3,-3.783511E-4],"split_indices":[2,0,2,0,1,2,2,0,2,2,5,0,0,0,0,0,2,2,2,0,0,0,0],"split_type":[0,0,0,0,0,0,0,0,0,0,0,0,0,0,0,0,0,0,0,0,0,0,0],"sum_hessian":[1.78E2,1.8E1,1.6E2,1.5E1,1.45E2,4.2E1,1.03E2,1.1E1,3.1E1,2.5E1,7.8E1,1.7E1,1.4E1,1.5E1,1E1,1E1,6.8E1,3.4E1,3.4E1,1.3E1,2.1E1,1E1,2.4E1],"tree_param":{"num_deleted":"0","num_feature":"6","num_nodes":"23","size_leaf_vector":"1"}},{"base_weights":[-4.329629E-3,-1.1589823E-2,4.9328607E-2,5.3278334E-3,-2.0068333E-2,1.0659036E-2,-1.7623175E-3,-1.2801717E-2,-6.5237596E-3,2.4805073E-2,-1.8452633E-2,-7.856058E-3,6.758265E-2,-8.628925E-2,6.0383384E-3,1.3429865E-2,-3.5602679E-3,-3.0952876E-3,-1.5390347E-2,4.802861E-3,-1.7605163E-3,-6.041515E-3,1.1178715E-3],"categories":[],"categories_nodes":[],"categories_segments":[],"categories_sizes":[],"default_left":[0,0,0,0,0,0,0,0,0,0,0,0,0,0,0,0,0,0,0,0,0,0,0],"id":55,"left_children":[1,3,5,-1,7,-1,-1,-1,9,11,13,-1,15,17,19,-1,-1,-1,-1,-1,21,-1,-1],"loss_changes":[7.186288E-2,9.0166815E-2,8.6221546E-2,0E0,2.0971026E-1,0E0,0E0,0E0,4.8667297E-2,1.6449168E-1,1.566912E-1,0E0,1.837683E-1,8.87744E-2,2.3007875E-2,0E0,0E0,0E0,0E0,0E0,4.6212114E-2,0E0,0E0],"parents":[2147483647,0,0,1,1,2,2,4,4,8,8,9,9,10,10,12,12,13,13,14,14,20,20],"right_children":[2,4,6,-1,8,-1,-1,-1,10,12,14,-1,16,18,20,-1,-1,-1,-1,-1,22,-1,-1],"split_conditions":[7.0818E4,1.997E3,3.95352E10,5.3278334E-3,2.504285E3,1.0659036E-2,-1.7623175E-3,-1.2801717E-2,4.253074E9,2.007E3,2.8429232E4,-7.856058E-3,2.015E3,2.009E3,1.0297E10,1.3429865E-2,-3.5602679E-3,-3.0952876E-3,-1.5390347E-2,4.802861E-3,2.007E3,-6.041515E-3,1.1178715E-3],"split_indices":[2,0,4,0,2,0,0,0,4,0,2,0,0,0,4,0,0,0,0,0,0,0,0],"split_type":[0,0,0,0,0,0,0,0,0,0,0,0,0,0,0,0,0,0,0,0,0,0,0],"sum_hessian":[1.82E2,1.61E2,2.1E1,1.8E1,1.43E2,1.1E1,1E1,1.5E1,1.28E2,3.5E1,9.3E1,1E1,2.5E1,2.4E1,6.9E1,1.5E1,1E1,1.4E1,1E1,1E1,5.9E1,1E1,4.9E1],"tree_param":{"num_deleted":"0","num_feature":"6","num_nodes":"23","size_leaf_vector":"1"}},{"base_weights":[1.3536167E-3,7.3863766E-3,-7.1567106E-3,-1.9876058E-4,1.163546E-2,4.217045E-2,-6.951832E-3,-3.669354E-3,1.2437022E-2,-5.956811E-2,6.9829305E-3,-1.3957671E-2,-2.9197102E-4,8.402667E-3,-1.56171E-3,-8.058869E-3,8.114495E-3,-7.72352E-3,2.3527239E-3],"categories":[],"categories_nodes":[],"categories_segments":[],"categories_sizes":[],"default_left":[0,0,0,0,0,0,0,0,0,0,0,0,0,0,0,0,0,0,0],"id":56,"left_children":[1,3,-1,5,-1,7,9,-1,-1,11,13,-1,-1,-1,15,-1,17,-1,-1],"loss_changes":[8.0592826E-2,1.397082E-1,0E0,4.5786608E-2,0E0,1.4718081E-1,1.01596914E-1,0E0,0E0,1.3103087E-1,7.254544E-2,0E0,0E0,0E0,7.712206E-2,0E0,1.202097E-1,0E0,0E0],"parents":[2147483647,0,0,1,1,3,3,5,5,6,6,9,9,10,10,14,14,16,16],"right_children":[2,4,-1,6,-1,8,10,-1,-1,12,14,-1,-1,-1,16,-1,18,-1,-1],"split_conditions":[6.1333332E7,3.947075E7,-7.1567106E-3,3.1188872E3,1.163546E-2,1.3831472E3,1.60913E4,-3.669354E-3,1.2437022E-2,1E0,2.2643543E4,-1.3957671E-2,-2.9197102E-4,8.402667E-3,1.3333E7,-8.058869E-3,2.8984143E4,-7.72352E-3,2.3527239E-3],"split_indices":[3,3,0,5,0,5,5,0,0,1,5,0,0,0,3,0,5,0,0],"split_type":[0,0,0,0,0,0,0,0,0,0,0,0,0,0,0,0,0,0,0],"sum_hessian":[1.81E2,1.68E2,1.3E1,1.58E2,1E1,2.1E1,1.37E2,1.1E1,1E1,2.8E1,1.09E2,1.1E1,1.7E1,1E1,9.9E1,1E1,8.9E1,1.3E1,7.6E1],"tree_param":{"num_deleted":"0","num_feature":"6","num_nodes":"19","size_leaf_vector":"1"}},{"base_weights":[-1.3224185E-2,-1.1780759E-2,-1.0720993E-3,4.7358917E-3,-6.53243E-3,-6.667332E-3,1.0324811E-2,6.240324E-3,-1.4220298E-2,-2.1834739E-2,2.929519E-3,-1.10657355E-2,-9.749115E-3,1.3214452E-4,-6.1033047E-3],"categories":[],"categories_nodes":[],"categories_segments":[],"categories_sizes":[],"default_left":[0,0,0,0,0,0,0,0,0,0,0,0,0,0,0],"id":57,"left_children":[1,-1,3,5,-1,7,-1,-1,9,11,-1,-1,13,-1,-1],"loss_changes":[2.1974052E-1,0E0,5.852486E-2,1.6245176E-1,0E0,6.8706796E-2,0E0,0E0,3.973849E-2,1.0734233E-1,0E0,0E0,5.1177423E-2,0E0,0E0],"parents":[2147483647,0,0,2,2,3,3,5,5,8,8,9,9,12,12],"right_children":[2,-1,4,6,-1,8,-1,-1,10,12,-1,-1,14,-1,-1],"split_conditions":[6.485E6,-1.1780759E-2,6.1333332E7,3.86E7,-6.53243E-3,3.00996E3,1.0324811E-2,6.240324E-3,2.014E3,1.369982E4,2.929519E-3,-1.10657355E-2,2.011E3,1.3214452E-4,-6.1033047E-3],"split_indices":[3,0,3,3,0,5,0,0,0,5,0,0,0,0,0],"split_type":[0,0,0,0,0,0,0,0,0,0,0,0,0,0,0],"sum_hessian":[1.72E2,1.7E1,1.55E2,1.43E2,1.2E1,1.29E2,1.4E1,1.2E1,1.17E2,1E2,1.7E1,1.1E1,8.9E1,7.4E1,1.5E1],"tree_param":{"num_deleted":"0","num_feature":"6","num_nodes":"15","size_leaf_vector":"1"}},{"base_weights":[9.7038585E-4,1.1679134E-2,-1.0545799E-2,-3.651975E-2,6.0896035E-3,-1.5599166E-2,-1.1034643E-2,1.5789626E-2,-5.9294365E-3,-2.7889807E-2,3.7911155E-3,2.2048214E-3,1.0944784E-2,3.8882664E-3,-9.418952E-3,6.9822096E-3,-8.92943E-3,4.1447743E-3,-1.9280761E-3,-2.8939353E-2,4.714977E-3,-7.159054E-3,-8.614831E-4],"categories":[],"categories_nodes":[],"categories_segments":[],"categories_sizes":[],"default_left":[0,0,0,0,0,0,0,0,0,0,0,0,0,0,0,0,0,0,0,0,0,0,0],"id":58,"left_children":[1,-1,3,5,7,-1,9,11,-1,13,-1,15,-1,17,-1,-1,19,-1,-1,21,-1,-1,-1],"loss_changes":[2.3598316E-1,0E0,6.978842E-2,1.900982E-1,6.372461E-2,0E0,4.478177E-2,1.1045127E-1,0E0,8.464131E-2,0E0,5.8594286E-2,0E0,2.5165208E-2,0E0,0E0,7.65479E-2,0E0,0E0,4.2726506E-2,0E0,0E0,0E0],"parents":[2147483647,0,0,2,2,3,3,4,4,6,6,7,7,9,9,11,11,13,13,16,16,19,19],"right_children":[2,-1,4,6,8,-1,10,12,-1,14,-1,16,-1,18,-1,-1,20,-1,-1,22,-1,-1,-1],"split_conditions":[2.205E6,1.1679134E-2,1.8968334E7,1E0,6.1333332E7,-1.5599166E-2,1.6322667E7,4.0274E7,-5.9294365E-3,2.8219113E4,3.7911155E-3,2.0038E7,1.0944784E-2,1.0405E7,-9.418952E-3,6.9822096E-3,2E0,4.1447743E-3,-1.9280761E-3,2.968143E4,4.714977E-3,-7.159054E-3,-8.614831E-4],"split_indices":[3,0,3,1,3,0,3,3,0,5,0,3,0,3,0,0,1,0,0,5,0,0,0],"split_type":[0,0,0,0,0,0,0,0,0,0,0,0,0,0,0,0,0,0,0,0,0,0,0],"sum_hessian":[1.75E2,1.5E1,1.6E2,6.2E1,9.8E1,1E1,5.2E1,8.6E1,1.2E1,3.9E1,1.3E1,7.6E1,1E1,2.7E1,1.2E1,1E1,6.6E1,1E1,1.7E1,4.9E1,1.7E1,1.5E1,3.4E1],"tree_param":{"num_deleted":"0","num_feature":"6","num_nodes":"23","size_leaf_vector":"1"}},{"base_weights":[-7.7646766E-3,-1.4711121E-2,9.39804E-3,-4.85003E-2,2.0299337E-4,4.8980517E-3,-7.800739E-2,5.5737435E-3,-1.174208E-2,-1.7673763E-2,-3.1238124E-2,-4.853649E-2,3.4261803E-4,8.9574384E-4,-9.0518715E-3,-1.4534364E-6,-1.0146822E-2,3.240266E-2,-2.8351698E-2,2.0748782E-3,9.5626665E-3,-8.415141E-3,4.0302062E-3,-9.37055E-4,1.2480284E-3,5.336731E-3,-3.241902E-3],"categories":[],"categories_nodes":[],"categories_segments":[],"categories_sizes":[],"default_left":[0,0,0,0,0,0,0,0,0,0,0,0,0,0,0,0,0,0,0,0,0,0,0,0,0,0,0],"id":59,"left_children":[1,3,-1,5,7,-1,9,-1,11,-1,13,15,17,-1,-1,-1,-1,19,21,23,-1,-1,25,-1,-1,-1,-1],"loss_changes":[1.2153287E-1,8.0639556E-2,0E0,1.4476323E-1,7.495113E-2,0E0,1.6994563E-1,0E0,4.1369017E-2,0E0,6.5146856E-2,5.9070587E-2,6.623448E-2,0E0,0E0,0E0,0E0,6.4994685E-2,6.900138E-2,2.9752108E-3,0E0,0E0,4.6687596E-2,0E0,0E0,0E0,0E0],"parents":[2147483647,0,0,1,1,3,3,4,4,6,6,8,8,10,10,11,11,12,12,17,17,18,18,19,19,22,22],"right_children":[2,4,-1,6,8,-1,10,-1,12,-1,14,16,18,-1,-1,-1,-1,20,22,24,-1,-1,26,-1,-1,-1,-1],"split_conditions":[8.777362E4,1.832981E4,9.39804E-3,1.44E3,2.6594988E4,4.8980517E-3,4.34187E3,5.5737435E-3,3.4997883E4,-1.7673763E-2,1.15875E4,2.008E3,5.2072066E4,8.9574384E-4,-9.0518715E-3,-1.4534364E-6,-1.0146822E-2,4.7058926E4,6.1884805E4,2.007E3,9.5626665E-3,-8.415141E-3,1E0,-9.37055E-4,1.2480284E-3,5.336731E-3,-3.241902E-3],"split_indices":[2,2,0,2,2,0,2,0,2,0,2,0,2,0,0,0,0,2,2,0,0,0,1,0,0,0,0],"split_type":[0,0,0,0,0,0,0,0,0,0,0,0,0,0,0,0,0,0,0,0,0,0,0,0,0,0,0],"sum_hessian":[1.69E2,1.59E2,1E1,4.8E1,1.11E2,1.1E1,3.7E1,1.9E1,9.2E1,1.1E1,2.6E1,2.2E1,7E1,1.6E1,1E1,1.2E1,1E1,3.3E1,3.7E1,2.3E1,1E1,1.3E1,2.4E1,1.1E1,1.2E1,1E1,1.4E1],"tree_param":{"num_deleted":"0","num_feature":"6","num_nodes":"27","size_leaf_vector":"1"}},{"base_weights":[1.8005604E-3,-4.7257595E-2,2.0435888E-2,-1.4878055E-2,-9.248758E-3,7.5463235E-2,-2.0733511E-2,2.292428E-3,-7.538387E-3,1.8080747E-2,3.933978E-2,-9.284212E-3,-2.658879E-3,4.970937E-3,1.2949665E-2,5.345361E-2,-5.4941904E-2,-1.7873215E-3,2.3491362E-3,2.039968E-3,1.0268244E-2,-8.076722E-3,-2.992072E-4],"categories":[],"categories_nodes":[],"categories_segments":[],"categories_sizes":[],"default_left":[0,0,0,0,0,0,0,0,0,0,0,0,0,0,0,0,0,0,0,0,0,0,0],"id":60,"left_children":[1,3,5,7,-1,9,11,-1,-1,-1,13,-1,15,17,-1,19,21,-1,-1,-1,-1,-1,-1],"loss_changes":[1.5272541E-1,6.5992154E-2,2.756832E-1,6.577143E-2,0E0,1.9076768E-1,9.09867E-2,0E0,0E0,0E0,1.2329978E-1,0E0,1.7015949E-1,1.3112366E-2,0E0,4.3467075E-2,4.0006958E-2,0E0,0E0,0E0,0E0,0E0,0E0],"parents":[2147483647,0,0,1,1,2,2,3,3,5,5,6,6,10,10,12,12,13,13,15,15,16,16],"right_children":[2,4,6,8,-1,10,12,-1,-1,-1,14,-1,16,18,-1,20,22,-1,-1,-1,-1,-1,-1],"split_conditions":[2.004E3,2E3,2.01E3,2.930944E4,-9.248758E-3,1.232841E4,1.541614E4,2.292428E-3,-7.538387E-3,1.8080747E-2,6.4055367E4,-9.284212E-3,5.191595E4,3.2167594E4,1.2949665E-2,3.7336453E4,2.016E3,-1.7873215E-3,2.3491362E-3,2.039968E-3,1.0268244E-2,-8.076722E-3,-2.992072E-4],"split_indices":[0,0,0,2,0,2,2,0,0,0,2,0,2,2,0,2,0,0,0,0,0,0,0],"split_type":[0,0,0,0,0,0,0,0,0,0,0,0,0,0,0,0,0,0,0,0,0,0,0],"sum_hessian":[1.65E2,4.5E1,1.2E2,2.7E1,1.8E1,5.1E1,6.9E1,1.7E1,1E1,1.2E1,3.9E1,1.3E1,5.6E1,2.9E1,1E1,2.7E1,2.9E1,1.3E1,1.6E1,1.7E1,1E1,1.9E1,1E1],"tree_param":{"num_deleted":"0","num_feature":"6","num_nodes":"23","size_leaf_vector":"1"}},{"base_weights":[3.395282E-3,-2.6992362E-3,3.417111E-2,9.578837E-3,-5.7623222E-2,7.5004124E-3,-2.1854464E-3,-3.5928593E-3,1.7363017E-2,-1.1703569E-2,-9.462416E-4,6.455273E-2,-1.7443739E-3,-8.401391E-4,1.072315E-2,-5.6332424E-3,7.52044E-3,-3.615468E-3,4.834521E-3,3.1718076E-3,-3.273235E-3],"categories":[],"categories_nodes":[],"categories_segments":[],"categories_sizes":[],"default_left":[0,0,0,0,0,0,0,0,0,0,0,0,0,0,0,0,0,0,0,0,0],"id":61,"left_children":[1,3,5,7,9,-1,-1,-1,11,-1,-1,13,15,-1,-1,-1,17,19,-1,-1,-1],"loss_changes":[3.2915905E-2,9.968299E-2,6.798228E-2,4.3486636E-2,7.6149076E-2,0E0,0E0,0E0,9.3886524E-2,0E0,0E0,9.4308674E-2,3.8354754E-2,0E0,0E0,0E0,2.972515E-2,5.4535937E-2,0E0,0E0,0E0],"parents":[2147483647,0,0,1,1,2,2,3,3,4,4,8,8,11,11,12,12,16,16,17,17],"right_children":[2,4,6,8,10,-1,-1,-1,12,-1,-1,14,16,-1,-1,-1,18,20,-1,-1,-1],