{"learner":{"attributes":{"best_iteration":"41","best_score":"0.5233635814012711"},"feature_names":[],"feature_types":[],"gradient_booster":{"model":{"gbtree_model_param":{"num_parallel_tree":"1","num_trees":"92"},"iteration_indptr":[0,1,2,3,4,5,6,7,8,9,10,11,12,13,14,15,16,17,18,19,20,21,22,23,24,25,26,27,28,29,30,31,32,33,34,35,36,37,38,39,40,41,42,43,44,45,46,47,48,49,50,51,52,53,54,55,56,57,58,59,60,61,62,63,64,65,66,67,68,69,70,71,72,73,74,75,76,77,78,79,80,81,82,83,84,85,86,87,88,89,90,91,92],"tree_info":[0,0,0,0,0,0,0,0,0,0,0,0,0,0,0,0,0,0,0,0,0,0,0,0,0,0,0,0,0,0,0,0,0,0,0,0,0,0,0,0,0,0,0,0,0,0,0,0,0,0,0,0,0,0,0,0,0,0,0,0,0,0,0,0,0,0,0,0,0,0,0,0,0,0,0,0,0,0,0,0,0,0,0,0,0,0,0,0,0,0,0,0],"trees":[{"base_weights":[3.6371395E-2,-6.6283506E-1,4.1399315E-1,-6.461434E-2,-3.465444E-2,2.1794033E-3,6.1397195E-1,2.3601636E-2,5.9489977E-2],"categories":[],"categories_nodes":[],"categories_segments":[],"categories_sizes":[],"default_left":[0,0,0,0,0,0,0,0,0],"id":0,"left_children":[1,3,5,-1,-1,-1,7,-1,-1],"loss_changes":[4.5160458E1,1.9954491E0,8.526796E0,0E0,0E0,0E0,3.6661034E0,0E0,0E0],"parents":[2147483647,0,0,1,1,2,2,6,6],"right_children":[2,4,6,-1,-1,-1,8,-1,-1],"split_conditions":[1.6929334E7,2.003E3,2.008E3,-6.461434E-2,-3.465444E-2,2.1794033E-3,2.72525E7,2.3601636E-2,5.9489977E-2],"split_indices":[3,0,0,0,0,0,3,0,0],"split_type":[0,0,0,0,0,0,0,0,0],"sum_hessian":[1.69E2,5.9E1,1.1E2,2.8E1,3.1E1,3.8E1,7.2E1,2.8E1,4.4E1],"tree_param":{"num_deleted":"0","num_feature":"6","num_nodes":"9","size_leaf_vector":"1"}},{"base_weights":[4.569898E-2,-5.4154116E-1,9.1776836E-1,-7.2945625E-1,-1.9981928E-2,3.730092E-2,1.1705028E-1,-6.06297E-2,-4.456971E-2],"categories":[],"categories_nodes":[],"categories_segments":[],"categories_sizes":[],"default_left":[0,0,0,0,0,0,0,0,0],"id":1,"left_children":[1,3,5,7,-1,-1,-1,-1,-1],"loss_changes":[9.165332E1,5.3373795E0,1.8684738E1,1.9194794E-1,0E0,0E0,0E0,0E0,0E0],"parents":[2147483647,0,0,1,1,2,2,3,3],"right_children":[2,4,6,8,-1,-1,-1,-1,-1],"split_conditions":[4.256734E4,2.2474928E4,6.8070336E4,1.0833327E4,-1.9981928E-2,3.730092E-2,1.1705028E-1,-6.06297E-2,-4.456971E-2],"split_indices":[5,5,5,5,0,0,0,0,0],"split_type":[0,0,0,0,0,0,0,0,0],"sum_hessian":[1.77E2,1.06E2,7.1E1,6.2E1,4.4E1,4.4E1,2.7E1,3.6E1,2.6E1],"tree_param":{"num_deleted":"0","num_feature":"6","num_nodes":"9","size_leaf_vector":"1"}},{"base_weights":[-7.2307386E-3,-5.000074E-1,8.910111E-1,-6.361026E-1,-4.8107468E-3,3.818901E-2,1.0500802E-1,-5.6323096E-2,-3.9713778E-2],"categories":[],"categories_nodes":[],"categories_segments":[],"categories_sizes":[],"default_left":[0,0,0,0,0,0,0,0,0],"id":2,"left_children":[1,3,5,7,-1,-1,-1,-1,-1],"loss_changes":[7.746359E1,6.6622467E0,1.1338974E1,6.5530777E-1,0E0,0E0,0E0,0E0,0E0],"parents":[2147483647,0,0,1,1,2,2,3,3],"right_children":[2,4,6,8,-1,-1,-1,-1,-1],"split_conditions":[4.3681914E4,3.1566281E4,6.7945336E4,1.0833327E4,-4.8107468E-3,3.818901E-2,1.0500802E-1,-5.6323096E-2,-3.9713778E-2],"split_indices":[2,2,2,2,0,0,0,0,0],"split_type":[0,0,0,0,0,0,0,0,0],"sum_hessian":[1.73E2,1.12E2,6.1E1,8.5E1,2.7E1,3.6E1,2.5E1,3.8E1,4.7E1],"tree_param":{"num_deleted":"0","num_feature":"6","num_nodes":"9","size_leaf_vector":"1"}},{"base_weights":[4.791384E-3,-3.9315966E-1,9.878706E-1,-5.5061597E-1,3.5108078E-5,4.92829E-2,9.6048065E-2,-1.859095E-2,-6.632396E-1,-6.350815E-2,-3.612973E-2],"categories":[],"categories_nodes":[],"categories_segments":[],"categories_sizes":[],"default_left":[0,0,0,0,0,0,0,0,0,0,0],"id":3,"left_children":[1,3,5,7,-1,-1,-1,-1,9,-1,-1],"loss_changes":[6.9242645E1,7.8096313E0,4.0972366E0,2.9041748E0,0E0,0E0,0E0,0E0,1.7574654E0,0E0,0E0],"parents":[2147483647,0,0,1,1,2,2,3,3,8,8],"right_children":[2,4,6,8,-1,-1,-1,-1,10,-1,-1],"split_conditions":[1.9570973E10,1.121244E10,2.8816857E10,2.3536E8,3.5108078E-5,4.92829E-2,9.6048065E-2,-1.859095E-2,4.188496E9,-6.350815E-2,-3.612973E-2],"split_indices":[4,4,4,4,0,0,0,0,4,0,0],"split_type":[0,0,0,0,0,0,0,0,0,0,0],"sum_hessian":[1.75E2,1.25E2,5E1,8.9E1,3.6E1,2.5E1,2.5E1,2.5E1,6.4E1,3E1,3.4E1],"tree_param":{"num_deleted":"0","num_feature":"6","num_nodes":"11","size_leaf_vector":"1"}},{"base_weights":[-1.0852904E-2,-4.511986E-1,7.548381E-1,-6.078664E-1,-1.3651616E-2,3.1159632E-2,9.359425E-2,-2.3025487E-2,-5.8115568E-2],"categories":[],"categories_nodes":[],"categories_segments":[],"categories_sizes":[],"default_left":[0,0,0,0,0,0,0,0,0],"id":4,"left_children":[1,3,5,7,-1,-1,-1,-1,-1],"loss_changes":[6.001945E1,4.6547203E0,1.035873E1,3.3295727E0,0E0,0E0,0E0,0E0,0E0],"parents":[2147483647,0,0,1,1,2,2,3,3],"right_children":[2,4,6,8,-1,-1,-1,-1,-1],"split_conditions":[4.256734E4,2.2474928E4,6.8462164E4,1E0,-1.3651616E-2,3.1159632E-2,9.359425E-2,-2.3025487E-2,-5.8115568E-2],"split_indices":[5,5,5,1,0,0,0,0,0],"split_type":[0,0,0,0,0,0,0,0,0],"sum_hessian":[1.76E2,1.12E2,6.4E1,7E1,4.2E1,3.9E1,2.5E1,2.6E1,4.4E1],"tree_param":{"num_deleted":"0","num_feature":"6","num_nodes":"9","size_leaf_vector":"1"}},{"base_weights":[3.7813464E-3,-2.9443184E-1,7.5761735E-2,-4.728968E-1,1.0593367E-2,-1.8868454E-2,-5.5150646E-1,-5.3883653E-2,-3.0625392E-2],"categories":[],"categories_nodes":[],"categories_segments":[],"categories_sizes":[],"default_left":[0,0,0,0,0,0,0,0,0],"id":5,"left_children":[1,3,-1,5,-1,-1,7,-1,-1],"loss_changes":[5.251731E1,1.0563453E1,0E0,1.5314312E0,0E0,0E0,1.3796844E0,0E0,0E0],"parents":[2147483647,0,0,1,1,3,3,6,6],"right_children":[2,4,-1,6,-1,-1,8,-1,-1],"split_conditions":[2.2945333E10,3.6279562E4,7.5761735E-2,3.8148E8,1.0593367E-2,-1.8868454E-2,1.847281E4,-5.3883653E-2,-3.0625392E-2],"split_indices":[4,5,0,4,0,0,5,0,0],"split_type":[0,0,0,0,0,0,0,0,0],"sum_hessian":[1.73E2,1.34E2,3.9E1,9.5E1,3.9E1,2.6E1,6.9E1,3E1,3.9E1],"tree_param":{"num_deleted":"0","num_feature":"6","num_nodes":"9","size_leaf_vector":"1"}},{"base_weights":[-5.2652424E-3,-2.9564974E-1,6.697674E-2,-4.5876777E-1,8.195238E-3,-1.5589182E-2,-5.503019E-1,-4.991034E-2,-2.837997E-2],"categories":[],"categories_nodes":[],"categories_segments":[],"categories_sizes":[],"default_left":[0,0,0,0,0,0,0,0,0],"id":6,"left_children":[1,3,-1,5,-1,-1,7,-1,-1],"loss_changes":[4.59126E1,8.83474E0,0E0,2.06748E0,0E0,0E0,1.1142406E0,0E0,0E0],"parents":[2147483647,0,0,1,1,3,3,6,6],"right_children":[2,4,-1,6,-1,-1,8,-1,-1],"split_conditions":[2.2945333E10,3.4997883E4,6.697674E-2,3.8148E8,8.195238E-3,-1.5589182E-2,6.517515E9,-4.991034E-2,-2.837997E-2],"split_indices":[4,2,0,4,0,0,4,0,0],"split_type":[0,0,0,0,0,0,0,0,0],"sum_hessian":[1.74E2,1.32E2,4.2E1,9.4E1,3.8E1,2.6E1,6.8E1,3.9E1,2.9E1],"tree_param":{"num_deleted":"0","num_feature":"6","num_nodes":"9","size_leaf_vector":"1"}},{"base_weights":[2.9111242E-2,-3.149521E-1,6.992498E-1,-4.0903202E-1,1.7117033E-3,2.7775338E-2,8.2685344E-2,-3.955913E-2,-3.277135E-1,-9.09411E-3,-3.677258E-2],"categories":[],"categories_nodes":[],"categories_segments":[],"categories_sizes":[],"default_left":[0,0,0,0,0,0,0,0,0,0,0],"id":7,"left_children":[1,3,5,7,-1,-1,-1,-1,9,-1,-1],"loss_changes":[4.010886E1,3.663787E0,7.416548E0,6.938448E-1,0E0,0E0,0E0,0E0,1.8203344E0,0E0,0E0],"parents":[2147483647,0,0,1,1,2,2,3,3,8,8],"right_children":[2,4,6,8,-1,-1,-1,-1,10,-1,-1],"split_conditions":[5.088907E4,3.4858906E4,6.935971E4,2.005E3,1.7117033E-3,2.7775338E-2,8.2685344E-2,-3.955913E-2,2.01E3,-9.09411E-3,-3.677258E-2],"split_indices":[5,2,2,0,0,0,0,0,0,0,0],"split_type":[0,0,0,0,0,0,0,0,0,0,0],"sum_hessian":[1.72E2,1.14E2,5.8E1,8.9E1,2.5E1,3.3E1,2.5E1,3.4E1,5.5E1,2.5E1,3E1],"tree_param":{"num_deleted":"0","num_feature":"6","num_nodes":"11","size_leaf_vector":"1"}},{"base_weights":[-1.4416183E-2,-3.1275633E-1,5.9767824E-1,-4.5050457E-1,-1.1485667E-1,2.2911461E-2,7.1759105E-2,-2.63019E-2,-4.573268E-2,-1.46056935E-2,-2.291489E-3],"categories":[],"categories_nodes":[],"categories_segments":[],"categories_sizes":[],"default_left":[0,0,0,0,0,0,0,0,0,0,0],"id":8,"left_children":[1,3,5,7,9,-1,-1,-1,-1,-1,-1],"loss_changes":[3.287454E1,3.2467556E0,5.898527E0,9.148178E-1,3.3751774E-1,0E0,0E0,0E0,0E0,0E0,0E0],"parents":[2147483647,0,0,1,1,2,2,3,3,4,4],"right_children":[2,4,6,8,10,-1,-1,-1,-1,-1,-1],"split_conditions":[4.7058926E4,2.2474928E4,6.708457E4,2.01E3,3.3735543E4,2.2911461E-2,7.1759105E-2,-2.63019E-2,-4.573268E-2,-1.46056935E-2,-2.291489E-3],"split_indices":[2,2,2,0,2,0,0,0,0,0,0],"split_type":[0,0,0,0,0,0,0,0,0,0,0],"sum_hessian":[1.78E2,1.2E2,5.8E1,7E1,5E1,3.3E1,2.5E1,4.5E1,2.5E1,2.5E1,2.5E1],"tree_param":{"num_deleted":"0","num_feature":"6","num_nodes":"11","size_leaf_vector":"1"}},{"base_weights":[-1.357295E-2,-3.9777997E-1,2.1358186E-1,-4.279665E-2,-1.5127857E-2,9.571276E-2,2.728766E-2,8.408831E-3,5.637141E-3],"categories":[],"categories_nodes":[],"categories_segments":[],"categories_sizes":[],"default_left":[0,0,0,0,0,0,0,0,0],"id":9,"left_children":[1,3,5,-1,-1,7,-1,-1,-1],"loss_changes":[1.5270718E1,2.0877542E0,1.9133048E0,0E0,0E0,1.2812734E-2,0E0,0E0,0E0],"parents":[2147483647,0,0,1,1,2,2,5,5],"right_children":[2,4,6,-1,-1,8,-1,-1,-1],"split_conditions":[1.6929334E7,2.004E3,2.8377E7,-4.279665E-2,-1.5127857E-2,2.109E7,2.728766E-2,8.408831E-3,5.637141E-3],"split_indices":[3,0,3,0,0,3,0,0,0],"split_type":[0,0,0,0,0,0,0,0,0],"sum_hessian":[1.73E2,6.4E1,1.09E2,3.3E1,3.1E1,6.2E1,4.7E1,3.2E1,3E1],"tree_param":{"num_deleted":"0","num_feature":"6","num_nodes":"9","size_leaf_vector":"1"}},{"base_weights":[7.5974767E-3,-2.563527E-1,5.264216E-1,-3.3672976E-1,-1.1035592E-3,2.1251157E-2,6.1802935E-2,-3.2087322E-2,-1.9556873E-2],"categories":[],"categories_nodes":[],"categories_segments":[],"categories_sizes":[],"default_left":[0,0,0,0,0,0,0,0,0],"id":10,"left_children":[1,3,5,7,-1,-1,-1,-1,-1],"loss_changes":[2.3963158E1,2.2480206E0,4.034731E0,4.9057484E-1,0E0,0E0,0E0,0E0,0E0],"parents":[2147483647,0,0,1,1,2,2,3,3],"right_children":[2,4,6,8,-1,-1,-1,-1,-1],"split_conditions":[4.7058926E4,3.2167594E4,6.7945336E4,1.0833327E4,-1.1035592E-3,2.1251157E-2,6.1802935E-2,-3.2087322E-2,-1.9556873E-2],"split_indices":[2,2,2,2,0,0,0,0,0],"split_type":[0,0,0,0,0,0,0,0,0],"sum_hessian":[1.73E2,1.15E2,5.8E1,8.6E1,2.9E1,3.3E1,2.5E1,3.7E1,4.9E1],"tree_param":{"num_deleted":"0","num_feature":"6","num_nodes":"9","size_leaf_vector":"1"}},{"base_weights":[-9.289784E-3,-2.133995E-1,4.738019E-2,-4.2030752E-1,-9.396076E-3,-3.7031505E-2,-2.2528045E-2,-1.9405015E-2,1.0361493E-2],"categories":[],"categories_nodes":[],"categories_segments":[],"categories_sizes":[],"default_left":[0,0,0,0,0,0,0,0,0],"id":11,"left_children":[1,3,-1,5,7,-1,-1,-1,-1],"loss_changes":[2.3293413E1,5.6943927E0,0E0,4.4186783E-1,2.5742247E0,0E0,0E0,0E0,0E0],"parents":[2147483647,0,0,1,1,3,3,4,4],"right_children":[2,4,-1,6,8,-1,-1,-1,-1],"split_conditions":[5.780741E4,2.2474928E4,4.738019E-2,1.0833327E4,2.005E3,-3.7031505E-2,-2.2528045E-2,-1.9405015E-2,1.0361493E-2],"split_indices":[5,5,0,5,0,0,0,0,0],"split_type":[0,0,0,0,0,0,0,0,0],"sum_hessian":[1.76E2,1.34E2,4.2E1,6.6E1,6.8E1,3.9E1,2.7E1,2.5E1,4.3E1],"tree_param":{"num_deleted":"0","num_feature":"6","num_nodes":"9","size_leaf_vector":"1"}},{"base_weights":[4.1575768E-4,-2.3146673E-1,4.31607E-2,-3.2889402E-1,4.881068E-4,-1.0581767E-2,-4.053748E-1,-3.658887E-2,-2.3460561E-2],"categories":[],"categories_nodes":[],"categories_segments":[],"categories_sizes":[],"default_left":[0,0,0,0,0,0,0,0,0],"id":12,"left_children":[1,3,-1,5,-1,-1,7,-1,-1],"loss_changes":[2.320213E1,2.8771105E0,0E0,1.2067823E0,0E0,0E0,3.2074547E-1,0E0,0E0],"parents":[2147483647,0,0,1,1,3,3,6,6],"right_children":[2,4,-1,6,-1,-1,8,-1,-1],"split_conditions":[1.9570973E10,1.121244E10,4.31607E-2,3.8148E8,4.881068E-4,-1.0581767E-2,1.8323332E4,-3.658887E-2,-2.3460561E-2],"split_indices":[4,4,0,4,0,0,2,0,0],"split_type":[0,0,0,0,0,0,0,0,0],"sum_hessian":[1.72E2,1.23E2,4.9E1,8.7E1,3.6E1,2.6E1,6.1E1,3E1,3.1E1],"tree_param":{"num_deleted":"0","num_feature":"6","num_nodes":"9","size_leaf_vector":"1"}},{"base_weights":[7.221973E-3,-1.6080606E-1,5.389933E-2,-2.7880132E-1,3.5200834E-2,-1.482015E-3,-4.2137983E-1,8.119255E-3,-3.7836228E-3,-4.021492E-2,-2.3861045E-2],"categories":[],"categories_nodes":[],"categories_segments":[],"categories_sizes":[],"default_left":[0,0,0,0,0,0,0,0,0,0,0],"id":13,"left_children":[1,3,-1,5,7,-1,9,-1,-1,-1,-1],"loss_changes":[2.1274347E1,3.340229E0,0E0,3.3157063E0,3.4960595E-1,0E0,5.168886E-1,0E0,0E0,0E0,0E0],"parents":[2147483647,0,0,1,1,3,3,4,4,6,6],"right_children":[2,4,-1,6,8,-1,10,-1,-1,-1,-1],"split_conditions":[2.5268625E10,1.121244E10,5.389933E-2,1E0,2.2719E7,-1.482015E-3,2.829464E9,8.119255E-3,-3.7836228E-3,-4.021492E-2,-2.3861045E-2],"split_indices":[4,4,0,1,3,0,4,0,0,0,0],"split_type":[0,0,0,0,0,0,0,0,0,0,0],"sum_hessian":[1.76E2,1.43E2,3.3E1,8.9E1,5.4E1,3.2E1,5.7E1,2.9E1,2.5E1,2.5E1,3.2E1],"tree_param":{"num_deleted":"0","num_feature":"6","num_nodes":"11","size_leaf_vector":"1"}},{"base_weights":[-7.315672E-3,-1.6767763E-1,4.895012E-2,-2.8120226E-1,5.4450715E-3,-2.999557E-3,-3.6325994E-1,-3.6241446E-2,-1.8915977E-2],"categories":[],"categories_nodes":[],"categories_segments":[],"categories_sizes":[],"default_left":[0,0,0,0,0,0,0,0,0],"id":14,"left_children":[1,3,-1,5,-1,-1,7,-1,-1],"loss_changes":[1.89483E1,3.9483814E0,0E0,1.9251838E0,0E0,0E0,8.5056686E-1,0E0,0E0],"parents":[2147483647,0,0,1,1,3,3,6,6],"right_children":[2,4,-1,6,-1,-1,8,-1,-1],"split_conditions":[2.5268625E10,3.6279562E4,4.895012E-2,3.0186E8,5.4450715E-3,-2.999557E-3,1.832981E4,-3.6241446E-2,-1.8915977E-2],"split_indices":[4,2,0,4,0,0,2,0,0],"split_type":[0,0,0,0,0,0,0,0,0],"sum_hessian":[1.77E2,1.43E2,3.4E1,9.7E1,4.6E1,2.5E1,7.2E1,3.3E1,3.9E1],"tree_param":{"num_deleted":"0","num_feature":"6","num_nodes":"9","size_leaf_vector":"1"}},{"base_weights":[-7.3106135E-3,-1.516366E-1,4.4675823E-2,-2.2706972E-1,4.005489E-3,-2.161069E-3,-2.8944406E-1,-3.178545E-2,-2.1553431E-1,-1.9393196E-2,-1.2338246E-2],"categories":[],"categories_nodes":[],"categories_segments":[],"categories_sizes":[],"default_left":[0,0,0,0,0,0,0,0,0,0,0],"id":15,"left_children":[1,3,-1,5,-1,-1,7,-1,9,-1,-1],"loss_changes":[1.5320029E1,2.2084475E0,0E0,1.2777295E0,0E0,0E0,6.9317675E-1,0E0,7.385898E-2,0E0,0E0],"parents":[2147483647,0,0,1,1,3,3,6,6,8,8],"right_children":[2,4,-1,6,-1,-1,8,-1,10,-1,-1],"split_conditions":[2.5268625E10,1.4630162E10,4.4675823E-2,3.0186E8,4.005489E-3,-2.161069E-3,1.2289934E4,-3.178545E-2,7.832584E9,-1.9393196E-2,-1.2338246E-2],"split_indices":[4,4,0,4,0,0,2,0,4,0,0],"split_type":[0,0,0,0,0,0,0,0,0,0,0],"sum_hessian":[1.74E2,1.41E2,3.3E1,1.03E2,3.8E1,2.5E1,7.8E1,2.6E1,5.2E1,2.6E1,2.6E1],"tree_param":{"num_deleted":"0","num_feature":"6","num_nodes":"11","size_leaf_vector":"1"}},{"base_weights":[2.559459E-2,-1.03161134E-1,4.0767375E-2,-2.5031812E-2,-1.791284E-2,8.014982E-2,-2.2540618E-2,2.8751248E-2,1.3212838E-2,1.1914855E-2,-7.320605E-3],"categories":[],"categories_nodes":[],"categories_segments":[],"categories_sizes":[],"default_left":[0,0,0,0,0,0,0,0,0,0,0],"id":16,"left_children":[1,3,-1,-1,5,7,-1,9,-1,-1,-1],"loss_changes":[1.1727114E1,2.765792E0,0E0,0E0,2.9064817E0,3.7989295E-1,0E0,8.704411E-1,0E0,0E0,0E0],"parents":[2147483647,0,0,1,1,4,4,5,5,7,7],"right_children":[2,4,-1,-1,6,8,-1,10,-1,-1,-1],"split_conditions":[2.5268625E10,2.004E3,4.0767375E-2,-2.5031812E-2,2.015E3,4.119357E4,-2.2540618E-2,7.65877E9,1.3212838E-2,1.1914855E-2,-7.320605E-3],"split_indices":[4,0,0,0,0,5,0,4,0,0,0],"split_type":[0,0,0,0,0,0,0,0,0,0,0],"sum_hessian":[1.74E2,1.4E2,3.4E1,3.7E1,1.03E2,7.7E1,2.6E1,5.1E1,2.6E1,2.5E1,2.6E1],"tree_param":{"num_deleted":"0","num_feature":"6","num_nodes":"11","size_leaf_vector":"1"}},{"base_weights":[-7.883287E-3,-1.4036322E-1,3.1218719E-2,-2.401921E-2,-5.4954454E-2,4.5260545E-2,-1.5072502E-2,-1.6517313E-3,8.698429E-3],"categories":[],"categories_nodes":[],"categories_segments":[],"categories_sizes":[],"default_left":[0,0,0,0,0,0,0,0,0],"id":17,"left_children":[1,3,-1,-1,5,7,-1,-1,-1],"loss_changes":[9.442004E0,1.9490478E0,0E0,0E0,1.296766E0,2.5473863E-1,0E0,0E0,0E0],"parents":[2147483647,0,0,1,1,4,4,5,5],"right_children":[2,4,-1,-1,6,8,-1,-1,-1],"split_conditions":[2.3246383E10,2.004E3,3.1218719E-2,-2.401921E-2,2.012E3,2.008E3,-1.5072502E-2,-1.6517313E-3,8.698429E-3],"split_indices":[4,0,0,0,0,0,0,0,0],"split_type":[0,0,0,0,0,0,0,0,0],"sum_hessian":[1.66E2,1.27E2,3.9E1,4E1,8.7E1,5.2E1,3.5E1,2.7E1,2.5E1],"tree_param":{"num_deleted":"0","num_feature":"6","num_nodes":"9","size_leaf_vector":"1"}},{"base_weights":[-1.3960594E-3,-1.09577246E-1,3.9114468E-2,-2.008752E-1,5.0929766E-3,-3.0440928E-3,-2.5674272E-1,-2.3337452E-2,-1.2153826E-2],"categories":[],"categories_nodes":[],"categories_segments":[],"categories_sizes":[],"default_left":[0,0,0,0,0,0,0,0,0],"id":18,"left_children":[1,3,-1,5,-1,-1,7,-1,-1],"loss_changes":[9.900389E0,2.3632042E0,0E0,8.492458E-1,0E0,0E0,3.154688E-1,0E0,0E0],"parents":[2147483647,0,0,1,1,3,3,6,6],"right_children":[2,4,-1,6,-1,-1,8,-1,-1],"split_conditions":[2.7850367E10,3.6279562E4,3.9114468E-2,3.8788E8,5.0929766E-3,-3.0440928E-3,2.3942104E4,-2.3337452E-2,-1.2153826E-2],"split_indices":[4,2,0,4,0,0,2,0,0],"split_type":[0,0,0,0,0,0,0,0,0],"sum_hessian":[1.73E2,1.44E2,2.9E1,9.5E1,4.9E1,2.5E1,7E1,4.3E1,2.7E1],"tree_param":{"num_deleted":"0","num_feature":"6","num_nodes":"9","size_leaf_vector":"1"}},{"base_weights":[3.893059E-3,-9.933416E-2,3.3756334E-2,-2.2100395E-2,-1.839265E-2,5.372097E-2,-1.7153291E-2,8.5411975E-3,-2.1940682E-3],"categories":[],"categories_nodes":[],"categories_segments":[],"categories_sizes":[],"default_left":[0,0,0,0,0,0,0,0,0],"id":19,"left_children":[1,3,-1,-1,5,7,-1,-1,-1],"loss_changes":[8.335345E0,2.318787E0,0E0,0E0,1.6047989E0,3.9769372E-1,0E0,0E0,0E0],"parents":[2147483647,0,0,1,1,4,4,5,5],"right_children":[2,4,-1,-1,6,8,-1,-1,-1],"split_conditions":[2.5268625E10,2.004E3,3.3756334E-2,-2.2100395E-2,2.015E3,2.2719E7,-1.7153291E-2,8.5411975E-3,-2.1940682E-3],"split_indices":[4,0,0,0,0,3,0,0,0],"split_type":[0,0,0,0,0,0,0,0,0],"sum_hessian":[1.79E2,1.46E2,3.3E1,4.2E1,1.04E2,7.8E1,2.6E1,4.5E1,3.3E1],"tree_param":{"num_deleted":"0","num_feature":"6","num_nodes":"9","size_leaf_vector":"1"}},{"base_weights":[-8.272547E-3,-1.015387E-1,3.9489936E-2,-1.8221344E-1,5.24548E-2,-1.084637E-3,-2.394645E-1,1.723013E-3,5.9176064E-3,-2.5176227E-2,-1.3676798E-2],"categories":[],"categories_nodes":[],"categories_segments":[],"categories_sizes":[],"default_left":[0,0,0,0,0,0,0,0,0,0,0],"id":20,"left_children":[1,3,-1,5,7,-1,9,-1,-1,-1,-1],"loss_changes":[8.732446E0,1.8606422E0,0E0,9.377248E-1,3.8730755E-2,0E0,3.399043E-1,0E0,0E0,0E0,0E0],"parents":[2147483647,0,0,1,1,3,3,4,4,6,6],"right_children":[2,4,-1,6,8,-1,10,-1,-1,-1,-1],"split_conditions":[6.708457E4,3.6279562E4,3.9489936E-2,2.3536E8,2.009E3,-1.084637E-3,1.2289934E4,1.723013E-3,5.9176064E-3,-2.5176227E-2,-1.3676798E-2],"split_indices":[5,5,0,4,0,0,5,0,0,0,0],"split_type":[0,0,0,0,0,0,0,0,0,0,0],"sum_hessian":[1.73E2,1.48E2,2.5E1,9.7E1,5.1E1,2.5E1,7.2E1,2.5E1,2.6E1,2.5E1,4.7E1],"tree_param":{"num_deleted":"0","num_feature":"6","num_nodes":"11","size_leaf_vector":"1"}},{"base_weights":[1.720211E-2,-7.502273E-2,4.247568E-2,-1.6344398E-1,5.6694724E-2,-1.8576334E-3,-2.1406339E-1,4.6192645E-4,7.081907E-3,-2.1176057E-2,-1.2584788E-2],"categories":[],"categories_nodes":[],"categories_segments":[],"categories_sizes":[],"default_left":[0,0,0,0,0,0,0,0,0,0,0],"id":21,"left_children":[1,3,-1,5,7,-1,9,-1,-1,-1,-1],"loss_changes":[9.158475E0,1.814493E0,0E0,6.475277E-1,1.1954349E-1,0E0,1.6745162E-1,0E0,0E0,0E0,0E0],"parents":[2147483647,0,0,1,1,3,3,4,4,6,6],"right_children":[2,4,-1,6,8,-1,10,-1,-1,-1,-1],"split_conditions":[6.856115E4,3.2167594E4,4.247568E-2,3.8148E8,1.6786962E10,-1.8576334E-3,3.833568E9,4.6192645E-4,7.081907E-3,-2.1176057E-2,-1.2584788E-2],"split_indices":[2,2,0,4,4,0,4,0,0,0,0],"split_type":[0,0,0,0,0,0,0,0,0,0,0],"sum_hessian":[1.79E2,1.54E2,2.5E1,9.2E1,6.2E1,2.5E1,6.7E1,2.7E1,3.5E1,2.5E1,4.2E1],"tree_param":{"num_deleted":"0","num_feature":"6","num_nodes":"11","size_leaf_vector":"1"}},{"base_weights":[-1.3298461E-2,-1.0205095E-1,2.0422054E-2,-1.788868E-2,-3.999168E-2,-1.0786838E-2,4.663914E-2,2.1466878E-3,4.7666193E-3],"categories":[],"categories_nodes":[],"categories_segments":[],"categories_sizes":[],"default_left":[0,0,0,0,0,0,0,0,0],"id":22,"left_children":[1,3,-1,-1,5,-1,7,-1,-1],"loss_changes":[4.4888678E0,1.1337633E0,0E0,0E0,8.522494E-1,0E0,1.4028698E-2,0E0,0E0],"parents":[2147483647,0,0,1,1,4,4,6,6],"right_children":[2,4,-1,-1,6,-1,8,-1,-1],"split_conditions":[5.8284477E4,2.004E3,2.0422054E-2,-1.788868E-2,2.2474928E4,-1.0786838E-2,4.0780664E4,2.1466878E-3,4.7666193E-3],"split_indices":[2,0,0,0,2,0,2,0,0],"split_type":[0,0,0,0,0,0,0,0,0],"sum_hessian":[1.75E2,1.34E2,4.1E1,4.1E1,9.3E1,4.2E1,5.1E1,2.6E1,2.5E1],"tree_param":{"num_deleted":"0","num_feature":"6","num_nodes":"9","size_leaf_vector":"1"}},{"base_weights":[-1.4089926E-2,-9.8892115E-2,3.05612E-2,-1.6305846E-1,1.4356864E-2,-1.4691228E-3,-2.1629974E-1,3.0078671E-3,-1.0442978E-3,-2.2291431E-2,-1.2079263E-2],"categories":[],"categories_nodes":[],"categories_segments":[],"categories_sizes":[],"default_left":[0,0,0,0,0,0,0,0,0,0,0],"id":23,"left_children":[1,3,-1,5,7,-1,9,-1,-1,-1,-1],"loss_changes":[6.1893444E0,1.0487564E0,0E0,6.9850826E-1,3.9151736E-2,0E0,2.516353E-1,0E0,0E0,0E0,0E0],"parents":[2147483647,0,0,1,1,3,3,4,4,6,6],"right_children":[2,4,-1,6,8,-1,10,-1,-1,-1,-1],"split_conditions":[6.53197E4,1.121244E10,3.05612E-2,3.0186E8,1.6906165E10,-1.4691228E-3,1.2289934E4,3.0078671E-3,-1.0442978E-3,-2.2291431E-2,-1.2079263E-2],"split_indices":[5,4,0,4,4,0,5,0,0,0,0],"split_type":[0,0,0,0,0,0,0,0,0,0,0],"sum_hessian":[1.71E2,1.43E2,2.8E1,9.1E1,5.2E1,2.5E1,6.6E1,2.7E1,2.5E1,2.5E1,4.1E1],"tree_param":{"num_deleted":"0","num_feature":"6","num_nodes":"11","size_leaf_vector":"1"}},{"base_weights":[-7.757308E-3,-8.0447E-2,3.1521898E-2,5.413616E-3,-1.467376E-1,-2.7400244E-2,-4.8597556E-2,-1.2552343E-2,4.89937E-3],"categories":[],"categories_nodes":[],"categories_segments":[],"categories_sizes":[],"default_left":[0,0,0,0,0,0,0,0,0],"id":24,"left_children":[1,3,-1,-1,5,-1,7,-1,-1],"loss_changes":[5.57224E0,1.5586212E0,0E0,0E0,2.27775E0,0E0,1.0257007E0,0E0,0E0],"parents":[2147483647,0,0,1,1,4,4,6,6],"right_children":[2,4,-1,-1,6,-1,8,-1,-1],"split_conditions":[6.856115E4,1E0,3.1521898E-2,5.413616E-3,1.46145E7,-2.7400244E-2,3.6279562E4,-1.2552343E-2,4.89937E-3],"split_indices":[2,1,0,0,3,0,2,0,0],"split_type":[0,0,0,0,0,0,0,0,0],"sum_hessian":[1.77E2,1.52E2,2.5E1,4.6E1,1.06E2,3.2E1,7.4E1,3.6E1,3.8E1],"tree_param":{"num_deleted":"0","num_feature":"6","num_nodes":"9","size_leaf_vector":"1"}},{"base_weights":[-2.317962E-3,-7.3120534E-2,2.8426189E-2,-1.4149153E-1,4.2556315E-3,2.6296175E-3,-2.2748595E-1,-2.1879125E-2,-1.3214932E-2],"categories":[],"categories_nodes":[],"categories_segments":[],"categories_sizes":[],"default_left":[0,0,0,0,0,0,0,0,0],"id":25,"left_children":[1,3,-1,5,-1,-1,7,-1,-1],"loss_changes":[4.4826174E0,1.2510624E0,0E0,1.4047736E0,0E0,0E0,1.5285492E-1,0E0,0E0],"parents":[2147483647,0,0,1,1,3,3,6,6],"right_children":[2,4,-1,6,-1,-1,8,-1,-1],"split_conditions":[6.672146E4,3.5293883E4,2.8426189E-2,1E0,4.2556315E-3,2.6296175E-3,1.4136484E4,-2.1879125E-2,-1.3214932E-2],"split_indices":[5,5,0,1,0,0,5,0,0],"split_type":[0,0,0,0,0,0,0,0,0],"sum_hessian":[1.64E2,1.39E2,2.5E1,9.1E1,4.8E1,3E1,6.1E1,2.5E1,3.6E1],"tree_param":{"num_deleted":"0","num_feature":"6","num_nodes":"9","size_leaf_vector":"1"}},{"base_weights":[-1.5251489E-2,-7.705488E-2,2.2900987E-2,-1.542457E-2,-2.6103431E-2,-1.0097337E-1,5.1328223E-3,1.2623221E-3,-1.5067256E-2],"categories":[],"categories_nodes":[],"categories_segments":[],"categories_sizes":[],"default_left":[0,0,0,0,0,0,0,0,0],"id":26,"left_children":[1,3,-1,-1,5,7,-1,-1,-1],"loss_changes":[3.431544E0,9.447679E-1,0E0,0E0,7.501301E-1,6.978941E-1,0E0,0E0,0E0],"parents":[2147483647,0,0,1,1,4,4,5,5],"right_children":[2,4,-1,-1,6,8,-1,-1,-1],"split_conditions":[2.8131662E10,2.003E3,2.2900987E-2,-1.542457E-2,3.6279562E4,2.01E3,5.1328223E-3,1.2623221E-3,-1.5067256E-2],"split_indices":[4,0,0,0,2,0,0,0,0],"split_type":[0,0,0,0,0,0,0,0,0],"sum_hessian":[1.71E2,1.44E2,2.7E1,4E1,1.04E2,5.8E1,4.6E1,2.7E1,3.1E1],"tree_param":{"num_deleted":"0","num_feature":"6","num_nodes":"9","size_leaf_vector":"1"}},{"base_weights":[-2.2786597E-3,-5.6722365E-2,2.3550095E-2,6.051219E-3,-1.1040773E-1,-2.3281142E-1,5.3432044E-3,-2.2837002E-2,-1.184512E-2,-2.850439E-3,3.0298003E-3],"categories":[],"categories_nodes":[],"categories_segments":[],"categories_sizes":[],"default_left":[0,0,0,0,0,0,0,0,0,0,0],"id":27,"left_children":[1,3,-1,-1,5,7,9,-1,-1,-1,-1],"loss_changes":[3.048434E0,1.1227826E0,0E0,0E0,1.5455934E0,2.3637629E-1,8.815046E-2,0E0,0E0,0E0,0E0],"parents":[2147483647,0,0,1,1,4,4,5,5,6,6],"right_children":[2,4,-1,-1,6,8,10,-1,-1,-1,-1],"split_conditions":[6.856115E4,1E0,2.3550095E-2,6.051219E-3,2.8984143E4,1.15875E4,2.008E3,-2.2837002E-2,-1.184512E-2,-2.850439E-3,3.0298003E-3],"split_indices":[2,1,0,0,2,2,0,0,0,0,0],"split_type":[0,0,0,0,0,0,0,0,0,0,0],"sum_hessian":[1.75E2,1.5E2,2.5E1,4.2E1,1.08E2,5.2E1,5.6E1,2.5E1,2.7E1,2.5E1,3.1E1],"tree_param":{"num_deleted":"0","num_feature":"6","num_nodes":"11","size_leaf_vector":"1"}},{"base_weights":[-4.881534E-3,-7.09465E-2,2.4255289E-2,-1.5123156E-1,-3.5034346E-3,-4.825966E-3,-1.5261427E-2,2.2086116E-2,-3.4736122E-3,-1.9531935E-3,5.3412337E-3],"categories":[],"categories_nodes":[],"categories_segments":[],"categories_sizes":[],"default_left":[0,0,0,0,0,0,0,0,0,0,0],"id":28,"left_children":[1,3,-1,5,7,-1,-1,9,-1,-1,-1],"loss_changes":[3.883437E0,8.062562E-1,0E0,2.956345E-1,9.085591E-2,0E0,0E0,1.24812745E-1,0E0,0E0,0E0],"parents":[2147483647,0,0,1,1,3,3,4,4,7,7],"right_children":[2,4,-1,6,8,-1,-1,10,-1,-1,-1],"split_conditions":[2.8131662E10,2.2474928E4,2.4255289E-2,3.8148E8,1.7028E10,-4.825966E-3,-1.5261427E-2,1.139268E10,-3.4736122E-3,-1.9531935E-3,5.3412337E-3],"split_indices":[4,2,0,4,4,0,0,4,0,0,0],"split_type":[0,0,0,0,0,0,0,0,0,0,0],"sum_hessian":[1.77E2,1.48E2,2.9E1,6.7E1,8.1E1,2.6E1,4.1E1,5.1E1,3E1,2.6E1,2.5E1],"tree_param":{"num_deleted":"0","num_feature":"6","num_nodes":"11","size_leaf_vector":"1"}},{"base_weights":[-5.4224604E-3,-5.6158632E-2,1.922044E-2,-1.3548833E-2,-1.2024685E-2,5.288712E-2,-1.0906347E-2,1.2704237E-2,-1.4089734E-3],"categories":[],"categories_nodes":[],"categories_segments":[],"categories_sizes":[],"default_left":[0,0,0,0,0,0,0,0,0],"id":29,"left_children":[1,3,-1,-1,5,7,-1,-1,-1],"loss_changes":[2.1254988E0,7.340698E-1,0E0,0E0,8.735705E-1,5.7099235E-1,0E0,0E0,0E0],"parents":[2147483647,0,0,1,1,4,4,5,5],"right_children":[2,4,-1,-1,6,8,-1,-1,-1],"split_conditions":[2.662277E10,2.003E3,1.922044E-2,-1.3548833E-2,2.013E3,1.9393334E7,-1.0906347E-2,1.2704237E-2,-1.4089734E-3],"split_indices":[4,0,0,0,0,3,0,0,0],"split_type":[0,0,0,0,0,0,0,0,0],"sum_hessian":[1.58E2,1.33E2,2.5E1,3.4E1,9.9E1,6.7E1,3.2E1,2.5E1,4.2E1],"tree_param":{"num_deleted":"0","num_feature":"6","num_nodes":"9","size_leaf_vector":"1"}},{"base_weights":[1.5920194E-2,-4.4664536E-2,2.7187875E-2,5.1354845E-3,-9.585682E-2,-1.8227093E-2,-2.9116115E-2,-8.539637E-3,4.0594568E-3],"categories":[],"categories_nodes":[],"categories_segments":[],"categories_sizes":[],"default_left":[0,0,0,0,0,0,0,0,0],"id":30,"left_children":[1,3,-1,-1,5,-1,7,-1,-1],"loss_changes":[3.6697989E0,8.695382E-1,0E0,0E0,1.004621E0,0E0,5.1408106E-1,0E0,0E0],"parents":[2147483647,0,0,1,1,4,4,6,6],"right_children":[2,4,-1,-1,6,-1,8,-1,-1],"split_conditions":[6.672146E4,1E0,2.7187875E-2,5.1354845E-3,1.3485333E7,-1.8227093E-2,3.6279562E4,-8.539637E-3,4.0594568E-3],"split_indices":[5,1,0,0,3,0,5,0,0],"split_type":[0,0,0,0,0,0,0,0,0],"sum_hessian":[1.73E2,1.48E2,2.5E1,4.6E1,1.02E2,3.1E1,7.1E1,3.5E1,3.6E1],"tree_param":{"num_deleted":"0","num_feature":"6","num_nodes":"9","size_leaf_vector":"1"}},{"base_weights":[-4.548532E-3,-5.3821664E-2,2.0281417E-2,3.8656818E-3,-9.8745175E-2,-2.0450749E-2,-1.1608719E-2,3.7813948E-3,-7.044364E-3],"categories":[],"categories_nodes":[],"categories_segments":[],"categories_sizes":[],"default_left":[0,0,0,0,0,0,0,0,0],"id":31,"left_children":[1,3,-1,-1,5,-1,7,-1,-1],"loss_changes":[2.3178003E0,6.914216E-1,0E0,0E0,1.5427234E0,0E0,3.570391E-1,0E0,0E0],"parents":[2147483647,0,0,1,1,4,4,6,6],"right_children":[2,4,-1,-1,6,-1,8,-1,-1],"split_conditions":[2.8131662E10,1E0,2.0281417E-2,3.8656818E-3,1.46145E7,-2.0450749E-2,2.2297E7,3.7813948E-3,-7.044364E-3],"split_indices":[4,1,0,0,3,0,3,0,0],"split_type":[0,0,0,0,0,0,0,0,0],"sum_hessian":[1.69E2,1.44E2,2.5E1,4.3E1,1.01E2,3.3E1,6.8E1,3.9E1,2.9E1],"tree_param":{"num_deleted":"0","num_feature":"6","num_nodes":"9","size_leaf_vector":"1"}},{"base_weights":[4.2224457E-3,-3.935057E-2,1.6645644E-2,-1.15429675E-2,-1.501898E-3,-6.824506E-2,6.1754815E-2,-7.2681163E-3,-2.6994534E-3,1.18428E-2,-1.7985089E-3],"categories":[],"categories_nodes":[],"categories_segments":[],"categories_sizes":[],"default_left":[0,0,0,0,0,0,0,0,0,0,0],"id":32,"left_children":[1,3,-1,-1,5,7,9,-1,-1,-1,-1],"loss_changes":[1.6499317E0,6.2845683E-1,0E0,0E0,4.686293E-1,4.6432525E-2,4.7365722E-1,0E0,0E0,0E0,0E0],"parents":[2147483647,0,0,1,1,4,4,5,5,6,6],"right_children":[2,4,-1,-1,6,8,10,-1,-1,-1,-1],"split_conditions":[6.53197E4,7.899984E3,1.6645644E-2,-1.15429675E-2,2.008E3,1.8541E7,2.60135E7,-7.2681163E-3,-2.6994534E-3,1.18428E-2,-1.7985089E-3],"split_indices":[2,2,0,0,0,3,3,0,0,0,0],"split_type":[0,0,0,0,0,0,0,0,0,0,0],"sum_hessian":[1.72E2,1.44E2,2.8E1,3.5E1,1.09E2,5.3E1,5.6E1,2.7E1,2.6E1,2.6E1,3E1],"tree_param":{"num_deleted":"0","num_feature":"6","num_nodes":"11","size_leaf_vector":"1"}},{"base_weights":[-4.407836E-3,1.2488073E-1,-6.539678E-2,4.0365462E-4,1.6915467E-2,-1.7732104E-2,9.200784E-3,6.1024837E-2,-8.260753E-3,8.903997E-3,-1.7570147E-3],"categories":[],"categories_nodes":[],"categories_segments":[],"categories_sizes":[],"default_left":[0,0,0,0,0,0,0,0,0,0,0],"id":33,"left_children":[1,3,5,-1,-1,-1,7,9,-1,-1,-1],"loss_changes":[1.4511533E0,7.0847327E-1,1.59699E0,0E0,0E0,0E0,5.5099255E-1,3.0487323E-1,0E0,0E0,0E0],"parents":[2147483647,0,0,1,1,2,2,6,6,7,7],"right_children":[2,4,6,-1,-1,-1,8,10,-1,-1,-1],"split_conditions":[1E0,2.009E3,1.46145E7,4.0365462E-4,1.6915467E-2,-1.7732104E-2,2.86575E7,2.009E3,-8.260753E-3,8.903997E-3,-1.7570147E-3],"split_indices":[1,0,3,0,0,0,3,0,0,0,0],"split_type":[0,0,0,0,0,0,0,0,0,0,0],"sum_hessian":[1.82E2,5.8E1,1.24E2,2.7E1,3.1E1,3.7E1,8.7E1,6.1E1,2.6E1,3.6E1,2.5E1],"tree_param":{"num_deleted":"0","num_feature":"6","num_nodes":"11","size_leaf_vector":"1"}},{"base_weights":[-1.7184945E-2,-6.545507E-2,1.9646812E-2,-1.6211928E-1,-7.7850623E-3,-1.3713772E-2,-9.837464E-3,-4.0361367E-2,4.098148E-3,-6.966463E-3,-7.062068E-5],"categories":[],"categories_nodes":[],"categories_segments":[],"categories_sizes":[],"default_left":[0,0,0,0,0,0,0,0,0,0,0],"id":34,"left_children":[1,3,-1,5,7,-1,-1,9,-1,-1,-1],"loss_changes":[2.3751385E0,8.349318E-1,0E0,1.1950731E-2,1.9540143E-1,0E0,0E0,1.3035497E-1,0E0,0E0,0E0],"parents":[2147483647,0,0,1,1,3,3,4,4,7,7],"right_children":[2,4,-1,6,8,-1,-1,10,-1,-1,-1],"split_conditions":[6.935971E4,1.9729166E4,1.9646812E-2,7.0461626E3,2.011E3,-1.3713772E-2,-9.837464E-3,1.96355E7,4.098148E-3,-6.966463E-3,-7.062068E-5],"split_indices":[2,2,0,2,0,0,0,3,0,0,0],"split_type":[0,0,0,0,0,0,0,0,0,0,0],"sum_hessian":[1.74E2,1.49E2,2.5E1,5.5E1,9.4E1,3E1,2.5E1,6.2E1,3.2E1,2.6E1,3.6E1],"tree_param":{"num_deleted":"0","num_feature":"6","num_nodes":"11","size_leaf_vector":"1"}},{"base_weights":[-3.5270294E-3,9.603427E-2,-4.7470547E-2,1.0687908E-3,1.2640989E-2,-1.559616E-2,1.3248235E-2,6.998075E-2,-9.354643E-3,8.134388E-3,1.350752E-3],"categories":[],"categories_nodes":[],"categories_segments":[],"categories_sizes":[],"default_left":[0,0,0,0,0,0,0,0,0,0,0],"id":35,"left_children":[1,3,5,-1,-1,-1,7,9,-1,-1,-1],"loss_changes":[7.570715E-1,3.1190512E-1,1.1720401E0,0E0,0E0,0E0,6.975724E-1,1.2402886E-1,0E0,0E0,0E0],"parents":[2147483647,0,0,1,1,2,2,6,6,7,7],"right_children":[2,4,6,-1,-1,-1,8,10,-1,-1,-1],"split_conditions":[1E0,2.009E3,1.45795E7,1.0687908E-3,1.2640989E-2,-1.559616E-2,2.9302E7,2.009E3,-9.354643E-3,8.134388E-3,1.350752E-3],"split_indices":[1,0,3,0,0,0,3,0,0,0,0],"split_type":[0,0,0,0,0,0,0,0,0,0,0],"sum_hessian":[1.71E2,5.2E1,1.19E2,2.5E1,2.7E1,3.2E1,8.7E1,6.2E1,2.5E1,3.5E1,2.7E1],"tree_param":{"num_deleted":"0","num_feature":"6","num_nodes":"11","size_leaf_vector":"1"}},{"base_weights":[-6.1006653E-3,-4.3469243E-2,1.562135E-2,1.3736008E-3,-6.870531E-2,-1.3589465E-2,-3.1749982E-2,2.3420345E-2,-1.0721855E-2,-4.720207E-3,9.1621205E-3],"categories":[],"categories_nodes":[],"categories_segments":[],"categories_sizes":[],"default_left":[0,0,0,0,0,0,0,0,0,0,0],"id":36,"left_children":[1,3,-1,-1,5,-1,7,9,-1,-1,-1],"loss_changes":[1.4030159E0,2.3357663E-1,0E0,0E0,4.3489063E-1,0E0,5.003144E-1,4.7667024E-1,0E0,0E0,0E0],"parents":[2147483647,0,0,1,1,4,4,6,6,7,7],"right_children":[2,4,-1,-1,6,-1,8,10,-1,-1,-1],"split_conditions":[6.8373164E4,1E0,1.562135E-2,1.3736008E-3,1.3145E7,-1.3589465E-2,2.735275E7,3.6521363E4,-1.0721855E-2,-4.720207E-3,9.1621205E-3],"split_indices":[2,1,0,0,3,0,3,2,0,0,0],"split_type":[0,0,0,0,0,0,0,0,0,0,0],"sum_hessian":[1.73E2,1.48E2,2.5E1,4.3E1,1.05E2,2.5E1,8E1,5.4E1,2.6E1,2.9E1,2.5E1],"tree_param":{"num_deleted":"0","num_feature":"6","num_nodes":"11","size_leaf_vector":"1"}},{"base_weights":[-7.79954E-3,-4.3928932E-2,1.2892733E-2,-1.1242487E-2,-8.841755E-3,1.0005165E-2,-5.0767902E-2,-9.099059E-3,-1.5821213E-2,3.40881E-3,-5.314092E-3],"categories":[],"categories_nodes":[],"categories_segments":[],"categories_sizes":[],"default_left":[0,0,0,0,0,0,0,0,0,0,0],"id":37,"left_children":[1,3,-1,-1,5,-1,7,-1,9,-1,-1],"loss_changes":[1.1632249E0,5.5268925E-1,0E0,0E0,6.806753E-1,0E0,2.1505243E-1,0E0,2.0554063E-1,0E0,0E0],"parents":[2147483647,0,0,1,1,4,4,6,6,8,8],"right_children":[2,4,-1,-1,6,-1,8,-1,10,-1,-1],"split_conditions":[2.8131662E10,7.899984E3,1.2892733E-2,-1.1242487E-2,5.188377E9,1.0005165E-2,1.121244E10,-9.099059E-3,1.6945376E10,3.40881E-3,-5.314092E-3],"split_indices":[4,2,0,0,4,0,4,0,4,0,0],"split_type":[0,0,0,0,0,0,0,0,0,0,0],"sum_hessian":[1.77E2,1.48E2,2.9E1,3.6E1,1.12E2,2.5E1,8.7E1,2.8E1,5.9E1,2.8E1,3.1E1],"tree_param":{"num_deleted":"0","num_feature":"6","num_nodes":"11","size_leaf_vector":"1"}},{"base_weights":[-2.6920133E-3,-9.369824E-3,3.354688E-2,5.2023237E-3,1.1004933E-2,5.0305005E-2,-7.1826335E-3,1.1064664E-2,9.400623E-3,6.651795E-3,-5.024012E-3],"categories":[],"categories_nodes":[],"categories_segments":[],"categories_sizes":[],"default_left":[0,0,0,0,0,0,0,0,0,0,0],"id":38,"left_children":[1,-1,3,5,-1,7,-1,9,-1,-1,-1],"loss_changes":[7.74977E-1,0E0,4.3234295E-1,5.012093E-1,0E0,2.223923E-1,0E0,3.1494087E-1,0E0,0E0,0E0],"parents":[2147483647,0,0,2,2,3,3,5,5,7,7],"right_children":[2,-1,4,6,-1,8,-1,10,-1,-1,-1],"split_conditions":[2.003E3,-9.369824E-3,6.708457E4,2.9302E7,1.1004933E-2,3.750267E4,-7.1826335E-3,1.46145E7,9.400623E-3,6.651795E-3,-5.024012E-3],"split_indices":[0,0,2,3,0,2,0,3,0,0,0],"split_type":[0,0,0,0,0,0,0,0,0,0,0],"sum_hessian":[1.73E2,3.9E1,1.34E2,1.08E2,2.6E1,7.5E1,3.3E1,5E1,2.5E1,2.5E1,2.5E1],"tree_param":{"num_deleted":"0","num_feature":"6","num_nodes":"11","size_leaf_vector":"1"}},{"base_weights":[1.3643326E-2,1.2551436E-1,-3.9169006E-2,1.9017716E-3,1.5222746E-2,-1.214209E-2,1.4713501E-2,6.804539E-2,-8.16945E-3,8.481175E-3,3.601208E-4],"categories":[],"categories_nodes":[],"categories_segments":[],"categories_sizes":[],"default_left":[0,0,0,0,0,0,0,0,0,0,0],"id":39,"left_children":[1,3,5,-1,-1,-1,7,9,-1,-1,-1],"loss_changes":[1.0506625E0,4.3704492E-1,8.025258E-1,0E0,0E0,0E0,5.6789577E-1,1.7035541E-1,0E0,0E0,0E0],"parents":[2147483647,0,0,1,1,2,2,6,6,7,7],"right_children":[2,4,6,-1,-1,-1,8,10,-1,-1,-1],"split_conditions":[1E0,2.009E3,1.46145E7,1.9017716E-3,1.5222746E-2,-1.214209E-2,2.9302E7,2.009E3,-8.16945E-3,8.481175E-3,3.601208E-4],"split_indices":[1,0,3,0,0,0,3,0,0,0,0],"split_type":[0,0,0,0,0,0,0,0,0,0,0],"sum_hessian":[1.76E2,5.6E1,1.2E2,2.5E1,3.1E1,3.6E1,8.4E1,5.9E1,2.5E1,3.4E1,2.5E1],"tree_param":{"num_deleted":"0","num_feature":"6","num_nodes":"11","size_leaf_vector":"1"}},{"base_weights":[1.8674721E-3,1.16677254E-1,-5.024678E-2,2.4969878E-3,1.4055903E-2,-1.0301295E-1,1.3026819E-2,-9.7912615E-3,-5.2901637E-3,3.2857896E-3,-1.2062308E-3],"categories":[],"categories_nodes":[],"categories_segments":[],"categories_sizes":[],"default_left":[0,0,0,0,0,0,0,0,0,0,0],"id":40,"left_children":[1,3,5,-1,-1,7,9,-1,-1,-1,-1],"loss_changes":[1.0349774E0,3.1226087E-1,3.9864784E-1,0E0,0E0,4.8923552E-2,4.9990688E-2,0E0,0E0,0E0,0E0],"parents":[2147483647,0,0,1,1,2,2,5,5,6,6],"right_children":[2,4,6,-1,-1,8,10,-1,-1,-1,-1],"split_conditions":[1E0,2.009E3,3.5250906E4,2.4969878E-3,1.4055903E-2,1.912769E4,2.01E3,-9.7912615E-3,-5.2901637E-3,3.2857896E-3,-1.2062308E-3],"split_indices":[1,0,5,0,0,5,0,0,0,0,0],"split_type":[0,0,0,0,0,0,0,0,0,0,0],"sum_hessian":[1.71E2,5.3E1,1.18E2,2.5E1,2.8E1,6.4E1,5.4E1,3.3E1,3.1E1,2.6E1,2.8E1],"tree_param":{"num_deleted":"0","num_feature":"6","num_nodes":"11","size_leaf_vector":"1"}},{"base_weights":[-5.1092944E-4,-3.0634167E-2,1.3431718E-2,3.5487604E-3,-6.604504E-2,-1.0938243E-1,-4.6485156E-4,-6.1248117E-3,-1.0358093E-2],"categories":[],"categories_nodes":[],"categories_segments":[],"categories_sizes":[],"default_left":[0,0,0,0,0,0,0,0,0],"id":41,"left_children":[1,3,-1,-1,5,7,-1,-1,-1],"loss_changes":[9.79313E-1,4.3097338E-1,0E0,0E0,2.768387E-1,3.808719E-2,0E0,0E0,0E0],"parents":[2147483647,0,0,1,1,4,4,5,5],"right_children":[2,4,-1,-1,6,8,-1,-1,-1],"split_conditions":[6.856115E4,1E0,1.3431718E-2,3.5487604E-3,3.4858906E4,2.008E3,-4.6485156E-4,-6.1248117E-3,-1.0358093E-2],"split_indices":[2,1,0,0,2,0,0,0,0],"split_type":[0,0,0,0,0,0,0,0,0],"sum_hessian":[1.79E2,1.54E2,2.5E1,4.8E1,1.06E2,6.1E1,4.5E1,3.3E1,2.8E1],"tree_param":{"num_deleted":"0","num_feature":"6","num_nodes":"9","size_leaf_vector":"1"}},{"base_weights":[1.7949207E-2,-1.8593907E-2,1.6624138E-2,6.3358685E-3,-4.070874E-2,-9.563424E-3,-1.7732726E-2,4.668915E-3,-4.911159E-3,-3.8924415E-3,5.096423E-3],"categories":[],"categories_nodes":[],"categories_segments":[],"categories_sizes":[],"default_left":[0,0,0,0,0,0,0,0,0,0,0],"id":42,"left_children":[1,3,-1,-1,5,-1,7,9,-1,-1,-1],"loss_changes":[1.3217182E0,3.4763193E-1,0E0,0E0,2.4703886E-1,0E0,1.0727219E-1,2.5053447E-1,0E0,0E0,0E0],"parents":[2147483647,0,0,1,1,4,4,6,6,7,7],"right_children":[2,4,-1,-1,6,-1,8,10,-1,-1,-1],"split_conditions":[2.8131662E10,3.0186E8,1.6624138E-2,6.3358685E-3,1.15875E4,-9.563424E-3,1.7028E10,1.121244E10,-4.911159E-3,-3.8924415E-3,5.096423E-3],"split_indices":[4,4,0,0,2,0,4,4,0,0,0],"split_type":[0,0,0,0,0,0,0,0,0,0,0],"sum_hessian":[1.76E2,1.5E2,2.6E1,2.6E1,1.24E2,2.5E1,9.9E1,6.8E1,3.1E1,3.6E1,3.2E1],"tree_param":{"num_deleted":"0","num_feature":"6","num_nodes":"11","size_leaf_vector":"1"}},{"base_weights":[-4.4749193E-3,-2.8619494E-2,1.0403053E-2,-7.4059484E-3,-9.41627E-3,2.4495378E-2,-4.1653225E-3,-3.0331287E-4,4.947598E-3],"categories":[],"categories_nodes":[],"categories_segments":[],"categories_sizes":[],"default_left":[0,0,0,0,0,0,0,0,0],"id":43,"left_children":[1,3,-1,-1,5,7,-1,-1,-1],"loss_changes":[6.227862E-1,2.0645495E-1,0E0,0E0,1.9217469E-1,8.430302E-2,0E0,0E0,0E0],"parents":[2147483647,0,0,1,1,4,4,5,5],"right_children":[2,4,-1,-1,6,8,-1,-1,-1],"split_conditions":[6.8373164E4,7.899984E3,1.0403053E-2,-7.4059484E-3,2.4191666E7,1.8541E7,-4.1653225E-3,-3.0331287E-4,4.947598E-3],"split_indices":[2,2,0,0,3,3,0,0,0],"split_type":[0,0,0,0,0,0,0,0,0],"sum_hessian":[1.78E2,1.53E2,2.5E1,3.2E1,1.21E2,7E1,5.1E1,4.2E1,2.8E1],"tree_param":{"num_deleted":"0","num_feature":"6","num_nodes":"9","size_leaf_vector":"1"}},{"base_weights":[-1.16601605E-2,-1.1189729E-2,2.2310069E-2,-4.162485E-3,1.0237934E-2,-5.2780984E-3,3.751605E-2,8.529564E-3,-1.9483791E-3],"categories":[],"categories_nodes":[],"categories_segments":[],"categories_sizes":[],"default_left":[0,0,0,0,0,0,0,0,0],"id":44,"left_children":[1,-1,3,5,-1,-1,7,-1,-1],"loss_changes":[8.022641E-1,0E0,4.1774943E-1,3.1447792E-1,0E0,0E0,3.4168476E-1,0E0,0E0],"parents":[2147483647,0,0,2,2,3,3,6,6],"right_children":[2,-1,4,6,-1,-1,8,-1,-1],"split_conditions":[7.48272E3,-1.1189729E-2,6.708457E4,2.007E3,1.0237934E-2,-5.2780984E-3,2.233275E7,8.529564E-3,-1.9483791E-3],"split_indices":[5,0,5,0,0,0,3,0,0],"split_type":[0,0,0,0,0,0,0,0,0],"sum_hessian":[1.7E2,3.3E1,1.37E2,1.12E2,2.5E1,4.3E1,6.9E1,3.1E1,3.8E1],"tree_param":{"num_deleted":"0","num_feature":"6","num_nodes":"9","size_leaf_vector":"1"}},{"base_weights":[2.6386593E-2,-2.1034663E-3,1.1955774E-2,6.2901504E-2,-4.696281E-2,-3.0412304E-3,1.0687683E-2,-1.1314527E-2,4.898489E-3,3.7204141E-3,-3.7735463E-3],"categories":[],"categories_nodes":[],"categories_segments":[],"categories_sizes":[],"default_left":[0,0,0,0,0,0,0,0,0,0,0],"id":45,"left_children":[1,3,-1,5,7,-1,-1,-1,9,-1,-1],"loss_changes":[6.446104E-1,4.1412136E-1,0E0,4.8339766E-1,4.5335293E-1,0E0,0E0,0E0,1.4319374E-1,0E0,0E0],"parents":[2147483647,0,0,1,1,3,3,4,4,8,8],"right_children":[2,4,-1,6,8,-1,-1,-1,10,-1,-1],"split_conditions":[2.8131662E10,5.188377E9,1.1955774E-2,2.007E3,1.121244E10,-3.0412304E-3,1.0687683E-2,-1.1314527E-2,1.8152954E10,3.7204141E-3,-3.7735463E-3],"split_indices":[4,4,0,0,4,0,0,0,4,0,0],"split_type":[0,0,0,0,0,0,0,0,0,0,0],"sum_hessian":[1.69E2,1.4E2,2.9E1,5.7E1,8.3E1,2.5E1,3.2E1,2.7E1,5.6E1,3.1E1,2.5E1],"tree_param":{"num_deleted":"0","num_feature":"6","num_nodes":"11","size_leaf_vector":"1"}},{"base_weights":[-1.7201941E-3,-3.4198932E-2,1.2490104E-2,-7.041983E-2,1.5051723E-3,-2.03574E-3,-1.0615669E-2,3.9276476E-3,-2.0352663E-3],"categories":[],"categories_nodes":[],"categories_segments":[],"categories_sizes":[],"default_left":[0,0,0,0,0,0,0,0,0],"id":46,"left_children":[1,3,-1,5,7,-1,-1,-1,-1],"loss_changes":[9.456249E-1,1.8762502E-1,0E0,2.1776971E-1,1.0922682E-1,0E0,0E0,0E0,0E0],"parents":[2147483647,0,0,1,1,3,3,4,4],"right_children":[2,4,-1,6,8,-1,-1,-1,-1],"split_conditions":[2.8131662E10,1.8953666E7,1.2490104E-2,5.5953055E9,2.233275E7,-2.03574E-3,-1.0615669E-2,3.9276476E-3,-2.0352663E-3],"split_indices":[4,3,0,4,3,0,0,0,0],"split_type":[0,0,0,0,0,0,0,0,0],"sum_hessian":[1.71E2,1.44E2,2.7E1,7.1E1,7.3E1,4.5E1,2.6E1,2.6E1,4.7E1],"tree_param":{"num_deleted":"0","num_feature":"6","num_nodes":"9","size_leaf_vector":"1"}},{"base_weights":[3.10563E-3,-7.534745E-3,3.3355724E-2,3.3542244E-3,1.1076124E-2,3.561395E-2,-6.7473585E-3,7.3918316E-4,4.7917822E-3],"categories":[],"categories_nodes":[],"categories_segments":[],"categories_sizes":[],"default_left":[0,0,0,0,0,0,0,0,0],"id":47,"left_children":[1,-1,3,5,-1,7,-1,-1,-1],"loss_changes":[5.265568E-1,0E0,4.453981E-1,3.1629032E-1,0E0,5.6181647E-2,0E0,0E0,0E0],"parents":[2147483647,0,0,2,2,3,3,5,5],"right_children":[2,-1,4,6,-1,8,-1,-1,-1],"split_conditions":[2.003E3,-7.534745E-3,6.708457E4,2.015E3,1.1076124E-2,2.009E3,-6.7473585E-3,7.3918316E-4,4.7917822E-3],"split_indices":[0,0,2,0,0,0,0,0,0],"split_type":[0,0,0,0,0,0,0,0,0],"sum_hessian":[1.66E2,3.7E1,1.29E2,1.03E2,2.6E1,7.7E1,2.6E1,4.1E1,3.6E1],"tree_param":{"num_deleted":"0","num_feature":"6","num_nodes":"9","size_leaf_vector":"1"}},{"base_weights":[8.803712E-3,-1.1418529E-2,8.430046E-3,6.067672E-3,-3.2513317E-2,-5.709318E-2,3.6210364E-3,-8.095676E-3,-2.960528E-4],"categories":[],"categories_nodes":[],"categories_segments":[],"categories_sizes":[],"default_left":[0,0,0,0,0,0,0,0,0],"id":48,"left_children":[1,3,-1,-1,5,7,-1,-1,-1],"loss_changes":[3.720916E-1,2.9280615E-1,0E0,0E0,2.4503635E-1,2.536014E-1,0E0,0E0,0E0],"parents":[2147483647,0,0,1,1,4,4,5,5],"right_children":[2,4,-1,-1,6,8,-1,-1,-1],"split_conditions":[2.8131662E10,3.8148E8,8.430046E-3,6.067672E-3,2.014E3,1.139268E10,3.6210364E-3,-8.095676E-3,-2.960528E-4],"split_indices":[4,4,0,0,0,4,0,0,0],"split_type":[0,0,0,0,0,0,0,0,0],"sum_hessian":[1.76E2,1.48E2,2.8E1,2.7E1,1.21E2,9.3E1,2.8E1,4.7E1,4.6E1],"tree_param":{"num_deleted":"0","num_feature":"6","num_nodes":"9","size_leaf_vector":"1"}},{"base_weights":[1.762488E-3,8.331119E-2,-3.531967E-2,-1.5384014E-3,1.278857E-2,-7.706138E-2,4.3324013E-3,-3.5356225E-3,-7.4404487E-3,6.1252555E-3,-3.9165216E-3],"categories":[],"categories_nodes":[],"categories_segments":[],"categories_sizes":[],"default_left":[0,0,0,0,0,0,0,0,0,0,0],"id":49,"left_children":[1,3,5,-1,-1,7,9,-1,-1,-1,-1],"loss_changes":[5.321428E-1,5.0145125E-1,2.0060642E-1,0E0,0E0,3.441438E-2,2.7980497E-1,0E0,0E0,0E0,0E0],"parents":[2147483647,0,0,1,1,2,2,5,5,6,6],"right_children":[2,4,6,-1,-1,8,10,-1,-1,-1,-1],"split_conditions":[1E0,2.009E3,1.139268E10,-1.5384014E-3,1.278857E-2,2.002E3,2.009E3,-3.5356225E-3,-7.4404487E-3,6.1252555E-3,-3.9165216E-3],"split_indices":[1,0,4,0,0,0,0,0,0,0,0],"split_type":[0,0,0,0,0,0,0,0,0,0,0],"sum_hessian":[1.74E2,5.4E1,1.2E2,2.5E1,2.9E1,5.8E1,6.2E1,2.6E1,3.2E1,2.6E1,3.6E1],"tree_param":{"num_deleted":"0","num_feature":"6","num_nodes":"11","size_leaf_vector":"1"}},{"base_weights":[-1.2621182E-2,-8.656128E-3,5.162007E-3,3.334338E-2,-5.5406163E-3,1.6888168E-2,6.534196E-3,4.3895408E-3,-1.3622154E-3],"categories":[],"categories_nodes":[],"categories_segments":[],"categories_sizes":[],"default_left":[0,0,0,0,0,0,0,0,0],"id":50,"left_children":[1,-1,3,5,-1,7,-1,-1,-1],"loss_changes":[3.2232422E-1,0E0,3.3879584E-1,9.76429E-2,0E0,1.280388E-1,0E0,0E0,0E0],"parents":[2147483647,0,0,2,2,3,3,5,5],"right_children":[2,-1,4,6,-1,8,-1,-1,-1],"split_conditions":[4.8024653E3,-8.656128E-3,3.1155666E7,2.421825E7,-5.5406163E-3,2.755561E4,6.534196E-3,4.3895408E-3,-1.3622154E-3],"split_indices":[2,0,3,3,0,2,0,0,0],"split_type":[0,0,0,0,0,0,0,0,0],"sum_hessian":[1.75E2,2.5E1,1.5E2,1.11E2,3.9E1,8.6E1,2.5E1,3.9E1,4.7E1],"tree_param":{"num_deleted":"0","num_feature":"6","num_nodes":"9","size_leaf_vector":"1"}},{"base_weights":[4.6674577E-3,-1.8387923E-2,9.943502E-3,1.8537158E-2,-1.0868462E-2,6.5744626E-3,-6.305714E-3,-8.253745E-3,3.730163E-2,-1.2346554E-3,7.7380543E-3],"categories":[],"categories_nodes":[],"categories_segments":[],"categories_sizes":[],"default_left":[0,0,0,0,0,0,0,0,0,0,0],"id":51,"left_children":[1,3,-1,5,-1,-1,7,-1,9,-1,-1],"loss_changes":[5.214748E-1,7.034776E-1,0E0,2.0146486E-1,0E0,0E0,3.9769384E-1,0E0,2.2127427E-1,0E0,0E0],"parents":[2147483647,0,0,1,1,3,3,6,6,8,8],"right_children":[2,4,-1,6,-1,-1,8,-1,10,-1,-1],"split_conditions":[6.708457E4,2.9764166E7,9.943502E-3,1E0,-1.0868462E-2,6.5744626E-3,1.3101E7,-8.253745E-3,3.6521363E4,-1.2346554E-3,7.7380543E-3],"split_indices":[2,3,0,1,0,0,3,0,2,0,0],"split_type":[0,0,0,0,0,0,0,0,0,0,0],"sum_hessian":[1.75E2,1.49E2,2.6E1,1.16E2,3.3E1,3E1,8.6E1,2.5E1,6.1E1,3.4E1,2.7E1],"tree_param":{"num_deleted":"0","num_feature":"6","num_nodes":"11","size_leaf_vector":"1"}},{"base_weights":[4.871481E-3,-1.9451102E-2,1.0945665E-2,6.3933227E-3,-4.090054E-2,-7.459836E-2,-1.6212907E-2,-2.010551E-3,-8.971985E-3,-4.459562E-3,2.148154E-3],"categories":[],"categories_nodes":[],"categories_segments":[],"categories_sizes":[],"default_left":[0,0,0,0,0,0,0,0,0,0,0],"id":52,"left_children":[1,3,-1,-1,5,7,9,-1,-1,-1,-1],"loss_changes":[6.0673064E-1,3.4258083E-1,0E0,0E0,1.0361241E-1,1.1084589E-1,1.4525446E-1,0E0,0E0,0E0,0E0],"parents":[2147483647,0,0,1,1,4,4,5,5,6,6],"right_children":[2,4,-1,-1,6,8,10,-1,-1,-1,-1],"split_conditions":[2.7850367E10,3.8148E8,1.0945665E-2,6.3933227E-3,1.8953666E7,5.5953055E9,3.6521363E4,-2.010551E-3,-8.971985E-3,-4.459562E-3,2.148154E-3],"split_indices":[4,4,0,0,3,4,2,0,0,0,0],"split_type":[0,0,0,0,0,0,0,0,0,0,0],"sum_hessian":[1.75E2,1.5E2,2.5E1,2.5E1,1.25E2,5.2E1,7.3E1,2.6E1,2.6E1,3.7E1,3.6E1],"tree_param":{"num_deleted":"0","num_feature":"6","num_nodes":"11","size_leaf_vector":"1"}},{"base_weights":[-8.056475E-4,9.149603E-2,-4.1132383E-2,1.0334514E-2,3.2643396E-3,-6.5137126E-2,-1.876091E-2,-6.2064687E-3,-3.659158E-3,1.9280146E-3,-4.4973865E-3],"categories":[],"categories_nodes":[],"categories_segments":[],"categories_sizes":[],"default_left":[0,0,0,0,0,0,0,0,0,0,0],"id":53,"left_children":[1,3,5,-1,-1,7,9,-1,-1,-1,-1],"loss_changes":[6.365418E-1,1.0949248E-1,6.268352E-2,0E0,0E0,1.2377948E-2,1.1697392E-1,0E0,0E0,0E0,0E0],"parents":[2147483647,0,0,1,1,2,2,5,5,6,6],"right_children":[2,4,6,-1,-1,8,10,-1,-1,-1,-1],"split_conditions":[1E0,2.6594988E4,1.139268E10,1.0334514E-2,3.2643396E-3,3.210876E9,5.29327E4,-6.2064687E-3,-3.659158E-3,1.9280146E-3,-4.4973865E-3],"split_indices":[1,5,4,0,0,4,5,0,0,0,0],"split_type":[0,0,0,0,0,0,0,0,0,0,0],"sum_hessian":[1.69E2,5.1E1,1.18E2,2.5E1,2.6E1,5.6E1,6.2E1,2.5E1,3.1E1,3E1,3.2E1],"tree_param":{"num_deleted":"0","num_feature":"6","num_nodes":"11","size_leaf_vector":"1"}},{"base_weights":[-7.310805E-5,-8.388324E-3,2.709401E-2,7.0133083E-3,-2.516036E-4,2.3279088E-2,-3.497512E-3,5.651074E-4,3.6770983E-3],"categories":[],"categories_nodes":[],"categories_segments":[],"categories_sizes":[],"default_left":[0,0,0,0,0,0,0,0,0],"id":54,"left_children":[1,-1,3,-1,5,7,-1,-1,-1],"loss_changes":[5.435276E-1,0E0,2.615574E-1,0E0,1.13499574E-1,2.7603101E-2,0E0,0E0,0E0],"parents":[2147483647,0,0,2,2,4,4,5,5],"right_children":[2,-1,4,-1,6,8,-1,-1,-1],"split_conditions":[7.899984E3,-8.388324E-3,1E0,7.0133083E-3,5.26707E4,3.3735543E4,-3.497512E-3,5.651074E-4,3.6770983E-3],"split_indices":[2,0,1,0,2,2,0,0,0],"split_type":[0,0,0,0,0,0,0,0,0],"sum_hessian":[1.77E2,3.4E1,1.43E2,4.1E1,1.02E2,6.8E1,3.4E1,4.3E1,2.5E1],"tree_param":{"num_deleted":"0","num_feature":"6","num_nodes":"9","size_leaf_vector":"1"}},{"base_weights":[-8.247702E-3,-8.978974E-3,2.0058531E-2,1.1248262E-2,-8.023568E-3,-3.885428E-2,7.5564017E-3,-7.577493E-3,-8.601941E-3,3.8780116E-3,-4.88326E-3],"categories":[],"categories_nodes":[],"categories_segments":[],"categories_sizes":[],"default_left":[0,0,0,0,0,0,0,0,0,0,0],"id":55,"left_children":[1,-1,3,-1,5,7,-1,-1,9,-1,-1],"loss_changes":[5.766753E-1,0E0,5.338665E-1,0E0,4.097037E-1,1.7783146E-1,0E0,0E0,2.2488268E-1,0E0,0E0],"parents":[2147483647,0,0,2,2,4,4,5,5,8,8],"right_children":[2,-1,4,-1,6,8,-1,-1,10,-1,-1],"split_conditions":[7.43672E3,-8.978974E-3,5.188377E9,1.1248262E-2,2.014E3,1.139268E10,7.5564017E-3,-7.577493E-3,2.009E3,3.8780116E-3,-4.88326E-3],"split_indices":[2,0,4,0,0,4,0,0,0,0,0],"split_type":[0,0,0,0,0,0,0,0,0,0,0],"sum_hessian":[1.81E2,3.6E1,1.45E2,2.5E1,1.2E2,9.4E1,2.6E1,3E1,6.4E1,3.1E1,3.3E1],"tree_param":{"num_deleted":"0","num_feature":"6","num_nodes":"11","size_leaf_vector":"1"}},{"base_weights":[-5.697715E-3,7.8591056E-2,-4.608259E-2,9.919878E-4,1.2078379E-2,-8.562451E-3,-1.5463378E-2,2.908788E-2,-8.954456E-3,-5.078656E-5,3.9558555E-3],"categories":[],"categories_nodes":[],"categories_segments":[],"categories_sizes":[],"default_left":[0,0,0,0,0,0,0,0,0,0,0],"id":56,"left_children":[1,3,5,-1,-1,-1,7,9,-1,-1,-1],"loss_changes":[6.197441E-1,3.1585443E-1,2.5464782E-1,0E0,0E0,0E0,4.0166867E-1,4.298869E-2,0E0,0E0,0E0],"parents":[2147483647,0,0,1,1,2,2,6,6,7,7],"right_children":[2,4,6,-1,-1,-1,8,10,-1,-1,-1],"split_conditions":[1E0,2.498975E7,1.46145E7,9.919878E-4,1.2078379E-2,-8.562451E-3,2.86825E7,3.750267E4,-8.954456E-3,-5.078656E-5,3.9558555E-3],"split_indices":[1,3,3,0,0,0,3,5,0,0,0],"split_type":[0,0,0,0,0,0,0,0,0,0,0],"sum_hessian":[1.8E2,5.8E1,1.22E2,3.3E1,2.5E1,3.7E1,8.5E1,6E1,2.5E1,2.7E1,3.3E1],"tree_param":{"num_deleted":"0","num_feature":"6","num_nodes":"11","size_leaf_vector":"1"}},{"base_weights":[2.2794267E-3,-5.932357E-2,3.3328943E-2,-1.0391476E-2,1.443175E-3,7.4560368E-3,1.0917558E-2,-5.638427E-2,1.2192412E-2,3.353629E-3,-9.587566E-3],"categories":[],"categories_nodes":[],"categories_segments":[],"categories_sizes":[],"default_left":[0,0,0,0,0,0,0,0,0,0,0],"id":57,"left_children":[1,3,5,-1,-1,-1,7,9,-1,-1,-1],"loss_changes":[3.30969E-1,3.6370054E-1,1.6923584E-1,0E0,0E0,0E0,8.97104E-1,4.4635212E-1,0E0,0E0,0E0],"parents":[2147483647,0,0,1,1,2,2,6,6,7,7],"right_children":[2,4,6,-1,-1,-1,8,10,-1,-1,-1],"split_conditions":[2.006E3,1.5256E7,1.52635E7,-1.0391476E-2,1.443175E-3,7.4560368E-3,2.014E3,2.009E3,1.2192412E-2,3.353629E-3,-9.587566E-3],"split_indices":[0,3,3,0,0,0,0,0,0,0,0],"split_type":[0,0,0,0,0,0,0,0,0,0,0],"sum_hessian":[1.71E2,5.7E1,1.14E2,2.8E1,2.9E1,2.8E1,8.6E1,6E1,2.6E1,2.5E1,3.5E1],"tree_param":{"num_deleted":"0","num_feature":"6","num_nodes":"11","size_leaf_vector":"1"}},{"base_weights":[-7.4666664E-3,5.694429E-2,-3.8256228E-2,1.08680055E-4,7.519099E-3,-8.45971E-3,-7.113257E-3,3.1902194E-2,-6.907934E-3,-6.261192E-4,4.7900733E-3],"categories":[],"categories_nodes":[],"categories_segments":[],"categories_sizes":[],"default_left":[0,0,0,0,0,0,0,0,0,0,0],"id":58,"left_children":[1,3,5,-1,-1,-1,7,9,-1,-1,-1],"loss_changes":[3.4923583E-1,1.3685524E-1,2.754435E-1,0E0,0E0,0E0,2.8480023E-1,7.644398E-2,0E0,0E0,0E0],"parents":[2147483647,0,0,1,1,2,2,6,6,7,7],"right_children":[2,4,6,-1,-1,-1,8,10,-1,-1,-1],"split_conditions":[1E0,2.2474928E4,1.46145E7,1.08680055E-4,7.519099E-3,-8.45971E-3,2.9302E7,3.6631363E4,-6.907934E-3,-6.261192E-4,4.7900733E-3],"split_indices":[1,5,3,0,0,0,3,5,0,0,0],"split_type":[0,0,0,0,0,0,0,0,0,0,0],"sum_hessian":[1.74E2,5.6E1,1.18E2,2.5E1,3.1E1,3.4E1,8.4E1,5.8E1,2.6E1,2.6E1,3.2E1],"tree_param":{"num_deleted":"0","num_feature":"6","num_nodes":"11","size_leaf_vector":"1"}},{"base_weights":[-7.0705907E-3,4.722696E-2,-3.439705E-2,-1.4009317E-3,7.7329166E-3,-6.3112904E-3,-5.4223775E-3,-3.4061563E-3,2.3871255E-3],"categories":[],"categories_nodes":[],"categories_segments":[],"categories_sizes":[],"default_left":[0,0,0,0,0,0,0,0,0],"id":59,"left_children":[1,3,5,-1,-1,7,-1,-1,-1],"loss_changes":[2.5237986E-1,2.1184196E-1,1.1983079E-1,0E0,0E0,9.9879004E-2,0E0,0E0,0E0],"parents":[2147483647,0,0,1,1,2,2,5,5],"right_children":[2,4,6,-1,-1,8,-1,-1,-1],"split_conditions":[1E0,2.009E3,2.01E3,-1.4009317E-3,7.7329166E-3,2.003E3,-5.4223775E-3,-3.4061563E-3,2.3871255E-3],"split_indices":[1,0,0,0,0,0,0,0,0],"split_type":[0,0,0,0,0,0,0,0,0],"sum_hessian":[1.68E2,5.6E1,1.12E2,2.6E1,3E1,6.5E1,4.7E1,3.2E1,3.3E1],"tree_param":{"num_deleted":"0","num_feature":"6","num_nodes":"9","size_leaf_vector":"1"}},{"base_weights":[1.3460959E-2,-6.0085603E-3,3.7461657E-2,6.9178496E-3,1.2643273E-2,-1.4182356E-2,5.8311573E-3,-3.7719614E-3,6.7971536E-4],"categories":[],"categories_nodes":[],"categories_segments":[],"categories_sizes":[],"default_left":[0,0,0,0,0,0,0,0,0],"id":60,"left_children":[1,-1,3,-1,5,7,-1,-1,-1],"loss_changes":[3.7356937E-1,0E0,1.7828257E-1,0E0,1.6178025E-1,5.5855915E-2,0E0,0E0,0E0],"parents":[2147483647,0,0,2,2,4,4,5,5],"right_children":[2,-1,4,-1,6,8,-1,-1,-1],"split_conditions":[7.899984E3,-6.0085603E-3,2.6520268E4,6.9178496E-3,6.708457E4,3.750267E4,5.8311573E-3,-3.7719614E-3,6.7971536E-4],"split_indices":[2,0,2,0,2,2,0,0,0],"split_type":[0,0,0,0,0,0,0,0,0],"sum_hessian":[1.64E2,3.3E1,1.31E2,4E1,9.1E1,6.5E1,2.6E1,2.5E1,4E1],"tree_param":{"num_deleted":"0","num_feature":"6","num_nodes":"9","size_leaf_vector":"1"}},{"base_weights":[3.3312454E-3,-2.013511E-2,1.0326255E-2,-1.7753692E-3,-6.967718E-3,-5.354554E-3,2.6578458E-2,9.2714075E-3,-1.7532652E-2,-5.7096034E-3,2.7087987E-3],"categories":[],"categories_nodes":[],"categories_segments":[],"categories_sizes":[],"default_left":[0,0,0,0,0,0,0,0,0,0,0],"id":61,"left_children":[1,3,-1,5,-1,-1,7,-1,9,-1,-1],"loss_changes":[5.5135167E-1,1.988987E-1,0E0,2.3877226E-1,0E0,0E0,3.7029517E-1,0E0,1.91368E-1,0E0,0E0],"parents":[2147483647,0,0,1,1,3,3,6,6,8,8],"right_children":[2,4,-1,6,-1,-1,8,-1,10,-1,-1],"split_conditions":[2.8131662E10,1.7028E10,1.0326255E-2,7.899984E3,-6.967718E-3,-5.354554E-3,5.188377E9,9.2714075E-3,1.121244E10,-5.7096034E-3,2.7087987E-3],"split_indices":[4,4,0,5,0,0,4,0,4,0,0],"split_type":[0,0,0,0,0,0,0,0,0,0,0],"sum_hessian":[1.73E2,1.48E2,2.5E1,1.19E2,2.9E1,3.4E1,8.5E1,2.6E1,5.9E1,2.8E1,3.1E1],"tree_param":{"num_deleted":"0","num_feature":"6","num_nodes":"11","size_leaf_vector":"1"}},{"base_weights":[1.3326706E-3,6.8784095E-3,-1.4553806E-2,-3.323938E-2,3.3376804E-3,3.550795E-3,-7.344984E-3,-3.6184464E-3,5.646252E-3],"categories":[],"categories_nodes":[],"categories_segments":[],"categories_sizes":[],"default_left":[0,0,0,0,0,0,0,0,0],"id":62,"left_children":[1,-1,3,5,-1,7,-1,-1,-1],"loss_changes":[2.4973007E-1,0E0,1.6479708E-1,2.6929834E-1,0E0,2.7486458E-1,0E0,0E0,0E0],"parents":[2147483647,0,0,2,2,3,3,5,5],"right_children":[2,-1,4,6,-1,8,-1,-1,-1],"split_conditions":[3.8148E8,6.8784095E-3,2.014E3,2.009E3,3.3376804E-3,1.139268E10,-7.344984E-3,-3.6184464E-3,5.646252E-3],"split_indices":[4,0,0,0,0,4,0,0,0],"split_type":[0,0,0,0,0,0,0,0,0],"sum_hessian":[1.72E2,2.5E1,1.47E2,1.12E2,3.5E1,7.2E1,4E1,4.2E1,3E1],"tree_param":{"num_deleted":"0","num_feature":"6","num_nodes":"9","size_leaf_vector":"1"}},{"base_weights":[3.629561E-3,-1.1103576E-2,6.466665E-3,1.2283514E-2,-6.2179007E-3,-1.4987604E-2,5.0423117E-3,3.135284E-3,-3.8774738E-3],"categories":[],"categories_nodes":[],"categories_segments":[],"categories_sizes":[],"default_left":[0,0,0,0,0,0,0,0,0],"id":63,"left_children":[1,3,-1,5,-1,7,-1,-1,-1],"loss_changes":[2.090385E-1,2.4618661E-1,0E0,1.673383E-1,0E0,1.5853085E-1,0E0,0E0,0E0],"parents":[2147483647,0,0,1,1,3,3,5,5],"right_children":[2,4,-1,6,-1,8,-1,-1,-1],"split_conditions":[6.892915E4,2.9764166E7,6.466665E-3,2.009E3,-6.2179007E-3,2E3,5.0423117E-3,3.135284E-3,-3.8774738E-3],"split_indices":[5,3,0,0,0,0,0,0,0],"split_type":[0,0,0,0,0,0,0,0,0],"sum_hessian":[1.7E2,1.45E2,2.5E1,1.1E2,3.5E1,7.4E1,3.6E1,2.9E1,4.5E1],"tree_param":{"num_deleted":"0","num_feature":"6","num_nodes":"9","size_leaf_vector":"1"}},{"base_weights":[2.8949005E-3,-1.765651E-2,8.715077E-3,4.4193726E-2,-5.8693822E-2,-2.1439833E-3,1.05350455E-2,-9.63189E-3,-2.9898288E-2,7.8434264E-4,-6.81261E-3],"categories":[],"categories_nodes":[],"categories_segments":[],"categories_sizes":[],"default_left":[0,0,0,0,0,0,0,0,0,0,0],"id":64,"left_children":[1,3,-1,5,7,-1,-1,-1,9,-1,-1],"loss_changes":[4.0955687E-1,3.8078088E-1,0E0,4.244238E-1,1.7687601E-1,0E0,0E0,0E0,1.607957E-1,0E0,0E0],"parents":[2147483647,0,0,1,1,3,3,4,4,8,8],"right_children":[2,4,-1,6,8,-1,-1,-1,10,-1,-1],"split_conditions":[2.8131662E10,5.188377E9,8.715077E-3,7.1801396E3,2.9223635E4,-2.1439833E-3,1.05350455E-2,-9.63189E-3,5.618998E4,7.8434264E-4,-6.81261E-3],"split_indices":[4,4,0,2,2,0,0,0,2,0,0],"split_type":[0,0,0,0,0,0,0,0,0,0,0],"sum_hessian":[1.74E2,1.48E2,2.6E1,5.9E1,8.9E1,3.4E1,2.5E1,2.5E1,6.4E1,3.9E1,2.5E1],"tree_param":{"num_deleted":"0","num_feature":"6","num_nodes":"11","size_leaf_vector":"1"}},{"base_weights":[-5.1497654E-3,4.7906865E-3,-1.7241085E-2,-4.920978E-2,5.502683E-3,-1.076458E-2,-8.716483E-3,-2.959557E-3,2.2326666E-3],"categories":[],"categories_nodes":[],"categories_segments":[],"categories_sizes":[],"default_left":[0,0,0,0,0,0,0,0,0],"id":65,"left_children":[1,-1,3,5,-1,7,-1,-1,-1],"loss_changes":[1.4548889E-1,0E0,4.3232056E-1,2.8213236E-1,0E0,8.375876E-2,0E0,0E0,0E0],"parents":[2147483647,0,0,2,2,3,3,5,5],"right_children":[2,-1,4,6,-1,8,-1,-1,-1],"split_conditions":[3.8148E8,4.7906865E-3,2.014E3,2.009E3,5.502683E-3,1.139268E10,-8.716483E-3,-2.959557E-3,2.2326666E-3],"split_indices":[4,0,0,0,0,4,0,0,0],"split_type":[0,0,0,0,0,0,0,0,0],"sum_hessian":[1.72E2,2.5E1,1.47E2,1.09E2,3.8E1,7E1,3.9E1,4.1E1,2.9E1],"tree_param":{"num_deleted":"0","num_feature":"6","num_nodes":"9","size_leaf_vector":"1"}},{"base_weights":[-3.970322E-3,-7.741592E-3,1.9412026E-2,4.0576807E-3,6.316249E-3,5.546283E-3,-1.7119871E-2,-3.9100773E-3,-1.078019E-3,2.8026486E-3,-3.0577732E-3],"categories":[],"categories_nodes":[],"categories_segments":[],"categories_sizes":[],"default_left":[0,0,0,0,0,0,0,0,0,0,0],"id":66,"left_children":[1,-1,3,5,-1,-1,7,-1,9,-1,-1],"loss_changes":[3.8956383E-1,0E0,1.349827E-1,1.6556351E-1,0E0,0E0,4.8249766E-2,0E0,9.30857E-2,0E0,0E0],"parents":[2147483647,0,0,2,2,3,3,6,6,8,8],"right_children":[2,-1,4,6,-1,-1,8,-1,10,-1,-1],"split_conditions":[7.899984E3,-7.741592E-3,2.7850367E10,5.188377E9,6.316249E-3,5.546283E-3,1.121244E10,-3.9100773E-3,1.7028E10,2.8026486E-3,-3.0577732E-3],"split_indices":[5,0,4,4,0,0,4,0,4,0,0],"split_type":[0,0,0,0,0,0,0,0,0,0,0],"sum_hessian":[1.66E2,3.1E1,1.35E2,1.1E2,2.5E1,2.5E1,8.5E1,2.6E1,5.9E1,3E1,2.9E1],"tree_param":{"num_deleted":"0","num_feature":"6","num_nodes":"11","size_leaf_vector":"1"}},{"base_weights":[2.7656686E-3,-1.0147792E-2,5.7870024E-3,1.5746439E-2,-8.568721E-3,-6.7831427E-3,3.340601E-2,1.8477308E-3,-2.603887E-3,5.193338E-3,6.0871243E-4],"categories":[],"categories_nodes":[],"categories_segments":[],"categories_sizes":[],"default_left":[0,0,0,0,0,0,0,0,0,0,0],"id":67,"left_children":[1,3,-1,5,-1,7,9,-1,-1,-1,-1],"loss_changes":[1.6890353E-1,4.0614447E-1,0E0,4.8368E-2,0E0,4.8252016E-2,6.106981E-2,0E0,0E0,0E0,0E0],"parents":[2147483647,0,0,1,1,3,3,5,5,6,6],"right_children":[2,4,-1,6,-1,8,10,-1,-1,-1,-1],"split_conditions":[6.935971E4,3.121075E7,5.7870024E-3,1.9729166E4,-8.568721E-3,5.258025E3,3.225781E4,1.8477308E-3,-2.603887E-3,5.193338E-3,6.0871243E-4],"split_indices":[2,3,0,2,0,2,2,0,0,0,0],"split_type":[0,0,0,0,0,0,0,0,0,0,0],"sum_hessian":[1.74E2,1.49E2,2.5E1,1.2E2,2.9E1,5.3E1,6.7E1,2.5E1,2.8E1,2.7E1,4E1],"tree_param":{"num_deleted":"0","num_feature":"6","num_nodes":"11","size_leaf_vector":"1"}},{"base_weights":[-7.7749086E-3,8.804622E-3,-5.9161154E-3,5.2228E-3,-2.013465E-2,3.5879277E-3,-6.132789E-3,-1.253396E-3,2.0602474E-3],"categories":[],"categories_nodes":[],"categories_segments":[],"categories_sizes":[],"default_left":[0,0,0,0,0,0,0,0,0],"id":68,"left_children":[1,3,-1,-1,5,7,-1,-1,-1],"loss_changes":[2.0582564E-1,2.5138664E-1,0E0,0E0,1.4212304E-1,3.4880042E-2,0E0,0E0,0E0],"parents":[2147483647,0,0,1,1,4,4,5,5],"right_children":[2,4,-1,-1,6,8,-1,-1,-1],"split_conditions":[2.015E3,1E0,-5.9161154E-3,5.2228E-3,5.26707E4,2.8984143E4,-6.132789E-3,-1.253396E-3,2.0602474E-3],"split_indices":[0,1,0,0,2,2,0,0,0],"split_type":[0,0,0,0,0,0,0,0,0],"sum_hessian":[1.73E2,1.41E2,3.2E1,4.5E1,9.6E1,7E1,2.6E1,3.8E1,3.2E1],"tree_param":{"num_deleted":"0","num_feature":"6","num_nodes":"9","size_leaf_vector":"1"}},{"base_weights":[2.3575375E-4,1.9038716E-2,-4.828151E-3,-5.9952405E-3,9.244238E-3,2.9778909E-2,-3.780604E-3,-1.8802934E-3,5.780819E-3],"categories":[],"categories_nodes":[],"categories_segments":[],"categories_sizes":[],"default_left":[0,0,0,0,0,0,0,0,0],"id":69,"left_children":[1,3,-1,5,-1,7,-1,-1,-1],"loss_changes":[2.1018496E-1,3.5034275E-1,0E0,1.7468363E-1,0E0,1.6018516E-1,0E0,0E0,0E0],"parents":[2147483647,0,0,1,1,3,3,5,5],"right_children":[2,4,-1,6,-1,8,-1,-1,-1],"split_conditions":[3.2443E7,2.4969E7,-4.828151E-3,1.7728E7,9.244238E-3,2.005E3,-3.780604E-3,-1.8802934E-3,5.780819E-3],"split_indices":[3,3,0,3,0,0,0,0,0],"split_type":[0,0,0,0,0,0,0,0,0],"sum_hessian":[1.71E2,1.33E2,3.8E1,1.08E2,2.5E1,6E1,4.8E1,2.8E1,3.2E1],"tree_param":{"num_deleted":"0","num_feature":"6","num_nodes":"9","size_leaf_vector":"1"}},{"base_weights":[4.7540534E-3,-1.2019209E-2,6.5474743E-3,1.0974606E-2,-6.9091474E-3,8.019941E-3,-1.7828625E-2,-3.6354044E-3,-4.6905936E-3,1.5786977E-3,-3.0855031E-3],"categories":[],"categories_nodes":[],"categories_segments":[],"categories_sizes":[],"default_left":[0,0,0,0,0,0,0,0,0,0,0],"id":70,"left_children":[1,3,-1,5,-1,-1,7,-1,9,-1,-1],"loss_changes":[2.3780885E-1,2.643981E-1,0E0,3.114631E-1,0E0,0E0,3.4798346E-2,0E0,5.9034675E-2,0E0,0E0],"parents":[2147483647,0,0,1,1,3,3,6,6,8,8],"right_children":[2,4,-1,6,-1,-1,8,-1,10,-1,-1],"split_conditions":[2.8131662E10,2.013E3,6.5474743E-3,3.8148E8,-6.9091474E-3,8.019941E-3,2.2667703E4,-3.6354044E-3,4.256734E4,1.5786977E-3,-3.0855031E-3],"split_indices":[4,0,0,4,0,0,5,0,5,0,0],"split_type":[0,0,0,0,0,0,0,0,0,0,0],"sum_hessian":[1.7E2,1.42E2,2.8E1,1.11E2,3.1E1,2.5E1,8.6E1,2.5E1,6.1E1,3.6E1,2.5E1],"tree_param":{"num_deleted":"0","num_feature":"6","num_nodes":"11","size_leaf_vector":"1"}},{"base_weights":[4.1080808E-4,-1.3127623E-2,5.5780495E-3,4.3217125E-3,-6.838559E-3,-4.6085387E-2,5.5460326E-2,-7.2919615E-3,3.6766357E-4,9.436228E-3,1.965377E-4],"categories":[],"categories_nodes":[],"categories_segments":[],"categories_sizes":[],"default_left":[0,0,0,0,0,0,0,0,0,0,0],"id":71,"left_children":[1,3,-1,5,-1,7,9,-1,-1,-1,-1],"loss_changes":[1.8121852E-1,2.0877635E-1,0E0,3.2735232E-1,0E0,1.673594E-1,2.3387918E-1,0E0,0E0,0E0,0E0],"parents":[2147483647,0,0,1,1,3,3,5,5,6,6],"right_children":[2,4,-1,6,-1,8,10,-1,-1,-1,-1],"split_conditions":[2.8131662E10,2.015E3,5.5780495E-3,2.007E3,-6.838559E-3,1.5256E7,7.319592E9,-7.2919615E-3,3.6766357E-4,9.436228E-3,1.965377E-4],"split_indices":[4,0,0,0,0,3,4,0,0,0,0],"split_type":[0,0,0,0,0,0,0,0,0,0,0],"sum_hessian":[1.79E2,1.52E2,2.7E1,1.25E2,2.7E1,6.3E1,6.2E1,3.1E1,3.2E1,2.6E1,3.6E1],"tree_param":{"num_deleted":"0","num_feature":"6","num_nodes":"11","size_leaf_vector":"1"}},{"base_weights":[-3.543023E-3,-6.0455557E-3,1.4142169E-2,5.529249E-3,-1.19539965E-2,-4.0525147E-3,2.017451E-2,-1.7706171E-3,5.348847E-3],"categories":[],"categories_nodes":[],"categories_segments":[],"categories_sizes":[],"default_left":[0,0,0,0,0,0,0,0,0],"id":72,"left_children":[1,-1,3,-1,5,-1,7,-1,-1],"loss_changes":[2.4101007E-1,0E0,2.2477818E-1,0E0,1.376373E-1,0E0,1.315573E-1,0E0,0E0],"parents":[2147483647,0,0,2,2,4,4,6,6],"right_children":[2,-1,4,-1,6,-1,8,-1,-1],"split_conditions":[7.43672E3,-6.0455557E-3,1.7728E7,5.529249E-3,2.498975E7,-4.0525147E-3,5.542671E4,-1.7706171E-3,5.348847E-3],"split_indices":[2,0,3,0,3,0,2,0,0],"split_type":[0,0,0,0,0,0,0,0,0],"sum_hessian":[1.75E2,3.2E1,1.43E2,4.3E1,1E2,4.3E1,5.7E1,3.1E1,2.6E1],"tree_param":{"num_deleted":"0","num_feature":"6","num_nodes":"9","size_leaf_vector":"1"}},{"base_weights":[-9.552135E-4,-7.442771E-3,2.2384731E-2,4.9602017E-3,4.039403E-3,-1.3833895E-2,3.916043E-3,-2.3084683E-3,-3.2750834E-4],"categories":[],"categories_nodes":[],"categories_segments":[],"categories_sizes":[],"default_left":[0,0,0,0,0,0,0,0,0],"id":73,"left_children":[1,-1,3,-1,5,7,-1,-1,-1],"loss_changes":[3.944766E-1,0E0,1.1129864E-1,0E0,8.596499E-2,1.15767475E-2,0E0,0E0,0E0],"parents":[2147483647,0,0,2,2,4,4,5,5],"right_children":[2,-1,4,-1,6,8,-1,-1,-1],"split_conditions":[7.48272E3,-7.442771E-3,2.6520268E4,4.9602017E-3,6.708457E4,3.8320074E4,3.916043E-3,-2.3084683E-3,-3.2750834E-4],"split_indices":[5,0,5,0,5,5,0,0,0],"split_type":[0,0,0,0,0,0,0,0,0],"sum_hessian":[1.7E2,3.2E1,1.38E2,4E1,9.8E1,7.2E1,2.6E1,2.5E1,4.7E1],"tree_param":{"num_deleted":"0","num_feature":"6","num_nodes":"9","size_leaf_vector":"1"}},{"base_weights":[9.185847E-4,-1.5567134E-2,7.0092683E-3,-5.2979466E-2,2.4699124E-2,-6.5463143E-3,-1.7348089E-3,7.4228705E-3,-1.7344895E-3],"categories":[],"categories_nodes":[],"categories_segments":[],"categories_sizes":[],"default_left":[0,0,0,0,0,0,0,0,0],"id":74,"left_children":[1,3,-1,5,7,-1,-1,-1,-1],"loss_changes":[2.6232573E-1,2.212509E-1,0E0,7.58013E-2,2.5449005E-1,0E0,0E0,0E0,0E0],"parents":[2147483647,0,0,1,1,3,3,4,4],"right_children":[2,4,-1,6,8,-1,-1,-1,-1],"split_conditions":[2.808435E10,2.008E3,7.0092683E-3,6.3889085E9,4.253074E9,-6.5463143E-3,-1.7348089E-3,7.4228705E-3,-1.7344895E-3],"split_indices":[4,0,0,4,4,0,0,0,0],"split_type":[0,0,0,0,0,0,0,0,0],"sum_hessian":[1.7E2,1.45E2,2.5E1,7.5E1,7E1,3.4E1,4.1E1,2.7E1,4.3E1],"tree_param":{"num_deleted":"0","num_feature":"6","num_nodes":"9","size_leaf_vector":"1"}},{"base_weights":[1.4797287E-3,-5.1540905E-3,1.9019688E-2,6.7515774E-3,2.6124339E-3,-1.6877884E-2,4.9397E-3,-5.8819777E-3,1.0313296E-2,-1.843809E-3,2.4985347E-3],"categories":[],"categories_nodes":[],"categories_segments":[],"categories_sizes":[],"default_left":[0,0,0,0,0,0,0,0,0,0,0],"id":75,"left_children":[1,-1,3,-1,5,7,-1,-1,9,-1,-1],"loss_changes":[2.2171359E-1,0E0,1.6751575E-1,0E0,1.4657813E-1,1.5310425E-1,0E0,0E0,5.21891E-2,0E0,0E0],"parents":[2147483647,0,0,2,2,4,4,5,5,8,8],"right_children":[2,-1,4,-1,6,8,-1,-1,10,-1,-1],"split_conditions":[7.899984E3,-5.1540905E-3,5.5953055E9,6.7515774E-3,2.8131662E10,1.8953666E7,4.9397E-3,-5.8819777E-3,3.6631363E4,-1.843809E-3,2.4985347E-3],"split_indices":[5,0,4,0,4,3,0,0,5,0,0],"split_type":[0,0,0,0,0,0,0,0,0,0,0],"sum_hessian":[1.78E2,3.5E1,1.43E2,2.6E1,1.17E2,9E1,2.7E1,2.7E1,6.3E1,2.5E1,3.8E1],"tree_param":{"num_deleted":"0","num_feature":"6","num_nodes":"11","size_leaf_vector":"1"}},{"base_weights":[-3.856702E-3,-4.760867E-3,2.0319425E-2,6.789802E-3,1.0922116E-3,-2.075474E-2,3.73855E-3,-4.540084E-3,1.138614E-3],"categories":[],"categories_nodes":[],"categories_segments":[],"categories_sizes":[],"default_left":[0,0,0,0,0,0,0,0,0],"id":76,"left_children":[1,-1,3,-1,5,7,-1,-1,-1],"loss_changes":[2.448894E-1,0E0,1.6324712E-1,0E0,1.0328903E-1,9.669778E-2,0E0,0E0,0E0],"parents":[2147483647,0,0,2,2,4,4,5,5],"right_children":[2,-1,4,-1,6,8,-1,-1,-1],"split_conditions":[1.5641152E4,-4.760867E-3,2.82358E4,6.789802E-3,2.8131662E10,2.0595E7,3.73855E-3,-4.540084E-3,1.138614E-3],"split_indices":[2,0,2,0,4,3,0,0,0],"split_type":[0,0,0,0,0,0,0,0,0],"sum_hessian":[1.68E2,4.8E1,1.2E2,2.5E1,9.5E1,6.6E1,2.9E1,3.1E1,3.5E1],"tree_param":{"num_deleted":"0","num_feature":"6","num_nodes":"9","size_leaf_vector":"1"}},{"base_weights":[4.50333E-3,-4.657243E-3,1.5718227E-2,8.0717895E-3,-8.31997E-3,-2.7309174E-2,4.7681043E-3,-5.085827E-3,-6.644476E-3,3.269806E-3,-3.7292817E-3],"categories":[],"categories_nodes":[],"categories_segments":[],"categories_sizes":[],"default_left":[0,0,0,0,0,0,0,0,0,0,0],"id":77,"left_children":[1,-1,3,-1,5,7,-1,-1,9,-1,-1],"loss_changes":[1.346731E-1,0E0,3.4111923E-1,0E0,1.6965859E-1,8.1571355E-2,0E0,0E0,1.4501719E-1,0E0,0E0],"parents":[2147483647,0,0,2,2,4,4,5,5,8,8],"right_children":[2,-1,4,-1,6,8,-1,-1,10,-1,-1],"split_conditions":[4.8024653E3,-4.657243E-3,4.42494E9,8.0717895E-3,6.8373164E4,2.8984143E4,4.7681043E-3,-5.085827E-3,4.4821535E4,3.269806E-3,-3.7292817E-3],"split_indices":[2,0,4,0,2,2,0,0,2,0,0],"split_type":[0,0,0,0,0,0,0,0,0,0,0],"sum_hessian":[1.78E2,2.5E1,1.53E2,3.1E1,1.22E2,9.7E1,2.5E1,3.2E1,6.5E1,3E1,3.5E1],"tree_param":{"num_deleted":"0","num_feature":"6","num_nodes":"11","size_leaf_vector":"1"}},{"base_weights":[6.7078057E-3,2.884349E-2,-5.001167E-3,5.5981665E-3,9.053657E-3,4.0598765E-2,-3.089528E-3,5.4818303E-3,1.1476249E-3],"categories":[],"categories_nodes":[],"categories_segments":[],"categories_sizes":[],"default_left":[0,0,0,0,0,0,0,0,0],"id":78,"left_children":[1,3,-1,5,-1,7,-1,-1,-1],"loss_changes":[2.7322125E-1,2.7481568E-1,0E0,1.7199774E-1,0E0,4.8199244E-2,0E0,0E0,0E0],"parents":[2147483647,0,0,1,1,3,3,5,5],"right_children":[2,4,-1,6,-1,8,-1,-1,-1],"split_conditions":[3.2443E7,2.46555E7,-5.001167E-3,1.7728E7,9.053657E-3,1.0415E7,-3.089528E-3,5.4818303E-3,1.1476249E-3],"split_indices":[3,3,0,3,0,3,0,0,0],"split_type":[0,0,0,0,0,0,0,0,0],"sum_hessian":[1.66E2,1.28E2,3.8E1,1.03E2,2.5E1,5.9E1,4.4E1,2.5E1,3.4E1],"tree_param":{"num_deleted":"0","num_feature":"6","num_nodes":"9","size_leaf_vector":"1"}},{"base_weights":[5.7684677E-3,6.0665518E-2,-1.8676003E-2,7.821778E-3,9.987014E-4,-7.769502E-5,-5.8641005E-3,-5.235453E-3,2.5103064E-2,1.0421508E-3,2.9008866E-3],"categories":[],"categories_nodes":[],"categories_segments":[],"categories_sizes":[],"default_left":[0,0,0,0,0,0,0,0,0,0,0],"id":79,"left_children":[1,3,5,-1,-1,7,-1,-1,9,-1,-1],"loss_changes":[2.4402222E-1,1.1428568E-1,1.3945355E-1,0E0,0E0,1.7206617E-1,0E0,0E0,1.041732E-2,0E0,0E0],"parents":[2147483647,0,0,1,1,2,2,5,5,8,8],"right_children":[2,4,6,-1,-1,8,-1,-1,10,-1,-1],"split_conditions":[1E0,2.4449752E4,5.761681E4,7.821778E-3,9.987014E-4,1.0833327E4,-5.8641005E-3,-5.235453E-3,3.4858906E4,1.0421508E-3,2.9008866E-3],"split_indices":[1,2,2,0,0,2,0,0,2,0,0],"split_type":[0,0,0,0,0,0,0,0,0,0,0],"sum_hessian":[1.8E2,5.5E1,1.25E2,2.8E1,2.7E1,9.6E1,2.9E1,2.5E1,7.1E1,4E1,3.1E1],"tree_param":{"num_deleted":"0","num_feature":"6","num_nodes":"11","size_leaf_vector":"1"}},{"base_weights":[2.871622E-3,-4.6472913E-3,1.3799229E-2,4.544389E-2,-8.607998E-3,-1.06088635E-4,5.6638205E-3,-5.339475E-3,2.3338608E-2,6.427013E-3,-2.412401E-3],"categories":[],"categories_nodes":[],"categories_segments":[],"categories_sizes":[],"default_left":[0,0,0,0,0,0,0,0,0,0,0],"id":80,"left_children":[1,-1,3,5,7,-1,-1,-1,9,-1,-1],"loss_changes":[1.2767598E-1,0E0,1.0958781E-1,9.0296015E-2,1.8360497E-1,0E0,0E0,0E0,2.1387386E-1,0E0,0E0],"parents":[2147483647,0,0,2,2,3,3,4,4,8,8],"right_children":[2,-1,4,6,8,-1,-1,-1,10,-1,-1],"split_conditions":[4.8024653E3,-4.6472913E-3,1.99925E7,1.786192E4,2.498975E7,-1.06088635E-4,5.6638205E-3,-5.339475E-3,3.5269E7,6.427013E-3,-2.412401E-3],"split_indices":[5,0,3,5,3,0,0,0,3,0,0],"split_type":[0,0,0,0,0,0,0,0,0,0,0],"sum_hessian":[1.78E2,2.5E1,1.53E2,6.3E1,9E1,2.5E1,3.8E1,3E1,6E1,2.8E1,3.2E1],"tree_param":{"num_deleted":"0","num_feature":"6","num_nodes":"11","size_leaf_vector":"1"}},{"base_weights":[-8.909286E-4,-4.484598E-2,2.3233887E-2,9.4376584E-5,-6.405003E-3,5.2351955E-2,-1.4076893E-3,1.9158346E-3,6.1994423E-3],"categories":[],"categories_nodes":[],"categories_segments":[],"categories_sizes":[],"default_left":[0,0,0,0,0,0,0,0,0],"id":81,"left_children":[1,3,5,-1,-1,7,-1,-1,-1],"loss_changes":[1.8555284E-1,1.16029985E-1,1.3918708E-1,0E0,0E0,5.2323475E-2,0E0,0E0,0E0],"parents":[2147483647,0,0,1,1,2,2,5,5],"right_children":[2,4,6,-1,-1,8,-1,-1,-1],"split_conditions":[1.9729166E4,5.258025E3,2.0477303E10,9.4376584E-5,-6.405003E-3,2.007E3,-1.4076893E-3,1.9158346E-3,6.1994423E-3],"split_indices":[2,2,4,0,0,0,0,0,0],"split_type":[0,0,0,0,0,0,0,0,0],"sum_hessian":[1.73E2,6.1E1,1.12E2,2.9E1,3.2E1,6.6E1,4.6E1,3.6E1,3E1],"tree_param":{"num_deleted":"0","num_feature":"6","num_nodes":"9","size_leaf_vector":"1"}},{"base_weights":[-3.6370433E-3,4.5660954E-2,-2.6639901E-2,7.996882E-3,-3.974487E-4,4.0958025E-3,-6.541997E-2,-4.0933816E-3,3.7971947E-3,-7.0717884E-3,-2.7960136E-3],"categories":[],"categories_nodes":[],"categories_segments":[],"categories_sizes":[],"default_left":[0,0,0,0,0,0,0,0,0,0,0],"id":82,"left_children":[1,3,5,-1,-1,7,9,-1,-1,-1,-1],"loss_changes":[2.0306748E-1,1.7764974E-1,1.4568374E-1,0E0,0E0,1.9115496E-1,4.0355027E-2,0E0,0E0,0E0,0E0],"parents":[2147483647,0,0,1,1,2,2,5,5,6,6],"right_children":[2,4,6,-1,-1,8,10,-1,-1,-1,-1],"split_conditions":[1E0,4.597173E9,2.01E3,7.996882E-3,-3.974487E-4,2.003E3,2.013E3,-4.0933816E-3,3.7971947E-3,-7.0717884E-3,-2.7960136E-3],"split_indices":[1,4,0,0,0,0,0,0,0,0,0],"split_type":[0,0,0,0,0,0,0,0,0,0,0],"sum_hessian":[1.77E2,5.6E1,1.21E2,2.5E1,3.1E1,6.8E1,5.3E1,3E1,3.8E1,2.5E1,2.8E1],"tree_param":{"num_deleted":"0","num_feature":"6","num_nodes":"11","size_leaf_vector":"1"}},{"base_weights":[7.59521E-3,-3.3566996E-3,5.2865385E-3,3.203826E-2,-2.8658127E-2,-1.2642895E-3,7.670145E-3,-8.554569E-3,8.995638E-3,2.281489E-3,-7.156903E-4],"categories":[],"categories_nodes":[],"categories_segments":[],"categories_sizes":[],"default_left":[0,0,0,0,0,0,0,0,0,0,0],"id":83,"left_children":[1,3,-1,5,7,-1,-1,-1,9,-1,-1],"loss_changes":[1.2077435E-1,1.3524958E-1,0E0,2.1806245E-1,2.8401086E-1,0E0,0E0,0E0,2.4914566E-2,0E0,0E0],"parents":[2147483647,0,0,1,1,3,3,4,4,8,8],"right_children":[2,4,-1,6,8,-1,-1,-1,10,-1,-1],"split_conditions":[2.808435E10,5.188377E9,5.2865385E-3,9.08961E3,2.8984143E4,-1.2642895E-3,7.670145E-3,-8.554569E-3,4.395451E4,2.281489E-3,-7.156903E-4],"split_indices":[4,4,0,5,5,0,0,0,5,0,0],"split_type":[0,0,0,0,0,0,0,0,0,0,0],"sum_hessian":[1.74E2,1.49E2,2.5E1,6.2E1,8.7E1,3.7E1,2.5E1,2.6E1,6.1E1,2.8E1,3.3E1],"tree_param":{"num_deleted":"0","num_feature":"6","num_nodes":"11","size_leaf_vector":"1"}},{"base_weights":[1.0184469E-2,6.304766E-2,-1.21808825E-2,3.1621018E-3,6.11318E-3,-5.76022E-3,8.101056E-3,4.087521E-2,-5.844566E-3,5.812533E-3,8.7404053E-4],"categories":[],"categories_nodes":[],"categories_segments":[],"categories_sizes":[],"default_left":[0,0,0,0,0,0,0,0,0,0,0],"id":84,"left_children":[1,3,5,-1,-1,-1,7,9,-1,-1,-1],"loss_changes":[2.0294195E-1,1.6228557E-2,1.5921208E-1,0E0,0E0,0E0,2.6540017E-1,7.1873024E-2,0E0,0E0,0E0],"parents":[2147483647,0,0,1,1,2,2,6,6,7,7],"right_children":[2,4,6,-1,-1,-1,8,10,-1,-1,-1],"split_conditions":[1E0,2.3536E7,1.3485333E7,3.1621018E-3,6.11318E-3,-5.76022E-3,2.9302E7,1.9613334E7,-5.844566E-3,5.812533E-3,8.7404053E-4],"split_indices":[1,3,3,0,0,0,3,3,0,0,0],"split_type":[0,0,0,0,0,0,0,0,0,0,0],"sum_hessian":[1.7E2,5E1,1.2E2,2.5E1,2.5E1,2.8E1,9.2E1,6.7E1,2.5E1,2.9E1,3.8E1],"tree_param":{"num_deleted":"0","num_feature":"6","num_nodes":"11","size_leaf_vector":"1"}},{"base_weights":[5.1763942E-3,5.091202E-2,-1.6158951E-2,-3.846592E-5,7.973431E-3,1.4647238E-3,-5.7915235E-3,-4.6477877E-3,4.2218354E-2,5.6611113E-3,9.7187725E-4],"categories":[],"categories_nodes":[],"categories_segments":[],"categories_sizes":[],"default_left":[0,0,0,0,0,0,0,0,0,0,0],"id":85,"left_children":[1,3,5,-1,-1,7,-1,-1,9,-1,-1],"loss_changes":[1.657304E-1,1.5389831E-1,1.2494368E-1,0E0,0E0,2.3787089E-1,0E0,0E0,5.3525493E-2,0E0,0E0],"parents":[2147483647,0,0,1,1,2,2,5,5,8,8],"right_children":[2,4,6,-1,-1,8,-1,-1,10,-1,-1],"split_conditions":[1E0,2.4639E7,2.72522E7,-3.846592E-5,7.973431E-3,1.46145E7,-5.7915235E-3,-4.6477877E-3,1.9613334E7,5.6611113E-3,9.7187725E-4],"split_indices":[1,3,3,0,0,3,0,0,3,0,0],"split_type":[0,0,0,0,0,0,0,0,0,0,0],"sum_hessian":[1.68E2,5.3E1,1.15E2,2.8E1,2.5E1,9E1,2.5E1,3.5E1,5.5E1,2.5E1,3E1],"tree_param":{"num_deleted":"0","num_feature":"6","num_nodes":"11","size_leaf_vector":"1"}},{"base_weights":[-1.2455752E-2,-3.7808064E-2,3.7802353E-3,-7.967801E-3,-1.2010604E-2,-5.5181715E-3,2.9255155E-2,6.2483144E-3,-2.4122207E-3],"categories":[],"categories_nodes":[],"categories_segments":[],"categories_sizes":[],"default_left":[0,0,0,0,0,0,0,0,0],"id":86,"left_children":[1,3,-1,-1,5,-1,7,-1,-1],"loss_changes":[2.7122712E-1,2.123255E-1,0E0,0E0,2.2825937E-1,0E0,1.8195942E-1,0E0,0E0],"parents":[2147483647,0,0,1,1,4,4,6,6],"right_children":[2,4,-1,-1,6,-1,8,-1,-1],"split_conditions":[2.8377E7,1E0,3.7802353E-3,-7.967801E-3,1.46145E7,-5.5181715E-3,2.008E3,6.2483144E-3,-2.4122207E-3],"split_indices":[3,1,0,0,3,0,0,0,0],"split_type":[0,0,0,0,0,0,0,0,0],"sum_hessian":[1.68E2,1.2E2,4.8E1,3.2E1,8.8E1,3.5E1,5.3E1,2.8E1,2.5E1],"tree_param":{"num_deleted":"0","num_feature":"6","num_nodes":"9","size_leaf_vector":"1"}},{"base_weights":[-9.912318E-3,-5.4299224E-2,1.1200008E-2,-1.5830566E-3,-6.163876E-3,5.781984E-3,-1.325102E-2,9.776084E-3,-4.474078E-3,-1.8098311E-3,3.0822677E-3],"categories":[],"categories_nodes":[],"categories_segments":[],"categories_sizes":[],"default_left":[0,0,0,0,0,0,0,0,0,0,0],"id":87,"left_children":[1,3,5,-1,-1,-1,7,9,-1,-1,-1],"loss_changes":[1.5710565E-1,4.8246577E-2,1.8469313E-1,0E0,0E0,0E0,9.034011E-2,6.152572E-2,0E0,0E0,0E0],"parents":[2147483647,0,0,1,1,2,2,6,6,7,7],"right_children":[2,4,6,-1,-1,-1,8,10,-1,-1,-1],"split_conditions":[1.892069E4,5.258025E3,1E0,-1.5830566E-3,-6.163876E-3,5.781984E-3,5.780741E4,3.4858906E4,-4.474078E-3,-1.8098311E-3,3.0822677E-3],"split_indices":[2,2,1,0,0,0,5,2,0,0,0],"split_type":[0,0,0,0,0,0,0,0,0,0,0],"sum_hessian":[1.66E2,5.3E1,1.13E2,2.5E1,2.8E1,3E1,8.3E1,5.6E1,2.7E1,2.7E1,2.9E1],"tree_param":{"num_deleted":"0","num_feature":"6","num_nodes":"11","size_leaf_vector":"1"}},{"base_weights":[8.305175E-4,3.122425E-3,-1.5043446E-2,-5.714313E-3,4.023205E-3,-2.6187545E-3,2.1143422E-2,3.8506314E-3,-1.2416947E-3],"categories":[],"categories_nodes":[],"categories_segments":[],"categories_sizes":[],"default_left":[0,0,0,0,0,0,0,0,0],"id":88,"left_children":[1,-1,3,-1,5,-1,7,-1,-1],"loss_changes":[1.13323726E-1,0E0,1.4720689E-1,0E0,6.540428E-2,0E0,7.826511E-2,0E0,0E0],"parents":[2147483647,0,0,2,2,4,4,6,6],"right_children":[2,-1,4,-1,6,-1,8,-1,-1],"split_conditions":[1.4255333E7,3.122425E-3,2.407764E4,-5.714313E-3,2.0595E7,-2.6187545E-3,3.2443E7,3.8506314E-3,-1.2416947E-3],"split_indices":[3,0,2,0,3,0,3,0,0],"split_type":[0,0,0,0,0,0,0,0,0],"sum_hessian":[1.73E2,4.8E1,1.25E2,2.9E1,9.6E1,2.9E1,6.7E1,3.7E1,3E1],"tree_param":{"num_deleted":"0","num_feature":"6","num_nodes":"9","size_leaf_vector":"1"}},{"base_weights":[-1.1765646E-2,-2.8512223E-2,5.8776275E-3,-4.426201E-2,1.4304747E-3,-3.0628547E-2,-5.3578564E-3,-4.50135E-3,-3.403113E-5],"categories":[],"categories_nodes":[],"categories_segments":[],"categories_sizes":[],"default_left":[0,0,0,0,0,0,0,0,0],"id":89,"left_children":[1,3,-1,5,-1,7,-1,-1,-1],"loss_changes":[2.6940465E-1,1.13262795E-1,0E0,3.9678887E-2,0E0,6.8257965E-2,0E0,0E0,0E0],"parents":[2147483647,0,0,1,1,3,3,5,5],"right_children":[2,4,-1,6,-1,8,-1,-1,-1],"split_conditions":[2.8131662E10,2.498975E7,5.8776275E-3,1.0629307E10,1.4304747E-3,1.985843E9,-5.3578564E-3,-4.50135E-3,-3.403113E-5],"split_indices":[4,3,0,4,0,4,0,0,0],"split_type":[0,0,0,0,0,0,0,0,0],"sum_hessian":[1.76E2,1.49E2,2.7E1,1.12E2,3.7E1,7.6E1,3.6E1,3.8E1,3.8E1],"tree_param":{"num_deleted":"0","num_feature":"6","num_nodes":"9","size_leaf_vector":"1"}},{"base_weights":[-2.9237452E-3,-1.4893579E-2,4.899351E-3,6.717274E-3,-6.3643265E-3,-1.9827902E-2,3.8256596E-3,-6.333772E-3,1.2256892E-3],"categories":[],"categories_nodes":[],"categories_segments":[],"categories_sizes":[],"default_left":[0,0,0,0,0,0,0,0,0],"id":90,"left_children":[1,3,-1,5,-1,7,-1,-1,-1],"loss_changes":[1.4230049E-1,2.2434366E-1,0E0,1.3504417E-1,0E0,1.696743E-1,0E0,0E0,0E0],"parents":[2147483647,0,0,1,1,3,3,5,5],"right_children":[2,4,-1,6,-1,8,-1,-1,-1],"split_conditions":[6.8373164E4,2.9302E7,4.899351E-3,2.009E3,-6.3643265E-3,1.6977695E4,3.8256596E-3,-6.333772E-3,1.2256892E-3],"split_indices":[2,3,0,0,0,2,0,0,0],"split_type":[0,0,0,0,0,0,0,0,0],"sum_hessian":[1.72E2,1.47E2,2.5E1,1.13E2,3.4E1,7.1E1,4.2E1,2.5E1,4.6E1],"tree_param":{"num_deleted":"0","num_feature":"6","num_nodes":"9","size_leaf_vector":"1"}},{"base_weights":[2.0387229E-3,4.8157624E-3,-8.539684E-3,-2.3028728E-2,4.27245E-3,-9.3523547E-4,-6.5924353E-3,-2.8586438E-2,4.7235624E-3,1.0596615E-3,-5.8985273E-3],"categories":[],"categories_nodes":[],"categories_segments":[],"categories_sizes":[],"default_left":[0,0,0,0,0,0,0,0,0,0,0],"id":91,"left_children":[1,-1,3,5,-1,7,-1,9,-1,-1,-1],"loss_changes":[1.1761445E-1,0E0,1.4652641E-1,1.8050274E-1,0E0,1.6969922E-1,0E0,1.4438069E-1,0E0,0E0,0E0],"parents":[2147483647,0,0,2,2,3,3,5,5,7,7],"right_children":[2,-1,4,6,-1,8,-1,10,-1,-1,-1],"split_conditions":[2.327E8,4.8157624E-3,2.8131662E10,1.7028E10,4.27245E-3,1.121244E10,-6.5924353E-3,5.188377E9,4.7235624E-3,1.0596615E-3,-5.8985273E-3],"split_indices":[4,0,4,4,0,4,0,4,0,0,0],"split_type":[0,0,0,0,0,0,0,0,0,0,0],"sum_hessian":[1.77E2,2.5E1,1.52E2,1.25E2,2.7E1,9.4E1,3.1E1,6.6E1,2.8E1,3.6E1,3E1],"tree_param":{"num_deleted":"0","num_feature":"6","num_nodes":"11","size_leaf_vector":"1"}}]},"name":"gbtree"},"learner_model_param":{"base_score":"1.3339255E-9","boost_from_average":"1","num_class":"0","num_feature":"6","num_target":"1"},"objective":{"name":"reg:squarederror","reg_loss_param":{"scale_pos_weight":"1"}}},"version":[2,1,1]}