tree
version=v4
num_class=1
num_tree_per_iteration=1
label_index=0
max_feature_idx=16
objective=regression
feature_names=Column_0 Column_1 Column_2 Column_3 Column_4 Column_5 Column_6 Column_7 Column_8 Column_9 Column_10 Column_11 Column_12 Column_13 Column_14 Column_15 Column_16
feature_infos=[1:1937] [1992:2022] [0:2] [0:2] none [68.929999999999993:150126.86320000002] [0:1071] [0:973] [0:1258] [0:626] [0:1350] [0:702] [0:992] none none [0:189821857.14285713] [0:950305]
tree_sizes=1465 1598 1596 1363 1594 1599 1714 1517 1617 1460 1592 1612 1730 1710 1611 1497 1828 1730 1703 1487 1602 1701 1692 1720 1717 1722 1615 1730 1723 1726 1630 1734 1498 1619 1749 1751 1535 1752 1521 1738 1725 1742 1532 1628 1744 1597 1734 1748 1636 1608 1513 1612 1629 1620 1864 1731 1631 1600 1656 1767 1608 1621 1655 1620 1632 1758 1621 1652 1641 1767 1646 1741 1630 1774 1618 1651 1768 1770 1529 1669 1661 1679 1664 1650 1659 1632 1534 1656 1536 1889

Tree=0
num_leaves=14
num_cat=0
split_feature=5 5 5 12 1 15 16 5 0 5 16 0 15
split_gain=105.11 25.7665 8.74971 9.25994 4.14556 3.48353 1.79117 1.03921 0.995745 0.877232 0.128113 0.10728 0.0545761
threshold=43573.713200000006 84031.152600000016 35638.722400000013 1.0000000180025095e-35 2004.5000000000002 15259750.000000002 280837.50000000006 23745.478650000005 181.50000000000003 57815.73260000001 161958.33333333334 384.00000000000006 9548000.0000000019
decision_type=2 2 2 2 2 2 2 2 2 2 2 2 2
left_child=2 4 3 5 -2 8 9 10 12 -6 -7 -10 -1
right_child=1 -3 -4 -5 6 7 -8 -9 11 -11 -12 -13 -14
leaf_value=-0.056445576704766902 0.0058991872921593099 0.10736621632454142 0.004500160410599266 -0.0026192339022721475 0.024926736262499447 -0.041824271537091888 0.057702111093429716 -0.022000858618361107 -0.046941728748109493 0.041614646805101074 -0.034609986415792569 -0.039617784179475472 -0.061669370986249618
leaf_weight=10.000000000000002 10.999999999999998 14.999999999999998 18 20 13.999999999999998 10.000000000000002 10.999999999999998 19 10.000000000000002 18 15.999999999999998 9.9999999999999982 9.9999999999999982
leaf_count=10 11 15 18 20 14 10 11 19 10 18 16 10 10
internal_value=1.33393e-09 0.0493934 -0.0277085 -0.03323 0.0332899 -0.0404325 0.0402968 -0.0308893 -0.0511686 0.0343137 -0.0373847 -0.0432798 -0.0590575
internal_weight=0 69 123 105 54 85 43 45 40 32 26 20 20
internal_count=192 69 123 105 54 85 43 45 40 32 26 20 20
is_linear=0
shrinkage=1


Tree=1
num_leaves=15
num_cat=0
split_feature=5 5 5 12 5 11 1 1 6 1 2 5 5 16
split_gain=95.0038 21.0241 11.0283 8.3571 3.02087 2.12376 1.43124 1.07376 0.865783 0.802223 0.619975 0.579777 0.378288 0.0519159
threshold=46506.096150000005 84031.152600000016 35638.722400000013 1.0000000180025095e-35 18326.570500000005 16.500000000000004 2006.5000000000002 2005.5000000000002 1.0000000180025095e-35 1998.5000000000002 1.0000000180025095e-35 60892.692350000012 23745.478650000005 128978.33333333336
decision_type=2 2 2 2 2 2 2 2 2 2 2 2 2 2
left_child=2 5 3 4 8 6 -2 -4 10 -6 -1 -8 -11 -12
right_child=1 -3 7 -5 9 -7 11 -9 -10 12 13 -13 -14 -15
leaf_value=-0.034587637657442917 0.012288643326610327 0.10199790120124817 -0.0065139090782031402 -0.0024882736243307594 -0.039614986018701032 0.053470749746669426 0.027878714601198826 0.014937922531472787 -0.059325910698283801 -0.031476358771324146 -0.050788880207321842 0.042623754839102433 -0.019347387324604726 -0.045931087840687147
leaf_weight=12.999999999999998 9.9999999999999982 14.999999999999998 10.000000000000002 20 10.999999999999998 10.999999999999998 15.000000000000002 13.999999999999998 10.999999999999998 10.000000000000002 11.000000000000002 11.999999999999998 18 10.999999999999998
leaf_count=13 10 15 10 20 11 11 15 14 11 10 11 12 18 11
internal_value=0 0.0503286 -0.0245791 -0.0315685 -0.0384109 0.0341819 0.0284474 0.00599966 -0.0470901 -0.0281739 -0.0432445 0.0344321 -0.0236792 -0.04836
internal_weight=0 63 129 105 85 48 37 24 46 39 35 27 28 22
internal_count=192 63 129 105 85 48 37 24 46 39 35 27 28 22
is_linear=0
shrinkage=0.05


Tree=2
num_leaves=15
num_cat=0
split_feature=5 5 5 12 15 11 15 0 5 15 5 16 0 15
split_gain=85.7409 18.9742 9.95308 7.54228 2.89294 1.91669 1.45056 0.852032 0.834888 0.786506 0.563158 0.110305 0.0808256 0.0466728
threshold=46506.096150000005 84031.152600000016 35638.722400000013 1.0000000180025095e-35 15259750.000000002 16.500000000000004 20015250.000000004 181.50000000000003 23745.478650000005 21031000.000000004 57815.73260000001 161958.33333333334 384.00000000000006 9548000.0000000019
decision_type=2 2 2 2 2 2 2 2 2 2 2 2 2 2
left_child=2 5 3 4 7 6 -2 13 11 -4 -8 -6 -9 -1
right_child=1 -3 9 -5 8 -7 10 12 -10 -11 -12 -13 -14 -15
leaf_value=-0.051156131923198678 0.011804556592621586 0.096898006200790421 -0.0050100772874429808 -0.0023638593219220639 -0.037735053896903986 0.05079721131108024 0.024871346828612407 -0.042155282497405994 -0.019826776299037435 0.013349499972537161 0.039765977648397288 -0.031040924301487395 -0.035798178017139436 -0.05598690748214722
leaf_weight=10.000000000000002 10.999999999999998 14.999999999999998 10.000000000000002 20 10.000000000000002 10.999999999999998 11.000000000000002 10.000000000000002 19 13.999999999999998 14.999999999999998 15.999999999999998 9.9999999999999982 9.9999999999999982
leaf_count=10 11 15 10 20 10 11 11 10 19 14 15 16 10 10
internal_value=0 0.0478121 -0.0233501 -0.0299901 -0.0364903 0.0324728 0.027025 -0.0462741 -0.0277936 0.00569968 0.0334644 -0.0336156 -0.0389767 -0.0535715
internal_weight=0 63 129 105 85 48 37 40 45 24 26 26 20 20
internal_count=192 63 129 105 85 48 37 40 45 24 26 26 20 20
is_linear=0
shrinkage=0.05


Tree=3
num_leaves=13
num_cat=0
split_feature=5 5 5 12 1 5 16 2 5 1 5 16
split_gain=77.4782 18.8963 6.3433 6.80691 3.31472 2.49183 1.40233 0.849585 0.645685 0.63501 0.409713 0.334601
threshold=43573.713200000006 84031.152600000016 35638.722400000013 1.0000000180025095e-35 2004.5000000000002 16446.197500000006 280837.50000000006 1.0000000180025095e-35 57815.73260000001 1998.5000000000002 23745.478650000005 102135.00000000001
decision_type=2 2 2 2 2 2 2 2 2 2 2 2
left_child=2 4 3 5 -2 7 8 -1 -6 -7 -11 -9
right_child=1 -3 -4 -5 6 9 -8 11 -10 10 -12 -13
leaf_value=-0.033011409028300215 0.0041237825675952159 0.092053110599517818 0.0036348906804859224 -0.0022456671856343749 0.021534557321241925 -0.035724487155675888 0.050282591039484195 -0.053968105407861545 0.035851661447021697 -0.029271657640735301 -0.017344313777155347 -0.043168666586279873
leaf_weight=13.999999999999998 10.999999999999998 14.999999999999998 18 20 13.999999999999998 11.999999999999998 10.999999999999998 13.000000000000002 18 12.000000000000002 18 15.999999999999998
leaf_count=14 11 15 18 20 14 12 11 13 18 12 18 16
internal_value=0 0.042407 -0.0237893 -0.0284906 0.0286164 -0.0346658 0.0348819 -0.0431266 0.0295879 -0.0260036 -0.0221153 -0.0480098
internal_weight=0 69 123 105 54 85 43 43 32 42 30 29
internal_count=192 69 123 105 54 85 43 43 32 42 30 29
is_linear=0
shrinkage=0.05


Tree=4
num_leaves=15
num_cat=0
split_feature=5 5 5 12 15 15 5 1 0 5 15 16 0 15
split_gain=69.9424 15.4318 8.0637 6.14323 2.39581 1.61499 1.27189 0.911362 0.736019 0.671854 0.350775 0.0952618 0.0586422 0.0403359
threshold=46506.096150000005 84031.152600000016 35638.722400000013 1.0000000180025095e-35 15259750.000000002 19373916.666666668 66250.217750000025 2009.5000000000002 181.50000000000003 23745.478650000005 27252350.000000004 161958.33333333334 384.00000000000006 9548000.0000000019
decision_type=2 2 2 2 2 2 2 2 2 2 2 2 2 2
left_child=2 5 3 4 8 -2 10 -4 13 11 -7 -6 -10 -1
right_child=1 -3 7 -5 9 6 -8 -9 12 -11 -12 -13 -14 -15
leaf_value=-0.046373052299022666 0.011471328249899672 0.087450455228487656 -0.0031765364135415957 -0.0021333838067948818 -0.034069204032421106 0.02156695964125295 0.047519208242495857 0.01658665760420263 -0.037761104553937899 -0.01787148357221955 0.033216706450496403 -0.027848264109343292 -0.032346209585666662 -0.05086392760276795
leaf_weight=10.000000000000002 9.9999999999999982 14.999999999999998 14.000000000000002 20 10.000000000000002 12.000000000000002 11.999999999999998 9.9999999999999982 10.000000000000002 19 13.999999999999998 15.999999999999998 9.9999999999999982 9.9999999999999982
leaf_count=10 10 15 14 20 10 12 12 10 10 19 14 16 10 10
internal_value=0 0.0431831 -0.0210894 -0.027066 -0.0329325 0.0293496 0.0340544 0.00505813 -0.0418361 -0.0250183 0.0278399 -0.0302409 -0.0350537 -0.0486185
internal_weight=0 63 129 105 85 48 38 24 40 45 26 26 20 20
internal_count=192 63 129 105 85 48 38 24 40 45 26 26 20 20
is_linear=0
shrinkage=0.05


Tree=5
num_leaves=15
num_cat=0
split_feature=5 5 5 12 15 15 5 5 15 6 10 10 15 5
split_gain=63.1519 15.3817 5.14785 5.54427 2.51924 2.18299 1.23882 0.969882 0.728205 0.591597 0.381252 0.184242 0.116118 0.0657341
threshold=43573.713200000006 84031.152600000016 35638.722400000013 1.0000000180025095e-35 19074750.000000004 14551250.000000002 64104.79080000001 23745.478650000005 27252350.000000004 1.0000000180025095e-35 44.500000000000007 89.000000000000014 20015250.000000004 11127.491650000002
decision_type=2 2 2 2 2 2 2 2 2 2 2 2 2 2
left_child=2 4 3 5 -2 9 8 10 -6 13 12 -9 -7 -1
right_child=1 -3 -4 -5 6 7 -8 11 -10 -11 -12 -13 -14 -15
leaf_value=-0.039330289038744831 0.005639672042646756 0.083077930212020881 0.0032276884537875759 -0.0020267136581242086 0.017481070038463383 -0.030336517542600611 0.043760570883750918 -0.020967542075298044 0.033607857993670873 -0.05063656676899303 -0.038483686000108722 -0.011590244174003603 -0.02271688722074032 -0.03397919808824857
leaf_weight=11.000000000000002 11.999999999999998 14.999999999999998 18 20 14.000000000000002 10.000000000000005 13.999999999999998 11.000000000000002 13.999999999999998 10.999999999999998 9.9999999999999982 9.9999999999999982 9.9999999999999982 11.999999999999998
leaf_count=11 12 15 18 20 14 10 14 11 14 11 10 10 10 12
internal_value=0 0.0382861 -0.0214775 -0.0257127 0.0258439 -0.0312859 0.0316165 -0.0247435 0.0255445 -0.0410996 -0.0305124 -0.0165022 -0.0265267 -0.0365384
internal_weight=0 69 123 105 54 85 42 51 28 34 30 21 20 23
internal_count=192 69 123 105 54 85 42 51 28 34 30 21 20 23
is_linear=0
shrinkage=0.05


Tree=6
num_leaves=16
num_cat=0
split_feature=5 5 5 12 15 11 1 5 1 6 5 10 10 15 1
split_gain=57.0341 12.5552 6.54128 5.0037 1.97015 1.44229 1.07002 0.875319 0.830651 0.533916 0.385299 0.34408 0.166278 0.104796 0.0838478
threshold=46506.096150000005 84031.152600000016 35638.722400000013 1.0000000180025095e-35 14551250.000000002 16.500000000000004 2006.5000000000002 23745.478650000005 2005.5000000000002 1.0000000180025095e-35 60892.692350000012 44.500000000000007 89.000000000000014 20015250.000000004 1998.5000000000002
decision_type=2 2 2 2 2 2 2 2 2 2 2 2 2 2 2
left_child=2 5 3 4 9 6 -2 11 -4 14 -8 13 -9 -6 -1
right_child=1 -3 8 -5 7 -7 10 12 -10 -11 -12 -13 -14 -15 -16
leaf_value=-0.032063726163827452 0.007820096807554364 0.078924034833908085 -0.0065001257299445551 -0.0019253779202699662 -0.028819691613316517 0.042413166978142486 0.021624038790663078 -0.019919165088371792 0.012367656826141424 -0.048104739189147955 0.033644312123457594 -0.0365595018863678 -0.011010731831192971 -0.021581042855978012 -0.038153595775365833
leaf_weight=13.000000000000002 9.9999999999999982 14.999999999999998 10.000000000000002 20 10.000000000000005 10.999999999999998 15.000000000000002 11.000000000000002 13.999999999999998 10.999999999999998 11.999999999999998 9.9999999999999982 9.9999999999999982 9.9999999999999982 9.9999999999999982
leaf_count=13 10 15 10 20 10 11 15 11 14 11 12 10 10 10 10
internal_value=0 0.0389952 -0.0190442 -0.0244271 -0.0297216 0.0265175 0.0217917 -0.0235063 0.00450608 -0.0390446 0.0269664 -0.0289867 -0.0156771 -0.0252004 -0.0347115
internal_weight=0 63 129 105 85 48 37 51 24 34 27 30 21 20 23
internal_count=192 63 129 105 85 48 37 51 24 34 27 30 21 20 23
is_linear=0
shrinkage=0.05


Tree=7
num_leaves=14
num_cat=0
split_feature=5 5 5 12 1 1 3 5 5 6 15 2 5
split_gain=51.5139 12.5126 4.28752 3.02503 2.4457 2.23411 1.12125 0.937815 0.803912 0.705949 0.507641 0.377765 0.418775
threshold=43573.713200000006 84031.152600000016 21174.552150000007 1.0000000180025095e-35 2004.5000000000002 2002.5000000000002 1.5000000000000002 68159.249100000015 32178.977000000003 1.0000000180025095e-35 27252350.000000004 1.0000000180025095e-35 16446.197500000006
decision_type=2 2 2 2 2 2 2 2 2 2 2 2 2
left_child=2 4 3 9 -2 -4 8 10 -7 11 -6 -1 -13
right_child=1 -3 5 -5 7 6 -8 -9 -10 -11 -12 12 -14
leaf_value=-0.023323892003723555 0.0023184337991882455 0.074977833032608035 -0.026036122235070382 -0.0069057415106466838 0.018281671777367593 -0.016951346397399897 0.0092354455407565612 0.042152526229619985 0.0003157956355537933 -0.044267489693381568 0.030690221225514132 -0.037765573592562419 -0.025506771017204635
leaf_weight=13.999999999999998 10.999999999999998 14.999999999999998 13.999999999999998 13.999999999999998 15.999999999999998 14.000000000000002 12.999999999999998 9.9999999999999982 12.999999999999998 10.999999999999998 17 19.000000000000004 10.999999999999998
leaf_count=14 11 15 14 14 16 14 13 10 13 11 17 19 11
internal_value=0 0.0345788 -0.0193979 -0.0276562 0.0233568 -0.00884553 -0.00282882 0.0287387 -0.00863754 -0.0329381 0.024674 -0.0301058 -0.0332707
internal_weight=0 69 123 69 54 54 40 43 27 55 33 44 30
internal_count=192 69 123 69 54 54 40 43 27 55 33 44 30
is_linear=0
shrinkage=0.05


Tree=8
num_leaves=15
num_cat=0
split_feature=5 5 5 12 15 11 15 5 1 6 5 7 5 1
split_gain=46.501 10.2163 5.35526 4.12406 1.63038 1.24618 0.922977 0.714432 0.706242 0.43893 0.340286 0.187239 0.173349 0.0701696
threshold=46506.096150000005 84031.152600000016 35638.722400000013 1.0000000180025095e-35 14551250.000000002 16.500000000000004 20015250.000000004 21174.552150000007 2009.5000000000002 1.0000000180025095e-35 57815.73260000001 1.0000000180025095e-35 28681.207500000004 1998.5000000000002
decision_type=2 2 2 2 2 2 2 2 2 2 2 2 2 2
left_child=2 5 3 4 9 6 -2 11 -4 13 -8 -6 -9 -1
right_child=1 -3 8 -5 7 -7 10 12 -10 -11 -12 -13 -14 -15
leaf_value=-0.029003215409242184 0.0074213115244426524 0.07122893969217936 -0.0031363473972305651 -0.0016381739638745786 -0.029991972906624566 0.038730656423351988 0.018019243736158715 -0.01885110231546255 0.014261214532889428 -0.043568996407768949 0.029597327187657358 -0.021369628757238388 -0.010322691195390442 -0.034574262499809265
leaf_weight=13.000000000000002 10.999999999999998 14.999999999999998 14.000000000000002 20 17.000000000000004 10.999999999999998 11.000000000000002 13.000000000000002 9.9999999999999982 10.999999999999998 14.999999999999998 9.9999999999999982 10.999999999999998 9.9999999999999982
leaf_count=13 11 15 14 20 17 11 11 13 10 11 15 10 11 10
internal_value=0 0.0352108 -0.0171959 -0.0220665 -0.0268731 0.0239551 0.0195623 -0.0212191 0.00411264 -0.0353542 0.0246989 -0.0267985 -0.0149422 -0.0314254
internal_weight=0 63 129 105 85 48 37 51 24 34 26 27 24 23
internal_count=192 63 129 105 85 48 37 51 24 34 26 27 24 23
is_linear=0
shrinkage=0.05


Tree=9
num_leaves=14
num_cat=0
split_feature=5 5 12 5 1 6 16 5 0 5 5 5 15
split_gain=41.9876 10.1856 3.62192 3.49605 2.10328 1.39161 0.935745 0.532924 0.627748 0.481704 0.368489 0.329772 0.139271
threshold=43573.713200000006 84031.152600000016 71.000000000000014 35638.722400000013 2004.5000000000002 1.0000000180025095e-35 280837.50000000006 28681.207500000004 31.500000000000004 16446.197500000006 57815.73260000001 5295.6524000000009 17090166.666666668
decision_type=2 2 2 2 2 2 2 2 2 2 2 2 2
left_child=2 4 3 5 -2 7 10 8 -1 11 -6 -10 -11
right_child=1 -3 -4 -5 6 -7 -8 -9 9 12 -12 -13 -14
leaf_value=-0.013534308841022162 0.0015833272344686769 0.067667495012283335 0.0085823567584156994 0.00053213564576307202 0.015676000940480404 -0.04001041613519192 0.038664723797277978 -0.012044668965972961 -0.023642369224266567 -0.025626172734932458 0.02649175859987736 -0.034752915361348322 -0.018485036989053093
leaf_weight=12.999999999999998 10.999999999999998 14.999999999999998 11.999999999999998 17 13.999999999999998 11.999999999999998 10.999999999999998 11.999999999999998 11.000000000000002 11.000000000000002 18 17 18
leaf_count=13 11 15 12 17 14 12 11 12 11 11 18 17 18
internal_value=0 0.0312182 -0.0175127 -0.0203337 0.0210934 -0.0241074 0.0260844 -0.0217801 -0.023449 -0.0257102 0.0217599 -0.0303881 -0.0211937
internal_weight=0 69 123 111 54 94 43 82 70 57 32 28 29
internal_count=192 69 123 111 54 94 43 82 70 57 32 28 29
is_linear=0
shrinkage=0.05


Tree=10
num_leaves=15
num_cat=0
split_feature=5 5 5 12 15 5 0 15 1 15 1 1 7 0
split_gain=37.9285 8.30985 4.36813 3.407 1.42409 1.03927 0.726096 0.699886 0.669047 0.636683 0.632231 0.187305 0.110958 0.0431386
threshold=46506.096150000005 84031.152600000016 35638.722400000013 1.0000000180025095e-35 19074750.000000004 66250.217750000025 181.50000000000003 32394333.33333334 2007.5000000000002 24653250.000000004 2005.5000000000002 1997.5000000000002 446.00000000000006 54.000000000000007
decision_type=2 2 2 2 2 2 2 2 2 2 2 2 2 2
left_child=2 5 3 4 6 8 13 9 -2 -6 -4 -8 -10 -1
right_child=1 -3 10 -5 7 -7 11 -9 12 -11 -12 -13 -14 -15
leaf_value=-0.038452947822709867 0.0066201515665108516 0.06428411980470021 -0.0058875849924515909 -0.0013614081218838692 -0.018623641858409555 0.032561203142007195 -0.029168591027458501 -0.027484978213906289 0.024964127627511812 -0.0021050424361601472 0.010573157204115499 -0.021009741131873691 0.017832795381546022 -0.034006392583250999
leaf_weight=12.000000000000002 10.999999999999998 14.999999999999998 10.000000000000002 20 14.000000000000002 14.999999999999998 12.000000000000002 9.9999999999999982 12.000000000000002 9.9999999999999982 13.999999999999998 17 9.9999999999999982 9.9999999999999982
leaf_count=12 11 15 10 20 14 15 12 10 12 10 14 17 10 10
internal_value=0 0.0318 -0.0155302 -0.019929 -0.0242979 0.0216487 -0.0295821 -0.0163715 0.0166885 -0.0117409 0.00371451 -0.0243858 0.0217226 -0.0364318
internal_weight=0 63 129 105 85 48 51 34 33 24 24 29 22 22
internal_count=192 63 129 105 85 48 51 34 33 24 24 29 22 22
is_linear=0
shrinkage=0.05


Tree=11
num_leaves=15
num_cat=0
split_feature=5 5 12 5 1 2 0 5 16 15 5 16 15 5
split_gain=34.25 8.28563 3.06076 2.82413 1.80496 1.17521 1.04944 0.823504 0.812327 0.663348 0.306334 0.245521 0.199554 0.127451
threshold=43573.713200000006 84031.152600000016 71.000000000000014 28681.207500000004 2004.5000000000002 1.0000000180025095e-35 223.50000000000003 5051.6744000000008 280837.50000000006 18383375.000000004 57815.73260000001 102135.00000000001 17090166.666666668 39602.238900000004
decision_type=2 2 2 2 2 2 2 2 2 2 2 2 2 2
left_child=2 4 3 5 -2 7 11 -1 10 -5 -6 -7 -8 -11
right_child=1 -3 -4 9 8 6 12 -9 -10 13 -12 -13 -14 -15
leaf_value=-0.0062062296218105715 0.00098997178402814002 0.061069911519686382 0.0081715823461612058 -0.015820059562101956 0.014110720303973982 -0.040067239850759495 -0.025284399539232252 -0.024487754228440198 0.035408448495648129 -0.0040394960029516355 0.023972200767861475 -0.03014927877363964 -0.017256990494206547 0.0039433408639160915
leaf_weight=14.000000000000002 10.999999999999998 14.999999999999998 11.999999999999998 10.000000000000002 13.999999999999998 12.000000000000002 15.000000000000002 10.999999999999998 10.999999999999998 10.000000000000002 18 12.999999999999998 15.999999999999998 9.9999999999999982
leaf_count=14 11 15 12 10 14 12 15 11 11 10 18 13 16 10
internal_value=0 0.0281954 -0.0158169 -0.0184103 0.0190636 -0.0232639 -0.027288 -0.0142501 0.023687 -0.0053054 0.0196578 -0.0349099 -0.0211412 -4.80776e-05
internal_weight=0 69 123 111 54 81 56 25 43 30 32 25 31 20
internal_count=192 69 123 111 54 81 56 25 43 30 32 25 31 20
is_linear=0
shrinkage=0.05


Tree=12
num_leaves=16
num_cat=0
split_feature=5 5 12 5 6 5 2 5 5 1 5 1 15 7 7
split_gain=30.9346 6.75951 3.71155 2.96061 1.08476 0.909846 0.60522 1.11345 0.918615 0.55016 0.242516 0.184549 0.114232 0.0952841 0.0121051
threshold=46506.096150000005 84031.152600000016 71.000000000000014 35638.722400000013 1.0000000180025095e-35 66250.217750000025 1.0000000180025095e-35 16446.197500000006 5051.6744000000008 2007.5000000000002 28681.207500000004 2005.5000000000002 17090166.666666668 446.00000000000006 68.000000000000014
decision_type=2 2 2 2 2 2 2 2 2 2 2 2 2 2 2
left_child=2 5 3 4 6 9 8 14 -1 -2 12 -5 -9 -11 -8
right_child=1 -3 -4 11 -6 -7 7 10 -10 13 -12 -13 -14 -15 -16
leaf_value=-0.0029797169164969364 0.0057921565730463375 0.0580164181192716 0.011308899808388491 -0.0053697930509224515 -0.034769726668794951 0.029773751099904378 -0.032254219865426412 -0.02320640489459037 -0.022163951521118483 0.022491065226495261 -0.010157829302162018 0.0038272166188107804 -0.016394140757620336 0.015882593987043947 -0.029794025570154193
leaf_weight=13.000000000000002 10.999999999999998 14.999999999999998 12.999999999999998 10.000000000000002 11.999999999999998 14.999999999999998 10.000000000000002 10.000000000000002 11.999999999999998 12.000000000000002 10.999999999999998 11.999999999999998 15.999999999999998 9.9999999999999982 9.9999999999999982
leaf_count=13 11 15 13 10 12 15 10 10 12 12 11 12 16 10 10
internal_value=0 0.0287188 -0.0140255 -0.0168647 -0.020729 0.0195633 -0.0186743 -0.0215191 -0.0121881 0.0149222 -0.0163813 -0.000353242 -0.0190142 0.0194872 -0.0310241
internal_weight=0 63 129 116 94 48 82 57 25 33 37 22 26 22 20
internal_count=192 63 129 116 94 48 82 57 25 33 37 22 26 22 20
is_linear=0
shrinkage=0.05


Tree=13
num_leaves=16
num_cat=0
split_feature=5 5 15 12 5 2 16 15 5 5 0 3 5 15 15
split_gain=28.004 7.40553 2.39276 1.91533 1.83285 0.948784 0.887807 0.697143 0.672596 0.392445 0.326564 0.203412 0.225135 0.167243 0.0980513
threshold=41268.626200000006 72953.846700000009 18922083.33333334 71.000000000000014 28681.207500000004 1.0000000180025095e-35 102135.00000000001 30316600.000000004 5051.6744000000008 35638.722400000013 209.00000000000003 1.5000000000000002 57815.73260000001 31103033.33333334 15259750.000000002
decision_type=2 2 2 2 2 2 2 2 2 2 2 2 2 2 2
left_child=3 2 -2 4 5 8 -7 -3 -1 -6 -8 12 -4 -13 -12
right_child=1 7 11 -5 9 6 10 -9 -10 -11 14 13 -14 -15 -16
leaf_value=-0.0056333970012409336 -0.0080251227691769591 0.039489896595478045 0.011085237300721926 0.0045703497122634544 -0.011533606050607674 -0.035026051203409833 -0.027746753192817171 0.057730714299462062 -0.022155168787999589 0.0010055169482560209 -0.021946810334920876 0.017947937399148937 0.020988283882086928 0.026882173256440597 -0.015830087387248091
leaf_weight=14.000000000000002 9.9999999999999982 10.000000000000002 12.000000000000002 10.999999999999998 13.000000000000002 14.999999999999998 11.999999999999998 10.999999999999998 10.999999999999998 11.999999999999998 10.000000000000002 10.000000000000002 10.999999999999998 10.999999999999998 19
leaf_count=14 10 10 12 11 13 15 12 11 11 12 10 10 11 11 19
internal_value=0 0.0238502 0.0140523 -0.0152886 -0.0173494 -0.021002 -0.0246177 0.0490446 -0.012903 -0.00551483 -0.0208098 0.0190699 0.0158215 0.0226278 -0.0179393
internal_weight=0 75 54 117 106 81 56 21 25 25 41 44 23 21 29
internal_count=192 75 54 117 106 81 56 21 25 25 41 44 23 21 29
is_linear=0
shrinkage=0.05


Tree=14
num_leaves=15
num_cat=0
split_feature=5 5 15 5 12 1 5 3 15 1 1 5 11 0
split_gain=25.2736 6.72133 3.11438 1.74194 1.42352 1.06264 0.945832 0.416634 0.392751 0.473862 0.450525 0.308246 0.225759 0.147407
threshold=41268.626200000006 84031.152600000016 18922083.33333334 21174.552150000007 1.0000000180025095e-35 2000.5000000000002 68159.249100000015 1.5000000000000002 10601833.333333334 2000.5000000000002 2013.5000000000002 32178.977000000003 3.5000000000000004 846.50000000000011
decision_type=2 2 2 2 2 2 2 2 2 2 2 2 2 2
left_child=3 2 -2 4 8 -5 12 11 -1 -10 -11 -7 13 -4
right_child=1 -3 6 5 -6 7 -8 -9 9 10 -12 -13 -14 -15
leaf_value=-0.029293738926450416 -0.0088690308515321139 0.052593878507614135 0.01047985213032613 -0.021711673587560654 -0.0053780714449073591 -0.011611956600099799 0.034289586097002028 0.0043133498829168579 -0.010991232432425023 -0.029087877646088597 -0.015943040089173754 -0.00059242623180828314 0.02312268792566928 0.017810763174202295
leaf_weight=18 10.999999999999998 14.999999999999998 12.000000000000002 9.9999999999999982 13.999999999999998 15.000000000000002 9.9999999999999982 11.999999999999998 9.9999999999999982 16.000000000000004 10.999999999999998 10.999999999999998 10.999999999999998 15.999999999999998
leaf_count=18 11 15 12 10 14 15 10 12 10 16 11 11 11 16
internal_value=0 0.0226577 0.0151736 -0.0145241 -0.0196126 -0.00720943 0.0205709 -0.00339305 -0.023236 -0.020289 -0.0237326 -0.00694985 0.0170533 0.0146689
internal_weight=0 75 60 117 69 48 49 38 55 37 27 26 39 28
internal_count=192 75 60 117 69 48 49 38 55 37 27 26 39 28
is_linear=0
shrinkage=0.05


Tree=15
num_leaves=14
num_cat=0
split_feature=5 5 12 5 1 2 16 5 16 1 0 5 9
split_gain=22.844 5.56311 2.08275 1.86729 1.40135 0.839311 0.770336 0.586296 0.573349 0.385782 0.281094 0.203935 0.0842987
threshold=43573.713200000006 84031.152600000016 71.000000000000014 28681.207500000004 2004.5000000000002 1.0000000180025095e-35 102135.00000000001 5051.6744000000008 280837.50000000006 2004.5000000000002 209.00000000000003 57815.73260000001 79.500000000000014
decision_type=2 2 2 2 2 2 2 2 2 2 2 2 2
left_child=2 4 3 5 -2 7 -7 -1 11 -5 -8 -6 -12
right_child=1 -3 -4 9 8 6 10 -9 -10 -11 12 -13 -14
leaf_value=-0.0045987140520342747 -0.00038100213489749218 0.04996418257554372 0.0068707359333833058 -0.011344931899414705 0.011707015320592162 -0.032099419534206391 -0.025292967042575283 -0.020024175840345299 0.029465523429892282 0.00022883436435626616 -0.01898425727018288 0.019753220128930278 -0.013589526340365411
leaf_weight=14.000000000000002 10.999999999999998 14.999999999999998 11.999999999999998 12.000000000000002 13.999999999999998 14.999999999999998 11.999999999999998 10.999999999999998 10.999999999999998 18 14.000000000000002 18 14.999999999999998
leaf_count=14 11 15 12 12 14 15 12 11 11 18 14 18 15
internal_value=0 0.0230268 -0.0129175 -0.0150567 0.0155442 -0.0190034 -0.0224041 -0.0113859 0.0196181 -0.00440067 -0.018857 0.016233 -0.0161939
internal_weight=0 69 123 111 54 81 56 25 43 30 41 32 29
internal_count=192 69 123 111 54 81 56 25 43 30 41 32 29
is_linear=0
shrinkage=0.05


Tree=16
num_leaves=17
num_cat=0
split_feature=5 5 15 5 12 1 15 3 6 1 5 1 3 5 15 15
split_gain=20.6401 5.55015 1.84139 1.4444 1.15614 0.909823 0.559601 0.356295 0.342416 0.291809 0.259087 0.237752 0.158746 0.17581 0.131009 0.0745092
threshold=41268.626200000006 72953.846700000009 18922083.33333334 21174.552150000007 1.0000000180025095e-35 2000.5000000000002 30316600.000000004 1.5000000000000002 1.0000000180025095e-35 1998.5000000000002 32178.977000000003 2005.5000000000002 1.5000000000000002 57815.73260000001 31103033.33333334 20015250.000000004
decision_type=2 2 2 2 2 2 2 2 2 2 2 2 2 2 2 2
left_child=3 2 -2 4 8 -5 -3 10 9 -1 -7 -11 13 -4 -14 -13
right_child=1 6 12 5 -6 7 -8 -9 -10 11 -12 15 14 -15 -16 -17
leaf_value=-0.011999117075042292 -0.0073739483533427118 0.03372637689113616 0.0093401115387678115 -0.019883610755205158 -0.004930736124515534 -0.010496712308377025 0.050069028139114381 0.0041932276217266917 -0.028914705460721796 -0.027016955458869535 -0.000394004941071299 -0.021318153999745838 0.015396271608769888 0.018091335994276134 0.023303662443702872 -0.015354832871393723
leaf_weight=10.999999999999998 9.9999999999999982 10.000000000000002 12.000000000000002 9.9999999999999982 13.999999999999998 15.000000000000002 10.999999999999998 11.999999999999998 10.999999999999998 11.999999999999998 10.999999999999998 10.000000000000002 10.000000000000002 10.999999999999998 10.999999999999998 10.999999999999998
leaf_count=11 10 10 12 10 14 15 11 12 11 12 11 10 10 11 11 11
internal_value=0 0.0204756 0.0119935 -0.0131254 -0.017759 -0.00646463 0.0422868 -0.00293332 -0.0210244 -0.0190518 -0.00622249 -0.0214027 0.0163952 0.0135255 0.0195382 -0.0181945
internal_weight=0 75 54 117 69 48 21 38 55 44 26 33 44 23 21 21
internal_count=192 75 54 117 69 48 21 38 55 44 26 33 44 23 21 21
is_linear=0
shrinkage=0.05


Tree=17
num_leaves=16
num_cat=0
split_feature=5 5 12 1 5 2 16 5 2 3 0 5 1 1 9
split_gain=18.6303 5.23619 1.41837 1.41649 0.939389 0.725738 0.663342 0.514494 0.435631 0.253383 0.23346 0.198313 0.160966 0.14166 0.0754214
threshold=40457.780500000008 72953.846700000009 71.000000000000014 2004.5000000000002 28681.207500000004 1.0000000180025095e-35 102135.00000000001 5051.6744000000008 1.0000000180025095e-35 1.5000000000000002 209.00000000000003 54620.911550000012 2012.5000000000002 2006.5000000000002 79.500000000000014
decision_type=2 2 2 2 2 2 2 2 2 2 2 2 2 2 2
left_child=2 3 4 -2 5 7 -7 -1 -3 11 -8 -5 -11 -6 -12
right_child=1 8 -4 9 13 6 10 -9 -10 12 14 -13 -14 -15 -16
leaf_value=-0.0037529345867889259 -0.0051523214968090709 0.047725412622094142 0.0041828989982604986 0.0063265403944321634 -0.0095556970241225548 -0.029353448947270711 -0.02293037697672844 -0.018202996541830628 0.033306164633144029 0.014792160037904973 -0.017277385427483485 0.015448402986825947 0.023381457477807999 -0.0015313154594464736 -0.012174608434240024
leaf_weight=14.000000000000002 10.999999999999998 10.000000000000002 10.999999999999998 11.000000000000002 11.000000000000002 14.999999999999998 11.999999999999998 10.999999999999998 10.999999999999998 12.000000000000002 14.000000000000002 12.999999999999998 9.9999999999999982 10.999999999999998 14.999999999999998
leaf_count=14 11 10 11 11 11 15 12 11 11 12 14 13 10 11 15
internal_value=0 0.0188293 -0.0128832 0.0109661 -0.0147058 -0.0171944 -0.0203566 -0.010111 0.0401725 0.0148205 -0.017065 0.0112675 0.0186964 -0.00554351 -0.014638
internal_weight=0 78 114 57 103 81 56 25 21 46 41 24 22 22 29
internal_count=192 78 114 57 103 81 56 25 21 46 41 24 22 22 29
is_linear=0
shrinkage=0.05


Tree=18
num_leaves=16
num_cat=0
split_feature=5 5 5 12 15 15 15 0 15 7 5 16 1 5 0
split_gain=16.8577 3.87901 2.68635 1.5451 1.03161 0.837359 0.577864 0.464075 0.384509 0.317103 0.396259 0.226368 0.164863 0.0620445 0.0455568
threshold=57815.73260000001 35638.722400000013 87370.975250000018 1.0000000180025095e-35 18383375.000000004 19074750.000000004 32394333.33333334 181.50000000000003 24653250.000000004 377.00000000000006 66250.217750000025 239878.75000000003 1997.5000000000002 44884.555350000002 54.000000000000007
decision_type=2 2 2 2 2 2 2 2 2 2 2 2 2 2 2
left_child=1 3 9 5 -3 7 8 14 -7 10 -2 13 -9 -6 -1
right_child=2 4 -4 -5 11 6 -8 12 -10 -11 -12 -13 -14 -15 -16
leaf_value=-0.027881315986936286 0.015525629129260775 -0.0093726974865421652 0.047036246862262487 -0.00083015121985226866 0.0031315901875495901 -0.011339342740497416 -0.020296519398689272 -0.020661110493044053 0.0014976963028311731 0.012479219348593192 0.029002226330339911 0.014836147520691158 -0.013006630320759381 0.0085732963444157088 -0.023311829492449761
leaf_weight=12.000000000000002 10.000000000000002 9.9999999999999982 11.999999999999998 20 10.000000000000002 14.000000000000002 9.9999999999999982 12.000000000000002 9.9999999999999982 10.999999999999998 11.999999999999998 10.999999999999998 17 10.999999999999998 9.9999999999999982
leaf_count=12 10 10 12 20 10 14 10 12 10 11 12 11 17 11 10
internal_value=0 -0.00819721 0.0267775 -0.0133341 0.00464507 -0.0162762 -0.0101982 -0.0203282 -0.00599058 0.0194107 0.0228765 0.00902562 -0.016174 0.00598201 -0.0258043
internal_weight=0 147 45 105 42 85 34 51 24 33 22 32 29 21 22
internal_count=192 147 45 105 42 85 34 51 24 33 22 32 29 21 22
is_linear=0
shrinkage=0.05


Tree=19
num_leaves=14
num_cat=0
split_feature=5 5 12 5 1 6 5 0 5 2 10 3 0
split_gain=15.2313 3.89232 1.49107 1.25597 1.19463 0.654405 0.502374 0.399776 0.579905 0.179785 0.170192 0.142892 0.0653128
threshold=43573.713200000006 87370.975250000018 71.000000000000014 35638.722400000013 2004.5000000000002 1.0000000180025095e-35 69573.771200000003 31.500000000000004 18326.570500000005 1.0000000180025095e-35 89.000000000000014 1.5000000000000002 469.00000000000006
decision_type=2 2 2 2 2 2 2 2 2 2 2 2 2
left_child=2 4 3 5 -2 7 11 -1 9 -9 12 -6 -10
right_child=1 -3 -4 -5 6 -7 -8 8 10 -11 -12 -13 -14
leaf_value=-0.0049805942045238159 -0.0014486868654123763 0.044684433533499643 0.0061954067399104442 0.00014873657868627241 0.010989347194683636 -0.025525142500797911 0.026807528659701346 -0.015681465640664097 -0.010526219553624589 -0.02330087828449905 -0.0054735275489899019 0.017289519889487161 -0.015598623200573706
leaf_weight=12.999999999999998 10.999999999999998 11.999999999999998 11.999999999999998 17 18 11.999999999999998 9.9999999999999982 15.000000000000002 15.000000000000002 15.999999999999998 11.999999999999998 18 10.999999999999998
leaf_count=13 11 12 12 17 18 12 10 15 15 16 12 18 11
internal_value=0 0.0188025 -0.0105477 -0.0123578 0.0133537 -0.0146196 0.0168934 -0.0130237 -0.0145391 -0.0196141 -0.010399 0.0141394 -0.0126722
internal_weight=0 69 123 111 57 94 46 82 69 31 38 36 26
internal_count=192 69 123 111 57 94 46 82 69 31 38 36 26
is_linear=0
shrinkage=0.05


Tree=20
num_leaves=15
num_cat=0
split_feature=5 5 5 12 1 15 15 0 15 7 5 10 1 0
split_gain=13.8406 3.13481 2.16501 1.27336 0.908129 0.702761 0.496857 0.410861 0.34256 0.297894 0.337025 0.233774 0.146728 0.0483633
threshold=57815.73260000001 35638.722400000013 87370.975250000018 1.0000000180025095e-35 2004.5000000000002 19074750.000000004 32394333.33333334 181.50000000000003 24653250.000000004 377.00000000000006 66250.217750000025 44.500000000000007 1997.5000000000002 54.000000000000007
decision_type=2 2 2 2 2 2 2 2 2 2 2 2 2 2
left_child=1 3 9 5 -3 7 8 13 -7 10 -2 -6 -9 -1
right_child=2 4 -4 -5 11 6 -8 12 -10 -11 -12 -13 -14 -15
leaf_value=-0.025721035141032186 0.014229758065193887 -0.0075076109923732778 0.042450212190548585 -0.00069414446596056229 0.013180998349562285 -0.010295216288484099 -0.018512013107538222 -0.018752754976352051 0.0018213660363107919 0.010931538722731851 0.026658341567963362 0.0043534966930747028 -0.011531549511367784 -0.021012903093360364
leaf_weight=12.000000000000002 10.000000000000002 11.999999999999998 11.999999999999998 20 15.000000000000002 14.000000000000002 9.9999999999999982 12.000000000000002 9.9999999999999982 10.999999999999998 11.999999999999998 14.999999999999998 17 9.9999999999999982
leaf_count=12 10 12 12 20 15 14 10 12 10 11 12 15 17 10
internal_value=0 -0.00742753 0.0242633 -0.0120455 0.00411729 -0.0147164 -0.00914822 -0.0184284 -0.00524664 0.0176498 0.021009 0.00876725 -0.0145196 -0.023581
internal_weight=0 147 45 105 42 85 34 51 24 33 22 30 29 22
internal_count=192 147 45 105 42 85 34 51 24 33 22 30 29 22
is_linear=0
shrinkage=0.05


Tree=21
num_leaves=16
num_cat=0
split_feature=5 5 5 12 15 15 15 0 15 7 5 15 1 5 0
split_gain=12.4911 2.82917 1.95392 1.14921 0.86903 0.634241 0.448413 0.370802 0.309161 0.26885 0.304165 0.170971 0.132422 0.0674263 0.0436479
threshold=57815.73260000001 35638.722400000013 87370.975250000018 1.0000000180025095e-35 18383375.000000004 19074750.000000004 32394333.33333334 181.50000000000003 24653250.000000004 377.00000000000006 66250.217750000025 32708875.000000004 1997.5000000000002 46506.096150000005 54.000000000000007
decision_type=2 2 2 2 2 2 2 2 2 2 2 2 2 2 2
left_child=1 3 9 5 -3 7 8 14 -7 10 -2 13 -9 -6 -1
right_child=2 4 -4 -5 11 6 -8 12 -10 -11 -12 -13 -14 -15 -16
leaf_value=-0.024434983559573686 0.013518270254135127 -0.0089544066833332197 0.040327701442098872 -0.00065943752881139519 0.0025855577804825515 -0.009780455492520039 -0.017586412467062475 -0.017815117126641172 0.0017302975337952376 0.010384961725635963 0.025325424938152236 0.012981734615327282 -0.01095497231820927 0.0082583643402904285 -0.019962257978040729
leaf_weight=12.000000000000002 10.000000000000002 9.9999999999999982 11.999999999999998 20 11.000000000000002 14.000000000000002 9.9999999999999982 12.000000000000002 9.9999999999999982 10.999999999999998 11.999999999999998 10.999999999999998 17 9.9999999999999982 9.9999999999999982
leaf_count=12 10 10 12 20 11 14 10 12 10 11 12 11 17 10 10
internal_value=0 -0.00705616 0.0230501 -0.0114432 0.00391142 -0.0139805 -0.00869081 -0.017507 -0.00498431 0.0167673 0.0199585 0.007932 -0.0137937 0.00528689 -0.0224019
internal_weight=0 147 45 105 42 85 34 51 24 33 22 32 29 21 22
internal_count=192 147 45 105 42 85 34 51 24 33 22 32 29 21 22
is_linear=0
shrinkage=0.05


Tree=22
num_leaves=16
num_cat=0
split_feature=0 15 12 16 0 11 15 8 15 0 16 15 1 10 1
split_gain=8.89317 2.92781 2.43621 1.96421 1.40984 0.973445 0.648911 0.535831 0.426645 0.286241 0.272315 0.254858 0.146882 0.137666 0.114752
threshold=558.50000000000011 17090166.666666668 71.000000000000014 490894.00000000006 1041.0000000000002 3.5000000000000004 19074750.000000004 384.00000000000006 32394333.33333334 743.50000000000011 171520.71428571432 24653250.000000004 2008.5000000000002 122.00000000000001 2000.5000000000002
decision_type=2 2 2 2 2 2 2 2 2 2 2 2 2 2 2
left_child=2 -2 5 4 9 6 10 -6 11 -3 12 -8 14 -11 -1
right_child=1 3 -4 -5 7 -7 8 -9 -10 13 -12 -13 -14 -15 -16
leaf_value=-0.019591595755809973 -0.012574820484142039 0.0010479814528177181 0.009657869835694631 0.03686366334557533 0.015583502631634469 0.0020108411559538746 -0.0091640888946130841 0.031951627731323241 -0.016707091666758062 0.00591941029680046 -0.010486603341996671 0.0016437832172960043 -0.022612885407665196 0.013098030948244474 -0.01276727764105255
leaf_weight=14.000000000000002 9.9999999999999982 11.999999999999998 14.999999999999998 9.9999999999999982 10.000000000000002 10.999999999999998 12.000000000000002 9.9999999999999982 9.9999999999999982 11.000000000000002 11.999999999999998 9.9999999999999982 17 17 10.999999999999998
leaf_count=14 10 12 15 10 10 11 12 10 10 11 12 10 17 17 11
internal_value=0 0.0127324 -0.0090946 0.0163478 0.0129285 -0.0119945 -0.0137858 0.0237676 -0.00814382 0.0075089 -0.0171293 -0.00425142 -0.0190272 0.0102779 -0.0165889
internal_weight=0 80 112 70 60 97 86 20 32 40 54 22 42 28 25
internal_count=192 80 112 70 60 97 86 20 32 40 54 22 42 28 25
is_linear=0
shrinkage=0.05


Tree=23
num_leaves=16
num_cat=0
split_feature=5 5 5 2 10 15 1 5 15 15 5 10 5 16 1
split_gain=10.1884 2.33846 1.67536 0.972382 1.42594 0.723935 0.661553 0.584804 0.231656 0.23025 0.196944 0.170643 0.154311 0.107037 0.0575777
threshold=57815.73260000001 35638.722400000013 87370.975250000018 1.0000000180025095e-35 44.500000000000007 18383375.000000004 2008.5000000000002 7113.1511500000015 21551750.000000004 14551250.000000002 66250.217750000025 44.500000000000007 28681.207500000004 102135.00000000001 2007.5000000000002
decision_type=2 2 2 2 2 2 2 2 2 2 2 2 2 2 2
left_child=1 3 8 4 6 -3 -1 13 -2 -9 -10 -7 14 -5 -11
right_child=2 5 -4 7 -6 11 -8 9 10 12 -12 -13 -14 -15 -16
leaf_value=-0.0037398422091168208 0.0098034846094938437 -0.0081442380754742777 0.036816003421942398 -0.024647253006696693 -0.018463588886978952 0.010919361119158567 0.013098289184272289 -0.01560041266219581 0.01341540805995464 -0.0084981323004915139 0.023338714130222801 0.003616905210742516 -0.0032524527236819272 -0.017331606112420558 -0.013544620648026468
leaf_weight=14.000000000000002 12.999999999999998 9.9999999999999982 11.999999999999998 10.000000000000002 10.999999999999998 15.999999999999998 9.9999999999999982 17 10.000000000000002 13.000000000000002 9.9999999999999982 15.999999999999998 9.9999999999999982 9.9999999999999982 9.9999999999999982
leaf_count=14 13 10 12 10 11 16 10 17 10 13 10 16 10 10 10
internal_value=0 -0.00637264 0.0208173 -0.0103611 -0.00355641 0.00359852 0.00327605 -0.0137635 0.0149996 -0.0108731 0.0183771 0.00726813 -0.00843777 -0.0209894 -0.0106923
internal_weight=0 147 45 105 35 42 24 70 33 50 20 32 33 20 23
internal_count=192 147 45 105 35 42 24 70 33 50 20 32 33 20 23
is_linear=0
shrinkage=0.05


Tree=24
num_leaves=16
num_cat=0
split_feature=5 5 5 2 10 1 0 5 7 5 10 15 5 5 1
split_gain=9.19502 2.11046 1.51202 0.877575 1.28691 0.676521 0.614363 0.527786 0.218244 0.233013 0.210462 0.2078 0.139266 0.10806 0.0519638
threshold=57815.73260000001 35638.722400000013 87370.975250000018 1.0000000180025095e-35 44.500000000000007 2004.5000000000002 54.000000000000007 7113.1511500000015 377.00000000000006 66250.217750000025 44.500000000000007 14551250.000000002 28681.207500000004 1560.2034000000003 2007.5000000000002
decision_type=2 2 2 2 2 2 2 2 2 2 2 2 2 2 2
left_child=1 3 8 4 6 -3 -1 13 9 -2 -7 -9 14 -5 -13
right_child=2 5 -4 7 -6 10 -8 11 -10 -11 -12 12 -14 -15 -16
leaf_value=-0.0048875145720861223 0.011487928591668603 -0.0066149842770149309 0.034975203375021621 -0.016264710389077657 -0.017540409636091103 0.011619924595579503 0.011112001997147066 -0.014820392364088228 0.0084991948171095413 0.021822230981585259 0.0032441284837356459 -0.0080732257463611064 -0.0030898300907574597 -0.023615205511450771 -0.012867389470338823
leaf_weight=12.000000000000002 10.000000000000002 11.999999999999998 11.999999999999998 10.000000000000002 10.999999999999998 15.000000000000002 11.999999999999998 17 10.999999999999998 11.999999999999998 14.999999999999998 13.000000000000002 9.9999999999999982 9.9999999999999982 9.9999999999999982
leaf_count=12 10 12 12 10 11 15 12 17 11 12 15 13 10 10 10
internal_value=0 -0.00605401 0.0197764 -0.00984305 -0.00337859 0.00341859 0.00311224 -0.0130753 0.0142496 0.0171248 0.00743203 -0.0103294 -0.00801588 -0.01994 -0.0101576
internal_weight=0 147 45 105 35 42 24 70 33 22 30 50 33 20 23
internal_count=192 147 45 105 35 42 24 70 33 22 30 50 33 20 23
is_linear=0
shrinkage=0.05


Tree=25
num_leaves=16
num_cat=0
split_feature=5 5 5 12 15 1 11 5 1 10 15 16 5 15 5
split_gain=8.2985 1.90469 1.36459 0.793263 0.6269 0.397772 0.525249 0.461446 0.329443 0.400102 0.200742 0.165035 0.159569 0.0855347 0.0288711
threshold=57815.73260000001 35638.722400000013 87370.975250000018 71.000000000000014 18383375.000000004 2014.5000000000002 1.0000000180025095e-35 2122.9037000000008 2004.5000000000002 44.500000000000007 21551750.000000004 239878.75000000003 66250.217750000025 15259750.000000002 44884.555350000002
decision_type=2 2 2 2 2 2 2 2 2 2 2 2 2 2 2
left_child=1 3 10 5 -3 6 7 -1 13 -10 -2 14 -12 -9 -6
right_child=2 4 -4 -5 11 -7 -8 8 9 -11 12 -13 -14 -15 -16
leaf_value=-0.020221193752844226 0.0087001379579305649 -0.0076798009942285724 0.033226442329275116 0.0033534224060448731 0.0021193011035211379 -0.017520921718743112 0.0014240049244835973 -0.015102095529437063 0.0016985658401002482 -0.010379121355799726 0.012215072438120839 0.011623811891133136 0.021147282221354546 -0.009274378158152104 0.0058313639644025405
leaf_weight=10.999999999999998 12.999999999999998 9.9999999999999982 11.999999999999998 10.999999999999998 10.000000000000002 18 9.9999999999999982 17.000000000000004 12.000000000000002 15.999999999999998 10.000000000000002 10.999999999999998 9.9999999999999982 9.9999999999999982 10.999999999999998
leaf_count=11 13 10 12 11 10 18 10 17 12 16 10 11 10 10 11
internal_value=0 -0.00575131 0.0187876 -0.0093509 0.00324767 -0.0108376 -0.00925468 -0.0108727 -0.00900296 -0.00520297 0.0135371 0.0066625 0.0166812 -0.0129437 0.00406371
internal_weight=0 147 45 105 42 94 76 66 55 28 33 32 20 27 21
internal_count=192 147 45 105 42 94 76 66 55 28 33 32 20 27 21
is_linear=0
shrinkage=0.05


Tree=26
num_leaves=15
num_cat=0
split_feature=5 5 5 1 2 2 5 1 5 0 5 3 1 15
split_gain=7.49246 1.96245 0.814022 0.749906 0.548093 0.520022 0.345346 0.324529 0.273979 0.177527 0.164534 0.11223 0.0600138 0.0213401
threshold=43573.713200000006 87370.975250000018 19083.237900000004 2004.5000000000002 1.0000000180025095e-35 1.0000000180025095e-35 5051.6744000000008 2002.5000000000002 69573.771200000003 94.500000000000014 28681.207500000004 1.5000000000000002 2009.5000000000002 24653250.000000004
decision_type=2 2 2 2 2 2 2 2 2 2 2 2 2 2
left_child=2 3 4 -2 6 -4 -1 -7 11 -6 -9 -5 -11 -12
right_child=1 -3 5 8 9 7 -8 10 -10 12 13 -13 -14 -15
leaf_value=-0.00040855173553739271 -0.0024094335565512832 0.031565120692054437 0.0052078302783359377 0.0072974252255840442 -0.019381926730275154 -0.011835212906201681 -0.012247330796989529 -0.007788159732114182 0.019444425515830518 -0.0094781185314059234 0.0014582853356841948 0.012880880820254485 -0.014630259344210993 -0.0018082156125456097
leaf_weight=14.000000000000002 10.999999999999998 11.999999999999998 13.999999999999998 18 14.999999999999998 14.999999999999998 10.999999999999998 11.000000000000002 9.9999999999999982 10.000000000000002 10.000000000000002 18 12.999999999999998 9.9999999999999982
leaf_count=14 11 12 14 18 15 15 11 11 10 10 10 18 13 10
internal_value=0 0.0131874 -0.00739782 0.00931842 -0.0113674 -0.00322979 -0.00561761 -0.00579777 0.0121229 -0.0151501 -0.00287642 0.0100892 -0.0123902 -0.000174965
internal_weight=0 69 123 57 63 60 25 46 46 38 31 36 23 20
internal_count=192 69 123 57 63 60 25 46 46 38 31 36 23 20
is_linear=0
shrinkage=0.05


Tree=27
num_leaves=16
num_cat=0
split_feature=5 5 5 12 15 6 0 5 7 5 7 16 15 5 15
split_gain=6.80782 1.54472 1.10111 0.681009 0.546868 0.341682 0.36787 0.443087 0.194893 0.184316 0.15975 0.142638 0.0684065 0.0701725 0.0270275
threshold=57815.73260000001 35638.722400000013 87370.975250000018 71.000000000000014 18383375.000000004 1.0000000180025095e-35 31.500000000000004 16446.197500000006 377.00000000000006 66250.217750000025 1.0000000180025095e-35 239878.75000000003 19373916.666666668 26418.973550000002 22250500.000000004
decision_type=2 2 2 2 2 2 2 2 2 2 2 2 2 2 2
left_child=1 3 8 5 -3 6 -1 10 9 -2 -8 14 -9 -14 -6
right_child=2 4 -4 -5 11 -7 7 12 -10 -11 -12 -13 13 -15 -16
leaf_value=-0.00095965696785312428 0.010003947950899598 -0.0073112116460106336 0.029986863319451613 0.0033203123306686229 0.005378617295487359 -0.017708457075059414 -0.018247942964080718 -0.0090153080950442117 0.0068662187761881141 0.019195160300781333 -0.0106162761648496 0.010696750168095936 -0.0077435140413316785 -0.0020958074633116749 0.0017870291089639068
leaf_weight=12.999999999999998 10.000000000000002 9.9999999999999982 11.999999999999998 10.999999999999998 11.000000000000002 11.999999999999998 16.000000000000004 19 10.999999999999998 11.999999999999998 11.999999999999998 10.999999999999998 11.000000000000002 10.999999999999998 9.9999999999999982
leaf_count=13 10 10 12 11 11 12 16 19 11 12 12 11 11 11 10
internal_value=0 -0.0052092 0.0170167 -0.00845085 0.00289493 -0.00982833 -0.00867514 -0.0101288 0.0123003 0.0150173 -0.0149772 0.00608435 -0.00681764 -0.00491966 0.00366834
internal_weight=0 147 45 105 42 94 82 69 33 22 28 32 41 22 21
internal_count=192 147 45 105 42 94 82 69 33 22 28 32 41 22 21
is_linear=0
shrinkage=0.05


Tree=28
num_leaves=16
num_cat=0
split_feature=5 5 5 2 10 1 1 5 10 7 5 15 5 16 1
split_gain=6.14405 1.39411 0.993749 0.660636 1.11039 0.55613 0.508253 0.397319 0.188043 0.175891 0.166346 0.156685 0.106196 0.0974339 0.0395873
threshold=57815.73260000001 35638.722400000013 87370.975250000018 1.0000000180025095e-35 44.500000000000007 2008.5000000000002 2004.5000000000002 7113.1511500000015 44.500000000000007 377.00000000000006 66250.217750000025 14551250.000000002 28681.207500000004 102135.00000000001 2007.5000000000002
decision_type=2 2 2 2 2 2 2 2 2 2 2 2 2 2 2
left_child=1 3 9 4 5 -1 -3 13 -8 10 -2 -9 14 -5 -13
right_child=2 6 -4 7 -6 -7 8 11 -10 -11 -12 12 -14 -15 -16
leaf_value=-0.0028228483645112382 0.0095037505403161027 -0.0059465319927160948 0.028487520323445398 -0.020278674811124796 -0.01557426681234078 0.012615463230758905 0.0101874376522998 -0.01234998839962132 0.0022703113406896589 0.0065229078416119933 0.018235401894586781 -0.0064922833528656201 -0.0021397284051636232 -0.013298920691013336 -0.010676752328872682
leaf_weight=14.000000000000002 10.000000000000002 11.999999999999998 11.999999999999998 10.000000000000002 10.999999999999998 9.9999999999999982 15.000000000000002 17 14.999999999999998 10.999999999999998 11.999999999999998 13.000000000000002 9.9999999999999982 9.9999999999999982 9.9999999999999982
leaf_count=14 10 12 12 10 11 10 15 17 15 11 12 13 10 10 10
internal_value=0 -0.00494874 0.0161659 -0.00802831 -0.00241949 0.00360978 0.00275019 -0.0108327 0.00622887 0.0116853 0.0142665 -0.00845029 -0.00644135 -0.0167888 -0.00831162
internal_weight=0 147 45 105 35 24 42 70 30 33 22 50 33 20 23
internal_count=192 147 45 105 35 24 42 70 30 33 22 50 33 20 23
is_linear=0
shrinkage=0.05


Tree=29
num_leaves=16
num_cat=0
split_feature=5 5 5 2 10 0 15 5 7 5 15 10 5 5 1
split_gain=5.54501 1.25819 0.896859 0.596224 1.00213 0.504597 0.474113 0.35858 0.158741 0.150127 0.141408 0.127404 0.0967931 0.0958423 0.0357276
threshold=57815.73260000001 35638.722400000013 87370.975250000018 1.0000000180025095e-35 44.500000000000007 54.000000000000007 18383375.000000004 7113.1511500000015 377.00000000000006 66250.217750000025 14551250.000000002 44.500000000000007 1560.2034000000003 28681.207500000004 2007.5000000000002
decision_type=2 2 2 2 2 2 2 2 2 2 2 2 2 2 2
left_child=1 3 8 4 5 -1 -3 12 9 -2 -9 -8 -5 14 -12
right_child=2 6 -4 7 -6 -7 11 10 -10 -11 13 -13 -14 -15 -16
leaf_value=-0.0038206834811717258 0.009028562828898426 -0.0068903340201359247 0.027063145240147909 -0.012470977324992414 -0.014795553328638729 0.010679268922346335 0.0087372792651876814 -0.011732489111668923 0.0061967625367370521 0.017323632181311648 -0.0061676693220551184 0.0024274584255181255 -0.019427738897502423 -0.0020327418911620042 -0.010142914839088918
leaf_weight=12.000000000000002 10.000000000000002 9.9999999999999982 11.999999999999998 10.000000000000002 10.999999999999998 11.999999999999998 15.999999999999998 17 10.999999999999998 11.999999999999998 13.000000000000002 15.999999999999998 9.9999999999999982 9.9999999999999982 9.9999999999999982
leaf_count=12 10 10 12 10 11 12 16 17 11 12 13 16 10 10 10
internal_value=0 -0.0047013 0.0153576 -0.00762689 -0.00229852 0.00342929 0.00261268 -0.0102911 0.011101 0.0135531 -0.00802777 0.00558237 -0.0159494 -0.00611928 -0.00789604
internal_weight=0 147 45 105 35 24 42 70 33 22 50 32 20 33 23
internal_count=192 147 45 105 35 24 42 70 33 22 50 32 20 33 23
is_linear=0
shrinkage=0.05


Tree=30
num_leaves=15
num_cat=0
split_feature=5 5 5 2 10 1 1 0 15 10 10 5 5 7
split_gain=5.00437 1.13551 0.809415 0.538092 0.904421 0.501907 0.439378 0.332116 0.19071 0.1626 0.152918 0.0789638 0.0667534 0.0478675
threshold=57815.73260000001 35638.722400000013 87370.975250000018 1.0000000180025095e-35 44.500000000000007 2008.5000000000002 2004.5000000000002 94.500000000000014 14551250.000000002 44.500000000000007 244.50000000000003 28681.207500000004 12746.031000000001 85.500000000000014
decision_type=2 2 2 2 2 2 2 2 2 2 2 2 2 2
left_child=1 3 10 4 5 -1 -3 -5 12 -8 -2 13 -9 -10
right_child=2 6 -4 7 -6 -7 9 8 11 -11 -12 -13 -14 -15
leaf_value=-0.0028531706625861773 0.0076243045127117326 -0.0056039730707804361 0.025709987431764603 -0.016371329476435978 -0.014055775628763846 0.01181322567164898 0.0093974781082943066 -0.0087676665931940064 -0.0053322164607899521 0.0020354228466749192 0.014511081203818322 -0.0019311047962401063 -0.014412093399600548 -0.0098615234624594462
leaf_weight=14.000000000000002 19 11.999999999999998 11.999999999999998 14.999999999999998 10.999999999999998 9.9999999999999982 15.000000000000002 10.000000000000002 14.000000000000002 14.999999999999998 13.999999999999998 9.9999999999999982 10.999999999999998 9.9999999999999982
leaf_count=14 19 12 12 15 11 10 15 10 14 15 14 10 11 10
internal_value=0 -0.00446624 0.0145897 -0.00724555 -0.00218359 0.00325783 0.00248204 -0.00977653 -0.00797795 0.00571645 0.010546 -0.00566404 -0.0117243 -0.00721943
internal_weight=0 147 45 105 35 24 42 70 55 30 33 34 21 24
internal_count=192 147 45 105 35 24 42 70 55 30 33 34 21 24
is_linear=0
shrinkage=0.05


Tree=31
num_leaves=16
num_cat=0
split_feature=5 5 5 2 10 0 15 16 16 10 16 9 15 0 16
split_gain=4.51644 1.0248 0.730497 0.485628 0.81624 0.455398 0.411061 0.317743 0.152815 0.30988 0.124558 0.123741 0.0708011 0.0946001 0.0252501
threshold=57815.73260000001 35638.722400000013 87370.975250000018 1.0000000180025095e-35 44.500000000000007 54.000000000000007 18383375.000000004 102135.00000000001 252258.33333333334 201.50000000000003 227677.50000000003 161.50000000000003 14551250.000000002 317.00000000000006 182792.50000000003
decision_type=2 2 2 2 2 2 2 2 2 2 2 2 2 2 2
left_child=1 3 8 4 5 -1 -3 -5 9 -2 14 12 -9 -14 -8
right_child=2 6 -4 7 -6 -7 10 11 -10 -11 -12 -13 13 -15 -16
leaf_value=-0.0037925405427813516 0.0067996138664470464 -0.0064906406379304825 0.02442448806638519 -0.015013349966870416 -0.013352986962788485 0.0099824136161866302 0.0044833809160627408 -0.011399116550040033 0.0055176027584820991 0.018960909098386765 0.0091503398648152753 -0.0023071290599182247 -0.0097498764873792717 -0.0039224417450336307 0.00093020651489496243
leaf_weight=12.000000000000002 11.000000000000002 9.9999999999999982 11.999999999999998 18 10.999999999999998 11.999999999999998 10.000000000000002 13.999999999999998 11.999999999999998 9.9999999999999982 11.999999999999998 9.9999999999999982 15.000000000000002 12.999999999999998 9.9999999999999982
leaf_count=12 11 10 12 18 11 12 10 14 12 10 12 10 15 13 10
internal_value=0 -0.00424292 0.0138602 -0.00688327 -0.00207441 0.00309494 0.00235794 -0.0092877 0.0100187 0.0125907 0.00512312 -0.00730575 -0.00849589 -0.00704428 0.00270679
internal_weight=0 147 45 105 35 24 42 70 33 21 32 52 42 28 20
internal_count=192 147 45 105 35 24 42 70 33 21 32 52 42 28 20
is_linear=0
shrinkage=0.05


Tree=32
num_leaves=14
num_cat=0
split_feature=5 16 15 12 15 0 15 0 0 16 16 10 0
split_gain=4.0865 1.22697 0.680379 0.563722 0.439579 0.356078 0.259529 0.254592 0.479802 0.159154 0.094832 0.0559549 0.0293604
threshold=43573.713200000006 490894.00000000006 18922083.33333334 71.000000000000014 18383375.000000004 1041.0000000000002 32394333.33333334 31.500000000000004 54.000000000000007 157250.00000000003 166787.50000000003 122.00000000000001 209.00000000000003
decision_type=2 2 2 2 2 2 2 2 2 2 2 2 2
left_child=3 2 -2 4 7 11 9 -1 -9 -6 12 -4 -10
right_child=1 -3 5 -5 6 -7 -8 8 10 -11 -12 -13 -14
leaf_value=-0.002350614799863913 -0.0046203669668598612 0.02357755591018269 0.0031383839139545499 0.0048314132572462171 -0.0043591952570880372 0.015239468822255731 -0.0083314963926871613 -0.020574511699378489 -0.01208190863782709 0.0027488963510323731 -0.0050358476932160562 0.0076648088896440134 -0.0088030921165934868
leaf_weight=10.999999999999998 10.999999999999998 12.999999999999998 11.000000000000002 11.999999999999998 13.999999999999998 15.999999999999998 14.999999999999998 9.9999999999999982 11.000000000000002 18 13.999999999999998 18 18
leaf_count=11 11 13 11 12 14 16 15 10 11 18 14 18 18
internal_value=0 0.0097392 0.00652672 -0.00546345 -0.00657641 0.00925156 -0.0029047 -0.00927282 -0.0107095 -0.000360894 -0.00841531 0.00594789 -0.0100468
internal_weight=0 69 56 123 111 45 47 64 53 32 43 29 29
internal_count=192 69 56 123 111 45 47 64 53 32 43 29 29
is_linear=0
shrinkage=0.05


Tree=33
num_leaves=15
num_cat=0
split_feature=5 5 5 2 10 1 1 16 16 10 10 9 10 0
split_gain=3.70339 0.849569 0.639224 0.431549 0.742591 0.446777 0.357552 0.277392 0.146738 0.278436 0.138705 0.106034 0.0680016 0.0308733
threshold=57815.73260000001 35638.722400000013 87370.975250000018 1.0000000180025095e-35 44.500000000000007 2008.5000000000002 2004.5000000000002 102135.00000000001 252258.33333333334 201.50000000000003 44.500000000000007 145.50000000000003 1.0000000180025095e-35 223.50000000000003
decision_type=2 2 2 2 2 2 2 2 2 2 2 2 2 2
left_child=1 3 8 4 5 -1 -3 -5 9 -2 -8 12 13 -9
right_child=2 6 -4 7 -6 -7 10 11 -10 -11 -12 -13 -14 -15
leaf_value=-0.0025479080887245275 0.0059882137331772924 -0.0051263157666350404 0.0224330786926051 -0.013862474179930157 -0.012470626695589586 0.011289568757638336 0.0084855391162758052 -0.011560806620400396 0.0045465934517172476 0.01751600332558155 0.0016859186595926683 -0.0027502127242489505 -0.0048326838625750192 -0.0080595911336679236
leaf_weight=14.000000000000002 11.000000000000002 11.999999999999998 11.999999999999998 18 10.999999999999998 9.9999999999999982 15.000000000000002 10.000000000000002 11.999999999999998 9.9999999999999982 14.999999999999998 12.999999999999998 11.999999999999998 17
leaf_count=14 11 12 12 18 11 10 15 10 12 10 15 13 12 17
internal_value=0 -0.00384208 0.0125508 -0.00624612 -0.00171291 0.00321771 0.002168 -0.00851272 0.00895726 0.0114776 0.00508573 -0.00666089 -0.00796444 -0.00935634
internal_weight=0 147 45 105 35 24 42 70 33 21 30 52 39 27
internal_count=192 147 45 105 35 24 42 70 33 21 30 52 39 27
is_linear=0
shrinkage=0.05


Tree=34
num_leaves=16
num_cat=0
split_feature=5 12 15 16 16 0 9 1 5 1 0 15 15 0 5
split_gain=3.34231 0.802875 0.776719 0.61854 0.452124 0.375693 0.352997 0.296877 0.281896 0.349626 0.151091 0.150845 0.220433 0.174232 0.014868
threshold=57815.73260000001 71.000000000000014 16527916.66666667 490894.00000000006 227677.50000000003 635.00000000000011 1.0000000180025095e-35 2009.5000000000002 4154.3350500000006 1997.5000000000002 209.00000000000003 34005666.666666672 28670000.000000004 387.50000000000006 50812.395950000013
decision_type=2 2 2 2 2 2 2 2 2 2 2 2 2 2 2
left_child=1 2 6 4 7 11 8 -2 -1 -10 -11 12 13 -4 -7
right_child=3 -3 5 -5 -6 14 -8 -9 9 10 -12 -13 -14 -15 -16
leaf_value=-0.01643357053399086 0.019520955048501487 0.007311690424879393 -0.0075072454055771223 0.022890112921595575 0.0013971599821860975 0.0030661749048158517 -0.0014268862043536501 0.0078561135955775782 -0.015526480464772743 -0.0085664630274880985 -7.4611860327422619e-05 -0.0088334072381258018 0.004215611615218222 8.9132649680742865e-05 0.0057927086856216191
leaf_weight=15.999999999999998 10.000000000000002 14.999999999999998 18.000000000000004 9.9999999999999982 12.999999999999998 10.000000000000002 11.999999999999998 11.999999999999998 10.999999999999998 11.000000000000002 9.9999999999999982 10.999999999999998 9.9999999999999982 12.999999999999998 9.9999999999999982
leaf_count=16 10 15 18 10 13 10 12 12 11 11 10 11 10 13 10
internal_value=0 -0.00364998 -0.00489562 0.0119233 0.00878989 -0.00139436 -0.00909714 0.0131583 -0.0110147 -0.00830527 -0.00452272 -0.00363429 -0.0022394 -0.00432167 0.00442944
internal_weight=0 147 132 45 35 72 60 22 48 32 21 52 41 31 20
internal_count=192 147 132 45 35 72 60 22 48 32 21 52 41 31 20
is_linear=0
shrinkage=0.05


Tree=35
num_leaves=16
num_cat=0
split_feature=5 12 15 5 0 9 5 1 0 15 15 0 15 5 16
split_gain=3.01644 0.724595 0.700989 0.561479 0.339063 0.318579 0.254411 0.315538 0.136359 0.136138 0.198941 0.157244 0.134462 0.0870426 0.0146716
threshold=57815.73260000001 71.000000000000014 16527916.66666667 87370.975250000018 635.00000000000011 1.0000000180025095e-35 4154.3350500000006 1997.5000000000002 209.00000000000003 34005666.666666672 28670000.000000004 387.50000000000006 21551750.000000004 66250.217750000025 186280.00000000003
decision_type=2 2 2 2 2 2 2 2 2 2 2 2 2 2 2
left_child=1 2 5 12 9 6 -1 -8 -9 10 11 -4 -2 -14 -6
right_child=3 -3 4 -5 14 -7 7 8 -10 -11 -12 -13 13 -15 -16
leaf_value=-0.015611891623120756 0.0040004312562254762 0.0069461054727435112 -0.0071318831596727241 0.020588940956319371 0.0055622049933299403 -0.0013555419306309584 -0.014750156348401849 -0.0081381399015133995 -7.0881284773349759e-05 -0.0083917368457398622 0.0040048309264238925 8.4676034748554241e-05 0.007233810909092424 0.013830877095460893 0.0028537344839423898
leaf_weight=15.999999999999998 12.999999999999998 14.999999999999998 18.000000000000004 11.999999999999998 10.000000000000002 11.999999999999998 10.999999999999998 11.000000000000002 9.9999999999999982 10.999999999999998 9.9999999999999982 12.999999999999998 10.000000000000002 9.9999999999999982 9.9999999999999982
leaf_count=16 13 15 18 12 10 12 11 11 10 11 10 13 10 10 10
internal_value=0 -0.00346748 -0.00465084 0.0113271 -0.00132465 -0.00864228 -0.010464 -0.00789 -0.00429659 -0.00345258 -0.00212743 -0.00410558 0.00795917 0.0105323 0.00420797
internal_weight=0 147 132 45 72 60 48 32 21 52 41 31 33 20 20
internal_count=192 147 132 45 72 60 48 32 21 52 41 31 33 20 20
is_linear=0
shrinkage=0.05


Tree=36
num_leaves=14
num_cat=0
split_feature=5 16 15 0 2 10 1 16 0 1 5 5 5
split_gain=2.72643 1.11147 0.526693 0.378061 0.342021 0.679232 0.373036 0.240587 0.092279 0.0922919 0.0922008 0.0420063 0.0388092
threshold=37381.013900000005 490894.00000000006 18922083.33333334 1041.0000000000002 1.0000000180025095e-35 44.500000000000007 2008.5000000000002 102135.00000000001 209.00000000000003 2002.5000000000002 50812.395950000013 24983.687400000003 58597.559750000008
decision_type=2 2 2 2 2 2 2 2 2 2 2 2 2
left_child=4 2 -2 10 5 6 -1 -6 -9 -10 -4 -11 -12
right_child=1 -3 3 -5 7 -7 -8 8 9 11 12 -13 -14
leaf_value=-0.001743823768837111 -0.0042141467146575452 0.019091539805134138 0.0004373216668942145 0.012824121408630164 -0.012220493145287038 -0.011479603484357623 0.010900245420634747 -0.0094377544087668255 -0.0074880600659525953 -0.0047423792967142961 0.0073925805421402799 -0.00079532340168952942 0.0033572890880432999
leaf_weight=14.000000000000002 14.999999999999998 14.999999999999998 13.999999999999998 15.999999999999998 18 10.999999999999998 9.9999999999999982 11.999999999999998 15.999999999999998 13.000000000000002 13.000000000000002 13.999999999999998 10.999999999999998
leaf_count=14 15 15 14 16 18 11 10 12 16 13 13 14 11
internal_value=0 0.00675599 0.00407435 0.00637671 -0.00525466 -0.00119105 0.00352454 -0.00720296 -0.00556086 -0.00447894 0.00366201 -0.00269576 0.00554307
internal_weight=0 84 69 54 108 35 24 73 55 43 38 27 24
internal_count=192 84 69 54 108 35 24 73 55 43 38 27 24
is_linear=0
shrinkage=0.05


Tree=37
num_leaves=16
num_cat=0
split_feature=5 12 15 5 0 15 0 16 10 15 15 7 0 16 16
split_gain=2.48374 0.605676 0.595785 0.489898 0.307629 0.360071 0.276163 0.142785 0.242066 0.133317 0.183358 0.123618 0.103415 0.0482603 0.0139667
threshold=57815.73260000001 71.000000000000014 16527916.66666667 87370.975250000018 31.500000000000004 9548000.0000000019 635.00000000000011 252258.33333333334 201.50000000000003 32394333.33333334 23643000.000000004 245.50000000000003 317.00000000000006 114322.50000000001 186280.00000000003
decision_type=2 2 2 2 2 2 2 2 2 2 2 2 2 2 2
left_child=1 2 4 7 -1 -6 9 8 -2 10 12 13 -4 -7 -8
right_child=3 -3 6 -5 5 11 14 -9 -10 -11 -12 -13 -14 -15 -16
leaf_value=-0.00035179762000387365 0.0045002779796380872 0.0063743486224363257 -0.0082227061688899972 0.018929702012489238 -0.016736974108677645 -0.0062817288748919942 0.0051525439927354441 0.0027815909901012978 0.015248828269541265 -0.007058509933607033 0.0025620855746637974 -0.0026117022233930502 -0.001197235912761905 -0.010765972224374613 0.0025099445367231968
leaf_weight=10.999999999999998 11.000000000000002 14.999999999999998 10.000000000000002 11.999999999999998 12.999999999999998 10.000000000000002 10.000000000000002 11.999999999999998 9.9999999999999982 14.999999999999998 15.999999999999998 10.999999999999998 10.999999999999998 14.999999999999998 9.9999999999999982
leaf_count=11 11 15 10 12 13 10 10 12 10 15 16 11 11 15 10
internal_value=0 -0.00314644 -0.00422835 0.0102784 -0.0079081 -0.00960441 -0.00116189 0.00713244 0.00961864 -0.00308233 -0.00147036 -0.00702877 -0.0045427 -0.00897227 0.00383124
internal_weight=0 147 132 45 60 49 72 33 21 52 37 36 21 25 20
internal_count=192 147 132 45 60 49 72 33 21 52 37 36 21 25 20
is_linear=0
shrinkage=0.05


Tree=38
num_leaves=14
num_cat=0
split_feature=5 16 15 0 2 10 1 16 0 1 5 5 5
split_gain=2.24915 0.979052 0.446595 0.316329 0.297695 0.62328 0.329673 0.219356 0.0748743 0.0756649 0.0722566 0.0438872 0.0382552
threshold=37381.013900000005 490894.00000000006 18922083.33333334 1041.0000000000002 1.0000000180025095e-35 44.500000000000007 2008.5000000000002 102135.00000000001 209.00000000000003 1997.5000000000002 50812.395950000013 26418.973550000002 58597.559750000008
decision_type=2 2 2 2 2 2 2 2 2 2 2 2 2
left_child=4 2 -2 10 5 6 -1 -6 -9 -10 -4 -11 -12
right_child=1 -3 3 -5 7 -7 -8 8 9 11 12 -13 -14
leaf_value=-0.0014169741979068408 -0.0040128876687958838 0.017713644752899809 0.00040158038692814969 0.011637044709641487 -0.011381315915948815 -0.010837144895710728 0.010469508534297348 -0.0085145139368250963 -0.007857881616801024 -0.0044583618591882684 0.0067577626363625022 -0.00076896733288387103 0.0027513744309544566
leaf_weight=14.000000000000002 14.999999999999998 14.999999999999998 13.999999999999998 15.999999999999998 18 10.999999999999998 9.9999999999999982 11.999999999999998 9.9999999999999982 19 13.000000000000002 13.999999999999998 10.999999999999998
leaf_count=14 15 15 14 16 18 11 10 12 10 19 13 14 11
internal_value=0 0.00613622 0.00361938 0.00573946 -0.00477261 -0.000981461 0.00353573 -0.00659029 -0.00502232 -0.00404775 0.00325627 -0.00289316 0.0049215
internal_weight=0 84 69 54 108 35 24 73 55 43 38 33 24
internal_count=192 84 69 54 108 35 24 73 55 43 38 33 24
is_linear=0
shrinkage=0.05


Tree=39
num_leaves=16
num_cat=0
split_feature=15 0 1 1 2 16 1 8 0 10 0 0 15 16 8
split_gain=1.65381 1.13817 0.461124 0.710695 0.481716 0.321447 0.298624 0.262832 0.165267 0.307769 0.123352 0.106628 0.0868944 0.0440219 0.00922001
threshold=17090166.666666668 846.50000000000011 2002.5000000000002 2014.5000000000002 1.0000000180025095e-35 341785.00000000006 2013.5000000000002 384.00000000000006 387.50000000000006 17.500000000000004 469.00000000000006 242.00000000000003 21031000.000000004 227677.50000000003 115.00000000000001
decision_type=2 2 2 2 2 2 2 2 2 2 2 2 2 2 2
left_child=2 5 10 4 -4 8 7 13 9 -2 11 -1 -10 -3 -14
right_child=1 6 3 -5 -6 -7 -8 -9 12 -11 -12 -13 14 -15 -16
leaf_value=-0.011698797497559674 0.00023637100655053337 0.0066537545528262843 0.0099039971362799382 -0.011355047403568668 -0.0042633894675721731 0.0058234336009869974 0.017630296777933836 0.014077831923284316 0.0041425712914629417 -0.010675882584958649 -0.014837749395519496 -0.0045650214438501284 -0.0022040229552658269 0.0021619064640253783 -0.00024400479936351381
leaf_weight=11.000000000000002 14.000000000000002 12.000000000000002 12.000000000000002 13.999999999999998 11.999999999999998 18 9.9999999999999982 10.999999999999998 10.999999999999998 11.999999999999998 10.999999999999998 9.9999999999999982 12.000000000000002 9.9999999999999982 11.999999999999998
leaf_count=11 14 12 12 14 12 18 10 11 11 12 11 10 12 10 12
internal_value=0 0.00351505 -0.00612622 -0.00240219 0.0028203 -4.79448e-05 0.010061 0.00776728 -0.00178048 -0.00480005 -0.0105485 -0.00830176 0.000462627 0.00461201 -0.00122401
internal_weight=0 122 70 38 24 79 43 33 61 26 32 21 35 22 24
internal_count=192 122 70 38 24 79 43 33 61 26 32 21 35 22 24
is_linear=0
shrinkage=0.05


Tree=40
num_leaves=16
num_cat=0
split_feature=15 0 1 1 2 0 16 9 15 15 0 0 16 0 9
split_gain=1.49256 1.0275 0.416164 0.641402 0.434748 0.300137 0.390142 0.258015 0.141021 0.121535 0.110889 0.0514003 0.0297736 0.0119245 0.0114522
threshold=17090166.666666668 883.00000000000011 2002.5000000000002 2014.5000000000002 1.0000000180025095e-35 317.00000000000006 490894.00000000006 203.50000000000003 28670000.000000004 9911166.6666666698 635.00000000000011 398.50000000000006 234994.16666666672 476.50000000000006 79.500000000000014
decision_type=2 2 2 2 2 2 2 2 2 2 2 2 2 2 2
left_child=2 5 9 4 -4 8 10 -3 -2 -1 12 -11 13 -7 -12
right_child=1 7 3 -5 -6 6 -8 -9 -10 11 14 -13 -14 -15 -16
leaf_value=-0.014278632639483972 -0.0076196641528180654 0.014358144341722915 0.0094087978980193516 -0.010787295089435898 -0.0040502198350926243 -0.0016030303854495276 0.011245242720469832 0.0060044167899630137 -5.4435694420879546e-05 -0.0054323759437961998 0.0021140245813876381 -0.010385352596640588 -0.0037235656473785642 0.00083874558928073392 0.0045069492794573311
leaf_weight=10.999999999999998 14.000000000000002 19 12.000000000000002 13.999999999999998 11.999999999999998 10.000000000000005 9.9999999999999982 18 10.999999999999998 11.000000000000002 10.000000000000002 9.9999999999999982 9.9999999999999982 9.9999999999999982 9.9999999999999982
leaf_count=11 14 19 12 14 12 10 10 18 11 11 10 10 10 10 10
internal_value=0 0.00333929 -0.00581991 -0.00228208 0.00267929 0.000311877 0.00222973 0.0102942 -0.00429096 -0.0100211 0.000426625 -0.00779094 -0.00149595 -0.000382142 0.00331049
internal_weight=0 122 70 38 24 85 60 37 25 32 50 21 30 20 20
internal_count=192 122 70 38 24 85 60 37 25 32 50 21 30 20 20
is_linear=0
shrinkage=0.05


Tree=41
num_leaves=16
num_cat=0
split_feature=5 5 15 2 10 0 0 0 15 5 3 9 0 5 7
split_gain=1.73006 0.701245 0.246707 0.208976 0.50153 0.288768 0.201785 0.189527 0.0719555 0.0786017 0.0622658 0.103139 0.0678862 0.0461646 0.028454
threshold=72953.846700000009 37381.013900000005 18383375.000000004 1.0000000180025095e-35 44.500000000000007 54.000000000000007 1255.0000000000002 94.500000000000014 14551250.000000002 12746.031000000001 1.5000000000000002 66.000000000000014 791.50000000000011 28681.207500000004 85.500000000000014
decision_type=2 2 2 2 2 2 2 2 2 2 2 2 2 2 2
left_child=1 3 -3 4 5 -1 -2 -5 9 -9 12 -12 -4 14 -10
right_child=6 2 10 7 -6 -7 -8 8 13 -11 11 -13 -14 -15 -16
leaf_value=-0.0023648250537614025 0.018684189841151232 -0.004674248835071922 -0.00076554305851459479 -0.010641395188868046 -0.0097732040015133942 0.0086042143676119554 0.008870600604198196 -0.0034654295630753029 -0.0028541004451523929 -0.0095903321224878636 0.0096502504870295495 0.0030017594806849958 0.0042201676871627567 -0.00060958815716171213 -0.0063461706927046184
leaf_weight=12.000000000000002 10.000000000000002 9.9999999999999982 11.000000000000002 14.999999999999998 10.999999999999998 11.999999999999998 10.999999999999998 10.000000000000002 14.000000000000002 10.999999999999998 10.000000000000002 13.999999999999998 18 12.999999999999998 9.9999999999999982
leaf_count=12 10 10 11 15 11 12 11 10 14 11 10 14 18 13 10
internal_value=0 -0.00166327 0.002529 -0.00410875 -0.000932359 0.00311969 0.0135437 -0.00563168 -0.00433606 -0.00667371 0.0038881 0.00577196 0.00232904 -0.00300929 -0.00430913
internal_weight=0 171 63 108 35 24 21 73 58 21 53 24 29 37 24
internal_count=192 171 63 108 35 24 21 73 58 21 53 24 29 37 24
is_linear=0
shrinkage=0.05


Tree=42
num_leaves=14
num_cat=0
split_feature=5 5 16 1 12 16 1 16 3 5 9 7 9
split_gain=1.56251 0.541187 0.306731 0.22126 0.361761 0.186076 0.197248 0.155577 0.0714681 0.104357 0.0663715 0.0412587 0.0402151
threshold=68159.249100000015 35638.722400000013 280837.50000000006 2014.5000000000002 1.0000000180025095e-35 128978.33333333336 1999.5000000000002 139714.58333333334 1.5000000000000002 50812.395950000013 124.00000000000001 1.0000000180025095e-35 1.0000000180025095e-35
decision_type=2 2 2 2 2 2 2 2 2 2 2 2 2
left_child=1 3 -2 4 5 6 -1 -3 9 -9 -10 12 -7
right_child=2 7 -4 -5 -6 11 -8 8 10 -11 -12 -13 -14
leaf_value=-0.0025696890125982454 0.0070630526745363176 -0.0037296606902964416 0.018098909184336664 -0.0088723788331615087 0.0033926349029772813 -0.0050987844614105091 -0.011635365132242441 -0.0011998619462247004 0.0082976536266505686 0.0047112340373652323 0.0025369472056627276 -0.00023174289879254783 -0.0013619964631895224
leaf_weight=10.000000000000002 17.000000000000004 9.9999999999999982 9.9999999999999982 19 18 18.000000000000004 14.999999999999998 16.000000000000004 10.000000000000002 13.999999999999998 9.9999999999999982 12.999999999999998 11.999999999999998
leaf_count=10 17 10 10 19 18 18 15 16 10 14 10 13 12
internal_value=0 -0.00182461 0.0111504 -0.00398924 -0.0029104 -0.00457885 -0.00800909 0.00196348 0.00310211 0.00155865 0.0054173 -0.00258453 -0.00360407
internal_weight=0 165 27 105 86 68 25 60 50 30 20 43 30
internal_count=192 165 27 105 86 68 25 60 50 30 20 43 30
is_linear=0
shrinkage=0.05


Tree=43
num_leaves=15
num_cat=0
split_feature=5 5 15 1 12 7 15 0 1 1 3 9 0 1
split_gain=1.42155 0.568436 0.210662 0.183065 0.525627 0.226133 0.174599 0.167146 0.110683 0.0479347 0.0431216 0.0863049 0.0724876 0.0134621
threshold=72953.846700000009 37381.013900000005 18922083.33333334 2012.5000000000002 1.0000000180025095e-35 1.0000000180025095e-35 19074750.000000004 1255.0000000000002 1999.5000000000002 2005.5000000000002 1.5000000000000002 66.000000000000014 791.50000000000011 1996.5000000000002
decision_type=2 2 2 2 2 2 2 2 2 2 2 2 2 2
left_child=1 3 -3 4 6 -5 8 -2 13 -8 12 -12 -4 -1
right_child=7 2 10 5 -6 -7 9 -9 -10 -11 11 -13 -14 -15
leaf_value=-0.0033289334597066036 0.016955393459647888 -0.0036938021502768005 -0.0010793769545853133 -0.012401855294592675 0.0059101521596312528 -0.0030481453020391718 0.00083799892260382554 0.0080237551253627658 -0.010458504981719532 -0.0032417067432510926 0.0087590283341705769 0.0026772686014217991 0.0042854954461183621 -0.00573090468200722
leaf_weight=10.000000000000002 10.000000000000002 11.999999999999998 10.000000000000002 12.000000000000002 14.999999999999998 13.999999999999998 12.000000000000002 10.999999999999998 12.999999999999998 18 10.000000000000002 13.999999999999998 17 13.999999999999998
leaf_count=10 10 12 10 12 15 14 12 11 13 18 10 14 17 14
internal_value=0 -0.00150769 0.00226676 -0.00370946 -0.00255031 -0.00736524 -0.00444444 0.0122769 -0.00674277 -0.00160982 0.00366925 0.00521134 0.00229851 -0.00473008
internal_weight=0 171 63 108 82 26 67 21 37 30 51 24 27 24
internal_count=192 171 63 108 82 26 67 21 37 30 51 24 27 24
is_linear=0
shrinkage=0.05


Tree=44
num_leaves=16
num_cat=0
split_feature=5 5 1 3 2 16 9 15 5 1 16 5 5 16 15
split_gain=1.28295 0.522102 0.526169 0.191077 0.289438 0.191902 0.168759 0.254307 0.190311 0.138219 0.109087 0.161351 0.0964935 0.0314126 0.0197237
threshold=72953.846700000009 19083.237900000004 1999.5000000000002 1.5000000000000002 1.0000000180025095e-35 243071.66666666672 1.0000000180025095e-35 15890250.000000002 4154.3350500000006 2012.5000000000002 139714.58333333334 50812.395950000013 43573.713200000006 65500.000000000007 20596250.000000004
decision_type=2 2 2 2 2 2 2 2 2 2 2 2 2 2 2
left_child=1 6 -3 5 -5 10 7 8 -1 -2 -4 14 -6 -10 -12
right_child=9 2 3 4 12 -7 -8 -9 13 -11 11 -13 -14 -15 -16
leaf_value=-0.012574423011392355 0.0077954106879505221 -0.007396711387178477 -0.0025905696605332197 0.012273602597415448 -0.0015958333900198335 -0.00494833909548246 0.0005768450866030021 -0.00074824131404360142 -0.0033079838287085289 0.015917496450711041 0.0021220532432198519 0.0077071518317097798 0.0047449560773869352 -0.0071799853266301481 -0.0010183058260008694
leaf_weight=15.999999999999998 11.000000000000002 17 9.9999999999999982 9.9999999999999982 10.000000000000002 12.999999999999998 10.999999999999998 14.999999999999998 10.000000000000002 9.9999999999999982 10.000000000000002 12.999999999999998 14.999999999999998 10.999999999999998 9.9999999999999982
leaf_count=16 11 17 10 10 10 13 11 15 10 10 10 13 15 11 10
internal_value=0 -0.00143231 0.000677817 0.00218625 0.00508434 0.000374935 -0.00504966 -0.00623989 -0.00846623 0.0116631 0.0019843 0.00337062 0.00220864 -0.00533618 0.000551874
internal_weight=0 171 108 91 35 56 63 52 37 21 43 33 25 21 20
internal_count=192 171 108 91 35 56 63 52 37 21 43 33 25 21 20
is_linear=0
shrinkage=0.05


Tree=45
num_leaves=15
num_cat=0
split_feature=5 5 1 0 0 0 3 9 16 0 0 16 5 15
split_gain=1.15786 0.471197 0.474868 0.32385 0.556011 0.333837 0.172447 0.184703 0.173192 0.142055 0.120748 0.0984506 0.14562 0.0178006
threshold=72953.846700000009 19083.237900000004 1999.5000000000002 31.500000000000004 54.000000000000007 123.00000000000001 1.5000000000000002 66.000000000000014 243071.66666666672 1255.0000000000002 209.00000000000003 139714.58333333334 50812.395950000013 20596250.000000004
decision_type=2 2 2 2 2 2 2 2 2 2 2 2 2 2
left_child=1 3 -3 -1 -5 -6 8 -8 11 -2 -7 -4 13 -13
right_child=9 2 6 4 5 10 7 -9 -10 -11 -12 12 -14 -15
leaf_value=0.0016156031439701719 0.015392970294924447 -0.0070268758435678832 -0.0024610410467721523 -0.016670684279365976 0.0025861361278937418 -0.011217938503250476 0.0085676600444404526 0.0013002342156444987 -0.004700922231691388 0.0071589598178186213 -0.0041000996071558727 0.0020159505307674403 0.0073217942952536613 -0.00096739052794873708
leaf_weight=14.999999999999998 10.000000000000002 17 9.9999999999999982 10.999999999999998 12.999999999999998 11.000000000000002 17 18 12.999999999999998 10.999999999999998 12.999999999999998 10.000000000000002 12.999999999999998 9.9999999999999982
leaf_count=15 10 17 10 11 13 11 17 18 13 11 13 10 13 10
internal_value=0 -0.00136069 0.000643927 -0.00479718 -0.00680117 -0.003867 0.00207693 0.00483013 0.000356188 0.0110799 -0.00736244 0.00188508 0.00320209 0.00052428
internal_weight=0 171 108 63 48 37 91 35 56 21 24 43 33 20
internal_count=192 171 108 63 48 37 91 35 56 21 24 43 33 20
is_linear=0
shrinkage=0.05


Tree=46
num_leaves=16
num_cat=0
split_feature=5 5 1 0 0 0 3 2 16 0 0 0 16 5 9
split_gain=1.04497 0.425255 0.428568 0.292274 0.5018 0.301288 0.155633 0.252556 0.156306 0.128205 0.108975 0.0891658 0.0888517 0.131422 0.0174749
threshold=72953.846700000009 19083.237900000004 1999.5000000000002 31.500000000000004 54.000000000000007 123.00000000000001 1.5000000000000002 1.0000000180025095e-35 243071.66666666672 1255.0000000000002 209.00000000000003 859.50000000000011 139714.58333333334 50812.395950000013 66.000000000000014
decision_type=2 2 2 2 2 2 2 2 2 2 2 2 2 2 2
left_child=1 3 -3 -1 -5 -6 8 -8 12 -2 -7 -9 -4 14 -14
right_child=9 2 6 4 5 10 7 11 -10 -11 -12 -13 13 -15 -16
leaf_value=0.0015348224093516669 0.014623321816325183 -0.0066755321164451101 -0.002337989113293588 -0.0158371501178904 0.0024568294103329003 -0.010657041509297081 0.011304214028641582 -0.00074448058564615023 -0.0044658761337184561 0.0068010117181322785 -0.0038950947041694935 0.0052711184305900879 0.0019760249368846409 0.0069557046678920213 -0.00097989288158714769
leaf_weight=14.999999999999998 10.000000000000002 17 9.9999999999999982 10.999999999999998 12.999999999999998 11.000000000000002 9.9999999999999982 14.000000000000002 12.999999999999998 10.999999999999998 12.999999999999998 10.999999999999998 10.000000000000002 12.999999999999998 9.9999999999999982
leaf_count=15 10 17 10 11 13 11 10 14 13 11 13 11 10 13 10
internal_value=0 -0.00129266 0.00061173 -0.00455732 -0.00646112 -0.00367365 0.00197309 0.00458862 0.000338379 0.0105259 -0.00699432 0.00190238 0.00179083 0.00304198 0.000498066
internal_weight=0 171 108 63 48 37 91 35 56 21 24 25 43 33 20
internal_count=192 171 108 63 48 37 91 35 56 21 24 25 43 33 20
is_linear=0
shrinkage=0.05


Tree=47
num_leaves=16
num_cat=0
split_feature=5 5 1 0 0 0 0 3 2 16 5 0 0 10 5
split_gain=0.943087 0.383793 0.388077 0.263778 0.452874 0.271913 0.115705 0.111724 0.270217 0.134391 0.131618 0.0983503 0.0850699 0.078587 0.011644
threshold=72953.846700000009 19083.237900000004 1997.5000000000002 31.500000000000004 54.000000000000007 123.00000000000001 1255.0000000000002 1.5000000000000002 1.0000000180025095e-35 243071.66666666672 43573.713200000006 209.00000000000003 492.50000000000006 135.00000000000003 42821.406049999998
decision_type=2 2 2 2 2 2 2 2 2 2 2 2 2 2 2
left_child=1 3 -3 -1 -5 -6 -2 9 -9 12 -10 -7 -4 14 -14
right_child=6 2 7 4 5 11 -8 8 10 -11 -12 -13 13 -15 -16
leaf_value=0.0014580812056859335 0.013892155401408668 -0.0088016038574278352 -0.0016127773529539505 -0.015045292048969053 0.0023339878481168012 -0.010124189472249284 0.006460960971360858 0.010739002632908523 -0.003086652991954575 -0.0040582411066030282 0.004114000114301841 -0.0037003399446033517 0.0026023054495453828 0.0066289071086794134 0.000332894073261951
leaf_weight=14.999999999999998 10.000000000000002 9.9999999999999982 14.999999999999998 10.999999999999998 12.999999999999998 11.000000000000002 10.999999999999998 9.9999999999999982 11.000000000000002 13.999999999999998 14.999999999999998 12.999999999999998 10.000000000000002 9.9999999999999982 12.999999999999998
leaf_count=15 10 10 15 11 13 11 11 10 11 14 15 13 10 10 13
internal_value=0 -0.00122802 0.000581144 -0.00432945 -0.00613806 -0.00348996 0.00999962 0.00153857 0.00375408 0.000252141 0.00106757 -0.0066446 0.00150934 0.00292848 0.00131959
internal_weight=0 171 108 63 48 37 21 98 36 62 26 24 48 33 23
internal_count=192 171 108 63 48 37 21 98 36 62 26 24 48 33 23
is_linear=0
shrinkage=0.05


Tree=48
num_leaves=15
num_cat=0
split_feature=5 5 1 0 0 0 3 2 16 0 0 1 0 5
split_gain=0.851136 0.346373 0.351825 0.238059 0.408719 0.245401 0.12845 0.20432 0.127563 0.104423 0.0887611 0.0808257 0.0733926 0.0568263
threshold=72953.846700000009 19083.237900000004 1999.5000000000002 31.500000000000004 54.000000000000007 123.00000000000001 1.5000000000000002 1.0000000180025095e-35 243071.66666666672 1255.0000000000002 209.00000000000003 2005.5000000000002 859.50000000000011 50073.023400000005
decision_type=2 2 2 2 2 2 2 2 2 2 2 2 2 2
left_child=1 3 -3 -1 -5 -6 8 -8 11 -2 -7 -4 -9 -13
right_child=9 2 6 4 5 10 7 12 -10 -11 -12 13 -14 -15
leaf_value=0.0013851776657005151 0.013197547523304815 -0.0060505503227057701 0.005096751016875109 -0.01429302775385705 0.0022172886591691238 -0.0096179799938743739 0.010202053159009666 -0.00065579042004953526 -0.004039670244002572 0.0061379130421714348 -0.0035153229649250322 -0.0018089089644490739 0.0048018625260076745 0.0024747998484720788
leaf_weight=14.999999999999998 10.000000000000002 17 11.999999999999998 10.999999999999998 12.999999999999998 11.000000000000002 9.9999999999999982 14.000000000000002 12.999999999999998 10.999999999999998 12.999999999999998 16.000000000000004 10.999999999999998 14.999999999999998
leaf_count=15 10 17 12 11 13 11 10 14 13 11 13 16 11 15
internal_value=0 -0.00116662 0.000552087 -0.00411298 -0.00583116 -0.00331547 0.00178555 0.00416171 0.000300442 0.00949964 -0.00631237 0.00161257 0.00174558 0.000263853
internal_weight=0 171 108 63 48 37 91 35 56 21 24 43 25 31
internal_count=192 171 108 63 48 37 91 35 56 21 24 43 25 31
is_linear=0
shrinkage=0.05


Tree=49
num_leaves=15
num_cat=0
split_feature=5 5 1 0 0 0 2 0 9 15 15 5 5 10
split_gain=0.76815 0.312602 0.324776 0.214849 0.368869 0.221475 0.0979951 0.0801069 0.0700816 0.221106 0.133335 0.106981 0.0729291 0.0508063
threshold=72953.846700000009 19083.237900000004 1997.5000000000002 31.500000000000004 54.000000000000007 123.00000000000001 1.0000000180025095e-35 209.00000000000003 66.000000000000014 20354375.000000004 19074750.000000004 35638.722400000013 50812.395950000013 44.500000000000007
decision_type=2 2 2 2 2 2 2 2 2 2 2 2 2 2
left_child=1 3 -3 -1 -5 -6 -2 -7 9 -4 -10 -11 -12 -13
right_child=6 2 8 4 5 7 -8 -9 10 11 12 13 -14 -15
leaf_value=0.0013159183102349442 0.012606935426592823 -0.0080589961679652343 0.0071436845697462562 -0.013578376538035545 0.0021064241345112142 -0.009137081109325991 0.00576804873787544 -0.0033395567649187382 -0.004797418093816801 -0.0035155563692872726 -0.00080809568753466017 0.0049761389754712573 0.0036331839669544843 -6.401666440069675e-05
leaf_weight=14.999999999999998 10.000000000000002 9.9999999999999982 18 10.999999999999998 12.999999999999998 11.000000000000002 10.999999999999998 12.999999999999998 10.999999999999998 11.999999999999998 18 10.000000000000002 19 9.9999999999999982
leaf_count=15 10 10 18 11 13 11 11 13 11 12 18 10 19 10
internal_value=0 -0.00110829 0.000524482 -0.00390733 -0.0055396 -0.00314969 0.00902466 -0.00599676 0.00140035 0.00271042 3.56911e-05 0.000216705 0.00147256 0.00245606
internal_weight=0 171 108 63 48 37 21 24 98 50 48 32 37 20
internal_count=192 171 108 63 48 37 21 24 98 50 48 32 37 20
is_linear=0
shrinkage=0.05


Tree=50
num_leaves=14
num_cat=0
split_feature=11 5 1 5 8 2 0 5 15 1 5 5 16
split_gain=0.707644 0.571177 0.581574 0.36236 0.237554 0.280973 0.249941 0.133247 0.123009 0.119324 0.0471127 0.0407328 0.0482119
threshold=3.5000000000000004 4154.3350500000006 2003.5000000000002 43573.713200000006 500.50000000000006 1.0000000180025095e-35 223.50000000000003 28681.207500000004 14822791.66666667 2007.5000000000002 12746.031000000001 60892.692350000012 179965.00000000003
decision_type=2 2 2 2 2 2 2 2 2 2 2 2 2
left_child=1 9 8 -2 5 6 -4 10 -3 -1 -7 12 -9
right_child=3 2 4 -5 -6 7 -8 11 -10 -11 -12 -13 -14
leaf_value=-0.0054278631779280558 0.0016835197466207317 -0.0086018348995007977 0.01062504386839767 0.012500736384342116 0.0089485780289396653 -0.00098893602632663439 0.00061821024417160796 0.0036735736929318485 -0.0024251634338205413 -0.012974386196583511 -0.0052396751385458632 -0.0017095986965366386 -9.2056371709879715e-05
leaf_weight=11.000000000000002 16.000000000000004 19 12.000000000000002 14.999999999999998 9.9999999999999982 11.000000000000002 12.999999999999998 17 13.999999999999998 9.9999999999999982 15.999999999999998 10.999999999999998 17
leaf_count=11 16 19 12 15 10 11 13 17 14 10 16 11 17
internal_value=0 -0.00133197 -0.00017855 0.00691766 0.00161112 0.000854684 0.00542149 -0.000731012 -0.00598143 -0.00902145 -0.00350789 0.000935116 0.00179076
internal_weight=0 161 140 31 107 97 25 72 33 21 27 45 34
internal_count=192 161 140 31 107 97 25 72 33 21 27 45 34
is_linear=0
shrinkage=0.05


Tree=51
num_leaves=15
num_cat=0
split_feature=5 15 1 5 1 5 5 1 15 2 1 2 10 3
split_gain=0.670141 0.385252 0.258647 0.24485 0.281724 0.23522 0.190356 0.14272 0.106051 0.0945352 0.0891527 0.163441 0.028811 0.0261097
threshold=87370.975250000018 18383375.000000004 2002.5000000000002 21174.552150000007 2009.5000000000002 41268.626200000006 26849.039550000005 1998.5000000000002 32394333.33333334 1.0000000180025095e-35 2014.5000000000002 1.0000000180025095e-35 17.500000000000004 1.5000000000000002
decision_type=2 2 2 2 2 2 2 2 2 2 2 2 2 2
left_child=1 2 6 4 -4 8 7 -1 9 -3 11 -7 -11 -13
right_child=-2 5 3 -5 -6 10 -8 -9 -10 12 -12 13 -14 -15
leaf_value=-0.00040859805109600214 0.011440585002613565 0.0044550209399312722 0.0017013756705758474 0.0048442254953372944 -0.0076999059713938655 0.010111446268856525 -0.012140585795383562 -0.0084964462835341696 -0.0044603149338132315 0.000490803759312257 -0.00073768309084698558 0.0041460629347461189 -0.0032173907426609237 0.0013700954310479575
leaf_weight=12.000000000000002 11.999999999999998 10.000000000000002 14.999999999999998 12.999999999999998 17 9.9999999999999982 10.999999999999998 9.9999999999999982 17 10.000000000000002 9.9999999999999982 18 10.999999999999998 15.999999999999998
leaf_count=12 12 10 15 13 17 10 11 10 17 10 10 18 11 16
internal_value=0 -0.000762706 -0.00340791 -0.000942285 -0.00329306 0.0012601 -0.00677012 -0.00408489 -0.00128663 0.000453773 0.00352386 0.00449239 -0.00145158 0.00283973
internal_weight=0 180 78 45 32 102 33 22 48 31 54 44 21 34
internal_count=192 180 78 45 32 102 33 22 48 31 54 44 21 34
is_linear=0
shrinkage=0.05


Tree=52
num_leaves=15
num_cat=0
split_feature=11 5 1 5 8 12 0 1 1 10 1 7 10 0
split_gain=0.607157 0.500652 0.486409 0.305787 0.207507 0.251985 0.111226 0.105221 0.0777133 0.148962 0.104314 0.0787247 0.0862254 0.0449092
threshold=3.5000000000000004 4154.3350500000006 2003.5000000000002 43573.713200000006 500.50000000000006 32.500000000000007 533.00000000000011 2007.5000000000002 2015.5000000000002 44.500000000000007 2007.5000000000002 318.00000000000006 244.50000000000003 352.50000000000006
decision_type=2 2 2 2 2 2 2 2 2 2 2 2 2 2
left_child=1 7 6 -2 5 8 13 -1 9 10 -4 12 -11 -3
right_child=3 2 4 -5 -6 -7 -8 -9 -10 11 -12 -13 -14 -15
leaf_value=-0.0050583609803156408 0.0015994800531188955 -0.0056672872806137241 0.00046908834483474479 0.011536461133509875 0.0083405297202989465 0.0067342652007937433 -0.0095659986985000695 -0.012144895475357772 -0.0032165913176464126 -0.0053226591985938813 0.0076910714874975396 0.0025390395640649578 -0.00015131231201322455 -0.0011491844240068036
leaf_weight=11.000000000000002 16.000000000000004 11.000000000000002 10.000000000000002 14.999999999999998 9.9999999999999982 14.999999999999998 10.999999999999998 9.9999999999999982 18 13.999999999999998 9.9999999999999982 10.999999999999998 19 10.999999999999998
leaf_count=11 16 11 10 15 10 15 11 10 18 14 10 11 19 11
internal_value=0 -0.00123378 -0.000153912 0.0064077 0.0014828 0.000775817 -0.00546082 -0.0084329 -0.000314144 0.00050217 0.00408008 -0.00112415 -0.00234522 -0.00340824
internal_weight=0 161 140 31 107 97 33 21 82 64 20 44 33 22
internal_count=192 161 140 31 107 97 33 21 82 64 20 44 33 22
is_linear=0
shrinkage=0.05


Tree=53
num_leaves=15
num_cat=0
split_feature=5 15 1 5 1 5 5 1 15 2 1 2 5 3
split_gain=0.576632 0.308445 0.225389 0.209375 0.244514 0.188588 0.167222 0.129141 0.0977368 0.0835989 0.0817264 0.139826 0.0267198 0.0252495
threshold=87370.975250000018 18383375.000000004 2002.5000000000002 21174.552150000007 2009.5000000000002 41268.626200000006 26849.039550000005 1998.5000000000002 32394333.33333334 1.0000000180025095e-35 2014.5000000000002 1.0000000180025095e-35 26849.039550000005 1.5000000000000002
decision_type=2 2 2 2 2 2 2 2 2 2 2 2 2 2
left_child=1 2 6 4 -4 8 7 -1 9 -3 11 -7 -11 -13
right_child=-2 5 3 -5 -6 10 -8 -9 -10 12 -12 13 -14 -15
leaf_value=-0.00019916983631749943 0.010612417499457176 0.0042555995378643265 0.0017063873230169218 0.0045782103507707901 -0.0070520495365866843 0.0092540527507662777 -0.011246547831053083 -0.0078926516138017183 -0.0042246230405426641 -0.0031694227841217062 -0.00095074042066698903 0.0038127934469634459 0.00040165930139747535 0.0010829398888745345
leaf_weight=12.000000000000002 11.999999999999998 10.000000000000002 14.999999999999998 12.999999999999998 17 9.9999999999999982 10.999999999999998 9.9999999999999982 17 10.000000000000002 9.9999999999999982 18 10.999999999999998 15.999999999999998
leaf_count=12 12 10 15 13 17 10 11 10 17 10 10 18 11 16
internal_value=0 -0.000707494 -0.00307437 -0.000772718 -0.00294653 0.00110247 -0.00621299 -0.00369621 -0.00117789 0.000492904 0.00312945 0.00405677 -0.00129886 0.00252816
internal_weight=0 180 78 45 32 102 33 22 48 31 54 44 21 34
internal_count=192 180 78 45 32 102 33 22 48 31 54 44 21 34
is_linear=0
shrinkage=0.05


Tree=54
num_leaves=17
num_cat=0
split_feature=11 5 1 5 8 12 0 1 15 9 15 9 9 0 7 1
split_gain=0.522476 0.438095 0.404486 0.259337 0.181965 0.224467 0.101203 0.0933046 0.0890275 0.143419 0.127627 0.0509115 0.0838543 0.043112 0.041901 0.0387175
threshold=3.5000000000000004 4154.3350500000006 2003.5000000000002 61994.778200000008 500.50000000000006 32.500000000000007 533.00000000000011 2007.5000000000002 29257000.000000004 145.50000000000003 24653250.000000004 11.000000000000002 294.50000000000006 352.50000000000006 85.500000000000014 2010.5000000000002
decision_type=2 2 2 2 2 2 2 2 2 2 2 2 2 2 2 2
left_child=1 7 6 15 5 8 13 -1 10 -10 11 14 -13 -3 -4 -2
right_child=3 2 4 -5 -6 -7 -8 -9 9 -11 -12 12 -14 -15 -16 -17
leaf_value=-0.0047011434354565351 0.0047524233454896573 -0.005229243492199615 -0.00076936786689867174 0.012110596658716201 0.0077799881179817024 0.006319818645715714 -0.0088896067813038823 -0.011374354013241827 -0.0074673941382206958 0.0010007555829361081 0.0052337491787814855 -0.005108165078369589 0.00058776611445604695 -0.00080246734644540347 0.003423584705557336 0.00035256540402770045
leaf_weight=11.000000000000002 10.000000000000005 11.000000000000002 13.000000000000002 10.999999999999998 9.9999999999999982 14.999999999999998 10.999999999999998 9.9999999999999982 10.000000000000002 9.9999999999999982 11.999999999999998 12.000000000000002 13.999999999999998 10.999999999999998 10.999999999999998 9.9999999999999982
leaf_count=11 10 11 13 11 10 15 11 10 10 10 12 12 14 11 11 10
internal_value=0 -0.00114451 -0.00013436 0.00594408 0.00135817 0.000696127 -0.00497377 -0.00787886 -0.000332598 -0.00323332 0.000603119 -0.000508232 -0.00204113 -0.00301586 0.0011524 0.00255249
internal_weight=0 161 140 31 107 97 33 21 82 20 62 50 26 22 24 20
internal_count=192 161 140 31 107 97 33 21 82 20 62 50 26 22 24 20
is_linear=0
shrinkage=0.05


Tree=55
num_leaves=16
num_cat=0
split_feature=11 15 8 0 3 15 1 10 0 7 10 7 12 10 0
split_gain=0.471534 0.348784 0.197158 0.189022 0.151771 0.28772 0.125856 0.103072 0.195089 0.129341 0.114184 0.0695195 0.0228645 0.021764 0.01079
threshold=3.5000000000000004 16527916.66666667 500.50000000000006 604.00000000000011 1.5000000000000002 9548000.0000000019 2013.5000000000002 17.500000000000004 317.00000000000006 1.0000000180025095e-35 389.50000000000006 245.50000000000003 9.0000000000000018 201.50000000000003 223.50000000000003
decision_type=2 2 2 2 2 2 2 2 2 2 2 2 2 2 2
left_child=1 4 6 12 5 -1 7 9 -9 -3 13 14 -2 -10 -7
right_child=3 2 -4 -5 -6 11 -8 8 10 -11 -12 -13 -14 -15 -16
leaf_value=-0.010081549765891396 0.0046830074768513408 0.0047712538100313385 0.0070453579114242038 0.011304764528758823 0.0012502966956658796 -0.0049819384632759107 0.0036840684970633852 -0.0085546394810080539 -0.00026284985399494562 -0.0026739926426671448 -0.0052476342953741558 0.0011638602521270515 0.0013795828573744406 0.0025939808498757584 -0.002712631756439805
leaf_weight=19 10.000000000000005 14.000000000000002 10.999999999999998 9.9999999999999982 10.999999999999998 11.000000000000005 18 9.9999999999999982 15.000000000000002 9.9999999999999982 9.9999999999999982 9.9999999999999982 10.999999999999998 11.999999999999998 9.9999999999999982
leaf_count=19 10 14 11 10 11 11 18 10 15 10 10 10 11 12 10
internal_value=0 -0.00108729 0.000730321 0.00564688 -0.00406697 -0.00523677 -5.01894e-05 -0.000996903 -0.00235825 0.00166907 -0.000683549 -0.00226739 0.00295264 0.00100685 -0.00390132
internal_weight=0 161 100 31 61 50 89 71 47 24 37 31 21 27 21
internal_count=192 161 100 31 61 50 89 71 47 24 37 31 21 27 21
is_linear=0
shrinkage=0.05


Tree=56
num_leaves=15
num_cat=0
split_feature=5 1 15 1 2 10 15 1 5 0 15 2 10 8
split_gain=0.48025 0.230277 0.227183 0.214823 0.211881 0.566112 0.189605 0.179824 0.174138 0.0809176 0.0697768 0.0494957 0.0412885 0.0157428
threshold=87370.975250000018 2003.5000000000002 14822791.66666667 2014.5000000000002 1.0000000180025095e-35 44.500000000000007 12967166.66666667 2010.5000000000002 21174.552150000007 469.00000000000006 21031000.000000004 1.5000000000000002 122.00000000000001 280.00000000000006
decision_type=2 2 2 2 2 2 2 2 2 2 2 2 2 2
left_child=1 2 9 4 5 7 -5 -3 -6 -1 -8 12 13 -10
right_child=-2 3 -4 6 8 -7 10 -9 11 -11 -12 -13 -14 -15
leaf_value=-0.0045079841252623322 0.0096849771536653868 0.0051137740342793126 0.00081616104443502785 -0.0085093465157445852 -0.0062770577566698196 -0.0029626973966757459 0.0026168142142705612 0.0141547008078884 0.0017324970189032938 -0.010117614492774011 -0.0031540228138593114 -0.0012738786275602052 0.0040669141802936798 -0.00086498148739337925
leaf_weight=18.000000000000004 11.999999999999998 11.000000000000002 17 10.999999999999998 9.9999999999999982 14.999999999999998 10.000000000000002 10.999999999999998 14.000000000000002 9.9999999999999982 10.999999999999998 18 13.999999999999998 9.9999999999999982
leaf_count=18 12 11 17 11 10 15 10 11 14 10 11 18 14 10
internal_value=0 -0.000645665 -0.00374322 0.000386855 0.00149859 0.00452737 -0.00319153 0.00963424 -0.00019937 -0.00651142 -0.000406005 0.000885931 0.001909 0.000650214
internal_weight=0 180 45 135 103 37 32 22 66 28 21 56 38 24
internal_count=192 180 45 135 103 37 32 22 66 28 21 56 38 24
is_linear=0
shrinkage=0.05


Tree=57
num_leaves=15
num_cat=0
split_feature=5 1 15 1 2 10 15 1 5 5 15 1 7 2
split_gain=0.433425 0.207825 0.205033 0.193878 0.191223 0.510916 0.171119 0.162291 0.160908 0.0730281 0.0629736 0.0230638 0.0152935 0.0153447
threshold=87370.975250000018 2003.5000000000002 14822791.66666667 2014.5000000000002 1.0000000180025095e-35 44.500000000000007 12967166.66666667 2010.5000000000002 28681.207500000004 24983.687400000003 21031000.000000004 2006.5000000000002 103.50000000000001 1.5000000000000002
decision_type=2 2 2 2 2 2 2 2 2 2 2 2 2 2
left_child=1 2 9 4 5 7 -5 -3 -6 -1 -8 -10 13 -13
right_child=-2 3 -4 6 8 -7 10 -9 11 -11 -12 12 -14 -15
leaf_value=-0.0042825848795473567 0.0092007283354178081 0.0048580857840451316 0.00077535290380611143 -0.0080838792110708626 -0.00455367578251753 -0.0028145623082915946 0.0024859735718928272 0.013446965153244408 0.0032291882883080029 -0.0096117335557937625 -0.0029963216490366245 0.00097192815786305189 0.0017632124986609117 -0.001680053677409887
leaf_weight=18.000000000000004 11.999999999999998 11.000000000000002 17 10.999999999999998 15.999999999999998 14.999999999999998 10.000000000000002 10.999999999999998 10.999999999999998 9.9999999999999982 10.999999999999998 12 17 10
leaf_count=18 12 11 17 11 16 15 10 11 11 10 11 12 17 10
internal_value=0 -0.000613382 -0.00355606 0.000367512 0.00142366 0.004301 -0.00303195 0.00915253 -0.000189402 -0.00618585 -0.000385705 0.00120717 0.000636852 -0.000233518
internal_weight=0 180 45 135 103 37 32 22 66 28 21 50 39 22
internal_count=192 180 45 135 103 37 32 22 66 28 21 50 39 22
is_linear=0
shrinkage=0.05


Tree=58
num_leaves=15
num_cat=0
split_feature=5 1 15 5 1 12 7 1 1 5 16 1 5 8
split_gain=0.391166 0.188199 0.203839 0.177892 0.194446 0.265649 0.164085 0.118347 0.116961 0.0819568 0.0754611 0.0443745 0.0330133 0.0100322
threshold=87370.975250000018 2002.5000000000002 14551250.000000002 37381.013900000005 2012.5000000000002 1.0000000180025095e-35 1.0000000180025095e-35 2015.5000000000002 2012.5000000000002 22559.235350000006 139714.58333333334 2006.5000000000002 26418.973550000002 156.50000000000003
decision_type=2 2 2 2 2 2 2 2 2 2 2 2 2 2
left_child=1 2 9 4 5 10 -6 8 11 -1 -3 -5 -12 -13
right_child=-2 3 -4 7 6 -7 -8 -9 -10 -11 12 13 -14 -15
leaf_value=-0.0040482342491547259 0.0087406917494566496 -0.0056404325249604891 0.00071077878203462154 0.004097838271409273 -0.0091446158165733003 0.0060249676741659644 -0.0011768518325490213 -0.0027918340777978302 0.0074860679606596637 -0.0098919190233573324 -0.0025238242535851889 0.0016741436098527626 0.0013660487292023998 -0.00021872173445964499
leaf_weight=15.000000000000002 11.999999999999998 9.9999999999999982 17 14.999999999999998 12.000000000000002 14.999999999999998 13.999999999999998 9.9999999999999982 11.999999999999998 9.9999999999999982 10.000000000000002 14.000000000000002 11.999999999999998 13.999999999999998
leaf_count=15 12 10 17 15 12 15 14 10 12 10 10 14 12 14
internal_value=0 -0.000582713 -0.00351332 0.000309211 -0.00138475 0.000534565 -0.00485428 0.00221166 0.00312139 -0.00638571 -0.00203906 0.00190334 -0.000402075 0.000727711
internal_weight=0 180 42 138 73 47 26 65 55 25 32 43 22 28
internal_count=192 180 42 138 73 47 26 65 55 25 32 43 22 28
is_linear=0
shrinkage=0.05


Tree=59
num_leaves=16
num_cat=0
split_feature=11 5 1 5 1 0 0 10 5 0 1 1 1 0 16
split_gain=0.367712 0.329449 0.284069 0.202521 0.128601 0.224013 0.213628 0.117953 0.217766 0.0902703 0.085033 0.0748534 0.0421442 0.0416866 0.0339319
threshold=3.5000000000000004 4154.3350500000006 2003.5000000000002 61994.778200000008 2015.5000000000002 223.50000000000003 635.00000000000011 267.00000000000006 68159.249100000015 533.00000000000011 2009.5000000000002 2007.5000000000002 2010.5000000000002 352.50000000000006 186280.00000000003
decision_type=2 2 2 2 2 2 2 2 2 2 2 2 2 2 2
left_child=1 11 9 12 5 -4 10 8 -8 13 -7 -1 -2 -3 -6
right_child=3 2 4 -5 14 6 7 -9 -10 -11 -12 -13 -14 -15 -16
leaf_value=-0.0039538263597271644 0.0042847004346549481 -0.0044670946599746275 0.0078289393601672988 0.010435931909490716 -0.00044804135589705151 -0.00043636623563037973 0.001798035134063531 -0.00064715200922884318 0.010913667278364301 -0.0078380324623801498 -0.0061868791561573745 -0.0099309068464208394 -0.00030573454685509208 -0.00011411430869801817 -0.0043916574423201382
leaf_weight=11.000000000000002 10.000000000000005 11.000000000000002 13.999999999999998 10.999999999999998 12.000000000000002 18.000000000000004 19.000000000000004 13.999999999999998 9.9999999999999982 10.999999999999998 9.9999999999999982 9.9999999999999982 9.9999999999999982 10.999999999999998 9.9999999999999982
leaf_count=11 10 11 14 11 12 18 19 14 10 11 10 10 10 11 10
internal_value=0 -0.000960155 -8.41696e-05 0.00498661 0.00116662 0.00204848 0.000908674 0.00312184 0.00494136 -0.00413975 -0.00249012 -0.00680006 0.00198948 -0.0022906 -0.00224059
internal_weight=0 161 140 31 107 85 71 43 29 33 28 21 20 22 22
internal_count=192 161 140 31 107 85 71 43 29 33 28 21 20 22 22
is_linear=0
shrinkage=0.05


Tree=60
num_leaves=15
num_cat=0
split_feature=5 1 15 5 5 16 9 8 1 5 0 5 1 0
split_gain=0.331818 0.152782 0.186972 0.1462 0.156716 0.107191 0.0994073 0.0815 0.0761711 0.0939919 0.117785 0.0746244 0.0681727 0.00356498
