tree
version=v4
num_class=1
num_tree_per_iteration=1
label_index=0
max_feature_idx=26
objective=regression
feature_names=Column_0 Column_1 Column_2 Column_3 Column_4 Column_5 Column_6 Column_7 Column_8 Column_9 Column_10 Column_11 Column_12 Column_13 Column_14 Column_15 Column_16 Column_17 Column_18 Column_19 Column_20 Column_21 Column_22 Column_23 Column_24 Column_25 Column_26
feature_infos=[1:2289] [1993:2021] [0:2] [0:2] none [115.78800000000001:150126.86320000002] [0:1181] [0:1344] [0:1258] [0:670] [0:1303] [0:702] [0:992] none none [0:189821857.14285713] [0:950305] [0:232721596857.14285] [0:28497359979655.66] [115.78800000000001:150126.86320000002] [115.78800000000001:150126.86320000002] [0.013408659563600338:17.316129478011536] [-148113.86320000002:1889.212] [116.78800000000001:150919.86320000002] [115.78800000000001:150126.86320000002] [115.78800000000001:150533.86320000002] [115.78800000000001:150100.86320000002]
tree_sizes=731 722 724 720 724 725 806 723 807 725 800 806 802 726 809 724 725 725 810 806 726 809 734 808 817 813 817 810 814 811 817 815 827 735 732 819 735

Tree=0
num_leaves=7
num_cat=0
split_feature=5 22 17 2 17 5
split_gain=96.2177 23.7002 10.7247 5.56781 4.67956 3.86146
threshold=43573.713200000006 -71567.746049999987 9587709916.6666679 1.0000000180025095e-35 19428185446.428577 10690.009500000002
decision_type=2 2 2 2 2 2
left_child=2 -2 3 -1 -3 -5
right_child=1 4 -4 5 -6 -7
leaf_value=-0.017975857558319378 0.083680819654359653 0.0069807982576311212 -0.0062090982240134334 -0.061829958181493942 0.036360382612486371 -0.03588827884493348
leaf_weight=22 24 23 35 26 33 32
leaf_count=22 24 23 35 26 33 32
internal_value=-2.36293e-09 0.0421099 -0.0292938 -0.0393934 0.0242938 -0.0475173
internal_weight=0 80 115 80 56 58
internal_count=195 80 115 80 56 58
is_linear=0
shrinkage=1


Tree=1
num_leaves=7
num_cat=0
split_feature=5 19 17 2 17 5
split_gain=86.8365 21.3895 9.67906 5.02495 4.2233 3.48497
threshold=43573.713200000006 73580.746050000016 9587709916.6666679 1.0000000180025095e-35 19428185446.428577 10690.009500000002
decision_type=2 2 2 2 2 2
left_child=2 4 3 -1 -2 -5
right_child=1 -3 -4 5 -6 -7
leaf_value=-0.017077063227241691 0.0066317608013101246 0.079496779106557378 -0.0058986410738102032 -0.058738458958955908 0.034542365823731283 -0.034093862725421788
leaf_weight=22 23 24 35 26 33 32
leaf_count=22 23 24 35 26 33 32
internal_value=0 0.0400044 -0.0278291 -0.0374237 0.0230791 -0.0451414
internal_weight=0 80 115 80 56 58
internal_count=195 80 115 80 56 58
is_linear=0
shrinkage=0.05


Tree=2
num_leaves=7
num_cat=0
split_feature=20 19 17 2 17 19
split_gain=78.3699 19.304 8.73535 4.53501 3.81153 3.14518
threshold=43573.713200000006 73580.746050000016 9587709916.6666679 1.0000000180025095e-35 19428185446.428577 10203.703500000001
decision_type=2 2 2 2 2 2
left_child=2 4 3 -1 -2 -5
right_child=1 -3 -4 5 -6 -7
leaf_value=-0.016223210164091804 0.0063001725174810577 0.075521942848960563 -0.0056037091397281207 -0.055801536028201759 0.032815247209686225 -0.032389168301597236
leaf_weight=22 23 24 35 26 33 32
leaf_count=22 23 24 35 26 33 32
internal_value=0 0.0380042 -0.0264377 -0.0355525 0.0219251 -0.0428844
internal_weight=0 80 115 80 56 58
internal_count=195 80 115 80 56 58
is_linear=0
shrinkage=0.05


Tree=3
num_leaves=7
num_cat=0
split_feature=5 17 17 2 1 5
split_gain=70.7288 17.7638 7.88365 4.09285 3.1715 2.83853
threshold=43573.713200000006 27706240666.666672 9587709916.6666679 1.0000000180025095e-35 2007.5000000000002 10690.009500000002
decision_type=2 2 2 2 2 2
left_child=2 4 3 -1 -2 -5
right_child=1 -3 -4 5 -6 -7
leaf_value=-0.015412049435756423 0.0047684836116704075 0.069114256236288293 -0.0053235232191426417 -0.053011459627976792 0.029591146556119764 -0.030769710056483747
leaf_weight=22 22 27 35 26 31 32
leaf_count=22 22 27 35 26 31 32
internal_value=0 0.036104 -0.0251158 -0.0337749 0.0192874 -0.0407401
internal_weight=0 80 115 80 53 58
internal_count=195 80 115 80 53 58
is_linear=0
shrinkage=0.05


Tree=4
num_leaves=7
num_cat=0
split_feature=19 19 17 2 17 5
split_gain=63.9026 17.5334 5.66633 3.71296 3.42767 2.54538
threshold=41979.974150000002 73580.746050000016 9587709916.6666679 1.0000000180025095e-35 19428185446.428577 10690.009500000002
decision_type=2 2 2 2 2 2
left_child=2 4 3 -1 -2 -5
right_child=1 -3 -4 5 -6 -7
leaf_value=-0.014641446179964327 0.0038187624731411541 0.069021652452647686 -0.0071494684030767534 -0.050360883772373202 0.028213063901704218 -0.029147174497765882
leaf_weight=22 24 24 32 26 36 31
leaf_count=22 24 24 32 26 36 31
internal_value=0 0.0329029 -0.0248995 -0.0320893 0.0184553 -0.0388236
internal_weight=0 84 111 79 60 57
internal_count=195 84 111 79 60 57
is_linear=0
shrinkage=0.05


Tree=5
num_leaves=7
num_cat=0
split_feature=5 19 12 18 17 19
split_gain=57.7606 15.0365 6.59521 8.99645 3.36078 1.21407
threshold=43573.713200000006 76372.151650000014 1.0000000180025095e-35 533936102121.03345 20784525000.000004 17122.254900000004
decision_type=2 2 2 2 2 2
left_child=2 4 3 5 -2 -1
right_child=1 -3 -4 -5 -6 -7
leaf_value=-0.045728285257753576 0.0071377470623701818 0.068960786291531156 0.0033997003221884372 -0.0089263406884227247 0.031035441015997242 -0.030508835539221763
leaf_weight=38 28 21 20 37 31 20
leaf_count=38 28 21 20 37 31 20
internal_value=0 0.0326267 -0.0226968 -0.0281908 0.0196942 -0.0404802
internal_weight=0 80 115 95 59 58
internal_count=195 80 115 95 59 58
is_linear=0
shrinkage=0.05


Tree=6
num_leaves=8
num_cat=0
split_feature=17 19 19 2 5 1 15
split_gain=52.3556 14.6607 8.49019 3.89812 2.65701 2.05885 0.313753
threshold=22727825300.000004 36261.166500000007 73580.746050000016 1.0000000180025095e-35 10690.009500000002 2004.5000000000002 18023800.000000004
decision_type=2 2 2 2 2 2 2
left_child=1 3 -2 -1 -5 -3 -6
right_child=2 5 -4 4 6 -7 -8
leaf_value=-0.010561071281079894 0.027788300525683624 -0.0056673464547518804 0.071120018213987349 -0.045556427395114535 -0.029453152418136598 0.013820129625894358 -0.020596621111035347
leaf_weight=27 26 23 20 26 20 33 20
leaf_count=27 26 23 20 26 20 33 20
internal_value=0 -0.0143953 0.0466282 -0.0265657 -0.0331131 0.00581634 -0.0250249
internal_weight=0 149 46 93 66 56 40
internal_count=195 149 46 93 66 56 40
is_linear=0
shrinkage=0.05


Tree=7
num_leaves=7
num_cat=0
split_feature=20 17 12 18 1 19
split_gain=47.4168 12.8201 5.6995 7.42079 2.31563 1.01939
threshold=43573.713200000006 27706240666.666672 1.0000000180025095e-35 533936102121.03345 2007.5000000000002 17122.254900000004
decision_type=2 2 2 2 2 2
left_child=2 4 3 5 -2 -1
right_child=1 -3 -4 -5 -6 -7
leaf_value=-0.041642032897001822 0.0028689845211126589 0.05760435848324387 0.0036954029049957172 -0.0081753493236327492 0.024079468098258783 -0.027696089036762718
leaf_weight=38 22 27 20 37 31 20
leaf_count=38 22 27 20 37 31 20
internal_value=0 0.0295612 -0.0205643 -0.0256717 0.0152751 -0.0368331
internal_weight=0 80 115 95 53 58
internal_count=195 80 115 95 53 58
is_linear=0
shrinkage=0.05


Tree=8
num_leaves=8
num_cat=0
split_feature=17 19 19 2 5 1 15
split_gain=42.8616 12.0769 7.32296 3.26737 2.12623 1.74425 0.233261
threshold=22727825300.000004 36261.166500000007 73580.746050000016 1.0000000180025095e-35 10690.009500000002 2004.5000000000002 18023800.000000004
decision_type=2 2 2 2 2 2 2
left_child=1 3 -2 -1 -5 -3 -6
right_child=2 5 -4 4 6 -7 -8
leaf_value=-0.0094181986594641665 0.024692220298143535 -0.0052504800948435853 0.064935237690806391 -0.041196502845447798 -0.026648052465170626 0.012686437644261981 -0.019011616557836536
leaf_weight=27 26 23 20 26 20 33 20
leaf_count=27 26 23 20 26 20 33 20
internal_value=0 -0.0130248 0.0421892 -0.0240709 -0.0300652 0.00531949 -0.0228298
internal_weight=0 149 46 93 66 56 40
internal_count=195 149 46 93 66 56 40
is_linear=0
shrinkage=0.05


Tree=9
num_leaves=7
num_cat=0
split_feature=5 19 12 18 17 19
split_gain=38.9253 10.6556 4.92854 6.12677 2.23156 0.857502
threshold=43573.713200000006 76372.151650000014 1.0000000180025095e-35 533936102121.03345 19428185446.428577 17122.254900000004
decision_type=2 2 2 2 2 2
left_child=2 4 3 5 -2 -1
right_child=1 -3 -4 -5 -6 -7
leaf_value=-0.037933856266011534 0.0041541278420481834 0.05737039815811884 0.0039271546760573988 -0.0074837523902690902 0.023949363433888982 -0.025143142603337765
leaf_weight=38 24 21 20 37 35 20
leaf_count=38 24 21 20 37 35 20
internal_value=0 0.0267838 -0.0186322 -0.0233816 0.0158971 -0.0335233
internal_weight=0 80 115 95 59 58
internal_count=195 80 115 95 59 58
is_linear=0
shrinkage=0.05


Tree=10
num_leaves=8
num_cat=0
split_feature=17 19 19 3 20 1 18
split_gain=35.2945 9.88062 6.0664 2.00943 1.80448 1.55007 0.55219
threshold=22727825300.000004 36261.166500000007 73580.746050000016 1.5000000000000002 7296.3948000000009 2004.5000000000002 410428877374.50006
decision_type=2 2 2 2 2 2 2
left_child=1 3 -2 4 -1 -3 -6
right_child=2 5 -4 -5 6 -7 -8
leaf_value=-0.036376500153845109 0.022359093909080214 -0.0051908926795358251 0.058987061232328421 -0.010012393416120457 -0.02552213355898857 0.011718144753214086 -0.013772774394601584
leaf_weight=27 26 23 20 26 20 33 20
leaf_count=27 26 23 20 26 20 33 20
internal_value=0 -0.0118193 0.0382843 -0.0218106 -0.026389 0.00477336 -0.0196475
internal_weight=0 149 46 93 67 56 40
internal_count=195 149 46 93 67 56 40
is_linear=0
shrinkage=0.05


Tree=11
num_leaves=8
num_cat=0
split_feature=19 19 18 2 1 19 5
split_gain=31.9533 9.22796 2.61095 2.53174 2.05117 0.970168 0.271587
threshold=41979.974150000002 76372.151650000014 575791067904.82166 1.0000000180025095e-35 2007.5000000000002 9236.4799500000026 58597.559750000008
decision_type=2 2 2 2 2 2 2
left_child=2 4 3 -1 -2 -5 -6
right_child=1 -3 -4 5 6 -7 -8
leaf_value=-0.0083371697791985097 0.00093958306880224322 0.051970677148728141 -0.006762316075430529 -0.036577020140121812 0.016244452370500023 -0.022927829952289661 0.024294957751408219
leaf_weight=21 21 21 37 23 22 30 20
leaf_count=21 21 21 37 23 22 30 20
internal_value=0 0.0232666 -0.0176071 -0.0230296 0.0136985 -0.0288511 0.020078
internal_weight=0 84 111 74 63 53 42
internal_count=195 84 111 74 63 53 42
is_linear=0
shrinkage=0.05


Tree=12
num_leaves=8
num_cat=0
split_feature=17 19 19 2 5 1 15
split_gain=29.0963 8.05421 5.01161 2.53018 1.37492 1.3495 0.13409
threshold=22727825300.000004 36261.166500000007 73580.746050000016 1.0000000180025095e-35 10690.009500000002 2004.5000000000002 18023800.000000004
decision_type=2 2 2 2 2 2 2
left_child=1 3 -2 -1 -5 -3 -6
right_child=2 5 -4 4 6 -7 -8
leaf_value=-0.006857959291449299 0.020285848275615047 -0.0050478563603499668 0.053577552009373912 -0.033978224373780765 -0.022103703338652851 0.01072930908959472 -0.016313837170600892
leaf_weight=27 26 23 20 26 20 33 20
leaf_count=27 26 23 20 26 20 33 20
internal_value=0 -0.0107314 0.0347605 -0.0197521 -0.025027 0.0042494 -0.0192088
internal_weight=0 149 46 93 66 56 40
internal_count=195 149 46 93 66 56 40
is_linear=0
shrinkage=0.05


Tree=13
num_leaves=7
num_cat=0
split_feature=5 17 12 18 1 19
split_gain=26.2833 7.79036 4.10787 4.29611 1.24983 0.612352
threshold=43573.713200000006 27706240666.666672 1.0000000180025095e-35 533936102121.03345 2007.5000000000002 17122.254900000004
decision_type=2 2 2 2 2 2
left_child=2 4 3 5 -2 -1
right_child=1 -3 -4 -5 -6 -7
leaf_value=-0.031866026473672766 0.0017579352652484722 0.043869300517770986 0.0052852014452219008 -0.0063339265906629527 0.017340609988182664 -0.021057216976187194
leaf_weight=38 22 27 20 37 31 20
leaf_count=38 22 27 20 37 31 20
internal_value=0 0.0220088 -0.0153105 -0.0196464 0.0108723 -0.0281389
internal_weight=0 80 115 95 53 58
internal_count=195 80 115 95 53 58
is_linear=0
shrinkage=0.05


Tree=14
num_leaves=8
num_cat=0
split_feature=17 19 19 2 1 5 0
split_gain=23.7919 6.64256 4.32051 2.11147 1.14914 1.09032 0.0440376
threshold=22727825300.000004 36261.166500000007 73580.746050000016 1.0000000180025095e-35 2004.5000000000002 10690.009500000002 433.50000000000006
decision_type=2 2 2 2 2 2 2
left_child=1 3 -2 -1 -3 -5 -7
right_child=2 4 -4 5 -6 6 -8
leaf_value=-0.0061171008204972304 0.017993035962661871 -0.0046786180069751061 0.048904173867776991 -0.030686012082375015 0.009880315540640644 -0.019192685745656492 -0.015874642794951797
leaf_weight=27 26 23 20 26 33 20 20
leaf_count=27 26 23 20 26 33 20 20
internal_value=0 -0.00970404 0.0314327 -0.0178962 0.00390075 -0.0227149 -0.0175337
internal_weight=0 149 46 93 56 66 40
internal_count=195 149 46 93 56 66 40
is_linear=0
shrinkage=0.05


Tree=15
num_leaves=7
num_cat=0
split_feature=5 18 12 18 5 19
split_gain=21.5772 6.51742 3.55667 3.59503 1.0069 0.509348
threshold=43573.713200000006 2122191681205.3127 1.0000000180025095e-35 533936102121.03345 64954.786500000009 17122.254900000004
decision_type=2 2 2 2 2 2
left_child=2 4 3 5 -2 -1
right_child=1 -3 -4 -5 -6 -7
leaf_value=-0.029074740223586561 0.0061887641487693469 0.043113460357893596 0.0052919062040746217 -0.005728905066545751 0.019896560224394004 -0.019216833659447732
leaf_weight=38 37 22 20 37 21 20
leaf_count=38 37 22 20 37 21 20
internal_value=0 0.0199414 -0.0138722 -0.0179068 0.0111519 -0.0256755
internal_weight=0 80 115 95 58 58
internal_count=195 80 115 95 58 58
is_linear=0
shrinkage=0.05


Tree=16
num_leaves=7
num_cat=0
split_feature=18 17 17 18 18 5
split_gain=19.6247 5.66344 4.02062 3.92875 0.911372 0.629511
threshold=1042003593165.0001 27706240666.666672 121896000.00000001 230877881708.80002 575791067904.82166 57795.462650000009
decision_type=2 2 2 2 2 2
left_child=2 5 -1 -4 -5 -2
right_child=1 -3 3 4 -6 -7
leaf_value=0.0077715983241796495 0.0034537790039473257 0.037719034350344113 -0.030893246987552355 -0.016825395887361892 -0.0048751855246686876 0.014915728114545347
leaf_weight=20 23 28 33 27 39 25
leaf_count=20 23 28 33 27 39 25
internal_value=0 0.0198482 -0.0126762 -0.016807 -0.00976391 0.00942354
internal_weight=0 76 119 99 66 48
internal_count=195 76 119 99 66 48
is_linear=0
shrinkage=0.05


Tree=17
num_leaves=7
num_cat=0
split_feature=5 19 12 18 17 19
split_gain=17.7646 5.4559 2.94732 2.94364 0.998353 0.412656
threshold=43573.713200000006 76372.151650000014 1.0000000180025095e-35 533936102121.03345 16925770750.000002 17122.254900000004
decision_type=2 2 2 2 2 2
left_child=2 4 3 5 -2 -1
right_child=1 -3 -4 -5 -6 -7
leaf_value=-0.02634922517463565 0.0012214612029492857 0.039980408673485124 0.0048583044670522215 -0.0052402967517893462 0.014961588067504077 -0.017476214149501176
leaf_weight=38 20 21 20 37 39 20
leaf_count=38 20 21 20 37 39 20
internal_value=0 0.018094 -0.0125871 -0.0162599 0.0103039 -0.0232896
internal_weight=0 80 115 95 59 58
internal_count=195 80 115 95 59 58
is_linear=0
shrinkage=0.05


Tree=18
num_leaves=8
num_cat=0
split_feature=17 19 19 2 1 15 19
split_gain=16.1649 4.54905 3.2253 1.50459 0.984094 0.971254 0.240018
threshold=22727825300.000004 36261.166500000007 73580.746050000016 1.0000000180025095e-35 2004.5000000000002 13035833.333333334 25948.779250000003
decision_type=2 2 2 2 2 2 2
left_child=1 3 -2 -1 -3 -5 -7
right_child=2 4 -4 5 -6 6 -8
leaf_value=-0.004834952867693372 0.014297202695161104 -0.0046795777004698053 0.041004650071263318 -0.027139293175676593 0.008793335475704888 -0.018059517049484632 -0.010586344326535862
leaf_weight=27 26 23 20 23 33 22 21
leaf_count=27 26 23 20 23 33 22 21
internal_value=0 -0.00799879 0.0259091 -0.0147782 0.00325982 -0.0188459 -0.0144098
internal_weight=0 149 46 93 56 66 43
internal_count=195 149 46 93 56 66 43
is_linear=0
shrinkage=0.05


Tree=19
num_leaves=8
num_cat=0
split_feature=17 19 19 3 5 1 18
split_gain=14.5888 4.10552 2.91083 1.36104 1.21346 0.888145 0.229109
threshold=22727825300.000004 36261.166500000007 73580.746050000016 1.5000000000000002 7340.3948000000009 2004.5000000000002 410428877374.50006
decision_type=2 2 2 2 2 2 2
left_child=1 3 -2 4 -1 -3 -6
right_child=2 5 -4 -5 6 -7 -8
leaf_value=-0.025997468441966234 0.01358234269472842 -0.0044455988899521201 0.038954417426139115 -0.0043293595743867071 -0.016063003726303576 0.0083536687402308678 -0.008494824888184668
leaf_weight=27 26 23 20 26 20 33 20
leaf_count=27 26 23 20 26 20 33 20
internal_value=0 -0.00759885 0.0246137 -0.0140393 -0.0178073 0.00309683 -0.0122789
internal_weight=0 149 46 93 67 56 40
internal_count=195 149 46 93 67 56 40
is_linear=0
shrinkage=0.05


Tree=20
num_leaves=7
num_cat=0
split_feature=5 18 12 18 5 19
split_gain=13.2593 4.30596 2.58409 2.23506 0.611296 0.311499
threshold=43573.713200000006 2122191681205.3127 1.0000000180025095e-35 533936102121.03345 64954.786500000009 17122.254900000004
decision_type=2 2 2 2 2 2
left_child=2 4 3 5 -2 -1
right_child=1 -3 -4 -5 -6 -7
leaf_value=-0.023097273783366148 0.0046207042662678539 0.034466974437236786 0.0054605903290212161 -0.0047113878834942309 0.01530139371752739 -0.015388140315189959
leaf_weight=38 37 22 20 37 21 20
leaf_count=38 37 22 20 37 21 20
internal_value=0 0.0156321 -0.0108745 -0.0143135 0.00848785 -0.020439
internal_weight=0 80 115 95 58 58
internal_count=195 80 115 95 58 58
is_linear=0
shrinkage=0.05


Tree=21
num_leaves=8
num_cat=0
split_feature=18 17 17 18 10 1 16
split_gain=11.9969 3.74402 3.3341 2.53811 0.724974 0.604776 0.396869
threshold=1042003593165.0001 27706240666.666672 121896000.00000001 230877881708.80002 5.0000000000000009 2003.5000000000002 220818.33333333334
decision_type=2 2 2 2 2 2 2
left_child=2 6 -1 -4 5 -5 -2
right_child=1 -3 3 4 -6 -7 -8
leaf_value=0.0087093070149421702 0.010885115599791918 0.030048947197584705 -0.024994762817567046 -0.0098108601570129402 -0.015959140453487636 0.0016989103207985562 0.0016632231930270793
leaf_weight=20 28 28 33 25 20 21 20
leaf_count=20 28 28 33 25 20 21 20
internal_value=0 0.0155187 -0.00991108 -0.0136728 -0.00801178 -0.0045564 0.00704266
internal_weight=0 76 119 99 66 46 48
internal_count=195 76 119 99 66 46 48
is_linear=0
shrinkage=0.05


Tree=22
num_leaves=7
num_cat=0
split_feature=5 19 2 15 17 19
split_gain=10.9832 3.71322 1.09166 0.838689 0.480382 0.188064
threshold=64954.786500000009 37110.078650000003 1.0000000180025095e-35 13035833.333333334 16778825250.000002 25948.779250000003
decision_type=2 2 2 2 2 2
left_child=1 2 -1 -4 -3 -5
right_child=-2 4 3 5 -6 -7
leaf_value=-0.0034438622632512344 0.024119908053820072 -0.0011706816877617881 -0.023098551190417746 -0.014744013768028131 0.0077625192393658352 -0.0083439372441110517
leaf_weight=27 38 27 23 22 34 24
leaf_count=27 38 27 23 22 34 24
internal_value=0 -0.00583794 -0.0119674 -0.0153027 0.00380848 -0.0114048
internal_weight=0 157 96 69 61 46
internal_count=195 157 96 69 61 46
is_linear=0
shrinkage=0.05


Tree=23
num_leaves=8
num_cat=0
split_feature=17 19 1 3 5 15 0
split_gain=9.96463 4.10423 1.03898 1.01533 1.11294 0.560557 0.186746
threshold=27706240666.666672 37110.078650000003 2004.5000000000002 1.5000000000000002 7340.3948000000009 22481875.000000004 389.00000000000006
decision_type=2 2 2 2 2 2 2
left_child=1 3 -3 4 -1 -4 -6
right_child=-2 2 5 -5 6 -7 -8
leaf_value=-0.022459174151083939 0.027603391744196418 -0.0045403341699222274 0.014714435966951506 -0.0029318094110259646 -0.012726384536786515 0.0039078323120650439 -0.0061345174154710212
leaf_weight=27 28 22 21 26 22 28 21
leaf_count=27 28 22 21 26 22 28 21
internal_value=0 -0.00462811 0.00448641 -0.0113691 -0.0145029 0.00853923 -0.0095071
internal_weight=0 167 71 96 70 49 43
internal_count=195 167 71 96 70 49 43
is_linear=0
shrinkage=0.05


Tree=24
num_leaves=8
num_cat=0
split_feature=23 11 18 0 20 1 17
split_gain=9.19655 3.37949 3.43377 0.837729 0.539996 0.37679 0.0891314
threshold=64954.786500000009 1.0000000180025095e-35 575791067904.82166 587.50000000000011 7296.3948000000009 2002.5000000000002 16778825250.000002
decision_type=2 2 2 2 2 2 2
left_child=1 2 4 -4 -1 -6 -5
right_child=-2 -3 3 6 5 -7 -8
leaf_value=-0.020610809320163345 0.022071061989194469 0.01332630756133724 -0.0081266320217400802 0.0019297184289566111 -0.016426194882528347 -0.0069437989871948963 0.0064837780294262556
leaf_weight=31 38 21 20 21 22 20 22
leaf_count=31 38 21 20 21 22 20 22
internal_value=0 -0.00534204 -0.00822465 0.000327533 -0.0156053 -0.0119108 0.0042597
internal_weight=0 157 136 63 73 42 43
internal_count=195 157 136 63 73 42 43
is_linear=0
shrinkage=0.05


Tree=25
num_leaves=8
num_cat=0
split_feature=17 19 2 1 15 15 19
split_gain=8.37701 3.22852 0.970973 0.880913 0.682629 0.50673 0.1407
threshold=27706240666.666672 37110.078650000003 1.0000000180025095e-35 2004.5000000000002 13035833.333333334 22481875.000000004 25948.779250000003
decision_type=2 2 2 2 2 2 2
left_child=1 2 -1 -3 -4 -5 -6
right_child=-2 3 4 5 6 -7 -8
leaf_value=-0.0021835430421762998 0.025309084386598055 -0.004471331663345071 -0.020400886626347252 0.01344350351164827 -0.012739319836890157 0.0031688402722855769 -0.0072035444783978171
leaf_weight=27 28 22 23 21 22 28 24
leaf_count=27 28 22 23 21 22 28 24
internal_value=0 -0.00424344 -0.0102221 0.00384045 -0.0133677 0.00757227 -0.00985109
internal_weight=0 167 96 71 69 49 46
internal_count=195 167 96 71 69 49 46
is_linear=0
shrinkage=0.05


Tree=26
num_leaves=8
num_cat=0
split_feature=5 11 17 5 0 1 0
split_gain=7.70425 2.88489 2.18954 0.702902 0.341846 0.330974 0.250162
threshold=64954.786500000009 1.0000000180025095e-35 9587709916.6666679 7340.3948000000009 622.00000000000011 2003.5000000000002 859.00000000000011
decision_type=2 2 2 2 2 2 2
left_child=1 2 3 -1 -4 -5 -6
right_child=-2 -3 4 5 6 -7 -8
leaf_value=-0.01904105991125107 0.020201136655707257 0.012358786094756354 -0.005683959898583237 -0.013170024089049548 0.0061480719724204399 -0.0044609370711259548 -0.0017601895052939652
leaf_weight=31 38 21 21 24 20 20 20
leaf_count=31 38 21 21 24 20 20 20
internal_value=0 -0.00488945 -0.00755278 -0.0132743 -0.000518123 -0.00921135 0.00219394
internal_weight=0 157 136 75 61 44 40
internal_count=195 157 136 75 61 44 40
is_linear=0
shrinkage=0.05


Tree=27
num_leaves=8
num_cat=0
split_feature=17 1 5 3 5 0 16
split_gain=7.06717 2.68756 2.84543 1.30665 1.11785 0.165635 0.101856
threshold=27706240666.666672 2000.5000000000002 49833.25725000001 1.5000000000000002 7340.3948000000009 881.00000000000011 161475.00000000003
decision_type=2 2 2 2 2 2 2
left_child=1 -1 3 4 -3 -4 -6
right_child=-2 2 5 -5 6 -7 -8
leaf_value=-0.016679231715247485 0.023246339362646855 -0.019415437551215293 0.013173606782220305 0.0033359870913305455 -0.0026413679524141895 0.0068937209989165978 -0.007457690697122852
leaf_weight=33 28 20 21 28 21 21 23
leaf_count=33 28 20 21 28 21 21 23
internal_value=0 -0.00389759 -0.000749872 -0.00567279 -0.00961413 0.0100337 -0.00515899
internal_weight=0 167 134 92 64 42 44
internal_count=195 167 134 92 64 42 44
is_linear=0
shrinkage=0.05


Tree=28
num_leaves=8
num_cat=0
split_feature=19 11 18 0 5 7 16
split_gain=6.44534 2.37564 2.59192 0.634597 0.399904 0.341937 0.2064
threshold=67079.39635000001 1.0000000180025095e-35 575791067904.82166 587.50000000000011 7340.3948000000009 94.000000000000014 164390.00000000003
decision_type=2 2 2 2 2 2 2
left_child=1 2 4 -4 -1 -6 -5
right_child=-2 -3 3 6 5 -7 -8
leaf_value=-0.017328193526895297 0.020140778127295728 0.011171356542035937 -0.0068612183345248927 0.0076225171959958971 -0.0055397390980612147 -0.0145729364361614 0.00092094419092905743
leaf_weight=31 33 22 20 20 22 20 27
leaf_count=31 33 22 20 20 22 20 27
internal_value=0 -0.00410275 -0.00650297 0.00059838 -0.0130206 -0.00984126 0.00377268
internal_weight=0 162 140 67 73 42 47
internal_count=195 162 140 67 73 42 47
is_linear=0
shrinkage=0.05


Tree=29
num_leaves=8
num_cat=0
split_feature=17 1 5 3 5 0 16
split_gain=5.93014 2.31741 2.29066 1.12142 0.913973 0.1592 0.0994235
threshold=27706240666.666672 2000.5000000000002 49833.25725000001 1.5000000000000002 7340.3948000000009 881.00000000000011 161475.00000000003
decision_type=2 2 2 2 2 2 2
left_child=1 -1 3 4 -3 -4 -6
right_child=-2 2 5 -5 6 -7 -8
leaf_value=-0.015439160447567702 0.021294351687122667 -0.017578256691340357 0.012106322916224599 0.0032814774096810392 -0.0021999124238001452 0.0059496358680051001 -0.0069583810298987055
leaf_weight=33 28 20 21 28 21 21 23
leaf_count=33 28 20 21 28 21 21 23
internal_value=0 -0.00357031 -0.000647385 -0.0050644 -0.00871572 0.00902798 -0.00468729
internal_weight=0 167 134 92 64 42 44
internal_count=195 167 134 92 64 42 44
is_linear=0
shrinkage=0.05


Tree=30
num_leaves=8
num_cat=0
split_feature=19 19 2 1 15 8 19
split_gain=5.4139 2.11591 0.797583 0.508393 0.48552 0.248108 0.108851
threshold=76372.151650000014 37110.078650000003 1.0000000180025095e-35 2004.5000000000002 13035833.333333334 50.000000000000007 25948.779250000003
decision_type=2 2 2 2 2 2 2
left_child=1 2 -1 -3 -4 -5 -6
right_child=-2 3 4 5 6 -7 -8
leaf_value=-0.00057869462503327268 0.023981302541991076 -0.0036515685031190516 -0.016646669076188749 0.0085407664999365817 -0.010289832911538808 0.0019650540601175567 -0.0054207276242474716
leaf_weight=27 21 20 23 32 22 26 24
leaf_count=27 21 20 23 32 22 26 24
internal_value=0 -0.0028943 -0.00786429 0.00322262 -0.0107152 0.00559303 -0.00774943
internal_weight=0 174 96 78 69 58 46
internal_count=195 174 96 78 69 58 46
is_linear=0
shrinkage=0.05


Tree=31
num_leaves=8
num_cat=0
split_feature=17 1 5 3 5 0 16
split_gain=4.94025 1.97782 1.90042 0.990136 0.803813 0.154784 0.0984975
threshold=27706240666.666672 2000.5000000000002 49833.25725000001 1.5000000000000002 7340.3948000000009 881.00000000000011 161475.00000000003
decision_type=2 2 2 2 2 2 2
left_child=1 -1 3 4 -3 -4 -6
right_child=-2 2 5 -5 6 -7 -8
leaf_value=-0.014223524379177075 0.019435979984700681 -0.016323892073705795 0.011289663878934724 0.0032604805027533859 -0.0017589577318479618 0.0052189711303938001 -0.0064952154107310858
leaf_weight=33 28 20 21 28 21 21 23
leaf_count=33 28 20 21 28 21 21 23
internal_value=0 -0.00325873 -0.000558441 -0.00458166 -0.00801259 0.00825432 -0.00423473
internal_weight=0 167 134 92 64 42 44
internal_count=195 167 134 92 64 42 44
is_linear=0
shrinkage=0.05


Tree=32
num_leaves=8
num_cat=0
split_feature=19 11 15 5 0 1 10
split_gain=4.57509 1.85439 1.86791 0.944358 0.678513 0.656841 0.113911
threshold=76372.151650000014 1.0000000180025095e-35 18783250.000000004 7340.3948000000009 755.00000000000011 2000.5000000000002 1.0000000180025095e-35
decision_type=2 2 2 2 2 2 2
left_child=1 2 3 -1 6 -5 -4
right_child=-2 -3 4 5 -6 -7 -8
leaf_value=-0.018514568746710817 0.022045377034339168 0.0099407523311674604 -0.00076997664970501018 -0.013001812914047728 0.0066592836721489834 -0.0015447093669630203 -0.0058792344247922306
leaf_weight=24 21 25 24 22 30 29 20
leaf_count=24 21 25 24 22 30 29 20
internal_value=0 -0.00266065 -0.00477498 -0.0103358 0.000861005 -0.00648699 -0.00309237
internal_weight=0 174 149 75 74 51 44
internal_count=195 174 149 75 74 51 44
is_linear=0
shrinkage=0.05


Tree=33
num_leaves=7
num_cat=0
split_feature=21 12 18 0 1 5
split_gain=4.12902 1.80847 2.67716 0.65414 0.209719 0.206809
threshold=0.02629956236098591 1.0000000180025095e-35 575791067904.82166 534.50000000000011 2003.5000000000002 57795.462650000009
decision_type=2 2 2 2 2 2
left_child=-1 2 4 -4 -2 -5
right_child=1 -3 3 5 -6 -7
leaf_value=0.020943108306770833 -0.015029650036659507 0.0091122649776350182 -0.0067392493551597004 0.0013162303420310645 -0.0092002213742859943 0.0071717175262747332
leaf_weight=21 36 28 20 38 27 25
leaf_count=21 36 28 20 38 27 25
internal_value=0 -0.00252762 -0.00475992 0.00113885 -0.0125313 0.00363984
internal_weight=0 174 146 83 63 63
internal_count=195 174 146 83 63 63
is_linear=0
shrinkage=0.05


Tree=34
num_leaves=7
num_cat=0
split_feature=17 17 18 16 0 8
split_gain=3.77451 1.88935 2.15167 0.65632 0.650338 0.257046
threshold=27706240666.666672 121896000.00000001 575791067904.82166 129733.33333333336 534.50000000000011 232.50000000000003
decision_type=2 2 2 2 2 2
left_child=1 -1 3 -3 -4 -6
right_child=-2 2 4 -5 5 -7
leaf_value=0.011569789508357645 0.016988780288790754 -0.017684767016076616 -0.0065942660942673696 -0.0072026364745397592 0.0054309515266094165 -0.0012336638553634934
leaf_weight=20 28 28 25 32 39 23
leaf_count=20 28 28 25 32 39 23
internal_value=0 -0.00284842 -0.00481008 -0.0120943 0.000213519 0.00295859
internal_weight=0 167 147 60 87 62
internal_count=195 167 147 60 87 62
is_linear=0
shrinkage=0.05


Tree=35
num_leaves=8
num_cat=0
split_feature=19 11 18 0 5 7 5
split_gain=3.4807 1.53249 1.60209 0.429527 0.315443 0.267328 0.131351
threshold=76372.151650000014 1.0000000180025095e-35 575791067904.82166 622.00000000000011 7340.3948000000009 94.000000000000014 57795.462650000009
decision_type=2 2 2 2 2 2 2
left_child=1 2 4 -4 -1 -6 -5
right_child=-2 -3 3 6 5 -7 -8
leaf_value=-0.013307112449359511 0.019228745036248475 0.0091348869036883117 -0.0044439901150763036 0.0013111645073097733 -0.0030142854770098854 -0.010918292319402098 0.0064739193444066506
leaf_weight=31 21 25 25 28 23 20 22
leaf_count=31 21 25 25 28 23 20 22
internal_value=0 -0.00232071 -0.00424279 0.000907188 -0.00946236 -0.00669057 0.00358278
internal_weight=0 174 149 75 74 43 50
internal_count=195 174 149 75 74 43 50
is_linear=0
shrinkage=0.05


Tree=36
num_leaves=7
num_cat=0
split_feature=19 12 18 0 1 5
split_gain=3.14133 1.48548 2.01257 0.502774 0.202935 0.162581
threshold=76372.151650000014 1.0000000180025095e-35 575791067904.82166 534.50000000000011 2003.5000000000002 57795.462650000009
decision_type=2 2 2 2 2 2
left_child=1 2 4 -4 -1 -5
right_child=-2 -3 3 5 -6 -7
leaf_value=-0.013423534224016799 0.018267308132323839 0.0083446913418551306 -0.0060201100353151557 0.0010190225316603718 -0.007689168284371219 0.0062107716053724296
leaf_weight=36 21 28 20 38 27 25
leaf_count=36 21 28 20 38 27 25
internal_value=0 -0.00220468 -0.00422784 0.000886626 -0.0109659 0.00307924
internal_weight=0 174 146 83 63 63
internal_count=195 174 146 83 63 63
is_linear=0
shrinkage=0.05


end of trees

feature_importances:
Column_19=45
Column_5=38
Column_17=36
Column_1=23
Column_18=23
Column_0=14
Column_2=14
Column_15=10
Column_12=9
Column_3=6
Column_16=6
Column_11=5
Column_20=4
Column_7=2
Column_8=2
Column_10=2
Column_21=1
Column_22=1
Column_23=1

parameters:
[boosting: gbdt]
[objective: regression]
[metric: rmse]
[tree_learner: serial]
[device_type: cpu]
[data_sample_strategy: bagging]
[data: ]
[valid: ]
[num_iterations: 10000]
[learning_rate: 0.05]
[num_leaves: 63]
[num_threads: 0]
[seed: 1237]
[deterministic: 0]
[force_col_wise: 0]
[force_row_wise: 0]
[histogram_pool_size: -1]
[max_depth: -1]
[min_data_in_leaf: 20]
[min_sum_hessian_in_leaf: 0.001]
[bagging_fraction: 1]
[pos_bagging_fraction: 1]
[neg_bagging_fraction: 1]
[bagging_freq: 0]
[bagging_seed: 32458]
[feature_fraction: 0.9]
[feature_fraction_bynode: 1]
[feature_fraction_seed: 15412]
[extra_trees: 0]
[extra_seed: 19498]
[early_stopping_round: 0]
[early_stopping_min_delta: 0]
[first_metric_only: 0]
[max_delta_step: 0]
[lambda_l1: 0]
[lambda_l2: 0]
[linear_lambda: 0]
[min_gain_to_split: 0]
[drop_rate: 0.1]
[max_drop: 50]
[skip_drop: 0.5]
[xgboost_dart_mode: 0]
[uniform_drop: 0]
[drop_seed: 818]
[top_rate: 0.2]
[other_rate: 0.1]
[min_data_per_group: 100]
[max_cat_threshold: 32]
[cat_l2: 10]
[cat_smooth: 10]
[max_cat_to_onehot: 4]
[top_k: 20]
[monotone_constraints: ]
[monotone_constraints_method: basic]
[monotone_penalty: 0]
[feature_contri: ]
[forcedsplits_filename: ]
[refit_decay_rate: 0.9]
[cegb_tradeoff: 1]
[cegb_penalty_split: 0]
[cegb_penalty_feature_lazy: ]
[cegb_penalty_feature_coupled: ]
[path_smooth: 0]
[interaction_constraints: ]
[verbosity: -1]
[saved_feature_importance_type: 0]
[use_quantized_grad: 0]
[num_grad_quant_bins: 4]
[quant_train_renew_leaf: 0]
[stochastic_rounding: 1]
[linear_tree: 0]
[max_bin: 255]
[max_bin_by_feature: ]
[min_data_in_bin: 3]
[bin_construct_sample_cnt: 200000]
[data_random_seed: 4078]
[is_enable_sparse: 1]
[enable_bundle: 1]
[use_missing: 1]
[zero_as_missing: 0]
[feature_pre_filter: 1]
[pre_partition: 0]
[two_round: 0]
[header: 0]
[label_column: ]
[weight_column: ]
[group_column: ]
[ignore_column: ]
[categorical_feature: ]
[forcedbins_filename: ]
[precise_float_parser: 0]
[parser_config_file: ]
[objective_seed: 21231]
[num_class: 1]
[is_unbalance: 0]
[scale_pos_weight: 1]
[sigmoid: 1]
[boost_from_average: 1]
[reg_sqrt: 0]
[alpha: 0.9]
[fair_c: 1]
[poisson_max_delta_step: 0.7]
[tweedie_variance_power: 1.5]
[lambdarank_truncation_level: 30]
[lambdarank_norm: 1]
[label_gain: ]
[lambdarank_position_bias_regularization: 0]
[eval_at: ]
[multi_error_top_k: 1]
[auc_mu_weights: ]
[num_machines: 1]
[local_listen_port: 12400]
[time_out: 120]
[machine_list_filename: ]
[machines: ]
[gpu_platform_id: -1]
[gpu_device_id: -1]
[gpu_use_dp: 0]
[num_gpu: 1]

end of parameters

pandas_categorical:null
