{"learner":{"attributes":{"best_iteration":"29","best_score":"0.5422889870881228"},"feature_names":[],"feature_types":[],"gradient_booster":{"model":{"gbtree_model_param":{"num_parallel_tree":"1","num_trees":"80"},"iteration_indptr":[0,1,2,3,4,5,6,7,8,9,10,11,12,13,14,15,16,17,18,19,20,21,22,23,24,25,26,27,28,29,30,31,32,33,34,35,36,37,38,39,40,41,42,43,44,45,46,47,48,49,50,51,52,53,54,55,56,57,58,59,60,61,62,63,64,65,66,67,68,69,70,71,72,73,74,75,76,77,78,79,80],"tree_info":[0,0,0,0,0,0,0,0,0,0,0,0,0,0,0,0,0,0,0,0,0,0,0,0,0,0,0,0,0,0,0,0,0,0,0,0,0,0,0,0,0,0,0,0,0,0,0,0,0,0,0,0,0,0,0,0,0,0,0,0,0,0,0,0,0,0,0,0,0,0,0,0,0,0,0,0,0,0,0,0],"trees":[{"base_weights":[3.6371395E-2,-5.30161E-1,1.0317854E0,-5.6249905E-2,-1.7636929E-2,4.341003E-2,1.17087536E-1],"categories":[],"categories_nodes":[],"categories_segments":[],"categories_sizes":[],"default_left":[0,0,0,0,0,0,0],"id":0,"left_children":[1,3,5,-1,-1,-1,-1],"loss_changes":[9.641584E1,6.892561E0,1.3964119E1,0E0,0E0,0E0,0E0],"parents":[2147483647,0,0,1,1,2,2],"right_children":[2,4,6,-1,-1,-1,-1],"split_conditions":[4.4304902E4,2.2678928E4,6.8070336E4,-5.6249905E-2,-1.7636929E-2,4.341003E-2,1.17087536E-1],"split_indices":[19,24,18,0,0,0,0],"split_type":[0,0,0,0,0,0,0],"sum_hessian":[1.69E2,1.08E2,6.1E1,6.1E1,4.7E1,3.4E1,2.7E1],"tree_param":{"num_deleted":"0","num_feature":"27","num_nodes":"7","size_leaf_vector":"1"}},{"base_weights":[4.62576E-2,-4.8333034E-1,9.3084854E-1,-6.926034E-1,-1.5009763E-2,3.9159544E-2,1.11111864E-1,-3.1029899E-2,-6.4556904E-2],"categories":[],"categories_nodes":[],"categories_segments":[],"categories_sizes":[],"default_left":[0,0,0,0,0,0,0,0,0],"id":1,"left_children":[1,3,5,7,-1,-1,-1,-1,-1],"loss_changes":[8.383733E1,6.4992027E0,1.4305462E1,2.645071E0,0E0,0E0,0E0,0E0,0E0],"parents":[2147483647,0,0,1,1,2,2,3,3],"right_children":[2,4,6,8,-1,-1,-1,-1,-1],"split_conditions":[4.3681914E4,2.2678928E4,6.7945336E4,1E0,-1.5009763E-2,3.9159544E-2,1.11111864E-1,-3.1029899E-2,-6.4556904E-2],"split_indices":[20,24,20,2,0,0,0,0,0],"split_type":[0,0,0,0,0,0,0,0,0],"sum_hessian":[1.77E2,1.11E2,6.6E1,6.3E1,4.8E1,3.9E1,2.7E1,2.5E1,3.8E1],"tree_param":{"num_deleted":"0","num_feature":"27","num_nodes":"9","size_leaf_vector":"1"}},{"base_weights":[-4.5189494E-3,-5.5373234E-1,7.278258E-1,-5.4729816E-2,-4.3409243E-1,3.0206265E-2,9.9373356E-2,-3.800303E-2,-2.6263624E-2],"categories":[],"categories_nodes":[],"categories_segments":[],"categories_sizes":[],"default_left":[0,0,0,0,0,0,0,0,0],"id":2,"left_children":[1,3,5,-1,7,-1,-1,-1,-1],"loss_changes":[7.0388176E1,1.7888699E0,1.4025337E1,0E0,2.003355E-1,0E0,0E0,0E0,0E0],"parents":[2147483647,0,0,1,1,2,2,4,4],"right_children":[2,4,6,-1,8,-1,-1,-1,-1],"split_conditions":[3.9433152E4,1.0833327E4,6.7945336E4,-5.4729816E-2,2.407764E4,3.0206265E-2,9.9373356E-2,-3.800303E-2,-2.6263624E-2],"split_indices":[20,20,20,0,20,0,0,0,0],"split_type":[0,0,0,0,0,0,0,0,0],"sum_hessian":[1.73E2,9.9E1,7.4E1,3.8E1,6.1E1,4.9E1,2.5E1,3E1,3.1E1],"tree_param":{"num_deleted":"0","num_feature":"27","num_nodes":"9","size_leaf_vector":"1"}},{"base_weights":[5.7434053E-3,-3.3366427E-1,8.2242E-2,-4.928994E-1,1.4570766E-2,-5.2452732E-2,-3.684401E-1,-4.3726556E-2,-1.495747E-2],"categories":[],"categories_nodes":[],"categories_segments":[],"categories_sizes":[],"default_left":[0,0,0,0,0,0,0,0,0],"id":3,"left_children":[1,3,-1,5,-1,-1,7,-1,-1],"loss_changes":[6.552663E1,1.1444775E1,0E0,2.4148254E0,0E0,0E0,2.3135262E0,0E0,0E0],"parents":[2147483647,0,0,1,1,3,3,6,6],"right_children":[2,4,-1,6,-1,-1,8,-1,-1],"split_conditions":[2.2945333E10,1.4630162E10,8.2242E-2,2.003E3,1.4570766E-2,-5.2452732E-2,1.0829E4,-4.3726556E-2,-1.495747E-2],"split_indices":[17,17,0,1,0,0,18,0,0],"split_type":[0,0,0,0,0,0,0,0,0],"sum_hessian":[1.75E2,1.34E2,4.1E1,1.03E2,3.1E1,3.7E1,6.6E1,2.8E1,3.8E1],"tree_param":{"num_deleted":"0","num_feature":"27","num_nodes":"9","size_leaf_vector":"1"}},{"base_weights":[-7.970597E-3,-4.2834237E-1,7.229522E-1,-5.768324E-1,-1.22692E-2,3.054041E-2,8.8568285E-2,-2.1836463E-2,-5.489806E-2],"categories":[],"categories_nodes":[],"categories_segments":[],"categories_sizes":[],"default_left":[0,0,0,0,0,0,0,0,0],"id":4,"left_children":[1,3,5,7,-1,-1,-1,-1,-1],"loss_changes":[5.4694565E1,4.3480263E0,8.918053E0,2.9779835E0,0E0,0E0,0E0,0E0,0E0],"parents":[2147483647,0,0,1,1,2,2,3,3],"right_children":[2,4,6,8,-1,-1,-1,-1,-1],"split_conditions":[4.256734E4,2.2678928E4,6.8373164E4,1E0,-1.22692E-2,3.054041E-2,8.8568285E-2,-2.1836463E-2,-5.489806E-2],"split_indices":[5,24,5,2,0,0,0,0,0],"split_type":[0,0,0,0,0,0,0,0,0],"sum_hessian":[1.76E2,1.12E2,6.4E1,7.1E1,4.1E1,3.9E1,2.5E1,2.6E1,4.5E1],"tree_param":{"num_deleted":"0","num_feature":"27","num_nodes":"9","size_leaf_vector":"1"}},{"base_weights":[4.4458252E-3,-3.524061E-1,7.2422564E-1,-4.5819095E-1,1.2884999E-3,2.9072225E-2,8.4269166E-2,-1.4599919E-2,-6.047715E-1,-5.6990676E-2,-3.2600876E-2],"categories":[],"categories_nodes":[],"categories_segments":[],"categories_sizes":[],"default_left":[0,0,0,0,0,0,0,0,0,0,0],"id":5,"left_children":[1,3,5,7,-1,-1,-1,-1,9,-1,-1],"loss_changes":[4.494796E1,4.5821733E0,7.361059E0,3.3973923E0,0E0,0E0,0E0,0E0,1.1998634E0,0E0,0E0],"parents":[2147483647,0,0,1,1,2,2,3,3,8,8],"right_children":[2,4,6,8,-1,-1,-1,-1,10,-1,-1],"split_conditions":[4.7058926E4,3.225781E4,6.7945336E4,1E0,1.2884999E-3,2.9072225E-2,8.4269166E-2,-1.4599919E-2,1.46145E7,-5.6990676E-2,-3.2600876E-2],"split_indices":[5,5,5,2,0,0,0,0,15,0,0],"split_type":[0,0,0,0,0,0,0,0,0,0,0],"sum_hessian":[1.73E2,1.16E2,5.7E1,9E1,2.6E1,3.2E1,2.5E1,3.3E1,5.7E1,2.8E1,2.9E1],"tree_param":{"num_deleted":"0","num_feature":"27","num_nodes":"11","size_leaf_vector":"1"}},{"base_weights":[-3.305363E-3,-3.3161238E-1,7.002687E-1,-4.403906E-1,5.8950605E-3,3.1377427E-2,7.5708784E-2,-1.15797715E-2,-5.7001233E-1,-5.3851347E-2,-3.1697664E-2],"categories":[],"categories_nodes":[],"categories_segments":[],"categories_sizes":[],"default_left":[0,0,0,0,0,0,0,0,0,0,0],"id":6,"left_children":[1,3,5,7,-1,-1,-1,-1,9,-1,-1],"loss_changes":[4.065517E1,5.389287E0,4.458597E0,3.433735E0,0E0,0E0,0E0,0E0,1.1143589E0,0E0,0E0],"parents":[2147483647,0,0,1,1,2,2,3,3,8,8],"right_children":[2,4,6,8,-1,-1,-1,-1,10,-1,-1],"split_conditions":[5.088907E4,3.4997883E4,6.856115E4,1E0,5.8950605E-3,3.1377427E-2,7.5708784E-2,-1.15797715E-2,1.45795E7,-5.3851347E-2,-3.1697664E-2],"split_indices":[5,5,5,2,0,0,0,0,15,0,0],"split_type":[0,0,0,0,0,0,0,0,0,0,0],"sum_hessian":[1.74E2,1.19E2,5.5E1,9.4E1,2.5E1,3E1,2.5E1,3E1,6.4E1,3E1,3.4E1],"tree_param":{"num_deleted":"0","num_feature":"27","num_nodes":"11","size_leaf_vector":"1"}},{"base_weights":[2.88423E-2,-2.5154462E-1,6.424521E-2,-3.7999466E-1,1.0315169E-2,-1.0758419E-2,-4.590396E-1,-4.1124724E-2,-2.0740582E-2],"categories":[],"categories_nodes":[],"categories_segments":[],"categories_sizes":[],"default_left":[0,0,0,0,0,0,0,0,0],"id":7,"left_children":[1,3,-1,5,-1,-1,7,-1,-1],"loss_changes":[4.03676E1,6.5493193E0,0E0,1.7665586E0,0E0,0E0,1.03792E0,0E0,0E0],"parents":[2147483647,0,0,1,1,3,3,6,6],"right_children":[2,4,-1,6,-1,-1,8,-1,-1],"split_conditions":[2.2945333E10,1.4630162E10,6.424521E-2,4.0638E8,1.0315169E-2,-1.0758419E-2,7.832584E9,-4.1124724E-2,-2.0740582E-2],"split_indices":[17,17,0,17,0,0,17,0,0],"split_type":[0,0,0,0,0,0,0,0,0],"sum_hessian":[1.72E2,1.29E2,4.3E1,9.7E1,3.2E1,2.5E1,7.2E1,4.7E1,2.5E1],"tree_param":{"num_deleted":"0","num_feature":"27","num_nodes":"9","size_leaf_vector":"1"}},{"base_weights":[-1.2546546E-2,-2.9584953E-1,5.686773E-1,-4.3253377E-1,-9.976267E-2,2.327964E-2,6.63419E-2,-1.4657366E-2,-4.2388745E-2,-1.4392423E-2,-2.8420018E-4],"categories":[],"categories_nodes":[],"categories_segments":[],"categories_sizes":[],"default_left":[0,0,0,0,0,0,0,0,0,0,0],"id":8,"left_children":[1,3,5,7,9,-1,-1,-1,-1,-1,-1],"loss_changes":[2.9642824E1,3.1998882E0,4.5390396E0,2.1226006E0,4.5024693E-1,0E0,0E0,0E0,0E0,0E0,0E0],"parents":[2147483647,0,0,1,1,2,2,3,3,4,4],"right_children":[2,4,6,8,10,-1,-1,-1,-1,-1,-1],"split_conditions":[4.7058926E4,2.2474928E4,6.708457E4,1E0,3.3735543E4,2.327964E-2,6.63419E-2,-1.4657366E-2,-4.2388745E-2,-1.4392423E-2,-2.8420018E-4],"split_indices":[18,18,18,2,18,0,0,0,0,0,0],"split_type":[0,0,0,0,0,0,0,0,0,0,0],"sum_hessian":[1.78E2,1.2E2,5.8E1,7E1,5E1,3.3E1,2.5E1,2.6E1,4.4E1,2.5E1,2.5E1],"tree_param":{"num_deleted":"0","num_feature":"27","num_nodes":"11","size_leaf_vector":"1"}},{"base_weights":[-1.4218017E-2,-2.0614937E-1,6.329397E-2,-3.7962946E-1,7.8321114E-2,-1.27692185E-2,-4.8320472E-1,7.409425E-4,1.1571012E-2,-4.4147976E-2,-2.7124723E-2],"categories":[],"categories_nodes":[],"categories_segments":[],"categories_sizes":[],"default_left":[0,0,0,0,0,0,0,0,0,0,0],"id":9,"left_children":[1,3,-1,5,7,-1,9,-1,-1,-1,-1],"loss_changes":[2.8832384E1,7.086778E0,0E0,1.8477745E0,2.8440872E-1,0E0,5.4318047E-1,0E0,0E0,0E0,0E0],"parents":[2147483647,0,0,1,1,3,3,4,4,6,6],"right_children":[2,4,-1,6,8,-1,10,-1,-1,-1,-1],"split_conditions":[2.5268625E10,1.091904E10,6.329397E-2,1E0,5.0628066E4,-1.27692185E-2,1.3485333E7,7.409425E-4,1.1571012E-2,-4.4147976E-2,-2.7124723E-2],"split_indices":[17,17,0,2,20,0,15,0,0,0,0],"split_type":[0,0,0,0,0,0,0,0,0,0,0],"sum_hessian":[1.73E2,1.42E2,3.1E1,8.8E1,5.4E1,3E1,5.8E1,2.9E1,2.5E1,2.9E1,2.9E1],"tree_param":{"num_deleted":"0","num_feature":"27","num_nodes":"11","size_leaf_vector":"1"}},{"base_weights":[7.6631894E-3,-1.6795273E-1,5.7233375E-2,-3.3051535E-1,7.31813E-2,-6.318873E-3,-4.3761033E-1,-2.7411783E-3,1.1806343E-2,-3.865043E-2,-2.448006E-2],"categories":[],"categories_nodes":[],"categories_segments":[],"categories_sizes":[],"default_left":[0,0,0,0,0,0,0,0,0,0,0],"id":10,"left_children":[1,3,-1,5,7,-1,9,-1,-1,-1,-1],"loss_changes":[2.3212534E1,5.5905E0,0E0,2.2048874E0,5.4186547E-1,0E0,3.4179878E-1,0E0,0E0,0E0,0E0],"parents":[2147483647,0,0,1,1,3,3,4,4,6,6],"right_children":[2,4,-1,6,8,-1,10,-1,-1,-1,-1],"split_conditions":[2.5268625E10,1.121244E10,5.7233375E-2,3.8148E8,4.246434E4,-6.318873E-3,1.604E5,-2.7411783E-3,1.1806343E-2,-3.865043E-2,-2.448006E-2],"split_indices":[17,17,0,17,26,0,16,0,0,0,0],"split_type":[0,0,0,0,0,0,0,0,0,0,0],"sum_hessian":[1.73E2,1.41E2,3.2E1,8.4E1,5.7E1,2.6E1,5.8E1,2.5E1,3.2E1,3.2E1,2.6E1],"tree_param":{"num_deleted":"0","num_feature":"27","num_nodes":"11","size_leaf_vector":"1"}},{"base_weights":[-8.556075E-3,-3.140582E-1,3.573978E-1,-3.582883E-2,-1.957748E-1,1.0969354E-2,4.837243E-2,-1.9520398E-2,-9.517629E-3],"categories":[],"categories_nodes":[],"categories_segments":[],"categories_sizes":[],"default_left":[0,0,0,0,0,0,0,0,0],"id":11,"left_children":[1,3,5,-1,7,-1,-1,-1,-1],"loss_changes":[1.990079E1,1.7842197E0,4.8237476E0,0E0,2.2461414E-1,0E0,0E0,0E0,0E0],"parents":[2147483647,0,0,1,1,2,2,4,4],"right_children":[2,4,6,-1,8,-1,-1,-1,-1],"split_conditions":[3.6279562E4,1.0833327E4,6.1884805E4,-3.582883E-2,2.2678928E4,1.0969354E-2,4.837243E-2,-1.9520398E-2,-9.517629E-3],"split_indices":[5,5,5,0,24,0,0,0,0],"split_type":[0,0,0,0,0,0,0,0,0],"sum_hessian":[1.76E2,9.6E1,8E1,3.9E1,5.7E1,4.7E1,3.3E1,2.8E1,2.9E1],"tree_param":{"num_deleted":"0","num_feature":"27","num_nodes":"9","size_leaf_vector":"1"}},{"base_weights":[2.1813205E-3,-2.1816169E-1,4.1144133E-2,-3.1476083E-1,1.3112929E-3,-9.958642E-3,-3.8893297E-1,-3.734499E-2,-2.1339228E-2],"categories":[],"categories_nodes":[],"categories_segments":[],"categories_sizes":[],"default_left":[0,0,0,0,0,0,0,0,0],"id":12,"left_children":[1,3,-1,5,-1,-1,7,-1,-1],"loss_changes":[2.0948357E1,2.8281355E0,0E0,1.1361609E0,0E0,0E0,5.639305E-1,0E0,0E0],"parents":[2147483647,0,0,1,1,3,3,6,6],"right_children":[2,4,-1,6,-1,-1,8,-1,-1],"split_conditions":[1.9570973E10,1.121244E10,4.1144133E-2,3.8148E8,1.3112929E-3,-9.958642E-3,1.5256E7,-3.734499E-2,-2.1339228E-2],"split_indices":[17,17,0,17,0,0,15,0,0],"split_type":[0,0,0,0,0,0,0,0,0],"sum_hessian":[1.72E2,1.23E2,4.9E1,8.7E1,3.6E1,2.6E1,6.1E1,2.8E1,3.3E1],"tree_param":{"num_deleted":"0","num_feature":"27","num_nodes":"9","size_leaf_vector":"1"}},{"base_weights":[6.4182086E-3,-1.4333797E-1,5.3725895E-2,-2.6277715E-1,4.4470053E-2,-4.3310276E-3,-3.7490156E-1,-5.3020543E-4,7.7930116E-3,-3.581575E-2,-2.1200376E-2],"categories":[],"categories_nodes":[],"categories_segments":[],"categories_sizes":[],"default_left":[0,0,0,0,0,0,0,0,0,0,0],"id":13,"left_children":[1,3,-1,5,7,-1,9,-1,-1,-1,-1],"loss_changes":[1.8920603E1,3.3091366E0,0E0,2.0473495E0,1.7840819E-1,0E0,4.140768E-1,0E0,0E0,0E0,0E0],"parents":[2147483647,0,0,1,1,3,3,4,4,6,6],"right_children":[2,4,-1,6,8,-1,10,-1,-1,-1,-1],"split_conditions":[2.7850367E10,1.121244E10,5.3725895E-2,1E0,5.1129844E4,-4.3310276E-3,2.829464E9,-5.3020543E-4,7.7930116E-3,-3.581575E-2,-2.1200376E-2],"split_indices":[17,17,0,2,20,0,17,0,0,0,0],"split_type":[0,0,0,0,0,0,0,0,0,0,0],"sum_hessian":[1.76E2,1.46E2,3E1,8.9E1,5.7E1,3.2E1,5.7E1,3.1E1,2.6E1,2.5E1,3.2E1],"tree_param":{"num_deleted":"0","num_feature":"27","num_nodes":"11","size_leaf_vector":"1"}},{"base_weights":[-7.584158E-3,-2.6252246E-1,3.0095333E-1,-5.4252576E-3,-3.266636E-1,1.3921128E-1,4.7830928E-2,-3.890623E-2,-1.6185863E-2,4.75909E-3,1.6367212E-2],"categories":[],"categories_nodes":[],"categories_segments":[],"categories_sizes":[],"default_left":[0,0,0,0,0,0,0,0,0,0,0],"id":14,"left_children":[1,3,5,-1,7,9,-1,-1,-1,-1,-1],"loss_changes":[1.4080134E1,1.1718459E0,4.3235717E0,0E0,1.4424481E0,3.2137752E-1,0E0,0E0,0E0,0E0,0E0],"parents":[2147483647,0,0,1,1,2,2,4,4,5,5],"right_children":[2,4,6,-1,8,10,-1,-1,-1,-1,-1],"split_conditions":[3.6279562E4,9.537E6,6.8373164E4,-5.4252576E-3,1.2393934E4,2.4969E7,4.7830928E-2,-3.890623E-2,-1.6185863E-2,4.75909E-3,1.6367212E-2],"split_indices":[5,15,5,0,24,15,0,0,0,0,0],"split_type":[0,0,0,0,0,0,0,0,0,0,0],"sum_hessian":[1.77E2,9.7E1,8E1,2.5E1,7.2E1,5.5E1,2.5E1,2.5E1,4.7E1,2.9E1,2.6E1],"tree_param":{"num_deleted":"0","num_feature":"27","num_nodes":"11","size_leaf_vector":"1"}},{"base_weights":[-4.8481887E-3,-1.3348973E-1,3.468385E-2,-2.4396071E-2,-3.0858222E-2,8.266436E-2,-2.3838308E-2,1.6053664E-2,-7.7465824E-3],"categories":[],"categories_nodes":[],"categories_segments":[],"categories_sizes":[],"default_left":[0,0,0,0,0,0,0,0,0],"id":15,"left_children":[1,3,-1,-1,5,7,-1,-1,-1],"loss_changes":[1.0581705E1,2.7063293E0,0E0,0E0,2.9909978E0,1.6345694E0,0E0,0E0,0E0],"parents":[2147483647,0,0,1,1,4,4,5,5],"right_children":[2,4,-1,-1,6,8,-1,-1,-1],"split_conditions":[5.9102477E4,2.006E3,3.468385E-2,-2.4396071E-2,2.015E3,4.6E1,-2.3838308E-2,1.6053664E-2,-7.7465824E-3],"split_indices":[19,1,0,0,1,10,0,0,0],"split_type":[0,0,0,0,0,0,0,0,0],"sum_hessian":[1.74E2,1.37E2,3.7E1,4.7E1,9E1,6.5E1,2.5E1,3.8E1,2.7E1],"tree_param":{"num_deleted":"0","num_feature":"27","num_nodes":"9","size_leaf_vector":"1"}},{"base_weights":[2.445963E-2,-9.575253E-2,4.3946497E-2,-2.6471026E-2,-1.3792537E-2,6.513348E-2,-1.875585E-2,1.23822406E-1,-2.1989837E-3,2.5872383E-3,1.5886614E-2],"categories":[],"categories_nodes":[],"categories_segments":[],"categories_sizes":[],"default_left":[0,0,0,0,0,0,0,0,0,0,0],"id":16,"left_children":[1,3,-1,-1,5,7,-1,9,-1,-1,-1],"loss_changes":[1.186832E1,3.051682E0,0E0,0E0,2.0863352E0,4.692727E-1,0E0,4.0144408E-1,0E0,0E0,0E0],"parents":[2147483647,0,0,1,1,4,4,5,5,7,7],"right_children":[2,4,-1,-1,6,8,-1,10,-1,-1,-1],"split_conditions":[2.7850367E10,2.003E3,4.3946497E-2,-2.6471026E-2,2.015E3,1.9225E5,-1.875585E-2,2.008E3,-2.1989837E-3,2.5872383E-3,1.5886614E-2],"split_indices":[17,1,0,0,1,16,0,1,0,0,0],"split_type":[0,0,0,0,0,0,0,0,0,0,0],"sum_hessian":[1.74E2,1.44E2,3E1,3.4E1,1.1E2,8.3E1,2.7E1,5.1E1,3.2E1,2.6E1,2.5E1],"tree_param":{"num_deleted":"0","num_feature":"27","num_nodes":"11","size_leaf_vector":"1"}},{"base_weights":[-9.129236E-3,-9.874739E-2,3.2946568E-2,-3.0342746E-1,1.3533978E-1,-3.2329712E-2,-1.5277927E-2,-2.5578687E-4,2.5191236E-2],"categories":[],"categories_nodes":[],"categories_segments":[],"categories_sizes":[],"default_left":[0,0,0,0,0,0,0,0,0],"id":17,"left_children":[1,3,-1,5,7,-1,-1,-1,-1],"loss_changes":[6.7544875E0,6.7488823E0,0E0,8.667922E-1,1.8376249E0,0E0,0E0,0E0,0E0],"parents":[2147483647,0,0,1,1,3,3,4,4],"right_children":[2,4,-1,6,8,-1,-1,-1,-1],"split_conditions":[5E0,3.4997883E4,3.2946568E-2,1.404325E5,2.36E2,-3.2329712E-2,-1.5277927E-2,-2.5578687E-4,2.5191236E-2],"split_indices":[12,5,0,16,10,0,0,0,0],"split_type":[0,0,0,0,0,0,0,0,0],"sum_hessian":[1.66E2,1.39E2,2.7E1,7.4E1,6.5E1,3.1E1,4.3E1,3.9E1,2.6E1],"tree_param":{"num_deleted":"0","num_feature":"27","num_nodes":"9","size_leaf_vector":"1"}},{"base_weights":[-2.1816322E-3,-1.1183292E-1,2.9489813E-2,-2.2370012E-2,-3.1878036E-2,-1.3672234E-2,8.630141E-2,1.563413E-2,-2.280284E-3],"categories":[],"categories_nodes":[],"categories_segments":[],"categories_sizes":[],"default_left":[0,0,0,0,0,0,0,0,0],"id":18,"left_children":[1,3,-1,-1,5,-1,7,-1,-1],"loss_changes":[7.5875387E0,2.0326548E0,0E0,0E0,1.7400398E0,0E0,7.9041606E-1,0E0,0E0],"parents":[2147483647,0,0,1,1,4,4,6,6],"right_children":[2,4,-1,-1,6,-1,8,-1,-1],"split_conditions":[5.8284477E4,2.004E3,2.9489813E-2,-2.2370012E-2,2.2474928E4,-1.3672234E-2,3E0,1.563413E-2,-2.280284E-3],"split_indices":[5,1,0,0,5,0,10,0,0],"split_type":[0,0,0,0,0,0,0,0,0],"sum_hessian":[1.73E2,1.36E2,3.7E1,4E1,9.6E1,4.2E1,5.4E1,2.6E1,2.8E1],"tree_param":{"num_deleted":"0","num_feature":"27","num_nodes":"9","size_leaf_vector":"1"}},{"base_weights":[2.4314972E-3,-7.884616E-2,3.3485174E-2,-2.0991653E-2,-2.7512212E-3,-1.05117746E-1,9.471422E-3,5.653048E-3,-1.6938439E-2],"categories":[],"categories_nodes":[],"categories_segments":[],"categories_sizes":[],"default_left":[0,0,0,0,0,0,0,0,0],"id":19,"left_children":[1,3,-1,-1,5,7,-1,-1,-1],"loss_changes":[6.531461E0,2.3398728E0,0E0,0E0,1.4926889E0,1.3898191E0,0E0,0E0,0E0],"parents":[2147483647,0,0,1,1,4,4,5,5],"right_children":[2,4,-1,-1,6,8,-1,-1,-1],"split_conditions":[6.708457E4,2.004E3,3.3485174E-2,-2.0991653E-2,3.6279562E4,1E0,9.471422E-3,5.653048E-3,-1.6938439E-2],"split_indices":[18,1,0,0,18,2,0,0,0],"split_type":[0,0,0,0,0,0,0,0,0],"sum_hessian":[1.79E2,1.52E2,2.7E1,4.1E1,1.11E2,6.2E1,4.9E1,2.5E1,3.7E1],"tree_param":{"num_deleted":"0","num_feature":"27","num_nodes":"9","size_leaf_vector":"1"}},{"base_weights":[-6.645123E-3,-1.0366208E-1,3.9404824E-2,-1.8017143E-1,1.155449E-2,-1.6855195E-4,-2.661306E-1,-4.1357423E-3,6.731239E-3,-2.7071845E-2,-1.4106278E-2],"categories":[],"categories_nodes":[],"categories_segments":[],"categories_sizes":[],"default_left":[0,0,0,0,0,0,0,0,0,0,0],"id":20,"left_children":[1,3,-1,5,7,-1,9,-1,-1,-1,-1],"loss_changes":[9.035851E0,1.3067231E0,0E0,1.3605864E0,3.1787622E-1,0E0,3.7616825E-1,0E0,0E0,0E0,0E0],"parents":[2147483647,0,0,1,1,3,3,4,4,6,6],"right_children":[2,4,-1,6,8,-1,10,-1,-1,-1,-1],"split_conditions":[2.8131662E10,1.121244E10,3.9404824E-2,1E0,1.1E2,-1.6855195E-4,2.829464E9,-4.1357423E-3,6.731239E-3,-2.7071845E-2,-1.4106278E-2],"split_indices":[17,17,0,2,10,0,17,0,0,0,0],"split_type":[0,0,0,0,0,0,0,0,0,0,0],"sum_hessian":[1.73E2,1.47E2,2.6E1,8.8E1,5.9E1,2.9E1,5.9E1,3.2E1,2.7E1,2.5E1,3.4E1],"tree_param":{"num_deleted":"0","num_feature":"27","num_nodes":"11","size_leaf_vector":"1"}},{"base_weights":[1.991587E-2,-7.0621215E-2,3.562165E-2,-1.5240769E-1,5.9493423E-2,-3.0424877E-4,-2.2651778E-1,-3.8742146E-4,8.294508E-3,-2.2490956E-2,-1.1796177E-2],"categories":[],"categories_nodes":[],"categories_segments":[],"categories_sizes":[],"default_left":[0,0,0,0,0,0,0,0,0,0,0],"id":21,"left_children":[1,3,-1,5,7,-1,9,-1,-1,-1,-1],"loss_changes":[7.4491725E0,1.6159517E0,0E0,1.0215516E0,1.955119E-1,0E0,2.677462E-1,0E0,0E0,0E0,0E0],"parents":[2147483647,0,0,1,1,3,3,4,4,6,6],"right_children":[2,4,-1,6,8,-1,10,-1,-1,-1,-1],"split_conditions":[2.8131662E10,3.2167594E4,3.562165E-2,1E0,2.0595E7,-3.0424877E-4,1.46145E7,-3.8742146E-4,8.294508E-3,-2.2490956E-2,-1.1796177E-2],"split_indices":[17,5,0,2,15,0,15,0,0,0,0],"split_type":[0,0,0,0,0,0,0,0,0,0,0],"sum_hessian":[1.79E2,1.5E2,2.9E1,9.2E1,5.8E1,3.1E1,6.1E1,2.6E1,3.2E1,2.8E1,3.3E1],"tree_param":{"num_deleted":"0","num_feature":"27","num_nodes":"11","size_leaf_vector":"1"}},{"base_weights":[-1.6081193E-2,-9.174452E-2,2.5559057E-2,-2.5463635E-1,7.9208694E-2,-2.681528E-2,-1.2043773E-2,5.14303E-4,1.199027E-2],"categories":[],"categories_nodes":[],"categories_segments":[],"categories_sizes":[],"default_left":[0,0,0,0,0,0,0,0,0],"id":22,"left_children":[1,3,-1,5,7,-1,-1,-1,-1],"loss_changes":[4.7835937E0,4.085814E0,0E0,6.6844225E-1,4.1909355E-1,0E0,0E0,0E0,0E0],"parents":[2147483647,0,0,1,1,3,3,4,4],"right_children":[2,4,-1,6,8,-1,-1,-1,-1],"split_conditions":[6E0,3.4997883E4,2.5559057E-2,1.404325E5,5.8284477E4,-2.681528E-2,-1.2043773E-2,5.14303E-4,1.199027E-2],"split_indices":[12,5,0,16,5,0,0,0,0],"split_type":[0,0,0,0,0,0,0,0,0],"sum_hessian":[1.75E2,1.45E2,3E1,7.4E1,7.1E1,3.4E1,4E1,3.8E1,3.3E1],"tree_param":{"num_deleted":"0","num_feature":"27","num_nodes":"9","size_leaf_vector":"1"}},{"base_weights":[-1.4442354E-2,-9.4493754E-2,2.876642E-2,-1.832609E-1,-6.449861E-4,-4.326295E-3,-1.8756E-2,-7.3296768E-3,6.467749E-3],"categories":[],"categories_nodes":[],"categories_segments":[],"categories_sizes":[],"default_left":[0,0,0,0,0,0,0,0,0],"id":23,"left_children":[1,3,-1,5,7,-1,-1,-1,-1],"loss_changes":[5.516168E0,1.1995007E0,0E0,6.065042E-1,6.072999E-1,0E0,0E0,0E0,0E0],"parents":[2147483647,0,0,1,1,3,3,4,4],"right_children":[2,4,-1,6,8,-1,-1,-1,-1],"split_conditions":[2.7850367E10,1.8541E7,2.876642E-2,6.811E4,3.2167594E4,-4.326295E-3,-1.8756E-2,-7.3296768E-3,6.467749E-3],"split_indices":[17,15,0,16,5,0,0,0,0],"split_type":[0,0,0,0,0,0,0,0,0],"sum_hessian":[1.71E2,1.43E2,2.8E1,7.3E1,7E1,2.6E1,4.7E1,3.3E1,3.7E1],"tree_param":{"num_deleted":"0","num_feature":"27","num_nodes":"9","size_leaf_vector":"1"}},{"base_weights":[-6.9685737E-3,-8.570767E-2,2.8825093E-2,-1.9313885E-1,-1.7047716E-2,-3.812372E-3,-2.2455527E-2,-5.4362677E-3,1.5187313E-2,3.9031242E-3,-2.5193214E-3],"categories":[],"categories_nodes":[],"categories_segments":[],"categories_sizes":[],"default_left":[0,0,0,0,0,0,0,0,0,0,0],"id":24,"left_children":[1,3,-1,5,7,-1,-1,-1,9,-1,-1],"loss_changes":[5.517273E0,1.095764E0,0E0,8.618989E-1,1.6550267E-1,0E0,0E0,0E0,1.0781188E-1,0E0,0E0],"parents":[2147483647,0,0,1,1,3,3,4,4,8,8],"right_children":[2,4,-1,6,8,-1,-1,-1,10,-1,-1],"split_conditions":[2.8131662E10,1.892069E4,2.8825093E-2,3.8148E8,1.091904E10,-3.812372E-3,-2.2455527E-2,-5.4362677E-3,2.105E5,3.9031242E-3,-2.5193214E-3],"split_indices":[17,5,0,17,17,0,0,0,16,0,0],"split_type":[0,0,0,0,0,0,0,0,0,0,0],"sum_hessian":[1.77E2,1.48E2,2.9E1,5.7E1,9.1E1,2.5E1,3.2E1,3.3E1,5.8E1,3.3E1,2.5E1],"tree_param":{"num_deleted":"0","num_feature":"27","num_nodes":"11","size_leaf_vector":"1"}},{"base_weights":[-2.541331E-3,-6.777962E-2,2.6162965E-2,-1.8266867E-1,2.1851452E-3,-2.1833636E-2,-5.6583374E-3,-6.4241383E-3,6.6018677E-3],"categories":[],"categories_nodes":[],"categories_segments":[],"categories_sizes":[],"default_left":[0,0,0,0,0,0,0,0,0],"id":25,"left_children":[1,3,-1,5,7,-1,-1,-1,-1],"loss_changes":[3.8060193E0,1.1257452E0,0E0,5.943253E-1,6.710766E-1,0E0,0E0,0E0,0E0],"parents":[2147483647,0,0,1,1,3,3,4,4],"right_children":[2,4,-1,6,8,-1,-1,-1,-1],"split_conditions":[6.721546E4,1.5256E7,2.6162965E-2,2.003E3,3.5384906E4,-2.1833636E-2,-5.6583374E-3,-6.4241383E-3,6.6018677E-3],"split_indices":[19,15,0,1,19,0,0,0,0],"split_type":[0,0,0,0,0,0,0,0,0],"sum_hessian":[1.64E2,1.39E2,2.5E1,5.2E1,8.7E1,2.5E1,2.7E1,4.3E1,4.4E1],"tree_param":{"num_deleted":"0","num_feature":"27","num_nodes":"9","size_leaf_vector":"1"}},{"base_weights":[-1.4328062E-2,-7.722194E-2,2.1445777E-2,-1.4756386E-2,-2.8892359E-2,-8.993468E-2,5.5189254E-3,7.6547195E-4,-1.361549E-2],"categories":[],"categories_nodes":[],"categories_segments":[],"categories_sizes":[],"default_left":[0,0,0,0,0,0,0,0,0],"id":26,"left_children":[1,3,-1,-1,5,7,-1,-1,-1],"loss_changes":[3.270345E0,8.204018E-1,0E0,0E0,6.5093404E-1,5.9812593E-1,0E0,0E0,0E0],"parents":[2147483647,0,0,1,1,4,4,5,5],"right_children":[2,4,-1,-1,6,8,-1,-1,-1],"split_conditions":[2.7850367E10,2.003E3,2.1445777E-2,-1.4756386E-2,6.24E2,2.01E3,5.5189254E-3,7.6547195E-4,-1.361549E-2],"split_indices":[17,1,0,0,0,1,0,0,0],"split_type":[0,0,0,0,0,0,0,0,0],"sum_hessian":[1.71E2,1.42E2,2.9E1,4E1,1.02E2,6.4E1,3.8E1,3.1E1,3.3E1],"tree_param":{"num_deleted":"0","num_feature":"27","num_nodes":"9","size_leaf_vector":"1"}},{"base_weights":[-3.5028397E-3,-6.3077256E-2,2.1639641E-2,-1.5522224E-2,-9.202194E-3,-7.7982033E-3,5.0345622E-2,9.524993E-3,-1.7525146E-3],"categories":[],"categories_nodes":[],"categories_segments":[],"categories_sizes":[],"default_left":[0,0,0,0,0,0,0,0,0],"id":27,"left_children":[1,3,-1,-1,5,-1,7,-1,-1],"loss_changes":[3.0801768E0,1.1376178E0,0E0,0E0,6.1474085E-1,0E0,3.8154286E-1,0E0,0E0],"parents":[2147483647,0,0,1,1,4,4,6,6],"right_children":[2,4,-1,-1,6,-1,8,-1,-1],"split_conditions":[2.8131662E10,2.003E3,2.1639641E-2,-1.5522224E-2,2.2474928E4,-7.7982033E-3,1.8226E5,9.524993E-3,-1.7525146E-3],"split_indices":[17,1,0,0,18,0,16,0,0],"split_type":[0,0,0,0,0,0,0,0,0],"sum_hessian":[1.75E2,1.46E2,2.9E1,3.9E1,1.07E2,4.1E1,6.6E1,3.2E1,3.4E1],"tree_param":{"num_deleted":"0","num_feature":"27","num_nodes":"9","size_leaf_vector":"1"}},{"base_weights":[-3.697208E-3,-5.704553E-2,2.2257827E-2,-1.5516011E-1,3.4564855E-3,-7.562E-3,-1.4494985E-2,5.5808026E-2,-4.3869056E-3,2.5841937E-4,8.102845E-3],"categories":[],"categories_nodes":[],"categories_segments":[],"categories_sizes":[],"default_left":[0,0,0,0,0,0,0,0,0,0,0],"id":28,"left_children":[1,3,-1,5,7,-1,-1,9,-1,-1,-1],"loss_changes":[2.8701763E0,9.028281E-1,0E0,1.00599766E-1,3.1135905E-1,0E0,0E0,1.4184178E-1,0E0,0E0,0E0],"parents":[2147483647,0,0,1,1,3,3,4,4,7,7],"right_children":[2,4,-1,6,8,-1,-1,10,-1,-1,-1],"split_conditions":[6.708457E4,1.892069E4,2.2257827E-2,9.697E6,3E0,-7.562E-3,-1.4494985E-2,1E0,-4.3869056E-3,2.5841937E-4,8.102845E-3],"split_indices":[5,5,0,15,10,0,0,3,0,0,0],"split_type":[0,0,0,0,0,0,0,0,0,0,0],"sum_hessian":[1.77E2,1.51E2,2.6E1,5.7E1,9.4E1,2.5E1,3.2E1,5.1E1,4.3E1,2.6E1,2.5E1],"tree_param":{"num_deleted":"0","num_feature":"27","num_nodes":"11","size_leaf_vector":"1"}},{"base_weights":[-3.97978E-3,-5.6997526E-2,1.8457737E-2,-1.5074737E-1,5.8242227E-3,-6.5893317E-3,-1.528208E-2,4.0369E-3,-1.6973106E-2,-5.9910924E-3,3.4905903E-3],"categories":[],"categories_nodes":[],"categories_segments":[],"categories_sizes":[],"default_left":[0,0,0,0,0,0,0,0,0,0,0],"id":29,"left_children":[1,3,-1,5,7,-1,-1,-1,9,-1,-1],"loss_changes":[2.1221817E0,7.782959E-1,0E0,1.5880048E-1,8.845735E-2,0E0,0E0,0E0,2.2347389E-1,0E0,0E0],"parents":[2147483647,0,0,1,1,3,3,4,4,8,8],"right_children":[2,4,-1,6,8,-1,-1,-1,10,-1,-1],"split_conditions":[2.5268625E10,1.912769E4,1.8457737E-2,9.179796E8,4.64E2,-6.5893317E-3,-1.528208E-2,4.0369E-3,2.0595E7,-5.9910924E-3,3.4905903E-3],"split_indices":[17,18,0,17,0,0,0,0,15,0,0],"split_type":[0,0,0,0,0,0,0,0,0,0,0],"sum_hessian":[1.58E2,1.31E2,2.7E1,5.2E1,7.9E1,2.5E1,2.7E1,2.5E1,5.4E1,2.7E1,2.7E1],"tree_param":{"num_deleted":"0","num_feature":"27","num_nodes":"11","size_leaf_vector":"1"}},{"base_weights":[1.7539572E-2,-4.9243275E-2,2.3657048E-2,-1.773841E-2,3.0972604E-2,-7.019674E-3,1.07594654E-1,3.687214E-3,1.2474409E-2],"categories":[],"categories_nodes":[],"categories_segments":[],"categories_sizes":[],"default_left":[0,0,0,0,0,0,0,0,0],"id":30,"left_children":[1,3,-1,-1,5,-1,7,-1,-1],"loss_changes":[3.4770522E0,2.155462E0,0E0,0E0,9.740826E-1,0E0,2.0802295E-1,0E0,0E0],"parents":[2147483647,0,0,1,1,4,4,6,6],"right_children":[2,4,-1,-1,6,-1,8,-1,-1],"split_conditions":[6E0,1.5256E7,2.3657048E-2,-1.773841E-2,3.2167594E4,-7.019674E-3,5.8284477E4,3.687214E-3,1.2474409E-2],"split_indices":[12,15,0,0,5,0,5,0,0],"split_type":[0,0,0,0,0,0,0,0,0],"sum_hessian":[1.73E2,1.42E2,3.1E1,4.2E1,1E2,3.8E1,6.2E1,3.2E1,3E1],"tree_param":{"num_deleted":"0","num_feature":"27","num_nodes":"9","size_leaf_vector":"1"}},{"base_weights":[-2.4597575E-3,-5.282642E-2,2.088944E-2,-1.641035E-1,5.9174303E-2,-1.924209E-2,-5.769064E-3,9.849848E-3,-5.723593E-3],"categories":[],"categories_nodes":[],"categories_segments":[],"categories_sizes":[],"default_left":[0,0,0,0,0,0,0,0,0],"id":31,"left_children":[1,3,-1,5,7,-1,-1,-1,-1],"loss_changes":[2.4206057E0,1.8168621E0,0E0,5.6869674E-1,7.2370493E-1,0E0,0E0,0E0,0E0],"parents":[2147483647,0,0,1,1,3,3,4,4],"right_children":[2,4,-1,6,8,-1,-1,-1,-1],"split_conditions":[5E0,1.139268E10,2.088944E-2,1.404325E5,2.3379333E5,-1.924209E-2,-5.769064E-3,9.849848E-3,-5.723593E-3],"split_indices":[12,17,0,16,16,0,0,0,0],"split_type":[0,0,0,0,0,0,0,0,0],"sum_hessian":[1.69E2,1.44E2,2.5E1,7.2E1,7.2E1,3.4E1,3.8E1,4.7E1,2.5E1],"tree_param":{"num_deleted":"0","num_feature":"27","num_nodes":"9","size_leaf_vector":"1"}},{"base_weights":[5.4597575E-3,-4.2071886E-2,1.821973E-2,-1.5720526E-2,3.5414986E-2,-1.0592271E-2,1.2014797E-2,3.3772285E-3,-4.05323E-3],"categories":[],"categories_nodes":[],"categories_segments":[],"categories_sizes":[],"default_left":[0,0,0,0,0,0,0,0,0],"id":32,"left_children":[1,3,-1,-1,5,7,-1,-1,-1],"loss_changes":[1.9629298E0,1.8897804E0,0E0,0E0,5.7578605E-1,1.8127815E-1,0E0,0E0,0E0],"parents":[2147483647,0,0,1,1,4,4,5,5],"right_children":[2,4,-1,-1,6,8,-1,-1,-1],"split_conditions":[6E0,1.67555E7,1.821973E-2,-1.5720526E-2,2.61E2,1E0,1.2014797E-2,3.3772285E-3,-4.05323E-3],"split_indices":[12,15,0,0,8,9,0,0,0],"split_type":[0,0,0,0,0,0,0,0,0],"sum_hessian":[1.72E2,1.44E2,2.8E1,4.5E1,9.9E1,7.3E1,2.6E1,3.2E1,4.1E1],"tree_param":{"num_deleted":"0","num_feature":"27","num_nodes":"9","size_leaf_vector":"1"}},{"base_weights":[-3.107682E-3,-5.487709E-2,1.8937474E-2,-1.8511305E-2,1.7590491E-2,-2.5628876E-2,1.2114944E-2,3.4568852E-3,-7.0194337E-3],"categories":[],"categories_nodes":[],"categories_segments":[],"categories_sizes":[],"default_left":[0,0,0,0,0,0,0,0,0],"id":33,"left_children":[1,3,-1,-1,5,7,-1,-1,-1],"loss_changes":[2.4354296E0,2.1324873E0,0E0,0E0,7.0090157E-1,4.28386E-1,0E0,0E0,0E0],"parents":[2147483647,0,0,1,1,4,4,5,5],"right_children":[2,4,-1,-1,6,8,-1,-1,-1],"split_conditions":[6E0,1.46145E7,1.8937474E-2,-1.8511305E-2,9.7E2,4.6E1,1.2114944E-2,3.4568852E-3,-7.0194337E-3],"split_indices":[12,15,0,0,0,10,0,0,0],"split_type":[0,0,0,0,0,0,0,0,0],"sum_hessian":[1.82E2,1.52E2,3E1,4.1E1,1.11E2,8.6E1,2.5E1,4.2E1,4.4E1],"tree_param":{"num_deleted":"0","num_feature":"27","num_nodes":"9","size_leaf_vector":"1"}},{"base_weights":[-1.4211052E-2,-6.077694E-2,1.9123867E-2,-1.4078729E-2,-1.2910633E-2,4.6465206E-3,-4.3071963E-2,-7.3892814E-3,-1.5575325E-2,3.189438E-3,-5.3283894E-3],"categories":[],"categories_nodes":[],"categories_segments":[],"categories_sizes":[],"default_left":[0,0,0,0,0,0,0,0,0,0,0],"id":34,"left_children":[1,3,-1,-1,5,-1,7,-1,9,-1,-1],"loss_changes":[2.2091835E0,9.0899485E-1,0E0,0E0,2.5104904E-1,0E0,1.18919745E-1,0E0,1.770559E-1,0E0,0E0],"parents":[2147483647,0,0,1,1,4,4,6,6,8,8],"right_children":[2,4,-1,-1,6,-1,8,-1,10,-1,-1],"split_conditions":[6.935971E4,1.83E2,1.9123867E-2,-1.4078729E-2,2.6520268E4,4.6465206E-3,3.8320074E4,-7.3892814E-3,5.26707E4,3.189438E-3,-5.3283894E-3],"split_indices":[5,0,0,0,5,0,5,0,5,0,0],"split_type":[0,0,0,0,0,0,0,0,0,0,0],"sum_hessian":[1.74E2,1.49E2,2.5E1,4E1,1.09E2,3.1E1,7.8E1,2.5E1,5.3E1,2.6E1,2.7E1],"tree_param":{"num_deleted":"0","num_feature":"27","num_nodes":"11","size_leaf_vector":"1"}},{"base_weights":[-2.1235873E-3,-3.3816446E-2,1.3285848E-2,5.171508E-3,-5.5441037E-2,-1.43136615E-2,-1.6780091E-2,-7.604455E-3,3.8000595E-2,8.257491E-3,-1.3688856E-3],"categories":[],"categories_nodes":[],"categories_segments":[],"categories_sizes":[],"default_left":[0,0,0,0,0,0,0,0,0,0,0],"id":35,"left_children":[1,3,-1,-1,5,-1,7,-1,9,-1,-1],"loss_changes":[9.832122E-1,3.305093E-1,0E0,0E0,6.354666E-1,0E0,4.4882628E-1,0E0,2.4129921E-1,0E0,0E0],"parents":[2147483647,0,0,1,1,4,4,6,6,8,8],"right_children":[2,4,-1,-1,6,-1,8,-1,10,-1,-1],"split_conditions":[2.9257695E10,3.8148E8,1.3285848E-2,5.171508E-3,1.45795E7,-1.43136615E-2,2.8984143E4,-7.604455E-3,1.8226E5,8.257491E-3,-1.3688856E-3],"split_indices":[17,17,0,0,15,0,18,0,16,0,0],"split_type":[0,0,0,0,0,0,0,0,0,0,0],"sum_hessian":[1.71E2,1.46E2,2.5E1,2.5E1,1.21E2,2.6E1,9.5E1,3.7E1,5.8E1,2.5E1,3.3E1],"tree_param":{"num_deleted":"0","num_feature":"27","num_nodes":"11","size_leaf_vector":"1"}},{"base_weights":[-4.6564536E-3,-4.839052E-2,1.617619E-2,-8.7682776E-2,-8.975317E-3,-1.841287E-3,-9.315373E-3,5.8311895E-3,-5.240452E-3],"categories":[],"categories_nodes":[],"categories_segments":[],"categories_sizes":[],"default_left":[0,0,0,0,0,0,0,0,0],"id":36,"left_children":[1,3,-1,5,7,-1,-1,-1,-1],"loss_changes":[1.6871567E0,2.2532496E-1,0E0,1.6526902E-1,3.9624834E-1,0E0,0E0,0E0,0E0],"parents":[2147483647,0,0,1,1,3,3,4,4],"right_children":[2,4,-1,6,8,-1,-1,-1,-1],"split_conditions":[2.8131662E10,1.8953666E7,1.617619E-2,8.927E4,1.8226E5,-1.841287E-3,-9.315373E-3,5.8311895E-3,-5.240452E-3],"split_indices":[17,15,0,16,16,0,0,0,0],"split_type":[0,0,0,0,0,0,0,0,0],"sum_hessian":[1.73E2,1.45E2,2.8E1,7.2E1,7.3E1,2.7E1,4.5E1,3E1,4.3E1],"tree_param":{"num_deleted":"0","num_feature":"27","num_nodes":"9","size_leaf_vector":"1"}},{"base_weights":[-5.35881E-3,-4.8402756E-2,1.7787086E-2,-1.27800815E-2,2.8780492E-3,-5.3363345E-3,3.9346162E-2,5.442254E-3,-1.4950255E-3],"categories":[],"categories_nodes":[],"categories_segments":[],"categories_sizes":[],"default_left":[0,0,0,0,0,0,0,0,0],"id":37,"left_children":[1,3,-1,-1,5,-1,7,-1,-1],"loss_changes":[1.8696243E0,9.5142853E-1,0E0,0E0,2.9436758E-1,0E0,1.4519158E-1,0E0,0E0],"parents":[2147483647,0,0,1,1,4,4,6,6],"right_children":[2,4,-1,-1,6,-1,8,-1,-1],"split_conditions":[3.9E1,1.46145E7,1.7787086E-2,-1.27800815E-2,2.8984143E4,-5.3363345E-3,2.2525667E5,5.442254E-3,-1.4950255E-3],"split_indices":[12,15,0,0,5,0,16,0,0],"split_type":[0,0,0,0,0,0,0,0,0],"sum_hessian":[1.77E2,1.51E2,2.6E1,4.4E1,1.07E2,3.5E1,7.2E1,4.6E1,2.6E1],"tree_param":{"num_deleted":"0","num_feature":"27","num_nodes":"9","size_leaf_vector":"1"}},{"base_weights":[-3.3544097E-3,-4.7030717E-2,1.5589467E-2,-1.3315183E-2,2.6601593E-3,-4.2372067E-3,4.393341E-2,7.3736333E-3,-2.7927961E-3],"categories":[],"categories_nodes":[],"categories_segments":[],"categories_sizes":[],"default_left":[0,0,0,0,0,0,0,0,0],"id":38,"left_children":[1,3,-1,-1,5,-1,7,-1,-1],"loss_changes":[1.6149337E0,9.4078434E-1,0E0,0E0,2.6128855E-1,0E0,2.8175554E-1,0E0,0E0],"parents":[2147483647,0,0,1,1,4,4,6,6],"right_children":[2,4,-1,-1,6,-1,8,-1,-1],"split_conditions":[6E0,1.341925E5,1.5589467E-2,-1.3315183E-2,3.5250906E4,-4.2372067E-3,2.2103E5,7.3736333E-3,-2.7927961E-3],"split_indices":[12,16,0,0,18,0,16,0,0],"split_type":[0,0,0,0,0,0,0,0,0],"sum_hessian":[1.73E2,1.44E2,2.9E1,3.9E1,1.05E2,4.3E1,6.2E1,3.7E1,2.5E1],"tree_param":{"num_deleted":"0","num_feature":"27","num_nodes":"9","size_leaf_vector":"1"}},{"base_weights":[1.4160779E-2,-2.6757767E-2,1.5580283E-2,-1.45484265E-2,9.0988735E-3,-2.4042359E-2,6.224335E-3,1.3842752E-2,-7.624501E-3,-5.1985374E-3,6.2680156E-3],"categories":[],"categories_nodes":[],"categories_segments":[],"categories_sizes":[],"default_left":[0,0,0,0,0,0,0,0,0,0,0],"id":39,"left_children":[1,3,-1,-1,5,7,-1,9,-1,-1,-1],"loss_changes":[1.407551E0,8.8317585E-1,0E0,0E0,3.0075875E-1,2.5135428E-1,0E0,3.421101E-1,0E0,0E0,0E0],"parents":[2147483647,0,0,1,1,4,4,5,5,7,7],"right_children":[2,4,-1,-1,6,8,-1,10,-1,-1,-1],"split_conditions":[6E0,1.7365E9,1.5580283E-2,-1.45484265E-2,2.36E2,4.6E1,6.224335E-3,2.004E3,-7.624501E-3,-5.1985374E-3,6.2680156E-3],"split_indices":[12,17,0,0,10,10,0,1,0,0,0],"split_type":[0,0,0,0,0,0,0,0,0,0,0],"sum_hessian":[1.76E2,1.46E2,3E1,2.5E1,1.21E2,8.4E1,3.7E1,5.7E1,2.7E1,2.6E1,3.1E1],"tree_param":{"num_deleted":"0","num_feature":"27","num_nodes":"11","size_leaf_vector":"1"}},{"base_weights":[3.1061156E-3,-3.674802E-2,1.5067157E-2,-1.3703178E-2,5.901923E-5,-3.0146675E-2,5.5346037E-3,3.2241582E-3,-6.9297487E-3,3.3151244E-3,-2.429786E-3],"categories":[],"categories_nodes":[],"categories_segments":[],"categories_sizes":[],"default_left":[0,0,0,0,0,0,0,0,0,0,0],"id":40,"left_children":[1,3,-1,-1,5,7,-1,9,-1,-1,-1],"loss_changes":[1.3632109E0,7.736353E-1,0E0,0E0,2.6058426E-1,1.7271659E-1,0E0,8.171397E-2,0E0,0E0,0E0],"parents":[2147483647,0,0,1,1,4,4,5,5,7,7],"right_children":[2,4,-1,-1,6,8,-1,10,-1,-1,-1],"split_conditions":[6E0,1.985843E9,1.5067157E-2,-1.3703178E-2,2.36E2,7.11E2,5.5346037E-3,2.006E3,-6.9297487E-3,3.3151244E-3,-2.429786E-3],"split_indices":[12,17,0,0,10,0,0,1,0,0,0],"split_type":[0,0,0,0,0,0,0,0,0,0,0],"sum_hessian":[1.71E2,1.43E2,2.8E1,2.8E1,1.15E2,8.2E1,3.3E1,5.4E1,2.8E1,2.5E1,2.9E1],"tree_param":{"num_deleted":"0","num_feature":"27","num_nodes":"11","size_leaf_vector":"1"}},{"base_weights":[-9.996843E-4,-3.6712E-2,1.2398777E-2,-1.1409449E-2,7.037411E-3,-3.2262698E-2,6.0986686E-3,-4.822194E-3,2.5785159E-4],"categories":[],"categories_nodes":[],"categories_segments":[],"categories_sizes":[],"default_left":[0,0,0,0,0,0,0,0,0],"id":41,"left_children":[1,3,-1,-1,5,7,-1,-1,-1],"loss_changes":[1.0751889E0,7.5341535E-1,0E0,0E0,3.2080972E-1,8.256091E-2,0E0,0E0,0E0],"parents":[2147483647,0,0,1,1,4,4,5,5],"right_children":[2,4,-1,-1,6,8,-1,-1,-1],"split_conditions":[6E0,1.341925E5,1.2398777E-2,-1.1409449E-2,1.76E2,3.4858906E4,6.0986686E-3,-4.822194E-3,2.5785159E-4],"split_indices":[12,16,0,0,9,5,0,0,0],"split_type":[0,0,0,0,0,0,0,0,0],"sum_hessian":[1.79E2,1.48E2,3.1E1,4E1,1.08E2,7.1E1,3.7E1,3.7E1,3.4E1],"tree_param":{"num_deleted":"0","num_feature":"27","num_nodes":"9","size_leaf_vector":"1"}},{"base_weights":[1.5205084E-2,-1.6958067E-2,1.45888E-2,5.3183082E-3,-3.580207E-2,-8.651806E-3,-1.4759662E-2,1.0482206E-2,-5.154465E-3,3.693031E-3,-4.163382E-3],"categories":[],"categories_nodes":[],"categories_segments":[],"categories_sizes":[],"default_left":[0,0,0,0,0,0,0,0,0,0,0],"id":42,"left_children":[1,3,-1,-1,5,-1,7,9,-1,-1,-1],"loss_changes":[1.0241013E0,2.5256467E-1,0E0,0E0,2.0755187E-1,0E0,1.3694203E-1,1.7922215E-1,0E0,0E0,0E0],"parents":[2147483647,0,0,1,1,4,4,6,6,7,7],"right_children":[2,4,-1,-1,6,-1,8,10,-1,-1,-1],"split_conditions":[2.8131662E10,3.0186E8,1.45888E-2,5.3183082E-3,1.15875E4,-8.651806E-3,1.7028E10,3E0,-5.154465E-3,3.693031E-3,-4.163382E-3],"split_indices":[17,17,0,0,5,0,17,10,0,0,0],"split_type":[0,0,0,0,0,0,0,0,0,0,0],"sum_hessian":[1.76E2,1.5E2,2.6E1,2.6E1,1.24E2,2.5E1,9.9E1,6.8E1,3.1E1,4.3E1,2.5E1],"tree_param":{"num_deleted":"0","num_feature":"27","num_nodes":"11","size_leaf_vector":"1"}},{"base_weights":[-3.6272828E-3,-3.6385175E-2,9.230669E-3,-1.8647946E-2,-8.392417E-3,-6.7555024E-3,1.6848749E-2,5.812282E-2,-4.8596067E-3,8.254514E-3,3.0245676E-4],"categories":[],"categories_nodes":[],"categories_segments":[],"categories_sizes":[],"default_left":[0,0,0,0,0,0,0,0,0,0,0],"id":43,"left_children":[1,3,-1,5,-1,-1,7,9,-1,-1,-1],"loss_changes":[7.474209E-1,1.8944807E-1,0E0,2.9815546E-1,0E0,0E0,2.699771E-1,1.4844882E-1,0E0,0E0,0E0],"parents":[2147483647,0,0,1,1,3,3,6,6,7,7],"right_children":[2,4,-1,6,-1,-1,8,10,-1,-1,-1],"split_conditions":[9.01E2,1.7028E10,9.230669E-3,1.985843E9,-8.392417E-3,-6.7555024E-3,4.6E1,3.5E1,-4.8596067E-3,8.254514E-3,3.0245676E-4],"split_indices":[0,17,0,17,0,0,10,7,0,0,0],"split_type":[0,0,0,0,0,0,0,0,0,0,0],"sum_hessian":[1.78E2,1.42E2,3.6E1,1.16E2,2.6E1,3.8E1,7.8E1,5.2E1,2.6E1,2.6E1,2.6E1],"tree_param":{"num_deleted":"0","num_feature":"27","num_nodes":"11","size_leaf_vector":"1"}},{"base_weights":[-9.597383E-3,-3.796723E-2,1.1255952E-2,-9.256819E-3,-1.1918506E-2,5.110709E-2,-6.4586446E-2,8.238811E-3,-5.5153423E-4,-2.451231E-3,-7.0105884E-3],"categories":[],"categories_nodes":[],"categories_segments":[],"categories_sizes":[],"default_left":[0,0,0,0,0,0,0,0,0,0,0],"id":44,"left_children":[1,3,-1,-1,5,7,9,-1,-1,-1,-1],"loss_changes":[7.8032887E-1,3.2353175E-1,0E0,0E0,3.783962E-1,1.793867E-1,5.408582E-2,0E0,0E0,0E0,0E0],"parents":[2147483647,0,0,1,1,4,4,5,5,6,6],"right_children":[2,4,-1,-1,6,8,10,-1,-1,-1,-1],"split_conditions":[6.708457E4,7.43672E3,1.1255952E-2,-9.256819E-3,1.7974E5,2.805068E4,2.8780334E7,8.238811E-3,-5.5153423E-4,-2.451231E-3,-7.0105884E-3],"split_indices":[5,5,0,0,16,5,15,0,0,0,0],"split_type":[0,0,0,0,0,0,0,0,0,0,0],"sum_hessian":[1.7E2,1.45E2,2.5E1,3.3E1,1.12E2,5.1E1,6.1E1,2.5E1,2.6E1,3E1,3.1E1],"tree_param":{"num_deleted":"0","num_feature":"27","num_nodes":"11","size_leaf_vector":"1"}},{"base_weights":[2.2500012E-2,1.2198146E-1,-2.360681E-2,5.764039E-3,1.2571839E-2,-1.013017E-2,2.3679703E-2,7.3777065E-2,-6.221882E-3,2.6646557E-3,8.8510765E-3],"categories":[],"categories_nodes":[],"categories_segments":[],"categories_sizes":[],"default_left":[0,0,0,0,0,0,0,0,0,0,0],"id":45,"left_children":[1,3,5,-1,-1,-1,7,9,-1,-1,-1],"loss_changes":[7.8263104E-1,9.8344505E-2,6.19865E-1,0E0,0E0,0E0,4.4953036E-1,9.225121E-2,0E0,0E0,0E0],"parents":[2147483647,0,0,1,1,2,2,6,6,7,7],"right_children":[2,4,6,-1,-1,-1,8,10,-1,-1,-1],"split_conditions":[1E0,2.498975E7,1.46145E7,5.764039E-3,1.2571839E-2,-1.013017E-2,2.86575E7,1.626909E10,-6.221882E-3,2.6646557E-3,8.8510765E-3],"split_indices":[2,15,15,0,0,0,15,17,0,0,0],"split_type":[0,0,0,0,0,0,0,0,0,0,0],"sum_hessian":[1.69E2,5.3E1,1.16E2,2.8E1,2.5E1,3.4E1,8.2E1,5.6E1,2.6E1,3.1E1,2.5E1],"tree_param":{"num_deleted":"0","num_feature":"27","num_nodes":"11","size_leaf_vector":"1"}},{"base_weights":[-3.1970844E-3,-3.5128273E-2,1.2170629E-2,-7.5061237E-3,-1.9546298E-3,3.558824E-3,-4.5622006E-2,-5.5259736E-3,-1.2685375E-3],"categories":[],"categories_nodes":[],"categories_segments":[],"categories_sizes":[],"default_left":[0,0,0,0,0,0,0,0,0],"id":46,"left_children":[1,3,-1,-1,5,-1,7,-1,-1],"loss_changes":[9.145006E-1,3.1224167E-1,0E0,0E0,2.1143395E-1,0E0,4.0638953E-2,0E0,0E0],"parents":[2147483647,0,0,1,1,4,4,6,6],"right_children":[2,4,-1,-1,6,-1,8,-1,-1],"split_conditions":[2.8131662E10,1.46145E7,1.2170629E-2,-7.5061237E-3,1.8581E5,3.558824E-3,3.465584E4,-5.5259736E-3,-1.2685375E-3],"split_indices":[17,15,0,0,16,0,18,0,0],"split_type":[0,0,0,0,0,0,0,0,0],"sum_hessian":[1.71E2,1.44E2,2.7E1,4.8E1,9.6E1,4.5E1,5.1E1,2.5E1,2.6E1],"tree_param":{"num_deleted":"0","num_feature":"27","num_nodes":"9","size_leaf_vector":"1"}},{"base_weights":[2.388956E-3,-2.5683412E-2,1.0699911E-2,-7.05641E-2,8.859154E-3,-2.5362012E-3,-8.2460735E-3,4.7721323E-2,-5.1894975E-3,9.234596E-3,-1.6147633E-3],"categories":[],"categories_nodes":[],"categories_segments":[],"categories_sizes":[],"default_left":[0,0,0,0,0,0,0,0,0,0,0],"id":47,"left_children":[1,3,-1,5,7,-1,-1,9,-1,-1,-1],"loss_changes":[6.6129255E-1,2.1766634E-1,0E0,8.456543E-2,2.4596499E-1,0E0,0E0,2.846401E-1,0E0,0E0,0E0],"parents":[2147483647,0,0,1,1,3,3,4,4,7,7],"right_children":[2,4,-1,6,8,-1,-1,10,-1,-1,-1],"split_conditions":[2.8131662E10,2.007E3,1.0699911E-2,2.755561E4,2.015E3,-2.5362012E-3,-8.2460735E-3,1.1216725E10,-5.1894975E-3,9.234596E-3,-1.6147633E-3],"split_indices":[17,1,0,5,1,0,0,17,0,0,0],"split_type":[0,0,0,0,0,0,0,0,0,0,0],"sum_hessian":[1.66E2,1.39E2,2.7E1,6E1,7.9E1,3.2E1,2.8E1,5.3E1,2.6E1,2.5E1,2.8E1],"tree_param":{"num_deleted":"0","num_feature":"27","num_nodes":"11","size_leaf_vector":"1"}},{"base_weights":[1.1705507E-2,-2.0813743E-2,1.3378765E-2,-1.03061255E-2,1.8933237E-2,5.3787924E-2,-7.3818085E-3,2.362978E-2,8.994813E-3,6.286316E-3,-2.7990174E-3],"categories":[],"categories_nodes":[],"categories_segments":[],"categories_sizes":[],"default_left":[0,0,0,0,0,0,0,0,0,0,0],"id":48,"left_children":[1,3,-1,-1,5,7,-1,9,-1,-1,-1],"loss_changes":[9.630959E-1,6.931493E-1,0E0,0E0,4.6342483E-1,1.7070907E-1,0E0,2.2690323E-1,0E0,0E0,0E0],"parents":[2147483647,0,0,1,1,4,4,5,5,7,7],"right_children":[2,4,-1,-1,6,8,-1,10,-1,-1,-1],"split_conditions":[6E0,1.46145E7,1.3378765E-2,-1.03061255E-2,3.2443E7,2.4651E7,-7.3818085E-3,1.99925E7,8.994813E-3,6.286316E-3,-2.7990174E-3],"split_indices":[12,15,0,0,15,15,0,15,0,0,0],"split_type":[0,0,0,0,0,0,0,0,0,0,0],"sum_hessian":[1.76E2,1.48E2,2.8E1,3.7E1,1.11E2,8.6E1,2.5E1,6E1,2.6E1,3E1,3E1],"tree_param":{"num_deleted":"0","num_feature":"27","num_nodes":"11","size_leaf_vector":"1"}},{"base_weights":[2.0088386E-3,-2.0155733E-2,9.318753E-3,3.8981E-2,-5.7218503E-2,-1.911797E-3,8.948334E-3,-9.348291E-3,-2.2582939E-2,2.3808796E-3,-7.427047E-3],"categories":[],"categories_nodes":[],"categories_segments":[],"categories_sizes":[],"default_left":[0,0,0,0,0,0,0,0,0,0,0],"id":49,"left_children":[1,3,-1,5,7,-1,-1,-1,9,-1,-1],"loss_changes":[4.7665352E-1,3.2880434E-1,0E0,3.0342406E-1,2.1203426E-1,0E0,0E0,0E0,2.6063395E-1,0E0,0E0],"parents":[2147483647,0,0,1,1,3,3,4,4,8,8],"right_children":[2,4,-1,6,8,-1,-1,-1,10,-1,-1],"split_conditions":[2.8131662E10,5.188377E9,9.318753E-3,7.899984E3,1.121244E10,-1.911797E-3,8.948334E-3,-9.348291E-3,5.26707E4,2.3808796E-3,-7.427047E-3],"split_indices":[17,17,0,5,17,0,0,0,5,0,0],"split_type":[0,0,0,0,0,0,0,0,0,0,0],"sum_hessian":[1.74E2,1.48E2,2.6E1,5.7E1,9.1E1,3.2E1,2.5E1,3E1,6.1E1,3.6E1,2.5E1],"tree_param":{"num_deleted":"0","num_feature":"27","num_nodes":"11","size_leaf_vector":"1"}},{"base_weights":[-1.2682337E-2,-3.240636E-2,5.781635E-3,-9.670406E-3,-6.102798E-3,3.0054083E-2,-6.2353266E-3,-5.081866E-5,5.153065E-3],"categories":[],"categories_nodes":[],"categories_segments":[],"categories_sizes":[],"default_left":[0,0,0,0,0,0,0,0,0],"id":50,"left_children":[1,3,-1,-1,5,7,-1,-1,-1],"loss_changes":[3.141311E-1,3.673892E-1,0E0,0E0,3.2281289E-1,9.388947E-2,0E0,0E0,0E0],"parents":[2147483647,0,0,1,1,4,4,5,5],"right_children":[2,4,-1,-1,6,8,-1,-1,-1],"split_conditions":[3E0,7.43672E3,5.781635E-3,-9.670406E-3,2.1687E5,2.008E3,-6.2353266E-3,-5.081866E-5,5.153065E-3],"split_indices":[11,5,0,0,16,1,0,0,0],"split_type":[0,0,0,0,0,0,0,0,0],"sum_hessian":[1.75E2,1.44E2,3.1E1,3E1,1.14E2,7.8E1,3.6E1,4.4E1,3.4E1],"tree_param":{"num_deleted":"0","num_feature":"27","num_nodes":"9","size_leaf_vector":"1"}},{"base_weights":[7.733846E-3,-1.7243017E-2,1.0965582E-2,1.3410651E-2,-1.2296493E-2,4.5953456E-2,-5.123916E-3,-7.914898E-3,1.154655E-2,-4.5862575E-3,4.604013E-3],"categories":[],"categories_nodes":[],"categories_segments":[],"categories_sizes":[],"default_left":[0,0,0,0,0,0,0,0,0,0,0],"id":51,"left_children":[1,3,-1,5,-1,7,-1,9,-1,-1,-1],"loss_changes":[6.1124235E-1,6.7677957E-1,0E0,3.3560303E-1,0E0,5.248215E-1,0E0,2.2880064E-1,0E0,0E0,0E0],"parents":[2147483647,0,0,1,1,3,3,5,5,7,7],"right_children":[2,4,-1,6,-1,8,-1,10,-1,-1,-1],"split_conditions":[6.708457E4,3.3009E7,1.0965582E-2,4.6E1,-1.2296493E-2,2.009E3,-5.123916E-3,1.4907333E7,1.154655E-2,-4.5862575E-3,4.604013E-3],"split_indices":[5,15,0,10,0,1,0,15,0,0,0],"split_type":[0,0,0,0,0,0,0,0,0,0,0],"sum_hessian":[1.75E2,1.49E2,2.6E1,1.24E2,2.5E1,8.9E1,3.5E1,6E1,2.9E1,3.4E1,2.6E1],"tree_param":{"num_deleted":"0","num_feature":"27","num_nodes":"11","size_leaf_vector":"1"}},{"base_weights":[5.9249094E-3,-2.5636498E-2,1.30248815E-2,-6.944829E-2,2.2182344E-2,2.861966E-4,-1.0831007E-1,5.7198987E-3,-5.732714E-3,-1.269312E-2,-3.2409586E-3],"categories":[],"categories_nodes":[],"categories_segments":[],"categories_sizes":[],"default_left":[0,0,0,0,0,0,0,0,0,0,0],"id":52,"left_children":[1,3,-1,5,7,-1,9,-1,-1,-1,-1],"loss_changes":[9.3621653E-1,3.136999E-1,0E0,2.224932E-1,3.898474E-1,0E0,1.9497699E-1,0E0,0E0,0E0,0E0],"parents":[2147483647,0,0,1,1,3,3,4,4,6,6],"right_children":[2,4,-1,6,8,-1,10,-1,-1,-1,-1],"split_conditions":[6E0,1.1569584E10,1.30248815E-2,2E3,2.2699E5,2.861966E-4,1.3899667E5,5.7198987E-3,-5.732714E-3,-1.269312E-2,-3.2409586E-3],"split_indices":[12,17,0,1,16,0,16,0,0,0,0],"split_type":[0,0,0,0,0,0,0,0,0,0,0],"sum_hessian":[1.75E2,1.48E2,2.7E1,7.7E1,7.1E1,2.7E1,5E1,4.6E1,2.5E1,2.5E1,2.5E1],"tree_param":{"num_deleted":"0","num_feature":"27","num_nodes":"11","size_leaf_vector":"1"}},{"base_weights":[-2.6525352E-3,-2.7422966E-2,8.539268E-3,-8.674559E-3,3.9315335E-3,3.2590277E-2,-4.914822E-3,6.282915E-3,-1.4586962E-3],"categories":[],"categories_nodes":[],"categories_segments":[],"categories_sizes":[],"default_left":[0,0,0,0,0,0,0,0,0],"id":53,"left_children":[1,3,-1,-1,5,7,-1,-1,-1],"loss_changes":[4.937404E-1,3.9055282E-1,0E0,0E0,2.1115997E-1,2.0139065E-1,0E0,0E0,0E0],"parents":[2147483647,0,0,1,1,4,4,5,5],"right_children":[2,4,-1,-1,6,8,-1,-1,-1],"split_conditions":[6E0,1.46145E7,8.539268E-3,-8.674559E-3,2.9764166E7,1E0,-4.914822E-3,6.282915E-3,-1.4586962E-3],"split_indices":[12,15,0,0,15,9,0,0,0],"split_type":[0,0,0,0,0,0,0,0,0],"sum_hessian":[1.69E2,1.4E2,2.9E1,3.6E1,1.04E2,7.4E1,3E1,3.7E1,3.7E1],"tree_param":{"num_deleted":"0","num_feature":"27","num_nodes":"9","size_leaf_vector":"1"}},{"base_weights":[4.0329457E-3,-1.6633648E-2,9.41196E-3,4.5919074E-3,-9.036671E-3,-4.6878154E-3,4.0481586E-2,7.7223503E-3,3.8620112E-3,-4.0139556E-3,4.4292123E-3],"categories":[],"categories_nodes":[],"categories_segments":[],"categories_sizes":[],"default_left":[0,0,0,0,0,0,0,0,0,0,0],"id":54,"left_children":[1,3,-1,5,-1,-1,7,-1,9,-1,-1],"loss_changes":[4.4889614E-1,3.3782434E-1,0E0,3.107617E-1,0E0,0E0,1.9180305E-1,0E0,1.7418505E-1,0E0,0E0],"parents":[2147483647,0,0,1,1,3,3,6,6,8,8],"right_children":[2,4,-1,6,-1,-1,8,-1,10,-1,-1],"split_conditions":[6.935971E4,2.1671105E10,9.41196E-3,1.83E2,-9.036671E-3,-4.6878154E-3,2.6520268E4,7.7223503E-3,1.3107902E10,-4.0139556E-3,4.4292123E-3],"split_indices":[5,17,0,0,0,0,5,0,17,0,0],"split_type":[0,0,0,0,0,0,0,0,0,0,0],"sum_hessian":[1.77E2,1.52E2,2.5E1,1.27E2,2.5E1,4.4E1,8.3E1,3E1,5.3E1,2.6E1,2.7E1],"tree_param":{"num_deleted":"0","num_feature":"27","num_nodes":"11","size_leaf_vector":"1"}},{"base_weights":[-9.843165E-3,-3.3494916E-2,7.347231E-3,-1.1010928E-2,-2.7877846E-4,1.839268E-2,-4.521317E-3,-3.0427675E-3,4.5675453E-2,-1.0687122E-3,6.49128E-3],"categories":[],"categories_nodes":[],"categories_segments":[],"categories_sizes":[],"default_left":[0,0,0,0,0,0,0,0,0,0,0],"id":55,"left_children":[1,3,-1,-1,5,7,-1,-1,9,-1,-1],"loss_changes":[4.67346E-1,5.6455433E-1,0E0,0E0,1.3219433E-1,1.4663352E-1,0E0,0E0,1.5309788E-1,0E0,0E0],"parents":[2147483647,0,0,1,1,4,4,5,5,8,8],"right_children":[2,4,-1,-1,6,8,-1,-1,10,-1,-1],"split_conditions":[6E0,1.8E2,7.347231E-3,-1.1010928E-2,2.36195E5,1.43545E5,-4.521317E-3,-3.0427675E-3,3.7221363E4,-1.0687122E-3,6.49128E-3],"split_indices":[12,0,0,0,16,16,0,0,19,0,0],"split_type":[0,0,0,0,0,0,0,0,0,0,0],"sum_hessian":[1.81E2,1.49E2,3.2E1,3.3E1,1.16E2,8.9E1,2.7E1,2.8E1,6.1E1,2.5E1,3.6E1],"tree_param":{"num_deleted":"0","num_feature":"27","num_nodes":"11","size_leaf_vector":"1"}},{"base_weights":[-4.0133125E-3,6.0782567E-2,-3.5061635E-2,8.196641E-3,1.6426529E-3,5.3096605E-3,-8.8482395E-2,-4.462645E-3,4.985581E-3,-8.638994E-3,-4.5394176E-3],"categories":[],"categories_nodes":[],"categories_segments":[],"categories_sizes":[],"default_left":[0,0,0,0,0,0,0,0,0,0,0],"id":56,"left_children":[1,3,5,-1,-1,7,9,-1,-1,-1,-1],"loss_changes":[3.662675E-1,1.0887672E-1,2.6573965E-1,0E0,0E0,2.8541252E-1,3.25962E-2,0E0,0E0,0E0,0E0],"parents":[2147483647,0,0,1,1,2,2,5,5,6,6],"right_children":[2,4,6,-1,-1,8,10,-1,-1,-1,-1],"split_conditions":[1E0,2.24E2,2.01E3,8.196641E-3,1.6426529E-3,2.004E3,8.2E1,-4.462645E-3,4.985581E-3,-8.638994E-3,-4.5394176E-3],"split_indices":[2,0,1,0,0,1,7,0,0,0,0],"split_type":[0,0,0,0,0,0,0,0,0,0,0],"sum_hessian":[1.8E2,5.8E1,1.22E2,2.5E1,3.3E1,7E1,5.2E1,3.4E1,3.6E1,2.5E1,2.7E1],"tree_param":{"num_deleted":"0","num_feature":"27","num_nodes":"11","size_leaf_vector":"1"}},{"base_weights":[7.7642314E-3,-1.931909E-2,1.10804895E-2,-3.749618E-2,4.898866E-3,-1.1612339E-2,-8.873809E-3,-6.9108144E-3,1.9812144E-2,8.049808E-3,-2.8728978E-3],"categories":[],"categories_nodes":[],"categories_segments":[],"categories_sizes":[],"default_left":[0,0,0,0,0,0,0,0,0,0,0],"id":57,"left_children":[1,3,-1,5,-1,7,-1,-1,9,-1,-1],"loss_changes":[6.54907E-1,2.2552586E-1,0E0,2.4966183E-1,0E0,2.346474E-1,0E0,0E0,3.4489745E-1,0E0,0E0],"parents":[2147483647,0,0,1,1,3,3,5,5,8,8],"right_children":[2,4,-1,6,-1,8,-1,-1,10,-1,-1],"split_conditions":[3E0,1.87E2,1.10804895E-2,1.7E1,4.898866E-3,7.0461626E3,-8.873809E-3,-6.9108144E-3,2.4449752E4,8.049808E-3,-2.8728978E-3],"split_indices":[11,10,0,10,0,5,0,0,5,0,0],"split_type":[0,0,0,0,0,0,0,0,0,0,0],"sum_hessian":[1.71E2,1.44E2,2.7E1,1.19E2,2.5E1,9.1E1,2.8E1,2.5E1,6.6E1,2.6E1,4E1],"tree_param":{"num_deleted":"0","num_feature":"27","num_nodes":"11","size_leaf_vector":"1"}},{"base_weights":[-7.826929E-3,-2.837645E-2,5.025469E-3,3.859188E-3,-1.122533E-2,4.515804E-2,-3.9344747E-3,-1.6914816E-3,6.685567E-3],"categories":[],"categories_nodes":[],"categories_segments":[],"categories_sizes":[],"default_left":[0,0,0,0,0,0,0,0,0],"id":58,"left_children":[1,3,-1,5,-1,7,-1,-1,-1],"loss_changes":[2.7101398E-1,5.40159E-1,0E0,2.5821838E-1,0E0,1.9261065E-1,0E0,0E0,0E0],"parents":[2147483647,0,0,1,1,3,3,5,5],"right_children":[2,4,-1,6,-1,8,-1,-1,-1],"split_conditions":[1.87E2,4.6E1,5.025469E-3,3.88E2,-1.122533E-2,6.9E1,-3.9344747E-3,-1.6914816E-3,6.685567E-3],"split_indices":[10,10,0,0,0,0,0,0,0],"split_type":[0,0,0,0,0,0,0,0,0],"sum_hessian":[1.74E2,1.37E2,3.7E1,1.09E2,2.8E1,6.3E1,4.6E1,2.5E1,3.8E1],"tree_param":{"num_deleted":"0","num_feature":"27","num_nodes":"9","size_leaf_vector":"1"}},{"base_weights":[-1.2128197E-2,1.8058359E-3,-6.410833E-3,-1.7935824E-2,6.849986E-3,-4.082679E-2,3.1697198E-3,-6.665486E-2,1.6005072E-3,-1.9336793E-3,-9.051289E-3],"categories":[],"categories_nodes":[],"categories_segments":[],"categories_sizes":[],"default_left":[0,0,0,0,0,0,0,0,0,0,0],"id":59,"left_children":[1,3,-1,5,-1,7,-1,9,-1,-1,-1],"loss_changes":[1.7288171E-1,2.5437886E-1,0E0,1.6433036E-1,0E0,1.3950838E-1,0E0,1.3159469E-1,0E0,0E0,0E0],"parents":[2147483647,0,0,1,1,3,3,5,5,7,7],"right_children":[2,4,-1,6,-1,8,-1,10,-1,-1,-1],"split_conditions":[2.98E2,5.7944668E4,-6.410833E-3,1E0,6.849986E-3,2.6E1,3.1697198E-3,1.232841E4,1.6005072E-3,-1.9336793E-3,-9.051289E-3],"split_indices":[7,5,0,3,0,8,0,5,0,0,0],"split_type":[0,0,0,0,0,0,0,0,0,0,0],"sum_hessian":[1.68E2,1.42E2,2.6E1,1.17E2,2.5E1,8.5E1,3.2E1,6E1,2.5E1,3.5E1,2.5E1],"tree_param":{"num_deleted":"0","num_feature":"27","num_nodes":"11","size_leaf_vector":"1"}},{"base_weights":[9.6038515E-3,-1.4126739E-2,7.1273157E-3,3.0006606E-2,-4.793044E-2,-3.2003943E-3,8.872726E-3,-7.869258E-3,8.92374E-4],"categories":[],"categories_nodes":[],"categories_segments":[],"categories_sizes":[],"default_left":[0,0,0,0,0,0,0,0,0],"id":60,"left_children":[1,3,-1,5,7,-1,-1,-1,-1],"loss_changes":[3.3583605E-1,1.953814E-1,0E0,3.7083158E-1,2.5357512E-1,0E0,0E0,0E0,0E0],"parents":[2147483647,0,0,1,1,3,3,4,4],"right_children":[2,4,-1,6,8,-1,-1,-1,-1],"split_conditions":[1.8E2,5.188377E9,7.1273157E-3,7.1801396E3,6.03E2,-3.2003943E-3,8.872726E-3,-7.869258E-3,8.92374E-4],"split_indices":[10,17,0,18,0,0,0,0,0],"split_type":[0,0,0,0,0,0,0,0,0],"sum_hessian":[1.64E2,1.29E2,3.5E1,5.6E1,7.3E1,3.1E1,2.5E1,3.7E1,3.6E1],"tree_param":{"num_deleted":"0","num_feature":"27","num_nodes":"9","size_leaf_vector":"1"}},{"base_weights":[5.5778087E-3,-1.5930654E-2,8.872353E-3,-3.9152417E-2,4.2568017E-3,-1.2924169E-2,-9.405774E-3,6.291719E-3,-3.229755E-3,3.5011193E-3,-2.2602635E-3],"categories":[],"categories_nodes":[],"categories_segments":[],"categories_sizes":[],"default_left":[0,0,0,0,0,0,0,0,0,0,0],"id":61,"left_children":[1,3,-1,5,-1,7,-1,9,-1,-1,-1],"loss_changes":[4.2373687E-1,2.5034994E-1,0E0,2.5176722E-1,0E0,5.0657183E-2,0E0,8.085947E-2,0E0,0E0,0E0],"parents":[2147483647,0,0,1,1,3,3,5,5,7,7],"right_children":[2,4,-1,6,-1,8,-1,10,-1,-1,-1],"split_conditions":[6E0,1.87E2,8.872353E-3,4.6E1,4.2568017E-3,2.805068E4,-9.405774E-3,2.003E3,-3.229755E-3,3.5011193E-3,-2.2602635E-3],"split_indices":[12,10,0,10,0,18,0,1,0,0,0],"split_type":[0,0,0,0,0,0,0,0,0,0,0],"sum_hessian":[1.73E2,1.46E2,2.7E1,1.11E2,3.5E1,8.6E1,2.5E1,5.3E1,3.3E1,2.5E1,2.8E1],"tree_param":{"num_deleted":"0","num_feature":"27","num_nodes":"11","size_leaf_vector":"1"}},{"base_weights":[8.0367486E-4,-1.5532265E-2,6.446643E-3,-7.3043266E-3,1.8462528E-2,5.3284217E-2,-5.1905336E-3,1.8035988E-3,8.059376E-3],"categories":[],"categories_nodes":[],"categories_segments":[],"categories_sizes":[],"default_left":[0,0,0,0,0,0,0,0,0],"id":62,"left_children":[1,3,-1,-1,5,7,-1,-1,-1],"loss_changes":[2.4198338E-1,4.080827E-1,0E0,0E0,3.2117933E-1,1.1620441E-1,0E0,0E0,0E0],"parents":[2147483647,0,0,1,1,4,4,5,5],"right_children":[2,4,-1,-1,6,8,-1,-1,-1],"split_conditions":[6E0,1.5256E7,6.446643E-3,-7.3043266E-3,2.9764166E7,2.3117E7,-5.1905336E-3,1.8035988E-3,8.059376E-3],"split_indices":[12,15,0,0,15,15,0,0,0],"split_type":[0,0,0,0,0,0,0,0,0],"sum_hessian":[1.72E2,1.45E2,2.7E1,4.2E1,1.03E2,7.4E1,2.9E1,4.9E1,2.5E1],"tree_param":{"num_deleted":"0","num_feature":"27","num_nodes":"9","size_leaf_vector":"1"}},{"base_weights":[5.9122634E-3,-1.4417082E-2,7.645557E-3,-5.511117E-2,8.298304E-3,-6.574088E-3,-1.5336134E-3,4.393472E-3,-2.7766218E-3],"categories":[],"categories_nodes":[],"categories_segments":[],"categories_sizes":[],"default_left":[0,0,0,0,0,0,0,0,0],"id":63,"left_children":[1,3,-1,5,7,-1,-1,-1,-1],"loss_changes":[3.352953E-1,1.3171956E-1,0E0,5.573812E-2,2.1181333E-1,0E0,0E0,0E0,0E0],"parents":[2147483647,0,0,1,1,3,3,4,4],"right_children":[2,4,-1,6,8,-1,-1,-1,-1],"split_conditions":[3E0,1.5256E7,7.645557E-3,9.838556E3,4.6E1,-6.574088E-3,-1.5336134E-3,4.393472E-3,-2.7766218E-3],"split_indices":[11,15,0,19,10,0,0,0,0],"split_type":[0,0,0,0,0,0,0,0,0],"sum_hessian":[1.7E2,1.41E2,2.9E1,5E1,9.1E1,2.5E1,2.5E1,4.3E1,4.8E1],"tree_param":{"num_deleted":"0","num_feature":"27","num_nodes":"9","size_leaf_vector":"1"}},{"base_weights":[1.4185532E-3,-2.3381926E-2,7.091219E-3,1.4779084E-2,-1.4235298E-2,-7.3213624E-3,5.0246604E-3,-3.9210157E-3,2.0150118E-2,5.5933753E-3,-2.628983E-3],"categories":[],"categories_nodes":[],"categories_segments":[],"categories_sizes":[],"default_left":[0,0,0,0,0,0,0,0,0,0,0],"id":64,"left_children":[1,3,-1,5,-1,7,-1,-1,9,-1,-1],"loss_changes":[4.0640724E-1,8.85571E-1,0E0,1.3204713E-1,0E0,1.0109542E-1,0E0,0E0,1.5584947E-1,0E0,0E0],"parents":[2147483647,0,0,1,1,3,3,5,5,8,8],"right_children":[2,4,-1,6,-1,8,-1,-1,10,-1,-1],"split_conditions":[9.01E2,3.5269E7,7.091219E-3,6E0,-1.4235298E-2,1.13465E7,5.0246604E-3,-3.9210157E-3,2.2474928E4,5.5933753E-3,-2.628983E-3],"split_indices":[0,15,0,9,0,15,0,0,5,0,0],"split_type":[0,0,0,0,0,0,0,0,0,0,0],"sum_hessian":[1.74E2,1.38E2,3.6E1,1.13E2,2.5E1,8E1,3.3E1,3E1,5E1,2.5E1,2.5E1],"tree_param":{"num_deleted":"0","num_feature":"27","num_nodes":"11","size_leaf_vector":"1"}},{"base_weights":[-4.2811087E-3,-2.1507856E-2,6.150019E-3,-4.6379674E-2,6.3057933E-3,-1.7573183E-2,-1.10725835E-2,-6.2510115E-3,3.147345E-2,7.56643E-3,-3.5368844E-3],"categories":[],"categories_nodes":[],"categories_segments":[],"categories_sizes":[],"default_left":[0,0,0,0,0,0,0,0,0,0,0],"id":65,"left_children":[1,3,-1,5,-1,7,-1,-1,9,-1,-1],"loss_changes":[2.5890166E-1,3.84683E-1,0E0,3.4158733E-1,0E0,3.0263886E-1,0E0,0E0,2.9949072E-1,0E0,0E0],"parents":[2147483647,0,0,1,1,3,3,5,5,8,8],"right_children":[2,4,-1,6,-1,8,-1,-1,10,-1,-1],"split_conditions":[6E0,2.014E3,6.150019E-3,2.29825E5,6.3057933E-3,1.4350333E5,-1.10725835E-2,-6.2510115E-3,1.06E2,7.56643E-3,-3.5368844E-3],"split_indices":[12,1,0,16,0,16,0,0,10,0,0],"split_type":[0,0,0,0,0,0,0,0,0,0,0],"sum_hessian":[1.72E2,1.44E2,2.8E1,1.17E2,2.7E1,9.2E1,2.5E1,3.9E1,5.3E1,2.8E1,2.5E1],"tree_param":{"num_deleted":"0","num_feature":"27","num_nodes":"11","size_leaf_vector":"1"}},{"base_weights":[-5.174972E-3,-2.7510798E-2,6.2255E-3,8.80465E-3,-1.0419367E-2,5.0001327E-2,-4.4269436E-3,-7.192065E-4,8.839287E-3],"categories":[],"categories_nodes":[],"categories_segments":[],"categories_sizes":[],"default_left":[0,0,0,0,0,0,0,0,0],"id":66,"left_children":[1,3,-1,5,-1,7,-1,-1,-1],"loss_changes":[3.3120835E-1,5.433942E-1,0E0,2.879795E-1,0E0,2.5991926E-1,0E0,0E0,0E0],"parents":[2147483647,0,0,1,1,3,3,5,5],"right_children":[2,4,-1,6,-1,8,-1,-1,-1],"split_conditions":[9.01E2,2.013E3,6.2255E-3,4E0,-1.0419367E-2,2.004E3,-4.4269436E-3,-7.192065E-4,8.839287E-3],"split_indices":[0,1,0,10,0,1,0,0,0],"split_type":[0,0,0,0,0,0,0,0,0],"sum_hessian":[1.66E2,1.33E2,3.3E1,1.01E2,3.2E1,6.3E1,3.8E1,3.4E1,2.9E1],"tree_param":{"num_deleted":"0","num_feature":"27","num_nodes":"9","size_leaf_vector":"1"}},{"base_weights":[2.9987441E-3,-1.2283707E-2,6.828855E-3,1.3146898E-2,-7.457522E-3,4.468504E-2,-6.6521424E-3,6.337332E-3,3.574797E-4],"categories":[],"categories_nodes":[],"categories_segments":[],"categories_sizes":[],"default_left":[0,0,0,0,0,0,0,0,0],"id":67,"left_children":[1,3,-1,5,-1,7,-1,-1,-1],"loss_changes":[2.36609E-1,3.3374846E-1,0E0,3.7975696E-1,0E0,1.4263153E-1,0E0,0E0,0E0],"parents":[2147483647,0,0,1,1,3,3,5,5],"right_children":[2,4,-1,6,-1,8,-1,-1,-1],"split_conditions":[6.975371E4,1.7028E10,6.828855E-3,4.6E1,-7.457522E-3,2.4E2,-6.6521424E-3,6.337332E-3,3.574797E-4],"split_indices":[18,17,0,10,0,0,0,0,0],"split_type":[0,0,0,0,0,0,0,0,0],"sum_hessian":[1.74E2,1.49E2,2.5E1,1.16E2,3.3E1,8.9E1,2.7E1,4.4E1,4.5E1],"tree_param":{"num_deleted":"0","num_feature":"27","num_nodes":"9","size_leaf_vector":"1"}},{"base_weights":[-7.1961866E-3,-2.217106E-2,5.1332028E-3,-8.4756315E-3,-1.5478967E-3,5.040991E-3,-2.2233523E-2,-6.852153E-3,4.52493E-3,3.2334544E-3,-3.6641737E-3],"categories":[],"categories_nodes":[],"categories_segments":[],"categories_sizes":[],"default_left":[0,0,0,0,0,0,0,0,0,0,0],"id":68,"left_children":[1,3,-1,-1,5,-1,7,-1,9,-1,-1],"loss_changes":[1.9860426E-1,2.7333468E-1,0E0,0E0,1.7217839E-1,0E0,1.7244221E-1,0E0,1.4217533E-1,0E0,0E0],"parents":[2147483647,0,0,1,1,4,4,6,6,8,8],"right_children":[2,4,-1,-1,6,-1,8,-1,10,-1,-1],"split_conditions":[6E0,1.0295E5,5.1332028E-3,-8.4756315E-3,5.188377E9,5.040991E-3,1.139268E10,-6.852153E-3,5.9035586E4,3.2334544E-3,-3.6641737E-3],"split_indices":[12,16,0,0,17,0,17,0,18,0,0],"split_type":[0,0,0,0,0,0,0,0,0,0,0],"sum_hessian":[1.73E2,1.45E2,2.8E1,2.6E1,1.19E2,2.7E1,9.2E1,2.5E1,6.7E1,3.9E1,2.8E1],"tree_param":{"num_deleted":"0","num_feature":"27","num_nodes":"11","size_leaf_vector":"1"}},{"base_weights":[-4.209298E-3,-2.007235E-2,6.422989E-3,-1.5053097E-3,-4.9840584E-3,-2.6375422E-2,4.678362E-3,-5.989468E-3,2.4568802E-3,2.624888E-3,-2.2634433E-3],"categories":[],"categories_nodes":[],"categories_segments":[],"categories_sizes":[],"default_left":[0,0,0,0,0,0,0,0,0,0,0],"id":69,"left_children":[1,3,-1,5,-1,7,-1,-1,9,-1,-1],"loss_changes":[2.4686745E-1,1.2649225E-1,0E0,1.700569E-1,0E0,1.1893568E-1,0E0,0E0,5.5219885E-2,0E0,0E0],"parents":[2147483647,0,0,1,1,3,3,5,5,8,8],"right_children":[2,4,-1,6,-1,8,-1,-1,10,-1,-1],"split_conditions":[6.935971E4,4.395451E4,6.422989E-3,6E0,-4.9840584E-3,9.5E1,4.678362E-3,-5.989468E-3,2.5517621E4,2.624888E-3,-2.2634433E-3],"split_indices":[5,18,0,9,0,0,0,0,5,0,0],"split_type":[0,0,0,0,0,0,0,0,0,0,0],"sum_hessian":[1.71E2,1.46E2,2.5E1,1.05E2,4.1E1,7.6E1,2.9E1,2.6E1,5E1,2.5E1,2.5E1],"tree_param":{"num_deleted":"0","num_feature":"27","num_nodes":"11","size_leaf_vector":"1"}},{"base_weights":[2.9169384E-3,-1.9867785E-2,6.040792E-3,-2.1359684E-4,-6.775831E-3,-2.6877824E-2,4.609058E-3,-4.5741983E-3,3.9741528E-4],"categories":[],"categories_nodes":[],"categories_segments":[],"categories_sizes":[],"default_left":[0,0,0,0,0,0,0,0,0],"id":70,"left_children":[1,3,-1,5,-1,7,-1,-1,-1],"loss_changes":[3.0404943E-1,1.8420707E-1,0E0,1.7430554E-1,0E0,8.154518E-2,0E0,0E0,0E0],"parents":[2147483647,0,0,1,1,3,3,5,5],"right_children":[2,4,-1,6,-1,8,-1,-1,-1],"split_conditions":[1.87E2,2.36195E5,6.040792E-3,1.7157E5,-6.775831E-3,1.83E2,4.609058E-3,-4.5741983E-3,3.9741528E-4],"split_indices":[10,16,0,16,0,0,0,0,0],"split_type":[0,0,0,0,0,0,0,0,0],"sum_hessian":[1.7E2,1.32E2,3.8E1,1.04E2,2.8E1,7.3E1,3.1E1,3.5E1,3.8E1],"tree_param":{"num_deleted":"0","num_feature":"27","num_nodes":"9","size_leaf_vector":"1"}},{"base_weights":[-2.4475893E-3,-1.761126E-2,6.037384E-3,-8.440409E-4,-7.4610156E-3,2.3498133E-2,-4.964704E-3,-3.4616531E-3,4.940383E-2,9.422614E-3,2.4265572E-4],"categories":[],"categories_nodes":[],"categories_segments":[],"categories_sizes":[],"default_left":[0,0,0,0,0,0,0,0,0,0,0],"id":71,"left_children":[1,3,-1,5,-1,7,-1,-1,9,-1,-1],"loss_changes":[2.2781563E-1,2.0994136E-1,0E0,2.0517915E-1,0E0,1.7189598E-1,0E0,0E0,2.4243668E-1,0E0,0E0],"parents":[2147483647,0,0,1,1,3,3,5,5,8,8],"right_children":[2,4,-1,6,-1,8,-1,-1,10,-1,-1],"split_conditions":[2.8131662E10,8.26E2,6.037384E-3,4.6E1,-7.4610156E-3,5.1E1,-4.964704E-3,-3.4616531E-3,2.4E2,9.422614E-3,2.4265572E-4],"split_indices":[17,0,0,10,0,0,0,0,0,0,0],"split_type":[0,0,0,0,0,0,0,0,0,0,0],"sum_hessian":[1.79E2,1.52E2,2.7E1,1.27E2,2.5E1,9.3E1,3.4E1,2.5E1,6.8E1,2.5E1,4.3E1],"tree_param":{"num_deleted":"0","num_feature":"27","num_nodes":"11","size_leaf_vector":"1"}},{"base_weights":[-9.910272E-4,-1.9629136E-2,7.062133E-3,-5.7501127E-3,7.457825E-5,2.3235127E-2,-5.4630768E-3,4.6502533E-3,9.614765E-4,-3.1445466E-3,3.524368E-3],"categories":[],"categories_nodes":[],"categories_segments":[],"categories_sizes":[],"default_left":[0,0,0,0,0,0,0,0,0,0,0],"id":72,"left_children":[1,3,-1,-1,5,7,-1,-1,9,-1,-1],"loss_changes":[3.1397873E-1,1.6634007E-1,0E0,0E0,1.8914543E-1,7.333876E-2,0E0,0E0,1.1054979E-1,0E0,0E0],"parents":[2147483647,0,0,1,1,4,4,5,5,8,8],"right_children":[2,4,-1,-1,6,8,-1,-1,10,-1,-1],"split_conditions":[3E0,1.83E2,7.062133E-3,-5.7501127E-3,6.0496324E4,2.6594988E4,-5.4630768E-3,4.6502533E-3,9.6E1,-3.1445466E-3,3.524368E-3],"split_indices":[11,0,0,0,20,20,0,0,9,0,0],"split_type":[0,0,0,0,0,0,0,0,0,0,0],"sum_hessian":[1.75E2,1.47E2,2.8E1,3.7E1,1.1E2,8.4E1,2.6E1,3E1,5.4E1,2.8E1,2.6E1],"tree_param":{"num_deleted":"0","num_feature":"27","num_nodes":"11","size_leaf_vector":"1"}},{"base_weights":[-7.736624E-3,-2.8413508E-2,5.2943216E-3,-9.016116E-3,-7.979068E-3,-4.434702E-3,3.2208115E-2,7.0762034E-3,-2.9711237E-3],"categories":[],"categories_nodes":[],"categories_segments":[],"categories_sizes":[],"default_left":[0,0,0,0,0,0,0,0,0],"id":73,"left_children":[1,3,-1,5,-1,-1,7,-1,-1],"loss_changes":[2.789522E-1,2.047399E-1,0E0,2.2915122E-1,0E0,0E0,2.7599153E-1,0E0,0E0],"parents":[2147483647,0,0,1,1,3,3,6,6],"right_children":[2,4,-1,6,-1,-1,8,-1,-1],"split_conditions":[1.87E2,4.6E1,5.2943216E-3,1.4350333E5,-7.979068E-3,-4.434702E-3,1.2458762E10,7.0762034E-3,-2.9711237E-3],"split_indices":[10,10,0,16,0,0,17,0,0],"split_type":[0,0,0,0,0,0,0,0,0],"sum_hessian":[1.7E2,1.35E2,3.5E1,1.09E2,2.6E1,4.9E1,6E1,3.2E1,2.8E1],"tree_param":{"num_deleted":"0","num_feature":"27","num_nodes":"9","size_leaf_vector":"1"}},{"base_weights":[8.018351E-4,-1.9473065E-2,8.596677E-3,1.0165852E-5,-6.881242E-3,-3.9977953E-3,3.2144554E-2,6.475572E-3,1.5888656E-4],"categories":[],"categories_nodes":[],"categories_segments":[],"categories_sizes":[],"default_left":[0,0,0,0,0,0,0,0,0],"id":74,"left_children":[1,3,-1,5,-1,-1,7,-1,-1],"loss_changes":[3.9684868E-1,2.0559609E-1,0E0,2.0044647E-1,0E0,0E0,1.18610345E-1,0E0,0E0],"parents":[2147483647,0,0,1,1,3,3,6,6],"right_children":[2,4,-1,6,-1,-1,8,-1,-1],"split_conditions":[2.808435E10,1.7028E10,8.596677E-3,1.83E2,-6.881242E-3,-3.9977953E-3,2.4449752E4,6.475572E-3,1.5888656E-4],"split_indices":[17,17,0,0,0,0,5,0,0],"split_type":[0,0,0,0,0,0,0,0,0],"sum_hessian":[1.7E2,1.45E2,2.5E1,1.15E2,3E1,4.3E1,7.2E1,2.5E1,4.7E1],"tree_param":{"num_deleted":"0","num_feature":"27","num_nodes":"9","size_leaf_vector":"1"}},{"base_weights":[3.1361955E-3,-1.8837616E-2,8.808256E-3,-7.618391E-3,-1.6145858E-3,-6.165537E-3,2.2250712E-2,8.389469E-3,-9.96958E-3,-3.4695186E-3,4.3059015E-3],"categories":[],"categories_nodes":[],"categories_segments":[],"categories_sizes":[],"default_left":[0,0,0,0,0,0,0,0,0,0,0],"id":75,"left_children":[1,3,-1,-1,5,-1,7,-1,9,-1,-1],"loss_changes":[4.518183E-1,2.1501847E-1,0E0,0E0,2.4417324E-1,0E0,2.8406316E-1,0E0,1.8116447E-1,0E0,0E0],"parents":[2147483647,0,0,1,1,4,4,6,6,8,8],"right_children":[2,4,-1,-1,6,-1,8,-1,10,-1,-1],"split_conditions":[3E0,9.5E1,8.808256E-3,-7.618391E-3,2.003E3,-6.165537E-3,1.822575E7,8.389469E-3,1.8E2,-3.4695186E-3,4.3059015E-3],"split_indices":[11,0,0,0,1,0,15,0,10,0,0],"split_type":[0,0,0,0,0,0,0,0,0,0,0],"sum_hessian":[1.78E2,1.5E2,2.8E1,2.5E1,1.25E2,2.8E1,9.7E1,2.5E1,7.2E1,4.7E1,2.5E1],"tree_param":{"num_deleted":"0","num_feature":"27","num_nodes":"11","size_leaf_vector":"1"}},{"base_weights":[-1.3632785E-3,-2.0154059E-2,5.33658E-3,-4.5191094E-2,3.1975738E-3,-1.656541E-2,-9.204308E-3,-6.5271268E-3,3.396643E-3],"categories":[],"categories_nodes":[],"categories_segments":[],"categories_sizes":[],"default_left":[0,0,0,0,0,0,0,0,0],"id":76,"left_children":[1,3,-1,5,-1,7,-1,-1,-1],"loss_changes":[2.317242E-1,2.1415138E-1,0E0,2.1325226E-1,0E0,3.177472E-1,0E0,0E0,0E0],"parents":[2147483647,0,0,1,1,3,3,5,5],"right_children":[2,4,-1,6,-1,8,-1,-1,-1],"split_conditions":[9.01E2,1.6E1,5.33658E-3,2.457975E5,3.1975738E-3,1.83E2,-9.204308E-3,-6.5271268E-3,3.396643E-3],"split_indices":[0,7,0,16,0,0,0,0,0],"split_type":[0,0,0,0,0,0,0,0,0],"sum_hessian":[1.68E2,1.34E2,3.4E1,9.6E1,3.8E1,7.1E1,2.5E1,3.3E1,3.8E1],"tree_param":{"num_deleted":"0","num_feature":"27","num_nodes":"9","size_leaf_vector":"1"}},{"base_weights":[4.61791E-3,-1.2175873E-2,6.160864E-3,-3.1151202E-2,4.7624097E-3,-6.678627E-2,3.7221627E-3,1.2149247E-3,-1.0283507E-1,-1.1433589E-2,-4.1029695E-3],"categories":[],"categories_nodes":[],"categories_segments":[],"categories_sizes":[],"default_left":[0,0,0,0,0,0,0,0,0,0,0],"id":77,"left_children":[1,3,-1,5,-1,7,-1,-1,9,-1,-1],"loss_changes":[2.3405293E-1,2.1449892E-1,0E0,3.458681E-1,0E0,2.4996191E-1,0E0,0E0,1.3015276E-1,0E0,0E0],"parents":[2147483647,0,0,1,1,3,3,5,5,8,8],"right_children":[2,4,-1,6,-1,8,-1,-1,10,-1,-1],"split_conditions":[6E0,2.014E3,6.160864E-3,2.06E2,4.7624097E-3,2.002E3,3.7221627E-3,1.2149247E-3,1.121244E10,-1.1433589E-2,-4.1029695E-3],"split_indices":[12,1,0,8,0,1,0,0,17,0,0],"split_type":[0,0,0,0,0,0,0,0,0,0,0],"sum_hessian":[1.78E2,1.47E2,3.1E1,1.18E2,2.9E1,8.2E1,3.6E1,2.5E1,5.7E1,2.7E1,3E1],"tree_param":{"num_deleted":"0","num_feature":"27","num_nodes":"11","size_leaf_vector":"1"}},{"base_weights":[8.200111E-3,7.876877E-3,-1.29082035E-2,-3.4798983E-2,3.938062E-3,-3.0475424E-3,-9.392738E-3,-3.8581344E-3,1.998284E-3],"categories":[],"categories_nodes":[],"categories_segments":[],"categories_sizes":[],"default_left":[0,0,0,0,0,0,0,0,0],"id":78,"left_children":[1,-1,3,5,-1,7,-1,-1,-1],"loss_changes":[3.4267205E-1,0E0,1.9944328E-1,2.982566E-1,0E0,1.1344797E-1,0E0,0E0,0E0],"parents":[2147483647,0,0,2,2,3,3,5,5],"right_children":[2,-1,4,6,-1,8,-1,-1,-1],"split_conditions":[1.14E2,7.876877E-3,9.01E2,2.457975E5,3.938062E-3,2.2474928E4,-9.392738E-3,-3.8581344E-3,1.998284E-3],"split_indices":[0,0,0,16,0,5,0,0,0],"split_type":[0,0,0,0,0,0,0,0,0],"sum_hessian":[1.66E2,2.9E1,1.37E2,1.03E2,3.4E1,7.7E1,2.6E1,2.9E1,4.8E1],"tree_param":{"num_deleted":"0","num_feature":"27","num_nodes":"9","size_leaf_vector":"1"}},{"base_weights":[2.1885175E-3,5.7186443E-2,-2.2272374E-2,9.284524E-3,-3.9178965E-5,9.261499E-4,-8.364982E-3,-5.5716005E-3,2.9373044E-2,1.9644224E-4,4.830418E-3],"categories":[],"categories_nodes":[],"categories_segments":[],"categories_sizes":[],"default_left":[0,0,0,0,0,0,0,0,0,0,0],"id":79,"left_children":[1,3,5,-1,-1,7,-1,-1,9,-1,-1],"loss_changes":[2.4477267E-1,2.1531878E-1,2.6101363E-1,0E0,0E0,2.1828258E-1,0E0,0E0,6.9188096E-2,0E0,0E0],"parents":[2147483647,0,0,1,1,2,2,5,5,8,8],"right_children":[2,4,6,-1,-1,8,-1,-1,10,-1,-1],"split_conditions":[1E0,2.24E2,2.28365E5,9.284524E-3,-3.9178965E-5,1.3101E7,-8.364982E-3,-5.5716005E-3,1.64E2,1.9644224E-4,4.830418E-3],"split_indices":[2,0,16,0,0,15,0,0,9,0,0],"split_type":[0,0,0,0,0,0,0,0,0,0,0],"sum_hessian":[1.8E2,5.5E1,1.25E2,2.5E1,3E1,1E2,2.5E1,2.7E1,7.3E1,4.2E1,3.1E1],"tree_param":{"num_deleted":"0","num_feature":"27","num_nodes":"11","size_leaf_vector":"1"}}]},"name":"gbtree"},"learner_model_param":{"base_score":"1.3339255E-9","boost_from_average":"1","num_class":"0","num_feature":"27","num_target":"1"},"objective":{"name":"reg:squarederror","reg_loss_param":{"scale_pos_weight":"1"}}},"version":[2,1,1]}