{"learner":{"attributes":{"best_iteration":"31","best_score":"0.5506177041790168"},"feature_names":[],"feature_types":[],"gradient_booster":{"model":{"gbtree_model_param":{"num_parallel_tree":"1","num_trees":"82"},"iteration_indptr":[0,1,2,3,4,5,6,7,8,9,10,11,12,13,14,15,16,17,18,19,20,21,22,23,24,25,26,27,28,29,30,31,32,33,34,35,36,37,38,39,40,41,42,43,44,45,46,47,48,49,50,51,52,53,54,55,56,57,58,59,60,61,62,63,64,65,66,67,68,69,70,71,72,73,74,75,76,77,78,79,80,81,82],"tree_info":[0,0,0,0,0,0,0,0,0,0,0,0,0,0,0,0,0,0,0,0,0,0,0,0,0,0,0,0,0,0,0,0,0,0,0,0,0,0,0,0,0,0,0,0,0,0,0,0,0,0,0,0,0,0,0,0,0,0,0,0,0,0,0,0,0,0,0,0,0,0,0,0,0,0,0,0,0,0,0,0,0,0],"trees":[{"base_weights":[5.766614E-2,-4.755347E-1,7.607224E-1,8.434366E-3,-7.4419814E-1,4.333814E-2,1.3609658E-1,-1.07963204E-1,-4.2536255E-2],"categories":[],"categories_nodes":[],"categories_segments":[],"categories_sizes":[],"default_left":[0,0,0,0,0,0,0,0,0],"id":0,"left_children":[1,3,5,-1,7,-1,-1,-1,-1],"loss_changes":[6.521429E1,1.4954235E1,1.4146503E1,0E0,6.706299E0,0E0,0E0,0E0,0E0],"parents":[2147483647,0,0,1,1,2,2,4,4],"right_children":[2,4,6,-1,8,-1,-1,-1,-1],"split_conditions":[6.72E2,1E0,2.72525E7,8.434366E-3,3.16E2,4.333814E-2,1.3609658E-1,-1.07963204E-1,-4.2536255E-2],"split_indices":[0,2,15,0,0,0,0,0,0],"split_type":[0,0,0,0,0,0,0,0,0],"sum_hessian":[1.72E2,9.8E1,7.4E1,3.2E1,6.6E1,4.9E1,2.5E1,3.1E1,3.5E1],"tree_param":{"num_deleted":"0","num_feature":"17","num_nodes":"9","size_leaf_vector":"1"}},{"base_weights":[-1.3999163E-2,-5.483114E-1,3.7796316E-1,-7.761218E-2,-3.0644184E-2,5.116329E-2,7.364198E-2,-2.5984917E-2,3.4968693E-2],"categories":[],"categories_nodes":[],"categories_segments":[],"categories_sizes":[],"default_left":[0,0,0,0,0,0,0,0,0],"id":1,"left_children":[1,3,5,-1,-1,7,-1,-1,-1],"loss_changes":[3.8114117E1,4.0048943E0,1.2262395E1,0E0,0E0,5.290161E0,0E0,0E0,0E0],"parents":[2147483647,0,0,1,1,2,2,5,5],"right_children":[2,4,6,-1,-1,8,-1,-1,-1],"split_conditions":[1.88905E7,2.004E3,2E0,-7.761218E-2,-3.0644184E-2,1.06E2,7.364198E-2,-2.5984917E-2,3.4968693E-2],"split_indices":[15,1,3,0,0,10,0,0,0],"split_type":[0,0,0,0,0,0,0,0,0],"sum_hessian":[1.8E2,7.6E1,1.04E2,3.8E1,3.8E1,5.5E1,4.9E1,2.7E1,2.8E1],"tree_param":{"num_deleted":"0","num_feature":"17","num_nodes":"9","size_leaf_vector":"1"}},{"base_weights":[6.9503696E-3,-5.2412665E-1,7.887172E-1,-7.988741E-2,-3.4550887E-1,4.1564465E-2,1.4327823E-1,-4.715055E-2,-1.3353313E-2],"categories":[],"categories_nodes":[],"categories_segments":[],"categories_sizes":[],"default_left":[0,0,0,0,0,0,0,0,0],"id":2,"left_children":[1,3,5,-1,7,-1,-1,-1,-1],"loss_changes":[7.3899956E1,4.925907E0,1.670485E1,0E0,1.6997814E0,0E0,0E0,0E0,0E0],"parents":[2147483647,0,0,1,1,2,2,4,4],"right_children":[2,4,6,-1,8,-1,-1,-1,-1],"split_conditions":[4.3681914E4,1.0833327E4,7.0172445E4,-7.988741E-2,3.185408E4,4.1564465E-2,1.4327823E-1,-4.715055E-2,-1.3353313E-2],"split_indices":[5,5,5,0,5,0,0,0,0],"split_type":[0,0,0,0,0,0,0,0,0],"sum_hessian":[1.76E2,1.05E2,7.1E1,4E1,6.5E1,4.6E1,2.5E1,4E1,2.5E1],"tree_param":{"num_deleted":"0","num_feature":"17","num_nodes":"9","size_leaf_vector":"1"}},{"base_weights":[1.1330719E-2,-4.4393104E-1,6.571571E-1,-1.463719E-2,-5.666062E-1,3.380615E-2,1.1138954E-1,-8.4480345E-2,-3.2208636E-2],"categories":[],"categories_nodes":[],"categories_segments":[],"categories_sizes":[],"default_left":[0,0,0,0,0,0,0,0,0],"id":3,"left_children":[1,3,5,-1,7,-1,-1,-1,-1],"loss_changes":[5.26273E1,3.7498913E0,1.0408432E1,0E0,4.761732E0,0E0,0E0,0E0,0E0],"parents":[2147483647,0,0,1,1,2,2,4,4],"right_children":[2,4,6,-1,8,-1,-1,-1,-1],"split_conditions":[4.3681914E4,1E0,6.7945336E4,-1.463719E-2,3.56E2,3.380615E-2,1.1138954E-1,-8.4480345E-2,-3.2208636E-2],"split_indices":[5,2,5,0,0,0,0,0,0],"split_type":[0,0,0,0,0,0,0,0,0],"sum_hessian":[1.77E2,1.04E2,7.3E1,3.1E1,7.3E1,4.4E1,2.9E1,3.3E1,4E1],"tree_param":{"num_deleted":"0","num_feature":"17","num_nodes":"9","size_leaf_vector":"1"}},{"base_weights":[1.1369808E-2,-3.3629185E-1,6.316372E-1,6.249064E-4,-4.9051335E-1,2.6640017E-2,8.682978E-2,-7.5317316E-2,-2.2229612E-2],"categories":[],"categories_nodes":[],"categories_segments":[],"categories_sizes":[],"default_left":[0,0,0,0,0,0,0,0,0],"id":4,"left_children":[1,3,5,-1,7,-1,-1,-1,-1],"loss_changes":[3.9028187E1,6.1310186E0,5.387104E0,0E0,5.468563E0,0E0,0E0,0E0,0E0],"parents":[2147483647,0,0,1,1,2,2,4,4],"right_children":[2,4,6,-1,8,-1,-1,-1,-1],"split_conditions":[7.28E2,1E0,1.7924667E5,6.249064E-4,3.84E2,2.6640017E-2,8.682978E-2,-7.5317316E-2,-2.2229612E-2],"split_indices":[0,2,16,0,0,0,0,0,0],"split_type":[0,0,0,0,0,0,0,0,0],"sum_hessian":[1.79E2,1.15E2,6.4E1,3.6E1,7.9E1,2.6E1,3.8E1,3.9E1,4E1],"tree_param":{"num_deleted":"0","num_feature":"17","num_nodes":"9","size_leaf_vector":"1"}},{"base_weights":[2.2506325E-3,-3.634604E-1,4.208084E-1,-5.172512E-1,-4.452062E-3,2.4834499E-3,6.3300115E-1,-6.604305E-2,-3.0957673E-2,3.87362E-2,8.4726036E-2],"categories":[],"categories_nodes":[],"categories_segments":[],"categories_sizes":[],"default_left":[0,0,0,0,0,0,0,0,0,0,0],"id":5,"left_children":[1,3,5,7,-1,-1,9,-1,-1,-1,-1],"loss_changes":[2.7246548E1,4.6367226E0,6.958171E0,1.6985664E0,0E0,0E0,2.5138493E0,0E0,0E0,0E0,0E0],"parents":[2147483647,0,0,1,1,2,2,3,3,6,6],"right_children":[2,4,6,8,-1,-1,10,-1,-1,-1,-1],"split_conditions":[5.58E2,2E0,2.008E3,2.91E2,-4.452062E-3,2.4834499E-3,9.47E2,-6.604305E-2,-3.0957673E-2,3.87362E-2,8.4726036E-2],"split_indices":[0,3,1,0,0,0,0,0,0,0,0],"split_type":[0,0,0,0,0,0,0,0,0,0,0],"sum_hessian":[1.76E2,9.4E1,8.2E1,6.3E1,3.1E1,2.9E1,5.3E1,3.6E1,2.7E1,2.6E1,2.7E1],"tree_param":{"num_deleted":"0","num_feature":"17","num_nodes":"11","size_leaf_vector":"1"}},{"base_weights":[-9.820107E-3,-3.7630576E-1,4.6485773E-1,-5.48034E-2,-2.4476983E-1,2.0283418E-2,8.7733425E-2,-3.5326105E-2,-9.348248E-3],"categories":[],"categories_nodes":[],"categories_segments":[],"categories_sizes":[],"default_left":[0,0,0,0,0,0,0,0,0],"id":6,"left_children":[1,3,5,-1,7,-1,-1,-1,-1],"loss_changes":[3.1140274E1,2.1472883E0,8.252174E0,0E0,9.3536377E-1,0E0,0E0,0E0,0E0],"parents":[2147483647,0,0,1,1,2,2,4,4],"right_children":[2,4,6,-1,8,-1,-1,-1,-1],"split_conditions":[4.139261E4,1.0833327E4,6.7945336E4,-5.48034E-2,2.2204E7,2.0283418E-2,8.7733425E-2,-3.5326105E-2,-9.348248E-3],"split_indices":[5,5,5,0,15,0,0,0,0],"split_type":[0,0,0,0,0,0,0,0,0],"sum_hessian":[1.77E2,1E2,7.7E1,4.2E1,5.8E1,4.8E1,2.9E1,3.3E1,2.5E1],"tree_param":{"num_deleted":"0","num_feature":"17","num_nodes":"9","size_leaf_vector":"1"}},{"base_weights":[-3.63351E-3,-1.4003448E-1,6.388883E-2,-5.1315516E-1,9.1117084E-2,-6.724805E-2,-3.0345364E-2,-4.838977E-4,3.2013815E-2,-1.6634423E-2,1.0470763E-2],"categories":[],"categories_nodes":[],"categories_segments":[],"categories_sizes":[],"default_left":[0,0,0,0,0,0,0,0,0,0,0],"id":7,"left_children":[1,3,-1,5,7,-1,-1,9,-1,-1,-1],"loss_changes":[1.5514214E1,1.2638882E1,0E0,1.6669359E0,1.9092033E0,0E0,0E0,1.1689262E0,0E0,0E0,0E0],"parents":[2147483647,0,0,1,1,3,3,4,4,7,7],"right_children":[2,4,-1,6,8,-1,-1,10,-1,-1,-1],"split_conditions":[6E0,1.7251E7,6.388883E-2,1.3333E7,2.16E2,-6.724805E-2,-3.0345364E-2,2.403175E7,3.2013815E-2,-1.6634423E-2,1.0470763E-2],"split_indices":[12,15,0,15,8,0,0,15,0,0,0],"split_type":[0,0,0,0,0,0,0,0,0,0,0],"sum_hessian":[1.75E2,1.45E2,3E1,5.5E1,9E1,3E1,2.5E1,6.5E1,2.5E1,2.5E1,4E1],"tree_param":{"num_deleted":"0","num_feature":"17","num_nodes":"11","size_leaf_vector":"1"}},{"base_weights":[1.3577561E-2,-2.129427E-1,4.2459008E-1,-3.8064215E-1,3.148467E-2,2.1023296E-2,7.380399E-2,-5.6050576E-2,-2.0416046E-2],"categories":[],"categories_nodes":[],"categories_segments":[],"categories_sizes":[],"default_left":[0,0,0,0,0,0,0,0,0],"id":8,"left_children":[1,3,5,7,-1,-1,-1,-1,-1],"loss_changes":[1.7035099E1,1.0564024E1,4.212203E0,2.742403E0,0E0,0E0,0E0,0E0,0E0],"parents":[2147483647,0,0,1,1,2,2,3,3],"right_children":[2,4,6,8,-1,-1,-1,-1,-1],"split_conditions":[7.28E2,1E0,2.72525E7,3.84E2,3.148467E-2,2.1023296E-2,7.380399E-2,-5.6050576E-2,-2.0416046E-2],"split_indices":[0,12,15,0,0,0,0,0,0],"split_type":[0,0,0,0,0,0,0,0,0],"sum_hessian":[1.81E2,1.17E2,6.4E1,8.9E1,2.8E1,3.9E1,2.5E1,4.3E1,4.6E1],"tree_param":{"num_deleted":"0","num_feature":"17","num_nodes":"9","size_leaf_vector":"1"}},{"base_weights":[1.5304011E-2,-9.90584E-2,5.1734176E-2,-3.4882036E-1,8.646899E-2,-4.4550154E-2,-2.3084374E-2,-4.125843E-3,1.4769529E-1,8.188444E-3,2.2301264E-2],"categories":[],"categories_nodes":[],"categories_segments":[],"categories_sizes":[],"default_left":[0,0,0,0,0,0,0,0,0,0,0],"id":9,"left_children":[1,3,-1,5,7,-1,-1,-1,9,-1,-1],"loss_changes":[1.0213569E1,6.7491264E0,0E0,6.0433865E-1,6.629969E-1,0E0,0E0,0E0,2.6427042E-1,0E0,0E0],"parents":[2147483647,0,0,1,1,3,3,4,4,8,8],"right_children":[2,4,-1,6,8,-1,-1,-1,10,-1,-1],"split_conditions":[4E0,1.7251E7,5.1734176E-2,2.004E3,2.008E3,-4.4550154E-2,-2.3084374E-2,-4.125843E-3,1.02E2,8.188444E-3,2.2301264E-2],"split_indices":[11,15,0,1,1,0,0,0,10,0,0],"split_type":[0,0,0,0,0,0,0,0,0,0,0],"sum_hessian":[1.76E2,1.44E2,3.2E1,6.1E1,8.3E1,3.2E1,2.9E1,2.7E1,5.6E1,3.1E1,2.5E1],"tree_param":{"num_deleted":"0","num_feature":"17","num_nodes":"11","size_leaf_vector":"1"}},{"base_weights":[7.2494526E-3,-1.3215253E-1,8.2193606E-2,-3.3862236E-1,1.0816689E-1,-2.7667874E-1,-4.613979E-2,-2.559907E-4,2.5112275E-2,-4.1231543E-2,-1.10700345E-2],"categories":[],"categories_nodes":[],"categories_segments":[],"categories_sizes":[],"default_left":[0,0,0,0,0,0,0,0,0,0,0],"id":10,"left_children":[1,3,-1,5,7,9,-1,-1,-1,-1,-1],"loss_changes":[2.0210321E1,7.5786715E0,0E0,4.95965E-1,1.124505E0,1.2375841E0,0E0,0E0,0E0,0E0,0E0],"parents":[2147483647,0,0,1,1,3,3,4,4,5,5],"right_children":[2,4,-1,6,8,10,-1,-1,-1,-1,-1],"split_conditions":[7.01957E4,3.6279562E4,8.2193606E-2,2.011E3,2.011E3,2.003E3,-4.613979E-2,-2.559907E-4,2.5112275E-2,-4.1231543E-2,-1.10700345E-2],"split_indices":[5,5,0,1,1,1,0,0,0,0,0],"split_type":[0,0,0,0,0,0,0,0,0,0,0],"sum_hessian":[1.76E2,1.51E2,2.5E1,8.1E1,7E1,5.6E1,2.5E1,4E1,3E1,3E1,2.6E1],"tree_param":{"num_deleted":"0","num_feature":"17","num_nodes":"11","size_leaf_vector":"1"}},{"base_weights":[-1.3664921E-2,-3.3140358E-1,2.9724064E-1,-1.6854309E-2,-3.9594057E-1,1.22436665E-1,7.295415E-2,-5.4362606E-2,-2.7007574E-2,6.245504E-3,2.0676365E-2],"categories":[],"categories_nodes":[],"categories_segments":[],"categories_sizes":[],"default_left":[0,0,0,0,0,0,0,0,0,0,0],"id":11,"left_children":[1,3,5,-1,7,9,-1,-1,-1,-1,-1],"loss_changes":[1.778133E1,8.6870384E-1,6.7873564E0,0E0,1.02425E0,3.2091922E-1,0E0,0E0,0E0,0E0,0E0],"parents":[2147483647,0,0,1,1,2,2,4,4,5,5],"right_children":[2,4,6,-1,8,10,-1,-1,-1,-1,-1],"split_conditions":[3.6279562E4,1E0,7.182163E4,-1.6854309E-2,1.0833327E4,2E0,7.295415E-2,-5.4362606E-2,-2.7007574E-2,6.245504E-3,2.0676365E-2],"split_indices":[5,2,5,0,5,3,0,0,0,0,0],"split_type":[0,0,0,0,0,0,0,0,0,0,0],"sum_hessian":[1.78E2,8.8E1,9E1,2.6E1,6.2E1,6.5E1,2.5E1,2.7E1,3.5E1,3.9E1,2.6E1],"tree_param":{"num_deleted":"0","num_feature":"17","num_nodes":"11","size_leaf_vector":"1"}},{"base_weights":[1.320913E-2,-1.4881407E-1,2.7272853E-1,-2.2775516E-1,1.1195003E-2,5.644952E-2,6.682133E-3,-2.8195572E-1,-9.600178E-3,-2.1396171E-2,-3.364677E-2],"categories":[],"categories_nodes":[],"categories_segments":[],"categories_sizes":[],"default_left":[0,0,0,0,0,0,0,0,0,0,0],"id":12,"left_children":[1,3,5,7,-1,-1,-1,9,-1,-1,-1],"loss_changes":[7.441062E0,2.2692623E0,4.0475063E0,5.727849E-1,0E0,0E0,0E0,1.466918E-1,0E0,0E0,0E0],"parents":[2147483647,0,0,1,1,2,2,3,3,7,7],"right_children":[2,4,6,8,-1,-1,-1,10,-1,-1,-1],"split_conditions":[2E0,1.66E2,1E0,1.06E2,1.1195003E-2,5.644952E-2,6.682133E-3,2.007E3,-9.600178E-3,-2.1396171E-2,-3.364677E-2],"split_indices":[3,9,2,8,0,0,0,1,0,0,0],"split_type":[0,0,0,0,0,0,0,0,0,0,0],"sum_hessian":[1.75E2,1.08E2,6.7E1,8.3E1,2.5E1,2.7E1,4E1,5.8E1,2.5E1,2.8E1,3E1],"tree_param":{"num_deleted":"0","num_feature":"17","num_nodes":"11","size_leaf_vector":"1"}},{"base_weights":[-3.481872E-2,-1.1962379E-1,4.7208913E-2,-1.9234382E-1,2.4857728E-2,-2.8430134E-1,3.2142747E-5,-3.7788343E-2,-1.7757861E-2],"categories":[],"categories_nodes":[],"categories_segments":[],"categories_sizes":[],"default_left":[0,0,0,0,0,0,0,0,0],"id":13,"left_children":[1,3,-1,5,-1,7,-1,-1,-1],"loss_changes":[7.7943764E0,4.1980286E0,0E0,2.3033037E0,0E0,8.117814E-1,0E0,0E0,0E0],"parents":[2147483647,0,0,1,1,3,3,5,5],"right_children":[2,4,-1,6,-1,8,-1,-1,-1],"split_conditions":[6.7E1,3.51E2,4.7208913E-2,1.65E2,2.4857728E-2,1.4350333E5,3.2142747E-5,-3.7788343E-2,-1.7757861E-2],"split_indices":[12,10,0,8,0,16,0,0,0],"split_type":[0,0,0,0,0,0,0,0,0],"sum_hessian":[1.79E2,1.54E2,2.5E1,1.29E2,2.5E1,8.7E1,4.2E1,4.5E1,4.2E1],"tree_param":{"num_deleted":"0","num_feature":"17","num_nodes":"9","size_leaf_vector":"1"}},{"base_weights":[-9.130251E-3,-1.9086781E-1,2.1039595E-1,3.8626704E-3,-3.0105364E-1,3.3039816E-3,4.050953E-2,-4.1201457E-2,-2.2519559E-2],"categories":[],"categories_nodes":[],"categories_segments":[],"categories_sizes":[],"default_left":[0,0,0,0,0,0,0,0,0],"id":14,"left_children":[1,3,5,-1,7,-1,-1,-1,-1],"loss_changes":[7.2214656E0,2.5150466E0,2.8181672E0,0E0,4.7117376E-1,0E0,0E0,0E0,0E0],"parents":[2147483647,0,0,1,1,2,2,4,4],"right_children":[2,4,6,-1,8,-1,-1,-1,-1],"split_conditions":[5.82E2,1E0,2E0,3.8626704E-3,2.16E2,3.3039816E-3,4.050953E-2,-4.1201457E-2,-2.2519559E-2],"split_indices":[0,2,3,0,0,0,0,0,0],"split_type":[0,0,0,0,0,0,0,0,0],"sum_hessian":[1.79E2,9.8E1,8.1E1,3.2E1,6.6E1,4.3E1,3.8E1,2.5E1,4.1E1],"tree_param":{"num_deleted":"0","num_feature":"17","num_nodes":"9","size_leaf_vector":"1"}},{"base_weights":[-2.9101153E-3,-1.1505516E-1,5.3258594E-2,-2.4387452E-1,5.3189177E-2,-5.659697E-3,-3.268507E-1,-7.3261827E-4,1.4424399E-2,-3.968811E-2,-2.6177073E-2],"categories":[],"categories_nodes":[],"categories_segments":[],"categories_sizes":[],"default_left":[0,0,0,0,0,0,0,0,0,0,0],"id":15,"left_children":[1,3,-1,5,7,-1,9,-1,-1,-1,-1],"loss_changes":[1.0750751E1,3.2205946E0,0E0,1.2868261E0,3.5922068E-1,0E0,1.6044712E-1,0E0,0E0,0E0,0E0],"parents":[2147483647,0,0,1,1,3,3,4,4,6,6],"right_children":[2,4,-1,6,8,-1,10,-1,-1,-1,-1],"split_conditions":[6.7945336E4,3.4858906E4,5.3258594E-2,1E0,2.011E3,-5.659697E-3,1.0833327E4,-7.3261827E-4,1.4424399E-2,-3.968811E-2,-2.6177073E-2],"split_indices":[5,5,0,2,1,0,5,0,0,0,0],"split_type":[0,0,0,0,0,0,0,0,0,0,0],"sum_hessian":[1.77E2,1.47E2,3E1,8.3E1,6.4E1,2.6E1,5.7E1,3.9E1,2.5E1,2.5E1,3.2E1],"tree_param":{"num_deleted":"0","num_feature":"17","num_nodes":"11","size_leaf_vector":"1"}},{"base_weights":[-9.952617E-3,-8.661027E-2,4.41531E-2,-1.6757403E-1,2.6535798E-2,-2.744275E-1,-1.2290755E-2,-3.8736265E-2,-2.0890215E-2,-4.585765E-3,2.303989E-3],"categories":[],"categories_nodes":[],"categories_segments":[],"categories_sizes":[],"default_left":[0,0,0,0,0,0,0,0,0,0,0],"id":16,"left_children":[1,3,-1,5,-1,7,9,-1,-1,-1,-1],"loss_changes":[6.198764E0,4.4044576E0,0E0,2.0706968E0,0E0,4.6668768E-1,6.2725425E-2,0E0,0E0,0E0,0E0],"parents":[2147483647,0,0,1,1,3,3,5,5,6,6],"right_children":[2,4,-1,6,-1,8,10,-1,-1,-1,-1],"split_conditions":[9.92E2,1E0,4.41531E-2,5.58E2,2.6535798E-2,1.54E2,2E0,-3.8736265E-2,-2.0890215E-2,-4.585765E-3,2.303989E-3],"split_indices":[0,12,0,0,0,0,9,0,0,0,0],"split_type":[0,0,0,0,0,0,0,0,0,0,0],"sum_hessian":[1.77E2,1.52E2,2.5E1,1.24E2,2.8E1,7.3E1,5.1E1,2.5E1,4.8E1,2.6E1,2.5E1],"tree_param":{"num_deleted":"0","num_feature":"17","num_nodes":"11","size_leaf_vector":"1"}},{"base_weights":[-9.511722E-3,-1.22641705E-1,4.3035083E-2,-3.5029948E-2,-6.0375806E-2,-1.6525844E-1,6.0086317E-2,-3.860861E-3,-3.196502E-2,1.2671426E-2,-8.852631E-4],"categories":[],"categories_nodes":[],"categories_segments":[],"categories_sizes":[],"default_left":[0,0,0,0,0,0,0,0,0,0,0],"id":17,"left_children":[1,3,-1,-1,5,7,9,-1,-1,-1,-1],"loss_changes":[8.512257E0,1.9066935E0,0E0,0E0,1.3744433E0,1.1217725E0,2.35378E-1,0E0,0E0,0E0,0E0],"parents":[2147483647,0,0,1,1,4,4,5,5,6,6],"right_children":[2,4,-1,-1,6,8,10,-1,-1,-1,-1],"split_conditions":[6.5291574E4,2.001E3,4.3035083E-2,-3.5029948E-2,3.225781E4,2.011E3,1.38E2,-3.860861E-3,-3.196502E-2,1.2671426E-2,-8.852631E-4],"split_indices":[5,1,0,0,5,1,10,0,0,0,0],"split_type":[0,0,0,0,0,0,0,0,0,0,0],"sum_hessian":[1.69E2,1.35E2,3.4E1,2.8E1,1.07E2,5.7E1,5E1,3.2E1,2.5E1,2.5E1,2.5E1],"tree_param":{"num_deleted":"0","num_feature":"17","num_nodes":"11","size_leaf_vector":"1"}},{"base_weights":[2.1282516E-2,-6.812412E-2,3.8596444E-2,-1.3327523E-1,2.1672044E-2,-1.9656225E-1,9.578945E-3,-3.2743797E-2,-1.4004397E-1,-7.7211754E-3,-2.225587E-2],"categories":[],"categories_nodes":[],"categories_segments":[],"categories_sizes":[],"default_left":[0,0,0,0,0,0,0,0,0,0,0],"id":18,"left_children":[1,3,-1,5,-1,7,-1,-1,9,-1,-1],"loss_changes":[5.7973757E0,2.6826684E0,0E0,1.7149568E0,0E0,6.346562E-1,0E0,0E0,3.2499838E-1,0E0,0E0],"parents":[2147483647,0,0,1,1,3,3,5,5,8,8],"right_children":[2,4,-1,6,-1,8,-1,-1,10,-1,-1],"split_conditions":[1E0,3.51E2,3.8596444E-2,3.35E2,2.1672044E-2,1.3145E7,9.578945E-3,-3.2743797E-2,1.7597667E5,-7.7211754E-3,-2.225587E-2],"split_indices":[12,10,0,7,0,15,0,0,16,0,0],"split_type":[0,0,0,0,0,0,0,0,0,0,0],"sum_hessian":[1.76E2,1.42E2,3.4E1,1.16E2,2.6E1,9.1E1,2.5E1,2.6E1,6.5E1,3.8E1,2.7E1],"tree_param":{"num_deleted":"0","num_feature":"17","num_nodes":"11","size_leaf_vector":"1"}},{"base_weights":[-1.355944E-3,-7.391554E-2,4.3963533E-2,-1.7456391E-1,5.1872797E-2,-3.2036863E-3,-2.3061375E-1,-3.1129986E-3,1.0052173E-2,-3.0230645E-2,-1.5627777E-2],"categories":[],"categories_nodes":[],"categories_segments":[],"categories_sizes":[],"default_left":[0,0,0,0,0,0,0,0,0,0,0],"id":19,"left_children":[1,3,-1,5,7,-1,9,-1,-1,-1,-1],"loss_changes":[5.8881574E0,2.0093968E0,0E0,6.956103E-1,2.8982705E-1,0E0,2.8850508E-1,0E0,0E0,0E0,0E0],"parents":[2147483647,0,0,1,1,3,3,4,4,6,6],"right_children":[2,4,-1,6,8,-1,10,-1,-1,-1,-1],"split_conditions":[7.01957E4,3.6279562E4,4.3963533E-2,9.2466664E4,2.008E3,-3.2036863E-3,1.88905E7,-3.1129986E-3,1.0052173E-2,-3.0230645E-2,-1.5627777E-2],"split_indices":[5,5,0,16,1,0,15,0,0,0,0],"split_type":[0,0,0,0,0,0,0,0,0,0,0],"sum_hessian":[1.82E2,1.57E2,2.5E1,8.7E1,7E1,2.5E1,6.2E1,2.6E1,4.4E1,3E1,3.2E1],"tree_param":{"num_deleted":"0","num_feature":"17","num_nodes":"11","size_leaf_vector":"1"}},{"base_weights":[-3.5811367E-4,-7.977874E-2,3.4862217E-2,-2.4007088E-2,-5.2465657E-3,5.362503E-2,-1.6640402E-2,2.634036E-4,1.3730188E-2],"categories":[],"categories_nodes":[],"categories_segments":[],"categories_sizes":[],"default_left":[0,0,0,0,0,0,0,0,0],"id":20,"left_children":[1,3,-1,-1,5,7,-1,-1,-1],"loss_changes":[4.933585E0,1.7310438E0,0E0,0E0,9.57683E-1,3.1537896E-1,0E0,0E0,0E0],"parents":[2147483647,0,0,1,1,4,4,5,5],"right_children":[2,4,-1,-1,6,8,-1,-1,-1],"split_conditions":[6.5291574E4,2.004E3,3.4862217E-2,-2.4007088E-2,2.015E3,4.08079E4,-1.6640402E-2,2.634036E-4,1.3730188E-2],"split_indices":[5,1,0,0,1,5,0,0,0],"split_type":[0,0,0,0,0,0,0,0,0],"sum_hessian":[1.76E2,1.44E2,3.2E1,4.5E1,9.9E1,7.3E1,2.6E1,4.6E1,2.7E1],"tree_param":{"num_deleted":"0","num_feature":"17","num_nodes":"9","size_leaf_vector":"1"}},{"base_weights":[9.013767E-3,-5.8987066E-2,4.2190295E-2,-1.18675046E-1,8.892009E-3,-1.5233542E-1,-4.244771E-3,-3.1145617E-2,-6.67855E-2,-8.116722E-3,-4.9281972E-3],"categories":[],"categories_nodes":[],"categories_segments":[],"categories_sizes":[],"default_left":[0,0,0,0,0,0,0,0,0,0,0],"id":21,"left_children":[1,3,-1,5,-1,7,-1,-1,9,-1,-1],"loss_changes":[5.1629424E0,1.4054207E0,0E0,2.8347373E-1,0E0,1.040995E0,0E0,0E0,9.089917E-3,0E0,0E0],"parents":[2147483647,0,0,1,1,3,3,5,5,8,8],"right_children":[2,4,-1,6,-1,8,-1,-1,10,-1,-1],"split_conditions":[7.182163E4,4.7058926E4,4.2190295E-2,2E0,8.892009E-3,7.50065E3,-4.244771E-3,-3.1145617E-2,1.6E1,-8.116722E-3,-4.9281972E-3],"split_indices":[5,5,0,3,0,5,0,0,7,0,0],"split_type":[0,0,0,0,0,0,0,0,0,0,0],"sum_hessian":[1.82E2,1.57E2,2.5E1,1.12E2,4.5E1,7.7E1,3.5E1,2.6E1,5.1E1,2.6E1,2.5E1],"tree_param":{"num_deleted":"0","num_feature":"17","num_nodes":"11","size_leaf_vector":"1"}},{"base_weights":[8.561341E-3,-5.6416687E-2,3.466E-2,-2.1935778E-2,2.4009502E-2,-7.774805E-2,1.9038064E-2,-1.3380522E-3,-1.2143687E-2],"categories":[],"categories_nodes":[],"categories_segments":[],"categories_sizes":[],"default_left":[0,0,0,0,0,0,0,0,0],"id":22,"left_children":[1,3,-1,-1,5,7,-1,-1,-1],"loss_changes":[3.951304E0,1.984081E0,0E0,0E0,1.7416127E0,1.7835218E-1,0E0,0E0,0E0],"parents":[2147483647,0,0,1,1,4,4,5,5],"right_children":[2,4,-1,-1,6,8,-1,-1,-1],"split_conditions":[6E0,2.004E3,3.466E-2,-2.1935778E-2,8.53E2,2.01E3,1.9038064E-2,-1.3380522E-3,-1.2143687E-2],"split_indices":[12,1,0,0,0,1,0,0,0],"split_type":[0,0,0,0,0,0,0,0,0],"sum_hessian":[1.78E2,1.5E2,2.8E1,4.9E1,1.01E2,6.3E1,3.8E1,2.6E1,3.7E1],"tree_param":{"num_deleted":"0","num_feature":"17","num_nodes":"9","size_leaf_vector":"1"}},{"base_weights":[-6.7374776E-3,-6.723372E-2,2.3716846E-2,-2.338071E-2,-2.2015555E-2,-8.1726804E-2,9.184721E-3,-6.3457724E-4,-1.9847855E-2],"categories":[],"categories_nodes":[],"categories_segments":[],"categories_sizes":[],"default_left":[0,0,0,0,0,0,0,0,0],"id":23,"left_children":[1,3,-1,-1,5,7,-1,-1,-1],"loss_changes":[2.5981395E0,1.0568848E0,0E0,0E0,7.689819E-1,6.500046E-1,0E0,0E0,0E0],"parents":[2147483647,0,0,1,1,4,4,5,5],"right_children":[2,4,-1,-1,6,8,-1,-1,-1],"split_conditions":[6.5291574E4,2.001E3,2.3716846E-2,-2.338071E-2,4.139261E4,2.013E3,9.184721E-3,-6.3457724E-4,-1.9847855E-2],"split_indices":[5,1,0,0,5,1,0,0,0],"split_type":[0,0,0,0,0,0,0,0,0],"sum_hessian":[1.74E2,1.4E2,3.4E1,2.9E1,1.11E2,7.3E1,3.8E1,4.5E1,2.8E1],"tree_param":{"num_deleted":"0","num_feature":"17","num_nodes":"9","size_leaf_vector":"1"}},{"base_weights":[-9.463216E-3,-5.5517446E-2,2.2265851E-2,-9.909689E-2,4.0061288E-3,-2.1197865E-2,-1.6049443E-2,-6.881942E-3,5.295051E-3],"categories":[],"categories_nodes":[],"categories_segments":[],"categories_sizes":[],"default_left":[0,0,0,0,0,0,0,0,0],"id":24,"left_children":[1,3,-1,5,-1,-1,7,-1,-1],"loss_changes":[1.9365952E0,6.329254E-1,0E0,9.7155E-1,0E0,0E0,2.2575268E-1,0E0,0E0],"parents":[2147483647,0,0,1,1,3,3,6,6],"right_children":[2,4,-1,6,-1,-1,8,-1,-1],"split_conditions":[9.76E2,2E0,2.2265851E-2,3.12E2,4.0061288E-3,-2.1197865E-2,7.8E1,-6.881942E-3,5.295051E-3],"split_indices":[0,3,0,0,0,0,9,0,0],"split_type":[0,0,0,0,0,0,0,0,0],"sum_hessian":[1.79E2,1.5E2,2.9E1,1.03E2,4.7E1,4.3E1,6E1,3.4E1,2.6E1],"tree_param":{"num_deleted":"0","num_feature":"17","num_nodes":"9","size_leaf_vector":"1"}},{"base_weights":[-1.177359E-2,-6.837674E-2,2.6188899E-2,-1.881903E-2,4.560704E-3,-1.0281977E-2,1.0042069E-2],"categories":[],"categories_nodes":[],"categories_segments":[],"categories_sizes":[],"default_left":[0,0,0,0,0,0,0],"id":25,"left_children":[1,3,-1,-1,5,-1,-1],"loss_changes":[2.6202548E0,1.2243036E0,0E0,0E0,9.161524E-1,0E0,0E0],"parents":[2147483647,0,0,1,1,4,4],"right_children":[2,4,-1,-1,6,-1,-1],"split_conditions":[4E0,1.5126E7,2.6188899E-2,-1.881903E-2,6.19E2,-1.0281977E-2,1.0042069E-2],"split_indices":[11,15,0,0,0,0,0],"split_type":[0,0,0,0,0,0,0],"sum_hessian":[1.67E2,1.39E2,2.8E1,5.2E1,8.7E1,4.1E1,4.6E1],"tree_param":{"num_deleted":"0","num_feature":"17","num_nodes":"7","size_leaf_vector":"1"}},{"base_weights":[7.8761106E-4,-4.987377E-2,2.5756124E-2,-1.3948348E-2,-5.0177122E-3,-1.0806286E-2,7.938318E-2,1.5328228E-2,2.6489783E-4],"categories":[],"categories_nodes":[],"categories_segments":[],"categories_sizes":[],"default_left":[0,0,0,0,0,0,0,0,0],"id":26,"left_children":[1,3,-1,-1,5,-1,7,-1,-1],"loss_changes":[2.2893343E0,5.901722E-1,0E0,0E0,8.695915E-1,0E0,3.114762E-1,0E0,0E0],"parents":[2147483647,0,0,1,1,4,4,6,6],"right_children":[2,4,-1,-1,6,-1,8,-1,-1],"split_conditions":[6.7E1,1.5126E7,2.5756124E-2,-1.3948348E-2,6.21E2,-1.0806286E-2,2.2631E7,1.5328228E-2,2.6489783E-4],"split_indices":[12,15,0,0,0,0,15,0,0],"split_type":[0,0,0,0,0,0,0,0,0],"sum_hessian":[1.74E2,1.46E2,2.8E1,4.8E1,9.8E1,4.4E1,5.4E1,2.7E1,2.7E1],"tree_param":{"num_deleted":"0","num_feature":"17","num_nodes":"9","size_leaf_vector":"1"}},{"base_weights":[-5.915396E-4,-5.069622E-2,2.9620508E-2,-9.3822055E-2,3.824071E-2,-1.754612E-2,-2.3427319E-2,8.606537E-3,-1.1054748E-3,-7.5097675E-3,1.9286949E-3],"categories":[],"categories_nodes":[],"categories_segments":[],"categories_sizes":[],"default_left":[0,0,0,0,0,0,0,0,0,0,0],"id":27,"left_children":[1,3,-1,5,7,-1,9,-1,-1,-1,-1],"loss_changes":[2.6769078E0,5.9425163E-1,0E0,5.9357375E-1,1.2118588E-1,0E0,1.2725091E-1,0E0,0E0,0E0,0E0],"parents":[2147483647,0,0,1,1,3,3,4,4,6,6],"right_children":[2,4,-1,6,8,-1,10,-1,-1,-1,-1],"split_conditions":[7.182163E4,2E0,2.9620508E-2,2.8429232E4,1.8226E5,-1.754612E-2,1.9377714E7,8.606537E-3,-1.1054748E-3,-7.5097675E-3,1.9286949E-3],"split_indices":[5,3,0,5,16,0,15,0,0,0,0],"split_type":[0,0,0,0,0,0,0,0,0,0,0],"sum_hessian":[1.78E2,1.53E2,2.5E1,1.03E2,5E1,4.7E1,5.6E1,2.5E1,2.5E1,2.5E1,3.1E1],"tree_param":{"num_deleted":"0","num_feature":"17","num_nodes":"11","size_leaf_vector":"1"}},{"base_weights":[-3.6757693E-3,-4.3473367E-2,2.1392096E-2,-8.986643E-2,9.929161E-3,-1.3798106E-1,2.542688E-3,-2.4704706E-2,-8.581094E-2,-2.3691701E-4,-1.7214816E-2],"categories":[],"categories_nodes":[],"categories_segments":[],"categories_sizes":[],"default_left":[0,0,0,0,0,0,0,0,0,0,0],"id":28,"left_children":[1,3,-1,5,-1,7,-1,-1,9,-1,-1],"loss_changes":[1.5680686E0,1.0222886E0,0E0,6.4699465E-1,0E0,4.453795E-1,0E0,0E0,4.1022757E-1,0E0,0E0],"parents":[2147483647,0,0,1,1,3,3,5,5,8,8],"right_children":[2,4,-1,6,-1,8,-1,-1,10,-1,-1],"split_conditions":[6.7E1,2.1E2,2.1392096E-2,2E0,9.929161E-3,1.0651E5,2.542688E-3,-2.4704706E-2,1.7E1,-2.3691701E-4,-1.7214816E-2],"split_indices":[12,9,0,3,0,16,0,0,10,0,0],"split_type":[0,0,0,0,0,0,0,0,0,0,0],"sum_hessian":[1.79E2,1.52E2,2.7E1,1.15E2,3.7E1,8.1E1,3.4E1,2.5E1,5.6E1,2.9E1,2.7E1],"tree_param":{"num_deleted":"0","num_feature":"17","num_nodes":"11","size_leaf_vector":"1"}},{"base_weights":[-2.1821143E-2,-1.0363793E-1,5.4411363E-2,-3.8269646E-3,-1.4369582E-2,-1.1119741E-3,1.3795412E-2],"categories":[],"categories_nodes":[],"categories_segments":[],"categories_sizes":[],"default_left":[0,0,0,0,0,0,0],"id":29,"left_children":[1,3,5,-1,-1,-1,-1],"loss_changes":[1.0098119E0,1.9874507E-1,4.6140447E-1,0E0,0E0,0E0,0E0],"parents":[2147483647,0,0,1,1,2,2],"right_children":[2,4,6,-1,-1,-1,-1],"split_conditions":[3.6279562E4,1.2E2,2E0,-3.8269646E-3,-1.4369582E-2,-1.1119741E-3,1.3795412E-2],"split_indices":[5,0,3,0,0,0,0],"split_type":[0,0,0,0,0,0,0],"sum_hessian":[1.6E2,7.7E1,8.3E1,3E1,4.7E1,4.7E1,3.6E1],"tree_param":{"num_deleted":"0","num_feature":"17","num_nodes":"7","size_leaf_vector":"1"}},{"base_weights":[5.3511155E-3,-4.281013E-2,2.3355603E-2,-2.100914E-2,8.180059E-5,-1.21522015E-2,4.107093E-2,-1.0146426E-2,1.2829269E-2,1.791404E-3,-4.198821E-3],"categories":[],"categories_nodes":[],"categories_segments":[],"categories_sizes":[],"default_left":[0,0,0,0,0,0,0,0,0,0,0],"id":30,"left_children":[1,3,-1,-1,5,-1,7,9,-1,-1,-1],"loss_changes":[1.9553407E0,1.0547447E0,0E0,0E0,5.931543E-1,0E0,3.988886E-1,5.1681403E-2,0E0,0E0,0E0],"parents":[2147483647,0,0,1,1,4,4,6,6,7,7],"right_children":[2,4,-1,-1,6,-1,8,10,-1,-1,-1],"split_conditions":[4E0,7.50065E3,2.3355603E-2,-2.100914E-2,2.003E3,-1.21522015E-2,1.78E2,1.7597667E5,1.2829269E-2,1.791404E-3,-4.198821E-3],"split_indices":[11,5,0,0,1,0,7,16,0,0,0],"split_type":[0,0,0,0,0,0,0,0,0,0,0],"sum_hessian":[1.76E2,1.46E2,3E1,2.9E1,1.17E2,2.9E1,8.8E1,5.6E1,3.2E1,3E1,2.6E1],"tree_param":{"num_deleted":"0","num_feature":"17","num_nodes":"11","size_leaf_vector":"1"}},{"base_weights":[1.591127E-3,-3.4476273E-2,1.7466161E-2,9.906172E-3,-1.1560321E-1,-9.950877E-3,5.0991423E-2,-1.9954946E-2,-2.7210687E-3,1.1888462E-2,-4.675383E-3],"categories":[],"categories_nodes":[],"categories_segments":[],"categories_sizes":[],"default_left":[0,0,0,0,0,0,0,0,0,0,0],"id":31,"left_children":[1,3,-1,5,7,-1,9,-1,-1,-1,-1],"loss_changes":[1.0859227E0,5.196333E-1,0E0,4.276361E-1,3.7300134E-1,0E0,4.634587E-1,0E0,0E0,0E0,0E0],"parents":[2147483647,0,0,1,1,3,3,4,4,6,6],"right_children":[2,4,-1,6,8,-1,10,-1,-1,-1,-1],"split_conditions":[6.5291574E4,3E0,1.7466161E-2,2.001E3,1.76E2,-9.950877E-3,2.014E3,-1.9954946E-2,-2.7210687E-3,1.1888462E-2,-4.675383E-3],"split_indices":[5,10,0,1,10,0,1,0,0,0,0],"split_type":[0,0,0,0,0,0,0,0,0,0,0],"sum_hessian":[1.72E2,1.43E2,2.9E1,9.3E1,5E1,2.5E1,6.8E1,2.5E1,2.5E1,4E1,2.8E1],"tree_param":{"num_deleted":"0","num_feature":"17","num_nodes":"11","size_leaf_vector":"1"}},{"base_weights":[-5.4972908E-3,1.5106997E-2,-3.364275E-2,-1.2119285E-1,2.2869194E-2,-1.6749492E-2,-6.7518475E-3,-4.018944E-2,1.3162185E-2,3.1078965E-3,-1.2580678E-2],"categories":[],"categories_nodes":[],"categories_segments":[],"categories_sizes":[],"default_left":[0,0,0,0,0,0,0,0,0,0,0],"id":32,"left_children":[1,-1,3,5,7,-1,-1,9,-1,-1,-1],"loss_changes":[7.806541E-1,0E0,7.449156E-1,1.3531983E-1,6.3620687E-1,0E0,0E0,3.639168E-1,0E0,0E0,0E0],"parents":[2147483647,0,0,2,2,3,3,4,4,7,7],"right_children":[2,-1,4,6,8,-1,-1,10,-1,-1,-1],"split_conditions":[8.6695E4,1.5106997E-2,3.4858906E4,2.91E2,2.8377E7,-1.6749492E-2,-6.7518475E-3,8.82E2,1.3162185E-2,3.1078965E-3,-1.2580678E-2],"split_indices":[16,0,5,0,15,0,0,0,0,0,0],"split_type":[0,0,0,0,0,0,0,0,0,0,0],"sum_hessian":[1.75E2,2.6E1,1.49E2,5.8E1,9.1E1,3E1,2.8E1,5.8E1,3.3E1,3.2E1,2.6E1],"tree_param":{"num_deleted":"0","num_feature":"17","num_nodes":"11","size_leaf_vector":"1"}},{"base_weights":[-2.572859E-3,-4.049362E-2,1.8118624E-2,-7.441507E-2,6.230903E-3,-4.72832E-2,-1.420452E-2,-6.89411E-2,4.5151668E-4,-2.542221E-3,-9.929968E-3],"categories":[],"categories_nodes":[],"categories_segments":[],"categories_sizes":[],"default_left":[0,0,0,0,0,0,0,0,0,0,0],"id":33,"left_children":[1,3,-1,5,-1,7,-1,9,-1,-1,-1],"loss_changes":[1.3034378E0,5.4515505E-1,0E0,2.0797068E-1,0E0,9.566802E-2,0E0,7.674587E-2,0E0,0E0,0E0],"parents":[2147483647,0,0,1,1,3,3,5,5,7,7],"right_children":[2,4,-1,6,-1,8,-1,10,-1,-1,-1],"split_conditions":[4E0,1.96E2,1.8118624E-2,6E0,6.230903E-3,2.45E2,-1.420452E-2,1.24E2,4.5151668E-4,-2.542221E-3,-9.929968E-3],"split_indices":[11,9,0,10,0,7,0,0,0,0,0],"split_type":[0,0,0,0,0,0,0,0,0,0,0],"sum_hessian":[1.85E2,1.54E2,3.1E1,1.16E2,3.8E1,8.4E1,3.2E1,5.9E1,2.5E1,2.5E1,3.4E1],"tree_param":{"num_deleted":"0","num_feature":"17","num_nodes":"11","size_leaf_vector":"1"}},{"base_weights":[7.394645E-4,5.2466564E-2,-8.3708294E-2,2.0661842E-2,-1.54004805E-2,-1.8720273E-2,3.8573032E-3,-1.28400745E-2,6.5999716E-3],"categories":[],"categories_nodes":[],"categories_segments":[],"categories_sizes":[],"default_left":[0,0,0,0,0,0,0,0,0],"id":34,"left_children":[1,3,5,-1,7,-1,-1,-1,-1],"loss_changes":[7.8193814E-1,1.1644452E0,8.677906E-1,0E0,7.2593737E-1,0E0,0E0,0E0,0E0],"parents":[2147483647,0,0,1,1,2,2,4,4],"right_children":[2,4,6,-1,8,-1,-1,-1,-1],"split_conditions":[6E0,1E0,7.8E1,2.0661842E-2,1.46145E7,-1.8720273E-2,3.8573032E-3,-1.28400745E-2,6.5999716E-3],"split_indices":[10,2,9,0,15,0,0,0,0],"split_type":[0,0,0,0,0,0,0,0,0],"sum_hessian":[1.77E2,1.1E2,6.7E1,3.3E1,7.7E1,3.6E1,3.1E1,3.2E1,4.5E1],"tree_param":{"num_deleted":"0","num_feature":"17","num_nodes":"9","size_leaf_vector":"1"}},{"base_weights":[-5.614411E-3,-4.8905108E-2,2.1252546E-2,-1.5329162E-2,-2.1721344E-2,-5.412044E-2,7.404004E-3,-9.828808E-3,3.892438E-4],"categories":[],"categories_nodes":[],"categories_segments":[],"categories_sizes":[],"default_left":[0,0,0,0,0,0,0,0,0],"id":35,"left_children":[1,3,-1,-1,5,7,-1,-1,-1],"loss_changes":[1.6535498E0,4.1096243E-1,0E0,0E0,3.670092E-1,2.2586426E-1,0E0,0E0,0E0],"parents":[2147483647,0,0,1,1,4,4,5,5],"right_children":[2,4,-1,-1,6,8,-1,-1,-1],"split_conditions":[4E0,2.001E3,2.1252546E-2,-1.5329162E-2,1.78E2,2.313975E7,7.404004E-3,-9.828808E-3,3.892438E-4],"split_indices":[11,1,0,0,7,15,0,0,0],"split_type":[0,0,0,0,0,0,0,0,0],"sum_hessian":[1.73E2,1.45E2,2.8E1,2.9E1,1.16E2,8.7E1,2.9E1,4.9E1,3.8E1],"tree_param":{"num_deleted":"0","num_feature":"17","num_nodes":"9","size_leaf_vector":"1"}},{"base_weights":[-1.32885E-2,-4.5808714E-2,1.4134891E-2,-3.683715E-3,-1.2745753E-2,7.827159E-3,-3.436579E-2,-8.361944E-3,-6.3879066E-4],"categories":[],"categories_nodes":[],"categories_segments":[],"categories_sizes":[],"default_left":[0,0,0,0,0,0,0,0,0],"id":36,"left_children":[1,3,-1,5,-1,-1,7,-1,-1],"loss_changes":[8.965799E-1,5.0513065E-1,0E0,2.4911666E-1,0E0,0E0,9.8682776E-2,0E0,0E0],"parents":[2147483647,0,0,1,1,3,3,6,6],"right_children":[2,4,-1,6,-1,-1,8,-1,-1],"split_conditions":[9.76E2,1.7E1,1.4134891E-2,1.2E2,-1.2745753E-2,7.827159E-3,1.3619667E7,-8.361944E-3,-6.3879066E-4],"split_indices":[0,10,0,0,0,0,15,0,0],"split_type":[0,0,0,0,0,0,0,0,0],"sum_hessian":[1.76E2,1.46E2,3E1,9.7E1,4.9E1,2.6E1,7.1E1,2.5E1,4.6E1],"tree_param":{"num_deleted":"0","num_feature":"17","num_nodes":"9","size_leaf_vector":"1"}},{"base_weights":[1.7859846E-2,-1.6407933E-2,1.6549231E-2,-4.2958632E-2,1.0318623E-2,-7.3935606E-2,4.5506577E-3,-3.2367096E-3,-1.1861824E-2],"categories":[],"categories_nodes":[],"categories_segments":[],"categories_sizes":[],"default_left":[0,0,0,0,0,0,0,0,0],"id":37,"left_children":[1,3,-1,5,-1,7,-1,-1,-1],"loss_changes":[9.13342E-1,4.7120303E-1,0E0,3.349511E-1,0E0,1.6332585E-1,0E0,0E0,0E0],"parents":[2147483647,0,0,1,1,3,3,5,5],"right_children":[2,4,-1,6,-1,8,-1,-1,-1],"split_conditions":[1E0,3.35E2,1.6549231E-2,2E2,1.0318623E-2,6E0,4.5506577E-3,-3.2367096E-3,-1.1861824E-2],"split_indices":[12,7,0,9,0,10,0,0,0],"split_type":[0,0,0,0,0,0,0,0,0],"sum_hessian":[1.79E2,1.46E2,3.3E1,1.2E2,2.6E1,8.9E1,3.1E1,4.7E1,4.2E1],"tree_param":{"num_deleted":"0","num_feature":"17","num_nodes":"9","size_leaf_vector":"1"}},{"base_weights":[8.569187E-3,-1.8513562E-2,1.6656952E-2,1.1123033E-2,-4.4929527E-2,-1.1874634E-2,-1.542861E-3,6.9750394E-3,-4.0523265E-2,-9.130134E-3,1.5719414E-3],"categories":[],"categories_nodes":[],"categories_segments":[],"categories_sizes":[],"default_left":[0,0,0,0,0,0,0,0,0,0,0],"id":38,"left_children":[1,3,-1,-1,5,-1,7,-1,9,-1,-1],"loss_changes":[7.604815E-1,5.259487E-1,0E0,0E0,4.0655535E-1,0E0,2.2792871E-1,0E0,1.5279767E-1,0E0,0E0],"parents":[2147483647,0,0,1,1,4,4,6,6,8,8],"right_children":[2,4,-1,-1,6,-1,8,-1,10,-1,-1],"split_conditions":[7.01957E4,8.8E4,1.6656952E-2,1.1123033E-2,1.8953666E7,-1.1874634E-2,1.7597667E5,6.9750394E-3,4.139261E4,-9.130134E-3,1.5719414E-3],"split_indices":[5,16,0,0,15,0,16,0,5,0,0],"split_type":[0,0,0,0,0,0,0,0,0,0,0],"sum_hessian":[1.76E2,1.51E2,2.5E1,2.5E1,1.26E2,4.6E1,8E1,2.8E1,5.2E1,2.7E1,2.5E1],"tree_param":{"num_deleted":"0","num_feature":"17","num_nodes":"11","size_leaf_vector":"1"}},{"base_weights":[-3.7656347E-3,-8.522144E-3,2.566026E-2,-9.708827E-3,1.7159108E-2,4.80446E-2,-9.163128E-3,1.0878424E-2,-2.44198E-3],"categories":[],"categories_nodes":[],"categories_segments":[],"categories_sizes":[],"default_left":[0,0,0,0,0,0,0,0,0],"id":39,"left_children":[1,-1,3,5,-1,7,-1,-1,-1],"loss_changes":[4.3363056E-1,0E0,6.881374E-1,5.15383E-1,0E0,2.8435E-1,0E0,0E0,0E0],"parents":[2147483647,0,0,2,2,3,3,5,5],"right_children":[2,-1,4,6,-1,8,-1,-1,-1],"split_conditions":[2.004E3,-8.522144E-3,9.76E2,4.6E1,1.7159108E-2,2.014E3,-9.163128E-3,1.0878424E-2,-2.44198E-3],"split_indices":[1,0,0,10,0,1,0,0,0],"split_type":[0,0,0,0,0,0,0,0,0],"sum_hessian":[1.79E2,4.7E1,1.32E2,1.07E2,2.5E1,6.3E1,4.4E1,3.4E1,2.9E1],"tree_param":{"num_deleted":"0","num_feature":"17","num_nodes":"9","size_leaf_vector":"1"}},{"base_weights":[1.2397087E-2,-2.0427065E-2,1.5971838E-2,-1.7044073E-2,1.7252443E-2,1.1823608E-2,-1.4711534E-2,-9.909906E-3,1.9800767E-2,-3.6534835E-3,9.353708E-3],"categories":[],"categories_nodes":[],"categories_segments":[],"categories_sizes":[],"default_left":[0,0,0,0,0,0,0,0,0,0,0],"id":40,"left_children":[1,3,-1,-1,5,-1,7,-1,9,-1,-1],"loss_changes":[8.495095E-1,8.1689197E-1,0E0,0E0,3.7616867E-1,0E0,2.6116654E-1,0E0,2.69272E-1,0E0,0E0],"parents":[2147483647,0,0,1,1,4,4,6,6,8,8],"right_children":[2,4,-1,-1,6,-1,8,-1,10,-1,-1],"split_conditions":[4E0,7.1801396E3,1.5971838E-2,-1.7044073E-2,2.755561E4,1.1823608E-2,1.6322667E7,-9.909906E-3,5.761681E4,-3.6534835E-3,9.353708E-3],"split_indices":[11,5,0,0,5,0,15,0,5,0,0],"split_type":[0,0,0,0,0,0,0,0,0,0,0],"sum_hessian":[1.74E2,1.43E2,3.1E1,2.8E1,1.15E2,2.7E1,8.8E1,2.5E1,6.3E1,3.6E1,2.7E1],"tree_param":{"num_deleted":"0","num_feature":"17","num_nodes":"11","size_leaf_vector":"1"}},{"base_weights":[-3.7848875E-3,-2.9145995E-2,1.5047818E-2,-1.2169189E-3,-6.335181E-2,-8.458731E-3,3.7071407E-2,-1.0256928E-2,4.357012E-4,8.625045E-3,-1.925902E-4],"categories":[],"categories_nodes":[],"categories_segments":[],"categories_sizes":[],"default_left":[0,0,0,0,0,0,0,0,0,0,0],"id":41,"left_children":[1,3,-1,5,7,-1,9,-1,-1,-1,-1],"loss_changes":[7.203336E-1,1.5086612E-1,0E0,2.8404167E-1,1.889781E-1,0E0,1.17154986E-1,0E0,0E0,0E0,0E0],"parents":[2147483647,0,0,1,1,3,3,4,4,6,6],"right_children":[2,4,-1,6,8,-1,10,-1,-1,-1,-1],"split_conditions":[7.343165E4,1.77026E5,1.5047818E-2,7.1801396E3,1.03E2,-8.458731E-3,3.0127367E4,-1.0256928E-2,4.357012E-4,8.625045E-3,-1.925902E-4],"split_indices":[5,16,0,5,9,0,5,0,0,0,0],"split_type":[0,0,0,0,0,0,0,0,0,0,0],"sum_hessian":[1.82E2,1.57E2,2.5E1,8.7E1,7E1,2.7E1,6E1,4.4E1,2.6E1,2.6E1,3.4E1],"tree_param":{"num_deleted":"0","num_feature":"17","num_nodes":"11","size_leaf_vector":"1"}},{"base_weights":[-8.63425E-3,-3.0571174E-2,1.06643215E-2,-5.7420798E-2,4.869622E-3,-3.1737555E-2,-1.3900245E-2,9.370887E-4,-1.09690055E-2,4.718592E-3,-4.5341025E-3],"categories":[],"categories_nodes":[],"categories_segments":[],"categories_sizes":[],"default_left":[0,0,0,0,0,0,0,0,0,0,0],"id":42,"left_children":[1,3,-1,5,-1,7,-1,9,-1,-1,-1],"loss_changes":[4.584501E-1,3.2629776E-1,0E0,2.344504E-1,0E0,2.2424495E-1,0E0,1.3697891E-1,0E0,0E0,0E0],"parents":[2147483647,0,0,1,1,3,3,5,5,7,7],"right_children":[2,4,-1,6,-1,8,-1,10,-1,-1,-1],"split_conditions":[6.7E1,2E2,1.06643215E-2,8.26E2,4.869622E-3,1.7E1,-1.3900245E-2,2.006E3,-1.09690055E-2,4.718592E-3,-4.5341025E-3],"split_indices":[12,9,0,0,0,10,0,1,0,0,0],"split_type":[0,0,0,0,0,0,0,0,0,0,0],"sum_hessian":[1.79E2,1.51E2,2.8E1,1.13E2,3.8E1,8.7E1,2.6E1,6.2E1,2.5E1,3.1E1,3.1E1],"tree_param":{"num_deleted":"0","num_feature":"17","num_nodes":"11","size_leaf_vector":"1"}},{"base_weights":[-6.6306647E-3,-2.2015702E-2,8.652632E-3,1.4008478E-2,-8.907888E-2,7.5700493E-3,-6.7351228E-3,-1.645436E-2,-2.0706845E-3,3.060402E-3,-6.136652E-3],"categories":[],"categories_nodes":[],"categories_segments":[],"categories_sizes":[],"default_left":[0,0,0,0,0,0,0,0,0,0,0],"id":43,"left_children":[1,3,-1,5,7,-1,9,-1,-1,-1,-1],"loss_changes":[2.6275164E-1,3.8054356E-1,0E0,1.3232045E-1,2.80375E-1,0E0,1.6098946E-1,0E0,0E0,0E0,0E0],"parents":[2147483647,0,0,1,1,3,3,4,4,6,6],"right_children":[2,4,-1,6,8,-1,10,-1,-1,-1,-1],"split_conditions":[7.182163E4,1.7E1,8.652632E-3,5.258025E3,1.76E2,7.5700493E-3,1E0,-1.645436E-2,-2.0706845E-3,3.060402E-3,-6.136652E-3],"split_indices":[5,10,0,5,10,0,3,0,0,0,0],"split_type":[0,0,0,0,0,0,0,0,0,0,0],"sum_hessian":[1.81E2,1.56E2,2.5E1,1.02E2,5.4E1,2.5E1,7.7E1,2.5E1,2.9E1,4.6E1,3.1E1],"tree_param":{"num_deleted":"0","num_feature":"17","num_nodes":"11","size_leaf_vector":"1"}},{"base_weights":[2.1063015E-3,-2.7900329E-2,1.4606792E-2,-4.978563E-2,5.6923325E-3,-6.86915E-2,1.1410887E-3,-3.627788E-2,-1.2712048E-2,-1.1796071E-2,2.917762E-3],"categories":[],"categories_nodes":[],"categories_segments":[],"categories_sizes":[],"default_left":[0,0,0,0,0,0,0,0,0,0,0],"id":44,"left_children":[1,3,-1,5,-1,7,-1,9,-1,-1,-1],"loss_changes":[7.5140125E-1,2.701543E-1,0E0,1.3383579E-1,0E0,1.6205108E-1,0E0,3.1354406E-1,0E0,0E0,0E0],"parents":[2147483647,0,0,1,1,3,3,5,5,7,7],"right_children":[2,4,-1,6,-1,8,-1,10,-1,-1,-1],"split_conditions":[4E0,3.35E2,1.4606792E-2,2.21972E5,5.6923325E-3,4.99E2,1.1410887E-3,6.3901035E3,-1.2712048E-2,-1.1796071E-2,2.917762E-3],"split_indices":[11,7,0,16,0,0,0,5,0,0,0],"split_type":[0,0,0,0,0,0,0,0,0,0,0],"sum_hessian":[1.72E2,1.43E2,2.9E1,1.14E2,2.9E1,8.7E1,2.7E1,5.7E1,3E1,2.5E1,3.2E1],"tree_param":{"num_deleted":"0","num_feature":"17","num_nodes":"11","size_leaf_vector":"1"}},{"base_weights":[1.0634832E-2,-1.3143818E-2,1.3339445E-2,2.5787735E-2,-9.486892E-3,1.3141359E-2,-1.1672535E-2,-5.987652E-3,3.8149734E-3],"categories":[],"categories_nodes":[],"categories_segments":[],"categories_sizes":[],"default_left":[0,0,0,0,0,0,0,0,0],"id":45,"left_children":[1,3,-1,5,-1,-1,7,-1,-1],"loss_changes":[5.0383127E-1,4.637908E-1,0E0,3.9325446E-1,0E0,0E0,1.8000501E-1,0E0,0E0],"parents":[2147483647,0,0,1,1,3,3,6,6],"right_children":[2,4,-1,6,-1,-1,8,-1,-1],"split_conditions":[9.76E2,1.7E1,1.3339445E-2,1.24E2,-9.486892E-3,1.3141359E-2,3.4858906E4,-5.987652E-3,3.8149734E-3],"split_indices":[0,10,0,0,0,0,5,0,0],"split_type":[0,0,0,0,0,0,0,0,0],"sum_hessian":[1.71E2,1.44E2,2.7E1,9.8E1,4.6E1,2.5E1,7.3E1,3.7E1,3.6E1],"tree_param":{"num_deleted":"0","num_feature":"17","num_nodes":"9","size_leaf_vector":"1"}},{"base_weights":[-2.0245492E-4,-2.62711E-2,1.2173805E-2,-1.2702945E-2,2.1829037E-2,-2.136156E-2,1.12926895E-2,-6.419528E-3,5.0346786E-4],"categories":[],"categories_nodes":[],"categories_segments":[],"categories_sizes":[],"default_left":[0,0,0,0,0,0,0,0,0],"id":46,"left_children":[1,3,-1,-1,5,7,-1,-1,-1],"loss_changes":[5.5949235E-1,7.0551395E-1,0E0,0E0,3.9193478E-1,7.720733E-2,0E0,0E0,0E0],"parents":[2147483647,0,0,1,1,4,4,5,5],"right_children":[2,4,-1,-1,6,8,-1,-1,-1],"split_conditions":[4E0,1.46145E7,1.2173805E-2,-1.2702945E-2,1.19E2,4.07E2,1.12926895E-2,-6.419528E-3,5.0346786E-4],"split_indices":[11,15,0,0,7,0,0,0,0],"split_type":[0,0,0,0,0,0,0,0,0],"sum_hessian":[1.74E2,1.44E2,3E1,4.6E1,9.8E1,6.7E1,3.1E1,2.5E1,4.2E1],"tree_param":{"num_deleted":"0","num_feature":"17","num_nodes":"9","size_leaf_vector":"1"}},{"base_weights":[3.6503542E-3,-2.6647488E-2,7.6898127E-3,-2.6947395E-3,-8.312774E-3,-5.5606174E-3,2.664364E-2,8.164433E-3,-3.995886E-3],"categories":[],"categories_nodes":[],"categories_segments":[],"categories_sizes":[],"default_left":[0,0,0,0,0,0,0,0,0],"id":47,"left_children":[1,3,-1,5,-1,-1,7,-1,-1],"loss_changes":[3.7932155E-1,1.634717E-1,0E0,1.3498242E-1,0E0,0E0,2.0840068E-1,0E0,0E0],"parents":[2147483647,0,0,1,1,3,3,6,6],"right_children":[2,4,-1,6,-1,-1,8,-1,-1],"split_conditions":[2.8377E7,4.6E1,7.6898127E-3,2.001E3,-8.312774E-3,-5.5606174E-3,1.6300333E7,8.164433E-3,-3.995886E-3],"split_indices":[15,10,0,1,0,0,15,0,0],"split_type":[0,0,0,0,0,0,0,0,0],"sum_hessian":[1.69E2,1.2E2,4.9E1,8.5E1,3.5E1,3E1,5.5E1,3E1,2.5E1],"tree_param":{"num_deleted":"0","num_feature":"17","num_nodes":"9","size_leaf_vector":"1"}},{"base_weights":[-6.2464084E-3,-9.9851135E-3,2.7582712E-2,1.1574599E-2,-3.864732E-3,-4.1033812E-2,1.0207283E-2,1.0044167E-3,-1.0838754E-2],"categories":[],"categories_nodes":[],"categories_segments":[],"categories_sizes":[],"default_left":[0,0,0,0,0,0,0,0,0],"id":48,"left_children":[1,-1,3,-1,5,7,-1,-1,-1],"loss_changes":[5.7273597E-1,0E0,3.691911E-1,0E0,3.9401102E-1,2.5567025E-1,0E0,0E0,0E0],"parents":[2147483647,0,0,2,2,4,4,5,5],"right_children":[2,-1,4,-1,6,8,-1,-1,-1],"split_conditions":[2.004E3,-9.9851135E-3,1.7728E7,1.1574599E-2,3.56E2,4.6E1,1.0207283E-2,1.0044167E-3,-1.0838754E-2],"split_indices":[1,0,15,0,10,10,0,0,0],"split_type":[0,0,0,0,0,0,0,0,0],"sum_hessian":[1.79E2,4.7E1,1.32E2,3.4E1,9.8E1,7.3E1,2.5E1,4.2E1,3.1E1],"tree_param":{"num_deleted":"0","num_feature":"17","num_nodes":"9","size_leaf_vector":"1"}},{"base_weights":[-1.052433E-2,-3.2533728E-2,9.091023E-3,-1.7884655E-2,6.5109814E-3,2.6670126E-2,-5.2839546E-3,-1.372106E-2,1.0138041E-2,-4.96911E-3,1.921062E-3],"categories":[],"categories_nodes":[],"categories_segments":[],"categories_sizes":[],"default_left":[0,0,0,0,0,0,0,0,0,0,0],"id":49,"left_children":[1,3,-1,-1,5,7,-1,9,-1,-1,-1],"loss_changes":[4.0034515E-1,8.409375E-1,0E0,0E0,1.4139457E-1,2.6694307E-1,0E0,6.965871E-2,0E0,0E0,0E0],"parents":[2147483647,0,0,1,1,4,4,5,5,7,7],"right_children":[2,4,-1,-1,6,8,-1,10,-1,-1,-1],"split_conditions":[4E0,1.07555E7,9.091023E-3,-1.7884655E-2,2.28365E5,2.68E2,-5.2839546E-3,1.4350333E5,1.0138041E-2,-4.96911E-3,1.921062E-3],"split_indices":[11,15,0,0,16,7,0,16,0,0,0],"split_type":[0,0,0,0,0,0,0,0,0,0,0],"sum_hessian":[1.77E2,1.46E2,3.1E1,3E1,1.16E2,8.7E1,2.9E1,5.7E1,3E1,2.7E1,3E1],"tree_param":{"num_deleted":"0","num_feature":"17","num_nodes":"11","size_leaf_vector":"1"}},{"base_weights":[5.534287E-3,1.1035928E-2,-1.3000412E-2,-3.7158046E-2,6.108606E-3,-5.6661487E-2,2.3306122E-3,-2.9687347E-2,-1.1984262E-2,-7.4101426E-3,1.4824761E-4],"categories":[],"categories_nodes":[],"categories_segments":[],"categories_sizes":[],"default_left":[0,0,0,0,0,0,0,0,0,0,0],"id":50,"left_children":[1,-1,3,5,-1,7,-1,9,-1,-1,-1],"loss_changes":[3.4921375E-1,0E0,2.761022E-1,1.3811463E-1,0E0,1.4641675E-1,0E0,8.732572E-2,0E0,0E0,0E0],"parents":[2147483647,0,0,2,2,3,3,5,5,7,7],"right_children":[2,-1,4,6,-1,8,-1,10,-1,-1,-1],"split_conditions":[8.6695E4,1.1035928E-2,2E2,5.763941E4,6.108606E-3,2.2699E5,2.3306122E-3,1.404325E5,-1.1984262E-2,-7.4101426E-3,1.4824761E-4],"split_indices":[16,0,9,5,0,16,0,16,0,0,0],"split_type":[0,0,0,0,0,0,0,0,0,0,0],"sum_hessian":[1.78E2,2.6E1,1.52E2,1.15E2,3.7E1,8.7E1,2.8E1,6.2E1,2.5E1,2.5E1,3.7E1],"tree_param":{"num_deleted":"0","num_feature":"17","num_nodes":"11","size_leaf_vector":"1"}},{"base_weights":[-6.846705E-3,1.7784426E-2,-5.3217605E-2,-1.263141E-2,1.0257131E-2,-1.1188692E-2,2.2019674E-3,9.62006E-3,-6.0595885E-2,-2.0281423E-2,4.380058E-3],"categories":[],"categories_nodes":[],"categories_segments":[],"categories_sizes":[],"default_left":[0,0,0,0,0,0,0,0,0,0,0],"id":51,"left_children":[1,3,5,7,-1,-1,-1,-1,9,-1,-1],"loss_changes":[2.0425229E-1,3.0302268E-1,2.761391E-1,4.5997545E-1,0E0,0E0,0E0,0E0,9.14556E-1,0E0,0E0],"parents":[2147483647,0,0,1,1,2,2,3,3,8,8],"right_children":[2,4,6,8,-1,-1,-1,-1,10,-1,-1],"split_conditions":[2.012E3,2E0,4.346551E4,2.002E3,1.0257131E-2,-1.1188692E-2,2.2019674E-3,9.62006E-3,1.9377714E7,-2.0281423E-2,4.380058E-3],"split_indices":[1,3,5,1,0,0,0,0,15,0,0],"split_type":[0,0,0,0,0,0,0,0,0,0,0],"sum_hessian":[1.77E2,1.16E2,6.1E1,8.6E1,3E1,3.4E1,2.7E1,2.6E1,6E1,2.5E1,3.5E1],"tree_param":{"num_deleted":"0","num_feature":"17","num_nodes":"11","size_leaf_vector":"1"}},{"base_weights":[3.961029E-3,9.651063E-3,-1.5583179E-2,-9.594527E-3,8.521156E-3,-2.4330102E-2,1.1527632E-2,2.3499173E-3,-7.973193E-3],"categories":[],"categories_nodes":[],"categories_segments":[],"categories_sizes":[],"default_left":[0,0,0,0,0,0,0,0,0],"id":52,"left_children":[1,-1,3,-1,5,7,-1,-1,-1],"loss_changes":[3.2166302E-1,0E0,2.8556755E-1,0E0,4.0260738E-1,2.3505864E-1,0E0,0E0,0E0],"parents":[2147483647,0,0,2,2,4,4,5,5],"right_children":[2,-1,4,-1,6,8,-1,-1,-1],"split_conditions":[1.2E2,9.651063E-3,2.004E3,-9.594527E-3,9.76E2,2.735275E7,1.1527632E-2,2.3499173E-3,-7.973193E-3],"split_indices":[0,0,1,0,0,15,0,0,0],"split_type":[0,0,0,0,0,0,0,0,0],"sum_hessian":[1.76E2,3E1,1.46E2,3.3E1,1.13E2,8.7E1,2.6E1,4.7E1,4E1],"tree_param":{"num_deleted":"0","num_feature":"17","num_nodes":"9","size_leaf_vector":"1"}},{"base_weights":[-9.891353E-3,-7.734651E-2,2.8483117E-2,-1.0902187E-2,-3.645051E-3,4.8659733E-4,1.1999149E-2,5.7509564E-2,-8.424714E-3,2.7649847E-3,8.630583E-3],"categories":[],"categories_nodes":[],"categories_segments":[],"categories_sizes":[],"default_left":[0,0,0,0,0,0,0,0,0,0,0],"id":53,"left_children":[1,3,5,-1,-1,7,-1,9,-1,-1,-1],"loss_changes":[4.5002323E-1,7.7636E-2,2.8431427E-1,0E0,0E0,4.203772E-1,0E0,4.2325765E-2,0E0,0E0,0E0],"parents":[2147483647,0,0,1,1,2,2,5,5,7,7],"right_children":[2,4,6,-1,-1,8,-1,10,-1,-1,-1],"split_conditions":[1.4350333E5,1.01986E5,2E2,-1.0902187E-2,-3.645051E-3,1.7E1,1.1999149E-2,3.700014E4,-8.424714E-3,2.7649847E-3,8.630583E-3],"split_indices":[16,16,9,0,0,10,0,5,0,0,0],"split_type":[0,0,0,0,0,0,0,0,0,0,0],"sum_hessian":[1.72E2,6.2E1,1.1E2,3.4E1,2.8E1,8.5E1,2.5E1,5.1E1,3.4E1,2.6E1,2.5E1],"tree_param":{"num_deleted":"0","num_feature":"17","num_nodes":"11","size_leaf_vector":"1"}},{"base_weights":[-1.9094776E-3,-1.699235E-2,8.474811E-3,-3.647035E-2,5.083137E-3,-6.7835264E-3,-1.4468053E-2,-6.3484805E-3,1.9951671E-2,3.7215755E-3,-8.0398313E-4],"categories":[],"categories_nodes":[],"categories_segments":[],"categories_sizes":[],"default_left":[0,0,0,0,0,0,0,0,0,0,0],"id":54,"left_children":[1,3,-1,5,-1,7,-1,-1,9,-1,-1],"loss_changes":[2.3801526E-1,2.0661977E-1,0E0,3.8772094E-1,0E0,1.4679493E-1,0E0,0E0,3.2193556E-2,0E0,0E0],"parents":[2147483647,0,0,1,1,3,3,5,5,8,8],"right_children":[2,4,-1,6,-1,8,-1,-1,10,-1,-1],"split_conditions":[6.7E1,2.8377E7,8.474811E-3,9.46E2,5.083137E-3,1.96E2,-1.4468053E-2,-6.3484805E-3,1.726E5,3.7215755E-3,-8.0398313E-4],"split_indices":[12,15,0,0,0,0,0,0,16,0,0],"split_type":[0,0,0,0,0,0,0,0,0,0,0],"sum_hessian":[1.8E2,1.54E2,2.6E1,1.2E2,3.4E1,9.5E1,2.5E1,3E1,6.5E1,4E1,2.5E1],"tree_param":{"num_deleted":"0","num_feature":"17","num_nodes":"11","size_leaf_vector":"1"}},{"base_weights":[-2.5889927E-3,2.5571879E-2,-5.1418316E-2,8.823947E-3,-1.9173403E-3,-1.3448844E-2,1.7702527E-3,2.3528893E-2,-5.860827E-3,-2.0056698E-3,5.956895E-3],"categories":[],"categories_nodes":[],"categories_segments":[],"categories_sizes":[],"default_left":[0,0,0,0,0,0,0,0,0,0,0],"id":55,"left_children":[1,3,5,-1,7,-1,-1,9,-1,-1,-1],"loss_changes":[2.5570396E-1,2.0344579E-1,3.928284E-1,0E0,1.2111234E-1,0E0,0E0,9.230274E-2,0E0,0E0,0E0],"parents":[2147483647,0,0,1,1,2,2,4,4,7,7],"right_children":[2,4,6,-1,8,-1,-1,10,-1,-1,-1],"split_conditions":[6E0,1E0,1.65E2,8.823947E-3,2E0,-1.3448844E-2,1.7702527E-3,1.46145E7,-5.860827E-3,-2.0056698E-3,5.956895E-3],"split_indices":[10,2,10,0,3,0,0,15,0,0,0],"split_type":[0,0,0,0,0,0,0,0,0,0,0],"sum_hessian":[1.84E2,1.17E2,6.7E1,3.5E1,8.2E1,3E1,3.7E1,5.7E1,2.5E1,2.6E1,3.1E1],"tree_param":{"num_deleted":"0","num_feature":"17","num_nodes":"11","size_leaf_vector":"1"}},{"base_weights":[3.6797791E-3,-1.0984402E-2,7.066801E-3,-1.0170231E-2,1.5247741E-2,-1.6053484E-3,7.49435E-3,2.9110268E-2,-5.104703E-3,6.184179E-3,-3.500544E-4],"categories":[],"categories_nodes":[],"categories_segments":[],"categories_sizes":[],"default_left":[0,0,0,0,0,0,0,0,0,0,0],"id":56,"left_children":[1,3,-1,-1,5,7,-1,9,-1,-1,-1],"loss_changes":[1.8054219E-1,3.608892E-1,0E0,0E0,1.1883514E-1,1.4271873E-1,0E0,6.212576E-2,0E0,0E0,0E0],"parents":[2147483647,0,0,1,1,4,4,5,5,7,7],"right_children":[2,4,-1,-1,6,8,-1,10,-1,-1,-1],"split_conditions":[4E0,1.0603E5,7.066801E-3,-1.0170231E-2,1.65E2,2E0,7.49435E-3,1.7437667E5,-5.104703E-3,6.184179E-3,-3.500544E-4],"split_indices":[11,16,0,0,10,3,0,16,0,0,0],"split_type":[0,0,0,0,0,0,0,0,0,0,0],"sum_hessian":[1.82E2,1.5E2,3.2E1,3.3E1,1.17E2,9.2E1,2.5E1,5.7E1,3.5E1,2.8E1,2.9E1],"tree_param":{"num_deleted":"0","num_feature":"17","num_nodes":"11","size_leaf_vector":"1"}},{"base_weights":[-3.7663286E-3,8.148371E-3,-1.9189045E-2,-3.8172632E-2,7.2086114E-3,-2.617222E-3,-1.0508824E-2,-5.47641E-3,3.0153705E-2,-6.1297564E-5,5.9760627E-3],"categories":[],"categories_nodes":[],"categories_segments":[],"categories_sizes":[],"default_left":[0,0,0,0,0,0,0,0,0,0,0],"id":57,"left_children":[1,-1,3,5,-1,7,-1,-1,9,-1,-1],"loss_changes":[2.3165132E-1,0E0,2.609285E-1,2.9474723E-1,0E0,1.4178126E-1,0E0,0E0,4.649288E-2,0E0,0E0],"parents":[2147483647,0,0,2,2,3,3,5,5,8,8],"right_children":[2,-1,4,6,-1,8,-1,-1,10,-1,-1],"split_conditions":[8.8E4,8.148371E-3,3.56E2,4E0,7.2086114E-3,1.58035E5,-1.0508824E-2,-5.47641E-3,3.7336453E4,-6.1297564E-5,5.9760627E-3],"split_indices":[16,0,10,10,0,16,0,0,5,0,0],"split_type":[0,0,0,0,0,0,0,0,0,0,0],"sum_hessian":[1.74E2,2.6E1,1.48E2,1.23E2,2.5E1,8.1E1,4.2E1,3.1E1,5E1,2.5E1,2.5E1],"tree_param":{"num_deleted":"0","num_feature":"17","num_nodes":"11","size_leaf_vector":"1"}},{"base_weights":[8.173626E-3,7.4852975E-3,-3.2109274E-3,-6.06099E-3,1.6957229E-2,-2.1244362E-2,1.3504942E-2,6.5984703E-3,-6.5996565E-2,-2.708094E-3,-1.1285114E-2],"categories":[],"categories_nodes":[],"categories_segments":[],"categories_sizes":[],"default_left":[0,0,0,0,0,0,0,0,0,0,0],"id":58,"left_children":[1,-1,3,-1,5,7,-1,-1,9,-1,-1],"loss_changes":[1.3536274E-1,0E0,1.7814541E-1,0E0,5.171583E-1,3.4397602E-1,0E0,0E0,1.0269967E-1,0E0,0E0],"parents":[2147483647,0,0,2,2,4,4,5,5,8,8],"right_children":[2,-1,4,-1,6,8,-1,-1,10,-1,-1],"split_conditions":[7E1,7.4852975E-3,1.5126E7,-6.06099E-3,9.47E2,1.7597667E5,1.3504942E-2,6.5984703E-3,3.312675E7,-2.708094E-3,-1.1285114E-2],"split_indices":[0,0,15,0,0,16,0,0,15,0,0],"split_type":[0,0,0,0,0,0,0,0,0,0,0],"sum_hessian":[1.77E2,2.5E1,1.52E2,3.9E1,1.13E2,8.6E1,2.7E1,2.9E1,5.7E1,3.2E1,2.5E1],"tree_param":{"num_deleted":"0","num_feature":"17","num_nodes":"11","size_leaf_vector":"1"}},{"base_weights":[-7.5623654E-3,3.5693225E-2,-7.931685E-2,-3.206872E-3,5.8676448E-2,-1.4711377E-2,-2.1332575E-5,9.64267E-2,-8.7132055E-4,7.083694E-3,1.1749733E-2],"categories":[],"categories_nodes":[],"categories_segments":[],"categories_sizes":[],"default_left":[0,0,0,0,0,0,0,0,0,0,0],"id":59,"left_children":[1,3,5,-1,7,-1,-1,9,-1,-1,-1],"loss_changes":[5.3668165E-1,1.7007959E-1,3.4856206E-1,0E0,2.0690227E-1,0E0,0E0,1.9714862E-2,0E0,0E0,0E0],"parents":[2147483647,0,0,1,1,2,2,4,4,7,7],"right_children":[2,4,6,-1,8,-1,-1,10,-1,-1,-1],"split_conditions":[6E0,2.001E3,7.8E1,-3.206872E-3,2.015E3,-1.4711377E-2,-2.1332575E-5,2.008E3,-8.7132055E-4,7.083694E-3,1.1749733E-2],"split_indices":[10,1,9,0,1,0,0,1,0,0,0],"split_type":[0,0,0,0,0,0,0,0,0,0,0],"sum_hessian":[1.71E2,1.07E2,6.4E1,2.7E1,8E1,3.4E1,3E1,5.1E1,2.9E1,2.5E1,2.6E1],"tree_param":{"num_deleted":"0","num_feature":"17","num_nodes":"11","size_leaf_vector":"1"}},{"base_weights":[3.761735E-3,-2.171141E-2,1.3759228E-2,1.1628356E-3,-1.19181825E-2,5.1488917E-2,-6.1767127E-2,-1.9915425E-3,1.0956229E-2,-1.0384169E-2,-1.8963207E-3],"categories":[],"categories_nodes":[],"categories_segments":[],"categories_sizes":[],"default_left":[0,0,0,0,0,0,0,0,0,0,0],"id":60,"left_children":[1,3,-1,5,-1,7,9,-1,-1,-1,-1],"loss_changes":[5.757136E-1,3.167364E-1,0E0,3.7055448E-1,0E0,2.717169E-1,9.168056E-2,0E0,0E0,0E0,0E0],"parents":[2147483647,0,0,1,1,3,3,5,5,6,6],"right_children":[2,4,-1,6,-1,8,10,-1,-1,-1,-1],"split_conditions":[9.76E2,1.1E1,1.3759228E-2,1.7597667E5,-1.19181825E-2,2.005E3,2.21972E5,-1.9915425E-3,1.0956229E-2,-1.0384169E-2,-1.8963207E-3],"split_indices":[0,12,0,16,0,1,16,0,0,0,0],"split_type":[0,0,0,0,0,0,0,0,0,0,0],"sum_hessian":[1.67E2,1.41E2,2.6E1,1.15E2,2.6E1,6.4E1,5.1E1,2.9E1,3.5E1,2.5E1,2.6E1],"tree_param":{"num_deleted":"0","num_feature":"17","num_nodes":"11","size_leaf_vector":"1"}},{"base_weights":[7.951868E-3,-8.974574E-3,1.0232004E-2,-7.0767165E-3,2.0509033E-2,5.2699458E-2,-5.256034E-3,-1.525651E-3,1.5398785E-2],"categories":[],"categories_nodes":[],"categories_segments":[],"categories_sizes":[],"default_left":[0,0,0,0,0,0,0,0,0],"id":61,"left_children":[1,3,-1,-1,5,7,-1,-1,-1],"loss_changes":[2.8364348E-1,2.7655348E-1,0E0,0E0,2.4503973E-1,4.9793613E-1,0E0,0E0,0E0],"parents":[2147483647,0,0,1,1,4,4,5,5],"right_children":[2,4,-1,-1,6,8,-1,-1,-1],"split_conditions":[6.7E1,1.5126E7,1.0232004E-2,-7.0767165E-3,2.012E3,1.9395769E5,-5.256034E-3,-1.525651E-3,1.5398785E-2],"split_indices":[12,15,0,0,1,16,0,0,0],"split_type":[0,0,0,0,0,0,0,0,0],"sum_hessian":[1.76E2,1.5E2,2.6E1,4.8E1,1.02E2,7.1E1,3.1E1,4.3E1,2.8E1],"tree_param":{"num_deleted":"0","num_feature":"17","num_nodes":"9","size_leaf_vector":"1"}},{"base_weights":[2.384634E-2,5.143244E-3,1.1847433E-2,5.3739835E-2,-2.1739699E-2,9.669044E-4,9.582026E-3,-1.1240284E-2,1.7245164E-2,5.3959615E-3,-3.713118E-3],"categories":[],"categories_nodes":[],"categories_segments":[],"categories_sizes":[],"default_left":[0,0,0,0,0,0,0,0,0,0,0],"id":62,"left_children":[1,3,-1,5,7,-1,-1,-1,9,-1,-1],"loss_changes":[3.1088185E-1,1.9451834E-1,0E0,9.736292E-2,3.4124944E-1,0E0,0E0,0E0,1.3775863E-1,0E0,0E0],"parents":[2147483647,0,0,1,1,3,3,4,4,8,8],"right_children":[2,4,-1,6,8,-1,-1,-1,10,-1,-1],"split_conditions":[4E0,2.007E3,1.1847433E-2,2.001E3,1.341925E5,9.669044E-4,9.582026E-3,-1.1240284E-2,2.9764166E7,5.3959615E-3,-3.713118E-3],"split_indices":[11,1,0,1,16,0,0,0,15,0,0],"split_type":[0,0,0,0,0,0,0,0,0,0,0],"sum_hessian":[1.75E2,1.47E2,2.8E1,5.2E1,9.5E1,2.6E1,2.6E1,2.8E1,6.7E1,4E1,2.7E1],"tree_param":{"num_deleted":"0","num_feature":"17","num_nodes":"11","size_leaf_vector":"1"}},{"base_weights":[-5.245943E-4,-6.80186E-3,1.2977825E-2,1.0100653E-2,-2.8944673E-2,-1.3031895E-2,7.064461E-3,-4.9472274E-3,7.503333E-3],"categories":[],"categories_nodes":[],"categories_segments":[],"categories_sizes":[],"default_left":[0,0,0,0,0,0,0,0,0],"id":63,"left_children":[1,-1,3,-1,5,-1,7,-1,-1],"loss_changes":[1.5854321E-1,0E0,5.380292E-1,0E0,3.623102E-1,0E0,2.8807467E-1,0E0,0E0],"parents":[2147483647,0,0,2,2,4,4,6,6],"right_children":[2,-1,4,-1,6,-1,8,-1,-1],"split_conditions":[2.001E3,-6.80186E-3,1.7728E7,1.0100653E-2,3.185408E4,-1.3031895E-2,2.8377E7,-4.9472274E-3,7.503333E-3],"split_indices":[1,0,15,0,5,0,15,0,0],"split_type":[0,0,0,0,0,0,0,0,0],"sum_hessian":[1.72E2,2.8E1,1.44E2,4.6E1,9.8E1,2.5E1,7.3E1,4E1,3.3E1],"tree_param":{"num_deleted":"0","num_feature":"17","num_nodes":"9","size_leaf_vector":"1"}},{"base_weights":[3.4644303E-4,-1.4457821E-2,7.386274E-3,-9.389554E-3,4.700457E-3,2.6601057E-2,-5.450723E-3,5.4571733E-2,-2.7491555E-3,4.6607666E-4,9.37543E-3],"categories":[],"categories_nodes":[],"categories_segments":[],"categories_sizes":[],"default_left":[0,0,0,0,0,0,0,0,0,0,0],"id":64,"left_children":[1,3,-1,-1,5,7,-1,9,-1,-1,-1],"loss_changes":[1.9479501E-1,2.2720297E-1,0E0,0E0,1.5834872E-1,1.3615787E-1,0E0,1.1494577E-1,0E0,0E0,0E0],"parents":[2147483647,0,0,1,1,4,4,5,5,7,7],"right_children":[2,4,-1,-1,6,8,-1,10,-1,-1,-1],"split_conditions":[4E0,1E0,7.386274E-3,-9.389554E-3,8.8E2,1E0,-5.450723E-3,4.4E2,-2.7491555E-3,4.6607666E-4,9.37543E-3],"split_indices":[11,2,0,0,0,3,0,0,0,0,0],"split_type":[0,0,0,0,0,0,0,0,0,0,0],"sum_hessian":[1.77E2,1.48E2,2.9E1,2.8E1,1.2E2,8.8E1,3.2E1,5.8E1,3E1,2.6E1,3.2E1],"tree_param":{"num_deleted":"0","num_feature":"17","num_nodes":"11","size_leaf_vector":"1"}},{"base_weights":[6.87149E-3,1.0082647E-2,-9.351696E-3,7.7460376E-3,-7.317596E-3,-2.8835783E-2,9.390461E-3,6.5207775E-3,-1.0502842E-2,3.1006364E-3,-1.5107886E-3],"categories":[],"categories_nodes":[],"categories_segments":[],"categories_sizes":[],"default_left":[0,0,0,0,0,0,0,0,0,0,0],"id":65,"left_children":[1,-1,3,5,-1,7,-1,9,-1,-1,-1],"loss_changes":[2.6921076E-1,0E0,1.6534561E-1,3.809283E-1,0E0,2.2966716E-1,0E0,3.171428E-2,0E0,0E0,0E0],"parents":[2147483647,0,0,2,2,3,3,5,5,7,7],"right_children":[2,-1,4,6,-1,8,-1,10,-1,-1,-1],"split_conditions":[7E1,1.0082647E-2,2.5229E5,1.9232E5,-7.317596E-3,8.18E2,9.390461E-3,1.4255333E7,-1.0502842E-2,3.1006364E-3,-1.5107886E-3],"split_indices":[0,0,16,16,0,0,0,15,0,0,0],"split_type":[0,0,0,0,0,0,0,0,0,0,0],"sum_hessian":[1.75E2,2.5E1,1.5E2,1.19E2,3.1E1,8.4E1,3.5E1,5.8E1,2.6E1,2.7E1,3.1E1],"tree_param":{"num_deleted":"0","num_feature":"17","num_nodes":"11","size_leaf_vector":"1"}},{"base_weights":[7.922851E-3,9.463487E-3,-7.6801507E-3,-7.898126E-3,8.561951E-3,-2.428437E-2,6.5101916E-3,2.3813443E-2,-1.1769607E-2,5.666904E-3,-9.958057E-4],"categories":[],"categories_nodes":[],"categories_segments":[],"categories_sizes":[],"default_left":[0,0,0,0,0,0,0,0,0,0,0],"id":66,"left_children":[1,-1,3,-1,5,7,-1,9,-1,-1,-1],"loss_changes":[2.3073131E-1,0E0,1.685978E-1,0E0,2.2257943E-1,3.4426302E-1,0E0,5.715304E-2,0E0,0E0,0E0],"parents":[2147483647,0,0,2,2,4,4,5,5,7,7],"right_children":[2,-1,4,-1,6,8,-1,10,-1,-1,-1],"split_conditions":[8.6695E4,9.463487E-3,1.29396664E5,-7.898126E-3,7.57E2,6E1,6.5101916E-3,2.0770142E7,-1.1769607E-2,5.666904E-3,-9.958057E-4],"split_indices":[16,0,16,0,0,10,0,15,0,0,0],"split_type":[0,0,0,0,0,0,0,0,0,0,0],"sum_hessian":[1.69E2,2.5E1,1.44E2,2.6E1,1.18E2,7.5E1,4.3E1,5E1,2.5E1,2.5E1,2.5E1],"tree_param":{"num_deleted":"0","num_feature":"17","num_nodes":"11","size_leaf_vector":"1"}},{"base_weights":[-6.398504E-3,1.6029317E-2,-4.5635015E-2,4.949778E-2,-4.476813E-3,1.94124E-4,-1.1707406E-2,-2.419006E-4,1.0436602E-2],"categories":[],"categories_nodes":[],"categories_segments":[],"categories_sizes":[],"default_left":[0,0,0,0,0,0,0,0,0],"id":67,"left_children":[1,3,5,7,-1,-1,-1,-1,-1],"loss_changes":[1.5736961E-1,2.3418276E-1,2.2114943E-1,2.1104762E-1,0E0,0E0,0E0,0E0,0E0],"parents":[2147483647,0,0,1,1,2,2,3,3],"right_children":[2,4,6,8,-1,-1,-1,-1,-1],"split_conditions":[6E0,2.6E1,1E0,1E0,-4.476813E-3,1.94124E-4,-1.1707406E-2,-2.419006E-4,1.0436602E-2],"split_indices":[10,8,3,3,0,0,0,0,0],"split_type":[0,0,0,0,0,0,0,0,0],"sum_hessian":[1.77E2,1.13E2,6.4E1,7.3E1,4E1,3.9E1,2.5E1,3.8E1,3.5E1],"tree_param":{"num_deleted":"0","num_feature":"17","num_nodes":"9","size_leaf_vector":"1"}},{"base_weights":[4.291261E-4,2.3059502E-2,-4.1918498E-2,-1.5375476E-2,7.410118E-3,-8.21633E-3,1.6965198E-3,5.3393035E-3,-6.6116797E-3],"categories":[],"categories_nodes":[],"categories_segments":[],"categories_sizes":[],"default_left":[0,0,0,0,0,0,0,0,0],"id":68,"left_children":[1,3,5,7,-1,-1,-1,-1,-1],"loss_changes":[1.7059328E-1,2.287065E-1,1.483192E-1,2.373203E-1,0E0,0E0,0E0,0E0,0E0],"parents":[2147483647,0,0,1,1,2,2,3,3],"right_children":[2,4,6,8,-1,-1,-1,-1,-1],"split_conditions":[4E1,2E0,1.03E2,2.007E3,7.410118E-3,-8.21633E-3,1.6965198E-3,5.3393035E-3,-6.6116797E-3],"split_indices":[8,3,9,1,0,0,0,0,0],"split_type":[0,0,0,0,0,0,0,0,0],"sum_hessian":[1.76E2,1.15E2,6.1E1,6.6E1,4.9E1,3.6E1,2.5E1,2.8E1,3.8E1],"tree_param":{"num_deleted":"0","num_feature":"17","num_nodes":"9","size_leaf_vector":"1"}},{"base_weights":[-8.7701315E-3,-2.9672481E-2,8.928183E-3,-1.4398313E-2,-2.2964596E-3,-2.6867257E-2,7.4036927E-3,1.0012535E-3,-6.925399E-3],"categories":[],"categories_nodes":[],"categories_segments":[],"categories_sizes":[],"default_left":[0,0,0,0,0,0,0,0,0],"id":69,"left_children":[1,3,-1,-1,5,7,-1,-1,-1],"loss_changes":[3.6131456E-1,4.534281E-1,0E0,0E0,2.2330669E-1,1.4138265E-1,0E0,0E0,0E0],"parents":[2147483647,0,0,1,1,4,4,5,5],"right_children":[2,4,-1,-1,6,8,-1,-1,-1],"split_conditions":[4E0,7.50065E3,8.928183E-3,-1.4398313E-2,1.65E2,6.88E2,7.4036927E-3,1.0012535E-3,-6.925399E-3],"split_indices":[11,5,0,0,10,0,0,0,0],"split_type":[0,0,0,0,0,0,0,0,0],"sum_hessian":[1.74E2,1.44E2,3E1,2.7E1,1.17E2,8.9E1,2.8E1,4.8E1,4.1E1],"tree_param":{"num_deleted":"0","num_feature":"17","num_nodes":"9","size_leaf_vector":"1"}},{"base_weights":[1.5486373E-2,1.4722332E-2,-8.651357E-3,5.5252365E-3,-5.1330472E-3,-2.4331536E-2,3.8044207E-2,3.4653207E-3,-8.654517E-3,-8.5481437E-4,8.495315E-3],"categories":[],"categories_nodes":[],"categories_segments":[],"categories_sizes":[],"default_left":[0,0,0,0,0,0,0,0,0,0,0],"id":70,"left_children":[1,-1,3,5,-1,7,9,-1,-1,-1,-1],"loss_changes":[5.5456424E-1,0E0,8.983019E-2,1.0966775E-1,0E0,2.1950874E-1,1.1874849E-1,0E0,0E0,0E0,0E0],"parents":[2147483647,0,0,2,2,3,3,5,5,6,6],"right_children":[2,-1,4,6,-1,8,10,-1,-1,-1,-1],"split_conditions":[1.2E2,1.4722332E-2,2.5229E5,1.08E2,-5.1330472E-3,1.6267333E5,1.6666667E5,3.4653207E-3,-8.654517E-3,-8.5481437E-4,8.495315E-3],"split_indices":[0,0,16,8,0,16,16,0,0,0,0],"split_type":[0,0,0,0,0,0,0,0,0,0,0],"sum_hessian":[1.73E2,2.6E1,1.47E2,1.11E2,3.6E1,5.8E1,5.3E1,3E1,2.8E1,2.7E1,2.6E1],"tree_param":{"num_deleted":"0","num_feature":"17","num_nodes":"11","size_leaf_vector":"1"}},{"base_weights":[1.6189423E-4,-1.1436265E-2,5.2875895E-3,-3.0667E-2,7.3450045E-3,1.167697E-3,-5.886337E-2,-1.4156766E-2,7.433659E-5],"categories":[],"categories_nodes":[],"categories_segments":[],"categories_sizes":[],"default_left":[0,0,0,0,0,0,0,0,0],"id":71,"left_children":[1,3,-1,5,-1,-1,7,-1,-1],"loss_changes":[1.1187683E-1,2.471164E-1,0E0,1.4754274E-1,0E0,0E0,3.6490545E-1,0E0,0E0],"parents":[2147483647,0,0,1,1,3,3,6,6],"right_children":[2,4,-1,6,-1,-1,8,-1,-1],"split_conditions":[4E0,1.65E2,5.2875895E-3,2.006E3,7.3450045E-3,1.167697E-3,1.3793E5,-1.4156766E-2,7.433659E-5],"split_indices":[11,10,0,1,0,0,16,0,0],"split_type":[0,0,0,0,0,0,0,0,0],"sum_hessian":[1.81E2,1.49E2,3.2E1,1.22E2,2.7E1,4.9E1,7.3E1,3E1,4.3E1],"tree_param":{"num_deleted":"0","num_feature":"17","num_nodes":"9","size_leaf_vector":"1"}},{"base_weights":[7.906754E-3,-7.2381445E-3,2.3273978E-2,8.434603E-3,-4.284691E-3,-4.8623413E-2,4.1841764E-2,-7.1564986E-4,-9.300484E-3,9.606718E-3,-1.1924998E-3],"categories":[],"categories_nodes":[],"categories_segments":[],"categories_sizes":[],"default_left":[0,0,0,0,0,0,0,0,0,0,0],"id":72,"left_children":[1,-1,3,-1,5,7,9,-1,-1,-1,-1],"loss_changes":[2.2253603E-1,0E0,2.545041E-1,0E0,2.1677923E-1,9.871389E-2,1.527529E-1,0E0,0E0,0E0,0E0],"parents":[2147483647,0,0,2,2,4,4,5,5,6,6],"right_children":[2,-1,4,-1,6,8,10,-1,-1,-1,-1],"split_conditions":[2.001E3,-7.2381445E-3,1.7728E7,8.434603E-3,2.8377E7,1.6666667E5,3.893975E7,-7.1564986E-4,-9.300484E-3,9.606718E-3,-1.1924998E-3],"split_indices":[1,0,15,0,15,16,15,0,0,0,0],"split_type":[0,0,0,0,0,0,0,0,0,0,0],"sum_hessian":[1.78E2,2.8E1,1.5E2,4.6E1,1.04E2,5.3E1,5.1E1,2.8E1,2.5E1,2.5E1,2.6E1],"tree_param":{"num_deleted":"0","num_feature":"17","num_nodes":"11","size_leaf_vector":"1"}},{"base_weights":[-8.723585E-3,-6.904138E-3,9.79696E-3,-2.8122935E-2,5.563754E-2,-9.794145E-3,1.1735869E-3,1.4651651E-2,-1.154275E-3],"categories":[],"categories_nodes":[],"categories_segments":[],"categories_sizes":[],"default_left":[0,0,0,0,0,0,0,0,0],"id":73,"left_children":[1,-1,3,5,7,-1,-1,-1,-1],"loss_changes":[1.95055E-1,0E0,2.344929E-1,2.0708272E-1,3.741129E-1,0E0,0E0,0E0,0E0],"parents":[2147483647,0,0,2,2,3,3,4,4],"right_children":[2,-1,4,6,8,-1,-1,-1,-1],"split_conditions":[2.004E3,-6.904138E-3,1E0,2.6913174E4,2.013E3,-9.794145E-3,1.1735869E-3,1.4651651E-2,-1.154275E-3],"split_indices":[1,0,3,5,1,0,0,0,0],"split_type":[0,0,0,0,0,0,0,0,0],"sum_hessian":[1.73E2,4E1,1.33E2,7.3E1,6E1,2.6E1,4.7E1,2.5E1,3.5E1],"tree_param":{"num_deleted":"0","num_feature":"17","num_nodes":"9","size_leaf_vector":"1"}},{"base_weights":[7.262758E-3,-1.2909335E-2,6.715552E-3,1.0525411E-2,-1.0795448E-2,6.237245E-3,-1.5911473E-2,3.0301611E-3,-5.4606865E-3],"categories":[],"categories_nodes":[],"categories_segments":[],"categories_sizes":[],"default_left":[0,0,0,0,0,0,0,0,0],"id":74,"left_children":[1,3,-1,5,-1,-1,7,-1,-1],"loss_changes":[2.110872E-1,2.929203E-1,0E0,1.462839E-1,0E0,0E0,1.2861924E-1,0E0,0E0],"parents":[2147483647,0,0,1,1,3,3,6,6],"right_children":[2,4,-1,6,-1,-1,8,-1,-1],"split_conditions":[2.8377E7,8.71E2,6.715552E-3,2.002E3,-1.0795448E-2,6.237245E-3,1.6132667E7,3.0301611E-3,-5.4606865E-3],"split_indices":[15,0,0,1,0,0,15,0,0],"split_type":[0,0,0,0,0,0,0,0,0],"sum_hessian":[1.73E2,1.3E2,4.3E1,1.05E2,2.5E1,3.5E1,7E1,3.2E1,3.8E1],"tree_param":{"num_deleted":"0","num_feature":"17","num_nodes":"9","size_leaf_vector":"1"}},{"base_weights":[3.633224E-3,2.4004072E-2,-4.384135E-2,7.722889E-3,8.757937E-3,6.469541E-4,-9.625522E-3,4.0991273E-2,-3.606728E-3,1.6128517E-3,7.192753E-3],"categories":[],"categories_nodes":[],"categories_segments":[],"categories_sizes":[],"default_left":[0,0,0,0,0,0,0,0,0,0,0],"id":75,"left_children":[1,3,5,7,-1,-1,-1,9,-1,-1,-1],"loss_changes":[1.7706409E-1,1.3181399E-1,1.4565712E-1,1.5153176E-1,0E0,0E0,0E0,4.422038E-2,0E0,0E0,0E0],"parents":[2147483647,0,0,1,1,2,2,3,3,7,7],"right_children":[2,4,6,8,-1,-1,-1,10,-1,-1,-1],"split_conditions":[2.25295E5,1.8565667E5,1.7E1,2.6E1,8.757937E-3,6.469541E-4,-9.625522E-3,2.009E3,-3.606728E-3,1.6128517E-3,7.192753E-3],"split_indices":[16,16,10,8,0,0,0,1,0,0,0],"split_type":[0,0,0,0,0,0,0,0,0,0,0],"sum_hessian":[1.81E2,1.27E2,5.4E1,1.02E2,2.5E1,2.8E1,2.6E1,5.8E1,4.4E1,3.3E1,2.5E1],"tree_param":{"num_deleted":"0","num_feature":"17","num_nodes":"11","size_leaf_vector":"1"}},{"base_weights":[-2.8118223E-3,-1.7184583E-2,6.579207E-3,-7.101746E-3,1.0762737E-2,-1.5727695E-2,5.091227E-3,7.418319E-4,-4.450042E-3],"categories":[],"categories_nodes":[],"categories_segments":[],"categories_sizes":[],"default_left":[0,0,0,0,0,0,0,0,0],"id":76,"left_children":[1,3,-1,-1,5,7,-1,-1,-1],"loss_changes":[1.707273E-1,2.1590564E-1,0E0,0E0,1.018407E-1,3.8956597E-2,0E0,0E0,0E0],"parents":[2147483647,0,0,1,1,4,4,5,5],"right_children":[2,4,-1,-1,6,8,-1,-1,-1],"split_conditions":[4E0,1.5126E7,6.579207E-3,-7.101746E-3,7.56E2,4.58E2,5.091227E-3,7.418319E-4,-4.450042E-3],"split_indices":[11,15,0,0,0,0,0,0,0],"split_type":[0,0,0,0,0,0,0,0,0],"sum_hessian":[1.71E2,1.42E2,2.9E1,4.8E1,9.4E1,5.7E1,3.7E1,3.2E1,2.5E1],"tree_param":{"num_deleted":"0","num_feature":"17","num_nodes":"9","size_leaf_vector":"1"}},{"base_weights":[-2.5323026E-3,8.064556E-3,-2.0937249E-2,-7.894107E-3,-1.070442E-3,-1.8101083E-2,5.5957874E-3,-5.562726E-3,-1.1943978E-3,4.5901663E-3,-5.8339816E-3],"categories":[],"categories_nodes":[],"categories_segments":[],"categories_sizes":[],"default_left":[0,0,0,0,0,0,0,0,0,0,0],"id":77,"left_children":[1,-1,3,-1,5,7,-1,-1,9,-1,-1],"loss_changes":[2.7877846E-1,0E0,1.7161573E-1,0E0,1.0979051E-1,5.513012E-2,0E0,0E0,1.6684867E-1,0E0,0E0],"parents":[2147483647,0,0,2,2,4,4,5,5,8,8],"right_children":[2,-1,4,-1,6,8,-1,-1,10,-1,-1],"split_conditions":[1.24E2,8.064556E-3,2.8429232E4,-7.894107E-3,3.7E2,2.007E3,5.5957874E-3,-5.562726E-3,6.9E1,4.5901663E-3,-5.8339816E-3],"split_indices":[0,0,5,0,7,1,0,0,9,0,0],"split_type":[0,0,0,0,0,0,0,0,0,0,0],"sum_hessian":[1.8E2,3.2E1,1.48E2,3.7E1,1.11E2,8.6E1,2.5E1,2.6E1,6E1,3.3E1,2.7E1],"tree_param":{"num_deleted":"0","num_feature":"17","num_nodes":"11","size_leaf_vector":"1"}},{"base_weights":[-7.4135917E-3,-6.6889435E-2,2.1613024E-2,-1.3740646E-2,1.3940202E-3,6.186128E-2,-2.1896055E-2,1.0203279E-2,1.5400952E-3,1.2954052E-4,-4.064063E-3],"categories":[],"categories_nodes":[],"categories_segments":[],"categories_sizes":[],"default_left":[0,0,0,0,0,0,0,0,0,0,0],"id":78,"left_children":[1,3,5,-1,-1,7,9,-1,-1,-1,-1],"loss_changes":[2.9493073E-1,3.211079E-1,2.0273845E-1,0E0,0E0,1.10411495E-1,2.4396637E-2,0E0,0E0,0E0,0E0],"parents":[2147483647,0,0,1,1,2,2,5,5,6,6],"right_children":[2,4,6,-1,-1,8,10,-1,-1,-1,-1],"split_conditions":[2.005E3,1.5126E7,2.012E3,-1.3740646E-2,1.3940202E-3,9E0,3.121075E7,1.0203279E-2,1.5400952E-3,1.2954052E-4,-4.064063E-3],"split_indices":[1,15,1,0,0,8,15,0,0,0,0],"split_type":[0,0,0,0,0,0,0,0,0,0,0],"sum_hessian":[1.69E2,5.5E1,1.14E2,2.9E1,2.6E1,5.9E1,5.5E1,3.1E1,2.8E1,2.5E1,3E1],"tree_param":{"num_deleted":"0","num_feature":"17","num_nodes":"11","size_leaf_vector":"1"}},{"base_weights":[-1.5534347E-2,-6.808463E-3,-4.023205E-3,1.1071809E-2,-7.126798E-3,8.546829E-3,-2.3659946E-2,-5.3382474E-3,-7.601425E-3,2.5279652E-3,-3.803705E-3],"categories":[],"categories_nodes":[],"categories_segments":[],"categories_sizes":[],"default_left":[0,0,0,0,0,0,0,0,0,0,0],"id":79,"left_children":[1,-1,3,5,-1,-1,7,-1,9,-1,-1],"loss_changes":[1.11030206E-1,0E0,1.5507829E-1,3.2501218E-1,0E0,0E0,4.0642004E-2,0E0,5.8004666E-2,0E0,0E0],"parents":[2147483647,0,0,2,2,3,3,6,6,8,8],"right_children":[2,-1,4,6,-1,-1,8,-1,10,-1,-1],"split_conditions":[7.50065E3,-6.808463E-3,1.7E1,4.63E2,-7.126798E-3,8.546829E-3,2.006E3,-5.3382474E-3,9E0,2.5279652E-3,-3.803705E-3],"split_indices":[5,0,11,0,0,0,1,0,8,0,0],"split_type":[0,0,0,0,0,0,0,0,0,0,0],"sum_hessian":[1.83E2,3.2E1,1.51E2,1.24E2,2.7E1,3.9E1,8.5E1,2.9E1,5.6E1,2.7E1,2.9E1],"tree_param":{"num_deleted":"0","num_feature":"17","num_nodes":"11","size_leaf_vector":"1"}},{"base_weights":[8.068648E-3,9.455431E-3,-6.3052117E-3,-2.7932929E-2,5.7654185E-3,1.025142E-3,-7.4932138E-3,-4.328396E-3,3.9769984E-3],"categories":[],"categories_nodes":[],"categories_segments":[],"categories_sizes":[],"default_left":[0,0,0,0,0,0,0,0,0],"id":80,"left_children":[1,-1,3,5,-1,7,-1,-1,-1],"loss_changes":[2.2684638E-1,0E0,2.1878788E-1,1.6067553E-1,0E0,1.2876083E-1,0E0,0E0,0E0],"parents":[2147483647,0,0,2,2,3,3,5,5],"right_children":[2,-1,4,6,-1,8,-1,-1,-1],"split_conditions":[8.6695E4,9.455431E-3,2E2,1.7E1,5.7654185E-3,1.7251E7,-7.4932138E-3,-4.328396E-3,3.9769984E-3],"split_indices":[16,0,9,10,0,15,0,0,0],"split_type":[0,0,0,0,0,0,0,0,0],"sum_hessian":[1.81E2,2.5E1,1.56E2,1.17E2,3.9E1,7.3E1,4.4E1,3.4E1,3.9E1],"tree_param":{"num_deleted":"0","num_feature":"17","num_nodes":"9","size_leaf_vector":"1"}},{"base_weights":[4.0633148E-3,-1.1310463E-2,9.37845E-3,2.8708396E-2,-5.501181E-2,-9.6826156E-4,8.093177E-3,-1.2003531E-3,-9.219843E-3,-7.259048E-3,6.8037147E-3],"categories":[],"categories_nodes":[],"categories_segments":[],"categories_sizes":[],"default_left":[0,0,0,0,0,0,0,0,0,0,0],"id":81,"left_children":[1,3,-1,5,7,9,-1,-1,-1,-1,-1],"loss_changes":[2.4520633E-1,2.6740873E-1,0E0,1.2406359E-1,1.1564453E-1,2.619395E-1,0E0,0E0,0E0,0E0,0E0],"parents":[2147483647,0,0,1,1,3,3,4,4,5,5],"right_children":[2,4,-1,6,8,10,-1,-1,-1,-1,-1],"split_conditions":[9.92E2,4.63E2,9.37845E-3,1E0,1.8013333E5,7.1801396E3,8.093177E-3,-1.2003531E-3,-9.219843E-3,-7.259048E-3,6.8037147E-3],"split_indices":[0,0,0,3,16,5,0,0,0,0,0],"split_type":[0,0,0,0,0,0,0,0,0,0,0],"sum_hessian":[1.76E2,1.51E2,2.5E1,7.9E1,7.2E1,5.1E1,2.8E1,3.4E1,3.8E1,2.5E1,2.6E1],"tree_param":{"num_deleted":"0","num_feature":"17","num_nodes":"11","size_leaf_vector":"1"}}]},"name":"gbtree"},"learner_model_param":{"base_score":"-2.3629325E-9","boost_from_average":"1","num_class":"0","num_feature":"17","num_target":"1"},"objective":{"name":"reg:squarederror","reg_loss_param":{"scale_pos_weight":"1"}}},"version":[2,1,1]}