tree
version=v4
num_class=1
num_tree_per_iteration=1
label_index=0
max_feature_idx=16
objective=regression
feature_names=Column_0 Column_1 Column_2 Column_3 Column_4 Column_5 Column_6 Column_7 Column_8 Column_9 Column_10 Column_11 Column_12 Column_13 Column_14 Column_15 Column_16
feature_infos=[1:2289] [1993:2021] [0:2] [0:2] none [78:150126.86320000002] [0:1181] [0:1286] [0:1258] [0:670] [0:1350] [0:1228] [0:992] none none [0:189821857.14285713] [0:950305]
tree_sizes=1486 1572 1486 1574 1498 1819 1497 1567 1598 1738 1715 1533 1714 1740 1723 1644 1372 1701 1593 1628 1512 1745 1628 1618 1763

Tree=0
num_leaves=14
num_cat=0
split_feature=0 15 0 3 2 15 0 0 15 15 8 0 0
split_gain=74.6389 14.3461 20.1282 9.081 9.50117 7.06355 3.75119 3.42956 2.80983 1.68469 1.28488 0.690873 0.672969
threshold=553.50000000000011 16817500.000000004 1197.0000000000002 1.5000000000000002 1.0000000180025095e-35 38229250.000000007 321.00000000000006 753.50000000000011 1.0000000180025095e-35 23315000.000000004 215.00000000000003 159.50000000000003 953.50000000000011
decision_type=2 2 2 2 2 2 2 2 2 2 2 2 2
left_child=3 -2 5 6 -5 7 8 -3 -1 11 12 -10 -9
right_child=1 2 -4 4 -6 -7 -8 10 9 -11 -12 -13 -14
leaf_value=-0.10505508406861844 -0.04837290662606912 0.001863820127965439 0.36799978196354849 0.074460441672376226 -0.14349796124068753 0.26617349803181634 -0.088810546902757623 0.11296665131779651 -0.27690001229711225 -0.15858808170028388 0.067015382744194496 -0.20903380215434092 0.17809533254400672
leaf_weight=10.999999999999998 15.999999999999998 14.999999999999998 14.999999999999998 15.999999999999998 15.999999999999998 9.9999999999999982 19 15.000000000000002 15.000000000000002 11.999999999999998 14.999999999999998 9.9999999999999982 10.999999999999998
leaf_count=11 16 15 15 16 16 10 19 15 15 12 15 10 11
internal_value=-5.98707e-10 0.124686 0.15887 -0.122167 -0.0345188 0.11134 -0.164028 0.0836917 -0.193802 -0.220186 0.113629 -0.249754 0.140521
internal_weight=0 97 81 99 32 66 67 56 48 37 41 25 26
internal_count=196 97 81 99 32 66 67 56 48 37 41 25 26
is_linear=0
shrinkage=1


Tree=1
num_leaves=15
num_cat=0
split_feature=15 12 10 7 12 15 9 10 9 15 10 16 7 7
split_gain=25.914 7.52876 8.17285 7.66833 7.18716 4.3602 3.50959 3.40966 5.11106 1.19511 1.14538 0.921969 0.761198 0.0816191
threshold=16817500.000000004 80.500000000000014 104.00000000000001 180.50000000000003 27.500000000000004 13239000.000000002 143.50000000000003 522.00000000000011 106.50000000000001 26114916.666666668 254.50000000000003 64980.000000000007 237.50000000000003 144.50000000000003
decision_type=2 2 2 2 2 2 2 2 2 2 2 2 2 2
left_child=4 2 3 6 5 11 9 8 -4 -2 -10 -1 -7 -13
right_child=1 -3 7 -5 -6 12 -8 -9 10 -11 -12 13 -14 -15
leaf_value=-0.13265531271696093 -0.16595662509401635 0.17343374921215907 -0.029287140816450119 0.089733511231401386 0.04201828833514204 -0.092158699848435111 0.0020557218790054322 0.17329788122858322 0.074342864866440095 -0.072339450316503642 0.16002946595350903 -0.2106532728672027 -0.015917098987847569 -0.18568783565001057
leaf_weight=14.999999999999998 12.000000000000002 18 15.999999999999998 17 11.999999999999998 11.000000000000002 14.999999999999998 13.999999999999998 13.000000000000002 9.9999999999999982 11.999999999999998 10.000000000000002 9.9999999999999982 10.999999999999998
leaf_count=15 12 18 16 17 12 11 15 14 13 10 12 10 10 11
internal_value=0 0.0536034 0.0338148 -0.021455 -0.0986612 -0.128278 -0.0725416 0.0880798 0.0589809 -0.123403 0.115472 -0.170526 -0.0558532 -0.197576
internal_weight=0 127 109 54 69 57 37 55 41 22 25 36 21 21
internal_count=196 127 109 54 69 57 37 55 41 22 25 36 21 21
is_linear=0
shrinkage=0.2


Tree=2
num_leaves=14
num_cat=0
split_feature=5 5 5 16 15 5 15 15 16 15 5 0 16
split_gain=51.2586 15.7654 4.80335 2.07476 1.86015 2.91119 0.865934 0.808152 0.705812 0.440356 0.431183 0.383737 0.228172
threshold=46506.096150000005 82867.816200000016 36261.166500000007 282404.00000000006 1.0000000180025095e-35 11094.7505 18608500.000000004 18922083.33333334 208873.75000000003 21118500.000000004 61668.377400000005 383.50000000000006 103942.85714285716
decision_type=2 2 2 2 2 2 2 2 2 2 2 2 2
left_child=2 3 4 6 -1 12 -2 -7 10 -4 -8 -9 -6
right_child=1 -3 9 -5 5 7 8 11 -10 -11 -12 -13 -14
leaf_value=-0.04610832966864109 0.018613393711192267 0.29870508834719661 -0.032164565498869001 0.15670891566710041 -0.19300638437271112 -0.12342752532826529 0.065047378540039044 -0.087943870179793396 0.043421982415020467 0.022206691017543731 0.11866225679715475 -0.040003072131763809 -0.15652347905561328
leaf_weight=15.999999999999998 13.999999999999998 15.999999999999998 13.000000000000002 10.999999999999998 12.000000000000002 18 10.000000000000002 17.000000000000004 15.999999999999998 10.999999999999998 14.999999999999998 10.999999999999998 15.999999999999998
leaf_count=16 14 16 13 11 12 18 10 17 16 11 15 11 16
internal_value=0 0.120595 -0.0867441 0.0774173 -0.107944 -0.121314 0.061559 -0.0903647 0.0762234 -0.00724441 0.0972163 -0.06911 -0.172159
internal_weight=0 82 114 66 90 74 55 46 41 24 25 28 28
internal_count=196 82 114 66 90 74 55 46 41 24 25 28 28
is_linear=0
shrinkage=0.2


Tree=3
num_leaves=15
num_cat=0
split_feature=5 5 16 5 15 1 1 5 5 15 5 5 16 16
split_gain=32.9651 11.0454 2.31772 1.93746 1.72457 1.45308 0.756318 0.719085 0.452356 0.289385 0.505678 0.205452 0.112122 0.10842
threshold=41458.145200000006 82867.816200000016 487474.00000000006 23690.222850000002 1.0000000180025095e-35 2006.5000000000002 2010.5000000000002 11094.7505 35102.32865000001 32448500.000000004 61668.377400000005 3106.7420000000002 189343.75000000003 178382.14285714287
decision_type=2 2 2 2 2 2 2 2 2 2 2 2 2 2
left_child=3 2 5 4 -1 -2 8 11 -5 10 13 -6 -9 -7
right_child=1 -3 -4 6 7 9 -8 12 -10 -11 -12 -13 -14 -15
leaf_value=-0.039346750080585483 -0.0081154053921208679 0.23896407037973405 0.14555919349193575 -0.080111150443553922 -0.1607120835781097 0.062409477758531756 -0.00064941017602298721 -0.073099316954612706 -0.029980447391668958 0.029656222686171532 0.096463280518849698 -0.12495783116254543 -0.10304882168769836 0.03492027913982218
leaf_weight=14.999999999999998 17 15.999999999999998 9.9999999999999982 18.000000000000004 10.000000000000002 12.000000000000002 11.999999999999998 10.000000000000002 11.999999999999998 9.9999999999999982 14.999999999999998 18 9.9999999999999982 10.999999999999998
leaf_count=15 17 16 10 18 10 12 12 10 12 10 15 18 10 11
internal_value=0 0.0881055 0.0559224 -0.0763581 -0.0985404 0.0421321 -0.0430847 -0.117038 -0.0600589 0.0599281 0.0678944 -0.137727 -0.0880741 0.0492625
internal_weight=0 91 75 105 63 65 42 48 30 48 38 28 20 23
internal_count=196 91 75 105 63 65 42 48 30 48 38 28 20 23
is_linear=0
shrinkage=0.2


Tree=4
num_leaves=14
num_cat=0
split_feature=1 11 7 9 16 16 2 10 16 16 16 16 9
split_gain=6.04956 4.53606 3.4673 1.89245 1.5262 1.25498 1.02626 0.952335 0.767155 0.638312 0.483117 0.313364 0.280078
threshold=1999.5000000000002 3.5000000000000004 302.50000000000006 143.50000000000003 203401.66666666672 165833.33333333334 1.0000000180025095e-35 1.0000000180025095e-35 1.0000000180025095e-35 138463.33333333334 161170.00000000003 215760.41666666672 83.500000000000014
decision_type=2 2 2 2 2 2 2 2 2 2 2 2 2
left_child=10 2 3 5 12 8 -7 -3 -2 -10 -1 -5 -4
right_child=1 7 4 11 -6 6 -8 -9 9 -11 -12 -13 -14
leaf_value=-0.10842604637145994 -0.029767514677608714 0.1193814362445846 0.0035249718464910973 0.037769123951071182 0.11523186970840803 0.029999075333277388 -0.039981107737280822 0.049235880142077804 -0.1204022472554987 -0.05226803936741569 -0.053025561347603806 -0.0035135747243960702 0.047707086801528936
leaf_weight=17.000000000000004 17 15.000000000000002 12.000000000000002 19.000000000000004 10.999999999999998 14.999999999999998 19 15.999999999999998 11.000000000000002 10.999999999999998 9.9999999999999982 11.999999999999998 10.999999999999998
leaf_count=17 17 15 12 19 11 15 19 16 11 11 10 12 11
internal_value=0 0.0140444 -0.00148549 -0.0196118 0.0539597 -0.0371928 -0.0091075 0.0831773 -0.0616775 -0.0863351 -0.0879073 0.0217887 0.0246555
internal_weight=0 169 138 104 34 73 34 31 39 22 27 31 23
internal_count=196 169 138 104 34 73 34 31 39 22 27 31 23
is_linear=0
shrinkage=0.2


Tree=5
num_leaves=17
num_cat=0
split_feature=0 11 15 0 0 15 0 0 15 16 10 15 0 16 16 15
split_gain=12.5048 2.89322 2.49497 1.65287 1.2181 1.25463 0.958085 0.433448 0.287655 0.266975 0.286672 0.25259 0.107665 0.0761672 0.0713235 0.0569662
threshold=673.00000000000011 3.5000000000000004 38229250.000000007 1304.5000000000002 21.500000000000004 1.0000000180025095e-35 348.00000000000006 846.50000000000011 47916041.666666679 208873.75000000003 195.00000000000003 21294833.33333334 159.50000000000003 189343.75000000003 158005.00000000003 19827250.000000004
decision_type=2 2 2 2 2 2 2 2 2 2 2 2 2 2 2 2
left_child=1 4 3 7 -1 -6 11 13 -3 10 -9 12 -7 -2 -8 -16
right_child=2 8 -4 -5 5 6 14 9 -10 -11 -12 -13 -14 -15 15 -17
leaf_value=-0.12392788767814636 0.0019302497402979774 0.0018875611099329857 0.15317410469055176 0.11792235916311092 0.0097719547649224598 -0.1092598351565274 -0.046750773804692121 0.041597072756849221 0.048755855560302735 0.022135162384559714 0.084763810248114177 -0.061608096957206732 -0.081866490344206497 0.025147262215614322 -0.038395650666207065 -0.017047830261290073
leaf_weight=9.9999999999999982 13.000000000000002 11.000000000000002 9.9999999999999982 10.999999999999998 11.999999999999998 11.000000000000002 12.999999999999998 16.000000000000004 9.9999999999999982 11.999999999999998 9.9999999999999982 14.999999999999998 11.999999999999998 9.9999999999999982 10.000000000000002 9.9999999999999982
leaf_count=10 13 11 10 11 12 11 13 16 10 12 10 15 12 10 10 10
internal_value=0 -0.0428444 0.0595642 0.0465628 -0.0579848 -0.0500399 -0.0601489 0.0336947 0.0242058 0.0468109 0.0581997 -0.0817994 -0.0949677 0.0120246 -0.035218 -0.0277217
internal_weight=0 114 82 72 93 83 71 61 21 38 26 38 23 23 33 20
internal_count=196 114 82 72 93 83 71 61 21 38 26 38 23 23 33 20
is_linear=0
shrinkage=0.2


Tree=6
num_leaves=14
num_cat=0
split_feature=15 3 15 9 15 16 9 7 16 15 16 15 16
split_gain=3.35915 2.18181 1.30086 1.06858 0.731755 0.658198 0.46209 0.525249 0.388517 0.220063 0.106045 0.0920434 0.0776086
threshold=15777500.000000002 1.5000000000000002 1.0000000180025095e-35 175.50000000000003 13239000.000000002 265617.08333333343 64.500000000000014 144.50000000000003 148430.00000000003 21975214.285714287 192285.00000000003 10639666.66666667 509595.71428571438
decision_type=2 2 2 2 2 2 2 2 2 2 2 2 2
left_child=2 3 -1 5 11 8 12 -8 -2 -5 -10 -4 -3
right_child=1 6 4 9 -6 -7 7 -9 10 -11 -12 -13 -14
leaf_value=0.0026005835050628302 -0.040327069411675139 0.071203132201400052 -0.088485713402430208 0.01228450499475002 -0.022946470454335215 -0.067288380265235911 0.0029595713131129737 0.055053599973519642 0.017933372475884172 0.054242826327681543 -0.006991985398862097 -0.064985498040914538 0.050923609962830178
leaf_weight=21 11.999999999999998 18.000000000000004 15.000000000000002 10.000000000000002 14.999999999999998 9.9999999999999982 16.000000000000004 14.999999999999998 11.000000000000002 9.9999999999999982 18 11.999999999999998 12.999999999999998
leaf_count=21 12 18 15 10 15 10 16 15 11 10 18 12 13
internal_value=0 0.0180203 -0.0380428 -0.00591724 -0.0583645 -0.0212823 0.0454326 0.0281664 -0.0100613 0.0332637 0.00246246 -0.0780412 0.0626988
internal_weight=0 133 63 71 42 51 62 31 41 20 29 27 31
internal_count=196 133 63 71 42 51 62 31 41 20 29 27 31
is_linear=0
shrinkage=0.2


Tree=7
num_leaves=15
num_cat=0
split_feature=0 12 0 3 0 1 9 9 0 15 0 1 1 9
split_gain=6.79914 2.72692 1.49283 1.23729 0.927923 0.231365 0.22694 0.42306 0.159314 0.155316 0.112417 0.10744 0.0527838 0.0177144
threshold=710.50000000000011 1.0000000180025095e-35 1197.0000000000002 1.5000000000000002 309.50000000000006 2013.5000000000002 391.00000000000006 306.00000000000006 138.50000000000003 14773541.66666667 623.50000000000011 2008.5000000000002 2007.5000000000002 181.50000000000003
decision_type=2 2 2 2 2 2 2 2 2 2 2 2 2 2
left_child=1 4 5 -3 8 6 7 11 12 -6 13 -2 -1 -11
right_child=2 3 -4 -5 9 -7 -8 -9 -10 10 -12 -13 -14 -15
leaf_value=-0.072163627743720982 0.016926472024484111 -0.024240373075008394 0.097123133639494583 0.055035357446306277 -0.050431325015696617 0.055923577894767131 0.051393866091966639 -0.01534901750697331 -0.05703849822231051 -0.033992224405793574 -0.0052421630034223199 0.043339797162583904 -0.092240396954796536 -0.023691889779134234
leaf_weight=10.000000000000002 11.000000000000002 13.999999999999998 18 18 10.999999999999998 11.999999999999998 9.9999999999999982 10.999999999999998 18 17.000000000000004 9.9999999999999982 13.999999999999998 10.999999999999998 10.999999999999998
leaf_count=10 11 14 18 18 11 12 10 11 18 17 10 14 11 11
internal_value=0 -0.0296446 0.0468072 0.0203522 -0.0478252 0.0311919 0.0247402 0.0173364 -0.0708455 -0.029503 -0.0234447 0.0317179 -0.08268 -0.0299457
internal_weight=0 120 76 32 88 58 46 36 39 49 38 25 21 28
internal_count=196 120 76 32 88 58 46 36 39 49 38 25 21 28
is_linear=0
shrinkage=0.2


Tree=8
num_leaves=15
num_cat=0
split_feature=0 2 9 8 10 2 0 10 0 2 0 9 0 8
split_gain=4.36328 1.18494 1.02114 0.686891 0.67886 1.10405 1.31454 0.4574 0.442283 0.382947 0.203854 0.140909 0.0666268 0.0374106
threshold=673.00000000000011 1.0000000180025095e-35 391.00000000000006 486.00000000000006 1.0000000180025095e-35 1.0000000180025095e-35 62.500000000000007 57.500000000000007 348.00000000000006 1.5000000000000002 299.50000000000006 263.00000000000006 200.00000000000003 179.00000000000003
decision_type=2 2 2 2 2 2 2 2 2 2 2 2 2 2
left_child=4 -2 3 7 5 6 -1 -3 12 10 -6 -9 -7 -10
right_child=1 2 -4 -5 9 8 -8 11 13 -11 -12 -13 -14 -15
leaf_value=-0.034463292131057144 0.085996366416414588 -0.025237311360736689 0.069780767882863678 0.054925876313989812 -0.086568437814712504 -0.056653083155029697 0.048999037875263544 0.032317301320532947 -0.0038997066969221278 -0.018349260352551931 -0.047113320705565537 0.00097888511690226465 -0.037094299562952737 -0.020394463295286352
leaf_weight=13.000000000000002 14.999999999999998 18 14.999999999999998 10.999999999999998 10.000000000000002 19.000000000000004 18 12.000000000000002 11.000000000000002 10.000000000000002 10.999999999999998 10.999999999999998 10.999999999999998 10.999999999999998
leaf_count=13 15 18 15 11 10 19 18 12 11 10 11 11 11 11
internal_value=0 0.0351847 0.023809 0.0105479 -0.0253083 -0.0158762 0.0139987 -0.00135845 -0.0336862 -0.050562 -0.0659015 0.0173294 -0.0494815 -0.0121471
internal_weight=0 82 67 52 114 83 31 41 52 31 21 23 30 22
internal_count=196 82 67 52 114 83 31 41 52 31 21 23 30 22
is_linear=0
shrinkage=0.2


Tree=9
num_leaves=16
num_cat=0
split_feature=5 5 12 16 16 5 12 5 1 1 1 16 16 5 5
split_gain=6.14985 1.76933 0.643169 0.66012 0.622866 0.408007 0.384966 0.232812 0.190716 0.093849 0.168471 0.0678066 0.0633232 0.0138721 0.000848045
threshold=82867.816200000016 37110.078650000003 80.500000000000014 244956.66666666669 128730.00000000001 52406.917450000008 1.0000000180025095e-35 18326.570500000005 2003.5000000000002 2001.5000000000002 2013.5000000000002 185733.33333333334 194881.25000000003 29261.090000000004 6249.4668000000011
decision_type=2 2 2 2 2 2 2 2 2 2 2 2 2 2 2
left_child=1 6 3 4 -3 12 7 9 -9 -1 -11 -7 -6 -10 -8
right_child=-2 2 -4 -5 5 11 14 8 13 10 -12 -13 -14 -15 -16
leaf_value=-0.032685561726490661 0.11882576309144498 -0.034796551740728321 0.049206173295221693 -0.040471698374797901 0.0087751858960837103 0.024500759517153099 -0.0038548952341079697 -0.04391305475280835 -0.008336434386331925 -0.070167363606966446 -0.037968850365051855 0.043217978902976031 -0.01373227088712156 -0.018380746922709728 -0.0064595752954483034
leaf_weight=11.999999999999998 15.999999999999998 9.9999999999999982 13.999999999999998 11.999999999999998 10.000000000000002 15.000000000000002 10.000000000000002 12.999999999999998 11.000000000000002 13.000000000000002 12.999999999999998 15.999999999999998 9.9999999999999982 10.999999999999998 9.9999999999999982
leaf_count=12 16 10 14 12 10 15 10 13 11 13 13 16 10 11 10
internal_value=0 -0.0105623 0.00993895 0.00240825 0.0108437 0.0197927 -0.0297409 -0.0364761 -0.0247074 -0.0473157 -0.0540681 0.0341613 -0.00247854 -0.0133586 -0.00515724
internal_weight=0 180 87 73 61 51 93 73 35 38 26 31 20 22 20
internal_count=196 180 87 73 61 51 93 73 35 38 26 31 20 22 20
is_linear=0
shrinkage=0.2


Tree=10
num_leaves=16
num_cat=0
split_feature=0 12 15 0 0 15 8 0 0 0 0 8 7 15 15
split_gain=1.87211 0.897187 0.701024 1.68822 0.512258 0.613448 0.495994 0.216041 0.212576 0.184213 0.156081 0.0602776 0.0397325 0.0310704 0.0276099
threshold=846.50000000000011 1.0000000180025095e-35 24552000.000000004 1197.0000000000002 62.500000000000007 50570142.857142866 34.500000000000007 910.50000000000011 587.50000000000011 1108.0000000000002 200.00000000000003 161.50000000000003 112.00000000000001 27408875.000000004 14773541.66666667
decision_type=2 2 2 2 2 2 2 2 2 2 2 2 2 2 2
left_child=1 6 9 7 -3 -6 10 -4 11 -2 14 -8 13 -12 -1
right_child=2 4 3 -5 5 -7 8 -9 -10 -11 12 -13 -14 -15 -16
leaf_value=-0.03902170628309249 0.021890772001019541 -0.019777767224745318 0.0379706049845977 0.11847169287502766 0.063969699541727695 -0.0014179495925253089 -0.0083129399378473537 -0.0026467211311683061 0.011010010511075197 -0.011878533599277338 -0.02326821642569624 -0.029337582644075155 -0.01648459722598394 -0.038096655048429968 -0.052213592793453827
leaf_weight=15.000000000000002 14.000000000000002 10.999999999999998 11.000000000000005 9.9999999999999982 12.000000000000002 10.999999999999998 12.000000000000002 9.9999999999999982 19 11.999999999999998 13.000000000000002 9.9999999999999982 14.999999999999998 9.9999999999999982 10.999999999999998
leaf_count=15 14 11 11 10 12 11 12 10 19 12 13 10 15 10 11
internal_value=0 -0.0125169 0.0305238 0.0508363 0.0157201 0.0326973 -0.0216604 0.018629 -0.00448636 0.00630494 -0.0326625 -0.0178696 -0.0244927 -0.0297154 -0.0446029
internal_weight=0 139 57 31 34 23 105 21 41 26 64 22 38 23 26
internal_count=196 139 57 31 34 23 105 21 41 26 64 22 38 23 26
is_linear=0
shrinkage=0.2


Tree=11
num_leaves=14
num_cat=0
split_feature=11 8 9 11 8 3 8 10 2 10 9 10 9
split_gain=0.710564 0.49162 0.562954 0.255172 0.109578 0.157938 0.104935 0.100076 0.21416 0.179384 0.121454 0.0595597 0.0608521
threshold=3.5000000000000004 528.00000000000011 391.00000000000006 88.000000000000014 367.00000000000006 1.5000000000000002 179.00000000000003 1.0000000180025095e-35 1.0000000180025095e-35 142.50000000000003 106.50000000000001 104.00000000000001 13.000000000000002
decision_type=2 2 2 2 2 2 2 2 2 2 2 2 2
left_child=1 2 4 -2 5 6 7 8 -1 -9 -10 12 -7
right_child=3 -3 -4 -5 -6 11 -8 9 10 -11 -12 -13 -14
leaf_value=0.0073993130524953217 0.050028648351629582 0.037544855233281854 0.028570800572633743 0.013468900553527334 -0.030488037628432114 0.0028939056922407703 0.00084261804253661209 -0.04467130654419843 -0.030995353604666882 -0.013042065652552993 -0.0048312873325564651 0.013680360745638609 -0.016767986966297031
leaf_weight=14.999999999999998 11.999999999999998 9.9999999999999982 14.999999999999998 21 11.999999999999998 17.000000000000004 13.999999999999998 13.000000000000002 20.000000000000004 15.999999999999998 10.999999999999998 9.9999999999999982 9.9999999999999982
leaf_count=15 12 10 15 21 12 17 14 13 20 16 11 10 10
internal_value=0 -0.00541835 -0.0082264 0.0267634 -0.0122261 -0.0104869 -0.0150524 -0.0180195 -0.0122187 -0.0272207 -0.0217113 0.000495139 -0.00438828
internal_weight=0 163 153 33 138 126 89 75 46 29 31 37 27
internal_count=196 163 153 33 138 126 89 75 46 29 31 37 27
is_linear=0
shrinkage=0.2


Tree=12
num_leaves=16
num_cat=0
split_feature=5 5 12 3 1 11 12 7 5 5 3 5 1 1 5
split_gain=3.01109 0.718839 0.339638 0.261112 0.187082 0.144747 0.21403 0.185331 0.0938467 0.0924352 0.0664296 0.0571311 0.0561689 0.0340282 0.0356099
threshold=92032.231299999999 46506.096150000005 162.50000000000003 1.0000000180025095e-35 2010.5000000000002 22.500000000000004 1.0000000180025095e-35 112.00000000000001 18326.570500000005 52406.917450000008 1.5000000000000002 2068.9709000000007 2009.5000000000002 2004.5000000000002 23690.222850000002
decision_type=2 2 2 2 2 2 2 2 2 2 2 2 2 2 2
left_child=1 5 3 9 -5 6 7 10 -9 -3 11 -1 -10 -13 -15
right_child=-2 2 -4 4 -6 -7 -8 8 12 -11 -12 13 -14 14 -16
leaf_value=-0.034177115907514231 0.10691056936979293 0.0014175742678344246 0.03916062718400589 -0.025425960967938102 0.0061615200527012351 -0.038611514258664104 0.0057712903148249579 -0.020883341953158371 -0.0077529829042032334 0.025173438301211909 -0.037763373320922257 -0.026003521717343988 0.01344492703676224 -0.019725060074900585 -0.0035652636457234621
leaf_weight=9.9999999999999982 9.9999999999999982 10.000000000000002 12.999999999999998 15.000000000000002 14.999999999999998 9.9999999999999982 19 10.000000000000002 10.000000000000002 19 11.999999999999998 10.999999999999998 9.9999999999999982 12.000000000000002 9.9999999999999982
leaf_count=10 10 10 13 15 15 10 19 10 10 19 12 11 10 12 10
internal_value=0 -0.00574788 0.00989712 0.00344923 -0.00963222 -0.0156289 -0.0134191 -0.0177087 -0.0050638 0.0169818 -0.0246059 -0.020934 0.00284597 -0.016921 -0.0123797
internal_weight=0 186 72 59 30 114 104 85 30 29 55 43 20 33 22
internal_count=196 186 72 59 30 114 104 85 30 29 55 43 20 33 22
is_linear=0
shrinkage=0.2


Tree=13
num_leaves=16
num_cat=0
split_feature=1 3 15 16 15 15 10 15 1 16 16 15 15 16 16
split_gain=0.540585 0.24008 0.239958 0.2265 0.144539 0.140157 0.266579 0.102161 0.140518 0.18863 0.0656371 0.0641712 0.0441694 0.0352442 0.0141025
threshold=1996.5000000000002 1.5000000000000002 7844223.2142857155 269224.16666666669 18608500.000000004 18922083.33333334 319.00000000000006 23992500.000000004 2010.5000000000002 509595.71428571438 163481.66666666672 34420966.666666679 25196875.000000004 103942.85714285716 144780.00000000003
decision_type=2 2 2 2 2 2 2 2 2 2 2 2 2 2 2
left_child=-1 2 -2 5 -3 10 12 -6 -9 11 13 -10 14 -4 -7
right_child=1 4 3 -5 7 6 -8 8 9 -11 -12 -13 -14 -15 -16
leaf_value=-0.037870900186577017 -0.026675536433855691 0.028381856973282993 -0.0065454651322215777 -0.027772036055102946 -0.010430267630991611 0.013869966464963822 0.04037143406458199 -0.0052267540929218136 0.019191295429217541 -0.00092186297361667347 -0.015274260391791661 0.041328020505607133 -0.005897930178504724 0.009859943102029237 0.0037425982342524965
leaf_weight=13.999999999999998 14.999999999999998 15.999999999999998 10.000000000000002 9.9999999999999982 10.999999999999998 11.000000000000002 9.9999999999999982 14.999999999999998 11.000000000000002 12.999999999999998 14.999999999999998 9.9999999999999982 12.999999999999998 10.999999999999998 10.999999999999998
leaf_count=14 15 16 10 10 11 11 10 15 11 13 15 10 13 11 11
internal_value=0 0.00291315 -0.00323758 0.000625823 0.0114918 0.00413173 0.0115729 0.00698777 0.0108979 0.0180118 -0.0051697 0.0297326 0.00334472 0.00204784 0.00880628
internal_weight=0 182 106 91 76 81 45 60 49 34 36 21 35 21 22
internal_count=196 182 106 91 76 81 45 60 49 34 36 21 35 21 22
is_linear=0
shrinkage=0.2


Tree=14
num_leaves=16
num_cat=0
split_feature=0 16 0 12 0 11 0 1 15 0 15 15 16 0 1
split_gain=0.636999 0.322607 0.439391 0.241446 0.225291 0.591296 0.151179 0.185534 0.10474 0.133342 0.185559 0.114946 0.0438911 0.0423405 0.0271711
threshold=846.50000000000011 134410.89285714287 1304.5000000000002 1.0000000180025095e-35 62.500000000000007 9.0000000000000018 890.50000000000011 2011.5000000000002 12696833.333333336 533.00000000000011 21118500.000000004 31089708.33333334 210777.50000000003 242.50000000000003 2006.5000000000002
decision_type=2 2 2 2 2 2 2 2 2 2 2 2 2 2 2
left_child=3 -2 6 8 -5 -6 -3 -8 13 11 -11 12 14 -1 -10
right_child=1 2 -4 4 5 -7 7 -9 9 10 -12 -13 -14 -15 -16
leaf_value=-0.016623927352241781 -0.014814598313532771 0.034346709739078177 0.061942248828709127 -0.016194250366904521 0.049308407058318446 -0.014887792346152394 -0.011871907440945503 0.022018273946430005 -0.022397122173570091 0.015780621832784485 -0.014227827242575587 -0.033248309350826524 0.0013723857980221512 -0.03342481438070536 -0.0091075733042089279
leaf_weight=15.000000000000002 9.9999999999999982 10.999999999999998 9.9999999999999982 10.999999999999998 12.000000000000002 10.999999999999998 12.000000000000002 13.999999999999998 10.000000000000002 17 15.999999999999998 10.999999999999998 9.9999999999999982 9.9999999999999982 15.999999999999998
leaf_count=15 10 11 10 11 12 11 12 14 10 17 16 11 10 10 16
internal_value=0 0.017805 0.0247453 -0.00730132 0.00734701 0.0186059 0.0146921 0.00637665 -0.0120446 -0.00851343 0.00123107 -0.0153553 -0.00988801 -0.0233443 -0.0142189
internal_weight=0 57 47 139 34 23 37 26 105 80 33 47 36 25 26
internal_count=196 57 47 139 34 23 37 26 105 80 33 47 36 25 26
is_linear=0
shrinkage=0.2


Tree=15
num_leaves=15
num_cat=0
split_feature=5 5 16 12 16 16 5 7 12 16 16 15 7 15
split_gain=1.41235 0.248779 0.279087 0.21339 0.401554 0.248168 0.138658 0.113743 0.10834 0.0333849 0.0351806 0.0358293 0.0237493 0.0143737
threshold=92032.231299999999 37110.078650000003 282404.00000000006 80.500000000000014 244956.66666666669 130616.66666666669 57391.248300000007 302.50000000000006 1.0000000180025095e-35 203401.66666666672 163481.66666666672 10639666.66666667 302.50000000000006 18608500.000000004
decision_type=2 2 2 2 2 2 2 2 2 2 2 2 2 2
left_child=1 2 8 4 5 -3 7 -7 9 10 11 -1 -8 -13
right_child=-2 3 -4 -5 -6 6 12 -9 -10 -11 -12 13 -14 -15
leaf_value=-0.018896711471357519 0.073220050036907194 -0.020405136576543251 -0.042815386205911639 0.024394369916990399 -0.033035291143907956 0.012980775660253128 0.029497557201168745 -0.012777753981451194 0.0073383815586566927 -0.0018801534763322428 -0.023262700506232002 -0.0016367134638130662 0.016870756232394622 -0.010589976806659252
leaf_weight=13.999999999999998 9.9999999999999982 11.999999999999998 9.9999999999999982 15.999999999999998 12.999999999999998 16.000000000000004 11.000000000000002 11.999999999999998 15.999999999999998 12.999999999999998 10.999999999999998 13.000000000000002 12.999999999999998 15.999999999999998
leaf_count=14 10 12 10 16 13 16 11 12 16 13 11 13 13 16
internal_value=0 -0.00393656 -0.011251 0.00337787 -0.000989196 0.00552017 0.0115029 0.00194141 -0.00744805 -0.0109791 -0.0131696 -0.0105877 0.022658 -0.00657644
internal_weight=0 186 93 93 77 64 52 28 83 67 54 43 24 29
internal_count=196 186 93 93 77 64 52 28 83 67 54 43 24 29
is_linear=0
shrinkage=0.2


Tree=16
num_leaves=13
num_cat=0
split_feature=9 1 9 1 3 16 1 16 10 16 16 16
split_gain=0.269619 0.195283 0.196426 0.150975 0.240428 0.552228 0.264878 0.155035 0.163935 0.066322 0.0609995 0.108153
threshold=423.50000000000006 1996.5000000000002 359.50000000000006 2001.5000000000002 1.5000000000000002 92733.333333333358 2011.5000000000002 178382.14285714287 87.000000000000014 132632.50000000003 232717.50000000003 509595.71428571438
decision_type=2 2 2 2 2 2 2 2 2 2 2 2
left_child=1 -1 3 -3 5 -5 -6 9 -9 -7 -8 -12
right_child=-2 2 -4 4 6 7 10 8 -10 -11 11 -13
leaf_value=-0.024824512394012087 0.025767424777150157 0.019295810924514253 -0.027411537691950802 -0.043919995054602624 0.028427479803366098 0.00011043436204393706 -0.0088594580690066031 0.0060379321997364368 -0.021931490477934287 0.018356268710511572 0.022322453707456582 -0.0053432170015115009
leaf_weight=13.999999999999998 14.999999999999998 17 9.9999999999999982 13.999999999999998 19 14.999999999999998 18 14.999999999999998 19 17 10.000000000000002 12.999999999999998
leaf_count=14 15 17 10 14 19 15 18 15 19 17 10 13
internal_value=0 -0.00213542 -0.000233342 0.00149775 -0.00066344 -0.0078412 0.00890691 -0.000188125 -0.00959204 0.00980353 -0.000139208 0.00668534
internal_weight=0 181 167 157 140 80 60 66 34 32 41 23
internal_count=196 181 167 157 140 80 60 66 34 32 41 23
is_linear=0
shrinkage=0.2


Tree=17
num_leaves=16
num_cat=0
split_feature=0 10 11 0 3 2 11 0 2 0 0 16 2 16 0
split_gain=0.216682 0.249527 0.195969 0.351043 0.271076 0.367836 0.168523 0.178198 0.115877 0.104196 0.041874 0.0361858 0.0330025 0.014098 0.0153198
threshold=846.50000000000011 57.500000000000007 3.5000000000000004 21.500000000000004 1.5000000000000002 1.0000000180025095e-35 22.500000000000004 1156.5000000000002 1.0000000180025095e-35 227.00000000000003 985.00000000000011 161170.00000000003 1.5000000000000002 143524.16666666672 533.00000000000011
decision_type=2 2 2 2 2 2 2 2 2 2 2 2 2 2 2
left_child=1 2 3 -1 5 -5 7 10 -3 -7 -2 -6 -10 -11 -15
right_child=6 8 -4 4 11 9 -8 -9 12 13 -12 -13 -14 14 -16
leaf_value=-0.038375110030174256 0.0095569885041760765 -0.03414548526589687 0.021650697837273282 0.04011184812212984 -0.024557562441226428 -0.015284778006995717 0.033960485011339185 -0.010263042855593894 -0.018014935106039045 0.00076819819144227294 0.025546103566884994 -0.0092287329557750909 -0.0017662384081631897 0.0039411089685745526 0.014757191940126094
leaf_weight=9.9999999999999982 19.000000000000004 12.999999999999998 14.999999999999998 11.999999999999998 11.000000000000002 11.999999999999998 9.9999999999999982 18 10 10.999999999999998 9.9999999999999982 13.999999999999998 10 10.000000000000002 10.999999999999998
leaf_count=10 19 13 15 12 11 12 10 18 10 11 10 14 10 10 11
internal_value=0 -0.00425837 0.000469709 -0.00302166 0.00134296 0.00907349 0.0103845 0.00536828 -0.0194455 0.000608478 0.0150705 -0.0159734 -0.00989059 0.00656845 0.00960668
internal_weight=0 139 106 91 81 56 57 47 33 44 29 25 20 32 21
internal_count=196 139 106 91 81 56 57 47 33 44 29 25 20 32 21
is_linear=0
shrinkage=0.2


Tree=18
num_leaves=15
num_cat=0
split_feature=5 16 10 15 5 15 15 5 1 16 5 5 1 9
split_gain=0.776243 0.136136 0.250374 0.320824 0.216961 0.0920282 0.0577699 0.414737 0.201571 0.0740731 0.0698238 0.0660831 0.0576329 0.0385391
threshold=92032.231299999999 244956.66666666669 57.500000000000007 50570142.857142866 67116.156900000016 30280416.666666672 12696833.333333336 12806.537000000002 2006.5000000000002 163481.66666666672 52406.917450000008 37110.078650000003 2013.5000000000002 1.0000000180025095e-35
decision_type=2 2 2 2 2 2 2 2 2 2 2 2 2 2
left_child=1 4 3 -3 5 6 7 8 -1 11 12 13 -11 -8
right_child=-2 2 -4 -5 -6 -7 9 -9 -10 10 -12 -13 -14 -15
leaf_value=0.026782670523971309 0.054282168596982962 0.025019382143562481 -0.031660577128915228 -0.022267489383618038 0.021151780994499433 0.014610982821746308 0.0057018120582638804 -0.037196272698541484 -0.0086322655073470533 -0.020484121976187448 0.0067411724384874114 0.014306553743560525 -0.0016783622516827149 -0.01145332768559456
leaf_weight=10.000000000000002 9.9999999999999982 11.000000000000002 17 11.999999999999998 17 10.999999999999998 11.000000000000002 14.999999999999998 18 16.000000000000004 9.9999999999999982 17 10.999999999999998 9.9999999999999982
leaf_count=10 10 11 17 12 17 11 11 15 18 16 10 17 11 10
internal_value=0 -0.0029184 -0.0132557 0.000347971 -8.62686e-05 -0.00288508 -0.00451607 -0.0103604 0.00401593 -0.00116531 -0.00753503 0.00503679 -0.0128225 -0.0024673
internal_weight=0 186 40 23 146 129 118 43 28 75 37 38 27 21
internal_count=196 186 40 23 146 129 118 43 28 75 37 38 27 21
is_linear=0
shrinkage=0.2


Tree=19
num_leaves=15
num_cat=0
split_feature=5 0 5 9 5 5 0 0 9 8 5 8 0 7
split_gain=0.496795 0.273175 0.324476 0.138677 0.1602 0.580267 0.2487 0.200579 0.0993233 0.120057 0.0948825 0.0663591 0.0517995 0.0162073
threshold=92032.231299999999 1156.5000000000002 67116.156900000016 1.0000000180025095e-35 7340.3948000000009 12806.537000000002 47.000000000000007 321.00000000000006 231.00000000000003 98.500000000000014 51869.709500000004 60.000000000000007 483.00000000000006 327.50000000000006
decision_type=2 2 2 2 2 2 2 2 2 2 2 2 2 2
left_child=1 2 3 4 6 -6 -1 -7 11 -10 12 -5 -9 -14
right_child=-2 -3 -4 8 5 7 -8 10 9 -11 -12 -13 13 -15
leaf_value=-0.0070738114742562161 0.043425734341144565 -0.031520939307908218 0.025924672098720777 0.021563270191836632 0.042089259508065885 -0.034387852386994794 -0.045702839195728304 0.01029866330292342 -0.013193299126272137 0.012359387901960874 -0.01973321398497016 0.0018885543686337769 -0.010704489170827646 0.00042046189308166506
leaf_weight=20.000000000000004 9.9999999999999982 11.999999999999998 17 16.000000000000004 9.9999999999999982 10.999999999999998 9.9999999999999982 13.999999999999998 19.000000000000004 11.999999999999998 11.999999999999998 11.999999999999998 11.000000000000002 9.9999999999999982
leaf_count=20 10 12 17 16 10 11 10 14 19 12 12 12 11 10
internal_value=0 -0.00233472 -0.000321874 -0.00316386 -0.00777592 -0.00240494 -0.0199502 -0.0100764 0.00449686 -0.00330194 -0.00438643 0.0131312 0.000875329 -0.00540689
internal_weight=0 186 174 157 98 68 30 58 59 31 47 28 35 21
internal_count=196 186 174 157 98 68 30 58 59 31 47 28 35 21
is_linear=0
shrinkage=0.2


Tree=20
num_leaves=14
num_cat=0
split_feature=5 0 5 1 3 0 0 2 2 1 0 1 5
split_gain=0.317949 0.174832 0.207665 0.0745231 0.157488 0.146991 0.293958 0.277245 0.0618397 0.0323381 0.042858 0.0154071 0.00505324
threshold=92032.231299999999 1156.5000000000002 67116.156900000016 2001.5000000000002 1.0000000180025095e-35 309.50000000000006 47.000000000000007 1.0000000180025095e-35 1.0000000180025095e-35 2012.5000000000002 753.50000000000011 2006.5000000000002 56143.386000000006
decision_type=2 2 2 2 2 2 2 2 2 2 2 2 2
left_child=1 2 3 4 -1 6 -5 -8 -7 10 11 -10 -12
right_child=-2 -3 -4 5 -6 8 7 -9 9 -11 12 -13 -14
leaf_value=0.019260485081330821 0.034740586970001458 -0.025216753066827854 0.020739737678976619 0.0084452978044282645 -0.0088558656784395381 -0.01049738135188818 -0.047190202170839662 -0.0088605485856533047 0.00080418559637936658 0.011534065504868825 0.0039860276877880085 -0.0091981354668470364 0.010073484495903055
leaf_weight=17 9.9999999999999982 11.999999999999998 17 15.999999999999998 14.999999999999998 15.999999999999998 13.000000000000002 18 11.000000000000002 14.999999999999998 10.000000000000002 13.999999999999998 11.999999999999998
leaf_count=17 10 12 17 16 15 16 13 18 11 15 10 14 12
internal_value=0 -0.00186777 -0.000257499 -0.00253109 0.00608095 -0.00473576 -0.013571 -0.0249343 0.00058804 0.00344879 0.000868388 -0.00479711 0.00730646
internal_weight=0 186 174 157 32 125 47 31 78 62 47 25 22
internal_count=196 186 174 157 32 125 47 31 78 62 47 25 22
is_linear=0
shrinkage=0.2


Tree=21
num_leaves=16
num_cat=0
split_feature=5 11 11 15 1 5 5 6 1 10 15 15 1 5 1
split_gain=0.220004 0.127726 0.33 0.164373 0.465457 0.0739317 0.053536 0.0569605 0.144616 0.0521243 0.0555459 0.0175583 0.0126292 0.0060956 0.000401016
threshold=82867.816200000016 3.5000000000000004 88.000000000000014 8810000.0000000019 2007.5000000000002 70081.615700000009 52406.917450000008 1.0000000180025095e-35 2010.5000000000002 1.0000000180025095e-35 15441375.000000002 24822625.000000004 2002.5000000000002 28332.515900000006 2015.5000000000002
decision_type=2 2 2 2 2 2 2 2 2 2 2 2 2 2 2
left_child=1 3 -3 4 -1 6 7 8 9 10 -5 -8 -12 -11 -10
right_child=-2 2 -4 5 -6 -7 11 -9 14 13 12 -13 -14 -15 -16
leaf_value=0.0073799700786670031 0.022474691781098954 0.037407330220395857 -0.0070502018227296724 -0.0043042311721364973 -0.049576987461610274 -0.018023978695273401 0.013004000742848099 0.011086834560741079 -0.019905459806323047 -0.0039073762856423845 0.0063210852415068065 0.0027965500429023189 0.015496852279951177 -0.01073000028687106 -0.018114334605634216
leaf_weight=12.000000000000002 15.999999999999998 11.000000000000002 17 15.999999999999998 10.999999999999998 9.9999999999999982 13.000000000000002 10.999999999999998 10.000000000000002 10.000000000000002 12.000000000000002 13.999999999999998 11.999999999999998 10.999999999999998 9.9999999999999982
leaf_count=12 16 11 17 16 11 10 13 11 10 10 12 14 12 11 10
internal_value=0 -0.00199775 0.0104153 -0.00428436 -0.0198603 -0.00150725 -0.000119288 -0.00241738 -0.00425129 0.000587603 0.00482369 0.00771125 0.010909 -0.00748113 -0.0190099
internal_weight=0 180 28 152 23 129 119 92 81 61 40 27 24 21 20
internal_count=196 180 28 152 23 129 119 92 81 61 40 27 24 21 20
is_linear=0
shrinkage=0.2


Tree=22
num_leaves=15
num_cat=0
split_feature=5 12 12 5 5 10 8 1 5 1 5 5 8 8
split_gain=0.142989 0.111107 0.251894 0.16233 0.076766 0.0754531 0.0968562 0.0940251 0.0471037 0.0712212 0.0660478 0.0225509 0.0103142 0.0123285
threshold=92032.231299999999 1.0000000180025095e-35 108.00000000000001 53189.631150000008 72626.643450000018 319.00000000000006 1.0000000180025095e-35 2016.5000000000002 29587.291600000004 2009.5000000000002 14733.188450000001 51869.709500000004 329.50000000000006 161.50000000000003
decision_type=2 2 2 2 2 2 2 2 2 2 2 2 2 2
left_child=1 4 -3 -4 5 6 7 8 10 -10 -1 12 13 -8
right_child=-2 2 3 -5 -6 -7 11 -9 9 -11 -12 -13 -14 -15
leaf_value=-0.014724778408478748 0.02329753249883652 0.027429666835814714 -0.024256488233804694 0.011780176907777787 -0.019730723740278996 0.010108480536762407 0.0015111226562617554 0.0064793154791307943 -0.032609619610011568 -0.010159077155045592 0.0053560351766645913 0.008797019088108626 0.005227441228926182 -0.0061189438449218876
leaf_weight=19.000000000000004 9.9999999999999982 15.999999999999998 10.000000000000002 9.9999999999999982 10.999999999999998 17 18 11.999999999999998 10.000000000000002 12.999999999999998 9.9999999999999982 13.999999999999998 9.9999999999999982 15.999999999999998
leaf_count=19 10 16 10 10 11 17 18 12 10 13 10 14 10 16
internal_value=0 -0.00125256 0.00872532 -0.00623816 -0.00364725 -0.00237445 -0.00411388 -0.00947848 -0.0131611 -0.0199202 -0.00780036 0.00180569 -0.000418829 -0.0020795
internal_weight=0 186 36 20 150 139 122 64 52 23 29 58 44 34
internal_count=196 186 36 20 150 139 122 64 52 23 29 58 44 34
is_linear=0
shrinkage=0.2


Tree=23
num_leaves=15
num_cat=0
split_feature=5 8 5 12 12 15 2 3 5 15 15 8 15 5
split_gain=0.109287 0.22161 0.229066 0.213442 0.218127 0.0806378 0.0507996 0.0278176 0.0266214 0.0229295 0.0237932 0.0217299 0.0205706 0.00919554
threshold=67116.156900000016 60.000000000000007 82867.816200000016 108.00000000000001 1.0000000180025095e-35 12696833.333333336 1.0000000180025095e-35 1.0000000180025095e-35 26652.586100000004 27762483.33333334 21118500.000000004 81.000000000000014 23315000.000000004 40459.818700000011
decision_type=2 2 2 2 2 2 2 2 2 2 2 2 2 2
left_child=3 2 -2 4 5 7 -7 -1 12 10 11 -10 -8 -13
right_child=1 -3 -4 -5 -6 6 8 -9 9 -11 -12 13 -14 -15
leaf_value=-0.0063464693459016931 0.042978741364045565 -0.0089551178117593128 0.002162920761938122 -0.026835258763570055 0.021943731792271139 -0.011452169663139753 0.0012018675700976296 -0.019194486679939123 0.012677677236497403 0.011122885251125599 -0.0041478218924668108 -0.0030510931275784959 -0.010549572740935466 0.0048896338940331982
leaf_weight=14 11.000000000000002 14.999999999999998 10.999999999999998 12.999999999999998 15.999999999999998 13.999999999999998 13.000000000000002 13 9.9999999999999982 12.999999999999998 18 10.000000000000002 10.999999999999998 13.999999999999998
leaf_count=14 11 15 11 13 16 14 13 13 10 13 18 10 11 14
internal_value=0 0.00979004 0.0225708 -0.00227819 -9.1597e-05 -0.00280364 -0.000253339 -0.0125326 0.00150827 0.00361011 0.00173192 0.00484473 -0.00418421 0.001581
internal_weight=0 37 22 159 146 130 103 27 89 65 52 34 24 24
internal_count=196 37 22 159 146 130 103 27 89 65 52 34 24 24
is_linear=0
shrinkage=0.2


Tree=24
num_leaves=16
num_cat=0
split_feature=5 11 10 5 16 5 16 16 5 10 16 16 16 10 5
split_gain=0.111807 0.103702 0.212137 0.106655 0.301613 0.296741 0.117828 0.0558758 0.155714 0.0853656 0.0247887 0.0579032 0.03689 0.0260155 0.00284073
threshold=82867.816200000016 3.5000000000000004 1.0000000180025095e-35 7340.3948000000009 64980.000000000007 12806.537000000002 118895.00000000001 244956.66666666669 44404.218400000005 285.50000000000006 175176.66666666669 198490.00000000003 143524.16666666672 33.500000000000007 35102.32865000001
decision_type=2 2 2 2 2 2 2 2 2 2 2 2 2 2 2
left_child=1 3 -3 4 -1 -5 -7 9 -9 10 12 -12 -8 -13 -14
right_child=-2 2 -4 5 -6 6 7 8 -10 -11 11 13 14 -15 -16
leaf_value=-0.035606440369571953 0.016021887074748522 0.025967042148113247 -0.0089389470907358017 0.030475734208117833 0.0045903675258159643 -0.020447252526258428 -0.0061170270559019772 0.0068547311238944504 -0.02843995944946073 0.017382359420034018 -0.018254028204828503 0.0063788980245590198 0.0051847100164741262 -0.0074334144685417412 0.0099518717266619209
leaf_weight=14.000000000000002 15.999999999999998 15.000000000000002 12.999999999999998 10.999999999999998 15.999999999999998 14.999999999999998 12.999999999999998 10.000000000000002 9.9999999999999982 10.999999999999998 9.9999999999999982 12.000000000000002 10.000000000000002 9.9999999999999982 9.9999999999999982
leaf_count=14 16 15 13 11 16 15 13 10 10 11 10 12 10 10 10
internal_value=0 -0.00142417 0.00976069 -0.00348454 -0.0141681 -0.00085742 -0.00396251 -0.00138677 -0.0107926 0.00108846 -0.00166897 -0.00563524 0.00217711 0.000100574 0.00756829
internal_weight=0 180 28 152 30 122 111 96 20 76 65 32 33 22 20
internal_count=196 180 28 152 30 122 111 96 20 76 65 32 33 22 20
is_linear=0
shrinkage=0.2


end of trees

feature_importances:
Column_5=59
Column_16=51
Column_0=50
Column_15=49
Column_1=30
Column_9=19
Column_10=19
Column_8=15
Column_12=15
Column_2=12
Column_3=11
Column_11=11
Column_7=10
Column_6=1

parameters:
[boosting: gbdt]
[objective: regression]
[metric: rmse]
[tree_learner: serial]
[device_type: cpu]
[data_sample_strategy: bagging]
[data: ]
[valid: ]
[num_iterations: 10000]
[learning_rate: 0.2]
[num_leaves: 63]
[num_threads: 0]
[seed: 1236]
[deterministic: 0]
[force_col_wise: 0]
[force_row_wise: 0]
[histogram_pool_size: -1]
[max_depth: -1]
[min_data_in_leaf: 10]
[min_sum_hessian_in_leaf: 0.001]
[bagging_fraction: 1]
[pos_bagging_fraction: 1]
[neg_bagging_fraction: 1]
[bagging_freq: 0]
[bagging_seed: 21709]
[feature_fraction: 0.5]
[feature_fraction_bynode: 1]
[feature_fraction_seed: 24116]
[extra_trees: 0]
[extra_seed: 15571]
[early_stopping_round: 0]
[early_stopping_min_delta: 0]
[first_metric_only: 0]
[max_delta_step: 0]
[lambda_l1: 0]
[lambda_l2: 0]
[linear_lambda: 0]
[min_gain_to_split: 0]
[drop_rate: 0.1]
[max_drop: 50]
[skip_drop: 0.5]
[xgboost_dart_mode: 0]
[uniform_drop: 0]
[drop_seed: 15722]
[top_rate: 0.2]
[other_rate: 0.1]
[min_data_per_group: 100]
[max_cat_threshold: 32]
[cat_l2: 10]
[cat_smooth: 10]
[max_cat_to_onehot: 4]
[top_k: 20]
[monotone_constraints: ]
[monotone_constraints_method: basic]
[monotone_penalty: 0]
[feature_contri: ]
[forcedsplits_filename: ]
[refit_decay_rate: 0.9]
[cegb_tradeoff: 1]
[cegb_penalty_split: 0]
[cegb_penalty_feature_lazy: ]
[cegb_penalty_feature_coupled: ]
[path_smooth: 0]
[interaction_constraints: ]
[verbosity: -1]
[saved_feature_importance_type: 0]
[use_quantized_grad: 0]
[num_grad_quant_bins: 4]
[quant_train_renew_leaf: 0]
[stochastic_rounding: 1]
[linear_tree: 0]
[max_bin: 255]
[max_bin_by_feature: ]
[min_data_in_bin: 3]
[bin_construct_sample_cnt: 200000]
[data_random_seed: 4074]
[is_enable_sparse: 1]
[enable_bundle: 1]
[use_missing: 1]
[zero_as_missing: 0]
[feature_pre_filter: 1]
[pre_partition: 0]
[two_round: 0]
[header: 0]
[label_column: ]
[weight_column: ]
[group_column: ]
[ignore_column: ]
[categorical_feature: ]
[forcedbins_filename: ]
[precise_float_parser: 0]
[parser_config_file: ]
[objective_seed: 10917]
[num_class: 1]
[is_unbalance: 0]
[scale_pos_weight: 1]
[sigmoid: 1]
[boost_from_average: 1]
[reg_sqrt: 0]
[alpha: 0.9]
[fair_c: 1]
[poisson_max_delta_step: 0.7]
[tweedie_variance_power: 1.5]
[lambdarank_truncation_level: 30]
[lambdarank_norm: 1]
[label_gain: ]
[lambdarank_position_bias_regularization: 0]
[eval_at: ]
[multi_error_top_k: 1]
[auc_mu_weights: ]
[num_machines: 1]
[local_listen_port: 12400]
[time_out: 120]
[machine_list_filename: ]
[machines: ]
[gpu_platform_id: -1]
[gpu_device_id: -1]
[gpu_use_dp: 0]
[num_gpu: 1]

end of parameters

pandas_categorical:null
