{"learner":{"attributes":{"best_iteration":"95","best_score":"0.4350504657895711"},"feature_names":[],"feature_types":[],"gradient_booster":{"model":{"gbtree_model_param":{"num_parallel_tree":"1","num_trees":"146"},"iteration_indptr":[0,1,2,3,4,5,6,7,8,9,10,11,12,13,14,15,16,17,18,19,20,21,22,23,24,25,26,27,28,29,30,31,32,33,34,35,36,37,38,39,40,41,42,43,44,45,46,47,48,49,50,51,52,53,54,55,56,57,58,59,60,61,62,63,64,65,66,67,68,69,70,71,72,73,74,75,76,77,78,79,80,81,82,83,84,85,86,87,88,89,90,91,92,93,94,95,96,97,98,99,100,101,102,103,104,105,106,107,108,109,110,111,112,113,114,115,116,117,118,119,120,121,122,123,124,125,126,127,128,129,130,131,132,133,134,135,136,137,138,139,140,141,142,143,144,145,146],"tree_info":[0,0,0,0,0,0,0,0,0,0,0,0,0,0,0,0,0,0,0,0,0,0,0,0,0,0,0,0,0,0,0,0,0,0,0,0,0,0,0,0,0,0,0,0,0,0,0,0,0,0,0,0,0,0,0,0,0,0,0,0,0,0,0,0,0,0,0,0,0,0,0,0,0,0,0,0,0,0,0,0,0,0,0,0,0,0,0,0,0,0,0,0,0,0,0,0,0,0,0,0,0,0,0,0,0,0,0,0,0,0,0,0,0,0,0,0,0,0,0,0,0,0,0,0,0,0,0,0,0,0,0,0,0,0,0,0,0,0,0,0,0,0,0,0,0,0],"trees":[{"base_weights":[8.042771E-3,-5.0369006E-1,9.390969E-1,-6.8078387E-1,-2.2882393E-2,3.766283E-2,1.3192382E-1,-3.8069066E-2,-9.1381386E-2],"categories":[],"categories_nodes":[],"categories_segments":[],"categories_sizes":[],"default_left":[0,0,0,0,0,0,0,0,0],"id":0,"left_children":[1,3,5,7,-1,-1,-1,-1,-1],"loss_changes":[8.194613E1,5.2473774E0,1.2546005E1,4.3374767E0,0E0,0E0,0E0,0E0,0E0],"parents":[2147483647,0,0,1,1,2,2,3,3],"right_children":[2,4,6,8,-1,-1,-1,-1,-1],"split_conditions":[6.44E2,3.88E2,2.233275E7,1E0,-2.2882393E-2,3.766283E-2,1.3192382E-1,-3.8069066E-2,-9.1381386E-2],"split_indices":[0,0,15,2,0,0,0,0,0],"split_type":[0,0,0,0,0,0,0,0,0],"sum_hessian":[1.7E2,1.1E2,6E1,6.6E1,4.4E1,2.5E1,3.5E1,3E1,3.6E1],"tree_param":{"num_deleted":"0","num_feature":"17","num_nodes":"9","size_leaf_vector":"1"}},{"base_weights":[-4.8557236E-3,-5.529763E-1,4.6420473E-1,-7.421744E-2,-4.0654957E-2,4.0460067E-4,6.7018557E-1,3.818707E-2,9.387891E-2],"categories":[],"categories_nodes":[],"categories_segments":[],"categories_sizes":[],"default_left":[0,0,0,0,0,0,0,0,0],"id":1,"left_children":[1,3,5,-1,-1,-1,7,-1,-1],"loss_changes":[4.6277897E1,1.997673E0,9.191322E0,0E0,0E0,0E0,4.830143E0,0E0,0E0],"parents":[2147483647,0,0,1,1,2,2,6,6],"right_children":[2,4,6,-1,-1,-1,8,-1,-1],"split_conditions":[1.87175E7,2.002E3,2.008E3,-7.421744E-2,-4.0654957E-2,4.0460067E-4,1E0,3.818707E-2,9.387891E-2],"split_indices":[15,1,1,0,0,0,3,0,0],"split_type":[0,0,0,0,0,0,0,0,0],"sum_hessian":[1.78E2,8.2E1,9.6E1,3.4E1,4.8E1,3E1,6.6E1,3.3E1,3.3E1],"tree_param":{"num_deleted":"0","num_feature":"17","num_nodes":"9","size_leaf_vector":"1"}},{"base_weights":[1.1869344E-2,-4.742934E-1,8.4190315E-1,-5.930561E-1,-6.3220942E-3,4.5260757E-2,1.4084385E-1,-2.99571E-2,-7.084258E-1,-8.864908E-2,-5.508207E-2],"categories":[],"categories_nodes":[],"categories_segments":[],"categories_sizes":[],"default_left":[0,0,0,0,0,0,0,0,0,0,0],"id":2,"left_children":[1,3,5,7,-1,-1,-1,-1,9,-1,-1],"loss_changes":[7.101733E1,5.3815365E0,1.3698261E1,2.6996727E0,0E0,0E0,0E0,0E0,1.2236042E0,0E0,0E0],"parents":[2147483647,0,0,1,1,2,2,3,3,8,8],"right_children":[2,4,6,8,-1,-1,-1,-1,10,-1,-1],"split_conditions":[4.3681914E4,3.225781E4,7.0172445E4,1E0,-6.3220942E-3,4.5260757E-2,1.4084385E-1,-2.99571E-2,1.3485333E7,-8.864908E-2,-5.508207E-2],"split_indices":[5,5,5,2,0,0,0,0,15,0,0],"split_type":[0,0,0,0,0,0,0,0,0,0,0],"sum_hessian":[1.74E2,1.1E2,6.4E1,8.5E1,2.5E1,3.9E1,2.5E1,2.5E1,6E1,2.6E1,3.4E1],"tree_param":{"num_deleted":"0","num_feature":"17","num_nodes":"11","size_leaf_vector":"1"}},{"base_weights":[-3.6091954E-2,-4.7873965E-1,8.1351256E-1,-5.954602E-1,-4.7315606E-3,4.490976E-2,1.2867981E-1,-7.458862E-2,-4.6540388E-1,-5.520317E-2,-3.575441E-2],"categories":[],"categories_nodes":[],"categories_segments":[],"categories_sizes":[],"default_left":[0,0,0,0,0,0,0,0,0,0,0],"id":3,"left_children":[1,3,5,7,-1,-1,-1,-1,9,-1,-1],"loss_changes":[6.695482E1,5.8634796E0,9.942913E0,1.4527359E0,0E0,0E0,0E0,0E0,2.8849506E-1,0E0,0E0],"parents":[2147483647,0,0,1,1,2,2,3,3,8,8],"right_children":[2,4,6,8,-1,-1,-1,-1,10,-1,-1],"split_conditions":[5.0626844E4,3.4858906E4,7.0818E4,1.0833327E4,-4.7315606E-3,4.490976E-2,1.2867981E-1,-7.458862E-2,2.007E3,-5.520317E-2,-3.575441E-2],"split_indices":[5,5,5,5,0,0,0,0,1,0,0],"split_type":[0,0,0,0,0,0,0,0,0,0,0],"sum_hessian":[1.76E2,1.16E2,6E1,9.1E1,2.5E1,3.5E1,2.5E1,4E1,5.1E1,2.6E1,2.5E1],"tree_param":{"num_deleted":"0","num_feature":"17","num_nodes":"11","size_leaf_vector":"1"}},{"base_weights":[-1.3690716E-2,-4.185689E-1,5.479229E-1,-5.2409303E-1,-8.183909E-3,1.122875E-2,7.767849E-2,-6.386004E-2,-3.0464595E-2],"categories":[],"categories_nodes":[],"categories_segments":[],"categories_sizes":[],"default_left":[0,0,0,0,0,0,0,0,0],"id":4,"left_children":[1,3,5,7,-1,-1,-1,-1,-1],"loss_changes":[4.0703896E1,3.6525536E0,7.3903008E0,1.7905884E0,0E0,0E0,0E0,0E0,0E0],"parents":[2147483647,0,0,1,1,2,2,3,3],"right_children":[2,4,6,8,-1,-1,-1,-1,-1],"split_conditions":[5.81E2,2E0,2.008E3,3.24E2,-8.183909E-3,1.122875E-2,7.767849E-2,-6.386004E-2,-3.0464595E-2],"split_indices":[0,3,1,0,0,0,0,0,0],"split_type":[0,0,0,0,0,0,0,0,0],"sum_hessian":[1.77E2,1.03E2,7.4E1,7.8E1,2.5E1,2.6E1,4.8E1,5E1,2.8E1],"tree_param":{"num_deleted":"0","num_feature":"17","num_nodes":"9","size_leaf_vector":"1"}},{"base_weights":[-5.610852E-3,-2.6778352E-1,6.936332E-2,-3.7271312E-1,1.0327656E-2,-2.9316255E-1,-5.668017E-2,-4.4815116E-2,-1.9244855E-2],"categories":[],"categories_nodes":[],"categories_segments":[],"categories_sizes":[],"default_left":[0,0,0,0,0,0,0,0,0],"id":5,"left_children":[1,3,-1,5,-1,7,-1,-1,-1],"loss_changes":[3.2267212E1,5.022196E0,0E0,1.37782E0,0E0,1.0532489E0,0E0,0E0,0E0],"parents":[2147483647,0,0,1,1,3,3,5,5],"right_children":[2,4,-1,6,-1,8,-1,-1,-1],"split_conditions":[8.53E2,5.81E2,6.936332E-2,3E1,1.0327656E-2,2.007E3,-5.668017E-2,-4.4815116E-2,-1.9244855E-2],"split_indices":[0,0,0,7,0,1,0,0,0],"split_type":[0,0,0,0,0,0,0,0,0],"sum_hessian":[1.74E2,1.27E2,4.7E1,9.9E1,2.8E1,7.2E1,2.7E1,2.7E1,4.5E1],"tree_param":{"num_deleted":"0","num_feature":"17","num_nodes":"9","size_leaf_vector":"1"}},{"base_weights":[-6.6107656E-3,-3.346448E-1,5.726776E-1,-4.2630604E-1,-2.689774E-3,2.7369669E-2,9.99123E-2,-5.377829E-2,-3.330575E-2],"categories":[],"categories_nodes":[],"categories_segments":[],"categories_sizes":[],"default_left":[0,0,0,0,0,0,0,0,0],"id":6,"left_children":[1,3,5,7,-1,-1,-1,-1,-1],"loss_changes":[3.3636276E1,3.1760902E0,7.886484E0,7.252579E-1,0E0,0E0,0E0,0E0,0E0],"parents":[2147483647,0,0,1,1,2,2,3,3],"right_children":[2,4,6,8,-1,-1,-1,-1,-1],"split_conditions":[5.0626844E4,3.4997883E4,7.0818E4,1.0833327E4,-2.689774E-3,2.7369669E-2,9.99123E-2,-5.377829E-2,-3.330575E-2],"split_indices":[5,5,5,5,0,0,0,0,0],"split_type":[0,0,0,0,0,0,0,0,0],"sum_hessian":[1.75E2,1.12E2,6.3E1,8.6E1,2.6E1,3.8E1,2.5E1,3.7E1,4.9E1],"tree_param":{"num_deleted":"0","num_feature":"17","num_nodes":"9","size_leaf_vector":"1"}},{"base_weights":[1.9111244E-2,-2.9596755E-1,3.0315936E-1,3.4907633E-5,-4.2369622E-1,1.8838395E-1,5.872668E-2,-6.2599264E-2,-2.273093E-2,6.116369E-3,3.8664807E-2],"categories":[],"categories_nodes":[],"categories_segments":[],"categories_sizes":[],"default_left":[0,0,0,0,0,0,0,0,0,0,0],"id":7,"left_children":[1,3,5,-1,7,9,-1,-1,-1,-1,-1],"loss_changes":[1.5662296E1,3.1415424E0,2.8893557E0,0E0,2.161952E0,1.6663063E0,0E0,0E0,0E0,0E0,0E0],"parents":[2147483647,0,0,1,1,2,2,4,4,5,5],"right_children":[2,4,6,-1,8,10,-1,-1,-1,-1,-1],"split_conditions":[1.87175E7,8.4473336E4,2.79975E5,3.4907633E-5,1.46145E7,1.19E2,5.872668E-2,-6.2599264E-2,-2.273093E-2,6.116369E-3,3.8664807E-2],"split_indices":[15,16,16,0,15,8,0,0,0,0,0],"split_type":[0,0,0,0,0,0,0,0,0,0,0],"sum_hessian":[1.73E2,8.2E1,9.1E1,2.5E1,5.7E1,6.6E1,2.5E1,2.7E1,3E1,4.1E1,2.5E1],"tree_param":{"num_deleted":"0","num_feature":"17","num_nodes":"11","size_leaf_vector":"1"}},{"base_weights":[5.19865E-4,-2.0600691E-1,5.5686712E-2,-3.3866772E-1,3.4786664E-2,-4.7911444E-1,-9.144159E-3,-5.741314E-2,-3.542788E-2],"categories":[],"categories_nodes":[],"categories_segments":[],"categories_sizes":[],"default_left":[0,0,0,0,0,0,0,0,0],"id":8,"left_children":[1,3,-1,5,-1,7,-1,-1,-1],"loss_changes":[2.0796827E1,9.816816E0,0E0,3.6714535E0,0E0,6.03179E-1,0E0,0E0,0E0],"parents":[2147483647,0,0,1,1,3,3,5,5],"right_children":[2,4,-1,6,-1,8,-1,-1,-1],"split_conditions":[8.53E2,1E0,5.5686712E-2,4.94E2,3.4786664E-2,2.66E2,-9.144159E-3,-5.741314E-2,-3.542788E-2],"split_indices":[0,12,0,0,0,0,0,0,0],"split_type":[0,0,0,0,0,0,0,0,0],"sum_hessian":[1.79E2,1.31E2,4.8E1,1.06E2,2.5E1,6.7E1,3.9E1,3.6E1,3.1E1],"tree_param":{"num_deleted":"0","num_feature":"17","num_nodes":"9","size_leaf_vector":"1"}},{"base_weights":[2.3793813E-3,-2.7006036E-1,2.3464507E-1,-4.8331853E-2,-1.0550512E-2,1.3880551E-1,4.8364986E-2,-5.0421706E-3,4.0807232E-2],"categories":[],"categories_nodes":[],"categories_segments":[],"categories_sizes":[],"default_left":[0,0,0,0,0,0,0,0,0],"id":9,"left_children":[1,3,5,-1,-1,7,-1,-1,-1],"loss_changes":[1.113709E1,2.7915196E0,2.199995E0,0E0,0E0,3.587258E0,0E0,0E0,0E0],"parents":[2147483647,0,0,1,1,2,2,5,5],"right_children":[2,4,6,-1,-1,8,-1,-1,-1],"split_conditions":[1.8541E7,2.002E3,3.005275E5,-4.8331853E-2,-1.0550512E-2,2.03E2,4.8364986E-2,-5.0421706E-3,4.0807232E-2],"split_indices":[15,1,16,0,0,10,0,0,0],"split_type":[0,0,0,0,0,0,0,0,0],"sum_hessian":[1.74E2,8E1,9.4E1,3.4E1,4.6E1,6.9E1,2.5E1,4.1E1,2.8E1],"tree_param":{"num_deleted":"0","num_feature":"17","num_nodes":"9","size_leaf_vector":"1"}},{"base_weights":[1.7145531E-2,-1.5493569E-1,7.353334E-2,-2.72792E-1,6.7375833E-3,-1.6254699E-3,-3.7210122E-1,-4.959116E-2,-2.8149191E-2],"categories":[],"categories_nodes":[],"categories_segments":[],"categories_sizes":[],"default_left":[0,0,0,0,0,0,0,0,0],"id":10,"left_children":[1,3,-1,5,-1,-1,7,-1,-1],"loss_changes":[2.174159E1,3.7388961E0,0E0,2.3632674E0,0E0,0E0,6.120348E-1,0E0,0E0],"parents":[2147483647,0,0,1,1,3,3,6,6],"right_children":[2,4,-1,6,-1,-1,8,-1,-1],"split_conditions":[6.628698E4,3.6279562E4,7.353334E-2,1E0,6.7375833E-3,-1.6254699E-3,1.3485333E7,-4.959116E-2,-2.8149191E-2],"split_indices":[5,5,0,2,0,0,15,0,0],"split_type":[0,0,0,0,0,0,0,0,0],"sum_hessian":[1.74E2,1.41E2,3.3E1,9.2E1,4.9E1,2.6E1,6.6E1,2.6E1,4E1],"tree_param":{"num_deleted":"0","num_feature":"17","num_nodes":"9","size_leaf_vector":"1"}},{"base_weights":[1.1331362E-2,-1.24076225E-1,8.077171E-2,-2.6231852E-1,1.3422574E-1,-1.7812935E-3,-3.4358287E-1,4.6699494E-3,2.1383228E-2,-4.711425E-2,-2.7038021E-2],"categories":[],"categories_nodes":[],"categories_segments":[],"categories_sizes":[],"default_left":[0,0,0,0,0,0,0,0,0,0,0],"id":11,"left_children":[1,3,-1,5,7,-1,9,-1,-1,-1,-1],"loss_changes":[1.9295145E1,5.4985733E0,0E0,1.9808397E0,3.6626786E-1,0E0,5.729399E-1,0E0,0E0,0E0,0E0],"parents":[2147483647,0,0,1,1,3,3,4,4,6,6],"right_children":[2,4,-1,6,8,-1,10,-1,-1,-1,-1],"split_conditions":[7.0818E4,3.7336453E4,8.077171E-2,8.4473336E4,2.2204E7,-1.7812935E-3,1.4752E5,4.6699494E-3,2.1383228E-2,-4.711425E-2,-2.7038021E-2],"split_indices":[5,5,0,16,15,0,16,0,0,0,0],"split_type":[0,0,0,0,0,0,0,0,0,0,0],"sum_hessian":[1.77E2,1.52E2,2.5E1,9.9E1,5.3E1,2.5E1,7.4E1,2.6E1,2.7E1,2.5E1,4.9E1],"tree_param":{"num_deleted":"0","num_feature":"17","num_nodes":"11","size_leaf_vector":"1"}},{"base_weights":[-4.1793315E-3,-3.613799E-2,8.836311E-2,-1.9189494E-2,3.0622361E-2,-1.293142E-1,2.7380258E-2,4.1711987E-3,-2.2743616E-2],"categories":[],"categories_nodes":[],"categories_segments":[],"categories_sizes":[],"default_left":[0,0,0,0,0,0,0,0,0],"id":12,"left_children":[1,-1,3,5,-1,7,-1,-1,-1],"loss_changes":[5.783714E0,0E0,3.2628493E0,3.068379E0,0E0,1.1674051E0,0E0,0E0,0E0],"parents":[2147483647,0,0,2,2,3,3,5,5],"right_children":[2,-1,4,6,-1,8,-1,-1,-1],"split_conditions":[2.002E3,-3.613799E-2,2E0,2.03E2,3.0622361E-2,1E0,2.7380258E-2,4.1711987E-3,-2.2743616E-2],"split_indices":[1,0,3,10,0,2,0,0,0],"split_type":[0,0,0,0,0,0,0,0,0],"sum_hessian":[1.73E2,3.5E1,1.38E2,9.3E1,4.5E1,6.8E1,2.5E1,2.5E1,4.3E1],"tree_param":{"num_deleted":"0","num_feature":"17","num_nodes":"9","size_leaf_vector":"1"}},{"base_weights":[1.8750938E-2,-7.82016E-2,4.8101626E-2,-4.13344E-2,2.9261483E-2,-5.7862137E-2,2.2507591E-2,-1.1285828E-1,4.634007E-3,-1.6240785E-2,-6.0963957E-3],"categories":[],"categories_nodes":[],"categories_segments":[],"categories_sizes":[],"default_left":[0,0,0,0,0,0,0,0,0,0,0],"id":13,"left_children":[1,3,-1,-1,5,7,-1,9,-1,-1,-1],"loss_changes":[8.015183E0,5.3423796E0,0E0,0E0,1.9408103E0,4.5795673E-1,0E0,1.2380868E-1,0E0,0E0,0E0],"parents":[2147483647,0,0,1,1,4,4,5,5,7,7],"right_children":[2,4,-1,-1,6,8,-1,10,-1,-1,-1],"split_conditions":[6E0,1.3339E7,4.8101626E-2,-4.13344E-2,2.03E2,2E2,2.2507591E-2,2.0543334E7,4.634007E-3,-1.6240785E-2,-6.0963957E-3],"split_indices":[12,15,0,0,10,8,0,15,0,0,0],"split_type":[0,0,0,0,0,0,0,0,0,0,0],"sum_hessian":[1.77E2,1.47E2,3E1,3.5E1,1.12E2,7.8E1,3.4E1,5.1E1,2.7E1,2.5E1,2.6E1],"tree_param":{"num_deleted":"0","num_feature":"17","num_nodes":"11","size_leaf_vector":"1"}},{"base_weights":[-1.0418312E-3,-1.2287587E-1,3.437447E-2,-1.9971344E-1,1.8617956E-2,-2.88145E-1,-6.139334E-3,-3.369201E-2,-2.1165933E-2],"categories":[],"categories_nodes":[],"categories_segments":[],"categories_sizes":[],"default_left":[0,0,0,0,0,0,0,0,0],"id":14,"left_children":[1,3,-1,5,-1,7,-1,-1,-1],"loss_changes":[7.5614443E0,3.1955428E0,0E0,1.2911191E0,0E0,1.7117643E-1,0E0,0E0,0E0],"parents":[2147483647,0,0,1,1,3,3,5,5],"right_children":[2,4,-1,6,-1,8,-1,-1,-1],"split_conditions":[8.53E2,1E0,3.437447E-2,4.94E2,1.8617956E-2,2.96E2,-6.139334E-3,-3.369201E-2,-2.1165933E-2],"split_indices":[0,12,0,0,0,0,0,0,0],"split_type":[0,0,0,0,0,0,0,0,0],"sum_hessian":[1.78E2,1.32E2,4.6E1,1.06E2,2.6E1,6.4E1,4.2E1,3.7E1,2.7E1],"tree_param":{"num_deleted":"0","num_feature":"17","num_nodes":"9","size_leaf_vector":"1"}},{"base_weights":[7.917824E-3,-8.839969E-2,5.669958E-2,-1.9068655E-1,8.3629295E-2,-1.3015588E-1,-3.3831365E-2,-1.653945E-3,1.8796619E-2,-2.294009E-2,1.464418E-3],"categories":[],"categories_nodes":[],"categories_segments":[],"categories_sizes":[],"default_left":[0,0,0,0,0,0,0,0,0,0,0],"id":15,"left_children":[1,3,-1,5,7,9,-1,-1,-1,-1,-1],"loss_changes":[9.527547E0,2.6729894E0,0E0,8.0488324E-1,5.9883267E-1,9.949366E-1,0E0,0E0,0E0,0E0,0E0],"parents":[2147483647,0,0,1,1,3,3,4,4,5,5],"right_children":[2,4,-1,6,8,10,-1,-1,-1,-1,-1],"split_conditions":[7.0818E4,3.7336453E4,5.669958E-2,2.012E3,2.01E3,2.007E3,-3.3831365E-2,-1.653945E-3,1.8796619E-2,-2.294009E-2,1.464418E-3],"split_indices":[5,5,0,1,1,1,0,0,0,0,0],"split_type":[0,0,0,0,0,0,0,0,0,0,0],"sum_hessian":[1.75E2,1.5E2,2.5E1,9.4E1,5.6E1,6.8E1,2.6E1,2.9E1,2.7E1,4E1,2.8E1],"tree_param":{"num_deleted":"0","num_feature":"17","num_nodes":"11","size_leaf_vector":"1"}},{"base_weights":[6.3967523E-3,-1.02488294E-1,2.9889205E-2,-1.7528059E-1,1.789967E-2,-2.7113218E-2,-8.328318E-2,-1.2031026E-2,-3.878054E-3],"categories":[],"categories_nodes":[],"categories_segments":[],"categories_sizes":[],"default_left":[0,0,0,0,0,0,0,0,0],"id":16,"left_children":[1,3,-1,5,-1,-1,7,-1,-1],"loss_changes":[5.635945E0,2.6745768E0,0E0,8.8568354E-1,0E0,0E0,8.431569E-2,0E0,0E0],"parents":[2147483647,0,0,1,1,3,3,6,6],"right_children":[2,4,-1,6,-1,-1,8,-1,-1],"split_conditions":[8.53E2,1E0,2.9889205E-2,3.83E2,1.789967E-2,-2.7113218E-2,5.59E2,-1.2031026E-2,-3.878054E-3],"split_indices":[0,12,0,0,0,0,0,0,0],"split_type":[0,0,0,0,0,0,0,0,0],"sum_hessian":[1.75E2,1.28E2,4.7E1,1.02E2,2.6E1,4.9E1,5.3E1,2.8E1,2.5E1],"tree_param":{"num_deleted":"0","num_feature":"17","num_nodes":"9","size_leaf_vector":"1"}},{"base_weights":[1.4759122E-3,-1.02819815E-1,4.31256E-2,4.811477E-3,-1.4972387E-1,-4.0556237E-2,-5.924485E-2,-1.9992854E-2,1.0887619E-2,-4.003175E-3,5.7781045E-3],"categories":[],"categories_nodes":[],"categories_segments":[],"categories_sizes":[],"default_left":[0,0,0,0,0,0,0,0,0,0,0],"id":17,"left_children":[1,3,-1,-1,5,-1,7,-1,9,-1,-1],"loss_changes":[7.5748124E0,9.7000813E-1,0E0,0E0,2.3833663E0,0E0,7.717633E-1,0E0,1.2886561E-1,0E0,0E0],"parents":[2147483647,0,0,1,1,4,4,6,6,8,8],"right_children":[2,4,-1,-1,6,-1,8,-1,10,-1,-1],"split_conditions":[6.53197E4,1E0,4.31256E-2,4.811477E-3,1.2528E7,-4.0556237E-2,2.8429232E4,-1.9992854E-2,4.0905207E4,-4.003175E-3,5.7781045E-3],"split_indices":[5,2,0,0,15,0,5,0,5,0,0],"split_type":[0,0,0,0,0,0,0,0,0,0,0],"sum_hessian":[1.67E2,1.35E2,3.2E1,3.2E1,1.03E2,2.6E1,7.7E1,2.5E1,5.2E1,2.5E1,2.7E1],"tree_param":{"num_deleted":"0","num_feature":"17","num_nodes":"11","size_leaf_vector":"1"}},{"base_weights":[-8.8980503E-4,-5.7021532E-2,3.2298133E-2,-2.3872927E-2,1.5853042E-2,-3.9943796E-2,1.2855627E-2,1.0860203E-3,-1.1740021E-2],"categories":[],"categories_nodes":[],"categories_segments":[],"categories_sizes":[],"default_left":[0,0,0,0,0,0,0,0,0],"id":18,"left_children":[1,3,-1,-1,5,7,-1,-1,-1],"loss_changes":[3.1998198E0,1.9900658E0,0E0,0E0,6.8429124E-1,2.8853697E-1,0E0,0E0,0E0],"parents":[2147483647,0,0,1,1,4,4,5,5],"right_children":[2,4,-1,-1,6,8,-1,-1,-1],"split_conditions":[2.3E1,1.46145E7,3.2298133E-2,-2.3872927E-2,2.03E2,2E0,1.2855627E-2,1.0860203E-3,-1.1740021E-2],"split_indices":[12,15,0,0,10,10,0,0,0],"split_type":[0,0,0,0,0,0,0,0,0],"sum_hessian":[1.74E2,1.49E2,2.5E1,4.2E1,1.07E2,7.2E1,3.5E1,4.4E1,2.8E1],"tree_param":{"num_deleted":"0","num_feature":"17","num_nodes":"9","size_leaf_vector":"1"}},{"base_weights":[-1.3289163E-3,-8.148754E-2,4.7967393E-2,-1.4579509E-1,3.9255332E-2,4.7057127E-3,-2.0902058E-1,-3.5976244E-3,1.0314752E-2,-3.1183293E-2,-1.5359478E-1,-9.705518E-3,-2.0640148E-2],"categories":[],"categories_nodes":[],"categories_segments":[],"categories_sizes":[],"default_left":[0,0,0,0,0,0,0,0,0,0,0,0,0],"id":19,"left_children":[1,3,-1,5,7,-1,9,-1,-1,-1,11,-1,-1],"loss_changes":[7.0178185E0,1.2170131E0,0E0,1.2535398E0,2.680799E-1,0E0,3.908856E-1,0E0,0E0,0E0,1.3522232E-1,0E0,0E0],"parents":[2147483647,0,0,1,1,3,3,4,4,6,6,10,10],"right_children":[2,4,-1,6,8,-1,10,-1,-1,-1,12,-1,-1],"split_conditions":[7.0818E4,3.7336453E4,4.7967393E-2,8.6695E4,2.009E3,4.7057127E-3,1.4613E5,-3.5976244E-3,1.0314752E-2,-3.1183293E-2,1.9558667E5,-9.705518E-3,-2.0640148E-2],"split_indices":[5,5,0,16,1,0,16,0,0,0,16,0,0],"split_type":[0,0,0,0,0,0,0,0,0,0,0,0,0],"sum_hessian":[1.8E2,1.55E2,2.5E1,1.01E2,5.4E1,2.5E1,7.6E1,2.5E1,2.9E1,2.5E1,5.1E1,2.6E1,2.5E1],"tree_param":{"num_deleted":"0","num_feature":"17","num_nodes":"13","size_leaf_vector":"1"}},{"base_weights":[7.4814064E-3,-6.8766356E-2,4.470846E-2,-1.180871E-1,1.5034856E-2,-2.787584E-2,-5.3574927E-2,-1.6229521E-2,2.6904793E-2,6.257668E-3,-1.1173891E-3],"categories":[],"categories_nodes":[],"categories_segments":[],"categories_sizes":[],"default_left":[0,0,0,0,0,0,0,0,0,0,0],"id":20,"left_children":[1,3,-1,5,-1,-1,7,-1,9,-1,-1],"loss_changes":[5.896528E0,1.6387908E0,0E0,1.259992E0,0E0,0E0,7.830968E-1,0E0,7.1332835E-2,0E0,0E0],"parents":[2147483647,0,0,1,1,3,3,6,6,8,8],"right_children":[2,4,-1,6,-1,-1,8,-1,10,-1,-1],"split_conditions":[7.0172445E4,3E0,4.470846E-2,1.2528E7,1.5034856E-2,-2.787584E-2,2.9223635E4,-1.6229521E-2,2.0759E7,6.257668E-3,-1.1173891E-3],"split_indices":[5,11,0,15,0,0,5,0,15,0,0],"split_type":[0,0,0,0,0,0,0,0,0,0,0],"sum_hessian":[1.74E2,1.49E2,2.5E1,1.22E2,2.7E1,3.4E1,8.8E1,3.7E1,5.1E1,2.6E1,2.5E1],"tree_param":{"num_deleted":"0","num_feature":"17","num_nodes":"11","size_leaf_vector":"1"}},{"base_weights":[7.1614375E-3,-6.744968E-2,4.545527E-2,-1.1225532E-1,1.6089603E-2,-2.6194885E-2,-5.4950915E-2,-1.6552284E-2,-1.151673E-2,6.248802E-3,-1.1227267E-2],"categories":[],"categories_nodes":[],"categories_segments":[],"categories_sizes":[],"default_left":[0,0,0,0,0,0,0,0,0,0,0],"id":21,"left_children":[1,3,-1,5,-1,-1,7,-1,9,-1,-1],"loss_changes":[6.0725055E0,1.6141245E0,0E0,1.1093369E0,0E0,0E0,4.591434E-1,0E0,5.2896494E-1,0E0,0E0],"parents":[2147483647,0,0,1,1,3,3,6,6,8,8],"right_children":[2,4,-1,6,-1,-1,8,-1,10,-1,-1],"split_conditions":[7.0818E4,3E0,4.545527E-2,1.0833327E4,1.6089603E-2,-2.6194885E-2,2.002E3,-1.6552284E-2,2.3149666E7,6.248802E-3,-1.1227267E-2],"split_indices":[5,11,0,5,0,0,1,0,15,0,0],"split_type":[0,0,0,0,0,0,0,0,0,0,0],"sum_hessian":[1.8E2,1.55E2,2.5E1,1.3E2,2.5E1,3.5E1,9.5E1,2.6E1,6.9E1,4E1,2.9E1],"tree_param":{"num_deleted":"0","num_feature":"17","num_nodes":"11","size_leaf_vector":"1"}},{"base_weights":[-1.3245579E-3,-5.4974828E-2,2.5312427E-2,-1.147548E-1,1.25850905E-2,-2.1357695E-2,-6.447248E-2,-1.1746691E-2,-3.5625931E-3],"categories":[],"categories_nodes":[],"categories_segments":[],"categories_sizes":[],"default_left":[0,0,0,0,0,0,0,0,0],"id":22,"left_children":[1,3,-1,5,-1,-1,7,-1,-1],"loss_changes":[2.4301865E0,1.6034763E0,0E0,5.377898E-1,0E0,0E0,1.1046812E-1,0E0,0E0],"parents":[2147483647,0,0,1,1,3,3,6,6],"right_children":[2,4,-1,6,-1,-1,8,-1,-1],"split_conditions":[4E0,8.53E2,2.5312427E-2,1.94E2,1.25850905E-2,-2.1357695E-2,2.002E3,-1.1746691E-2,-3.5625931E-3],"split_indices":[11,0,0,0,0,0,1,0,0],"split_type":[0,0,0,0,0,0,0,0,0],"sum_hessian":[1.76E2,1.46E2,3E1,1.1E2,3.6E1,3.6E1,7.4E1,2.5E1,4.9E1],"tree_param":{"num_deleted":"0","num_feature":"17","num_nodes":"9","size_leaf_vector":"1"}},{"base_weights":[6.0106337E-4,-7.322171E-2,3.6969423E-2,3.690943E-3,-9.759414E-2,-2.5292277E-2,-4.7021348E-2,-9.85454E-3,3.3106527E-4],"categories":[],"categories_nodes":[],"categories_segments":[],"categories_sizes":[],"default_left":[0,0,0,0,0,0,0,0,0],"id":23,"left_children":[1,3,-1,-1,5,-1,7,-1,-1],"loss_changes":[4.7408843E0,3.9280587E-1,0E0,0E0,9.229003E-1,0E0,2.3631732E-1,0E0,0E0],"parents":[2147483647,0,0,1,1,4,4,6,6],"right_children":[2,4,-1,-1,6,-1,8,-1,-1],"split_conditions":[6.935971E4,8.6695E4,3.6969423E-2,3.690943E-3,2.96E2,-2.5292277E-2,3.7259355E4,-9.85454E-3,3.3106527E-4],"split_indices":[5,16,0,0,0,0,5,0,0],"split_type":[0,0,0,0,0,0,0,0,0],"sum_hessian":[1.72E2,1.44E2,2.8E1,2.6E1,1.18E2,2.8E1,9E1,4.4E1,4.6E1],"tree_param":{"num_deleted":"0","num_feature":"17","num_nodes":"9","size_leaf_vector":"1"}},{"base_weights":[6.23908E-3,-4.987507E-2,1.6489742E-2,-9.964925E-2,5.3069284E-3,-1.8487597E-2,-6.346864E-4],"categories":[],"categories_nodes":[],"categories_segments":[],"categories_sizes":[],"default_left":[0,0,0,0,0,0,0],"id":24,"left_children":[1,3,-1,5,-1,-1,-1],"loss_changes":[1.6018574E0,6.867764E-1,0E0,7.1449375E-1,0E0,0E0,0E0],"parents":[2147483647,0,0,1,1,3,3],"right_children":[2,4,-1,6,-1,-1,-1],"split_conditions":[8.53E2,1E0,1.6489742E-2,3.5E2,5.3069284E-3,-1.8487597E-2,-6.346864E-4],"split_indices":[0,3,0,0,0,0,0],"split_type":[0,0,0,0,0,0,0],"sum_hessian":[1.78E2,1.32E2,4.6E1,8.9E1,4.3E1,4.6E1,4.3E1],"tree_param":{"num_deleted":"0","num_feature":"17","num_nodes":"7","size_leaf_vector":"1"}},{"base_weights":[1.3783572E-3,-5.9797518E-2,2.4974773E-2,-2.206777E-2,-1.5219002E-2,-9.157147E-3,5.202385E-2,9.695924E-4,9.869577E-3],"categories":[],"categories_nodes":[],"categories_segments":[],"categories_sizes":[],"default_left":[0,0,0,0,0,0,0,0,0],"id":25,"left_children":[1,3,-1,-1,5,-1,7,-1,-1],"loss_changes":[2.5371735E0,9.576627E-1,0E0,0E0,5.4898465E-1,0E0,1.1164802E-1,0E0,0E0],"parents":[2147483647,0,0,1,1,4,4,6,6],"right_children":[2,4,-1,-1,6,-1,8,-1,-1],"split_conditions":[1E0,1.3101E7,2.4974773E-2,-2.206777E-2,5.36E2,-9.157147E-3,9.01E2,9.695924E-4,9.869577E-3],"split_indices":[12,15,0,0,0,0,0,0,0],"split_type":[0,0,0,0,0,0,0,0,0],"sum_hessian":[1.65E2,1.33E2,3.2E1,2.8E1,1.05E2,4.9E1,5.6E1,3E1,2.6E1],"tree_param":{"num_deleted":"0","num_feature":"17","num_nodes":"9","size_leaf_vector":"1"}},{"base_weights":[1.0404865E-2,-3.596926E-2,2.7398048E-2,1.1425742E-2,-6.743206E-2,-1.987048E-2,-1.9086646E-2,3.3360463E-2,-8.386021E-3,1.1830202E-2,-5.2864193E-3],"categories":[],"categories_nodes":[],"categories_segments":[],"categories_sizes":[],"default_left":[0,0,0,0,0,0,0,0,0,0,0],"id":26,"left_children":[1,3,-1,-1,5,-1,7,9,-1,-1,-1],"loss_changes":[2.124449E0,7.072343E-1,0E0,0E0,7.7681893E-1,0E0,3.1194153E-1,3.797809E-1,0E0,0E0,0E0],"parents":[2147483647,0,0,1,1,4,4,6,6,7,7],"right_children":[2,4,-1,-1,6,-1,8,10,-1,-1,-1],"split_conditions":[7.0172445E4,8.6695E4,2.7398048E-2,1.1425742E-2,1.404325E5,-1.987048E-2,6E1,4.7E1,-8.386021E-3,1.1830202E-2,-5.2864193E-3],"split_indices":[5,16,0,0,16,0,10,8,0,0,0],"split_type":[0,0,0,0,0,0,0,0,0,0,0],"sum_hessian":[1.72E2,1.47E2,2.5E1,2.5E1,1.22E2,3.2E1,9E1,5E1,4E1,2.5E1,2.5E1],"tree_param":{"num_deleted":"0","num_feature":"17","num_nodes":"11","size_leaf_vector":"1"}},{"base_weights":[-1.835899E-2,-6.646578E-2,7.655701E-2,-1.5874084E-2,-1.71101E-2,-6.0444773E-4,1.4432321E-2,-5.658291E-3,4.7932495E-3],"categories":[],"categories_nodes":[],"categories_segments":[],"categories_sizes":[],"default_left":[0,0,0,0,0,0,0,0,0],"id":27,"left_children":[1,3,5,-1,7,-1,-1,-1,-1],"loss_changes":[8.132888E-1,5.3469115E-1,3.3672774E-1,0E0,2.0297045E-1,0E0,0E0,0E0,0E0],"parents":[2147483647,0,0,1,1,2,2,4,4],"right_children":[2,4,6,-1,8,-1,-1,-1,-1],"split_conditions":[2E0,1.1574E5,4.3681914E4,-1.5874084E-2,4.0905207E4,-6.0444773E-4,1.4432321E-2,-5.658291E-3,4.7932495E-3],"split_indices":[3,16,5,0,5,0,0,0,0],"split_type":[0,0,0,0,0,0,0,0,0],"sum_hessian":[1.76E2,1.17E2,5.9E1,4E1,7.7E1,2.7E1,3.2E1,4.8E1,2.9E1],"tree_param":{"num_deleted":"0","num_feature":"17","num_nodes":"9","size_leaf_vector":"1"}},{"base_weights":[2.9574991E-3,-3.6406387E-2,1.8492306E-2,-1.6719243E-2,1.6991775E-2,-3.694422E-2,1.7617283E-2,-1.0866734E-2,1.6442937E-3,4.60394E-3,-4.281171E-3],"categories":[],"categories_nodes":[],"categories_segments":[],"categories_sizes":[],"default_left":[0,0,0,0,0,0,0,0,0,0,0],"id":28,"left_children":[1,3,-1,-1,5,7,-1,-1,9,-1,-1],"loss_changes":[1.2888864E0,1.0364335E0,0E0,0E0,9.165809E-1,2.2159374E-1,0E0,0E0,1.0657335E-1,0E0,0E0],"parents":[2147483647,0,0,1,1,4,4,5,5,8,8],"right_children":[2,4,-1,-1,6,8,-1,-1,10,-1,-1],"split_conditions":[1E0,1.46145E7,1.8492306E-2,-1.6719243E-2,9.49E2,3.9E2,1.7617283E-2,-1.0866734E-2,2.008E3,4.60394E-3,-4.281171E-3],"split_indices":[12,15,0,0,0,0,0,0,1,0,0],"split_type":[0,0,0,0,0,0,0,0,0,0,0],"sum_hessian":[1.78E2,1.47E2,3.1E1,4.2E1,1.05E2,7.9E1,2.6E1,2.7E1,5.2E1,2.6E1,2.6E1],"tree_param":{"num_deleted":"0","num_feature":"17","num_nodes":"11","size_leaf_vector":"1"}},{"base_weights":[1.3546161E-2,-2.396479E-2,1.9920992E-2,-6.6068344E-2,9.701578E-3,-8.962461E-2,4.423536E-4,-1.4258228E-2,-5.6865457E-3],"categories":[],"categories_nodes":[],"categories_segments":[],"categories_sizes":[],"default_left":[0,0,0,0,0,0,0,0,0],"id":29,"left_children":[1,3,-1,5,-1,7,-1,-1,-1],"loss_changes":[1.1190819E0,6.88967E-1,0E0,1.6644901E-1,0E0,1.2200564E-1,0E0,0E0,0E0],"parents":[2147483647,0,0,1,1,3,3,5,5],"right_children":[2,4,-1,6,-1,8,-1,-1,-1],"split_conditions":[1E0,5.763941E4,1.9920992E-2,1.83E2,9.701578E-3,1.404325E5,4.423536E-4,-1.4258228E-2,-5.6865457E-3],"split_indices":[12,5,0,9,0,16,0,0,0],"split_type":[0,0,0,0,0,0,0,0,0],"sum_hessian":[1.59E2,1.33E2,2.6E1,9.9E1,3.4E1,7.4E1,2.5E1,2.7E1,4.7E1],"tree_param":{"num_deleted":"0","num_feature":"17","num_nodes":"9","size_leaf_vector":"1"}},{"base_weights":[7.4394085E-3,-4.3871503E-2,3.0317778E-2,4.515541E-3,-6.290259E-2,-1.6824175E-2,-2.1238452E-2,-9.375317E-3,8.09418E-3,4.909902E-3,-3.846271E-3],"categories":[],"categories_nodes":[],"categories_segments":[],"categories_sizes":[],"default_left":[0,0,0,0,0,0,0,0,0,0,0],"id":30,"left_children":[1,3,-1,-1,5,-1,7,-1,9,-1,-1],"loss_changes":[2.6688566E0,2.5698227E-1,0E0,0E0,5.4064596E-1,0E0,1.9219312E-1,0E0,1.2597723E-1,0E0,0E0],"parents":[2147483647,0,0,1,1,4,4,6,6,8,8],"right_children":[2,4,-1,-1,6,-1,8,-1,10,-1,-1],"split_conditions":[7.182163E4,8.6695E4,3.0317778E-2,4.515541E-3,1.404325E5,-1.6824175E-2,3.83E2,-9.375317E-3,1.19E2,4.909902E-3,-3.846271E-3],"split_indices":[5,16,0,0,16,0,0,0,8,0,0],"split_type":[0,0,0,0,0,0,0,0,0,0,0],"sum_hessian":[1.74E2,1.49E2,2.5E1,2.6E1,1.23E2,3.4E1,8.9E1,2.5E1,6.4E1,3.4E1,3E1],"tree_param":{"num_deleted":"0","num_feature":"17","num_nodes":"11","size_leaf_vector":"1"}},{"base_weights":[-1.3657196E-2,-4.9324706E-2,1.8715488E-2,-2.9041564E-2,-1.4182224E-2,-7.457131E-2,6.502045E-3,-2.1236135E-2,8.079946E-4,7.8072334E-3,-7.934791E-3],"categories":[],"categories_nodes":[],"categories_segments":[],"categories_sizes":[],"default_left":[0,0,0,0,0,0,0,0,0,0,0],"id":31,"left_children":[1,3,-1,5,-1,7,-1,-1,9,-1,-1],"loss_changes":[1.2340131E0,2.6979774E-1,0E0,5.230456E-1,0E0,8.5186607E-1,0E0,0E0,3.4062728E-1,0E0,0E0],"parents":[2147483647,0,0,1,1,3,3,5,5,8,8],"right_children":[2,4,-1,6,-1,8,-1,-1,10,-1,-1],"split_conditions":[7.0172445E4,2.016E3,1.8715488E-2,2.009E3,-1.4182224E-2,1.3339E7,6.502045E-3,-2.1236135E-2,1.726E5,7.8072334E-3,-7.934791E-3],"split_indices":[5,1,0,1,0,15,0,0,16,0,0],"split_type":[0,0,0,0,0,0,0,0,0,0,0],"sum_hessian":[1.7E2,1.45E2,2.5E1,1.2E2,2.5E1,8.1E1,3.9E1,2.8E1,5.3E1,2.7E1,2.6E1],"tree_param":{"num_deleted":"0","num_feature":"17","num_nodes":"11","size_leaf_vector":"1"}},{"base_weights":[1.0328335E-2,-2.4101984E-2,2.072433E-2,2.0466564E-2,-1.0521608E-1,1.8498972E-2,-4.5635078E-2,-1.9584028E-2,-1.7307334E-3,-1.5496614E-2,1.8548096E-3],"categories":[],"categories_nodes":[],"categories_segments":[],"categories_sizes":[],"default_left":[0,0,0,0,0,0,0,0,0,0,0],"id":32,"left_children":[1,3,-1,5,7,-1,9,-1,-1,-1,-1],"loss_changes":[1.1846879E0,5.4080886E-1,0E0,1.0633413E0,4.1884345E-1,0E0,4.9407935E-1,0E0,0E0,0E0,0E0],"parents":[2147483647,0,0,1,1,3,3,4,4,6,6],"right_children":[2,4,-1,6,8,-1,10,-1,-1,-1,-1],"split_conditions":[1.022E3,4.6E1,2.072433E-2,1E0,5.26E2,1.8498972E-2,1.2528E7,-1.9584028E-2,-1.7307334E-3,-1.5496614E-2,1.8548096E-3],"split_indices":[0,10,0,2,0,0,15,0,0,0,0],"split_type":[0,0,0,0,0,0,0,0,0,0,0],"sum_hessian":[1.73E2,1.48E2,2.5E1,9.6E1,5.2E1,2.7E1,6.9E1,2.5E1,2.7E1,2.5E1,4.4E1],"tree_param":{"num_deleted":"0","num_feature":"17","num_nodes":"11","size_leaf_vector":"1"}},{"base_weights":[3.4127622E-3,-3.267728E-2,1.6359463E-2,-1.2877561E-2,7.7858206E-4,-2.8586889E-2,7.600327E-3,7.6320134E-3,-9.87102E-3,3.5864275E-3,-1.8916369E-3],"categories":[],"categories_nodes":[],"categories_segments":[],"categories_sizes":[],"default_left":[0,0,0,0,0,0,0,0,0,0,0],"id":33,"left_children":[1,3,-1,-1,5,7,-1,9,-1,-1,-1],"loss_changes":[1.0690445E0,4.8557323E-1,0E0,0E0,2.5179067E-1,2.0901611E-1,0E0,4.190207E-2,0E0,0E0,0E0],"parents":[2147483647,0,0,1,1,4,4,5,5,7,7],"right_children":[2,4,-1,-1,6,8,-1,10,-1,-1,-1],"split_conditions":[4E0,2.04E2,1.6359463E-2,-1.2877561E-2,1.34E2,2.98E2,7.600327E-3,1.6E2,-9.87102E-3,3.5864275E-3,-1.8916369E-3],"split_indices":[11,0,0,0,10,7,0,8,0,0,0],"split_type":[0,0,0,0,0,0,0,0,0,0,0],"sum_hessian":[1.83E2,1.5E2,3.3E1,3.8E1,1.12E2,8.1E1,3.1E1,5.4E1,2.7E1,2.6E1,2.8E1],"tree_param":{"num_deleted":"0","num_feature":"17","num_nodes":"11","size_leaf_vector":"1"}},{"base_weights":[-1.8541483E-2,-5.279672E-2,7.390575E-3,-1.0410704E-1,3.035572E-3,-1.844522E-2,-6.423284E-2,-2.6377E-3,-1.0544216E-2],"categories":[],"categories_nodes":[],"categories_segments":[],"categories_sizes":[],"default_left":[0,0,0,0,0,0,0,0,0],"id":34,"left_children":[1,3,-1,5,-1,-1,7,-1,-1],"loss_changes":[5.6125915E-1,5.5354875E-1,0E0,2.4444807E-1,0E0,0E0,8.3019525E-2,0E0,0E0],"parents":[2147483647,0,0,1,1,3,3,6,6],"right_children":[2,4,-1,6,-1,-1,8,-1,-1],"split_conditions":[2.8377E7,6E0,7.390575E-3,1.0319E7,3.035572E-3,-1.844522E-2,2.6E1,-2.6377E-3,-1.0544216E-2],"split_indices":[15,9,0,15,0,0,8,0,0],"split_type":[0,0,0,0,0,0,0,0,0],"sum_hessian":[1.75E2,1.28E2,4.7E1,7.9E1,4.9E1,2.5E1,5.4E1,2.9E1,2.5E1],"tree_param":{"num_deleted":"0","num_feature":"17","num_nodes":"9","size_leaf_vector":"1"}},{"base_weights":[1.178653E-2,-2.8256722E-2,1.8252326E-2,-5.8194462E-2,7.1484805E-3,-1.6086502E-2,-1.2245118E-2,-9.700955E-3,5.214866E-3],"categories":[],"categories_nodes":[],"categories_segments":[],"categories_sizes":[],"default_left":[0,0,0,0,0,0,0,0,0],"id":35,"left_children":[1,3,-1,5,-1,7,-1,-1,-1],"loss_changes":[1.1879332E0,4.251911E-1,0E0,2.929536E-1,0E0,3.7501934E-1,0E0,0E0,0E0],"parents":[2147483647,0,0,1,1,3,3,5,5],"right_children":[2,4,-1,6,-1,8,-1,-1,-1],"split_conditions":[3E0,2.07E2,1.8252326E-2,3.7E1,7.1484805E-3,1.3101E7,-1.2245118E-2,-9.700955E-3,5.214866E-3],"split_indices":[11,9,0,8,0,15,0,0,0],"split_type":[0,0,0,0,0,0,0,0,0],"sum_hessian":[1.72E2,1.4E2,3.2E1,1.08E2,3.2E1,6.6E1,4.2E1,3E1,3.6E1],"tree_param":{"num_deleted":"0","num_feature":"17","num_nodes":"9","size_leaf_vector":"1"}},{"base_weights":[7.81641E-4,-3.0971758E-2,1.38356015E-2,-5.3964213E-2,2.9582914E-3,-2.5865825E-2,-1.3726453E-2,-7.897604E-3,5.460781E-3],"categories":[],"categories_nodes":[],"categories_segments":[],"categories_sizes":[],"default_left":[0,0,0,0,0,0,0,0,0],"id":36,"left_children":[1,3,-1,5,-1,7,-1,-1,-1],"loss_changes":[7.687646E-1,2.006954E-1,0E0,2.3987246E-1,0E0,3.4195653E-1,0E0,0E0,0E0],"parents":[2147483647,0,0,1,1,3,3,5,5],"right_children":[2,4,-1,6,-1,8,-1,-1,-1],"split_conditions":[1E0,1.76E2,1.38356015E-2,8.02E2,2.9582914E-3,2.5E1,-1.3726453E-2,-7.897604E-3,5.460781E-3],"split_indices":[12,9,0,0,0,7,0,0,0],"split_type":[0,0,0,0,0,0,0,0,0],"sum_hessian":[1.74E2,1.42E2,3.2E1,1.03E2,3.9E1,7.8E1,2.5E1,4.7E1,3.1E1],"tree_param":{"num_deleted":"0","num_feature":"17","num_nodes":"9","size_leaf_vector":"1"}},{"base_weights":[-2.4533423E-3,-1.0818227E-2,2.3084352E-2,-8.34028E-3,1.6723325E-2,3.2832235E-2,-1.2760433E-2,1.7137768E-2,-2.3091052E-2,1.5451136E-3,-6.093351E-3],"categories":[],"categories_nodes":[],"categories_segments":[],"categories_sizes":[],"default_left":[0,0,0,0,0,0,0,0,0,0,0],"id":37,"left_children":[1,-1,3,5,-1,7,-1,-1,9,-1,-1],"loss_changes":[4.8581037E-1,0E0,6.582195E-1,5.9343773E-1,0E0,7.0126975E-1,0E0,0E0,9.574602E-2,0E0,0E0],"parents":[2147483647,0,0,2,2,3,3,5,5,8,8],"right_children":[2,-1,4,6,-1,8,-1,-1,10,-1,-1],"split_conditions":[2.001E3,-1.0818227E-2,9.9E2,2.015E3,1.6723325E-2,1.5472E7,-1.2760433E-2,1.7137768E-2,1E0,1.5451136E-3,-6.093351E-3],"split_indices":[1,0,0,1,0,15,0,0,9,0,0],"split_type":[0,0,0,0,0,0,0,0,0,0,0],"sum_hessian":[1.78E2,3.4E1,1.44E2,1.19E2,2.5E1,8.9E1,3E1,2.5E1,6.4E1,3.2E1,3.2E1],"tree_param":{"num_deleted":"0","num_feature":"17","num_nodes":"11","size_leaf_vector":"1"}},{"base_weights":[-1.828286E-2,-3.5861965E-2,8.3838245E-3,-1.8520016E-2,-1.1785741E-2,-4.8455954E-2,7.3816567E-3,-1.6792113E-2,2.4030749E-2,-5.7319074E-4,4.855571E-3],"categories":[],"categories_nodes":[],"categories_segments":[],"categories_sizes":[],"default_left":[0,0,0,0,0,0,0,0,0,0,0],"id":38,"left_children":[1,3,-1,5,-1,7,-1,-1,9,-1,-1],"loss_changes":[3.1716612E-1,2.1111135E-1,0E0,3.490996E-1,0E0,8.2670075E-1,0E0,0E0,4.4073984E-2,0E0,0E0],"parents":[2147483647,0,0,1,1,3,3,5,5,8,8],"right_children":[2,4,-1,6,-1,8,-1,-1,10,-1,-1],"split_conditions":[7.0818E4,3.0968666E7,8.3838245E-3,2E0,-1.1785741E-2,1.12905E5,7.3816567E-3,-1.6792113E-2,1.8953666E7,-5.7319074E-4,4.855571E-3],"split_indices":[5,15,0,3,0,16,0,0,15,0,0],"split_type":[0,0,0,0,0,0,0,0,0,0,0],"sum_hessian":[1.74E2,1.49E2,2.5E1,1.24E2,2.5E1,9.4E1,3E1,3.5E1,5.9E1,2.7E1,3.2E1],"tree_param":{"num_deleted":"0","num_feature":"17","num_nodes":"11","size_leaf_vector":"1"}},{"base_weights":[5.8631185E-3,-2.2507196E-2,1.7258601E-2,1.34174E-2,-5.4157227E-2,-1.5198976E-2,-2.7729431E-2,-2.9724783E-3,-8.994616E-3,-3.3767335E-3,4.882505E-3],"categories":[],"categories_nodes":[],"categories_segments":[],"categories_sizes":[],"default_left":[0,0,0,0,0,0,0,0,0,0,0],"id":39,"left_children":[1,3,-1,-1,5,-1,7,9,-1,-1,-1],"loss_changes":[8.458211E-1,7.659881E-1,0E0,0E0,3.2672924E-1,0E0,1.5684289E-1,1.1968592E-1,0E0,0E0,0E0],"parents":[2147483647,0,0,1,1,4,4,6,6,7,7],"right_children":[2,4,-1,-1,6,-1,8,10,-1,-1,-1],"split_conditions":[7.182163E4,4.9599346E3,1.7258601E-2,1.34174E-2,2.96E2,-1.5198976E-2,8.02E2,3.7336453E4,-8.994616E-3,-3.3767335E-3,4.882505E-3],"split_indices":[5,5,0,0,0,0,0,5,0,0,0],"split_type":[0,0,0,0,0,0,0,0,0,0,0],"sum_hessian":[1.77E2,1.52E2,2.5E1,2.5E1,1.27E2,2.6E1,1.01E2,7.3E1,2.8E1,4.6E1,2.7E1],"tree_param":{"num_deleted":"0","num_feature":"17","num_nodes":"11","size_leaf_vector":"1"}},{"base_weights":[6.5402496E-3,-2.150645E-2,1.2617796E-2,-1.3514441E-2,1.1747381E-2,-6.83192E-3,6.3876878E-3,3.898038E-3,-4.536604E-3],"categories":[],"categories_nodes":[],"categories_segments":[],"categories_sizes":[],"default_left":[0,0,0,0,0,0,0,0,0],"id":40,"left_children":[1,3,-1,-1,5,7,-1,-1,-1],"loss_changes":[5.832052E-1,5.3441215E-1,0E0,0E0,1.06974654E-1,1.46526E-1,0E0,0E0,0E0],"parents":[2147483647,0,0,1,1,4,4,5,5],"right_children":[2,4,-1,-1,6,8,-1,-1,-1],"split_conditions":[4E0,1.13465E7,1.2617796E-2,-1.3514441E-2,1.34E2,2E0,6.3876878E-3,3.898038E-3,-4.536604E-3],"split_indices":[11,15,0,0,10,9,0,0,0],"split_type":[0,0,0,0,0,0,0,0,0],"sum_hessian":[1.72E2,1.4E2,3.2E1,3.1E1,1.09E2,8.1E1,2.8E1,3.7E1,4.4E1],"tree_param":{"num_deleted":"0","num_feature":"17","num_nodes":"9","size_leaf_vector":"1"}},{"base_weights":[1.3085944E-2,-1.4231988E-2,1.2351184E-2,-7.96556E-2,2.172864E-2,-1.5353312E-2,-5.5640785E-4,5.648311E-2,-4.527924E-3,9.615648E-3,2.4057068E-3],"categories":[],"categories_nodes":[],"categories_segments":[],"categories_sizes":[],"default_left":[0,0,0,0,0,0,0,0,0,0,0],"id":41,"left_children":[1,3,-1,5,7,-1,-1,9,-1,-1,-1],"loss_changes":[5.4776376E-1,3.4522125E-1,0E0,2.8377798E-1,2.237957E-1,0E0,0E0,7.873312E-2,0E0,0E0,0E0],"parents":[2147483647,0,0,1,1,3,3,4,4,7,7],"right_children":[2,4,-1,6,8,-1,-1,10,-1,-1,-1],"split_conditions":[3E0,1.3440428E5,1.2351184E-2,8.86982E3,2E0,-1.5353312E-2,-5.5640785E-4,1.7327222E5,-4.527924E-3,9.615648E-3,2.4057068E-3],"split_indices":[11,16,0,5,3,0,0,16,0,0,0],"split_type":[0,0,0,0,0,0,0,0,0,0,0],"sum_hessian":[1.8E2,1.45E2,3.5E1,5.1E1,9.4E1,2.5E1,2.6E1,6.2E1,3.2E1,2.7E1,3.5E1],"tree_param":{"num_deleted":"0","num_feature":"17","num_nodes":"11","size_leaf_vector":"1"}},{"base_weights":[1.9097505E-2,-1.1279568E-2,1.6350748E-2,-4.347391E-2,6.834555E-3,-8.678342E-3,-1.0066965E-2,5.900744E-3,-9.940479E-3],"categories":[],"categories_nodes":[],"categories_segments":[],"categories_sizes":[],"default_left":[0,0,0,0,0,0,0,0,0],"id":42,"left_children":[1,3,-1,5,-1,7,-1,-1,-1],"loss_changes":[7.826862E-1,3.8236603E-1,0E0,2.1008308E-1,0E0,4.173053E-1,0E0,0E0,0E0],"parents":[2147483647,0,0,1,1,3,3,5,5],"right_children":[2,4,-1,6,-1,8,-1,-1,-1],"split_conditions":[1E0,1.76E2,1.6350748E-2,3.7E1,6.834555E-3,4.6E1,-1.0066965E-2,5.900744E-3,-9.940479E-3],"split_indices":[12,9,0,8,0,10,0,0,0],"split_type":[0,0,0,0,0,0,0,0,0],"sum_hessian":[1.77E2,1.47E2,3E1,1.05E2,4.2E1,6.6E1,3.9E1,3.8E1,2.8E1],"tree_param":{"num_deleted":"0","num_feature":"17","num_nodes":"9","size_leaf_vector":"1"}},{"base_weights":[9.154545E-3,-1.4731785E-2,1.2008919E-2,-9.754402E-3,2.7508747E-3,-2.3945885E-2,4.6997606E-3,-7.491605E-3,5.574811E-3],"categories":[],"categories_nodes":[],"categories_segments":[],"categories_sizes":[],"default_left":[0,0,0,0,0,0,0,0,0],"id":43,"left_children":[1,3,-1,-1,5,7,-1,-1,-1],"loss_changes":[4.7873706E-1,2.1598727E-1,0E0,0E0,1.475997E-1,3.2101366E-1,0E0,0E0,0E0],"parents":[2147483647,0,0,1,1,4,4,5,5],"right_children":[2,4,-1,-1,6,8,-1,-1,-1],"split_conditions":[1E0,1.1879E7,1.2008919E-2,-9.754402E-3,2.5E1,4.5953266E4,4.6997606E-3,-7.491605E-3,5.574811E-3],"split_indices":[12,15,0,0,7,5,0,0,0],"split_type":[0,0,0,0,0,0,0,0,0],"sum_hessian":[1.79E2,1.48E2,3.1E1,2.5E1,1.23E2,7.7E1,4.6E1,4.7E1,3E1],"tree_param":{"num_deleted":"0","num_feature":"17","num_nodes":"9","size_leaf_vector":"1"}},{"base_weights":[-4.007147E-3,1.1051254E-2,-2.4373617E-2,-1.3392732E-2,1.0079534E-2,1.0180372E-2,-1.8834798E-2,-8.88504E-3,1.1316687E-2,7.96173E-3,-4.169569E-3],"categories":[],"categories_nodes":[],"categories_segments":[],"categories_sizes":[],"default_left":[0,0,0,0,0,0,0,0,0,0,0],"id":44,"left_children":[1,-1,3,-1,5,-1,7,-1,9,-1,-1],"loss_changes":[4.0152746E-1,0E0,5.524226E-1,0E0,2.9895753E-1,0E0,1.825579E-1,0E0,2.2418712E-1,0E0,0E0],"parents":[2147483647,0,0,2,2,4,4,6,6,8,8],"right_children":[2,-1,4,-1,6,-1,8,-1,10,-1,-1],"split_conditions":[4.9599346E3,1.1051254E-2,3.55E2,-1.3392732E-2,1E0,1.0180372E-2,1.6885E7,-8.88504E-3,1.7597667E5,7.96173E-3,-4.169569E-3],"split_indices":[5,0,0,0,2,0,15,0,16,0,0],"split_type":[0,0,0,0,0,0,0,0,0,0,0],"sum_hessian":[1.7E2,2.5E1,1.45E2,3.4E1,1.11E2,2.6E1,8.5E1,2.5E1,6E1,2.6E1,3.4E1],"tree_param":{"num_deleted":"0","num_feature":"17","num_nodes":"11","size_leaf_vector":"1"}},{"base_weights":[8.096723E-3,1.511583E-2,-1.7611539E-2,-4.2267025E-2,9.686038E-3,-4.978559E-3,-9.093312E-2,3.6864001E-3,-5.174208E-3,-1.7847706E-2,-3.263673E-4],"categories":[],"categories_nodes":[],"categories_segments":[],"categories_sizes":[],"default_left":[0,0,0,0,0,0,0,0,0,0,0],"id":45,"left_children":[1,-1,3,5,-1,7,9,-1,-1,-1,-1],"loss_changes":[6.278991E-1,0E0,4.133363E-1,2.1730939E-1,0E0,1.3692008E-1,3.9851373E-1,0E0,0E0,0E0,0E0],"parents":[2147483647,0,0,2,2,3,3,5,5,6,6],"right_children":[2,-1,4,6,-1,8,10,-1,-1,-1,-1],"split_conditions":[5.154625E3,1.511583E-2,7.182163E4,2E0,9.686038E-3,4.74E2,1.62E2,3.6864001E-3,-5.174208E-3,-1.7847706E-2,-3.263673E-4],"split_indices":[5,0,5,10,0,0,10,0,0,0,0],"split_type":[0,0,0,0,0,0,0,0,0,0,0],"sum_hessian":[1.69E2,2.5E1,1.44E2,1.19E2,2.5E1,6.8E1,5.1E1,3.6E1,3.2E1,2.5E1,2.6E1],"tree_param":{"num_deleted":"0","num_feature":"17","num_nodes":"11","size_leaf_vector":"1"}},{"base_weights":[-8.553839E-3,-3.0333588E-2,8.137907E-3,-1.0362501E-2,-3.9670863E-3,4.4127673E-2,-4.931645E-2,1.6481484E-3,7.0076645E-3,-8.256897E-3,-1.7803274E-3],"categories":[],"categories_nodes":[],"categories_segments":[],"categories_sizes":[],"default_left":[0,0,0,0,0,0,0,0,0,0,0],"id":46,"left_children":[1,3,-1,-1,5,7,9,-1,-1,-1,-1],"loss_changes":[3.413264E-1,2.7013028E-1,0E0,0E0,2.2900717E-1,3.543193E-2,5.511619E-2,0E0,0E0,0E0,0E0],"parents":[2147483647,0,0,1,1,4,4,5,5,6,6],"right_children":[2,4,-1,-1,6,8,10,-1,-1,-1,-1],"split_conditions":[3E0,1.3101E7,8.137907E-3,-1.0362501E-2,1.78125E5,1.3616E5,2.3536E7,1.6481484E-3,7.0076645E-3,-8.256897E-3,-1.7803274E-3],"split_indices":[11,15,0,0,16,16,15,0,0,0,0],"split_type":[0,0,0,0,0,0,0,0,0,0,0],"sum_hessian":[1.72E2,1.39E2,3.3E1,3.6E1,1.03E2,5E1,5.3E1,2.5E1,2.5E1,2.5E1,2.8E1],"tree_param":{"num_deleted":"0","num_feature":"17","num_nodes":"11","size_leaf_vector":"1"}},{"base_weights":[-2.6730043E-4,6.8829977E-3,-2.9297523E-2,-1.2543318E-2,-2.3951358E-3,-3.0315632E-2,6.450016E-3,5.0535775E-3,-8.615373E-3],"categories":[],"categories_nodes":[],"categories_segments":[],"categories_sizes":[],"default_left":[0,0,0,0,0,0,0,0,0],"id":47,"left_children":[1,-1,3,-1,5,7,-1,-1,-1],"loss_changes":[3.390093E-1,0E0,3.0746672E-1,0E0,1.7752385E-1,3.0683124E-1,0E0,0E0,0E0],"parents":[2147483647,0,0,2,2,4,4,5,5],"right_children":[2,-1,4,-1,6,8,-1,-1,-1],"split_conditions":[1E0,6.8829977E-3,1.3101E7,-1.2543318E-2,2.3E2,2.6E1,6.450016E-3,5.0535775E-3,-8.615373E-3],"split_indices":[2,0,15,0,9,8,0,0,0],"split_type":[0,0,0,0,0,0,0,0,0],"sum_hessian":[1.67E2,4.9E1,1.18E2,2.5E1,9.3E1,6.6E1,2.7E1,2.7E1,3.9E1],"tree_param":{"num_deleted":"0","num_feature":"17","num_nodes":"9","size_leaf_vector":"1"}},{"base_weights":[-7.3575024E-3,-2.871146E-2,7.766954E-3,4.5227204E-3,-9.061749E-3,-6.75624E-3,8.121072E-3],"categories":[],"categories_nodes":[],"categories_segments":[],"categories_sizes":[],"default_left":[0,0,0,0,0,0,0],"id":48,"left_children":[1,3,-1,5,-1,-1,-1],"loss_changes":[3.2541814E-1,2.9461747E-1,0E0,5.251248E-1,0E0,0E0,0E0],"parents":[2147483647,0,0,1,1,3,3],"right_children":[2,4,-1,6,-1,-1,-1],"split_conditions":[2.07E2,4.6E1,7.766954E-3,2.009E3,-9.061749E-3,-6.75624E-3,8.121072E-3],"split_indices":[9,10,0,1,0,0,0],"split_type":[0,0,0,0,0,0,0],"sum_hessian":[1.77E2,1.42E2,3.5E1,9.3E1,4.9E1,4.8E1,4.5E1],"tree_param":{"num_deleted":"0","num_feature":"17","num_nodes":"7","size_leaf_vector":"1"}},{"base_weights":[-2.2397108E-2,-2.252201E-3,-1.2443329E-2,-2.9522613E-2,1.0162395E-2,-6.673077E-2,6.8338714E-3,-1.129746E-1,4.433095E-3,-1.5847353E-2,-4.5630913E-3],"categories":[],"categories_nodes":[],"categories_segments":[],"categories_sizes":[],"default_left":[0,0,0,0,0,0,0,0,0,0,0],"id":49,"left_children":[1,3,-1,5,-1,7,-1,9,-1,-1,-1],"loss_changes":[3.6148942E-1,4.2224652E-1,0E0,4.342265E-1,0E0,4.466974E-1,0E0,1.7967671E-1,0E0,0E0,0E0],"parents":[2147483647,0,0,1,1,3,3,5,5,7,7],"right_children":[2,4,-1,6,-1,8,-1,10,-1,-1,-1],"split_conditions":[2E0,8.91E2,-1.2443329E-2,2.5E1,1.0162395E-2,6E0,6.8338714E-3,3.5E2,4.433095E-3,-1.5847353E-2,-4.5630913E-3],"split_indices":[2,0,0,7,0,9,0,0,0,0,0],"split_type":[0,0,0,0,0,0,0,0,0,0,0],"sum_hessian":[1.75E2,1.47E2,2.8E1,1.17E2,3E1,8.5E1,3.2E1,6E1,2.5E1,3.5E1,2.5E1],"tree_param":{"num_deleted":"0","num_feature":"17","num_nodes":"11","size_leaf_vector":"1"}},{"base_weights":[-2.6820959E-3,8.734187E-3,-1.9468687E-2,-9.071295E-3,4.6618474E-3,9.002388E-3,-2.5880093E-2,-8.820507E-3,2.5060957E-3],"categories":[],"categories_nodes":[],"categories_segments":[],"categories_sizes":[],"default_left":[0,0,0,0,0,0,0,0,0],"id":50,"left_children":[1,-1,3,-1,5,-1,7,-1,-1],"loss_changes":[2.6918203E-1,0E0,2.582972E-1,0E0,2.9693463E-1,0E0,2.689021E-1,0E0,0E0],"parents":[2147483647,0,0,2,2,4,4,6,6],"right_children":[2,-1,4,-1,6,-1,8,-1,-1],"split_conditions":[8.4473336E4,8.734187E-3,1.404325E5,-9.071295E-3,1.7327222E5,9.002388E-3,4.0905207E4,-8.820507E-3,2.5060957E-3],"split_indices":[16,0,16,0,16,0,5,0,0],"split_type":[0,0,0,0,0,0,0,0,0],"sum_hessian":[1.76E2,2.7E1,1.49E2,3.7E1,1.12E2,2.9E1,8.3E1,3.7E1,4.6E1],"tree_param":{"num_deleted":"0","num_feature":"17","num_nodes":"9","size_leaf_vector":"1"}},{"base_weights":[-2.70088E-3,1.42031E-2,-9.316145E-3,-1.0372027E-2,1.2654061E-2,8.863367E-3,-3.6268756E-2,6.796489E-3,-1.0557867E-2,-4.2182556E-3,6.3985833E-3],"categories":[],"categories_nodes":[],"categories_segments":[],"categories_sizes":[],"default_left":[0,0,0,0,0,0,0,0,0,0,0],"id":51,"left_children":[1,3,-1,5,-1,-1,7,9,-1,-1,-1],"loss_changes":[2.7198163E-1,4.1541874E-1,0E0,3.2114115E-1,0E0,0E0,2.962175E-1,1.7636602E-1,0E0,0E0,0E0],"parents":[2147483647,0,0,1,1,3,3,6,6,7,7],"right_children":[2,4,-1,6,-1,-1,8,10,-1,-1,-1],"split_conditions":[2E0,6.7945336E4,-9.316145E-3,5.5818022E3,1.2654061E-2,8.863367E-3,2.125E7,1.52635E7,-1.0557867E-2,-4.2182556E-3,6.3985833E-3],"split_indices":[2,5,0,5,0,0,15,15,0,0,0],"split_type":[0,0,0,0,0,0,0,0,0,0,0],"sum_hessian":[1.76E2,1.49E2,2.7E1,1.23E2,2.6E1,2.5E1,9.8E1,6.1E1,3.7E1,3.3E1,2.8E1],"tree_param":{"num_deleted":"0","num_feature":"17","num_nodes":"11","size_leaf_vector":"1"}},{"base_weights":[2.0217545E-2,4.9762044E-4,9.964646E-3,-6.7196377E-3,1.7713659E-2,8.336658E-3,-1.0063042E-2,-7.7070603E-3,2.8788684E-2,-1.2647122E-3,7.0710923E-3],"categories":[],"categories_nodes":[],"categories_segments":[],"categories_sizes":[],"default_left":[0,0,0,0,0,0,0,0,0,0,0],"id":52,"left_children":[1,3,-1,-1,5,-1,7,-1,9,-1,-1],"loss_changes":[2.7562487E-1,1.6668029E-1,0E0,0E0,2.0873176E-1,0E0,2.1309088E-1,0E0,9.122253E-2,0E0,0E0],"parents":[2147483647,0,0,1,1,4,4,6,6,8,8],"right_children":[2,4,-1,-1,6,-1,8,-1,10,-1,-1],"split_conditions":[3E0,8.86982E3,9.964646E-3,-6.7196377E-3,2.6520268E4,8.336658E-3,1.8953666E7,-7.7070603E-3,8.53E2,-1.2647122E-3,7.0710923E-3],"split_indices":[11,5,0,0,5,0,15,0,0,0,0],"split_type":[0,0,0,0,0,0,0,0,0,0,0],"sum_hessian":[1.75E2,1.41E2,3.4E1,2.8E1,1.13E2,3.3E1,8E1,2.9E1,5.1E1,2.6E1,2.5E1],"tree_param":{"num_deleted":"0","num_feature":"17","num_nodes":"11","size_leaf_vector":"1"}},{"base_weights":[-7.9250075E-3,1.1284002E-2,-7.3229447E-3,-1.8194823E-2,4.9716875E-2,-6.2675187E-3,3.5701469E-3,2.0321321E-3,8.511443E-3],"categories":[],"categories_nodes":[],"categories_segments":[],"categories_sizes":[],"default_left":[0,0,0,0,0,0,0,0,0],"id":53,"left_children":[1,3,-1,5,7,-1,-1,-1,-1],"loss_changes":[2.1533446E-1,1.5158772E-1,0E0,1.8443441E-1,5.862114E-2,0E0,0E0,0E0,0E0],"parents":[2147483647,0,0,1,1,3,3,4,4],"right_children":[2,4,-1,6,8,-1,-1,-1,-1],"split_conditions":[2.4442E5,6E0,-7.3229447E-3,1.404325E5,4.9E1,-6.2675187E-3,3.5701469E-3,2.0321321E-3,8.511443E-3],"split_indices":[16,9,0,16,10,0,0,0,0],"split_type":[0,0,0,0,0,0,0,0,0],"sum_hessian":[1.7E2,1.32E2,3.8E1,7.5E1,5.7E1,4.1E1,3.4E1,3.2E1,2.5E1],"tree_param":{"num_deleted":"0","num_feature":"17","num_nodes":"9","size_leaf_vector":"1"}},{"base_weights":[3.0977675E-3,-1.893565E-2,1.1316161E-2,-8.323845E-3,-7.9219276E-4,2.0039398E-2,-7.527472E-3,-1.5140759E-2,1.112783E-2,4.089417E-3,-6.608553E-3],"categories":[],"categories_nodes":[],"categories_segments":[],"categories_sizes":[],"default_left":[0,0,0,0,0,0,0,0,0,0,0],"id":54,"left_children":[1,3,-1,-1,5,7,-1,9,-1,-1,-1],"loss_changes":[4.3623254E-1,1.7493533E-1,0E0,0E0,1.8459603E-1,3.001961E-1,0E0,1.9682121E-1,0E0,0E0,0E0],"parents":[2147483647,0,0,1,1,4,4,5,5,7,7],"right_children":[2,4,-1,-1,6,8,-1,10,-1,-1,-1],"split_conditions":[6E0,1.3101E7,1.1316161E-2,-8.323845E-3,3.0968666E7,2.421825E7,-7.527472E-3,1.68575E5,1.112783E-2,4.089417E-3,-6.608553E-3],"split_indices":[12,15,0,0,15,15,0,16,0,0,0],"split_type":[0,0,0,0,0,0,0,0,0,0,0],"sum_hessian":[1.78E2,1.49E2,2.9E1,3.2E1,1.17E2,9.2E1,2.5E1,6.7E1,2.5E1,3.2E1,3.5E1],"tree_param":{"num_deleted":"0","num_feature":"17","num_nodes":"11","size_leaf_vector":"1"}},{"base_weights":[-2.1990035E-3,1.2008081E-2,-2.4132567E-2,-2.250102E-3,-8.972227E-3,-3.388318E-2,7.689878E-3,-1.0166804E-2,3.0351959E-3,4.959974E-3,-3.8974066E-3],"categories":[],"categories_nodes":[],"categories_segments":[],"categories_sizes":[],"default_left":[0,0,0,0,0,0,0,0,0,0,0],"id":55,"left_children":[1,-1,3,5,-1,7,-1,-1,9,-1,-1],"loss_changes":[4.9370974E-1,0E0,2.2369933E-1,2.9804486E-1,0E0,2.1302173E-1,0E0,0E0,1.1147707E-1,0E0,0E0],"parents":[2147483647,0,0,2,2,3,3,5,5,8,8],"right_children":[2,-1,4,6,-1,8,-1,-1,10,-1,-1],"split_conditions":[8.4473336E4,1.2008081E-2,2.4442E5,2.14E2,-8.972227E-3,1.404325E5,7.689878E-3,-1.0166804E-2,2.028225E7,4.959974E-3,-3.8974066E-3],"split_indices":[16,0,16,8,0,16,0,0,15,0,0],"split_type":[0,0,0,0,0,0,0,0,0,0,0],"sum_hessian":[1.82E2,2.7E1,1.55E2,1.17E2,3.8E1,8.4E1,3.3E1,2.9E1,5.5E1,2.6E1,2.9E1],"tree_param":{"num_deleted":"0","num_feature":"17","num_nodes":"11","size_leaf_vector":"1"}},{"base_weights":[1.3165736E-2,7.510139E-3,4.4750585E-4,-7.066001E-3,1.7787164E-2,5.4642208E-2,-4.5092846E-3,2.7801758E-2,1.0725381E-2,9.424376E-3,-3.4887306E-3],"categories":[],"categories_nodes":[],"categories_segments":[],"categories_sizes":[],"default_left":[0,0,0,0,0,0,0,0,0,0,0],"id":56,"left_children":[1,-1,3,-1,5,7,-1,9,-1,-1,-1],"loss_changes":[1.4332995E-1,0E0,1.8866979E-1,0E0,2.8750977E-1,1.0716343E-1,0E0,2.240428E-1,0E0,0E0,0E0],"parents":[2147483647,0,0,2,2,4,4,5,5,7,7],"right_children":[2,-1,4,-1,6,8,-1,10,-1,-1,-1],"split_conditions":[8.927E4,7.510139E-3,1.3440428E5,-7.066001E-3,2E0,4.5953266E4,-4.5092846E-3,2.6594988E4,1.0725381E-2,9.424376E-3,-3.4887306E-3],"split_indices":[16,0,16,0,3,5,0,5,0,0,0],"split_type":[0,0,0,0,0,0,0,0,0,0,0],"sum_hessian":[1.81E2,3E1,1.51E2,2.9E1,1.22E2,7.7E1,4.5E1,5.2E1,2.5E1,2.5E1,2.7E1],"tree_param":{"num_deleted":"0","num_feature":"17","num_nodes":"11","size_leaf_vector":"1"}},{"base_weights":[-1.0632309E-2,1.0434124E-2,-3.0758524E-2,-1.3323809E-2,-6.7900396E-3,-8.404069E-3,1.420274E-2,4.9408946E-2,-7.3062642E-3,4.008057E-4,1.2434087E-2],"categories":[],"categories_nodes":[],"categories_segments":[],"categories_sizes":[],"default_left":[0,0,0,0,0,0,0,0,0,0,0],"id":57,"left_children":[1,-1,3,-1,5,-1,7,9,-1,-1,-1],"loss_changes":[4.0352827E-1,0E0,3.6262476E-1,0E0,1.9742002E-1,0E0,2.9854912E-1,2.3423797E-1,0E0,0E0,0E0],"parents":[2147483647,0,0,2,2,4,4,6,6,7,7],"right_children":[2,-1,4,-1,6,-1,8,10,-1,-1,-1],"split_conditions":[4.9599346E3,1.0434124E-2,2.96E2,-1.3323809E-2,2.002E3,-8.404069E-3,2.74E2,5.618998E4,-7.3062642E-3,4.008057E-4,1.2434087E-2],"split_indices":[5,0,0,0,1,0,10,5,0,0,0],"split_type":[0,0,0,0,0,0,0,0,0,0,0],"sum_hessian":[1.72E2,2.5E1,1.47E2,2.7E1,1.2E2,2.5E1,9.5E1,6.8E1,2.7E1,4.3E1,2.5E1],"tree_param":{"num_deleted":"0","num_feature":"17","num_nodes":"11","size_leaf_vector":"1"}},{"base_weights":[-1.0651435E-2,3.9869132E-3,-9.525678E-3,-7.0159957E-3,3.4157984E-2,8.852814E-3,1.0100439E-2,-4.6823816E-3,4.063753E-3],"categories":[],"categories_nodes":[],"categories_segments":[],"categories_sizes":[],"default_left":[0,0,0,0,0,0,0,0,0],"id":58,"left_children":[1,3,-1,-1,5,-1,7,-1,-1],"loss_changes":[2.183527E-1,3.4019715E-1,0E0,0E0,1.4037119E-1,0E0,1.3401368E-1,0E0,0E0],"parents":[2147483647,0,0,1,1,4,4,6,6],"right_children":[2,4,-1,-1,6,-1,8,-1,-1],"split_conditions":[2.98E2,2.04E2,-9.525678E-3,-7.0159957E-3,1.54202E5,8.852814E-3,1.9395769E5,-4.6823816E-3,4.063753E-3],"split_indices":[7,0,0,0,16,0,16,0,0],"split_type":[0,0,0,0,0,0,0,0,0],"sum_hessian":[1.75E2,1.5E2,2.5E1,4.3E1,1.07E2,3.2E1,7.5E1,2.6E1,4.9E1],"tree_param":{"num_deleted":"0","num_feature":"17","num_nodes":"9","size_leaf_vector":"1"}},{"base_weights":[-1.0780188E-3,2.4817187E-2,-4.6586078E-2,-2.996876E-2,9.506535E-3,-1.1301217E-2,4.370745E-3,-6.1891405E-3,1.8928235E-4],"categories":[],"categories_nodes":[],"categories_segments":[],"categories_sizes":[],"default_left":[0,0,0,0,0,0,0,0,0],"id":59,"left_children":[1,3,5,7,-1,-1,-1,-1,-1],"loss_changes":[2.0149103E-1,4.223477E-1,3.768059E-1,6.317772E-2,0E0,0E0,0E0,0E0,0E0],"parents":[2147483647,0,0,1,1,2,2,3,3],"right_children":[2,4,6,8,-1,-1,-1,-1,-1],"split_conditions":[4.6E1,2.009E3,7.8E1,2.001E3,9.506535E-3,-1.1301217E-2,4.370745E-3,-6.1891405E-3,1.8928235E-4],"split_indices":[10,1,9,1,0,0,0,0,0],"split_type":[0,0,0,0,0,0,0,0,0],"sum_hessian":[1.69E2,1.08E2,6.1E1,6.1E1,4.7E1,3.5E1,2.6E1,3E1,3.1E1],"tree_param":{"num_deleted":"0","num_feature":"17","num_nodes":"9","size_leaf_vector":"1"}},{"base_weights":[-1.4884196E-2,-3.3672336E-2,6.4843404E-3,-1.0221596E-2,-7.7148983E-3,2.7952613E-2,-1.0386354E-2,5.8247535E-3,-1.268299E-3],"categories":[],"categories_nodes":[],"categories_segments":[],"categories_sizes":[],"default_left":[0,0,0,0,0,0,0,0,0],"id":60,"left_children":[1,3,-1,-1,5,7,-1,-1,-1],"loss_changes":[2.508403E-1,2.3940568E-1,0E0,0E0,3.4241217E-1,9.060556E-2,0E0,0E0,0E0],"parents":[2147483647,0,0,1,1,4,4,5,5],"right_children":[2,4,-1,-1,6,8,-1,-1,-1],"split_conditions":[3E0,2.04E2,6.4843404E-3,-1.0221596E-2,9.08E2,1.3E2,-1.0386354E-2,5.8247535E-3,-1.268299E-3],"split_indices":[11,0,0,0,0,8,0,0,0],"split_type":[0,0,0,0,0,0,0,0,0],"sum_hessian":[1.65E2,1.34E2,3.1E1,3.6E1,9.8E1,7.2E1,2.6E1,4.1E1,3.1E1],"tree_param":{"num_deleted":"0","num_feature":"17","num_nodes":"9","size_leaf_vector":"1"}},{"base_weights":[1.25427265E-2,-7.243123E-3,1.0841577E-2,-6.6642063E-3,7.416303E-3,3.0683616E-2,-4.434954E-3,2.1083248E-3,9.214931E-3,3.927178E-3,-3.5127834E-3],"categories":[],"categories_nodes":[],"categories_segments":[],"categories_sizes":[],"default_left":[0,0,0,0,0,0,0,0,0,0,0],"id":61,"left_children":[1,3,-1,-1,5,7,-1,9,-1,-1,-1],"loss_changes":[3.3274794E-1,1.2762436E-1,0E0,0E0,1.4348614E-1,1.4383051E-1,0E0,8.025751E-2,0E0,0E0,0E0],"parents":[2147483647,0,0,1,1,4,4,5,5,7,7],"right_children":[2,4,-1,-1,6,8,-1,10,-1,-1,-1],"split_conditions":[1E0,1.0497571E5,1.0841577E-2,-6.6642063E-3,2E0,2.498975E7,-4.434954E-3,2.005E3,9.214931E-3,3.927178E-3,-3.5127834E-3],"split_indices":[12,16,0,0,3,15,0,1,0,0,0],"split_type":[0,0,0,0,0,0,0,0,0,0,0],"sum_hessian":[1.74E2,1.45E2,2.9E1,2.8E1,1.17E2,8.1E1,3.6E1,5.6E1,2.5E1,2.8E1,2.8E1],"tree_param":{"num_deleted":"0","num_feature":"17","num_nodes":"11","size_leaf_vector":"1"}},{"base_weights":[-1.8379992E-2,2.039888E-3,-1.2963044E-2,2.4848446E-2,-5.61162E-3,7.860041E-2,-2.9363675E-2,2.6254677E-3,1.2626949E-2,-6.531339E-3,6.350823E-4],"categories":[],"categories_nodes":[],"categories_segments":[],"categories_sizes":[],"default_left":[0,0,0,0,0,0,0,0,0,0,0],"id":62,"left_children":[1,3,-1,5,-1,7,9,-1,-1,-1,-1],"loss_changes":[3.9554384E-1,1.9770995E-1,0E0,3.1410688E-1,0E0,1.3142958E-1,6.974679E-2,0E0,0E0,0E0,0E0],"parents":[2147483647,0,0,1,1,3,3,5,5,6,6],"right_children":[2,4,-1,6,-1,8,10,-1,-1,-1,-1],"split_conditions":[1.1E1,8.26E2,-1.2963044E-2,1.62875E7,-5.61162E-3,2.001E3,4.2E2,2.6254677E-3,1.2626949E-2,-6.531339E-3,6.350823E-4],"split_indices":[12,0,0,15,0,1,0,0,0,0,0],"split_type":[0,0,0,0,0,0,0,0,0,0,0],"sum_hessian":[1.73E2,1.47E2,2.6E1,1.06E2,4.1E1,5.3E1,5.3E1,2.6E1,2.7E1,2.6E1,2.7E1],"tree_param":{"num_deleted":"0","num_feature":"17","num_nodes":"11","size_leaf_vector":"1"}},{"base_weights":[-6.2361504E-3,1.6261913E-2,-1.1326904E-2,-1.3942724E-2,7.449005E-3,-6.7264184E-2,5.792613E-3,-1.2181486E-2,-1.031122E-3],"categories":[],"categories_nodes":[],"categories_segments":[],"categories_sizes":[],"default_left":[0,0,0,0,0,0,0,0,0],"id":63,"left_children":[1,3,-1,5,-1,7,-1,-1,-1],"loss_changes":[4.1602358E-1,2.525412E-1,0E0,3.679508E-1,0E0,1.6961916E-1,0E0,0E0,0E0],"parents":[2147483647,0,0,1,1,3,3,5,5],"right_children":[2,4,-1,6,-1,8,-1,-1,-1],"split_conditions":[3.3009E7,1E0,-1.1326904E-2,2E0,7.449005E-3,2.04E2,5.792613E-3,-1.2181486E-2,-1.031122E-3],"split_indices":[15,3,0,10,0,0,0,0,0],"split_type":[0,0,0,0,0,0,0,0,0],"sum_hessian":[1.71E2,1.42E2,2.9E1,9.4E1,4.8E1,5.4E1,4E1,2.7E1,2.7E1],"tree_param":{"num_deleted":"0","num_feature":"17","num_nodes":"9","size_leaf_vector":"1"}},{"base_weights":[1.3375518E-2,-8.083387E-3,1.0005521E-2,-7.6618115E-3,1.0183207E-2,6.702999E-3,-1.212509E-2,-5.005026E-3,3.5352823E-3],"categories":[],"categories_nodes":[],"categories_segments":[],"categories_sizes":[],"default_left":[0,0,0,0,0,0,0,0,0],"id":64,"left_children":[1,3,-1,-1,5,-1,7,-1,-1],"loss_changes":[3.2817778E-1,1.7854945E-1,0E0,0E0,1.4411424E-1,0E0,1.4941926E-1,0E0,0E0],"parents":[2147483647,0,0,1,1,4,4,6,6],"right_children":[2,4,-1,-1,6,-1,8,-1,-1],"split_conditions":[3E0,8.86982E3,1.0005521E-2,-7.6618115E-3,2.6520268E4,6.702999E-3,1.66E2,-5.005026E-3,3.5352823E-3],"split_indices":[11,5,0,0,5,0,9,0,0],"split_type":[0,0,0,0,0,0,0,0,0],"sum_hessian":[1.75E2,1.41E2,3.4E1,2.9E1,1.12E2,3.1E1,8.1E1,4.5E1,3.6E1],"tree_param":{"num_deleted":"0","num_feature":"17","num_nodes":"9","size_leaf_vector":"1"}},{"base_weights":[-1.1819407E-2,6.047145E-3,-8.834156E-3,2.7089963E-2,-7.6881424E-3,-2.1856766E-4,1.002134E-2,-6.462308E-3,3.491514E-2,6.2152254E-3,1.0145812E-3],"categories":[],"categories_nodes":[],"categories_segments":[],"categories_sizes":[],"default_left":[0,0,0,0,0,0,0,0,0,0,0],"id":65,"left_children":[1,3,-1,5,-1,7,-1,-1,9,-1,-1],"loss_changes":[2.3842475E-1,2.4987991E-1,0E0,2.2766776E-1,0E0,1.9232897E-1,0E0,0E0,3.647489E-2,0E0,0E0],"parents":[2147483647,0,0,1,1,3,3,5,5,8,8],"right_children":[2,4,-1,6,-1,8,-1,-1,10,-1,-1],"split_conditions":[3.312675E7,9.08E2,-8.834156E-3,1E0,-7.6881424E-3,1.3485333E7,1.002134E-2,-6.462308E-3,1.9393334E7,6.2152254E-3,1.0145812E-3],"split_indices":[15,0,0,3,0,15,0,0,15,0,0],"split_type":[0,0,0,0,0,0,0,0,0,0,0],"sum_hessian":[1.73E2,1.41E2,3.2E1,1.13E2,2.8E1,8.3E1,3E1,2.9E1,5.4E1,2.5E1,2.9E1],"tree_param":{"num_deleted":"0","num_feature":"17","num_nodes":"11","size_leaf_vector":"1"}},{"base_weights":[1.2004614E-2,-6.6493526E-3,1.1413972E-2,3.3778094E-2,-9.83788E-3,8.651242E-3,-1.4618616E-2,-3.658083E-3,9.595253E-4],"categories":[],"categories_nodes":[],"categories_segments":[],"categories_sizes":[],"default_left":[0,0,0,0,0,0,0,0,0],"id":66,"left_children":[1,3,-1,5,-1,-1,7,-1,-1],"loss_changes":[3.2083672E-1,5.336224E-1,0E0,2.5648147E-1,0E0,0E0,2.853588E-2,0E0,0E0],"parents":[2147483647,0,0,1,1,3,3,6,6],"right_children":[2,4,-1,6,-1,-1,8,-1,-1],"split_conditions":[9.9E2,2.012E3,1.1413972E-2,1.6300333E7,-9.83788E-3,8.651242E-3,2.403175E7,-3.658083E-3,9.595253E-4],"split_indices":[0,1,0,15,0,0,15,0,0],"split_type":[0,0,0,0,0,0,0,0,0],"sum_hessian":[1.67E2,1.42E2,2.5E1,9.9E1,4.3E1,4.7E1,5.2E1,2.7E1,2.5E1],"tree_param":{"num_deleted":"0","num_feature":"17","num_nodes":"9","size_leaf_vector":"1"}},{"base_weights":[-3.6495884E-3,2.0783676E-2,-4.2761E-2,9.367148E-3,-6.809045E-3,-1.0565137E-2,5.6652194E-3,1.9249077E-3,-3.919256E-3],"categories":[],"categories_nodes":[],"categories_segments":[],"categories_sizes":[],"default_left":[0,0,0,0,0,0,0,0,0],"id":67,"left_children":[1,3,5,-1,7,-1,-1,-1,-1],"loss_changes":[1.6907777E-1,2.1985564E-1,4.3113032E-1,0E0,6.8262696E-2,0E0,0E0,0E0,0E0],"parents":[2147483647,0,0,1,1,2,2,4,4],"right_children":[2,4,6,-1,8,-1,-1,-1,-1],"split_conditions":[4.6E1,1E0,2.2E1,9.367148E-3,2.008E3,-1.0565137E-2,5.6652194E-3,1.9249077E-3,-3.919256E-3],"split_indices":[10,2,8,0,1,0,0,0,0],"split_type":[0,0,0,0,0,0,0,0,0],"sum_hessian":[1.75E2,1.08E2,6.7E1,2.9E1,7.9E1,4.1E1,2.6E1,4.4E1,3.5E1],"tree_param":{"num_deleted":"0","num_feature":"17","num_nodes":"9","size_leaf_vector":"1"}},{"base_weights":[-1.5026559E-3,1.09203E-2,-2.068162E-2,-4.258691E-2,5.5306638E-3,-8.972674E-3,-1.3159433E-2,1.5310117E-2,-5.7228855E-3,-4.2327926E-3,6.0257963E-3],"categories":[],"categories_nodes":[],"categories_segments":[],"categories_sizes":[],"default_left":[0,0,0,0,0,0,0,0,0,0,0],"id":68,"left_children":[1,-1,3,5,-1,7,-1,9,-1,-1,-1],"loss_changes":[3.7382194E-1,0E0,2.520371E-1,3.4887344E-1,0E0,1.0165052E-1,0E0,1.5281154E-1,0E0,0E0,0E0],"parents":[2147483647,0,0,2,2,3,3,5,5,7,7],"right_children":[2,-1,4,6,-1,8,-1,10,-1,-1,-1],"split_conditions":[4.9599346E3,1.09203E-2,2.03E2,2E0,5.5306638E-3,4.494758E4,-1.3159433E-2,1.9134396E4,-5.7228855E-3,-4.2327926E-3,6.0257963E-3],"split_indices":[5,0,10,10,0,5,0,5,0,0,0],"split_type":[0,0,0,0,0,0,0,0,0,0,0],"sum_hessian":[1.74E2,2.5E1,1.49E2,1.16E2,3.3E1,8.5E1,3.1E1,5.7E1,2.8E1,2.5E1,3.2E1],"tree_param":{"num_deleted":"0","num_feature":"17","num_nodes":"11","size_leaf_vector":"1"}},{"base_weights":[-2.8302905E-3,-8.684897E-3,1.2620965E-2,7.088876E-3,-9.823901E-3,-6.7049526E-3,9.372589E-3,-2.8562252E-3,5.3050495E-3],"categories":[],"categories_nodes":[],"categories_segments":[],"categories_sizes":[],"default_left":[0,0,0,0,0,0,0,0,0],"id":69,"left_children":[1,-1,3,-1,5,-1,7,-1,-1],"loss_changes":[2.2568369E-1,0E0,1.9294488E-1,0E0,1.1817125E-1,0E0,1.357253E-1,0E0,0E0],"parents":[2147483647,0,0,2,2,4,4,6,6],"right_children":[2,-1,4,-1,6,-1,8,-1,-1],"split_conditions":[6E1,-8.684897E-3,2.6520268E4,7.088876E-3,3.7259355E4,-6.7049526E-3,1.9395769E5,-2.8562252E-3,5.3050495E-3],"split_indices":[0,0,5,0,5,0,16,0,0],"split_type":[0,0,0,0,0,0,0,0,0],"sum_hessian":[1.72E2,2.6E1,1.46E2,4E1,1.06E2,2.6E1,8E1,4.3E1,3.7E1],"tree_param":{"num_deleted":"0","num_feature":"17","num_nodes":"9","size_leaf_vector":"1"}},{"base_weights":[6.295395E-3,-1.0287709E-2,6.311182E-3,4.089726E-2,-4.324522E-2,8.595496E-3,-5.675153E-4,-1.2422039E-2,-1.235215E-3,4.5055416E-3,-4.131259E-3],"categories":[],"categories_nodes":[],"categories_segments":[],"categories_sizes":[],"default_left":[0,0,0,0,0,0,0,0,0,0,0],"id":70,"left_children":[1,3,-1,5,7,-1,-1,-1,9,-1,-1],"loss_changes":[1.6270642E-1,2.2781712E-1,0E0,1.11705445E-1,2.787915E-1,0E0,0E0,0E0,1.0389773E-1,0E0,0E0],"parents":[2147483647,0,0,1,1,3,3,4,4,8,8],"right_children":[2,4,-1,6,8,-1,-1,-1,10,-1,-1],"split_conditions":[2.06E2,1E0,6.311182E-3,1.7327222E5,1.2293E5,8.595496E-3,-5.675153E-4,-1.2422039E-2,2.008E3,4.5055416E-3,-4.131259E-3],"split_indices":[8,2,0,16,16,0,0,0,1,0,0],"split_type":[0,0,0,0,0,0,0,0,0,0,0],"sum_hessian":[1.71E2,1.33E2,3.8E1,5.2E1,8.1E1,2.6E1,2.6E1,2.7E1,5.4E1,2.5E1,2.9E1],"tree_param":{"num_deleted":"0","num_feature":"17","num_nodes":"11","size_leaf_vector":"1"}},{"base_weights":[7.6127946E-3,-1.1055858E-2,8.865244E-3,-2.8401531E-2,7.1427743E-3,-8.461677E-3,-1.2461191E-2,2.3217205E-2,-5.2522398E-3,8.172694E-3,-3.8435876E-3],"categories":[],"categories_nodes":[],"categories_segments":[],"categories_sizes":[],"default_left":[0,0,0,0,0,0,0,0,0,0,0],"id":71,"left_children":[1,3,-1,5,-1,-1,7,9,-1,-1,-1],"loss_changes":[2.748152E-1,2.1377721E-1,0E0,1.0916463E-1,0E0,0E0,1.3986342E-1,1.9072112E-1,0E0,0E0,0E0],"parents":[2147483647,0,0,1,1,3,3,6,6,7,7],"right_children":[2,4,-1,6,-1,-1,8,10,-1,-1,-1],"split_conditions":[4E0,1.8E2,8.865244E-3,1.0125333E7,7.1427743E-3,-8.461677E-3,1.78125E5,2.008E3,-5.2522398E-3,8.172694E-3,-3.8435876E-3],"split_indices":[11,10,0,15,0,0,16,1,0,0,0],"split_type":[0,0,0,0,0,0,0,0,0,0,0],"sum_hessian":[1.8E2,1.47E2,3.3E1,1.22E2,2.5E1,2.6E1,9.6E1,5.1E1,4.5E1,2.6E1,2.5E1],"tree_param":{"num_deleted":"0","num_feature":"17","num_nodes":"11","size_leaf_vector":"1"}},{"base_weights":[-4.336547E-3,-1.9413894E-2,6.204381E-3,-8.429984E-3,-1.0300012E-3,2.7751712E-2,-2.9297719E-2,-1.0553759E-3,6.0219327E-3,-5.40016E-3,-7.5382687E-4],"categories":[],"categories_nodes":[],"categories_segments":[],"categories_sizes":[],"default_left":[0,0,0,0,0,0,0,0,0,0,0],"id":72,"left_children":[1,3,-1,-1,5,7,9,-1,-1,-1,-1],"loss_changes":[1.7835316E-1,1.7287731E-1,0E0,0E0,9.35627E-2,7.152571E-2,3.0770406E-2,0E0,0E0,0E0,0E0],"parents":[2147483647,0,0,1,1,4,4,5,5,6,6],"right_children":[2,4,-1,-1,6,8,10,-1,-1,-1,-1],"split_conditions":[3E0,1.0295E5,6.204381E-3,-8.429984E-3,1.78125E5,1.4613E5,2.2090333E5,-1.0553759E-3,6.0219327E-3,-5.40016E-3,-7.5382687E-4],"split_indices":[11,16,0,0,16,16,16,0,0,0,0],"split_type":[0,0,0,0,0,0,0,0,0,0,0],"sum_hessian":[1.76E2,1.44E2,3.2E1,3.1E1,1.13E2,5.6E1,5.7E1,2.6E1,3E1,2.6E1,3.1E1],"tree_param":{"num_deleted":"0","num_feature":"17","num_nodes":"11","size_leaf_vector":"1"}},{"base_weights":[-4.156552E-3,-2.1766966E-2,6.2976317E-3,-9.225736E-3,-5.208775E-3,6.876658E-3,-3.43693E-2,3.1189012E-4,-8.131619E-3],"categories":[],"categories_nodes":[],"categories_segments":[],"categories_sizes":[],"default_left":[0,0,0,0,0,0,0,0,0],"id":73,"left_children":[1,3,-1,-1,5,-1,7,-1,-1],"loss_changes":[2.0471565E-1,1.5942495E-1,0E0,0E0,2.4396539E-1,0E0,1.4280993E-1,0E0,0E0],"parents":[2147483647,0,0,1,1,4,4,6,6],"right_children":[2,4,-1,-1,6,-1,8,-1,-1],"split_conditions":[2E0,7.899984E3,6.2976317E-3,-9.225736E-3,2.6520268E4,6.876658E-3,1E0,3.1189012E-4,-8.131619E-3],"split_indices":[11,5,0,0,5,0,3,0,0],"split_type":[0,0,0,0,0,0,0,0,0],"sum_hessian":[1.71E2,1.36E2,3.5E1,2.5E1,1.11E2,3.1E1,8E1,4.5E1,3.5E1],"tree_param":{"num_deleted":"0","num_feature":"17","num_nodes":"9","size_leaf_vector":"1"}},{"base_weights":[3.0464835E-3,-2.0106813E-2,6.8837055E-3,1.0486862E-3,-9.236348E-3,-8.25286E-3,3.0008161E-2,7.906191E-3,-3.1470235E-3],"categories":[],"categories_nodes":[],"categories_segments":[],"categories_sizes":[],"default_left":[0,0,0,0,0,0,0,0,0],"id":74,"left_children":[1,3,-1,5,-1,-1,7,-1,-1],"loss_changes":[2.633863E-1,1.9576095E-1,0E0,2.4451195E-1,0E0,0E0,2.2866903E-1,0E0,0E0],"parents":[2147483647,0,0,1,1,3,3,6,6],"right_children":[2,4,-1,6,-1,-1,8,-1,-1],"split_conditions":[2.8377E7,8.26E2,6.8837055E-3,6E1,-9.236348E-3,-8.25286E-3,1.62875E7,7.906191E-3,-3.1470235E-3],"split_indices":[15,0,0,0,0,0,15,0,0],"split_type":[0,0,0,0,0,0,0,0,0],"sum_hessian":[1.71E2,1.27E2,4.4E1,9.9E1,2.8E1,2.5E1,7.4E1,4.1E1,3.3E1],"tree_param":{"num_deleted":"0","num_feature":"17","num_nodes":"9","size_leaf_vector":"1"}},{"base_weights":[2.4924008E-3,-7.976556E-3,2.081686E-2,9.967244E-3,-6.3662827E-3,-3.8427077E-2,9.004347E-3,9.717419E-4,-7.840986E-3],"categories":[],"categories_nodes":[],"categories_segments":[],"categories_sizes":[],"default_left":[0,0,0,0,0,0,0,0,0],"id":75,"left_children":[1,-1,3,-1,5,7,-1,-1,-1],"loss_changes":[2.7298033E-1,0E0,3.1787884E-1,0E0,3.4655812E-1,1.6245785E-1,0E0,0E0,0E0],"parents":[2147483647,0,0,2,2,4,4,5,5],"right_children":[2,-1,4,-1,6,8,-1,-1,-1],"split_conditions":[2.001E3,-7.976556E-3,1.14475E5,9.967244E-3,2.06E2,6E1,9.004347E-3,9.717419E-4,-7.840986E-3],"split_indices":[1,0,16,0,8,10,0,0,0],"split_type":[0,0,0,0,0,0,0,0,0],"sum_hessian":[1.79E2,3.2E1,1.47E2,3.7E1,1.1E2,8.3E1,2.7E1,3.8E1,4.5E1],"tree_param":{"num_deleted":"0","num_feature":"17","num_nodes":"9","size_leaf_vector":"1"}},{"base_weights":[5.83282E-3,2.2530062E-2,-7.965069E-3,-2.1239046E-3,1.2386329E-2,-3.553244E-2,5.541925E-3,-1.0554912E-2,2.3444158E-4],"categories":[],"categories_nodes":[],"categories_segments":[],"categories_sizes":[],"default_left":[0,0,0,0,0,0,0,0,0],"id":76,"left_children":[1,3,-1,5,-1,7,-1,-1,-1],"loss_changes":[2.4444214E-1,3.5751504E-1,0E0,2.2497135E-1,0E0,1.9649631E-1,0E0,0E0,0E0],"parents":[2147483647,0,0,1,1,3,3,5,5],"right_children":[2,4,-1,6,-1,8,-1,-1,-1],"split_conditions":[3.4526E7,2.498975E7,-7.965069E-3,2.009E3,1.2386329E-2,1.1886E7,5.541925E-3,-1.0554912E-2,2.3444158E-4],"split_indices":[15,15,0,1,0,15,0,0,0],"split_type":[0,0,0,0,0,0,0,0,0],"sum_hessian":[1.69E2,1.42E2,2.7E1,1.15E2,2.7E1,7.3E1,4.2E1,2.5E1,4.8E1],"tree_param":{"num_deleted":"0","num_feature":"17","num_nodes":"9","size_leaf_vector":"1"}},{"base_weights":[-1.094584E-3,1.107058E-2,-1.9962866E-2,1.2798332E-2,-6.383838E-2,-3.9801383E-3,3.8884882E-2,-1.234325E-2,3.337641E-4,6.9287005E-3,-3.536617E-4],"categories":[],"categories_nodes":[],"categories_segments":[],"categories_sizes":[],"default_left":[0,0,0,0,0,0,0,0,0,0,0],"id":77,"left_children":[1,-1,3,5,7,-1,9,-1,-1,-1,-1],"loss_changes":[3.7980714E-1,0E0,2.2217882E-1,1.23668574E-1,2.6462954E-1,0E0,7.762725E-2,0E0,0E0,0E0,0E0],"parents":[2147483647,0,0,2,2,3,3,4,4,6,6],"right_children":[2,-1,4,6,8,-1,10,-1,-1,-1,-1],"split_conditions":[4.9599346E3,1.107058E-2,2E0,2.1221326E4,7.8E1,-3.9801383E-3,1E0,-1.234325E-2,3.337641E-4,6.9287005E-3,-3.536617E-4],"split_indices":[5,0,10,5,9,0,9,0,0,0,0],"split_type":[0,0,0,0,0,0,0,0,0,0,0],"sum_hessian":[1.78E2,2.5E1,1.53E2,8.8E1,6.5E1,2.9E1,5.9E1,3.4E1,3.1E1,3.4E1,2.5E1],"tree_param":{"num_deleted":"0","num_feature":"17","num_nodes":"11","size_leaf_vector":"1"}},{"base_weights":[1.0172376E-2,3.741627E-2,-3.4683574E-2,9.510866E-2,-5.1386813E-3,-9.426406E-3,5.9260655E-4,1.7558077E-2,2.764199E-3],"categories":[],"categories_nodes":[],"categories_segments":[],"categories_sizes":[],"default_left":[0,0,0,0,0,0,0,0,0],"id":78,"left_children":[1,3,5,7,-1,-1,-1,-1,-1],"loss_changes":[2.0660225E-1,5.428299E-1,1.5540928E-1,3.4261447E-1,0E0,0E0,0E0,0E0,0E0],"parents":[2147483647,0,0,1,1,2,2,3,3],"right_children":[2,4,6,8,-1,-1,-1,-1,-1],"split_conditions":[4.6E1,2.6E1,1.62E2,2.14E2,-5.1386813E-3,-9.426406E-3,5.9260655E-4,1.7558077E-2,2.764199E-3],"split_indices":[10,8,10,0,0,0,0,0,0],"split_type":[0,0,0,0,0,0,0,0,0],"sum_hessian":[1.67E2,1.04E2,6.3E1,6.3E1,4.1E1,2.5E1,3.8E1,2.8E1,3.5E1],"tree_param":{"num_deleted":"0","num_feature":"17","num_nodes":"9","size_leaf_vector":"1"}},{"base_weights":[-1.7678587E-3,-1.5435999E-2,8.083468E-3,5.807936E-3,-3.115134E-2,-1.1105272E-2,-5.0099706E-3,1.7981393E-2,-7.025424E-3,4.1163503E-3,-1.0502364E-3],"categories":[],"categories_nodes":[],"categories_segments":[],"categories_sizes":[],"default_left":[0,0,0,0,0,0,0,0,0,0,0],"id":79,"left_children":[1,3,-1,-1,5,-1,7,9,-1,-1,-1],"loss_changes":[2.0672998E-1,1.8319431E-1,0E0,0E0,2.709787E-1,0E0,1.4976868E-1,4.9295515E-2,0E0,0E0,0E0],"parents":[2147483647,0,0,1,1,4,4,6,6,7,7],"right_children":[2,4,-1,-1,6,-1,8,10,-1,-1,-1],"split_conditions":[7.372984E4,4.9599346E3,8.083468E-3,5.807936E-3,1E0,-1.1105272E-2,5.1201473E4,1.16E2,-7.025424E-3,4.1163503E-3,-1.0502364E-3],"split_indices":[5,5,0,0,2,0,5,8,0,0,0],"split_type":[0,0,0,0,0,0,0,0,0,0,0],"sum_hessian":[1.81E2,1.56E2,2.5E1,2.7E1,1.29E2,3.1E1,9.8E1,7.3E1,2.5E1,4E1,3.3E1],"tree_param":{"num_deleted":"0","num_feature":"17","num_nodes":"11","size_leaf_vector":"1"}},{"base_weights":[-7.85776E-3,-1.2735027E-2,1.4061508E-2,9.771951E-3,-3.0413782E-3,-2.3084728E-2,5.087623E-3,1.667229E-3,-8.4568E-3,5.556993E-3,-6.846186E-3],"categories":[],"categories_nodes":[],"categories_segments":[],"categories_sizes":[],"default_left":[0,0,0,0,0,0,0,0,0,0,0],"id":80,"left_children":[1,-1,3,-1,5,7,-1,9,-1,-1,-1],"loss_changes":[4.7324464E-1,0E0,2.1920857E-1,0E0,1.395027E-1,1.4319313E-1,0E0,2.6085445E-1,0E0,0E0,0E0],"parents":[2147483647,0,0,2,2,4,4,5,5,7,7],"right_children":[2,-1,4,-1,6,8,-1,10,-1,-1,-1],"split_conditions":[6E1,-1.2735027E-2,1.14475E5,9.771951E-3,2.03E2,6E1,5.087623E-3,1.06E2,-8.4568E-3,5.556993E-3,-6.846186E-3],"split_indices":[0,0,16,0,10,10,0,8,0,0,0],"split_type":[0,0,0,0,0,0,0,0,0,0,0],"sum_hessian":[1.79E2,2.7E1,1.52E2,2.5E1,1.27E2,9.3E1,3.4E1,6.7E1,2.6E1,3.8E1,2.9E1],"tree_param":{"num_deleted":"0","num_feature":"17","num_nodes":"11","size_leaf_vector":"1"}},{"base_weights":[1.0200614E-2,1.0046198E-2,-6.2239324E-3,-7.59713E-3,1.1264776E-2,-4.022782E-3,3.5617784E-2,-3.1449879E-3,1.1922779E-2,4.3709357E-3,-5.323375E-3],"categories":[],"categories_nodes":[],"categories_segments":[],"categories_sizes":[],"default_left":[0,0,0,0,0,0,0,0,0,0,0],"id":81,"left_children":[1,-1,3,-1,5,-1,7,9,-1,-1,-1],"loss_changes":[2.6006314E-1,0E0,1.826047E-1,0E0,1.5191276E-1,0E0,2.661333E-1,1.3609876E-1,0E0,0E0,0E0],"parents":[2147483647,0,0,2,2,4,4,6,6,7,7],"right_children":[2,-1,4,-1,6,-1,8,10,-1,-1,-1],"split_conditions":[4.9599346E3,1.0046198E-2,2.0297486E4,-7.59713E-3,2.006E3,-4.022782E-3,9.61E2,2.2103E5,1.1922779E-2,4.3709357E-3,-5.323375E-3],"split_indices":[5,0,5,0,1,0,0,16,0,0,0],"split_type":[0,0,0,0,0,0,0,0,0,0,0],"sum_hessian":[1.74E2,2.6E1,1.48E2,2.9E1,1.19E2,3.8E1,8.1E1,5.6E1,2.5E1,2.9E1,2.7E1],"tree_param":{"num_deleted":"0","num_feature":"17","num_nodes":"11","size_leaf_vector":"1"}},{"base_weights":[-2.0871835E-4,1.3916085E-2,-7.6878765E-3,6.177978E-3,4.0076417E-3,-6.287295E-3,2.5340533E-2,4.217695E-2,-7.096853E-4,8.23048E-3,-1.9637009E-3],"categories":[],"categories_nodes":[],"categories_segments":[],"categories_sizes":[],"default_left":[0,0,0,0,0,0,0,0,0,0,0],"id":82,"left_children":[1,3,-1,-1,5,-1,7,9,-1,-1,-1],"loss_changes":[1.9491778E-1,7.1839124E-2,0E0,0E0,1.8279128E-1,0E0,5.3273864E-2,1.6036573E-1,0E0,0E0,0E0],"parents":[2147483647,0,0,1,1,4,4,6,6,7,7],"right_children":[2,4,-1,-1,6,-1,8,10,-1,-1,-1],"split_conditions":[2E0,8.927E4,-7.6878765E-3,6.177978E-3,1.4350333E5,-6.287295E-3,6E1,2E0,-7.096853E-4,8.23048E-3,-1.9637009E-3],"split_indices":[2,16,0,0,16,0,10,9,0,0,0],"split_type":[0,0,0,0,0,0,0,0,0,0,0],"sum_hessian":[1.78E2,1.51E2,2.7E1,2.5E1,1.26E2,3E1,9.6E1,6.3E1,3.3E1,3.8E1,2.5E1],"tree_param":{"num_deleted":"0","num_feature":"17","num_nodes":"11","size_leaf_vector":"1"}},{"base_weights":[-8.552764E-3,-9.796009E-3,8.306013E-3,2.492963E-2,-5.8465316E-3,2.1260905E-4,1.1005816E-2,5.85966E-3,-3.7036017E-2,5.375126E-4,-8.944108E-3],"categories":[],"categories_nodes":[],"categories_segments":[],"categories_sizes":[],"default_left":[0,0,0,0,0,0,0,0,0,0,0],"id":83,"left_children":[1,-1,3,5,-1,7,-1,-1,9,-1,-1],"loss_changes":[2.660981E-1,0E0,1.6684467E-1,2.5247145E-1,0E0,2.0659418E-1,0E0,0E0,1.2938917E-1,0E0,0E0],"parents":[2147483647,0,0,2,2,3,3,5,5,8,8],"right_children":[2,-1,4,6,-1,8,-1,-1,10,-1,-1],"split_conditions":[6E1,-9.796009E-3,3.3009E7,2.498975E7,-5.8465316E-3,4.74E2,1.1005816E-2,5.85966E-3,5.0628066E4,5.375126E-4,-8.944108E-3],"split_indices":[0,0,15,15,0,0,0,0,5,0,0],"split_type":[0,0,0,0,0,0,0,0,0,0,0],"sum_hessian":[1.75E2,2.7E1,1.48E2,1.19E2,2.9E1,9.3E1,2.6E1,3.6E1,5.7E1,3.2E1,2.5E1],"tree_param":{"num_deleted":"0","num_feature":"17","num_nodes":"11","size_leaf_vector":"1"}},{"base_weights":[5.6559425E-3,-1.0828558E-2,9.863923E-3,1.1527829E-2,-9.840273E-3,-2.602583E-2,1.0132724E-2,-8.9096494E-2,1.1809706E-2,-1.5826507E-2,-2.980414E-3],"categories":[],"categories_nodes":[],"categories_segments":[],"categories_sizes":[],"default_left":[0,0,0,0,0,0,0,0,0,0,0],"id":84,"left_children":[1,3,-1,5,-1,7,-1,9,-1,-1,-1],"loss_changes":[2.6470685E-1,2.8893715E-1,0E0,4.005681E-1,0E0,7.740758E-1,0E0,2.3725185E-1,0E0,0E0,0E0],"parents":[2147483647,0,0,1,1,3,3,5,5,7,7],"right_children":[2,4,-1,6,-1,8,-1,10,-1,-1,-1],"split_conditions":[1.022E3,2.015E3,9.863923E-3,2.5E1,-9.840273E-3,1E0,1.0132724E-2,1.822575E7,1.1809706E-2,-1.5826507E-2,-2.980414E-3],"split_indices":[0,1,0,7,0,3,0,15,0,0,0],"split_type":[0,0,0,0,0,0,0,0,0,0,0],"sum_hessian":[1.71E2,1.46E2,2.5E1,1.17E2,2.9E1,8.3E1,3.4E1,5.8E1,2.5E1,2.6E1,3.2E1],"tree_param":{"num_deleted":"0","num_feature":"17","num_nodes":"11","size_leaf_vector":"1"}},{"base_weights":[1.3186236E-2,2.9624252E-2,-7.436274E-3,1.1717144E-2,1.0083139E-2,-1.4698816E-2,9.833847E-3,2.0116031E-2,-6.7935237E-3,5.019983E-3,-8.632716E-4],"categories":[],"categories_nodes":[],"categories_segments":[],"categories_sizes":[],"default_left":[0,0,0,0,0,0,0,0,0,0,0],"id":85,"left_children":[1,3,-1,-1,5,7,-1,9,-1,-1,-1],"loss_changes":[2.4541613E-1,2.434586E-1,0E0,0E0,2.5952795E-1,1.7373443E-1,0E0,4.973104E-2,0E0,0E0,0E0],"parents":[2147483647,0,0,1,1,4,4,5,5,7,7],"right_children":[2,4,-1,-1,6,8,-1,10,-1,-1,-1],"split_conditions":[2E0,5.154625E3,-7.436274E-3,1.1717144E-2,8.91E2,2.3536E7,9.833847E-3,4.74E2,-6.7935237E-3,5.019983E-3,-8.632716E-4],"split_indices":[2,5,0,0,0,15,0,0,0,0,0],"split_type":[0,0,0,0,0,0,0,0,0,0,0],"sum_hessian":[1.68E2,1.42E2,2.6E1,2.5E1,1.17E2,9.2E1,2.5E1,5.6E1,3.6E1,2.7E1,2.9E1],"tree_param":{"num_deleted":"0","num_feature":"17","num_nodes":"11","size_leaf_vector":"1"}},{"base_weights":[3.7057283E-3,-1.6848648E-2,9.574937E-3,-7.4903974E-3,-8.622092E-4,6.30765E-3,-2.9083688E-2,-7.5404467E-3,1.3427347E-3],"categories":[],"categories_nodes":[],"categories_segments":[],"categories_sizes":[],"default_left":[0,0,0,0,0,0,0,0,0],"id":86,"left_children":[1,3,-1,-1,5,-1,7,-1,-1],"loss_changes":[3.213443E-1,1.2894101E-1,0E0,0E0,2.0032343E-1,0E0,1.5263659E-1,0E0,0E0],"parents":[2147483647,0,0,1,1,4,4,6,6],"right_children":[2,4,-1,-1,6,-1,8,-1,-1],"split_conditions":[3E0,8.86982E3,9.574937E-3,-7.4903974E-3,2.755561E4,6.30765E-3,7.8E1,-7.5404467E-3,1.3427347E-3],"split_indices":[11,5,0,0,5,0,9,0,0],"split_type":[0,0,0,0,0,0,0,0,0],"sum_hessian":[1.68E2,1.38E2,3E1,2.9E1,1.09E2,3.3E1,7.6E1,3.6E1,4E1],"tree_param":{"num_deleted":"0","num_feature":"17","num_nodes":"9","size_leaf_vector":"1"}},{"base_weights":[-1.7367812E-2,-1.1438987E-2,3.9401633E-4,1.7979838E-2,-4.533897E-3,5.76641E-2,-2.439134E-2,1.1740583E-2,-6.425982E-4,-7.956607E-3,3.1721517E-3],"categories":[],"categories_nodes":[],"categories_segments":[],"categories_sizes":[],"default_left":[0,0,0,0,0,0,0,0,0,0,0],"id":87,"left_children":[1,-1,3,5,-1,7,9,-1,-1,-1,-1],"loss_changes":[2.8955767E-1,0E0,1.1582325E-1,1.7627928E-1,0E0,2.0751242E-1,1.6042057E-1,0E0,0E0,0E0,0E0],"parents":[2147483647,0,0,2,2,3,3,5,5,6,6],"right_children":[2,-1,4,6,-1,8,10,-1,-1,-1,-1],"split_conditions":[6.9E1,-1.1438987E-2,1.92E2,6E1,-4.533897E-3,4.74E2,6.38E2,1.1740583E-2,-6.425982E-4,-7.956607E-3,3.1721517E-3],"split_indices":[0,0,7,10,0,0,0,0,0,0,0],"split_type":[0,0,0,0,0,0,0,0,0,0,0],"sum_hessian":[1.67E2,2.5E1,1.42E2,1.03E2,3.9E1,5.3E1,5E1,2.7E1,2.6E1,2.5E1,2.5E1],"tree_param":{"num_deleted":"0","num_feature":"17","num_nodes":"11","size_leaf_vector":"1"}},{"base_weights":[4.191855E-3,8.035897E-3,-1.0862828E-2,-9.276647E-3,8.338545E-3,2.8430084E-2,-2.2391055E-3,9.300248E-3,-2.4236233E-3],"categories":[],"categories_nodes":[],"categories_segments":[],"categories_sizes":[],"default_left":[0,0,0,0,0,0,0,0,0],"id":88,"left_children":[1,-1,3,-1,5,7,-1,-1,-1],"loss_changes":[2.015405E-1,0E0,2.319549E-1,0E0,7.472517E-2,2.5051174E-1,0E0,0E0,0E0],"parents":[2147483647,0,0,2,2,4,4,5,5],"right_children":[2,-1,4,-1,6,8,-1,-1,-1],"split_conditions":[4.9599346E3,8.035897E-3,1.6977695E4,-9.276647E-3,2.1776E5,6.32E2,-2.2391055E-3,9.300248E-3,-2.4236233E-3],"split_indices":[5,0,5,0,16,0,0,0,0],"split_type":[0,0,0,0,0,0,0,0,0],"sum_hessian":[1.74E2,2.8E1,1.46E2,2.7E1,1.19E2,7.2E1,4.7E1,3.2E1,4E1],"tree_param":{"num_deleted":"0","num_feature":"17","num_nodes":"9","size_leaf_vector":"1"}},{"base_weights":[-4.1824285E-4,1.064616E-2,-2.0234251E-2,-5.0556613E-3,-1.1325824E-2,1.4325405E-2,-3.810857E-2,-9.3908975E-4,4.453819E-3,-4.0117177E-4,-6.568689E-3],"categories":[],"categories_nodes":[],"categories_segments":[],"categories_sizes":[],"default_left":[0,0,0,0,0,0,0,0,0,0,0],"id":89,"left_children":[1,-1,3,-1,5,7,9,-1,-1,-1,-1],"loss_changes":[3.7914604E-1,0E0,4.021621E-2,0E0,8.161312E-2,4.4126917E-2,5.4275855E-2,0E0,0E0,0E0,0E0],"parents":[2147483647,0,0,2,2,4,4,5,5,6,6],"right_children":[2,-1,4,-1,6,8,10,-1,-1,-1,-1],"split_conditions":[5.154625E3,1.064616E-2,2.1221326E4,-5.0556613E-3,5.2072066E4,3.6279562E4,1E0,-9.3908975E-4,4.453819E-3,-4.0117177E-4,-6.568689E-3],"split_indices":[5,0,5,0,5,5,3,0,0,0,0],"split_type":[0,0,0,0,0,0,0,0,0,0,0],"sum_hessian":[1.77E2,2.7E1,1.5E2,3.3E1,1.17E2,6E1,5.7E1,3.4E1,2.6E1,2.6E1,3.1E1],"tree_param":{"num_deleted":"0","num_feature":"17","num_nodes":"11","size_leaf_vector":"1"}},{"base_weights":[3.0981007E-3,-1.2071259E-2,5.9591983E-3,3.6127962E-2,-4.1635066E-2,-3.4368895E-3,1.0029905E-2,-7.6791E-3,-1.08111305E-2,2.3537737E-3,-3.562724E-3],"categories":[],"categories_nodes":[],"categories_segments":[],"categories_sizes":[],"default_left":[0,0,0,0,0,0,0,0,0,0,0],"id":90,"left_children":[1,3,-1,5,7,-1,-1,9,-1,-1,-1],"loss_changes":[1.4983317E-1,1.9814762E-1,0E0,2.4321173E-1,1.9329461E-1,0E0,0E0,5.1440824E-2,0E0,0E0,0E0],"parents":[2147483647,0,0,1,1,3,3,4,4,7,7],"right_children":[2,4,-1,6,8,-1,-1,10,-1,-1,-1],"split_conditions":[2.14E2,1E0,5.9591983E-3,2.009E3,5.28E2,-3.4368895E-3,1.0029905E-2,2.008E3,-1.08111305E-2,2.3537737E-3,-3.562724E-3],"split_indices":[8,2,0,1,0,0,0,1,0,0,0],"split_type":[0,0,0,0,0,0,0,0,0,0,0],"sum_hessian":[1.73E2,1.37E2,3.6E1,5.2E1,8.5E1,2.5E1,2.7E1,5.7E1,2.8E1,2.7E1,3E1],"tree_param":{"num_deleted":"0","num_feature":"17","num_nodes":"11","size_leaf_vector":"1"}},{"base_weights":[-3.4829606E-3,6.2154294E-3,-1.6065724E-2,-6.0091084E-3,-4.6537267E-3,-2.9352682E-2,8.242237E-3,3.5136829E-3,-7.874469E-3,-5.3147576E-3,5.816911E-3],"categories":[],"categories_nodes":[],"categories_segments":[],"categories_sizes":[],"default_left":[0,0,0,0,0,0,0,0,0,0,0],"id":91,"left_children":[1,-1,3,-1,5,7,-1,9,-1,-1,-1],"loss_changes":[1.4883432E-1,0E0,7.558537E-2,0E0,2.6265264E-1,1.5449359E-1,0E0,1.8270856E-1,0E0,0E0,0E0],"parents":[2147483647,0,0,2,2,4,4,5,5,7,7],"right_children":[2,-1,4,-1,6,8,-1,10,-1,-1,-1],"split_conditions":[4.9599346E3,6.2154294E-3,2.003E3,-6.0091084E-3,2.14E2,6E1,8.242237E-3,3.465584E4,-7.874469E-3,-5.3147576E-3,5.816911E-3],"split_indices":[5,0,1,0,8,9,0,5,0,0,0],"split_type":[0,0,0,0,0,0,0,0,0,0,0],"sum_hessian":[1.78E2,2.8E1,1.5E2,3E1,1.2E2,9.4E1,2.6E1,5.7E1,3.7E1,2.8E1,2.9E1],"tree_param":{"num_deleted":"0","num_feature":"17","num_nodes":"11","size_leaf_vector":"1"}},{"base_weights":[2.946444E-3,7.0038736E-3,-9.873444E-3,-2.3372846E-2,5.6445687E-3,-4.8186313E-2,1.334247E-2,-6.832506E-4,-7.083367E-3,2.3862708E-3,2.7177072E-4],"categories":[],"categories_nodes":[],"categories_segments":[],"categories_sizes":[],"default_left":[0,0,0,0,0,0,0,0,0,0,0],"id":92,"left_children":[1,-1,3,5,-1,7,9,-1,-1,-1,-1],"loss_changes":[1.5551236E-1,0E0,1.3740012E-1,1.1634428E-1,0E0,7.069415E-2,5.7474487E-3,0E0,0E0,0E0,0E0],"parents":[2147483647,0,0,2,2,3,3,5,5,6,6],"right_children":[2,-1,4,6,-1,8,10,-1,-1,-1,-1],"split_conditions":[5.154625E3,7.0038736E-3,7.372984E4,6E1,5.6445687E-3,2.6784904E4,2.93E2,-6.832506E-4,-7.083367E-3,2.3862708E-3,2.7177072E-4],"split_indices":[5,0,5,7,0,5,7,0,0,0,0],"split_type":[0,0,0,0,0,0,0,0,0,0,0],"sum_hessian":[1.79E2,2.8E1,1.51E2,1.26E2,2.5E1,7.5E1,5.1E1,2.7E1,4.8E1,2.5E1,2.6E1],"tree_param":{"num_deleted":"0","num_feature":"17","num_nodes":"11","size_leaf_vector":"1"}},{"base_weights":[-1.4637919E-3,9.789713E-3,-5.888477E-3,-7.712141E-3,8.52685E-3,2.4365643E-2,-8.673632E-3,-8.7316474E-4,5.9290407E-3],"categories":[],"categories_nodes":[],"categories_segments":[],"categories_sizes":[],"default_left":[0,0,0,0,0,0,0,0,0],"id":93,"left_children":[1,3,-1,5,-1,7,-1,-1,-1],"loss_changes":[1.1042829E-1,1.8956327E-1,0E0,2.9869908E-1,0E0,9.761457E-2,0E0,0E0,0E0],"parents":[2147483647,0,0,1,1,3,3,5,5],"right_children":[2,4,-1,6,-1,8,-1,-1,-1],"split_conditions":[2E0,8.73E2,-5.888477E-3,2.013E3,8.52685E-3,2.005E3,-8.673632E-3,-8.7316474E-4,5.9290407E-3],"split_indices":[2,0,0,1,0,1,0,0,0],"split_type":[0,0,0,0,0,0,0,0,0],"sum_hessian":[1.69E2,1.42E2,2.7E1,1.16E2,2.6E1,8.3E1,3.3E1,4.3E1,4E1],"tree_param":{"num_deleted":"0","num_feature":"17","num_nodes":"9","size_leaf_vector":"1"}},{"base_weights":[8.849158E-3,5.308356E-2,-2.0440051E-2,9.574353E-3,-1.9511136E-3,-6.302552E-2,3.5848455E-3,-1.1477783E-2,2.5615844E-4],"categories":[],"categories_nodes":[],"categories_segments":[],"categories_sizes":[],"default_left":[0,0,0,0,0,0,0,0,0],"id":94,"left_children":[1,3,5,-1,-1,7,-1,-1,-1],"loss_changes":[2.2133543E-1,2.1245642E-1,2.4915783E-1,0E0,0E0,2.0055681E-1,0E0,0E0,0E0],"parents":[2147483647,0,0,1,1,2,2,5,5],"right_children":[2,4,6,-1,-1,8,-1,-1,-1],"split_conditions":[1.62875E7,2.2643543E4,2.7465E7,9.574353E-3,-1.9511136E-3,1.14E2,3.5848455E-3,-1.1477783E-2,2.5615844E-4],"split_indices":[15,5,15,0,0,8,0,0,0],"split_type":[0,0,0,0,0,0,0,0,0],"sum_hessian":[1.69E2,6.7E1,1.02E2,4.2E1,2.5E1,5.8E1,4.4E1,3.2E1,2.6E1],"tree_param":{"num_deleted":"0","num_feature":"17","num_nodes":"9","size_leaf_vector":"1"}},{"base_weights":[-2.520864E-3,1.30774025E-2,-5.445045E-3,3.260817E-2,-1.6845828E-2,-5.928131E-4,6.3396776E-3,-5.8171754E-3,2.3573427E-3],"categories":[],"categories_nodes":[],"categories_segments":[],"categories_sizes":[],"default_left":[0,0,0,0,0,0,0,0,0],"id":95,"left_children":[1,3,-1,5,7,-1,-1,-1,-1],"loss_changes":[1.3679402E-1,7.6524384E-2,0E0,9.410767E-2,8.823019E-2,0E0,0E0,0E0,0E0],"parents":[2147483647,0,0,1,1,3,3,4,4],"right_children":[2,4,-1,6,8,-1,-1,-1,-1],"split_conditions":[1.92E2,4.6E1,-5.445045E-3,1.0829E4,4.346551E4,-5.928131E-4,6.3396776E-3,-5.8171754E-3,2.3573427E-3],"split_indices":[7,10,0,5,5,0,0,0,0],"split_type":[0,0,0,0,0,0,0,0,0],"sum_hessian":[1.67E2,1.29E2,3.8E1,7.8E1,5.1E1,3.5E1,4.3E1,2.5E1,2.6E1],"tree_param":{"num_deleted":"0","num_feature":"17","num_nodes":"9","size_leaf_vector":"1"}},{"base_weights":[3.6056947E-3,-7.388296E-3,2.2398613E-2,6.155442E-3,7.9313135E-3,6.5992894E-3,-1.6082568E-2,-9.73432E-3,3.3626497E-2,1.705242E-3,4.890725E-3],"categories":[],"categories_nodes":[],"categories_segments":[],"categories_sizes":[],"default_left":[0,0,0,0,0,0,0,0,0,0,0],"id":96,"left_children":[1,-1,3,5,-1,-1,7,-1,9,-1,-1],"loss_changes":[2.5358403E-1,0E0,1.2893791E-1,1.4743458E-1,0E0,0E0,3.3046395E-1,0E0,1.20824985E-2,0E0,0E0],"parents":[2147483647,0,0,2,2,3,3,6,6,8,8],"right_children":[2,-1,4,6,-1,-1,8,-1,10,-1,-1],"split_conditions":[2.001E3,-7.388296E-3,4E0,2.007E3,7.9313135E-3,6.5992894E-3,1.3616E5,-9.73432E-3,2.6426334E7,1.705242E-3,4.890725E-3],"split_indices":[1,0,11,1,0,0,16,0,15,0,0],"split_type":[0,0,0,0,0,0,0,0,0,0,0],"sum_hessian":[1.72E2,3.3E1,1.39E2,1.09E2,3E1,2.9E1,8E1,3E1,5E1,2.5E1,2.5E1],"tree_param":{"num_deleted":"0","num_feature":"17","num_nodes":"11","size_leaf_vector":"1"}},{"base_weights":[-9.516353E-3,-2.8852863E-2,4.958839E-3,-4.424983E-3,-9.7822435E-3,-3.395996E-2,6.5621957E-3,3.545504E-3,-9.182497E-3],"categories":[],"categories_nodes":[],"categories_segments":[],"categories_sizes":[],"default_left":[0,0,0,0,0,0,0,0,0],"id":97,"left_children":[1,3,-1,5,-1,7,-1,-1,-1],"loss_changes":[2.0372042E-1,2.253277E-1,0E0,2.0911202E-1,0E0,2.884413E-1,0E0,0E0,0E0],"parents":[2147483647,0,0,1,1,3,3,5,5],"right_children":[2,4,-1,6,-1,8,-1,-1,-1],"split_conditions":[2.8377E7,5.2072066E4,4.958839E-3,1E0,-9.7822435E-3,2.007E3,6.5621957E-3,3.545504E-3,-9.182497E-3],"split_indices":[15,5,0,3,0,1,0,0,0],"split_type":[0,0,0,0,0,0,0,0,0],"sum_hessian":[1.76E2,1.33E2,4.3E1,9.9E1,3.4E1,7E1,2.9E1,3.2E1,3.8E1],"tree_param":{"num_deleted":"0","num_feature":"17","num_nodes":"9","size_leaf_vector":"1"}},{"base_weights":[-1.321428E-2,3.3449165E-3,-9.0050055E-3,-1.28076505E-2,7.466031E-3,8.729259E-3,-8.686589E-3,-2.013727E-2,6.7133564E-3,5.186874E-3,-7.5109415E-3],"categories":[],"categories_nodes":[],"categories_segments":[],"categories_sizes":[],"default_left":[0,0,0,0,0,0,0,0,0,0,0],"id":98,"left_children":[1,3,-1,5,-1,7,-1,9,-1,-1,-1],"loss_changes":[2.1532643E-1,1.6222596E-1,0E0,1.8418162E-1,0E0,1.5308554E-1,0E0,2.4535362E-1,0E0,0E0,0E0],"parents":[2147483647,0,0,1,1,3,3,5,5,7,7],"right_children":[2,4,-1,6,-1,8,-1,10,-1,-1,-1],"split_conditions":[3.312675E7,2.4969E7,-9.0050055E-3,5.1201473E4,7.466031E-3,2.009E3,-8.686589E-3,2E3,6.7133564E-3,5.186874E-3,-7.5109415E-3],"split_indices":[15,15,0,5,0,1,0,1,0,0,0],"split_type":[0,0,0,0,0,0,0,0,0,0,0],"sum_hessian":[1.68E2,1.39E2,2.9E1,1.14E2,2.5E1,8.9E1,2.5E1,6E1,2.9E1,2.6E1,3.4E1],"tree_param":{"num_deleted":"0","num_feature":"17","num_nodes":"11","size_leaf_vector":"1"}},{"base_weights":[1.3248867E-3,1.5094862E-2,-6.0016452E-3,-8.612452E-3,1.1754992E-2,2.1460459E-2,-1.0519507E-2,-2.4549302E-2,1.246136E-2,4.9347826E-3,-8.468373E-3],"categories":[],"categories_nodes":[],"categories_segments":[],"categories_sizes":[],"default_left":[0,0,0,0,0,0,0,0,0,0,0],"id":99,"left_children":[1,3,-1,5,-1,7,-1,9,-1,-1,-1],"loss_changes":[1.428103E-1,3.3620536E-1,0E0,3.304684E-1,0E0,4.1596565E-1,0E0,2.7524835E-1,0E0,0E0,0E0],"parents":[2147483647,0,0,1,1,3,3,5,5,7,7],"right_children":[2,4,-1,6,-1,8,-1,10,-1,-1,-1],"split_conditions":[3.3009E7,2.4969E7,-6.0016452E-3,8.26E2,1.1754992E-2,1E0,-1.0519507E-2,2.007E3,1.246136E-2,4.9347826E-3,-8.468373E-3],"split_indices":[15,15,0,0,0,3,0,1,0,0,0],"split_type":[0,0,0,0,0,0,0,0,0,0,0],"sum_hessian":[1.67E2,1.37E2,3E1,1.12E2,2.5E1,8.6E1,2.6E1,6E1,2.6E1,2.7E1,3.3E1],"tree_param":{"num_deleted":"0","num_feature":"17","num_nodes":"11","size_leaf_vector":"1"}},{"base_weights":[3.8806389E-3,-7.486933E-3,6.478498E-3,-2.7673172E-2,1.9982921E-2,-8.504283E-4,-4.756971E-3,5.3643766E-3,-2.5638316E-3],"categories":[],"categories_nodes":[],"categories_segments":[],"categories_sizes":[],"default_left":[0,0,0,0,0,0,0,0,0],"id":100,"left_children":[1,3,-1,5,7,-1,-1,-1,-1],"loss_changes":[1.18874244E-1,8.095738E-2,0E0,3.1632587E-2,9.658559E-2,0E0,0E0,0E0,0E0],"parents":[2147483647,0,0,1,1,3,3,4,4],"right_children":[2,4,-1,6,8,-1,-1,-1,-1],"split_conditions":[1E0,1.2E1,6.478498E-3,2.6E1,8.26E2,-8.504283E-4,-4.756971E-3,5.3643766E-3,-2.5638316E-3],"split_indices":[12,10,0,8,0,0,0,0,0],"split_type":[0,0,0,0,0,0,0,0,0],"sum_hessian":[1.7E2,1.44E2,2.6E1,8.3E1,6.1E1,4.3E1,4E1,3.5E1,2.6E1],"tree_param":{"num_deleted":"0","num_feature":"17","num_nodes":"9","size_leaf_vector":"1"}},{"base_weights":[-1.1154477E-2,3.7441696E-3,-8.737772E-3,6.722022E-3,-1.28473565E-2,-9.003123E-3,1.0712327E-2,-3.4196756E-3,2.8789263E-2,-4.8678552E-4,7.2236555E-3],"categories":[],"categories_nodes":[],"categories_segments":[],"categories_sizes":[],"default_left":[0,0,0,0,0,0,0,0,0,0,0],"id":101,"left_children":[1,3,-1,-1,5,-1,7,-1,9,-1,-1],"loss_changes":[1.945187E-1,1.5251929E-1,0E0,0E0,2.1008362E-1,0E0,7.323636E-2,0E0,9.393951E-2,0E0,0E0],"parents":[2147483647,0,0,1,1,4,4,6,6,8,8],"right_children":[2,4,-1,-1,6,-1,8,-1,10,-1,-1],"split_conditions":[5E0,1.0551019E4,-8.737772E-3,6.722022E-3,1.5524E7,-9.003123E-3,3.06234E4,-3.4196756E-3,1.9395769E5,-4.8678552E-4,7.2236555E-3],"split_indices":[12,5,0,0,15,0,5,0,16,0,0],"split_type":[0,0,0,0,0,0,0,0,0,0,0],"sum_hessian":[1.7E2,1.43E2,2.7E1,2.9E1,1.14E2,2.6E1,8.8E1,2.5E1,6.3E1,3.6E1,2.7E1],"tree_param":{"num_deleted":"0","num_feature":"17","num_nodes":"11","size_leaf_vector":"1"}},{"base_weights":[3.0768462E-3,-4.8746006E-3,1.4931549E-2,9.369882E-3,-3.2180073E-3,-2.7105413E-2,7.1026287E-3,-5.8032833E-2,3.0764062E-3,-2.2457715E-3,-9.406028E-3],"categories":[],"categories_nodes":[],"categories_segments":[],"categories_sizes":[],"default_left":[0,0,0,0,0,0,0,0,0,0,0],"id":102,"left_children":[1,-1,3,-1,5,7,-1,9,-1,-1,-1],"loss_changes":[1.08852476E-1,0E0,2.0616262E-1,0E0,2.1119863E-1,1.6286314E-1,0E0,7.350679E-2,0E0,0E0,0E0],"parents":[2147483647,0,0,2,2,4,4,5,5,7,7],"right_children":[2,-1,4,-1,6,8,-1,10,-1,-1,-1],"split_conditions":[2.001E3,-4.8746006E-3,9.611E4,9.369882E-3,2.14E2,2.014E3,7.1026287E-3,2.009E3,3.0764062E-3,-2.2457715E-3,-9.406028E-3],"split_indices":[1,0,16,0,8,1,0,1,0,0,0],"split_type":[0,0,0,0,0,0,0,0,0,0,0],"sum_hessian":[1.75E2,3.2E1,1.43E2,2.6E1,1.17E2,8.9E1,2.8E1,5.8E1,3.1E1,3E1,2.8E1],"tree_param":{"num_deleted":"0","num_feature":"17","num_nodes":"11","size_leaf_vector":"1"}},{"base_weights":[-7.0588184E-3,-2.1993622E-2,2.396248E-2,2.8056738E-3,-8.230064E-3,9.068504E-3,-5.076473E-3,-3.285334E-2,8.194401E-3,-6.0508302E-3,5.6380825E-4],"categories":[],"categories_nodes":[],"categories_segments":[],"categories_sizes":[],"default_left":[0,0,0,0,0,0,0,0,0,0,0],"id":103,"left_children":[1,3,5,7,-1,-1,-1,9,-1,-1,-1],"loss_changes":[8.253058E-2,1.7969951E-1,2.9379106E-1,2.453837E-1,0E0,0E0,0E0,6.420987E-2,0E0,0E0,0E0],"parents":[2147483647,0,0,1,1,2,2,3,3,7,7],"right_children":[2,4,6,8,-1,-1,-1,10,-1,-1,-1],"split_conditions":[2.5E1,2.012E3,1E0,1E0,-8.230064E-3,9.068504E-3,-5.076473E-3,2.6E1,8.194401E-3,-6.0508302E-3,5.6380825E-4],"split_indices":[7,1,3,3,0,0,0,8,0,0,0],"split_type":[0,0,0,0,0,0,0,0,0,0,0],"sum_hessian":[1.76E2,1.19E2,5.7E1,8.5E1,3.4E1,3E1,2.7E1,5.9E1,2.6E1,3.4E1,2.5E1],"tree_param":{"num_deleted":"0","num_feature":"17","num_nodes":"11","size_leaf_vector":"1"}},{"base_weights":[-1.8474081E-3,-8.229238E-3,1.3181303E-2,4.782823E-2,-2.0286933E-2,9.583972E-3,1.0986465E-3,-5.752495E-3,4.693406E-3],"categories":[],"categories_nodes":[],"categories_segments":[],"categories_sizes":[],"default_left":[0,0,0,0,0,0,0,0,0],"id":104,"left_children":[1,-1,3,5,7,-1,-1,-1,-1],"loss_changes":[2.1507493E-1,0E0,1.7490603E-1,1.2984033E-1,1.9544446E-1,0E0,0E0,0E0,0E0],"parents":[2147483647,0,0,2,2,3,3,4,4],"right_children":[2,-1,4,6,8,-1,-1,-1,-1],"split_conditions":[6E1,-8.229238E-3,1.7974E5,4.74E2,2.014E3,9.583972E-3,1.0986465E-3,-5.752495E-3,4.693406E-3],"split_indices":[0,0,16,0,1,0,0,0,0],"split_type":[0,0,0,0,0,0,0,0,0],"sum_hessian":[1.76E2,2.7E1,1.49E2,7.3E1,7.6E1,3.1E1,4.2E1,4.9E1,2.7E1],"tree_param":{"num_deleted":"0","num_feature":"17","num_nodes":"9","size_leaf_vector":"1"}},{"base_weights":[8.238693E-3,-6.2149297E-3,2.098301E-2,9.030217E-3,6.849049E-3,-5.4620225E-3,2.215051E-2,5.4519266E-2,-1.3898129E-3,1.5609071E-3,8.886603E-3],"categories":[],"categories_nodes":[],"categories_segments":[],"categories_sizes":[],"default_left":[0,0,0,0,0,0,0,0,0,0,0],"id":105,"left_children":[1,-1,3,-1,5,-1,7,9,-1,-1,-1],"loss_changes":[1.6366959E-1,0E0,1.5026367E-1,0E0,1.2254337E-1,0E0,1.22110076E-1,7.2117016E-2,0E0,0E0,0E0],"parents":[2147483647,0,0,2,2,4,4,6,6,7,7],"right_children":[2,-1,4,-1,6,-1,8,10,-1,-1,-1],"split_conditions":[6E1,-6.2149297E-3,2.8E2,9.030217E-3,4.58E2,-5.4620225E-3,1E0,7.54E2,-1.3898129E-3,1.5609071E-3,8.886603E-3],"split_indices":[0,0,0,0,0,0,3,0,0,0,0],"split_type":[0,0,0,0,0,0,0,0,0,0,0],"sum_hessian":[1.8E2,2.7E1,1.53E2,2.5E1,1.28E2,2.5E1,1.03E2,5.4E1,4.9E1,2.6E1,2.8E1],"tree_param":{"num_deleted":"0","num_feature":"17","num_nodes":"11","size_leaf_vector":"1"}},{"base_weights":[-2.9381118E-3,9.727038E-3,-2.0956054E-2,-9.232441E-3,-5.9437873E-3,7.048814E-3,-5.5686724E-3,-4.427632E-3,2.4747543E-2,4.5385454E-3,4.5334324E-4],"categories":[],"categories_nodes":[],"categories_segments":[],"categories_sizes":[],"default_left":[0,0,0,0,0,0,0,0,0,0,0],"id":106,"left_children":[1,-1,3,-1,5,7,-1,-1,9,-1,-1],"loss_changes":[3.1981534E-1,0E0,1.6016136E-1,0E0,8.117879E-2,9.193469E-2,0E0,0E0,3.1082522E-2,0E0,0E0],"parents":[2147483647,0,0,2,2,4,4,5,5,8,8],"right_children":[2,-1,4,-1,6,8,-1,-1,10,-1,-1],"split_conditions":[4.9599346E3,9.727038E-3,1.8323332E4,-9.232441E-3,7E0,2.003E3,-5.5686724E-3,-4.427632E-3,5.2072066E4,4.5385454E-3,4.5334324E-4],"split_indices":[5,0,5,0,11,1,0,0,5,0,0],"split_type":[0,0,0,0,0,0,0,0,0,0,0],"sum_hessian":[1.75E2,2.6E1,1.49E2,2.5E1,1.24E2,9.9E1,2.5E1,2.5E1,7.4E1,3.6E1,3.8E1],"tree_param":{"num_deleted":"0","num_feature":"17","num_nodes":"11","size_leaf_vector":"1"}},{"base_weights":[1.0587533E-2,2.1147659E-2,-4.6362695E-3,7.773373E-3,7.2236904E-3,3.4794167E-2,-5.884267E-3,6.604792E-3,-2.798854E-4],"categories":[],"categories_nodes":[],"categories_segments":[],"categories_sizes":[],"default_left":[0,0,0,0,0,0,0,0,0],"id":107,"left_children":[1,3,-1,5,-1,7,-1,-1,-1],"loss_changes":[1.07428536E-1,1.01930805E-1,0E0,2.1804957E-1,0E0,1.01228245E-1,0E0,0E0,0E0],"parents":[2147483647,0,0,1,1,3,3,5,5],"right_children":[2,4,-1,6,-1,8,-1,-1,-1],"split_conditions":[2E0,8.91E2,-4.6362695E-3,2.013E3,7.2236904E-3,4.74E2,-5.884267E-3,6.604792E-3,-2.798854E-4],"split_indices":[2,0,0,1,0,0,0,0,0],"split_type":[0,0,0,0,0,0,0,0,0],"sum_hessian":[1.76E2,1.49E2,2.7E1,1.19E2,3E1,8.5E1,3.4E1,4.6E1,3.9E1],"tree_param":{"num_deleted":"0","num_feature":"17","num_nodes":"9","size_leaf_vector":"1"}},{"base_weights":[-1.0800589E-2,-6.7332345E-3,8.127053E-3,3.9148595E-2,-2.9341701E-2,5.79172E-3,9.969332E-4,1.0774642E-3,-7.728606E-3],"categories":[],"categories_nodes":[],"categories_segments":[],"categories_sizes":[],"default_left":[0,0,0,0,0,0,0,0,0],"id":108,"left_children":[1,-1,3,5,7,-1,-1,-1,-1],"loss_changes":[1.835194E-1,0E0,1.5109035E-1,3.8306035E-2,1.143105E-1,0E0,0E0,0E0,0E0],"parents":[2147483647,0,0,2,2,3,3,4,4],"right_children":[2,-1,4,6,8,-1,-1,-1,-1],"split_conditions":[1.0603E5,-6.7332345E-3,6E1,2E0,2.72522E7,5.79172E-3,9.969332E-4,1.0774642E-3,-7.728606E-3],"split_indices":[16,0,10,3,15,0,0,0,0],"split_type":[0,0,0,0,0,0,0,0,0],"sum_hessian":[1.7E2,4.2E1,1.28E2,7E1,5.8E1,4.2E1,2.8E1,3.2E1,2.6E1],"tree_param":{"num_deleted":"0","num_feature":"17","num_nodes":"9","size_leaf_vector":"1"}},{"base_weights":[-5.0907247E-3,-1.936385E-2,6.183489E-3,-4.8172712E-2,1.8898042E-2,-1.0432667E-2,-2.2169687E-2,5.8576553E-3,-2.1371031E-3,3.599989E-4,-4.634138E-3],"categories":[],"categories_nodes":[],"categories_segments":[],"categories_sizes":[],"default_left":[0,0,0,0,0,0,0,0,0,0,0],"id":109,"left_children":[1,3,-1,5,7,-1,9,-1,-1,-1,-1],"loss_changes":[1.6836396E-1,1.6074118E-1,0E0,1.1888145E-1,1.019143E-1,0E0,3.629484E-2,0E0,0E0,0E0,0E0],"parents":[2147483647,0,0,1,1,3,3,4,4,6,6],"right_children":[2,4,-1,6,8,-1,10,-1,-1,-1,-1],"split_conditions":[1E0,1.2E1,6.183489E-3,2.32E2,2.009E3,-1.0432667E-2,3.225781E4,5.8576553E-3,-2.1371031E-3,3.599989E-4,-4.634138E-3],"split_indices":[12,10,0,0,1,0,5,0,0,0,0],"split_type":[0,0,0,0,0,0,0,0,0,0,0],"sum_hessian":[1.74E2,1.44E2,3E1,8.2E1,6.2E1,2.5E1,5.7E1,3.1E1,3.1E1,2.8E1,2.9E1],"tree_param":{"num_deleted":"0","num_feature":"17","num_nodes":"11","size_leaf_vector":"1"}},{"base_weights":[8.236416E-3,1.0974229E-2,-9.651349E-3,-8.559852E-3,6.480991E-3,-5.4137865E-3,5.1065884E-3,2.1962153E-2,-8.206878E-3,2.9015928E-4,4.9185567E-3],"categories":[],"categories_nodes":[],"categories_segments":[],"categories_sizes":[],"default_left":[0,0,0,0,0,0,0,0,0,0,0],"id":110,"left_children":[1,-1,3,-1,5,7,-1,9,-1,-1,-1],"loss_changes":[3.1517756E-1,0E0,1.818852E-1,0E0,6.550673E-2,2.0745564E-1,0E0,3.7736516E-2,0E0,0E0,0E0],"parents":[2147483647,0,0,2,2,4,4,5,5,7,7],"right_children":[2,-1,4,-1,6,8,-1,10,-1,-1,-1],"split_conditions":[4.9599346E3,1.0974229E-2,1.8323332E4,-8.559852E-3,7.372984E4,8.26E2,5.1065884E-3,1E0,-8.206878E-3,2.9015928E-4,4.9185567E-3],"split_indices":[5,0,5,0,5,0,0,3,0,0,0],"split_type":[0,0,0,0,0,0,0,0,0,0,0],"sum_hessian":[1.72E2,2.5E1,1.47E2,2.5E1,1.22E2,9.7E1,2.5E1,7.2E1,2.5E1,4.3E1,2.9E1],"tree_param":{"num_deleted":"0","num_feature":"17","num_nodes":"11","size_leaf_vector":"1"}},{"base_weights":[-6.790294E-3,-8.184977E-3,6.6393595E-3,8.912849E-3,-9.658797E-3,-7.8288065E-3,7.107742E-3,-2.4866827E-2,9.396578E-3,-2.8551586E-3,-6.962695E-3,-6.078522E-3,4.918059E-3],"categories":[],"categories_nodes":[],"categories_segments":[],"categories_sizes":[],"default_left":[0,0,0,0,0,0,0,0,0,0,0,0,0],"id":111,"left_children":[1,-1,3,-1,5,-1,7,9,-1,11,-1,-1,-1],"loss_changes":[1.860196E-1,0E0,2.1193492E-1,0E0,1.5244558E-1,0E0,2.9950222E-1,7.763556E-2,0E0,1.6576889E-1,0E0,0E0,0E0],"parents":[2147483647,0,0,2,2,4,4,6,6,7,7,9,9],"right_children":[2,-1,4,-1,6,-1,8,10,-1,12,-1,-1,-1],"split_conditions":[6E1,-8.184977E-3,2.8E2,8.912849E-3,1.5384833E7,-7.8288065E-3,2.16E2,6.462225E4,9.396578E-3,3.465584E4,-6.962695E-3,-6.078522E-3,4.918059E-3],"split_indices":[0,0,0,0,15,0,8,5,0,5,0,0,0],"split_type":[0,0,0,0,0,0,0,0,0,0,0,0,0],"sum_hessian":[1.83E2,2.7E1,1.56E2,2.5E1,1.31E2,2.5E1,1.06E2,7.8E1,2.8E1,5.3E1,2.5E1,2.5E1,2.8E1],"tree_param":{"num_deleted":"0","num_feature":"17","num_nodes":"13","size_leaf_vector":"1"}},{"base_weights":[-5.626806E-3,-2.1510331E-2,4.0764916E-3,-6.3831485E-3,-8.153174E-3,-6.8732924E-3,1.3194961E-2,5.6656976E-3,-3.2901764E-3],"categories":[],"categories_nodes":[],"categories_segments":[],