tree
version=v4
num_class=1
num_tree_per_iteration=1
label_index=0
max_feature_idx=16
objective=regression
feature_names=Column_0 Column_1 Column_2 Column_3 Column_4 Column_5 Column_6 Column_7 Column_8 Column_9 Column_10 Column_11 Column_12 Column_13 Column_14 Column_15 Column_16
feature_infos=[1:2289] [1993:2021] [0:2] [0:2] none [115.78800000000001:150126.86320000002] [0:1181] [0:1344] [0:1258] [0:670] [0:1303] [0:702] [0:992] none none [0:189821857.14285713] [0:950305]
tree_sizes=1587 1600 1692 1593 1725 1599 1631 1578 1699 1618 1579 1590 1717 1717 1720 1497 1502 1731 1503 1736 1524 1843 1735 1477 1476 1597 1496 1514 1748 1708 1735 1624 1462 1489 1726 1636 1616 1754 1572 1641 1712 1501 1502

Tree=0
num_leaves=15
num_cat=0
split_feature=5 5 12 5 1 16 1 5 5 6 0 15 0 0
split_gain=96.2177 25.2233 8.166 10.7174 6.43298 4.13431 3.31528 1.67082 0.969018 0.500399 0.762895 0.269539 0.244842 0.000324482
threshold=43573.713200000006 84745.715400000016 1.0000000180025095e-35 12522.119600000002 2003.5000000000002 276036.66666666669 2001.5000000000002 35428.485550000012 56254.07390000001 1.0000000180025095e-35 59.000000000000007 27606400.000000004 962.50000000000011 79.000000000000014
decision_type=2 2 2 2 2 2 2 2 2 2 2 2 2 2
left_child=2 4 3 9 -2 8 -5 11 -6 10 -1 -8 -10 -4
right_child=1 -3 13 6 5 -7 7 -9 12 -11 -12 -13 -14 -15
leaf_value=-0.042092115708793953 -0.007760806583966582 0.10306838344246995 -5.405274888452809e-05 -0.040918490199265418 0.01964247848334277 0.063253872307442949 -0.028994661076471969 -0.0037759918788538788 0.029753591565606297 -0.064747618094612006 -0.060461498294264462 -0.01815894428208592 0.039128662369046843 -0.00045684431416866106
leaf_weight=10.000000000000002 9.9999999999999982 13.999999999999998 10.000000000000002 17 17 10.999999999999998 12.000000000000002 19 13.000000000000002 12.999999999999998 12.999999999999998 10.999999999999998 14.999999999999998 9.9999999999999982
leaf_count=10 10 14 10 17 17 11 12 19 13 13 13 11 15 10
internal_value=-2.36293e-09 0.0421099 -0.0292938 -0.0354072 0.0291793 0.0357757 -0.0222889 -0.0147483 0.0290589 -0.0569067 -0.0524748 -0.0238124 0.034776 -0.000255449
internal_weight=0 80 115 95 66 56 59 42 45 36 23 23 28 20
internal_count=195 80 115 95 66 56 59 42 45 36 23 23 28 20
is_linear=0
shrinkage=1


Tree=1
num_leaves=15
num_cat=0
split_feature=5 5 12 5 1 16 1 5 5 16 5 15 16 0
split_gain=86.8365 22.7641 7.36981 9.67246 5.80576 3.73121 2.99204 1.50792 0.879792 0.489636 0.280148 0.243259 0.159145 0.000292843
threshold=43573.713200000006 84745.715400000016 1.0000000180025095e-35 12522.119600000002 2003.5000000000002 276036.66666666669 2001.5000000000002 35428.485550000012 55698.742150000005 82801.666666666672 64954.786500000009 27606400.000000004 101653.00000000001 79.000000000000014
decision_type=2 2 2 2 2 2 2 2 2 2 2 2 2 2
left_child=2 4 3 9 -2 8 -5 11 -6 -1 -10 -8 -11 -4
right_child=1 -3 13 6 5 -7 7 -9 10 12 -12 -13 -14 -15
leaf_value=-0.044658852517604833 -0.0073727639205753807 0.09791496821812222 -5.1348805427551257e-05 -0.038872564189574299 0.017202633433043957 0.060091180693019525 -0.027544925486048057 -0.0035871899490685839 0.027395129178961114 -0.062625773847103092 0.036906414758414031 -0.017250994389707393 -0.054585084319114685 -0.00043399916961789131
leaf_weight=9.9999999999999982 9.9999999999999982 13.999999999999998 10.000000000000002 17 13.999999999999998 10.999999999999998 12.000000000000002 19 15.000000000000002 10.000000000000002 15.999999999999998 10.999999999999998 15.999999999999998 9.9999999999999982
leaf_count=10 10 14 10 17 14 11 12 19 15 10 16 11 16 10
internal_value=0 0.0400044 -0.0278291 -0.0336368 0.0277203 0.033987 -0.0211744 -0.0140109 0.0276059 -0.0540613 0.0323042 -0.0226217 -0.0576777 -0.000242674
internal_weight=0 80 115 95 66 56 59 42 45 36 31 23 26 20
internal_count=195 80 115 95 66 56 59 42 45 36 31 23 26 20
is_linear=0
shrinkage=0.05


Tree=2
num_leaves=16
num_cat=0
split_feature=5 5 12 5 1 12 1 5 5 0 16 15 15 16 0
split_gain=78.3699 20.5446 6.65126 8.7294 5.2397 3.40839 2.70032 1.3609 1.3329 0.511331 0.441896 0.28139 0.219541 0.143628 0.000264291
threshold=43573.713200000006 84745.715400000016 1.0000000180025095e-35 12522.119600000002 2003.5000000000002 62.500000000000007 2001.5000000000002 35428.485550000012 55698.742150000005 1063.5000000000002 82801.666666666672 27252350.000000004 27606400.000000004 101653.00000000001 79.000000000000014
decision_type=2 2 2 2 2 2 2 2 2 2 2 2 2 2 2
left_child=2 4 3 10 -2 8 -5 12 -6 11 -1 -10 -8 -12 -4
right_child=1 -3 14 6 5 -7 7 -9 9 -11 13 -13 -14 -15 -16
leaf_value=-0.04242591053247452 -0.0070041259750723839 0.093019217678478788 -4.8781037330627426e-05 -0.036928934428621739 0.012687864813667078 0.057237024605274203 -0.026167679205536837 -0.0034078304746799405 0.021757667003707445 0.041048335731029513 -0.059494485557079292 0.033067159625616946 -0.016388445483012635 -0.051855829916894441 -0.00041229948401451112
leaf_weight=9.9999999999999982 9.9999999999999982 13.999999999999998 10.000000000000002 17 12.999999999999998 10.999999999999998 12.000000000000002 19 11.000000000000002 9.9999999999999982 10.000000000000002 10.999999999999998 10.999999999999998 15.999999999999998 9.9999999999999982
leaf_count=10 10 14 10 17 13 11 12 19 11 10 10 11 11 16 10
internal_value=0 0.0380042 -0.0264377 -0.031955 0.0263343 0.0322876 -0.0201157 -0.0133103 0.0261889 0.0316736 -0.0513583 0.0274124 -0.0214907 -0.0547938 -0.00023054
internal_weight=0 80 115 95 66 56 59 42 45 32 36 22 23 26 20
internal_count=195 80 115 95 66 56 59 42 45 32 36 22 23 26 20
is_linear=0
shrinkage=0.05


Tree=3
num_leaves=15
num_cat=0
split_feature=5 5 12 5 1 2 1 5 5 7 6 10 16 0
split_gain=70.7288 18.5415 6.00276 7.87828 4.79066 3.32206 2.43704 1.22821 0.63096 0.449872 0.653699 0.198553 0.169043 0.000238524
threshold=43573.713200000006 84745.715400000016 1.0000000180025095e-35 12522.119600000002 2004.5000000000002 1.0000000180025095e-35 2001.5000000000002 35428.485550000012 57795.462650000009 1.0000000180025095e-35 1.0000000180025095e-35 47.500000000000007 161475.00000000003 79.000000000000014
decision_type=2 2 2 2 2 2 2 2 2 2 2 2 2 2
left_child=2 4 3 9 -2 -6 -5 11 -7 10 -1 -8 -10 -4
right_child=1 -3 13 6 5 8 7 -9 12 -11 -12 -13 -14 -15
leaf_value=-0.038534694810708356 0.00017853093643983205 0.088368258944579545 -4.6342015266418444e-05 -0.035082489602706012 0.056657683036544108 0.018688722027258742 -0.024490610567423007 -0.0032374389751471189 0.026510273665189734 -0.057802937030792235 -0.054582053151997656 -0.015119285508990289 0.035312438135345778 -0.00039168506860733039
leaf_weight=15.000000000000002 14.999999999999998 13.999999999999998 10.000000000000002 17 10.999999999999998 18 13.000000000000002 19 10.000000000000002 9.9999999999999982 10.999999999999998 9.9999999999999982 11.999999999999998 9.9999999999999982
leaf_count=15 15 14 10 17 11 18 13 19 10 10 11 10 12 10
internal_value=0 0.036104 -0.0251158 -0.0303572 0.0250176 0.0323232 -0.0191099 -0.0126448 0.0256312 -0.0487903 -0.045324 -0.0204161 0.0313115 -0.000219014
internal_weight=0 80 115 95 66 51 59 42 40 36 26 23 22 20
internal_count=195 80 115 95 66 51 59 42 40 36 26 23 22 20
is_linear=0
shrinkage=0.05


Tree=4
num_leaves=16
num_cat=0
split_feature=5 5 11 5 1 2 12 1 5 16 15 0 5 15 15
split_gain=63.8328 16.7337 5.73584 4.63001 4.36523 3.03176 2.83918 2.26556 1.13238 0.692599 0.482787 0.460059 0.409428 0.30396 0.226475
threshold=43573.713200000006 84745.715400000016 1.0000000180025095e-35 10690.009500000002 2003.5000000000002 1.0000000180025095e-35 62.500000000000007 2002.5000000000002 55698.742150000005 154801.00000000003 14597000.000000002 1063.5000000000002 35428.485550000012 12184500.000000002 27252350.000000004
decision_type=2 2 2 2 2 2 2 2 2 2 2 2 2 2 2
left_child=2 4 3 5 -2 -1 8 10 -6 -9 -5 14 -11 -7 -10
right_child=1 -3 -4 7 6 13 -8 9 11 12 -12 -13 -14 -15 -16
leaf_value=-0.023466529150803883 -0.0066628458723425868 0.083949846455029078 0.0061327296508742234 -0.039875713668086302 0.011190228579709164 -0.057638518015543608 0.051971599459648132 -0.020424595917575061 0.019574734433130778 -0.012513976278049602 -0.024696091841906312 0.0375820104777813 0.00073249512817710641 -0.046603172329755936 0.029720828614451668
leaf_weight=14.999999999999998 9.9999999999999982 13.999999999999998 13.999999999999998 11.000000000000002 12.999999999999998 12.000000000000002 10.999999999999998 15.999999999999998 11.000000000000002 14.000000000000002 9.9999999999999982 9.9999999999999982 9.9999999999999982 12.999999999999998 10.999999999999998
leaf_count=15 10 14 14 11 13 12 11 16 11 14 10 10 10 13 11
internal_value=0 0.0342988 -0.02386 -0.0280174 0.0237667 -0.0412375 0.0292006 -0.0193485 0.0236343 -0.0123666 -0.0326473 0.0286897 -0.00699461 -0.0519001 0.0246478
internal_weight=0 80 115 101 66 40 56 61 45 40 21 32 24 25 22
internal_count=195 80 115 101 66 40 56 61 45 40 21 32 24 25 22
is_linear=0
shrinkage=0.05


Tree=5
num_leaves=15
num_cat=0
split_feature=5 5 12 5 1 2 5 15 0 16 15 0 16 0
split_gain=57.6091 15.1021 5.19933 6.50057 3.98452 2.76171 2.0209 1.02006 0.52196 0.375284 0.358102 0.137082 0.111755 0.00182398
threshold=43573.713200000006 84745.715400000016 1.0000000180025095e-35 12522.119600000002 2004.5000000000002 1.0000000180025095e-35 36400.462500000016 19366107.142857146 1063.5000000000002 82801.666666666672 27252350.000000004 433.50000000000006 101653.00000000001 79.000000000000014
decision_type=2 2 2 2 2 2 2 2 2 2 2 2 2 2
left_child=2 4 3 9 -2 -6 7 -5 10 -1 -7 -9 -11 -4
right_child=1 -3 13 6 5 8 -8 11 -10 12 -12 -13 -14 -15
leaf_value=-0.036057433933019641 -7.4611554543177296e-05 0.079752351982252945 0.00098130643367767291 -0.032533381382624314 0.051428496973081078 0.015685331321468477 -0.0039017178185627257 -0.020086717853943503 0.033032276034355164 -0.051601513922214494 0.027021350576118992 -0.012160240411758423 -0.044863527547568088 2.6324214413762092e-05
leaf_weight=9.9999999999999982 14.999999999999998 13.999999999999998 10.000000000000002 18 10.999999999999998 19.000000000000004 19 12.000000000000002 9.9999999999999982 10.000000000000002 10.999999999999998 9.9999999999999982 15.999999999999998 9.9999999999999982
leaf_count=10 15 14 10 18 11 19 19 12 10 10 11 10 16 10
internal_value=0 0.0325838 -0.022667 -0.0275451 0.0225784 0.029241 -0.0173284 -0.0237061 0.0231395 -0.0442891 0.0198419 -0.0164838 -0.0474551 0.000503815
internal_weight=0 80 115 95 66 51 59 40 40 36 30 22 26 20
internal_count=195 80 115 95 66 51 59 40 40 36 30 22 26 20
is_linear=0
shrinkage=0.05


Tree=6
num_leaves=15
num_cat=0
split_feature=5 5 11 12 0 15 5 15 0 15 0 0 9 15
split_gain=51.9922 13.6297 4.99429 3.98548 6.95091 3.65495 2.12833 1.09787 1.24868 0.441085 0.494854 0.333702 0.119558 0.106468
threshold=43573.713200000006 84745.715400000016 1.0000000180025095e-35 1.0000000180025095e-35 317.00000000000006 18783250.000000004 71008.669200000018 14597000.000000002 534.50000000000011 27252350.000000004 877.00000000000011 171.00000000000003 198.00000000000003 10362000.000000002
decision_type=2 2 2 2 2 2 2 2 2 2 2 2 2 2
left_child=2 5 3 4 11 -2 9 -6 12 10 -7 13 -9 -1
right_child=1 -3 -4 -5 7 6 -8 8 -10 -11 -12 -13 -14 -15
leaf_value=-0.052847514301538445 -0.0012270442609276092 0.075764733978680207 0.0064532367579106771 -0.0025202329270541668 -0.031212943792343142 0.011775071603747512 0.048285323083400729 -0.022052854086671552 0.00068347388235755115 0.029493335882822675 0.025322427840105129 -0.039400426348050438 -0.014894694834947587 -0.046092587124024122
leaf_weight=10.000000000000002 13.999999999999998 13.999999999999998 13.999999999999998 15.999999999999998 9.9999999999999982 13.000000000000002 9.9999999999999982 14.000000000000002 11.999999999999998 14.999999999999998 13.999999999999998 14.999999999999998 9.9999999999999982 13.999999999999998
leaf_count=10 14 14 14 16 10 13 10 14 12 15 14 15 10 14
internal_value=0 0.0309546 -0.0215337 -0.025413 -0.0297223 0.0214495 0.0275547 -0.0165568 -0.0124857 0.0226188 0.0187996 -0.0452507 -0.0190703 -0.0489071
internal_weight=0 80 115 101 85 66 52 46 36 42 27 39 24 24
internal_count=195 80 115 101 85 66 52 46 36 42 27 39 24 24
is_linear=0
shrinkage=0.05


Tree=7
num_leaves=15
num_cat=0
split_feature=5 5 11 12 5 15 1 2 0 0 9 1 15 0
split_gain=46.923 12.4646 4.50735 3.86751 3.59826 3.22057 1.95664 1.39829 0.804978 0.756422 0.523254 0.481873 0.320525 0.146279
threshold=43573.713200000006 87370.975250000018 1.0000000180025095e-35 62.500000000000007 7340.3948000000009 18783250.000000004 2000.5000000000002 1.0000000180025095e-35 587.50000000000011 1063.5000000000002 24.000000000000004 2009.5000000000002 27252350.000000004 846.50000000000011
decision_type=2 2 2 2 2 2 2 2 2 2 2 2 2 2
left_child=2 3 4 5 7 -2 -6 -1 10 12 11 -8 13 -7
right_child=1 -3 -4 -5 6 9 8 -9 -10 -11 -12 -13 -14 -15
leaf_value=-0.025828439455765941 -0.0071370705224884055 0.078837039795788863 0.0061305748049302828 0.046095507763899292 -0.031557698783121611 0.010198497138917443 -0.0033927028152075673 -0.047348438037766352 -0.00078092919813405558 0.033440161699598486 -0.022065948734157965 -0.018557949364185335 0.024818924379845463 0.01855402375486764
leaf_weight=13.000000000000002 11.999999999999998 10.999999999999998 13.999999999999998 12.999999999999998 19 10.000000000000002 11.000000000000002 18 10.999999999999998 10.999999999999998 19 9.9999999999999982 11.999999999999998 10.999999999999998
leaf_count=13 12 11 14 13 19 10 11 18 11 11 19 10 12 11
internal_value=0 0.0294069 -0.020457 0.0215267 -0.0241424 0.0158233 -0.017862 -0.0383239 -0.0127597 0.0220852 -0.0160538 -0.0106142 0.0183002 0.0145752
internal_weight=0 80 115 69 101 56 70 31 51 44 40 21 33 21
internal_count=195 80 115 69 101 56 70 31 51 44 40 21 33 21
is_linear=0
shrinkage=0.05


Tree=8
num_leaves=16
num_cat=0
split_feature=5 5 12 5 12 15 5 15 0 7 6 15 0 0 0
split_gain=42.348 11.2493 4.11909 4.91522 3.49043 2.90657 1.49963 0.773512 0.682671 0.339683 0.41455 0.289274 0.132017 0.118017 0.00568738
threshold=43573.713200000006 87370.975250000018 1.0000000180025095e-35 12522.119600000002 62.500000000000007 18783250.000000004 36400.462500000016 19366107.142857146 1063.5000000000002 1.0000000180025095e-35 1.0000000180025095e-35 27252350.000000004 846.50000000000011 433.50000000000006 79.000000000000014
decision_type=2 2 2 2 2 2 2 2 2 2 2 2 2 2 2
left_child=2 4 3 9 5 -2 7 -5 11 10 -1 12 -7 -9 -4
right_child=1 -3 14 6 -6 8 -8 13 -10 -11 -12 -13 -14 -15 -16
leaf_value=-0.029917067885398857 -0.0067802171222865583 0.074895189567045731 0.0020328330993652339 -0.028072832110855317 0.043790732782620655 0.0096885720640420888 -0.0033259049107719446 -0.017439764862259226 0.031768153201450003 -0.046167201995849616 -0.042696258154782382 0.02357797781005502 0.017626322399486194 -0.010085087791085244 0.00034650890156626705
leaf_weight=15.000000000000002 11.999999999999998 10.999999999999998 10.000000000000002 18 12.999999999999998 10.000000000000002 19 12.000000000000002 10.999999999999998 9.9999999999999982 10.999999999999998 11.999999999999998 10.999999999999998 9.9999999999999982 9.9999999999999982
leaf_count=15 12 11 10 18 13 10 19 12 11 10 11 12 11 10 10
internal_value=0 0.0279366 -0.0194341 -0.023776 0.0204504 0.0150321 -0.0148921 -0.020386 0.0209809 -0.0383357 -0.0353236 0.0173852 0.0138464 -0.0140967 0.00118967
internal_weight=0 80 115 95 69 56 59 40 44 36 26 33 21 22 20
internal_count=195 80 115 95 69 56 59 40 44 36 26 33 21 22 20
is_linear=0
shrinkage=0.05


Tree=9
num_leaves=15
num_cat=0
split_feature=5 5 11 1 12 0 2 15 0 0 0 15 9 15
split_gain=38.219 10.1525 3.91532 3.18929 3.15188 5.38618 2.25765 0.863367 0.978521 0.470928 0.245033 0.204229 0.123976 0.0813565
threshold=43573.713200000006 87370.975250000018 1.0000000180025095e-35 2004.5000000000002 1.0000000180025095e-35 317.00000000000006 1.0000000180025095e-35 14597000.000000002 534.50000000000011 1063.5000000000002 171.00000000000003 23128375.000000004 198.00000000000003 10362000.000000002
decision_type=2 2 2 2 2 2 2 2 2 2 2 2 2 2
left_child=2 3 4 -2 5 10 -5 -7 12 11 13 -8 -9 -1
right_child=1 -3 -4 6 -6 7 9 8 -10 -11 -12 -13 -14 -15
leaf_value=-0.045976477712392792 -0.00096804644291599595 0.071150428327647119 0.0063175741250493704 0.043249479165444006 -0.0015388812869787218 -0.027137121595442293 0.011039200603651501 -0.019396063525761873 0.0011278925327739369 0.028186130049553788 -0.034385643005371093 0.019460186569227114 -0.012106856778264046 -0.040071641733603822
leaf_weight=10.000000000000002 14.999999999999998 10.999999999999998 13.999999999999998 12.999999999999998 15.999999999999998 9.9999999999999982 12.000000000000002 14.000000000000002 11.999999999999998 10.999999999999998 14.999999999999998 18 9.9999999999999982 13.999999999999998
leaf_count=10 15 11 14 13 16 10 12 14 12 11 15 18 10 14
internal_value=0 0.0265397 -0.0184624 0.0194279 -0.0218973 -0.0257294 0.0250934 -0.0141402 -0.01053 0.0193366 -0.0393988 0.0160918 -0.0163589 -0.042532
internal_weight=0 80 115 69 101 85 54 46 36 41 39 30 24 24
internal_count=195 80 115 69 101 85 54 46 36 41 39 30 24 24
is_linear=0
shrinkage=0.05


Tree=10
num_leaves=15
num_cat=0
split_feature=5 5 11 12 5 15 1 2 0 0 9 1 15 0
split_gain=34.4927 9.1626 3.53357 2.89154 2.85134 2.4901 1.5328 0.952838 0.586289 0.571733 0.437353 0.401967 0.231312 0.123181
threshold=43573.713200000006 87370.975250000018 1.0000000180025095e-35 62.500000000000007 7340.3948000000009 18783250.000000004 2000.5000000000002 1.0000000180025095e-35 587.50000000000011 1063.5000000000002 24.000000000000004 2009.5000000000002 29706283.33333334 846.50000000000011
decision_type=2 2 2 2 2 2 2 2 2 2 2 2 2 2
left_child=2 3 4 5 7 -2 -6 -1 10 12 11 -8 13 -7
right_child=1 -3 -4 -5 6 9 8 -9 -10 -11 -12 -13 -14 -15
leaf_value=-0.023111706857497871 -0.0066643702448345721 0.06759290600364859 0.0060016958126133044 0.039700287236617164 -0.027333656874926466 0.008808118514716622 -0.0019382672553712667 -0.040876181977283627 -0.00047278116372498601 0.028902958062562073 -0.019003527415426158 -0.015789176523685455 0.022088989168405532 0.016189433820545673
leaf_weight=13.000000000000002 11.999999999999998 10.999999999999998 13.999999999999998 12.999999999999998 19 10.000000000000002 11.000000000000002 18 10.999999999999998 10.999999999999998 19 9.9999999999999982 9.9999999999999982 12.999999999999998
leaf_count=13 12 11 14 13 19 10 11 18 11 11 19 10 10 13
internal_value=0 0.0252127 -0.0175393 0.0184565 -0.0208024 0.0135249 -0.0152117 -0.0334266 -0.0106957 0.0190311 -0.013507 -0.00853394 0.0157404 0.0129802
internal_weight=0 80 115 69 101 56 70 31 51 44 40 21 33 23
internal_count=195 80 115 69 101 56 70 31 51 44 40 21 33 23
is_linear=0
shrinkage=0.05


Tree=11
num_leaves=15
num_cat=0
split_feature=5 5 15 5 1 5 15 5 15 15 3 5 5 10
split_gain=31.161 8.8202 3.03397 3.8744 2.93536 1.45037 1.40797 0.715229 0.677776 0.671445 0.412238 0.26677 0.196224 0.171037
threshold=40796.318750000006 84745.715400000016 1.0000000180025095e-35 11127.491650000002 2003.5000000000002 68652.521550000019 15777500.000000002 33456.825500000006 18023800.000000004 27606400.000000004 1.5000000000000002 53802.777500000004 4345.9025000000011 131.50000000000003
decision_type=2 2 2 2 2 2 2 2 2 2 2 2 2 2
left_child=2 4 -1 8 -2 10 -5 9 12 -8 11 -6 -4 -12
right_child=1 -3 3 6 5 -7 7 -9 -10 -11 13 -13 -14 -15
leaf_value=0.0049147616212184622 -0.0071333613207874196 0.058815067580768043 -0.04429406479001044 -0.02516565995497836 0.0043632960878312579 0.032319642712964732 -0.021701913613539472 -0.00013289566159073731 -0.023451261757873001 -0.0061767184734344491 0.024941997975110999 0.015225813005907606 -0.035123679893357414 0.015694371238350869
leaf_weight=12.999999999999998 11.999999999999998 13.999999999999998 10.000000000000002 18 10.000000000000002 17 13.000000000000002 15.999999999999998 9.9999999999999982 14.999999999999998 10.000000000000002 12.999999999999998 13.999999999999998 9.9999999999999982
leaf_count=13 12 14 10 18 10 17 13 16 10 15 10 13 14 10
internal_value=0 0.0225021 -0.0177539 -0.0208236 0.0154412 0.0199561 -0.0133852 -0.00856595 -0.0343878 -0.0133848 0.0150682 0.010503 -0.0389447 0.0203182
internal_weight=0 86 109 96 72 60 62 44 34 28 43 23 24 20
internal_count=195 86 109 96 72 60 62 44 34 28 43 23 24 20
is_linear=0
shrinkage=0.05


Tree=12
num_leaves=16
num_cat=0
split_feature=5 5 12 5 1 2 15 5 0 16 10 16 16 1 0
split_gain=28.1368 7.56196 2.99094 3.35158 2.44813 1.76679 1.07851 0.849379 0.329003 0.302592 0.169206 0.148986 0.102076 0.0436849 0.0111016
threshold=43573.713200000006 87370.975250000018 1.0000000180025095e-35 12522.119600000002 2004.5000000000002 1.0000000180025095e-35 14597000.000000002 35428.485550000012 1063.5000000000002 87350.000000000015 47.500000000000007 209382.91666666672 164390.00000000003 2013.5000000000002 79.000000000000014
decision_type=2 2 2 2 2 2 2 2 2 2 2 2 2 2 2
left_child=2 4 3 9 -2 -6 -5 10 11 -1 -8 12 -7 -11 -4
right_child=1 -3 14 6 5 8 7 -9 -10 13 -12 -13 -14 -15 -16
leaf_value=-0.025466474145650866 -0.001235746442495535 0.061272507093169476 0.0029109256714582431 -0.025583657358462616 0.037659058261376166 0.01487328780349343 -0.017223149206903245 -0.00062942386016641796 0.023901697620749476 -0.037286086769943876 -0.009111288823187352 0.018775850832462311 0.0077291856834199287 -0.032923816516995434 0.00055490892380476002
leaf_weight=12.999999999999998 14.999999999999998 10.999999999999998 10.000000000000002 11.999999999999998 12.999999999999998 10.000000000000005 18.000000000000004 19 10.999999999999998 11.000000000000002 9.9999999999999982 9.9999999999999982 9.9999999999999982 11.999999999999998 9.9999999999999982
leaf_count=13 15 11 10 12 13 10 18 19 11 11 10 10 10 12 10
internal_value=0 0.0227716 -0.0158411 -0.0195409 0.0166338 0.0215976 -0.012205 -0.00878912 0.0165049 -0.0315638 -0.0143261 0.0137928 0.0113012 -0.0350101 0.00173292
internal_weight=0 80 115 95 69 54 59 47 41 36 28 30 20 23 20
internal_count=195 80 115 95 69 54 59 47 41 36 28 30 20 23 20
is_linear=0
shrinkage=0.05


Tree=13
num_leaves=16
num_cat=0
split_feature=5 5 1 15 15 5 0 15 0 3 5 0 16 10 1
split_gain=25.4434 7.2379 2.61545 2.55723 3.30727 1.60259 1.46054 1.1843 0.626172 0.359166 0.31153 0.197679 0.138249 0.114865 0.0737666
threshold=40796.318750000006 87370.975250000018 2003.5000000000002 1.0000000180025095e-35 13035833.333333334 71008.669200000018 534.50000000000011 27606400.000000004 301.00000000000006 1.5000000000000002 53802.777500000004 171.00000000000003 308885.00000000006 131.50000000000003 2006.5000000000002
decision_type=2 2 2 2 2 2 2 2 2 2 2 2 2 2 2
left_child=3 2 -2 -1 11 9 7 8 -6 10 -4 -5 -9 -11 -10
right_child=1 -3 5 4 6 -7 -8 12 14 13 -12 -13 -14 -15 -16
leaf_value=0.0047689504921436315 -0.0066159828532060304 0.058208881792697044 0.003641252820380031 -0.039128242184718443 -0.030344429040948553 0.033772256714291869 0.0011161440658075403 -0.0041992953357597182 -0.019866809397935864 0.022832389717752279 0.01489109602989629 -0.030228900107053609 -0.012159467637538911 0.01575879907856385 -0.013793646637350322
leaf_weight=12.999999999999998 11.999999999999998 10.999999999999998 10.000000000000002 12.000000000000002 14.999999999999998 13.999999999999998 13.999999999999998 12.000000000000002 10.000000000000002 11.000000000000002 15.999999999999998 12.999999999999998 9.9999999999999982 11.999999999999998 9.9999999999999982
leaf_count=13 12 11 10 12 15 14 14 12 10 11 16 13 10 12 10
internal_value=0 0.0203331 0.014778 -0.0160427 -0.0188609 0.0188531 -0.013354 -0.016908 -0.022622 0.0145904 0.0105642 -0.0345006 -0.00781756 0.0191418 -0.0168302
internal_weight=0 86 75 109 96 63 71 57 35 49 26 25 22 23 20
internal_count=195 86 75 109 96 63 71 57 35 49 26 25 22 23 20
is_linear=0
shrinkage=0.05


Tree=14
num_leaves=16
num_cat=0
split_feature=5 5 1 15 15 5 0 15 0 3 5 15 0 10 1
split_gain=22.9627 6.5322 2.36044 2.3079 2.98481 1.44634 1.31814 1.06883 0.565121 0.324147 0.281556 0.1837 0.13204 0.103665 0.0665744
threshold=40796.318750000006 87370.975250000018 2003.5000000000002 1.0000000180025095e-35 13035833.333333334 71008.669200000018 534.50000000000011 27606400.000000004 301.00000000000006 1.5000000000000002 55698.742150000005 9654000.0000000019 262.50000000000006 131.50000000000003 2006.5000000000002
decision_type=2 2 2 2 2 2 2 2 2 2 2 2 2 2 2
left_child=3 2 -2 -1 11 9 7 8 -6 10 -4 -5 -9 -11 -10
right_child=1 -3 5 4 6 -7 -8 12 14 13 -12 -13 -14 -15 -16
leaf_value=0.0045305023399683153 -0.0062851835798937829 0.055298439819704406 0.0039600647795437404 -0.038024840652942649 -0.028827207610011105 0.032083643147987978 0.0010603369517152065 -0.0031833951175212851 -0.01887346878647804 0.021690770204771642 0.014491723192234835 -0.029276031404733661 -0.010962746649359664 0.014970859357466303 -0.013103964272886515
leaf_weight=12.999999999999998 11.999999999999998 10.999999999999998 11.000000000000002 10.000000000000002 14.999999999999998 13.999999999999998 13.999999999999998 10.000000000000002 10.000000000000002 11.000000000000002 14.999999999999998 14.999999999999998 11.999999999999998 11.999999999999998 9.9999999999999982
leaf_count=13 12 11 11 10 15 14 14 10 10 11 15 15 12 12 10
internal_value=0 0.0193165 0.0140391 -0.0152405 -0.0179178 0.0179104 -0.0126863 -0.0160626 -0.0214909 0.0138609 0.010036 -0.0327756 -0.00742668 0.0181847 -0.0159887
internal_weight=0 86 75 109 96 63 71 57 35 49 26 25 22 23 20
internal_count=195 86 75 109 96 63 71 57 35 49 26 25 22 23 20
is_linear=0
shrinkage=0.05


Tree=15
num_leaves=14
num_cat=0
split_feature=5 5 11 5 12 15 1 2 5 5 10 1 0
split_gain=20.753 5.54766 2.59054 2.09441 1.89427 1.75652 1.00783 0.445203 0.370587 0.34047 0.322069 0.389508 0.128588
threshold=43573.713200000006 87370.975250000018 1.0000000180025095e-35 7340.3948000000009 62.500000000000007 18783250.000000004 2000.5000000000002 1.0000000180025095e-35 37278.234150000004 57795.462650000009 17.500000000000004 2013.5000000000002 1063.5000000000002
decision_type=2 2 2 2 2 2 2 2 2 2 2 2 2
left_child=2 4 3 7 5 -2 -5 -1 10 -7 11 -8 -11
right_child=1 -3 -4 6 -6 9 8 -9 -10 12 -12 -13 -14
leaf_value=-0.020167476454606419 -0.0066485918621765451 0.05253351760858839 0.006551696566332664 -0.021436442520567464 0.031494076922535898 0.0091141534969210632 -0.0024994539425653565 -0.032310364022850993 0.00018237532878463919 0.015531721404370136 -0.017033703089691699 -0.014574441296810453 0.02246963293714957
leaf_weight=13.000000000000002 11.999999999999998 10.999999999999998 13.999999999999998 19 12.999999999999998 15.999999999999998 17.000000000000004 18 10.999999999999998 17.000000000000004 11.999999999999998 10.999999999999998 10.999999999999998
leaf_count=13 12 11 14 19 13 16 17 18 11 17 12 11 11
internal_value=0 0.0195568 -0.0136047 -0.0163987 0.0142996 0.010308 -0.0116071 -0.0272182 -0.00794525 0.0149325 -0.0101804 -0.0072432 0.0182573
internal_weight=0 80 115 101 69 56 70 31 51 44 40 28 28
internal_count=195 80 115 101 69 56 70 31 51 44 40 28 28
is_linear=0
shrinkage=0.05


Tree=16
num_leaves=14
num_cat=0
split_feature=5 5 11 5 1 2 1 0 5 9 0 16 0
split_gain=18.7296 5.00676 2.33796 1.89021 1.77304 1.30823 0.909564 0.436404 0.334455 0.297819 0.334771 0.246469 0.129415
threshold=43573.713200000006 87370.975250000018 1.0000000180025095e-35 7340.3948000000009 2004.5000000000002 1.0000000180025095e-35 2000.5000000000002 43.000000000000007 37278.234150000004 24.000000000000004 228.00000000000003 195121.42857142861 962.50000000000011
decision_type=2 2 2 2 2 2 2 2 2 2 2 2 2
left_child=2 4 3 7 -2 -6 -5 -1 9 10 -8 12 -7
right_child=1 -3 -4 6 5 11 8 -9 -10 -11 -12 -13 -14
leaf_value=-0.020113214664161203 -0.0016228444812198481 0.049906842038035394 0.0062241124953808531 -0.020364620242463917 0.031629791726859723 0.0072994315165228058 0.0010535418987274168 -0.031984275082747142 0.00017325642772696235 -0.014207080695287963 -0.011586744685403327 0.01881031697349889 0.014227453862818387
leaf_weight=16.000000000000004 14.999999999999998 10.999999999999998 13.999999999999998 19 12.999999999999998 14.000000000000002 10.000000000000002 14.999999999999998 10.999999999999998 19 10.999999999999998 13.999999999999998 12.999999999999998
leaf_count=16 15 11 14 19 13 14 10 15 11 19 11 14 13
internal_value=0 0.0185789 -0.0129245 -0.0155787 0.0135846 0.0178089 -0.0110268 -0.0258573 -0.00754799 -0.00967133 -0.00556756 0.0134267 0.0106351
internal_weight=0 80 115 101 69 54 70 31 51 40 21 41 27
internal_count=195 80 115 101 69 54 70 31 51 40 21 41 27
is_linear=0
shrinkage=0.05


Tree=17
num_leaves=16
num_cat=0
split_feature=5 5 15 15 15 1 0 15 0 3 10 6 10 5 1
split_gain=16.9144 4.93132 2.01721 2.42446 1.61726 1.4543 1.05306 0.883229 0.496562 0.228427 0.180861 0.149427 0.138507 0.108486 0.0532242
threshold=40796.318750000006 74629.408550000007 1.0000000180025095e-35 13035833.333333334 27606400.000000004 2004.5000000000002 534.50000000000011 27606400.000000004 301.00000000000006 1.5000000000000002 109.00000000000001 1.0000000180025095e-35 5.0000000000000009 55698.742150000005 2006.5000000000002
decision_type=2 2 2 2 2 2 2 2 2 2 2 2 2 2 2
left_child=2 5 -1 11 -3 -2 7 8 -5 13 -11 -4 -9 -7 -10
right_child=1 4 3 6 -6 9 -8 12 14 10 -12 -13 -14 -15 -16
leaf_value=0.0054037428819216221 -0.0048679573195321221 0.021277123591862613 -0.025817738175392149 -0.025697571883598964 0.048022687377837991 0.0060259816536563432 0.0014185178101927575 -0.0020684425803748035 -0.016242363750934598 0.022024799231439823 0.013220725900360518 -0.033708315938711167 -0.010003042144870217 0.012749256839354834 -0.011083670584484936
leaf_weight=12.999999999999998 13.999999999999998 10.000000000000002 15.000000000000002 14.999999999999998 12.999999999999998 10.000000000000002 13.999999999999998 11.000000000000002 10.000000000000002 10.000000000000002 13.999999999999998 9.9999999999999982 10.999999999999998 14.999999999999998 9.9999999999999982
leaf_count=13 14 10 15 15 13 10 14 11 10 10 14 10 11 15 10
internal_value=0 0.0165785 -0.0130803 -0.0155833 0.0363942 0.00934421 -0.0108683 -0.0138861 -0.0188207 0.0134048 0.0168891 -0.028974 -0.00603574 0.0100599 -0.013663
internal_weight=0 86 109 96 23 63 71 57 35 49 24 25 22 25 20
internal_count=195 86 109 96 23 63 71 57 35 49 24 25 22 25 20
is_linear=0
shrinkage=0.05


Tree=18
num_leaves=14
num_cat=0
split_feature=5 5 11 5 1 2 1 0 0 9 1 16 0
split_gain=15.2906 4.16935 2.01742 1.63109 1.45773 1.06296 0.752716 0.369701 0.282811 0.293011 0.294282 0.213554 0.108027
threshold=43573.713200000006 87370.975250000018 1.0000000180025095e-35 7340.3948000000009 2004.5000000000002 1.0000000180025095e-35 2000.5000000000002 43.000000000000007 587.50000000000011 24.000000000000004 2009.5000000000002 195121.42857142861 962.50000000000011
decision_type=2 2 2 2 2 2 2 2 2 2 2 2 2
left_child=2 4 3 7 -2 -6 -5 -1 9 10 -8 12 -7
right_child=1 -3 -4 6 5 11 8 -9 -10 -11 -12 -13 -14
leaf_value=-0.018404613342136143 -0.0015597551191846529 0.045375076109882111 0.0061097431595304183 -0.018409606020309426 0.028517701991726287 0.0064633951855025103 0.0010111429135907777 -0.029330845127503075 0.0003498433284800161 -0.013201828832787119 -0.010840133968740702 0.017120763872350966 0.012793073817514456
leaf_weight=16.000000000000004 14.999999999999998 10.999999999999998 13.999999999999998 19 12.999999999999998 14.000000000000002 11.000000000000002 14.999999999999998 10.999999999999998 19 9.9999999999999982 13.999999999999998 12.999999999999998
leaf_count=16 15 11 14 19 13 14 11 15 11 19 10 14 13
internal_value=0 0.0167868 -0.0116778 -0.0141434 0.0122293 0.0160596 -0.00991497 -0.0236915 -0.0067503 -0.00870284 -0.00463232 0.0121095 0.00951102
internal_weight=0 80 115 101 69 54 70 31 51 40 21 41 27
internal_count=195 80 115 101 69 54 70 31 51 40 21 41 27
is_linear=0
shrinkage=0.05


Tree=19
num_leaves=16
num_cat=0
split_feature=5 5 15 15 15 1 0 15 0 5 16 10 0 6 1
split_gain=13.8006 4.09186 1.81047 2.07884 1.35694 1.19413 0.889392 0.765364 0.437323 0.203739 0.282902 0.207459 0.141799 0.12852 0.0454283
threshold=40796.318750000006 74629.408550000007 1.0000000180025095e-35 13035833.333333334 27606400.000000004 2004.5000000000002 534.50000000000011 27606400.000000004 301.00000000000006 57795.462650000009 184895.83333333334 65.500000000000014 262.50000000000006 1.0000000180025095e-35 2006.5000000000002
decision_type=2 2 2 2 2 2 2 2 2 2 2 2 2 2 2
left_child=2 5 -1 13 -3 -2 7 8 -5 11 -11 -7 -9 -4 -10
right_child=1 4 3 6 -6 9 -8 12 14 10 -12 -13 -14 -15 -16
leaf_value=0.0056961406881992638 -0.0044932136844311448 0.019178275987505905 -0.023658797517418857 -0.023640964329242706 0.043676979438616682 0.013167229780395112 0.0014713523593465133 -0.00088864803314208946 -0.014730011373758312 0.01062901591022427 0.02181515768170357 0.0042080539899567761 -0.0089503639610484242 -0.030976574420928955 -0.0099640774319414063
leaf_weight=12.999999999999998 13.999999999999998 10.000000000000002 15.000000000000002 14.999999999999998 12.999999999999998 14.000000000000002 13.999999999999998 10.000000000000002 10.000000000000002 13.000000000000002 9.9999999999999982 11.999999999999998 11.999999999999998 9.9999999999999982 9.9999999999999982
leaf_count=13 14 10 15 15 13 14 14 10 10 13 10 12 12 10 10
internal_value=0 0.0149749 -0.0118151 -0.0141864 0.0330254 0.00838511 -0.00982038 -0.0125938 -0.0171873 0.0120646 0.0154926 0.00903223 -0.00528595 -0.0265859 -0.012347
internal_weight=0 86 109 96 23 63 71 57 35 49 23 26 22 25 20
internal_count=195 86 109 96 23 63 71 57 35 49 23 26 22 25 20
is_linear=0
shrinkage=0.05


Tree=20
num_leaves=14
num_cat=0
split_feature=5 5 11 5 1 2 1 0 5 10 1 0 10
split_gain=12.4684 3.47458 1.74537 1.41919 1.19638 0.867669 0.624886 0.315691 0.233015 0.265826 0.297687 0.182709 0.0921947
threshold=43573.713200000006 87370.975250000018 1.0000000180025095e-35 7340.3948000000009 2004.5000000000002 1.0000000180025095e-35 2000.5000000000002 43.000000000000007 37278.234150000004 17.500000000000004 2013.5000000000002 1063.5000000000002 292.50000000000006
decision_type=2 2 2 2 2 2 2 2 2 2 2 2 2
left_child=2 4 3 7 -2 -6 -5 -1 9 10 -8 12 -7
right_child=1 -3 -4 6 5 11 8 -9 -10 -11 -12 -13 -14
leaf_value=-0.016859354730695483 -0.0014938215538859369 0.04125654836269943 0.0059996145112173899 -0.01663410550865688 0.025723825796292378 0.0066150204485489255 -0.00096770278725992216 -0.026955983638763427 0.00043396723499013618 -0.014009435335174203 -0.011523911431008442 0.016411480675874789 0.012272940979649623
leaf_weight=16.000000000000004 14.999999999999998 10.999999999999998 13.999999999999998 19 12.999999999999998 18.000000000000004 17.000000000000004 14.999999999999998 10.999999999999998 11.999999999999998 10.999999999999998 10.999999999999998 11.999999999999998
leaf_count=16 15 11 14 19 13 18 17 15 11 12 11 11 12
internal_value=0 0.0151587 -0.0105452 -0.0128385 0.0109982 0.0144682 -0.00889431 -0.0217448 -0.00601085 -0.00778318 -0.00511478 0.0108993 0.00887819
internal_weight=0 80 115 101 69 54 70 31 51 40 28 41 30
internal_count=195 80 115 101 69 54 70 31 51 40 28 41 30
is_linear=0
shrinkage=0.05


Tree=21
num_leaves=17
num_cat=0
split_feature=5 5 12 0 15 3 5 15 0 10 0 5 10 10 10 0
split_gain=11.2527 3.13581 1.64696 1.54539 1.09171 1.05149 0.755682 0.345337 0.307898 0.169541 0.222849 0.149636 0.0677458 0.061494 0.0484919 0.0424257
threshold=43573.713200000006 87370.975250000018 1.0000000180025095e-35 355.50000000000006 18783250.000000004 1.0000000180025095e-35 71008.669200000018 14597000.000000002 534.50000000000011 1.0000000180025095e-35 98.000000000000014 57795.462650000009 267.00000000000006 47.500000000000007 65.500000000000014 79.000000000000014
decision_type=2 2 2 2 2 2 2 2 2 2 2 2 2 2 2 2
left_child=2 4 3 5 -2 9 11 -5 13 10 -1 14 -13 -9 -6 -4
right_child=1 -3 15 7 6 -7 -8 8 -10 -11 -12 12 -14 -15 -16 -17
leaf_value=-0.032393117547035208 -0.0014847720538576446 0.039193720726126979 0.0053259176015853869 -0.015024173778947443 0.0099332881905138462 -0.0074941168897427052 0.024828647822141649 -0.010106089385226367 0.0013423056607799872 -0.019328414750370115 -0.022080030766400426 0.010407531047239897 0.015979796648025513 -0.0052283512777648866 0.0050092702172696594 0.00072017734870314602
leaf_weight=10.000000000000002 14.999999999999998 10.999999999999998 10.000000000000002 9.9999999999999982 10.000000000000002 12.999999999999998 11.999999999999998 14.000000000000002 13.999999999999998 10.999999999999998 10.999999999999998 10.000000000000002 11.999999999999998 11.999999999999998 9.9999999999999982 9.9999999999999982
leaf_count=10 15 11 10 10 10 13 12 14 14 11 11 10 12 12 10 10
internal_value=0 0.0144008 -0.0100179 -0.0127634 0.0104483 -0.0194855 0.013763 -0.0067135 -0.00463583 -0.024357 -0.026991 0.0106014 0.0134469 -0.00785483 0.00747128 0.00302305
internal_weight=0 80 115 95 69 45 54 50 40 32 21 42 22 26 20 20
internal_count=195 80 115 95 69 45 54 50 40 32 21 42 22 26 20 20
is_linear=0
shrinkage=0.05


Tree=22
num_leaves=16
num_cat=0
split_feature=5 5 15 15 15 1 0 15 0 3 10 0 15 10 1
split_gain=10.1828 3.08699 1.5013 1.64625 1.08034 0.942673 0.687169 0.631848 0.357923 0.167828 0.141933 0.134607 0.100254 0.0719464 0.0391715
threshold=40796.318750000006 74629.408550000007 1.0000000180025095e-35 13035833.333333334 27606400.000000004 2004.5000000000002 534.50000000000011 27606400.000000004 301.00000000000006 1.5000000000000002 109.00000000000001 262.50000000000006 9654000.0000000019 109.00000000000001 2006.5000000000002
decision_type=2 2 2 2 2 2 2 2 2 2 2 2 2 2 2
left_child=2 5 -1 12 -3 -2 7 8 -5 13 -11 -9 -4 -7 -10
right_child=1 4 3 6 -6 9 -8 11 14 10 -12 -13 -14 -15 -16
leaf_value=0.0057971054544815655 -0.0043028555743928462 0.016185922771692271 -0.02722045436501502 -0.02087299985190233 0.038045574538409711 0.0042565134633332476 0.0015023017102586372 6.3372999429702737e-05 -0.012868436165153978 0.017944810278713696 0.010145558257188117 -0.0077912437108655771 -0.020757280699908735 0.0097316996504863106 -0.0084428547788411388
leaf_weight=12.999999999999998 13.999999999999998 10.000000000000002 10.000000000000002 14.999999999999998 12.999999999999998 10.000000000000002 13.999999999999998 10.000000000000002 10.000000000000002 10.000000000000002 13.999999999999998 11.999999999999998 14.999999999999998 14.999999999999998 9.9999999999999982
leaf_count=13 14 10 10 15 13 10 14 10 10 10 14 12 15 15 10
internal_value=0 0.0128632 -0.010149 -0.0123083 0.0285414 0.00713947 -0.00842305 -0.0108609 -0.0150345 0.0104087 0.0133952 -0.00422096 -0.0233426 0.00754163 -0.0106556
internal_weight=0 86 109 96 23 63 71 57 35 49 24 22 25 25 20
internal_count=195 86 109 96 23 63 71 57 35 49 24 22 25 25 20
is_linear=0
shrinkage=0.05


Tree=23
num_leaves=14
num_cat=0
split_feature=5 5 15 15 15 1 5 2 5 10 10 5 5
split_gain=9.22713 3.03409 1.68515 1.65259 1.16848 0.756805 0.472826 0.285237 0.393796 0.265879 0.215625 0.329993 0.0835032
threshold=64954.786500000009 36400.462500000016 33669466.666666672 1.0000000180025095e-35 19020916.666666668 2006.5000000000002 18590.973700000002 1.0000000180025095e-35 27190.370700000003 392.50000000000006 65.500000000000014 49833.25725000001 4345.9025000000011
decision_type=2 2 2 2 2 2 2 2 2 2 2 2 2
left_child=1 3 9 -1 6 -3 12 -6 -9 -2 -7 -12 -5
right_child=2 5 -4 4 7 10 -8 8 -10 -11 11 -13 -14
leaf_value=0.0055072498722718317 0.010957226355094461 -0.0052000416602057068 0.037606346110502883 -0.026573784202337254 0.00019338741898536685 0.011151775977957775 -0.012168507295427844 -0.015896655619144436 -0.0035897486189451927 0.021350172413513065 -0.0032439066329970944 0.0082027721492683187 -0.020929045739926794
leaf_weight=12.999999999999998 16.000000000000004 19 11.999999999999998 10.000000000000002 9.9999999999999982 17 15.999999999999998 13.000000000000002 12.999999999999998 9.9999999999999982 10.000000000000002 17 19
leaf_count=13 16 19 12 10 10 17 16 13 13 10 10 17 19
internal_value=0 -0.00535091 0.0221077 -0.0110413 -0.0136972 0.00313948 -0.0190686 -0.00698304 -0.0097432 0.0149545 0.00674064 0.00396326 -0.0228755
internal_weight=0 157 38 94 81 63 45 36 26 26 44 27 29
internal_count=195 157 38 94 81 63 45 36 26 26 44 27 29
is_linear=0
shrinkage=0.05


Tree=24
num_leaves=14
num_cat=0
split_feature=5 5 15 15 15 1 5 2 5 10 10 5 15
split_gain=8.32748 2.73827 1.52084 1.49146 1.05455 0.683017 0.426725 0.257426 0.355401 0.239956 0.194601 0.297818 0.0763824
threshold=64954.786500000009 36400.462500000016 33669466.666666672 1.0000000180025095e-35 19020916.666666668 2006.5000000000002 18590.973700000002 1.0000000180025095e-35 27190.370700000003 392.50000000000006 65.500000000000014 49833.25725000001 10362000.000000002
decision_type=2 2 2 2 2 2 2 2 2 2 2 2 2
left_child=1 3 9 -1 6 -3 12 -6 -9 -2 -7 -12 -5
right_child=2 5 -4 4 7 10 -8 8 -10 -11 11 -13 -14
leaf_value=0.0052318871880953129 0.010409365047235039 -0.0049400397478357744 0.035726029301683108 -0.02478595984478791 0.00018371805548667909 0.01059418744955431 -0.011560081777861343 -0.015101822924155451 -0.0034102611548195668 0.020282664112746717 -0.0030817113956436507 0.0077926335418049032 -0.019575806597576424
leaf_weight=12.999999999999998 16.000000000000004 19 11.999999999999998 12.000000000000002 9.9999999999999982 17 15.999999999999998 13.000000000000002 12.999999999999998 9.9999999999999982 10.000000000000002 17 17
leaf_count=13 16 19 12 12 10 17 16 13 13 10 10 17 17
internal_value=0 -0.00508337 0.0210023 -0.0104892 -0.0130124 0.00298251 -0.0181151 -0.00663389 -0.00925604 0.0142068 0.00640361 0.0037651 -0.0217317
internal_weight=0 157 38 94 81 63 45 36 26 26 44 27 29
internal_count=195 157 38 94 81 63 45 36 26 26 44 27 29
is_linear=0
shrinkage=0.05


Tree=25
num_leaves=15
num_cat=0
split_feature=5 5 15 15 15 1 0 2 5 10 10 5 16 15
split_gain=7.51555 2.47128 1.37256 1.34605 0.951735 0.617413 0.386266 0.232327 0.320749 0.21656 0.153848 0.268781 0.135614 0.047184
threshold=64954.786500000009 36400.462500000016 33669466.666666672 1.0000000180025095e-35 19020916.666666668 2004.5000000000002 206.00000000000003 1.0000000180025095e-35 27190.370700000003 392.50000000000006 65.500000000000014 49833.25725000001 161475.00000000003 10362000.000000002
decision_type=2 2 2 2 2 2 2 2 2 2 2 2 2 2
left_child=1 3 9 -1 6 -3 13 -6 -9 -2 -7 -12 -8 -5
right_child=2 5 -4 4 7 10 12 8 -10 -11 11 -13 -14 -15
leaf_value=0.0049702928329889593 0.0098888968976098088 -0.0049929342957006559 0.033939728016654652 -0.024165775179862969 0.00017453156411647796 0.0095445126476180232 -0.016088171379471362 -0.014346731855319093 -0.0032397481415850611 0.01926853083074093 -0.0029276257753372181 0.0074030017918523625 -0.0080429959855973718 -0.019668918814776198
leaf_weight=12.999999999999998 16.000000000000004 18 11.999999999999998 10.000000000000002 9.9999999999999982 18 11.000000000000002 13.000000000000002 12.999999999999998 9.9999999999999982 10.000000000000002 17 9.9999999999999982 13.999999999999998
leaf_count=13 16 18 12 10 10 18 11 13 13 10 10 17 10 14
internal_value=0 -0.0048292 0.0199522 -0.00996476 -0.0123617 0.00283338 -0.0172094 -0.00630219 -0.00879324 0.0134964 0.00596391 0.00357684 -0.0122571 -0.0215426
internal_weight=0 157 38 94 81 63 45 36 26 26 45 27 21 24
internal_count=195 157 38 94 81 63 45 36 26 26 45 27 21 24
is_linear=0
shrinkage=0.05


Tree=26
num_leaves=14
num_cat=0
split_feature=5 5 15 15 15 1 10 16 16 10 16 3 6
split_gain=6.78279 2.23462 1.23874 1.17711 0.789725 0.62919 0.321368 0.344423 0.19719 0.195445 0.165016 0.104773 0.0867733
threshold=64954.786500000009 37278.234150000004 33669466.666666672 1.0000000180025095e-35 13035833.333333334 2006.5000000000002 17.500000000000004 243071.66666666672 178382.14285714287 392.50000000000006 164390.00000000003 1.5000000000000002 1.0000000180025095e-35
decision_type=2 2 2 2 2 2 2 2 2 2 2 2 2
left_child=1 3 9 -1 12 -3 7 8 -6 -2 -7 -12 -5
right_child=2 5 -4 4 6 10 -8 -9 -10 -11 11 -13 -14
leaf_value=0.004721777914808347 0.0093944518681382747 -0.0048243456972866423 0.032242741373678045 -0.016570594440314116 -0.0051026998087763779 0.011610104042020711 -0.013755282596684994 0.0021798842959105968 -0.013184069698819748 0.018305104598402979 0.0010614762004339492 0.0069521839859791939 -0.022668836116790773
leaf_weight=12.999999999999998 16.000000000000004 18 11.999999999999998 14.000000000000002 18.000000000000004 10.999999999999998 19 9.9999999999999982 12.999999999999998 9.9999999999999982 13.000000000000002 18 9.9999999999999982
leaf_count=13 16 18 12 14 18 11 19 10 13 10 13 18 10
internal_value=0 -0.00458774 0.0189546 -0.00927924 -0.0114461 0.00299686 -0.00837988 -0.00588885 -0.00849166 0.0128216 0.0063488 0.00448189 -0.0191115
internal_weight=0 157 38 97 84 60 60 41 31 26 42 31 24
internal_count=195 157 38 97 84 60 60 41 31 26 42 31 24
is_linear=0
shrinkage=0.05


Tree=27
num_leaves=14
num_cat=0
split_feature=5 5 15 15 15 1 5 2 5 16 10 0 6
split_gain=6.12147 2.01675 1.11796 1.06234 0.71565 0.567844 0.461732 0.206975 0.297571 0.181209 0.158591 0.18545 0.0654446
threshold=64954.786500000009 37278.234150000004 33669466.666666672 1.0000000180025095e-35 19020916.666666668 2006.5000000000002 18590.973700000002 1.0000000180025095e-35 24797.631500000003 193138.84615384619 65.500000000000014 731.50000000000011 26.500000000000004
decision_type=2 2 2 2 2 2 2 2 2 2 2 2 2
left_child=1 3 9 -1 6 -3 12 -6 -9 -2 -7 -12 -5
right_child=2 5 -4 4 7 10 -8 8 -10 -11 11 -13 -14
leaf_value=0.0044856891895716008 0.0086059690887729298 -0.0045831284356406994 0.030630603867272538 -0.020696742460131645 0.00056842304766178129 0.0099479812326535473 -0.0088120320321697938 -0.014662021994590754 -0.0036671044857939706 0.017054965347051622 -0.0013099899049848315 0.0072372903674840922 -0.015801508130971344
leaf_weight=12.999999999999998 15.000000000000002 18 11.999999999999998 18.000000000000004 9.9999999999999982 15.999999999999998 19 10.000000000000002 15.999999999999998 10.999999999999998 11.000000000000002 14.999999999999998 10.999999999999998
leaf_count=13 15 18 12 18 10 16 19 10 16 11 11 15 11
internal_value=0 -0.00435835 0.0180069 -0.00881528 -0.0108738 0.00284701 -0.0148706 -0.00554471 -0.00789592 0.0121805 0.00603136 0.00362113 -0.0188399
internal_weight=0 157 38 97 84 60 48 36 26 26 42 26 29
internal_count=195 157 38 97 84 60 48 36 26 26 42 26 29
is_linear=0
shrinkage=0.05


Tree=28
num_leaves=16
num_cat=0
split_feature=5 5 15 15 15 15 0 2 5 10 0 10 16 5 1
split_gain=5.52462 1.8268 1.00896 0.991372 0.740639 0.471507 0.297768 0.186795 0.270372 0.174196 0.165944 0.22822 0.110367 0.0414982 0.0310764
threshold=64954.786500000009 36400.462500000016 33669466.666666672 1.0000000180025095e-35 19020916.666666668 15777500.000000002 206.00000000000003 1.0000000180025095e-35 27190.370700000003 392.50000000000006 731.50000000000011 131.50000000000003 161475.00000000003 4345.9025000000011 2008.5000000000002
decision_type=2 2 2 2 2 2 2 2 2 2 2 2 2 2 2
left_child=1 3 9 -1 6 -3 13 -6 -9 -2 11 -7 -8 -5 -12
right_child=2 5 -4 4 7 10 12 8 -10 -11 14 -13 -14 -15 -16
leaf_value=0.0042614050209522246 0.0083360119722783559 -0.006957135451110927 0.029099073943992457 -0.021153950616717335 0.00054000183939933771 0.0059495543163003654 -0.013997303220358756 -0.012599877239419861 -0.0024023687789359923 0.016748325712978841 0.0094482193654403055 -0.0034472217860942091 -0.0067395449802279475 -0.016936732695571013 0.005895082475217351
leaf_weight=12.999999999999998 16.000000000000004 10.999999999999998 11.999999999999998 10.000000000000002 9.9999999999999982 14.000000000000002 11.000000000000002 13.000000000000002 12.999999999999998 9.9999999999999982 10.000000000000002 11.999999999999998 9.9999999999999982 13.999999999999998 15.999999999999998
leaf_count=13 16 11 12 10 10 14 11 13 13 10 10 12 10 14 16
internal_value=0 -0.00414044 0.0171065 -0.00855586 -0.0106129 0.00244765 -0.0148893 -0.00526748 -0.00750112 0.0115715 0.00443713 0.00161258 -0.0105412 -0.0186939 0.00726167
internal_weight=0 157 38 94 81 63 45 36 26 26 52 26 21 24 26
internal_count=195 157 38 94 81 63 45 36 26 26 52 26 21 24 26
is_linear=0
shrinkage=0.05


Tree=29
num_leaves=16
num_cat=0
split_feature=5 5 3 2 0 1 1 0 5 5 16 5 10 16 16
split_gain=4.99039 1.92563 0.839326 1.4331 0.877724 0.637871 0.435802 0.552582 0.41403 0.271412 0.146256 0.138665 0.268112 0.108982 0.0436192
threshold=39410.318400000011 87370.975250000018 1.5000000000000002 1.0000000180025095e-35 377.00000000000006 2002.5000000000002 2006.5000000000002 79.000000000000014 68652.521550000019 7340.3948000000009 209382.91666666672 51512.473050000008 131.50000000000003 157657.50000000003 164390.00000000003
decision_type=2 2 2 2 2 2 2 2 2 2 2 2 2 2 2
left_child=2 5 4 -4 6 -2 7 -1 11 -8 -10 12 -7 -6 -13
right_child=1 -3 3 -5 13 8 9 -9 10 -11 -12 14 -14 -15 -16
leaf_value=-0.0021322411174575485 -0.0053953432562676351 0.028092889894138686 0.01503233656287193 -0.0088219007258029548 -0.0068096702452749005 0.0074169773036952703 -0.023677656107715193 -0.017647004059769891 0.009360865429043767 -0.012892514616250992 0.017912346087396145 0.0098457806087522328 -0.0038950849883258344 -0.00064634196460247042 0.0058493214206666588
leaf_weight=12.000000000000002 10.999999999999998 10.999999999999998 10.000000000000002 17 13.000000000000002 11.000000000000002 14.000000000000002 10.999999999999998 10.000000000000002 9.9999999999999982 9.9999999999999982 11.000000000000002 9.9999999999999982 15.999999999999998 18
leaf_count=12 11 11 10 17 13 11 14 11 10 10 10 11 10 16 18
internal_value=0 0.0084634 -0.00755954 1.3002e-05 -0.0102498 0.00579766 -0.0144706 -0.00955235 0.00755656 -0.0191838 0.0136366 0.00512455 0.00203028 -0.00340921 0.00736522
internal_weight=0 92 103 27 76 81 47 23 70 24 20 50 21 29 29
internal_count=195 92 103 27 76 81 47 23 70 24 20 50 21 29 29
is_linear=0
shrinkage=0.05


Tree=30
num_leaves=16
num_cat=0
split_feature=5 5 15 15 15 15 0 10 10 0 7 16 10 5 5
split_gain=4.50394 1.49378 0.877983 0.856333 0.618859 0.420969 0.253188 0.18147 0.150937 0.146911 0.132901 0.0951523 0.0887799 0.157476 0.0419845
threshold=64954.786500000009 36400.462500000016 1.0000000180025095e-35 33669466.666666672 19020916.666666668 18783250.000000004 206.00000000000003 17.500000000000004 392.50000000000006 262.50000000000006 325.50000000000006 161475.00000000003 65.500000000000014 49833.25725000001 4345.9025000000011
decision_type=2 2 2 2 2 2 2 2 2 2 2 2 2 2 2
left_child=1 2 -1 8 6 10 14 9 -2 -6 -3 -8 -7 -14 -4
right_child=3 5 4 -5 7 12 11 -9 -10 -11 -12 -13 13 -15 -16
leaf_value=0.0043308453491100905 0.0073347023688256734 -0.0078498904965817913 -0.019558732584118835 0.026493989396840334 0.0025269588455557814 0.0081104341289028516 -0.012775695036080748 -0.0092308642475732745 0.015165285319089889 -0.0056787791739528384 0.00030181497335433964 -0.0060367329046130186 -0.0016872473829425865 0.0061383999082156356 -0.015316876662628993
leaf_weight=12.999999999999998 16.000000000000004 10.000000000000002 10.000000000000002 11.999999999999998 10.000000000000002 14.999999999999998 11.000000000000002 13.999999999999998 9.9999999999999982 11.999999999999998 9.9999999999999982 9.9999999999999982 10.000000000000002 18 13.999999999999998
leaf_count=13 16 10 10 12 10 15 11 14 10 12 10 10 10 18 14
internal_value=0 -0.00373845 -0.00773117 0.0154457 -0.00966705 0.00221896 -0.0135761 -0.00478077 0.0103465 -0.0019489 -0.00377404 -0.00956667 0.0050064 0.00334353 -0.0170843
internal_weight=0 157 94 38 81 63 45 36 26 22 20 21 43 28 24
internal_count=195 157 94 38 81 63 45 36 26 22 20 21 43 28 24
is_linear=0
shrinkage=0.05


Tree=31
num_leaves=15
num_cat=0
split_feature=5 5 3 2 0 1 1 0 12 0 15 0 16 0
split_gain=4.06752 1.62845 0.726708 1.25825 0.77097 0.541761 0.41557 0.49033 0.350713 0.344626 0.258494 0.134531 0.0930484 0.0777341
threshold=39410.318400000011 87370.975250000018 1.5000000000000002 1.0000000180025095e-35 377.00000000000006 2002.5000000000002 2006.5000000000002 79.000000000000014 62.500000000000007 731.50000000000011 11574500.000000002 1063.5000000000002 157657.50000000003 902.00000000000011
decision_type=2 2 2 2 2 2 2 2 2 2 2 2 2 2
left_child=2 5 4 -4 6 -2 7 -1 9 -7 -8 13 -6 -11
right_child=1 -3 3 -5 12 8 10 -9 -10 11 -12 -13 -14 -15
leaf_value=-0.0014915268712987499 -0.0051259172233668248 0.025692203708670359 0.014294660463929172 -0.0080570247352999801 -0.0060590711708825356 -0.0025299770616887449 -0.024026248604059212 -0.01610627682371573 0.013587349969893695 0.0073027658864463626 -0.013500900539968694 0.011548083585997423 -0.00036409570020623505 0.0021624584216624501
leaf_weight=12.000000000000002 10.999999999999998 10.999999999999998 10.000000000000002 17 13.000000000000002 11.999999999999998 10.000000000000002 10.999999999999998 14.999999999999998 19.000000000000004 13.999999999999998 11.999999999999998 15.999999999999998 11.999999999999998
leaf_count=12 11 11 10 17 13 12 10 11 15 19 14 12 16 12
internal_value=0 0.00764086 -0.00682484 0.000221377 -0.0093281 0.00518944 -0.0132839 -0.00848119 0.00681042 0.00496217 -0.0178865 0.007053 -0.00291702 0.00531297
internal_weight=0 92 103 27 76 81 47 23 70 55 24 43 29 31
internal_count=195 92 103 27 76 81 47 23 70 55 24 43 29 31
is_linear=0
shrinkage=0.05


Tree=32
num_leaves=14
num_cat=0
split_feature=5 5 15 11 15 1 5 0 16 10 5 16 5
split_gain=3.69616 1.21368 0.794872 0.745374 0.51193 0.360007 0.268928 0.216518 0.18221 0.111955 0.144279 0.081644 0.0422076
threshold=64954.786500000009 36400.462500000016 1.0000000180025095e-35 9.0000000000000018 19020916.666666668 2006.5000000000002 84745.715400000016 206.00000000000003 199876.25000000003 65.500000000000014 49833.25725000001 161475.00000000003 4345.9025000000011
decision_type=2 2 2 2 2 2 2 2 2 2 2 2 2
left_child=1 2 -1 6 7 -3 -2 12 -6 -7 -11 -9 -4
right_child=3 5 4 -5 8 9 -8 11 -10 10 -12 -13 -14
leaf_value=0.0044912988749834211 0.0052146585425361979 -0.0037685540510880712 -0.018108152151107781 0.024299884090820949 -0.00062285537886268955 0.0076454935157123736 0.015667027998715638 -0.011647720770402385 -0.0077482087047476521 -0.0022998418100178236 0.0052689907688866647 -0.005405410993844271 -0.013855038330491102
leaf_weight=12.999999999999998 16.000000000000004 19 10.000000000000002 11.999999999999998 17 17 9.9999999999999982 11.000000000000002 19 10.000000000000002 17 9.9999999999999982 13.999999999999998
leaf_count=13 16 19 10 12 17 17 10 11 19 10 17 10 14
internal_value=0 -0.00338665 -0.00698562 0.0139922 -0.0088276 0.00198326 0.0092348 -0.0123829 -0.00438346 0.004467 0.00246572 -0.00867519 -0.0156272
internal_weight=0 157 94 38 81 63 26 45 36 44 27 21 24
internal_count=195 157 94 38 81 63 26 45 36 44 27 21 24
is_linear=0
shrinkage=0.05


Tree=33
num_leaves=14
num_cat=0
split_feature=5 5 15 15 15 1 10 8 16 16 15 3 6
split_gain=3.33578 1.09547 0.699106 0.696361 0.408369 0.370636 0.292097 0.289065 0.130641 0.12391 0.0908504 0.0802762 0.0612463
threshold=64954.786500000009 37278.234150000004 33669466.666666672 1.0000000180025095e-35 13035833.333333334 2006.5000000000002 17.500000000000004 31.500000000000004 193138.84615384619 164390.00000000003 23128375.000000004 1.5000000000000002 1.0000000180025095e-35
decision_type=2 2 2 2 2 2 2 2 2 2 2 2 2
left_child=1 3 8 -1 12 -3 7 10 -2 -7 -6 -11 -5
right_child=2 5 -4 4 6 9 -8 -9 -10 11 -12 -13 -14
leaf_value=0.0042667341346924121 0.0056501067926486327 -0.0039097165533651911 0.023275231306130687 -0.011546231926019701 -0.0026204976796482993 0.0092249038756232384 -0.011088591554251157 -0.0081065800040960312 0.012823989411646669 5.4039447926557962e-05 0.003832390047609806 0.0052103185457073979 -0.01666955143213272
leaf_weight=12.999999999999998 15.000000000000002 18 11.999999999999998 14.000000000000002 12.000000000000002 10.999999999999998 19 19 10.999999999999998 13.000000000000002 9.9999999999999982 18 9.9999999999999982
leaf_count=13 15 18 12 14 12 11 19 19 11 13 10 18 10
internal_value=0 -0.00321731 0.0132926 -0.00650212 -0.00816873 0.00209312 -0.00596384 -0.00358895 0.00868521 0.00466577 0.000312633 0.00304801 -0.0136809
internal_weight=0 157 38 97 84 60 60 41 26 42 22 31 24
internal_count=195 157 38 97 84 60 60 41 26 42 22 31 24
is_linear=0
shrinkage=0.05


Tree=34
num_leaves=16
num_cat=0
split_feature=5 5 15 11 15 16 0 5 9 3 0 0 1 6 3
split_gain=3.01054 0.999145 0.669713 0.656546 0.447116 0.339236 0.297579 0.229511 0.136264 0.0912527 0.0882565 0.0874581 0.0805382 0.116178 0.0453145
threshold=64954.786500000009 35428.485550000012 1.0000000180025095e-35 9.0000000000000018 27606400.000000004 120367.50000000001 317.00000000000006 84745.715400000016 223.50000000000003 1.5000000000000002 262.50000000000006 731.50000000000011 2001.5000000000002 1.0000000180025095e-35 1.0000000180025095e-35
decision_type=2 2 2 2 2 2 2 2 2 2 2 2 2 2 2
left_child=1 2 -1 7 6 -3 12 -2 9 11 -6 -7 -4 -14 -8
right_child=3 5 4 -5 10 8 14 -9 -10 -11 -12 -13 13 -15 -16
leaf_value=0.0040533973333927303 0.0044491713866591448 -0.0063883719754151318 -0.010453105845954269 0.022301974644263589 0.0015635688602924341 -0.0026647391263395544 -0.0034590518398379734 0.014105191407725216 0.0074892928690782614 0.0050518198404461145 -0.0050793397799134259 0.0030305570922791961 -0.018707714974880215 -0.011261332109570504 -0.0081095739826560001
leaf_weight=12.999999999999998 16.000000000000004 10.999999999999998 15.999999999999998 11.999999999999998 10.000000000000002 14.000000000000002 11 9.9999999999999982 13.999999999999998 13.999999999999998 9.9999999999999982 12.999999999999998 11.000000000000002 9.9999999999999982 10
leaf_count=13 16 11 16 12 10 14 11 10 14 14 10 13 11 10 10
internal_value=0 -0.00305645 -0.00645337 0.012628 -0.0082045 0.00162719 -0.0104275 0.00816303 0.0032303 0.00177601 -0.00175789 7.74405e-05 -0.0131256 -0.0151618 -0.00567359
internal_weight=0 157 91 38 78 66 58 26 55 41 20 27 37 21 21
internal_count=195 157 91 38 78 66 58 26 55 41 20 27 37 21 21
is_linear=0
shrinkage=0.05


Tree=35
num_leaves=15
num_cat=0
split_feature=5 11 15 10 0 15 5 0 10 8 15 16 0 0
split_gain=2.71701 0.953156 1.32631 0.891832 0.775939 0.604831 0.278538 0.712083 0.217175 0.315141 0.126596 0.117691 0.0857598 0.0678226
threshold=64954.786500000009 1.0000000180025095e-35 13035833.333333334 65.500000000000014 534.50000000000011 33669466.666666672 12522.119600000002 59.000000000000007 17.500000000000004 31.500000000000004 28529750.000000004 192003.75000000003 731.50000000000011 902.00000000000011
decision_type=2 2 2 2 2 2 2 2 2 2 2 2 2 2
left_child=1 2 6 -3 8 11 7 -1 9 10 -4 -2 -6 -14
right_child=5 3 4 -5 12 -7 -8 -9 -10 -11 -12 -13 13 -15
leaf_value=-0.018058115817033326 0.0045966258272528634 0.017817496061325069 -0.0031839378271251908 -0.0028137165037068457 0.00055080813574878609 0.021281757296916719 -0.019070638546889479 -0.0018070687273783342 -0.010391262258053757 -0.008620475395582616 0.0047720588371157648 0.011344615370035172 0.0069137305797388141 0.0019303540199127221
leaf_weight=13.000000000000002 14.000000000000002 10.000000000000002 10.000000000000002 10.999999999999998 17 11.999999999999998 10.999999999999998 13.999999999999998 15.999999999999998 15.999999999999998 9.9999999999999982 11.999999999999998 18.000000000000004 10.999999999999998
leaf_count=13 14 10 10 11 17 12 11 14 16 16 10 12 18 11
internal_value=0 -0.00290363 -0.00443451 0.00701067 -0.00135981 0.0119966 -0.012364 -0.00963165 -0.00554436 -0.00339018 0.000794061 0.00771108 0.00337054 0.00502348
internal_weight=0 157 136 21 98 38 38 27 52 36 20 26 46 29
internal_count=195 157 136 21 98 38 38 27 52 36 20 26 46 29
is_linear=0
shrinkage=0.05


Tree=36
num_leaves=15
num_cat=0
split_feature=5 3 0 11 11 16 1 0 15 15 9 5 0 16
split_gain=2.45211 0.863485 1.0992 0.882926 0.579279 0.576741 0.414721 0.416805 0.324935 0.24254 0.211836 0.196531 0.0777152 0.0575874
threshold=64954.786500000009 1.5000000000000002 377.00000000000006 1.0000000180025095e-35 9.0000000000000018 120367.50000000001 2006.5000000000002 79.000000000000014 21551750.000000004 11574500.000000002 198.00000000000003 84745.715400000016 731.50000000000011 199876.25000000003
decision_type=2 2 2 2 2 2 2 2 2 2 2 2 2 2
left_child=1 2 6 8 11 -4 7 -1 -3 -8 12 -2 13 -7
right_child=4 3 5 -5 -6 10 9 -9 -10 -11 -12 -13 -14 -15
leaf_value=0.00022299618770678831 0.0037660746253095562 -0.0064993520609705757 -0.011154271171174268 0.013320522143372468 0.02048368280132612 -1.3093961528144201e-05 -0.021564306393265717 -0.01325152557004582 0.0030158515970565773 -0.011368932135935341 0.0069855118242020788 0.012701438209041955 0.0026291768774032022 -0.005060009211301804
leaf_weight=12.000000000000002 16.000000000000004 17 10.999999999999998 13.999999999999998 11.999999999999998 13.000000000000002 10.000000000000002 10.999999999999998 19 13.999999999999998 12.999999999999998 9.9999999999999982 12.999999999999998 9.9999999999999982
leaf_count=12 16 17 11 14 12 13 10 11 19 14 13 10 13 10
internal_value=0 -0.00275844 -0.00529323 0.00266599 0.0113967 -0.000807939 -0.0110191 -0.00622134 -0.00147744 -0.015617 0.00151471 0.00720275 -0.000460862 -0.0022074
internal_weight=0 157 107 50 38 60 47 23 36 24 49 26 36 23
internal_count=195 157 107 50 38 60 47 23 36 24 49 26 36 23
is_linear=0
shrinkage=0.05


Tree=37
num_leaves=16
num_cat=0
split_feature=5 3 0 11 5 16 1 0 1 15 5 9 0 0 16
split_gain=2.21303 0.779295 0.992031 0.796841 0.536557 0.520509 0.374286 0.376166 0.355359 0.295103 0.219866 0.191182 0.14662 0.0701973 0.0540665
threshold=64954.786500000009 1.5000000000000002 377.00000000000006 1.0000000180025095e-35 87370.975250000018 120367.50000000001 2006.5000000000002 79.000000000000014 2009.5000000000002 14597000.000000002 7340.3948000000009 198.00000000000003 587.50000000000011 811.50000000000011 199876.25000000003
decision_type=2 2 2 2 2 2 2 2 2 2 2 2 2 2 2
left_child=1 2 6 9 8 -4 7 -1 -2 -3 -8 13 -11 14 -7
right_child=4 3 5 -5 -6 11 10 -9 -10 12 -12 -13 -14 -15 -16
leaf_value=0.00021184676637252167 0.00062137665227055537 -0.0087030518054962164 -0.010596557185900482 0.012654495824660576 0.02013522627001459 6.6553595908252244e-06 -0.018880789966455522 -0.012588949230584233 0.012165197953581812 -0.0026516500404492635 -0.0091736647114157681 0.0066362361065470249 0.0048801365108894455 0.0026846208027563991 -0.0048070086678490042
leaf_weight=12.000000000000002 12.000000000000002 9.9999999999999982 10.999999999999998 13.999999999999998 10.999999999999998 14.000000000000002 14.000000000000002 10.999999999999998 14.999999999999998 12.000000000000002 9.9999999999999982 12.999999999999998 13.999999999999998 11.999999999999998 9.9999999999999982
leaf_count=12 12 10 11 14 11 14 14 11 15 12 10 13 14 12 10
internal_value=0 -0.00262052 -0.00502857 0.00253269 0.0108269 -0.000767542 -0.0104682 -0.00591027 0.00703461 -0.00140357 -0.0148362 0.00143897 0.00140393 -0.000437818 -0.00199904
internal_weight=0 157 107 50 38 60 47 23 27 36 24 49 26 36 24
internal_count=195 157 107 50 38 60 47 23 27 36 24 49 26 36 24
is_linear=0
shrinkage=0.05


Tree=38
num_leaves=15
num_cat=0
split_feature=5 3 5 11 11 3 0 1 15 5 10 2 1 15
split_gain=1.99726 0.703314 0.91826 0.719149 0.521909 0.408906 0.351981 0.312874 0.269643 0.154444 0.14334 0.175137 0.126156 0.186044
threshold=64954.786500000009 1.5000000000000002 7340.3948000000009 1.0000000180025095e-35 9.0000000000000018 1.0000000180025095e-35 755.00000000000011 2006.5000000000002 21551750.000000004 84745.715400000016 17.500000000000004 1.5000000000000002 2002.5000000000002 16539083.333333334
decision_type=2 2 2 2 2 2 2 2 2 2 2 2 2 2
left_child=1 2 7 8 9 6 10 -1 -3 -2 12 -12 -4 -14
right_child=4 3 5 -5 -6 -7 -8 -9 -10 -11 11 -13 13 -15
leaf_value=-0.0071646389336540136 0.0032581063802354033 -0.005908124216640478 0.004019798189401627 0.012021771006818329 0.018910801752159992 -0.011543940043775366 0.0055251513594104093 -0.017936750794095652 0.0027597958246540085 0.011179155483841897 -0.010741987675428388 -0.0015993240247057243 -0.0073512703688307221 0.0018446725242855875
leaf_weight=13.000000000000002 16.000000000000004 17 9.9999999999999982 13.999999999999998 11.999999999999998 9.9999999999999982 17 13.999999999999998 19 9.9999999999999982 10 11 11.000000000000002 10.999999999999998
leaf_count=13 16 17 10 14 12 10 17 14 19 10 10 11 11 11
internal_value=0 -0.0024895 -0.00477714 0.00240606 0.0102855 -0.00208624 -0.000735135 -0.0127502 -0.00133339 0.00630466 -0.00274315 -0.00595297 -0.000636706 -0.0027533
internal_weight=0 157 107 50 38 80 70 27 36 26 53 21 32 22
internal_count=195 157 107 50 38 80 70 27 36 26 53 21 32 22
is_linear=0
shrinkage=0.05


Tree=39
num_leaves=15
num_cat=0
split_feature=5 3 5 11 15 3 0 1 15 15 1 16 0 10
split_gain=1.80252 0.634741 0.828729 0.649032 0.471425 0.369038 0.317663 0.282369 0.24905 0.141595 0.22467 0.169598 0.127971 0.0972514
threshold=64954.786500000009 1.5000000000000002 7340.3948000000009 1.0000000180025095e-35 33669466.666666672 1.0000000180025095e-35 755.00000000000011 2006.5000000000002 14597000.000000002 28529750.000000004 2009.5000000000002 161475.00000000003 587.50000000000011 392.50000000000006
decision_type=2 2 2 2 2 2 2 2 2 2 2 2 2 2
left_child=1 2 7 8 13 6 9 -1 -3 10 11 -4 -10 -2
right_child=4 3 5 -5 -6 -7 -8 -9 12 -11 -12 -13 -14 -15
leaf_value=-0.0068064070091797746 0.0035702935419976707 -0.0079724928736686716 0.0011507442481448185 0.011420682125857898 0.01796875180055698 -0.010966743174940348 0.0052488938425941508 -0.01703991362010129 -0.0024764761348099753 0.0021710341706542144 -0.0097580030094832192 -0.0068938202364370238 0.0045600535106911722 0.0098558618035167467
leaf_weight=13.000000000000002 16.000000000000004 9.9999999999999982 19.000000000000004 13.999999999999998 11.999999999999998 9.9999999999999982 17 13.999999999999998 12.000000000000002 11.999999999999998 11.999999999999998 9.9999999999999982 13.999999999999998 9.9999999999999982
leaf_count=13 16 10 19 14 12 10 17 14 12 12 12 10 14 10
internal_value=0 -0.00236502 -0.00453828 0.00228575 0.00977127 -0.00198192 -0.000698378 -0.0121127 -0.00126672 -0.00260599 -0.00400415 -0.00162324 0.00131242 0.00598782
internal_weight=0 157 107 50 38 80 70 27 36 53 41 29 26 26
internal_count=195 157 107 50 38 80 70 27 36 53 41 29 26 26
is_linear=0
shrinkage=0.05


Tree=40
num_leaves=16
num_cat=0
split_feature=5 3 5 11 11 3 0 1 15 10 10 2 0 1 15
split_gain=1.62678 0.572854 0.747928 0.585751 0.453409 0.333056 0.286691 0.254838 0.224768 0.136348 0.129225 0.152584 0.115494 0.110479 0.162741
threshold=64954.786500000009 1.5000000000000002 7340.3948000000009 1.0000000180025095e-35 9.0000000000000018 1.0000000180025095e-35 755.00000000000011 2006.5000000000002 14597000.000000002 109.00000000000001 17.500000000000004 1.5000000000000002 587.50000000000011 2002.5000000000002 16539083.333333334
decision_type=2 2 2 2 2 2 2 2 2 2 2 2 2 2 2
left_child=1 2 7 8 9 6 10 -1 -3 -2 13 -12 -10 -4 -15
right_child=4 3 5 -5 -6 -7 -8 -9 12 -11 11 -13 -14 14 -16
leaf_value=-0.0064660867980609708 0.0022200200407366663 -0.0075738678872585303 0.0038819393143057824 0.010849648980157715 0.017322026317318284 -0.010418406175449492 0.0049864490756162394 -0.016187917431151229 -0.0023526517713131998 0.0094831936177797622 -0.0099934305297210806 -0.0014597090053774246 0.0043320508158233555 -0.0067567518404261619 0.0018440159016542815
leaf_weight=13.000000000000002 14.000000000000002 9.9999999999999982 9.9999999999999982 13.999999999999998 11.999999999999998 9.9999999999999982 17 13.999999999999998 12.000000000000002 11.999999999999998 10 11 13.999999999999998 11.000000000000002 10.999999999999998
leaf_count=13 14 10 10 14 12 10 17 14 12 12 10 11 14 11 11
internal_value=0 -0.00224677 -0.00431137 0.00217147 0.00928271 -0.00188283 -0.00066346 -0.011507 -0.00120338 0.00557225 -0.00247569 -0.00552339 0.0012468 -0.000475647 -0.00245637
internal_weight=0 157 107 50 38 80 70 27 36 26 53 21 26 32 22
internal_count=195 157 107 50 38 80 70 27 36 26 53 21 26 32 22
is_linear=0
shrinkage=0.05


Tree=41
num_leaves=14
num_cat=0
split_feature=5 1 15 3 1 5 10 5 1 5 10 8 1
split_gain=1.46817 0.54279 0.521673 0.509704 0.731692 0.699059 0.457071 0.444138 0.307815 0.247452 0.199619 0.124281 0.107216
threshold=64954.786500000009 2000.5000000000002 13336000.000000002 1.5000000000000002 2014.5000000000002 7340.3948000000009 65.500000000000014 87370.975250000018 2009.5000000000002 49833.25725000001 17.500000000000004 86.500000000000014 2007.5000000000002
decision_type=2 2 2 2 2 2 2 2 2 2 2 2 2
left_child=1 2 -1 5 6 12 -5 8 -2 10 11 -7 -3
right_child=7 3 -4 4 -6 9 -8 -9 -10 -11 -12 -13 -14
leaf_value=-0.013225636307738329 -0.00060050369550784409 -0.0074264531837980007 -0.00022706290563711753 0.014483105242252348 -0.0051490093208849431 0.0039017261722340026 0.0016738632962537501 0.017287393376781521 0.010143366043145459 0.0046017004383934875 -0.0064049045102163088 -0.0030120534696974435 -0.014748207218945026
leaf_weight=19 12.000000000000002 10.000000000000002 12.999999999999998 15.000000000000002 14.999999999999998 13.000000000000002 12.999999999999998 10.999999999999998 14.999999999999998 18 18 12.999999999999998 9.9999999999999982
leaf_count=19 12 10 13 15 15 13 13 11 15 18 18 13 10
internal_value=0 -0.00213443 -0.00794497 -0.000646935 0.00376213 -0.00295901 0.00853596 0.00881857 0.00536831 -0.000336967 -0.00235733 0.000444836 -0.0110873
internal_weight=0 157 32 125 43 82 28 38 27 62 44 26 20
internal_count=195 157 32 125 43 82 28 38 27 62 44 26 20
is_linear=0
shrinkage=0.05


Tree=42
num_leaves=14
num_cat=0
split_feature=5 1 15 3 1 5 10 11 5 10 10 8 1
split_gain=1.32502 0.489868 0.47081 0.460008 0.660352 0.630901 0.412506 0.408533 0.223325 0.180156 0.124425 0.112164 0.0967626
threshold=64954.786500000009 2000.5000000000002 13336000.000000002 1.5000000000000002 2014.5000000000002 7340.3948000000009 65.500000000000014 9.0000000000000018 49833.25725000001 17.500000000000004 109.00000000000001 86.500000000000014 2007.5000000000002
decision_type=2 2 2 2 2 2 2 2 2 2 2 2 2
left_child=1 2 -1 5 6 12 -5 10 9 11 -2 -7 -3
right_child=7 3 -4 4 -6 8 -8 -9 -10 -11 -12 -13 -14
leaf_value=-0.012564354576170444 0.0016532770108564623 -0.0070551308360882088 -0.00021570972883357454 0.013758949587742484 -0.0048915588110685351 0.0037066399692915943 0.0015901700575621084 0.016008753764132657 0.0043716153466246193 -0.0060846592894651828 0.0085916298131148029 -0.0028614507585119171 -0.014010796677321198
leaf_weight=19 14.000000000000002 10.000000000000002 12.999999999999998 15.000000000000002 14.999999999999998 13.000000000000002 12.999999999999998 11.999999999999998 18 18 11.999999999999998 12.999999999999998 9.9999999999999982
leaf_count=19 14 10 13 15 15 13 13 12 18 18 12 13 10
internal_value=0 -0.00202771 -0.00754772 -0.000614588 0.00357402 -0.00281106 0.00810916 0.00837764 -0.000320118 -0.00223946 0.00485559 0.000422595 -0.010533
internal_weight=0 157 32 125 43 82 28 38 62 44 26 26 20
internal_count=195 157 32 125 43 82 28 38 62 44 26 26 20
is_linear=0
shrinkage=0.05


end of trees

feature_importances:
Column_5=159
Column_15=100
Column_0=91
Column_1=68
Column_10=45
Column_16=39
Column_3=22
Column_11=21
Column_2=20
Column_12=17
Column_6=9
Column_9=9
Column_8=4
Column_7=3

parameters:
[boosting: gbdt]
[objective: regression]
[metric: rmse]
[tree_learner: serial]
[device_type: cpu]
[data_sample_strategy: bagging]
[data: ]
[valid: ]
[num_iterations: 10000]
[learning_rate: 0.05]
[num_leaves: 95]
[num_threads: 0]
[seed: 1238]
[deterministic: 0]
[force_col_wise: 0]
[force_row_wise: 0]
[histogram_pool_size: -1]
[max_depth: -1]
[min_data_in_leaf: 10]
[min_sum_hessian_in_leaf: 0.001]
[bagging_fraction: 1]
[pos_bagging_fraction: 1]
[neg_bagging_fraction: 1]
[bagging_freq: 0]
[bagging_seed: 10438]
[feature_fraction: 1]
[feature_fraction_bynode: 1]
[feature_fraction_seed: 6707]
[extra_trees: 0]
[extra_seed: 23424]
[early_stopping_round: 0]
[early_stopping_min_delta: 0]
[first_metric_only: 0]
[max_delta_step: 0]
[lambda_l1: 0]
[lambda_l2: 0]
[linear_lambda: 0]
[min_gain_to_split: 0]
[drop_rate: 0.1]
[max_drop: 50]
[skip_drop: 0.5]
[xgboost_dart_mode: 0]
[uniform_drop: 0]
[drop_seed: 18682]
[top_rate: 0.2]
[other_rate: 0.1]
[min_data_per_group: 100]
[max_cat_threshold: 32]
[cat_l2: 10]
[cat_smooth: 10]
[max_cat_to_onehot: 4]
[top_k: 20]
[monotone_constraints: ]
[monotone_constraints_method: basic]
[monotone_penalty: 0]
[feature_contri: ]
[forcedsplits_filename: ]
[refit_decay_rate: 0.9]
[cegb_tradeoff: 1]
[cegb_penalty_split: 0]
[cegb_penalty_feature_lazy: ]
[cegb_penalty_feature_coupled: ]
[path_smooth: 0]
[interaction_constraints: ]
[verbosity: -1]
[saved_feature_importance_type: 0]
[use_quantized_grad: 0]
[num_grad_quant_bins: 4]
[quant_train_renew_leaf: 0]
[stochastic_rounding: 1]
[linear_tree: 0]
[max_bin: 255]
[max_bin_by_feature: ]
[min_data_in_bin: 3]
[bin_construct_sample_cnt: 200000]
[data_random_seed: 4081]
[is_enable_sparse: 1]
[enable_bundle: 1]
[use_missing: 1]
[zero_as_missing: 0]
[feature_pre_filter: 1]
[pre_partition: 0]
[two_round: 0]
[header: 0]
[label_column: ]
[weight_column: ]
[group_column: ]
[ignore_column: ]
[categorical_feature: ]
[forcedbins_filename: ]
[precise_float_parser: 0]
[parser_config_file: ]
[objective_seed: 31546]
[num_class: 1]
[is_unbalance: 0]
[scale_pos_weight: 1]
[sigmoid: 1]
[boost_from_average: 1]
[reg_sqrt: 0]
[alpha: 0.9]
[fair_c: 1]
[poisson_max_delta_step: 0.7]
[tweedie_variance_power: 1.5]
[lambdarank_truncation_level: 30]
[lambdarank_norm: 1]
[label_gain: ]
[lambdarank_position_bias_regularization: 0]
[eval_at: ]
[multi_error_top_k: 1]
[auc_mu_weights: ]
[num_machines: 1]
[local_listen_port: 12400]
[time_out: 120]
[machine_list_filename: ]
[machines: ]
[gpu_platform_id: -1]
[gpu_device_id: -1]
[gpu_use_dp: 0]
[num_gpu: 1]

end of parameters

pandas_categorical:null
