tree
version=v4
num_class=1
num_tree_per_iteration=1
label_index=0
max_feature_idx=26
objective=regression
feature_names=Column_0 Column_1 Column_2 Column_3 Column_4 Column_5 Column_6 Column_7 Column_8 Column_9 Column_10 Column_11 Column_12 Column_13 Column_14 Column_15 Column_16 Column_17 Column_18 Column_19 Column_20 Column_21 Column_22 Column_23 Column_24 Column_25 Column_26
feature_infos=[1:2289] [1993:2021] [0:2] [0:2] none [78:150126.86320000002] none [0:1344] [0:1258] [0:670] [0:1350] [0:1228] [0:812] none none [0:189821857.14285713] [0:815355.71428571432] [0:232721596857.14285] [0:28497359979655.66] [78:150126.86320000002] [78:150126.86320000002] [0.013408659563600338:25.589743589743591] [-148113.86320000002:1918] [78:150919.86320000002] [79:150126.86320000002] [78:150533.86320000002] [78:150100.86320000002]
tree_sizes=806 801 800 798 719 717 719 721 719 721 722 808 724 723 806 812 803 729 728 809 728 815 728 730 730 812 730 813 814 821 813 731 733 733 819 735 733 818 742 898 737 901 739 736 745 825 826 741 741 824 743 744 745 737 746 830 830 749 741 746 829 742 742 743 827 743 828 744 827 823 823 836 822 827 744 741 823 834 822 742 831 825 836 825 823 825 830 827 826 738 822 832 833 829 824 825 831 824 743 826

Tree=0
num_leaves=8
num_cat=0
split_feature=5 5 17 2 5 3 19
split_gain=98.7596 21.2437 11.7284 6.14264 3.32704 2.94564 1.51718
threshold=50387.07665000001 80157.220600000015 9727255166.6666679 1.0000000180025095e-35 18587.734400000005 1.5000000000000002 37618.769900000007
decision_type=2 2 2 2 2 2 2
left_child=2 5 3 -1 -5 -2 -4
right_child=1 -3 6 4 -6 -7 -8
leaf_value=-0.017171790508123546 0.017347483191257104 0.090028465202849212 -0.014751038231781168 -0.057175632494573407 -0.032831643465046703 0.042119931190823905 0.0040378910020462703
leaf_weight=26 24 21 21 32 25 24 22
leaf_count=26 24 21 21 32 25 24 22
internal_value=-1.791e-09 0.0480843 -0.0263319 -0.0373118 -0.0464984 0.0297337 -0.0051381
internal_weight=0 69 126 83 57 48 43
internal_count=195 69 126 83 57 48 43
is_linear=0
shrinkage=1


Tree=1
num_leaves=8
num_cat=0
split_feature=5 5 17 2 5 3 19
split_gain=89.1693 18.0318 11.808 5.54373 3.00266 2.31035 1.59198
threshold=50812.395950000013 80157.220600000015 9727255166.6666679 1.0000000180025095e-35 18587.734400000005 1.5000000000000002 37618.769900000007
decision_type=2 2 2 2 2 2 2
left_child=2 5 3 -1 -5 -2 -4
right_child=1 -3 6 4 -6 -7 -8
leaf_value=-0.016313199698925019 0.017304825427986326 0.085527041057745612 -0.014013484662531743 -0.054316848888993269 -0.031190058708190915 0.040013935975730421 0.0046605320498347286
leaf_weight=26 21 21 21 32 25 24 25
leaf_count=26 21 21 21 32 25 24 25
internal_value=0 0.0472698 -0.0241845 -0.0354462 -0.0441735 0.0294164 -0.00386456
internal_weight=0 66 129 83 57 45 46
internal_count=195 66 129 83 57 45 46
is_linear=0
shrinkage=0.05


Tree=2
num_leaves=8
num_cat=0
split_feature=5 5 17 2 5 3 19
split_gain=80.4891 17.2911 9.53896 5.00322 2.7099 2.39113 1.22975
threshold=50387.07665000001 80157.220600000015 9727255166.6666679 1.0000000180025095e-35 18587.734400000005 1.5000000000000002 37618.769900000007
decision_type=2 2 2 2 2 2 2
left_child=2 5 3 -1 -5 -2 -4
right_child=1 -3 6 4 -6 -7 -8
leaf_value=-0.015497539880184028 0.015693896566517651 0.081250693258785076 -0.013312810186540619 -0.051601006230339412 -0.029630556344985966 0.038013238646090033 0.0036029714582995935
leaf_weight=26 24 21 21 32 25 24 22
leaf_count=26 24 21 21 32 25 24 22
internal_value=0 0.0434092 -0.0237717 -0.0336739 -0.0419648 0.0268536 -0.00465822
internal_weight=0 69 126 83 57 48 43
internal_count=195 69 126 83 57 48 43
is_linear=0
shrinkage=0.05


Tree=3
num_leaves=8
num_cat=0
split_feature=5 5 18 2 5 5 3
split_gain=72.6694 14.6769 8.61147 4.86816 2.6597 1.9016 1.87496
threshold=50812.395950000013 80157.220600000015 579106241295.77161 1.0000000180025095e-35 32695.278600000005 18587.734400000005 1.5000000000000002
decision_type=2 2 2 2 2 2 2
left_child=2 6 3 -1 -4 -5 -2
right_child=1 -3 4 5 -6 -7 -8
leaf_value=-0.014546439528465273 0.015654889050693739 0.077188156332288482 -0.02075053669512272 -0.049235577304517074 0.0023569145776105652 -0.029460471421480179 0.036112577530244987
leaf_weight=25 21 21 20 31 33 20 24
leaf_count=25 21 21 20 31 33 20 24
internal_value=0 0.0426728 -0.0218326 -0.0326207 -0.00636288 -0.0414806 0.0265657
internal_weight=0 66 129 76 53 51 45
internal_count=195 66 129 76 53 51 45
is_linear=0
shrinkage=0.05


Tree=4
num_leaves=7
num_cat=0
split_feature=17 5 5 2 5 1
split_gain=66.2065 14.5942 5.7018 3.47363 4.14654 1.51998
threshold=22727825300.000004 37110.078650000003 74683.636000000013 1.0000000180025095e-35 18587.734400000005 2006.5000000000002
decision_type=2 2 2 2 2 2
left_child=1 3 -2 -1 -5 -3
right_child=2 5 -4 4 -6 -7
leaf_value=-0.013104685867826144 0.035580520099028949 -0.0048457359382882721 0.070820677551356223 -0.046286368505521258 -0.021748914785631415 0.01294930024150138
leaf_weight=30 24 20 22 33 36 30
leaf_count=30 24 20 22 33 36 30
internal_value=0 -0.0161878 0.0524345 -0.0273086 -0.0334842 0.00583129
internal_weight=0 149 46 99 69 50
internal_count=195 149 46 99 69 50
is_linear=0
shrinkage=0.05


Tree=5
num_leaves=7
num_cat=0
split_feature=5 5 5 2 5 17
split_gain=59.951 11.3027 7.89993 3.13495 3.74226 1.17698
threshold=57628.109700000008 37110.078650000003 80157.220600000015 1.0000000180025095e-35 18587.734400000005 15455487166.66667
decision_type=2 2 2 2 2 2
left_child=1 3 -2 -1 -5 -3
right_child=2 5 -4 4 -6 -7
leaf_value=-0.012449451747039954 0.030120729046563308 -0.0036300221498569716 0.070105662161395674 -0.043972050872716037 -0.020661468897014857 0.012546536351808094
leaf_weight=30 30 23 21 33 36 22
leaf_count=30 30 23 21 33 36 22
internal_value=0 -0.0164989 0.0465851 -0.0259432 -0.03181 0.00427852
internal_weight=0 144 51 99 69 45
internal_count=195 144 51 99 69 45
is_linear=0
shrinkage=0.05


Tree=6
num_leaves=7
num_cat=0
split_feature=17 5 5 2 18 1
split_gain=54.5944 11.6741 4.55434 2.82929 3.45671 1.31669
threshold=22727825300.000004 37110.078650000003 74683.636000000013 1.0000000180025095e-35 400346901864.50006 2006.5000000000002
decision_type=2 2 2 2 2 2
left_child=1 3 -2 -1 -5 -3
right_child=2 5 -4 4 -6 -7
leaf_value=-0.011826979244748752 0.032551746629178528 -0.0049437950272113087 0.064046984233639456 -0.040034851431846624 -0.017459558602422477 0.01161852196227604
leaf_weight=30 24 20 22 39 30 30
leaf_count=30 24 20 22 39 30 30
internal_value=0 -0.0146998 0.0476147 -0.024646 -0.0302195 0.0049936
internal_weight=0 149 46 99 69 50
internal_count=195 149 46 99 69 50
is_linear=0
shrinkage=0.05


Tree=7
num_leaves=7
num_cat=0
split_feature=5 5 5 2 5 17
split_gain=49.3741 9.07774 6.54621 3.00931 2.43067 1.36528
threshold=57628.109700000008 34928.394700000012 80157.220600000015 1.0000000180025095e-35 18587.734400000005 13224114000.000002
decision_type=2 2 2 2 2 2
left_child=1 3 -2 -1 -5 -3
right_child=2 5 -4 4 -6 -7
leaf_value=-0.011235630847513675 0.027288932551940284 -0.0077983247781438494 0.063687123145375932 -0.039840115392298411 -0.020175503393014271 0.0088241691250974929
leaf_weight=30 30 21 21 33 30 30
leaf_count=30 30 21 21 33 30 30
internal_value=0 -0.0149729 0.0422764 -0.0242694 -0.030476 0.00197961
internal_weight=0 144 51 93 63 51
internal_count=195 144 51 93 63 51
is_linear=0
shrinkage=0.05


Tree=8
num_leaves=7
num_cat=0
split_feature=17 5 5 2 18 5
split_gain=45.0614 9.35506 3.62004 2.31066 2.88262 1.1174
threshold=22727825300.000004 37110.078650000003 74683.636000000013 1.0000000180025095e-35 400346901864.50006 47879.491800000011
decision_type=2 2 2 2 2 2
left_child=1 3 -2 -1 -5 -3
right_child=2 5 -4 4 -6 -7
leaf_value=-0.010673849545419216 0.029828990778575343 -0.0041582335028744468 0.05790845033797351 -0.036258660323726828 -0.015643104445189238 0.01089985057312463
leaf_weight=30 24 22 22 39 30 28
leaf_count=30 24 22 22 39 30 28
internal_value=0 -0.0133549 0.0432583 -0.0222585 -0.0272954 0.00427429
internal_weight=0 149 46 99 69 50
internal_count=195 149 46 99 69 50
is_linear=0
shrinkage=0.05


Tree=9
num_leaves=7
num_cat=0
split_feature=17 5 5 2 1 17
split_gain=40.6679 8.48772 3.26709 2.45631 2.09738 1.68866
threshold=22727825300.000004 31238.740000000002 74683.636000000013 1.0000000180025095e-35 2005.5000000000002 3921619000.0000005
decision_type=2 2 2 2 2 2
left_child=1 3 -2 -1 -3 -5
right_child=2 4 -4 5 -6 -7
leaf_value=-0.010879946050458942 0.028337541533013183 -0.010526005650425087 0.055013028329068972 -0.037532987232719153 0.0085114179083552125 -0.020459756155808768
leaf_weight=29 24 23 22 28 39 30
leaf_count=29 24 23 22 28 39 30
internal_value=0 -0.0126872 0.0410954 -0.0227613 0.00144915 -0.028702
internal_weight=0 149 46 87 62 58
internal_count=195 149 46 87 62 58
is_linear=0
shrinkage=0.05


Tree=10
num_leaves=7
num_cat=0
split_feature=5 5 5 2 1 5
split_gain=37.0132 6.59235 5.01679 2.21682 1.71559 1.53656
threshold=57628.109700000008 31238.740000000002 80157.220600000015 1.0000000180025095e-35 2006.5000000000002 18587.734400000005
decision_type=2 2 2 2 2 2
left_child=1 3 -2 -1 -3 -5
right_child=2 4 -4 5 -6 -7
leaf_value=-0.010335947431880854 0.023483492520948251 -0.011545375261630398 0.055347307700486417 -0.034350340017540885 0.0066306031164335647 -0.017916771799325944
leaf_weight=29 30 20 21 33 37 25
leaf_count=29 30 20 21 33 37 25
internal_value=0 -0.0129639 0.0366039 -0.0216233 0.000253067 -0.0272669
internal_weight=0 144 51 87 57 58
internal_count=195 144 51 87 57 58
is_linear=0
shrinkage=0.05


Tree=11
num_leaves=8
num_cat=0
split_feature=17 5 5 2 18 1 15
split_gain=33.5688 6.95326 2.58324 1.74345 2.15111 0.918653 0.511838
threshold=22727825300.000004 37110.078650000003 74683.636000000013 1.0000000180025095e-35 462646225451.35004 2006.5000000000002 12880000.000000002
decision_type=2 2 2 2 2 2 2
left_child=1 3 -2 -1 6 -3 -5
right_child=2 5 -4 4 -6 -7 -8
leaf_value=-0.0091399580736955012 0.025992260997494063 -0.0046286742691881953 0.049712263166227122 -0.036175980880146938 -0.012567138226909769 0.0092055598801622784 -0.025136680617218927
leaf_weight=30 24 20 22 21 27 30 21
leaf_count=30 24 20 22 21 27 30 21
internal_value=0 -0.0115267 0.0373366 -0.0192028 -0.023578 0.00367187 -0.0306563
internal_weight=0 149 46 99 69 50 42
internal_count=195 149 46 99 69 50 42
is_linear=0
shrinkage=0.05


Tree=12
num_leaves=7
num_cat=0
split_feature=5 17 5 17 18 5
split_gain=30.5004 5.47338 4.17189 3.16699 2.00434 0.771209
threshold=57628.109700000008 9727255166.6666679 80157.220600000015 102058000.00000001 192216012118.00003 42145.996100000004
decision_type=2 2 2 2 2 2
left_child=1 3 -2 -1 -5 -3
right_child=2 5 -4 4 -6 -7
leaf_value=-0.0035574756181714212 0.021263111295799414 -0.0053187310695648193 0.05032015770141568 -0.035890943391455543 -0.017869359037528437 0.0061555425326029461
leaf_weight=22 30 32 21 27 36 27
leaf_count=22 30 32 21 27 36 27
internal_value=0 -0.0117682 0.0332278 -0.0198896 -0.0255929 -6.77923e-05
internal_weight=0 144 51 85 63 59
internal_count=195 144 51 85 63 59
is_linear=0
shrinkage=0.05


Tree=13
num_leaves=7
num_cat=0
split_feature=17 5 17 2 0 5
split_gain=27.7291 5.5939 2.29838 1.49051 1.80538 0.801799
threshold=22727825300.000004 37110.078650000003 30643926000.000004 1.0000000180025095e-35 314.00000000000006 47879.491800000011
decision_type=2 2 2 2 2 2
left_child=1 3 -2 -1 -5 -3
right_child=2 5 -4 4 -6 -7
leaf_value=-0.0080569270998239514 0.021739507504251035 -0.0039871082662350753 0.044177289307117465 -0.029612424273920412 -0.013435148240865342 0.008768390145684991
leaf_weight=30 21 22 25 34 35 28
leaf_count=30 21 22 25 34 35 28
internal_value=0 -0.0104763 0.033934 -0.0173612 -0.0214066 0.00315597
internal_weight=0 149 46 99 69 50
internal_count=195 149 46 99 69 50
is_linear=0
shrinkage=0.05


Tree=14
num_leaves=8
num_cat=0
split_feature=5 17 5 17 18 5 18
split_gain=25.0719 4.53446 3.61237 2.35697 2.22923 0.892027 0.264711
threshold=57628.109700000008 11617979500.000002 80157.220600000015 102058000.00000001 192216012118.00003 43263.209600000009 518993816476.53351
decision_type=2 2 2 2 2 2 2
left_child=1 3 -2 -1 -5 -3 -6
right_child=2 5 -4 4 6 -7 -8
leaf_value=-0.0028175357157703153 0.018992598801851276 -0.0041872248840357723 0.046031013556889128 -0.032875279006030822 -0.018289504231264197 0.0093439455986732544 -0.010602675786330588
leaf_weight=22 30 29 21 27 24 21 21
leaf_count=22 30 29 21 27 24 21 21
internal_value=0 -0.0106696 0.0301261 -0.0171407 -0.0215172 0.00149587 -0.0147023
internal_weight=0 144 51 94 72 50 45
internal_count=195 144 51 94 72 50 45
is_linear=0
shrinkage=0.05


Tree=15
num_leaves=8
num_cat=0
split_feature=17 20 17 2 15 1 19
split_gain=22.8695 4.55234 1.96982 1.49842 1.26013 1.12326 0.657783
threshold=22727825300.000004 34877.394700000012 30643926000.000004 1.0000000180025095e-35 13244000.000000002 2005.5000000000002 23690.222850000002
decision_type=2 2 2 2 2 2 2
left_child=1 3 -2 -1 -5 -3 -6
right_child=2 5 -4 4 6 -7 -8
leaf_value=-0.0070987084554508337 0.019528097881092915 -0.0073934031606075314 0.040300313591957099 -0.030329079790548847 -0.021985105434432627 0.0072337900966938061 -0.0093150463443072064
leaf_weight=30 21 21 25 22 20 35 21
leaf_count=30 21 21 25 22 20 35 21
internal_value=0 -0.00951408 0.0308173 -0.0162959 -0.0206755 0.00174859 -0.0154956
internal_weight=0 149 46 93 63 56 41
internal_count=195 149 46 93 63 56 41
is_linear=0
shrinkage=0.05


Tree=16
num_leaves=8
num_cat=0
split_feature=5 17 5 17 18 5 18
split_gain=20.7049 3.70117 3.1182 2.05745 1.87154 0.734122 0.213801
threshold=57628.109700000008 11617979500.000002 80157.220600000015 102058000.00000001 192216012118.00003 43263.209600000009 518993816476.53351
decision_type=2 2 2 2 2 2 2
left_child=1 3 -2 -1 -5 -3 -6
right_child=2 5 -4 4 6 -7 -8
leaf_value=-0.0021601469144860112 0.017033021958777681 -0.0038606070929431712 0.042154023423790932 -0.030038319845442418 -0.016610881172042961 0.0084146440029144298 -0.0097026680967593135
leaf_weight=22 30 29 21 27 24 21 21
leaf_count=22 30 29 21 27 24 21 21
internal_value=0 -0.00969601 0.027377 -0.0155423 -0.0196313 0.001295 -0.013387
internal_weight=0 144 51 94 72 50 45
internal_count=195 144 51 94 72 50 45
is_linear=0
shrinkage=0.05


Tree=17
num_leaves=7
num_cat=0
split_feature=17 5 17 1 2 17
split_gain=18.8588 3.69707 1.68852 1.37956 1.22946 0.844621
threshold=22727825300.000004 31238.740000000002 30643926000.000004 2005.5000000000002 1.0000000180025095e-35 2810102250.0000005
decision_type=2 2 2 2 2 2
left_child=1 4 -2 -3 -1 -6
right_child=2 3 -4 -5 5 -7
leaf_value=-0.0068825707974610852 0.017532809096432869 -0.0090220028352316316 0.036764731943607333 0.0064177305198823802 -0.026934500848469531 -0.014600133221538273
leaf_weight=29 21 23 25 39 23 35
leaf_count=29 21 23 25 39 23 35
internal_value=0 -0.00863965 0.0279849 0.000690088 -0.0152884 -0.0194913
internal_weight=0 149 46 62 87 58
internal_count=195 149 46 62 87 58
is_linear=0
shrinkage=0.05


Tree=18
num_leaves=7
num_cat=0
split_feature=5 18 5 16 18 21
split_gain=17.1128 3.01059 2.69164 1.79634 1.07486 0.724387
threshold=57628.109700000008 623194474859.77502 80157.220600000015 62832.500000000007 192216012118.00003 0.049261085351464527
decision_type=2 2 2 2 2 2
left_child=1 3 -2 -1 -5 -3
right_child=2 5 -4 4 -6 -7
leaf_value=-0.0025379038638096642 0.015278701742645354 0.0054976378712032377 0.038618306673708414 -0.026674763016678673 -0.013477522555169548 -0.0055844557021434114
leaf_weight=22 30 29 21 27 36 30
leaf_count=22 30 29 21 27 36 30
internal_value=0 -0.0088149 0.0248891 -0.0148382 -0.0191335 -0.000137325
internal_weight=0 144 51 85 63 59
internal_count=195 144 51 85 63 59
is_linear=0
shrinkage=0.05


Tree=19
num_leaves=8
num_cat=0
split_feature=17 5 9 2 15 0 1
split_gain=15.5679 3.00194 1.64827 0.940625 1.14698 0.625344 0.609105
threshold=22727825300.000004 37110.078650000003 35.000000000000007 1.0000000180025095e-35 13244000.000000002 355.50000000000006 2006.5000000000002
decision_type=2 2 2 2 2 2 2
left_child=1 3 -2 -1 -5 -6 -3
right_child=2 6 -4 4 5 -7 -8
leaf_value=-0.0055019933807974068 0.035753006700958524 -0.0046221765596419573 0.016751705043017866 -0.025223711845667469 -0.017909422889351847 -0.0062055747387930755 0.0066426725887383025
leaf_weight=30 21 20 25 23 21 25 30
leaf_count=30 21 20 25 23 21 25 30
internal_value=0 -0.0078497 0.0254262 -0.0128934 -0.016107 -0.0115486 0.00213673
internal_weight=0 149 46 99 69 46 50
internal_count=195 149 46 99 69 46 50
is_linear=0
shrinkage=0.05


Tree=20
num_leaves=7
num_cat=0
split_feature=17 5 17 17 18 1
split_gain=14.1783 4.97753 1.15876 1.32916 1.04091 0.428947
threshold=28205876500.000004 44884.555350000002 9727255166.6666679 102058000.00000001 192216012118.00003 2008.5000000000002
decision_type=2 2 2 2 2 2
left_child=1 2 3 -1 -5 -3
right_child=-2 5 -4 4 -6 -7
leaf_value=-0.0030224768654443326 0.032926385743277414 0.0029326522934504532 -0.0035112301285456248 -0.025238605957754234 -0.012251454778338991 0.012418900760642899
leaf_weight=20 28 22 36 27 36 26
leaf_count=20 28 22 36 27 36 26
internal_value=0 -0.00552059 -0.0110029 -0.0142523 -0.0178174 0.00807104
internal_weight=0 167 119 83 63 48
internal_count=195 167 119 83 63 48
is_linear=0
shrinkage=0.05


Tree=21
num_leaves=8
num_cat=0
split_feature=22 11 19 18 0 2 15
split_gain=12.907 2.28862 2.23253 2.11445 1.04037 0.713151 0.510487
threshold=-55626.609699999994 4.0000000000000009 80157.220600000015 549232071216.77502 624.50000000000011 1.0000000180025095e-35 12880000.000000002
decision_type=2 2 2 2 2 2 2
left_child=2 3 -1 5 -5 -2 -7
right_child=1 -3 -4 4 -6 6 -8
leaf_value=0.012862828985477488 -0.0083311626421553753 0.0080399479484185576 0.034118930073011491 -0.0091514435325128329 0.0046592490002512936 -0.024534777303536735 -0.014222092476362982
leaf_weight=30 21 20 21 30 25 24 24
leaf_count=30 21 20 21 30 25 24 24
internal_value=0 -0.00765543 0.0216153 -0.0101869 -0.00287386 -0.0160162 -0.0193784
internal_weight=0 144 51 124 55 69 48
internal_count=195 144 51 124 55 69 48
is_linear=0
shrinkage=0.05


Tree=22
num_leaves=7
num_cat=0
split_feature=17 5 17 17 18 0
split_gain=11.8482 3.98614 0.932537 1.167 0.916992 0.434248
threshold=28205876500.000004 44884.555350000002 9727255166.6666679 102058000.00000001 192216012118.00003 910.50000000000011
decision_type=2 2 2 2 2 2
left_child=1 2 3 -1 -5 -3
right_child=-2 5 -4 4 -6 -7
leaf_value=-0.0023451599758118392 0.030099438490079983 0.011135727612833893 -0.0032319549484074945 -0.023173707763716165 -0.010984092950820923 0.0014893191610462963
leaf_weight=20 28 28 36 27 36 20
leaf_count=20 28 28 36 27 36 20
internal_value=0 -0.00504661 -0.0099527 -0.0128677 -0.0162082 0.00711639
internal_weight=0 167 119 83 63 48
internal_count=195 167 119 83 63 48
is_linear=0
shrinkage=0.05


Tree=23
num_leaves=7
num_cat=0
split_feature=17 5 17 17 18 0
split_gain=10.693 3.59749 0.841614 1.05322 0.827586 0.391909
threshold=28205876500.000004 44884.555350000002 9727255166.6666679 102058000.00000001 192216012118.00003 910.50000000000011
decision_type=2 2 2 2 2 2
left_child=1 2 3 -1 -5 -3
right_child=-2 5 -4 4 -6 -7
leaf_value=-0.0022279018396511676 0.028594466811046007 0.010578941054908295 -0.0030703572310610779 -0.022015022134615314 -0.010434888214674882 0.0014148528239456939
leaf_weight=20 28 28 36 27 36 20
leaf_count=20 28 28 36 27 36 20
internal_value=0 -0.00479428 -0.00945506 -0.0122243 -0.0153978 0.00676057
internal_weight=0 167 119 83 63 48
internal_count=195 167 119 83 63 48
is_linear=0
shrinkage=0.05


Tree=24
num_leaves=7
num_cat=0
split_feature=5 12 18 5 0 1
split_gain=9.80283 1.97047 2.88939 1.85353 0.550425 0.31034
threshold=57628.109700000008 1.0000000180025095e-35 549232071216.77502 80157.220600000015 624.50000000000011 2003.5000000000002
decision_type=2 2 2 2 2 2
left_child=1 2 5 -2 -4 -1
right_child=3 -3 4 -5 -6 -7
leaf_value=-0.020807677780588469 0.010862492829716455 0.0067437293655846428 -0.0057258734089397903 0.030230497415011215 0.0037670900691479728 -0.013488488966166707
leaf_weight=30 30 23 37 21 26 28
leaf_count=30 30 23 37 21 26 28
internal_value=0 -0.00667163 -0.00922166 0.0188376 -0.00180814 -0.0172743
internal_weight=0 144 121 51 63 58
internal_count=195 144 121 51 63 58
is_linear=0
shrinkage=0.05


Tree=25
num_leaves=8
num_cat=0
split_feature=17 5 17 17 16 1 1
split_gain=8.9294 2.88072 0.747709 0.858685 0.719116 0.47645 0.173971
threshold=28205876500.000004 47879.491800000011 9727255166.6666679 102058000.00000001 129148.33333333336 2008.5000000000002 2005.5000000000002
decision_type=2 2 2 2 2 2 2
left_child=1 2 3 -1 -5 -3 -6
right_child=-2 5 -4 4 6 -7 -8
leaf_value=-0.0020264376979321243 0.026130212866701186 0.00093155238067819967 -0.0026590617409405805 -0.02147269499089037 -0.013515773359686137 0.011244187910779148 -0.0070724935905838561
leaf_weight=20 28 21 39 21 20 24 22
leaf_count=20 28 21 39 21 20 24 22
internal_value=0 -0.00438111 -0.00836942 -0.0110526 -0.013918 0.00643162 -0.0101407
internal_weight=0 167 122 83 63 45 42
internal_count=195 167 122 83 63 45 42
is_linear=0
shrinkage=0.05


Tree=26
num_leaves=7
num_cat=0
split_feature=17 5 17 17 18 0
split_gain=8.05878 2.59985 0.674808 0.774963 0.677679 0.488817
threshold=28205876500.000004 47879.491800000011 9727255166.6666679 102058000.00000001 192216012118.00003 910.50000000000011
decision_type=2 2 2 2 2 2
left_child=1 2 3 -1 -5 -3
right_child=-2 5 -4 4 -6 -7
leaf_value=-0.0019251157622784379 0.024823702141709095 0.01077107265405357 -0.0025261086771467653 -0.019210132687456079 -0.0087311525247059773 0.00028375694062560797
leaf_weight=20 28 25 39 27 36 20
leaf_count=20 28 25 39 27 36 20
internal_value=0 -0.00416206 -0.00795095 -0.0105 -0.0132221 0.00611004
internal_weight=0 167 122 83 63 45
internal_count=195 167 122 83 63 45
is_linear=0
shrinkage=0.05


Tree=27
num_leaves=8
num_cat=0
split_feature=20 11 18 5 0 2 16
split_gain=7.4695 1.79013 1.5081 1.09711 0.752775 0.388604 0.46617
threshold=61761.874500000013 4.0000000000000009 549232071216.77502 80157.220600000015 621.00000000000011 1.0000000180025095e-35 139714.58333333334
decision_type=2 2 2 2 2 2 2
left_child=1 2 5 -2 -4 -1 -7
right_child=3 -3 4 -5 -6 6 -8
leaf_value=-0.0067181470329939798 0.010596433893910476 0.0084323533633280361 -0.0078019084402642744 0.026758643168778646 0.0031972591480007397 -0.019800477909545103 -0.0099455886598055557
leaf_weight=21 21 21 28 21 35 24 24
leaf_count=21 21 21 28 21 35 24 24
internal_value=0 -0.00512717 -0.00728436 0.0186775 -0.00169126 -0.0123911 -0.014873
internal_weight=0 153 132 42 63 69 48
internal_count=195 153 132 42 63 69 48
is_linear=0
shrinkage=0.05


Tree=28
num_leaves=8
num_cat=0
split_feature=20 11 18 19 0 2 15
split_gain=6.74123 1.6156 1.36106 0.990143 0.679379 0.350715 0.429609
threshold=61761.874500000013 4.0000000000000009 549232071216.77502 80157.220600000015 621.00000000000011 1.0000000180025095e-35 12880000.000000002
decision_type=2 2 2 2 2 2 2
left_child=1 2 5 -2 -4 -1 -7
right_child=3 -3 4 -5 -6 6 -8
leaf_value=-0.0063822392928635785 0.01006661228214701 0.0080107355955988165 -0.0074118128595208489 0.025420711189508439 0.0030373962190268296 -0.0188596543079863 -0.0093991091048034534
leaf_weight=21 21 21 28 21 35 24 24
leaf_count=21 21 21 28 21 35 24 24
internal_value=0 -0.00487081 -0.00692015 0.0177437 -0.0016067 -0.0117716 -0.0141294
internal_weight=0 153 132 42 63 69 48
internal_count=195 153 132 42 63 69 48
is_linear=0
shrinkage=0.05


Tree=29
num_leaves=8
num_cat=0
split_feature=17 5 0 17 17 16 1
split_gain=6.21371 1.85216 0.491846 0.465413 0.671864 0.592066 0.154016
threshold=28205876500.000004 47879.491800000011 910.50000000000011 9727255166.6666679 102058000.00000001 129148.33333333336 2005.5000000000002
decision_type=2 2 2 2 2 2 2
left_child=1 3 -3 4 -1 -6 -7
right_child=-2 2 -4 -5 5 6 -8
leaf_value=-0.00098546477034687995 0.021797544349517143 0.0096908891759812845 -0.00082887433702126154 -0.0023474507565156393 -0.018359104765667805 -0.011252371640875936 -0.0051898857859090314
leaf_weight=20 28 25 20 39 21 20 22
leaf_count=20 28 25 20 39 21 20 22
internal_value=0 -0.00365468 0.00501544 -0.00685267 -0.00896958 -0.0115042 -0.00807678
internal_weight=0 167 45 122 83 63 42
internal_count=195 167 45 122 83 63 42
is_linear=0
shrinkage=0.05


Tree=30
num_leaves=8
num_cat=0
split_feature=20 11 18 5 0 16 16
split_gain=5.63025 1.42717 1.11277 0.856989 0.5521 0.307141 0.374018
threshold=61761.874500000013 4.0000000000000009 549232071216.77502 80157.220600000015 621.00000000000011 157657.50000000003 87350.000000000015
decision_type=2 2 2 2 2 2 2
left_child=1 2 5 -2 -4 6 -1
right_child=3 -3 4 -5 -6 -7 -8
leaf_value=-0.0086687912233173858 0.0090735576159897309 0.007655692386573979 -0.0068062719306908551 0.023357985771837689 0.0026134113370374378 -0.0063385584014467901 -0.017888562169603325
leaf_weight=22 21 21 28 21 35 25 22
leaf_count=22 21 21 28 21 35 25 22
internal_value=0 -0.00445139 -0.00637751 0.0162158 -0.00157311 -0.0107641 -0.0132787
internal_weight=0 153 132 42 63 69 44
internal_count=195 153 132 42 63 69 44
is_linear=0
shrinkage=0.05


Tree=31
num_leaves=7
num_cat=0
split_feature=17 1 5 3 5 16
split_gain=5.18471 1.64098 1.91645 0.552723 0.717079 0.718634
threshold=28205876500.000004 1999.5000000000002 50387.07665000001 1.5000000000000002 6718.1331500000015 173488.33333333334
decision_type=2 2 2 2 2 2
left_child=1 -1 3 4 -3 -6
right_child=-2 2 -4 -5 5 -7
leaf_value=-0.014624525057324381 0.019911042322512784 -0.014666877293281935 0.0082524377697457876 0.0010311908538228479 0.0021597977802157403 -0.009828810390084982
leaf_weight=27 28 22 39 29 25 25
leaf_count=27 28 22 39 29 25 25
internal_value=0 -0.00333838 -0.00116176 -0.00479695 -0.0071444 -0.00383451
internal_weight=0 167 140 101 72 50
internal_count=195 167 140 101 72 50
is_linear=0
shrinkage=0.05


Tree=32
num_leaves=7
num_cat=0
split_feature=17 1 5 3 5 16
split_gain=4.6792 1.48099 1.73392 0.461631 0.697599 0.680352
threshold=28205876500.000004 1999.5000000000002 50812.395950000013 1.5000000000000002 6718.1331500000015 173488.33333333334
decision_type=2 2 2 2 2 2
left_child=1 -1 3 4 -3 -6
right_child=-2 2 -4 -5 5 -7
leaf_value=-0.013893298605560428 0.018915490064578731 -0.013933533605780792 0.0083540439592777859 0.00097963136685048718 0.0020108012312058626 -0.0093373700603842733
leaf_weight=27 28 22 36 29 28 25
leaf_count=27 28 22 36 29 28 25
internal_value=0 -0.00317146 -0.00110368 -0.0043775 -0.00644893 -0.00334211
internal_weight=0 167 140 104 75 53
internal_count=195 167 140 104 75 53
is_linear=0
shrinkage=0.05


Tree=33
num_leaves=7
num_cat=0
split_feature=17 1 19 3 19 16
split_gain=4.22298 1.33659 1.56487 0.416622 0.629583 0.614018
threshold=28205876500.000004 1999.5000000000002 50812.395950000013 1.5000000000000002 6718.1331500000015 173488.33333333334
decision_type=2 2 2 2 2 2
left_child=1 -1 3 4 -3 -6
right_child=-2 2 -4 -5 5 -7
leaf_value=-0.01319863370154053 0.017969715887946741 -0.013236856826750394 0.0079363418594261426 0.00093064973901571904 0.001910261025269782 -0.0088705015692394223
leaf_weight=27 28 22 36 29 28 25
leaf_count=27 28 22 36 29 28 25
internal_value=0 -0.00301289 -0.00104849 -0.00415863 -0.00612648 -0.003175
internal_weight=0 167 140 104 75 53
internal_count=195 167 140 104 75 53
is_linear=0
shrinkage=0.05


Tree=34
num_leaves=8
num_cat=0
split_feature=20 12 18 5 15 17 0
split_gain=3.82956 1.31527 1.49803 0.730745 0.278326 0.249152 0.193142
threshold=61761.874500000013 1.0000000180025095e-35 549232071216.77502 80157.220600000015 30853133.33333334 12633867000.000002 213.00000000000003
decision_type=2 2 2 2 2 2 2
left_child=1 2 6 -2 5 -4 -1
right_child=3 -3 4 -5 -6 -7 -8
leaf_value=-0.014486600159956465 0.0067783875656979428 0.0073503028783623294 -0.0029174272669479254 0.019968797203840778 -0.005816448446130381 0.0040879552316619083 -0.0087159563000474508
leaf_weight=29 21 23 22 21 20 30 29
leaf_count=29 21 23 22 21 20 30 29
internal_value=0 -0.00367118 -0.00562114 0.0133736 -0.000803802 0.00112414 -0.0116013
internal_weight=0 153 130 42 72 52 58
internal_count=195 153 130 42 72 52 58
is_linear=0
shrinkage=0.05


Tree=35
num_leaves=7
num_cat=0
split_feature=17 1 20 3 20 10
split_gain=3.5365 1.13609 1.28774 0.367387 0.55601 0.553871
threshold=28205876500.000004 1999.5000000000002 50812.395950000013 1.5000000000000002 6718.1331500000015 22.500000000000004
decision_type=2 2 2 2 2 2
left_child=1 -1 3 4 -3 -6
right_child=-2 2 -4 -5 5 -7
leaf_value=-0.012147882384144599 0.016444425703957679 -0.012297347992319954 0.0072044461318809122 0.0010116917022969575 0.0019881085792024223 -0.0082510237097740188
leaf_weight=27 28 22 36 29 28 25
leaf_count=27 28 22 36 29 28 25
internal_value=0 -0.00275715 -0.000946079 -0.00376741 -0.00561534 -0.00284167
internal_weight=0 167 140 104 75 53
internal_count=195 167 140 104 75 53
is_linear=0
shrinkage=0.05


Tree=36
num_leaves=7
num_cat=0
split_feature=17 1 5 3 5 16
split_gain=3.19169 1.02532 1.16219 0.331567 0.501799 0.530838
threshold=28205876500.000004 1999.5000000000002 50812.395950000013 1.5000000000000002 6718.1331500000015 173488.33333333334
decision_type=2 2 2 2 2 2
left_child=1 -1 3 4 -3 -6
right_child=-2 2 -4 -5 5 -7
leaf_value=-0.011540488291669775 0.015622204701815332 -0.011682480996982618 0.00684422367097189 0.0009611070328713235 0.0020287016814108938 -0.0079952707175398249
leaf_weight=27 28 22 36 29 28 25
leaf_count=27 28 22 36 29 28 25
internal_value=0 -0.00261929 -0.000898775 -0.00357904 -0.00533457 -0.00269959
internal_weight=0 167 140 104 75 53
internal_count=195 167 140 104 75 53
is_linear=0
shrinkage=0.05


Tree=37
num_leaves=8
num_cat=0
split_feature=5 12 18 15 17 15 8
split_gain=2.95401 1.36489 1.4979 0.905655 0.365119 0.176874 0.126067
threshold=80157.220600000015 1.0000000180025095e-35 549232071216.77502 31189125.000000004 12633867000.000002 15441375.000000002 34.500000000000007
decision_type=2 2 2 2 2 2 2
left_child=1 2 5 4 -4 -1 -6
right_child=-2 -3 3 -5 6 -7 -8
leaf_value=-0.0082848820590267058 0.017714275869851314 0.0081949471996200299 -0.0024562578098001808 -0.0090374706712152281 0.0079928819515296939 -0.014093981022015215 0.0027578287312517995
leaf_weight=38 21 27 22 21 23 20 23
leaf_count=38 21 27 22 21 23 20 23
internal_value=0 -0.00213793 -0.00403581 3.86718e-05 0.0028416 -0.010288 0.00537536
internal_weight=0 174 147 89 68 58 46
internal_count=195 174 147 89 68 58 46
is_linear=0
shrinkage=0.05


Tree=38
num_leaves=7
num_cat=0
split_feature=17 1 19 19 16 10
split_gain=2.68938 0.871397 0.948308 0.203225 0.558023 0.173491
threshold=28205876500.000004 1999.5000000000002 50812.395950000013 25948.779250000003 115097.50000000001 22.500000000000004
decision_type=2 2 2 2 2 2
left_child=1 -1 3 4 -3 -5
right_child=-2 2 -4 5 -6 -7
leaf_value=-0.010628718268816117 0.014340295246802271 0.00055471917973288034 0.0061760966126005066 0.0022978414198207803 -0.0094653556828923294 -0.003779134734456117
leaf_weight=27 28 24 36 23 33 24
leaf_count=27 28 24 36 23 33 24
internal_value=0 -0.00240436 -0.000818235 -0.00323935 -0.00524638 -0.000805295
internal_weight=0 167 140 104 57 47
internal_count=195 167 140 104 57 47
is_linear=0
shrinkage=0.05


Tree=39
num_leaves=9
num_cat=0
split_feature=5 11 15 15 0 5 16 7
split_gain=2.4914 1.30428 0.641786 0.775158 1.01916 0.2197 0.132008 0.0220031
threshold=80157.220600000015 4.0000000000000009 13244000.000000002 31189125.000000004 433.50000000000006 56080.375800000002 87350.000000000015 123.50000000000001
decision_type=2 2 2 2 2 2 2 2
left_child=1 2 6 4 -4 7 -1 -6
right_child=-2 -3 3 -5 5 -7 -8 -9
leaf_value=-0.0063954912303459087 0.016268189672735477 0.0079216342564905062 -0.0081855412349104897 -0.010644213182968088 0.00051821340806782249 0.0081091362476581712 -0.012071419784333556 0.0028635880071669821
leaf_weight=21 21 28 25 20 20 20 20 20
leaf_count=21 21 28 25 20 20 20 20 20
internal_value=0 -0.0019634 -0.00385916 -0.00178766 0.000296238 0.00383031 -0.00916424 0.0016909
internal_weight=0 174 146 105 85 60 41 40
internal_count=195 174 146 105 85 60 41 40
is_linear=0
shrinkage=0.05


Tree=40
num_leaves=7
num_cat=0
split_feature=17 12 18 16 17 1
split_gain=2.2679 0.877942 1.163 0.428489 0.169076 0.145714
threshold=28205876500.000004 1.0000000180025095e-35 518993816476.53351 213174.75000000003 13679954500.000002 2008.5000000000002
decision_type=2 2 2 2 2 2
left_child=1 2 5 4 -4 -1
right_child=-2 -3 3 -5 -6 -7
leaf_value=-0.011370824096614824 0.013168727633144176 0.0070992322596298025 -0.00080979949839058384 -0.004344867015283348 0.0049292718346061358 -0.0060735445447443505
leaf_weight=34 28 22 21 36 33 21
leaf_count=34 28 22 21 36 33 21
internal_value=0 -0.00220793 -0.00362005 -0.0001195 0.00269741 -0.00934823
internal_weight=0 167 145 90 54 55
internal_count=195 167 145 90 54 55
is_linear=0
shrinkage=0.05


Tree=41
num_leaves=9
num_cat=0
split_feature=5 11 15 15 0 5 16 7
split_gain=2.11109 1.14178 0.554955 0.730525 0.860615 0.186221 0.101078 0.021762
threshold=80157.220600000015 4.0000000000000009 13244000.000000002 31189125.000000004 433.50000000000006 56080.375800000002 87350.000000000015 123.50000000000001
decision_type=2 2 2 2 2 2 2 2
left_child=1 2 6 4 -4 7 -1 -6
right_child=-2 -3 3 -5 5 -7 -8 -9
leaf_value=-0.0060914804715485804 0.014975128145444961 0.0074414364216084192 -0.0074259710609912884 -0.01025260300608352 0.00047987508587539197 0.0075551307082787388 -0.011058142054826022 0.0028123620478436354
leaf_weight=21 21 28 25 20 20 20 20 20
leaf_count=21 21 28 25 20 20 20 20 20
internal_value=0 -0.00180734 -0.00358108 -0.0016548 0.000368213 0.00361579 -0.00851424 0.00164612
internal_weight=0 174 146 105 85 60 41 40
internal_count=195 174 146 105 85 60 41 40
is_linear=0
shrinkage=0.05


Tree=42
num_leaves=7
num_cat=0
split_feature=17 12 18 0 8 0
split_gain=1.91283 0.817981 0.948164 0.167153 0.211048 0.139348
threshold=28205876500.000004 1.0000000180025095e-35 518993816476.53351 621.00000000000011 232.50000000000003 213.00000000000003
decision_type=2 2 2 2 2 2
left_child=1 2 5 -4 -5 -1
right_child=-2 -3 3 4 -6 -7
leaf_value=-0.01094590816004523 0.012094000830048961 0.0069559813900427385 -0.0027507197552997815 0.0043397594429552561 -0.0021077254152094774 -0.0059049132096473701
leaf_weight=29 28 22 38 30 22 26
leaf_count=29 28 22 38 30 22 26
internal_value=0 -0.00202774 -0.00339078 -0.00023005 0.00161198 -0.00856289
internal_weight=0 167 145 90 52 55
internal_count=195 167 145 90 52 55
is_linear=0
shrinkage=0.05


Tree=43
num_leaves=7
num_cat=0
split_feature=5 11 5 16 17 0
split_gain=1.78159 1.00035 0.496187 0.583572 0.4611 0.24164
threshold=80157.220600000015 4.0000000000000009 6718.1331500000015 213174.75000000003 12633867000.000002 469.00000000000006
decision_type=2 2 2 2 2 2
left_child=1 2 -1 4 5 -4
right_child=-2 -3 3 -5 -6 -7
leaf_value=-0.0093043864970760691 0.013756919838488103 0.0069967116694897415 0.00058643449779732955 -0.0071032506998980772 0.0052668327375525433 -0.0064160052475265477
leaf_weight=28 21 28 28 37 31 22
leaf_count=28 21 28 28 37 31 22
internal_value=0 -0.00166032 -0.00332057 -0.00190068 0.000475801 -0.00249464
internal_weight=0 174 146 118 81 50
internal_count=195 174 146 118 81 50
is_linear=0
shrinkage=0.05


Tree=44
num_leaves=7
num_cat=0
split_feature=17 12 18 16 1 17
split_gain=1.60855 0.760592 0.805964 0.341908 0.139547 0.110917
threshold=28205876500.000004 1.0000000180025095e-35 518993816476.53351 213174.75000000003 2008.5000000000002 13679954500.000002
decision_type=2 2 2 2 2 2
left_child=1 2 4 5 -1 -4
right_child=-2 -3 3 -5 -6 -7
leaf_value=-0.0099216957740923956 0.011090458579461225 0.0068033597368577677 -0.00058412849016132814 -0.0040341496228292169 -0.0047377266621749315 0.0040642194746231498
leaf_weight=34 28 22 21 36 21 33
leaf_count=34 28 22 21 36 21 33
internal_value=0 -0.00185948 -0.00317384 -0.000259743 -0.00794236 0.00225653
internal_weight=0 167 145 90 55 54
internal_count=195 167 145 90 55 54
is_linear=0
shrinkage=0.05


Tree=45
num_leaves=8
num_cat=0
split_feature=19 12 18 15 17 15 8
split_gain=1.51029 0.906632 0.702296 0.739414 0.214899 0.127739 0.103976
threshold=80157.220600000015 1.0000000180025095e-35 518993816476.53351 31189125.000000004 12633867000.000002 15191000.000000002 34.500000000000007
decision_type=2 2 2 2 2 2 2
left_child=1 2 5 4 -4 -1 -6
right_child=-2 -3 3 -5 6 -7 -8
leaf_value=-0.0057237346763057374 0.01266624925428048 0.0068927789503639494 -0.0016968917362391951 -0.0086454765605075024 0.0064395375435908689 -0.010732885345350952 0.0016852211136289914
leaf_weight=35 21 27 25 21 23 20 23
leaf_count=35 21 27 25 21 23 20 23
internal_value=0 -0.00152869 -0.00307548 -0.000403346 0.00203447 -0.00754524 0.00406238
internal_weight=0 174 147 92 71 55 46
internal_count=195 174 147 92 71 55 46
is_linear=0
shrinkage=0.05


Tree=46
num_leaves=8
num_cat=0
split_feature=11 20 5 1 3 7 16
split_gain=1.44446 0.629026 0.382579 0.246276 0.37169 0.290167 0.220671
threshold=4.0000000000000009 61761.874500000013 6718.1331500000015 2009.5000000000002 1.0000000180025095e-35 102.00000000000001 157657.50000000003
decision_type=2 2 2 2 2 2 2
left_child=1 2 -1 4 6 -5 -4
right_child=-2 -3 3 5 -6 -7 -8
leaf_value=-0.0086443779058754441 0.0092009278912363306 0.0047942421266010836 0.0065246677119284863 -0.0093624886730685839 -0.005403670987912587 -0.0011277600363625781 -0.00090283415047451862
leaf_weight=28 35 28 20 20 21 23 20
leaf_count=28 35 28 20 20 21 23 20
internal_value=0 -0.0020127 -0.0034566 -0.00205989 -1.70561e-05 -0.00495787 0.00281092
internal_weight=0 160 132 104 61 43 40
internal_count=195 160 132 104 61 43 40
is_linear=0
shrinkage=0.05


Tree=47
num_leaves=7
num_cat=0
split_feature=11 20 15 0 10 16
split_gain=1.30363 0.567696 0.358788 0.323138 0.26066 0.0575751
threshold=4.0000000000000009 61761.874500000013 13244000.000000002 373.00000000000006 22.500000000000004 87350.000000000015
decision_type=2 2 2 2 2 2
left_child=1 2 5 -4 -5 -1
right_child=-2 -3 3 4 -6 -7
leaf_value=-0.0053388120695239023 0.0087408815770842405 0.0045545302747216614 -0.0057826469372957955 0.0037707526018963228 -0.0027670270035741852 -0.0090872878942172969
leaf_weight=21 35 28 30 31 30 20
leaf_count=21 35 28 30 31 30 20
internal_value=0 -0.00191207 -0.00328377 -0.00153403 0.000555451 -0.00716734
internal_weight=0 160 132 91 61 41
internal_count=195 160 132 91 61 41
is_linear=0
shrinkage=0.05


Tree=48
num_leaves=7
num_cat=0
split_feature=12 18 16 19 15 16
split_gain=1.29263 0.80912 0.521703 0.717483 0.168673 0.123731
threshold=1.0000000180025095e-35 549232071216.77502 253768.33333333334 57795.462650000009 15441375.000000002 173488.33333333334
decision_type=2 2 2 2 2 2
left_child=1 4 3 5 -1 -3
right_child=-2 2 -4 -5 -6 -7
leaf_value=-0.00463815195712653 0.0088585687136133757 0.0021124743900838355 -0.0062425904441624882 0.0089126845171418178 -0.010310980153735728 -0.0028267926540138434
leaf_weight=38 34 21 21 29 20 32
leaf_count=38 34 21 21 29 20 32
internal_value=0 -0.00187075 0.000789107 0.00258991 -0.0065943 -0.000869725
internal_weight=0 161 103 82 58 53
internal_count=195 161 103 82 58 53
is_linear=0
shrinkage=0.05


Tree=49
num_leaves=8
num_cat=0
split_feature=19 12 15 17 16 8 0
split_gain=1.17202 0.729874 0.645642 0.816108 0.193952 0.12386 0.114056
threshold=80157.220600000015 1.0000000180025095e-35 32675000.000000004 12633867000.000002 129148.33333333336 34.500000000000007 355.50000000000006
decision_type=2 2 2 2 2 2 2
left_child=1 2 3 4 -1 -5 -6
right_child=-2 -3 -4 5 6 -7 -8
leaf_value=-0.0076921620949481923 0.011157968434106026 0.006209420652508184 -0.010851266164155235 0.0062878041118286394 -0.0053309217383641569 0.0012080202500025432 -0.00041780241509614923
leaf_weight=30 21 27 21 24 21 24 27
leaf_count=30 21 27 21 24 21 24 27
internal_value=0 -0.00134665 -0.0027345 -0.00138171 -0.0045384 0.00374791 -0.00256729
internal_weight=0 174 147 126 78 48 48
internal_count=195 174 147 126 78 48 48
is_linear=0
shrinkage=0.05


Tree=50
num_leaves=7
num_cat=0
split_feature=11 12 0 15 7 15
split_gain=1.15291 0.490561 0.984497 0.318046 0.367372 0.449581
threshold=4.0000000000000009 1.0000000180025095e-35 213.00000000000003 14627125.000000002 168.00000000000003 25854333.33333334
decision_type=2 2 2 2 2 2
left_child=1 2 -1 -4 5 -5
right_child=-2 -3 3 4 -6 -7
leaf_value=-0.011882134313927964 0.0082201002059238311 0.0051358664789321745 -0.0063120844435285445 0.001292090727580025 0.0047008391341933024 -0.0078237926986600686
leaf_weight=25 35 22 22 38 32 21
leaf_count=25 35 22 22 38 32 21
internal_value=0 -0.00179815 -0.00290357 -0.000917161 0.000387106 -0.00195255
internal_weight=0 160 138 113 91 59
internal_count=195 160 138 113 91 59
is_linear=0
shrinkage=0.05


Tree=51
num_leaves=7
num_cat=0
split_feature=11 19 16 19 1 3
split_gain=1.0405 0.456102 0.702727 0.911901 0.156677 0.360044
threshold=4.0000000000000009 6718.1331500000015 246601.25000000003 60431.726600000009 2009.5000000000002 1.0000000180025095e-35
decision_type=2 2 2 2 2 2
left_child=1 -1 3 4 5 -3
right_child=-2 2 -4 -5 -6 -7
leaf_value=-0.0075045125825064524 0.0078090949043897644 0.0037291511760226322 -0.0088661420613616003 0.010775001123547553 -0.0036408079841307229 -0.0045521441580993792
leaf_weight=28 35 35 21 20 35 21
leaf_count=28 35 35 21 20 35 21
internal_value=0 -0.00170824 -0.000478727 0.00110808 -0.00101652 0.000623665
internal_weight=0 160 132 111 91 56
internal_count=195 160 132 111 91 56
is_linear=0
shrinkage=0.05


Tree=52
num_leaves=7
num_cat=0
split_feature=17 12 18 16 1 8
split_gain=0.998594 0.496786 0.361563 0.228481 0.155677 0.101901
threshold=28205876500.000004 1.0000000180025095e-35 518993816476.53351 213174.75000000003 2008.5000000000002 34.500000000000007
decision_type=2 2 2 2 2 2
left_child=1 2 4 5 -1 -4
right_child=-2 -3 3 -5 -6 -7
leaf_value=-0.0078118204481571031 0.0087382883357349783 0.0055360436672344804 0.0040030576683499899 -0.0036609924488907892 -0.0023364350709709383 -0.00038943869031725392
leaf_weight=34 28 22 23 36 21 31
leaf_count=34 28 22 23 36 21 31
internal_value=0 -0.0014651 -0.00252735 -0.000575533 -0.00572122 0.00148144
internal_weight=0 167 145 90 55 54
internal_count=195 167 145 90 55 54
is_linear=0
shrinkage=0.05


Tree=53
num_leaves=7
num_cat=0
split_feature=12 1 15 17 15 10
split_gain=0.915748 0.492547 0.488073 0.512784 0.327309 0.260705
threshold=13.000000000000002 2003.5000000000002 34189800.000000007 20784525000.000004 14627125.000000002 22.500000000000004
decision_type=2 2 2 2 2 2
left_child=1 4 3 5 -1 -3
right_child=-2 2 -4 -5 -6 -7
leaf_value=-0.01011616004145016 0.0078810089864888265 0.0022626833906837715 -0.0065284672150896358 0.0074271543508595125 -0.0015855486991561273 -0.0039003391924779863
leaf_weight=23 31 37 22 28 22 32
leaf_count=23 31 37 22 28 22 32
internal_value=0 -0.0014897 0.000195315 0.0017203 -0.00594564 -0.00059553
internal_weight=0 164 119 97 45 69
internal_count=195 164 119 97 45 69
is_linear=0
shrinkage=0.05


Tree=54
num_leaves=7
num_cat=0
split_feature=11 5 16 5 1 3
split_gain=0.898537 0.413826 0.653502 0.726922 0.166962 0.302012
threshold=4.0000000000000009 6718.1331500000015 246601.25000000003 60431.726600000009 2009.5000000000002 1.0000000180025095e-35
decision_type=2 2 2 2 2 2
left_child=1 -1 3 4 5 -3
right_child=-2 2 -4 -5 -6 -7
leaf_value=-0.0071085478578295034 0.0072568260346140183 0.0037544106332851311 -0.0085046038652459785 0.0097448764089494953 -0.0034920289713357179 -0.0038301796768791976
leaf_weight=28 35 35 21 20 35 21
leaf_count=28 35 35 21 20 35 21
internal_value=0 -0.00158743 -0.000416285 0.00111394 -0.000782972 0.000910189
internal_weight=0 160 132 111 91 56
internal_count=195 160 132 111 91 56
is_linear=0
shrinkage=0.05


Tree=55
num_leaves=8
num_cat=0
split_feature=5 12 15 17 16 0 1
split_gain=0.833618 0.493433 0.585588 0.547783 0.145462 0.0898877 0.0701421
threshold=80157.220600000015 1.0000000180025095e-35 32675000.000000004 12633867000.000002 129148.33333333336 355.50000000000006 2008.5000000000002
decision_type=2 2 2 2 2 2 2
left_child=1 2 3 4 -1 -6 -5
right_child=-2 -3 -4 6 5 -7 -8
leaf_value=-0.0063059227215126164 0.009410251308942125 0.0050770651169673164 -0.010006909755369027 0.00095254559535533183 -0.0043211058070439668 4.0528575751792504e-05 0.0048294570646248763
leaf_weight=30 21 27 21 20 21 27 28
leaf_count=30 21 27 21 20 21 27 28
internal_value=0 -0.00113572 -0.00227684 -0.000988499 -0.0035747 -0.00186769 0.00321408
internal_weight=0 174 147 126 78 48 48
internal_count=195 174 147 126 78 48 48
is_linear=0
shrinkage=0.05


Tree=56
num_leaves=8
num_cat=0
split_feature=11 12 0 16 17 10 1
split_gain=0.812422 0.360993 0.6957 0.338539 0.498463 0.220492 0.0788227
threshold=4.0000000000000009 1.0000000180025095e-35 213.00000000000003 229095.00000000003 20784525000.000004 3.5000000000000004 2003.5000000000002
decision_type=2 2 2 2 2 2 2
left_child=1 2 -1 4 5 6 -4
right_child=-2 -3 3 -5 -6 -7 -8
leaf_value=-0.010005345294252038 0.0069003255026681091 0.0044387791559777475 -0.0012129068647956721 -0.0057940802178703824 0.0076352826389484117 -0.0051989052328281112 0.0030790065543260426
leaf_weight=25 35 22 23 26 20 24 20
leaf_count=25 35 22 23 26 20 24 20
internal_value=0 -0.00150945 -0.00245771 -0.000787884 0.000708221 -0.00135956 0.000783332
internal_weight=0 160 138 113 87 67 43
internal_count=195 160 138 113 87 67 43
is_linear=0
shrinkage=0.05


Tree=57
num_leaves=7
num_cat=0
split_feature=17 15 15 16 5 9
split_gain=0.741665 0.356218 0.390395 0.179469 0.216533 0.0918103
threshold=28205876500.000004 1.0000000180025095e-35 13244000.000000002 253768.33333333334 28735.489800000007 185.00000000000003
decision_type=2 2 2 2 2 2
left_child=1 -1 -3 4 -4 -6
right_child=-2 2 3 -5 5 -7
leaf_value=0.0049979322589933876 0.0075307094492018225 -0.0075465654268757343 -0.0033851954634883442 -0.0050905565908622181 0.0033319722789908867 -0.0003801387299092547
leaf_weight=20 28 27 32 21 36 31
leaf_count=20 28 27 32 21 36 31
internal_value=0 -0.00126263 -0.00211441 -0.000892177 -1.61165e-06 0.00161443
internal_weight=0 167 147 120 99 67
internal_count=195 167 147 120 99 67
is_linear=0
shrinkage=0.05


Tree=58
num_leaves=7
num_cat=0
split_feature=11 5 16 5 1 3
split_gain=0.709173 0.333876 0.578065 0.53703 0.156335 0.26119
threshold=4.0000000000000009 6718.1331500000015 246601.25000000003 60431.726600000009 2009.5000000000002 1.0000000180025095e-35
decision_type=2 2 2 2 2 2
left_child=1 -1 3 4 5 -3
right_child=-2 2 -4 -5 -6 -7
leaf_value=-0.0063694577398044731 0.0064469578223569054 0.0037338559336162038 -0.007965491942706562 0.0084993273206055171 -0.0031709862660084451 -0.0033195410974994526
leaf_weight=28 35 35 21 20 35 21
leaf_count=28 35 35 21 20 35 21
internal_value=0 -0.00141027 -0.000358324 0.00108087 -0.00054956 0.00108883
internal_weight=0 160 132 111 91 56
internal_count=195 160 132 111 91 56
is_linear=0
shrinkage=0.05


Tree=59
num_leaves=7
num_cat=0
split_feature=12 1 15 18 15 10
split_gain=0.664241 0.344334 0.372174 0.333192 0.274074 0.247034
threshold=1.0000000180025095e-35 2003.5000000000002 34189800.000000007 1439482540629.3252 14627125.000000002 22.500000000000004
decision_type=2 2 2 2 2 2
left_child=1 4 3 5 -1 -3
right_child=-2 2 -4 -5 -6 -7
leaf_value=-0.0088698868472736492 0.0063502225189414965 0.0025418296444816709 -0.0057550233026797126 0.0064147629141807555 -0.0010637770110571926 -0.0034473182873405294
leaf_weight=23 34 36 22 25 22 33
leaf_count=23 34 36 22 25 22 33
internal_value=0 -0.00134104 9.91631e-05 0.00146929 -0.00505357 -0.000322545
internal_weight=0 161 116 94 45 69
internal_count=195 161 116 94 45 69
is_linear=0
shrinkage=0.05


Tree=60
num_leaves=8
num_cat=0
split_feature=5 12 15 18 10 5 1
split_gain=0.616747 0.3353 0.517831 0.334629 0.120963 0.170146 0.113984
threshold=80157.220600000015 1.0000000180025095e-35 32675000.000000004 549232071216.77502 65.500000000000014 56080.375800000002 2006.5000000000002
decision_type=2 2 2 2 2 2 2
left_child=1 2 3 6 -5 -6 -1
right_child=-2 -3 -4 4 5 -7 -8
leaf_value=-0.0054921541673441732 0.0080941518946062961 0.0041445250519447857 -0.0091866495109917158 0.0041193798454644695 -0.0030364371451508743 0.0032693105377256874 -0.00084588318131864073
leaf_weight=33 21 27 21 28 23 20 22
leaf_count=33 21 27 21 28 23 20 22
internal_value=0 -0.00097688 -0.00191755 -0.00070603 0.00156184 -0.000103531 -0.00363365
internal_weight=0 174 147 126 71 43 55
internal_count=195 174 147 126 71 43 55
is_linear=0
shrinkage=0.05


Tree=61
num_leaves=7
num_cat=0
split_feature=11 5 16 5 10 16
split_gain=0.636701 0.303029 0.52543 0.414751 0.197299 0.190166
threshold=4.0000000000000009 6718.1331500000015 246601.25000000003 57628.109700000008 3.5000000000000004 173488.33333333334
decision_type=2 2 2 2 2 2
left_child=1 -1 3 4 5 -3
right_child=-2 2 -4 -5 -6 -7
leaf_value=-0.0060608182368533953 0.0061086679023823571 0.003215721869168596 -0.0075866691490990073 0.0065641937992320619 -0.0042811419465579098 -0.0026045982442472297
leaf_weight=28 35 36 21 26 26 23
leaf_count=28 35 36 21 26 26 23
internal_value=0 -0.00133627 -0.000334095 0.00103801 -0.000652347 0.000946784
internal_weight=0 160 132 111 85 59
internal_count=195 160 132 111 85 59
is_linear=0
shrinkage=0.05


Tree=62
num_leaves=7
num_cat=0
split_feature=11 16 5 16 19 16
split_gain=0.574623 0.291068 0.331103 0.323795 0.505715 0.125345
threshold=4.0000000000000009 129148.33333333336 6718.1331500000015 253768.33333333334 57795.462650000009 173488.33333333334
decision_type=2 2 2 2 2 2
left_child=1 2 -1 4 5 -3
right_child=-2 3 -4 -5 -6 -7
leaf_value=-0.0088732611549937213 0.0058032346516847617 0.0016102638033529124 -0.00029335070655427196 -0.0053903225378069859 0.007606706201719742 -0.0026886217755814779
leaf_weight=23 35 30 22 22 24 39
leaf_count=23 35 30 22 22 24 39
internal_value=0 -0.00126946 -0.00467864 6.45697e-05 0.00135497 -0.000819541
internal_weight=0 160 45 115 93 69
internal_count=195 160 45 115 93 69
is_linear=0
shrinkage=0.05


Tree=63
num_leaves=7
num_cat=0
split_feature=12 1 15 15 3 17
split_gain=0.566395 0.279362 0.288715 0.249646 0.246731 0.30562
threshold=1.0000000180025095e-35 2003.5000000000002 34189800.000000007 14627125.000000002 1.5000000000000002 13034386666.66667
decision_type=2 2 2 2 2 2
left_child=1 3 4 -1 5 -3
right_child=-2 2 -4 -5 -6 -7
leaf_value=-0.0082245974943203765 0.0058638908715425604 -0.0041615823191785885 -0.0050972838780250062 -0.0007744745938742365 0.0043753738080053346 0.0032686796491034329
leaf_weight=23 34 31 22 22 38 25
leaf_count=23 34 31 22 22 38 25
internal_value=0 -0.00123834 5.88957e-05 -0.00458232 0.00126566 -0.000844501
internal_weight=0 161 116 45 94 56
internal_count=195 161 116 45 94 56
is_linear=0
shrinkage=0.05


Tree=64
num_leaves=8
num_cat=0
split_feature=17 0 5 17 18 17 16
split_gain=0.51945 0.398376 0.256737 0.106252 0.203294 0.113073 0.115285
threshold=28205876500.000004 910.50000000000011 50387.07665000001 102058000.00000001 216541994964.75003 14530153166.66667 160095.00000000003
decision_type=2 2 2 2 2 2 2
left_child=1 2 3 -1 -5 6 -6
right_child=-2 -3 -4 4 5 -7 -8
leaf_value=0.002307590739801526 0.0063023710623383526 -0.0076773576726554896 0.0048248909307982433 -0.0051473743980750448 -0.0020193434076472409 -0.0034967729076743129 0.0026924780626466278
leaf_weight=20 28 20 22 30 21 20 34
leaf_count=20 28 20 22 30 21 20 34
internal_value=0 -0.00105668 -0.000155913 -0.00103253 -0.00166875 -0.000277299 0.000893419
internal_weight=0 167 147 125 105 75 55
internal_count=195 167 147 125 105 75 55
is_linear=0
shrinkage=0.05


Tree=65
num_leaves=7
num_cat=0
split_feature=11 16 5 16 19 16
split_gain=0.496853 0.256308 0.305269 0.300073 0.427559 0.122908
threshold=4.0000000000000009 129148.33333333336 6718.1331500000015 253768.33333333334 57795.462650000009 173488.33333333334
decision_type=2 2 2 2 2 2
left_child=1 2 -1 4 5 -3
right_child=-2 3 -4 -5 -6 -7
leaf_value=-0.0084072355990824493 0.0053962583334318231 0.0017202720240068932 -0.00016884357054633176 -0.0051798680638471114 0.0070620277013707282 -0.0025366097354913696
leaf_weight=23 35 30 22 22 24 39
leaf_count=23 35 30 22 22 24 39
internal_value=0 -0.00118043 -0.00437958 7.14082e-05 0.00131365 -0.000685792
internal_weight=0 160 45 115 93 69
internal_count=195 160 45 115 93 69
is_linear=0
shrinkage=0.05


Tree=66
num_leaves=8
num_cat=0
split_feature=12 11 0 8 16 0 17
split_gain=0.491822 0.238624 0.390373 0.312096 0.208022 0.162526 0.0981566
threshold=1.0000000180025095e-35 4.0000000000000009 213.00000000000003 364.50000000000006 143524.16666666672 433.50000000000006 16281704666.666668
decision_type=2 2 2 2 2 2 2
left_child=1 2 -1 4 -4 -6 -7
right_child=-2 -3 3 -5 5 6 -8
leaf_value=-0.0075935779698193071 0.0054642423823037575 0.0035611473793244878 -0.0036742607242472116 -0.0057491107035578665 -0.0014002342926054869 0.0063773264607880275 0.0016778323662001639
leaf_weight=25 34 23 21 24 23 20 25
leaf_count=25 34 23 21 24 23 20 25
internal_value=0 -0.00115394 -0.00193979 -0.000688949 0.00067559 0.00201893 0.0037665
internal_weight=0 161 138 113 89 68 45
internal_count=195 161 138 113 89 68 45
is_linear=0
shrinkage=0.05


Tree=67
num_leaves=7
num_cat=0
split_feature=12 1 15 15 3 17
split_gain=0.443869 0.220834 0.266505 0.218472 0.216376 0.25263
threshold=1.0000000180025095e-35 2003.5000000000002 34189800.000000007 14627125.000000002 1.5000000000000002 13034386666.66667
decision_type=2 2 2 2 2 2
left_child=1 3 4 -1 5 -3
right_child=-2 2 -4 -5 -6 -7
leaf_value=-0.0074766560265308495 0.0051910301451297373 -0.0037753882232092078 -0.0048967667707157415 -0.00050719612607446674 0.0041286875104752227 0.0029800858190283178
leaf_weight=23 34 31 22 22 38 25
leaf_count=23 34 31 22 22 38 25
internal_value=0 -0.00109624 5.71239e-05 -0.00406936 0.00121655 -0.000759552
internal_weight=0 161 116 45 94 56
internal_count=195 161 116 45 94 56
is_linear=0
shrinkage=0.05


Tree=68
num_leaves=8
num_cat=0
split_feature=5 0 3 1 17 2 8
split_gain=0.428022 0.385335 0.192517 0.29425 0.459045 0.248394 0.179412
threshold=80157.220600000015 890.50000000000011 1.0000000180025095e-35 2007.5000000000002 7969261166.6666679 1.0000000180025095e-35 34.500000000000007
decision_type=2 2 2 2 2 2 2
left_child=1 2 3 6 -5 -4 -1
right_child=-2 -3 5 4 -6 -7 -8
leaf_value=0.0035065097712504213 0.0067429648978369582 -0.0073430081375408926 0.0065035033283162534 -0.0094563856731507603 0.0010099829733371734 -0.00027653988716857777 -0.0022829463887161262
leaf_weight=32 21 20 22 22 20 35 23
leaf_count=32 21 20 22 22 20 35 23
internal_value=0 -0.000813806 3.41422e-05 -0.00132103 -0.0044724 0.00234032 0.00108546
internal_weight=0 174 154 97 42 57 55
internal_count=195 174 154 97 42 57 55
is_linear=0
shrinkage=0.05


Tree=69
num_leaves=8
num_cat=0
split_feature=5 0 0 3 18 1 16
split_gain=0.38629 0.347765 0.180686 0.22131 0.29547 0.254722 0.2003
threshold=80157.220600000015 890.50000000000011 755.00000000000011 1.0000000180025095e-35 518993816476.53351 2007.5000000000002 115097.50000000001
decision_type=2 2 2 2 2 2 2
left_child=1 2 3 5 -5 6 -1
right_child=-2 -3 -4 4 -6 -7 -8
leaf_value=0.0040566314267198329 0.0064058166263358937 -0.0069758575298328662 0.0041198021641163079 0.0066773963810737779 -0.0014061851337408792 -0.0052410719805936279 -0.0025451647281577745
leaf_weight=20 21 20 23 20 26 38 27
leaf_count=20 21 20 23 20 26 38 27
internal_value=0 -0.000773116 3.24351e-05 -0.000685194 0.00210842 -0.00219703 0.00026411
internal_weight=0 174 154 131 46 85 47
internal_count=195 174 154 131 46 85 47
is_linear=0
shrinkage=0.05


Tree=70
num_leaves=8
num_cat=0
split_feature=17 0 5 1 3 5 0
split_gain=0.376678 0.350575 0.175451 0.132303 0.181598 0.480256 0.0953537
threshold=28205876500.000004 910.50000000000011 47879.491800000011 2001.5000000000002 1.5000000000000002 10930.265500000001 459.50000000000006
decision_type=2 2 2 2 2 2 2
left_child=1 2 3 -1 5 -5 -7
right_child=-2 -3 -4 4 -6 6 -8
leaf_value=0.0021118361791916964 0.0053668235994077159 -0.0071106044808402664 0.00376109519880265 -0.0086314596869051467 0.0016981787531188241 0.0025142873925644727 -0.0023096983437426387
leaf_weight=29 28 20 25 25 27 21 20
leaf_count=29 28 20 25 25 27 21 20
internal_value=0 -0.000899827 -5.48229e-05 -0.000836773 -0.00175623 -0.0031694 0.000161124
internal_weight=0 167 147 122 93 66 41
internal_count=195 167 147 122 93 66 41
is_linear=0
shrinkage=0.05


Tree=71
num_leaves=8
num_cat=0
split_feature=12 1 16 19 3 15 8
split_gain=0.360729 0.225076 0.251532 0.280552 0.258905 0.204696 0.0921077
threshold=1.0000000180025095e-35 2003.5000000000002 261710.00000000003 57795.462650000009 1.5000000000000002 14627125.000000002 1.0000000180025095e-35
decision_type=2 2 2 2 2 2 2
left_child=1 5 3 4 6 -1 -3
right_child=-2 2 -4 -5 -6 -7 -8
leaf_value=-0.0072879157626353532 0.0046796862323604084 -0.0048212558443386424 -0.0047759727131397953 0.0054739464140896293 0.0038132595151419875 -0.00054177211766893215 -0.00022690946061629803
leaf_weight=23 34 24 21 28 23 22 20
leaf_count=23 34 24 21 28 23 22 20
internal_value=0 -0.000988257 0.000176135 0.00127081 -0.000485722 -0.0039898 -0.00273292
internal_weight=0 161 116 95 67 45 44
internal_count=195 161 116 95 67 45 44
is_linear=0
shrinkage=0.05


Tree=72
num_leaves=8
num_cat=0
split_feature=11 8 22 16 1 10 0
split_gain=0.344761 0.233692 0.35815 0.24675 0.491368 0.320746 0.15815
threshold=4.0000000000000009 364.50000000000006 -55626.609699999994 143524.16666666672 2007.5000000000002 85.000000000000014 433.50000000000006
decision_type=2 2 2 2 2 2 2
left_child=1 2 -1 4 -4 6 -5
right_child=-2 -3 3 5 -6 -7 -8
leaf_value=0.0059988381876610224 0.0044950849336705045 -0.005532084676572898 0.0001516483139130287 0.00048821055007955199 -0.0099660765548469504 -0.0045250161783769727 0.0064022118831053385
leaf_weight=20 35 24 30 26 20 20 20
leaf_count=20 35 24 30 26 20 20 20
internal_value=0 -0.0009833 -0.000180573 -0.00124599 -0.00389544 0.000761173 0.00305952
internal_weight=0 160 136 116 50 66 46
internal_count=195 160 136 116 50 66 46
is_linear=0
shrinkage=0.05


Tree=73
num_leaves=8
num_cat=0
split_feature=12 1 15 15 16 1 16
split_gain=0.320913 0.21179 0.245118 0.182178 0.133941 0.208047 0.0218358
threshold=1.0000000180025095e-35 2003.5000000000002 34189800.000000007 14627125.000000002 219140.83333333334 2009.5000000000002 165833.33333333334
decision_type=2 2 2 2 2 2 2
left_child=1 3 4 -1 5 -3 -7
right_child=-2 2 -4 -5 -6 6 -8
leaf_value=-0.0069551469544303079 0.004413874395301237 0.00328317893189237 -0.0045535782394422733 -0.00059087573159062731 0.004939776161481859 -0.0032327653793618088 -0.00092430892733058763
leaf_weight=23 34 33 22 22 20 20 21
leaf_count=23 34 33 22 22 20 20 21
internal_value=0 -0.000932123 0.000197379 -0.00384373 0.0013093 0.000328096 -0.00205039
internal_weight=0 161 116 45 94 74 41
internal_count=195 161 116 45 94 74 41
is_linear=0
shrinkage=0.05


Tree=74
num_leaves=7
num_cat=0
split_feature=11 8 5 1 17 10
split_gain=0.304833 0.209528 0.315032 0.239033 0.568233 0.194392
threshold=4.0000000000000009 364.50000000000006 57628.109700000008 2001.5000000000002 1141739500.0000002 22.500000000000004
decision_type=2 2 2 2 2 2
left_child=1 2 3 -1 -5 -6
right_child=-2 -3 -4 4 5 -7
leaf_value=0.0029570763693536044 0.0042267785114901407 -0.0052318027529205816 0.0056309941894141964 -0.0098346220003440992 0.0020646895311820586 -0.0032888455498808374
leaf_weight=27 35 24 20 20 39 30
leaf_count=27 35 24 20 20 39 30
internal_value=0 -0.000924608 -0.000164514 -0.00116374 -0.00241388 -0.000262934
internal_weight=0 160 136 116 89 69
internal_count=195 160 136 116 89 69
is_linear=0
shrinkage=0.05


Tree=75
num_leaves=7
num_cat=0
split_feature=12 16 18 10 15 1
split_gain=0.296057 0.207544 0.261335 0.178956 0.13885 0.141064
threshold=1.0000000180025095e-35 253768.33333333334 1002833846885.4 220.00000000000003 19637666.666666668 2007.5000000000002
decision_type=2 2 2 2 2 2
left_child=1 2 4 -4 5 -1
right_child=-2 -3 3 -5 -6 -7
leaf_value=-0.0022504980702741212 0.0042394889874712511 -0.0051843977867974903 6.930857978295535e-05 0.0063302813630018917 -0.004626182715583127 0.0026215345288316413
leaf_weight=39 34 24 25 21 28 24
leaf_count=39 34 24 25 21 28 24
internal_value=0 -0.000895296 -0.00014392 0.00292758 -0.00169655 -0.000394486
internal_weight=0 161 137 46 91 63
internal_count=195 161 137 46 91 63
is_linear=0
shrinkage=0.05


Tree=76
num_leaves=8
num_cat=0
split_feature=5 0 1 3 5 17 0
split_gain=0.288661 0.310203 0.136489 0.30533 0.412703 0.263488 0.10114
threshold=80157.220600000015 890.50000000000011 2001.5000000000002 1.5000000000000002 10930.265500000001 16616974000.000002 459.50000000000006
decision_type=2 2 2 2 2 2 2
left_child=1 2 -1 4 -4 -5 -6
right_child=-2 -3 3 5 6 -7 -8
leaf_value=0.0029989397800818554 0.0055374704966587689 -0.0065265104827994941 -0.0077910576462745674 0.0069532224116846926 0.0026784010808027928 -0.0010657295052494322 -0.0017107671785301396
leaf_weight=32 21 20 25 20 21 21 35
leaf_count=32 21 20 25 20 21 21 35
internal_value=0 -0.000668315 9.24892e-05 -0.000669859 -0.00244947 0.00284595 -6.48291e-05
internal_weight=0 174 154 122 81 41 56
internal_count=195 174 154 122 81 41 56
is_linear=0
shrinkage=0.05


Tree=77
num_leaves=8
num_cat=0
split_feature=17 0 15 11 15 10 8
split_gain=0.271729 0.318713 0.15477 0.164843 0.163627 0.24702 0.146313
threshold=28205876500.000004 910.50000000000011 1.0000000180025095e-35 1.0000000180025095e-35 12880000.000000002 22.500000000000004 50.000000000000007
decision_type=2 2 2 2 2 2 2
left_child=1 2 -1 4 -4 6 -6
right_child=-2 -3 3 -5 5 -7 -8
leaf_value=0.0041297205723822119 0.0045582683058455588 -0.0066860843950416887 -0.0037804058808389874 -0.0047689788509160287 0.0062030698017527669 -0.0020921247768481929 0.00083757674518791553
leaf_weight=20 28 20 21 20 24 35 27
leaf_count=20 28 20 21 20 24 35 27
internal_value=0 -0.00076426 4.14299e-05 -0.000602395 0.000176405 0.0011426 0.00336251
internal_weight=0 167 147 127 107 86 51
internal_count=195 167 147 127 107 86 51
is_linear=0
shrinkage=0.05


Tree=78
num_leaves=8
num_cat=0
split_feature=8 5 18 3 1 5 16
split_gain=0.259868 0.633955 0.161085 0.181618 0.310771 0.409099 0.086437
threshold=273.00000000000006 68159.249100000015 1157451387421.0671 1.5000000000000002 2001.5000000000002 10930.265500000001 171520.71428571432
decision_type=2 2 2 2 2 2 2
left_child=1 2 3 4 -1 -6 -7
right_child=-2 -3 -4 -5 5 6 -8
leaf_value=0.004400084916745651 -0.0042806586661996949 0.0086798817088658171 -0.0038382658643448461 0.003893254091963172 -0.0074925629552453762 -0.00166341484291479 0.0029851593688363211
leaf_weight=22 30 22 28 28 25 20 20
leaf_count=22 30 22 28 28 25 20 20
internal_value=0 0.000778302 -0.000437326 0.000390729 -0.000736521 -0.00247506 0.000660872
internal_weight=0 165 143 115 87 65 40
internal_count=195 165 143 115 87 65 40
is_linear=0
shrinkage=0.05


Tree=79
num_leaves=7
num_cat=0
split_feature=11 8 5 1 18 10
split_gain=0.260236 0.16194 0.259318 0.193231 0.478793 0.170418
threshold=4.0000000000000009 364.50000000000006 57628.109700000008 2001.5000000000002 84050244017.500015 22.500000000000004
decision_type=2 2 2 2 2 2
left_child=1 2 3 -1 -5 -6
right_child=-2 -3 -4 4 5 -7
leaf_value=0.0026123886138925121 0.0039053690939077311 -0.004640911282816281 0.0050720527535304434 -0.0088158840690517725 0.0020453915061233075 -0.0029957635194053488
leaf_weight=27 35 24 20 21 38 30
leaf_count=27 35 24 20 21 38 30
internal_value=0 -0.000854299 -0.000186074 -0.00109265 -0.00221665 -0.000178647
internal_weight=0 160 136 116 89 68
internal_count=195 160 136 116 89 68
is_linear=0
shrinkage=0.05


Tree=80
num_leaves=8
num_cat=0
split_feature=12 1 15 15 16 15 1
split_gain=0.242249 0.213001 0.232124 0.158893 0.113423 0.210147 0.194401
threshold=1.0000000180025095e-35 2003.5000000000002 34189800.000000007 14627125.000000002 219140.83333333334 22479000.000000004 2014.5000000000002
decision_type=2 2 2 2 2 2 2
left_child=1 3 4 -1 5 6 -3
right_child=-2 2 -4 -5 -6 -7 -8
leaf_value=-0.0066355645518658846 0.0038349279366871889 0.0057360323631049448 -0.0043004525910046972 -0.00069190815980122854 0.0047457675682380795 -0.0027248840891600898 -0.00093856139166746298
leaf_weight=23 34 24 22 22 20 30 20
leaf_count=23 34 24 22 22 20 30 20
internal_value=0 -0.000809861 0.000322866 -0.00372978 0.00140492 0.000501987 0.00270213
internal_weight=0 161 116 45 94 74 44
internal_count=195 161 116 45 94 74 44
is_linear=0
shrinkage=0.05


Tree=81
num_leaves=8
num_cat=0
split_feature=11 16 0 5 5 16 16
split_gain=0.234005 0.165427 0.435433 0.257295 0.156888 0.158838 0.116982
threshold=4.0000000000000009 253768.33333333334 63.500000000000007 60431.726600000009 14733.188450000001 143524.16666666672 210347.50000000003
decision_type=2 2 2 2 2 2 2
left_child=1 2 -1 4 -4 -6 -7
right_child=-2 -3 3 -5 5 6 -8
leaf_value=-0.0067975785583257679 0.0037033223068075522 -0.0048367237418212678 0.0037076239579445906 0.0058941199952228509 -0.0049954405915923414 0.0020055933903409717 -0.002813565017422661
leaf_weight=21 35 22 21 22 20 34 20
leaf_count=21 35 22 21 22 20 34 20
internal_value=0 -0.000810102 -0.000168176 0.00102172 -0.00010663 -0.00118905 0.00022072
internal_weight=0 160 138 117 95 74 54
internal_count=195 160 138 117 95 74 54
is_linear=0
shrinkage=0.05


Tree=82
num_leaves=8
num_cat=0
split_feature=12 1 16 19 3 15 8
split_gain=0.225178 0.184436 0.203638 0.215531 0.187114 0.146619 0.0699265
threshold=1.0000000180025095e-35 2003.5000000000002 261710.00000000003 57795.462650000009 1.5000000000000002 14627125.000000002 1.0000000180025095e-35
decision_type=2 2 2 2 2 2 2
left_child=1 5 3 4 6 -1 -3
right_child=-2 2 -4 -5 -6 -7 -8
leaf_value=-0.0062891805159818867 0.0036973389194292182 -0.004011381764091008 -0.0041825292277194205 0.0049422064746197855 0.0033732756577513137 -0.00057971069843254313 -8.2787248538807037e-06
leaf_weight=23 34 24 21 28 23 22 20
leaf_count=23 34 24 21 28 23 22 20
internal_value=0 -0.000780804 0.000273235 0.00125819 -0.000281394 -0.00349788 -0.00219179
internal_weight=0 161 116 95 67 45 44
internal_count=195 161 116 95 67 45 44
is_linear=0
shrinkage=0.05


Tree=83
num_leaves=8
num_cat=0
split_feature=8 5 18 3 1 5 16
split_gain=0.231157 0.493554 0.146154 0.151602 0.249097 0.327289 0.114408
threshold=364.50000000000006 68159.249100000015 1157451387421.0671 1.5000000000000002 2001.5000000000002 10930.265500000001 160095.00000000003
decision_type=2 2 2 2 2 2 2
left_child=1 2 3 4 -1 -6 -7
right_child=-2 -3 -4 -5 5 6 -8
leaf_value=0.0037799214001400594 -0.0045951343898195775 0.0076356386765837675 -0.0035061040716633826 0.0036163077718811111 -0.0066861292328685533 -0.0021974303177557885 0.0030276997755704959
leaf_weight=24 24 22 30 28 25 20 22
leaf_count=24 24 22 30 28 25 20 22
internal_value=0 0.000644931 -0.000387254 0.000399011 -0.000590927 -0.0021566 0.000539543
internal_weight=0 171 149 119 91 67 42
internal_count=195 171 149 119 91 67 42
is_linear=0
shrinkage=0.05


Tree=84
num_leaves=8
num_cat=0
split_feature=8 5 5 11 1 5 7
split_gain=0.208619 0.445433 0.146657 0.133177 0.148848 0.421309 0.156275
threshold=364.50000000000006 68159.249100000015 4803.9799000000012 14.000000000000002 2001.5000000000002 23690.222850000002 245.50000000000003
decision_type=2 2 2 2 2 2 2
left_child=1 2 -1 4 -4 -6 -7
right_child=-2 -3 3 -5 5 6 -8
leaf_value=0.0032120697355518739 -0.0043653771514073018 0.007253856796093962 0.0033300315119876439 -0.0046871626095491507 -0.0061467531763402562 0.003463093793922753 -0.002138100250740536
leaf_weight=24 24 22 22 21 29 33 20
leaf_count=24 24 22 22 21 29 33 20
internal_value=0 0.000612685 -0.000367891 -0.00105524 -0.000321876 -0.00130166 0.00134944
internal_weight=0 171 149 125 104 82 53
internal_count=195 171 149 125 104 82 53
is_linear=0
shrinkage=0.05


Tree=85
num_leaves=8
num_cat=0
split_feature=11 16 0 5 5 16 15
split_gain=0.206367 0.145638 0.39139 0.203236 0.157308 0.134792 0.16392
threshold=4.0000000000000009 253768.33333333334 63.500000000000007 60431.726600000009 14733.188450000001 143524.16666666672 21031000.000000004
decision_type=2 2 2 2 2 2 2
left_child=1 2 -1 4 -4 -6 -7
right_child=-2 -3 3 -5 5 6 -8
leaf_value=-0.0064436468694891256 0.0034777537548714983 -0.004538872749121352 0.0037861825166536234 0.0053000631477599126 -0.0046234874974470583 0.003040429982670153 -0.0024729371099965649
leaf_weight=21 35 22 21 22 20 26 28
leaf_count=21 35 22 21 22 20 26 28
internal_value=0 -0.000760759 -0.000158451 0.000969662 -3.31682e-05 -0.00111704 0.000181647
internal_weight=0 160 138 117 95 74 54
internal_count=195 160 138 117 95 74 54
is_linear=0
shrinkage=0.05


Tree=86
num_leaves=8
num_cat=0
split_feature=12 1 15 15 2 1 8
split_gain=0.200573 0.180293 0.182979 0.135012 0.10742 0.137211 0.104727
threshold=1.0000000180025095e-35 2003.5000000000002 34189800.000000007 14627125.000000002 1.5000000000000002 2014.5000000000002 1.0000000180025095e-35
decision_type=2 2 2 2 2 2 2
left_child=1 3 4 -1 5 6 -3
right_child=-2 2 -4 -5 -6 -7 -8
leaf_value=-0.0061018315612075286 0.0034894900999086747 0.0061026691439716764 -0.0037995971559377558 -0.00062301965769041671 -0.0017918303204086526 -0.00079255173075944195 0.0013811750975235002
leaf_weight=23 34 24 22 22 22 25 23
leaf_count=23 34 24 22 22 22 25 23
internal_value=0 -0.000736911 0.000305223 -0.0034233 0.00126593 0.00220024 0.00379215
internal_weight=0 161 116 45 94 72 47
internal_count=195 161 116 45 94 72 47
is_linear=0
shrinkage=0.05


Tree=87
num_leaves=8
num_cat=0
split_feature=8 17 18 3 1 5 15
split_gain=0.189651 0.391963 0.19508 0.177851 0.221403 0.285354 0.0973225
threshold=364.50000000000006 28205876500.000004 1157451387421.0671 1.5000000000000002 2001.5000000000002 10930.265500000001 19637666.666666668
decision_type=2 2 2 2 2 2 2
left_child=1 2 3 4 -1 -6 -7
right_child=-2 -3 -4 -5 5 6 -8
leaf_value=0.0036241239644975091 -0.0041621996361451844 0.0069819663784333645 -0.0039178114693398432 0.0039998495572945107 -0.0062020732443779716 -0.0018620311659539028 0.0029517006295334018
leaf_weight=24 24 21 30 29 25 21 21
leaf_count=24 24 21 30 29 25 21 21
internal_value=0 0.000584168 -0.000311523 0.000590049 -0.000496591 -0.00197267 0.000544835
internal_weight=0 171 150 120 91 67 42
internal_count=195 171 150 120 91 67 42
is_linear=0
shrinkage=0.05


Tree=88
num_leaves=8
num_cat=0
split_feature=1 5 18 10 18 15 18
split_gain=0.183481 0.334006 0.374298 0.163817 0.186815 0.195686 0.103178
threshold=1999.5000000000002 80157.220600000015 1877611155303.7502 22.500000000000004 216541994964.75003 9549000.0000000019 988071068319.00012
decision_type=2 2 2 2 2 2 2
left_child=-1 2 3 4 5 -2 -5
right_child=1 -3 -4 6 -6 -7 -8
leaf_value=-0.0038257852763679159 0.0034982774173840884 0.0066795484581962236 -0.0065658772503957158 -0.0039406083524227142 0.0050421523156247159 -0.0034961119462968782 0.00050748964495141993
leaf_weight=27 20 20 20 22 34 20 32
leaf_count=27 20 20 20 22 34 20 32
internal_value=0 0.000614858 -0.000204694 0.00078924 0.00231725 1.08274e-06 -0.0013047
internal_weight=0 168 148 128 74 40 54
internal_count=195 168 148 128 74 40 54
is_linear=0
shrinkage=0.05


Tree=89
num_leaves=7
num_cat=0
split_feature=8 17 18 3 1 17
split_gain=0.181003 0.35342 0.175792 0.155339 0.212694 0.254714
threshold=364.50000000000006 28205876500.000004 1157451387421.0671 1.5000000000000002 2001.5000000000002 7969261166.6666679
decision_type=2 2 2 2 2 2
left_child=1 2 3 4 -1 -6
right_child=-2 -3 -4 -5 5 -7
leaf_value=0.003599339422847455 -0.004066190377731497 0.0066457946873491715 -0.0037031909738046427 0.0037627194690967691 -0.004662270645368719 0.001537453680454443
leaf_weight=24 24 21 30 29 37 30
leaf_count=24 24 21 30 29 37 30
internal_value=0 0.000570693 -0.000279821 0.000576022 -0.000439519 -0.00188627
internal_weight=0 171 150 120 91 67
internal_count=195 171 150 120 91 67
is_linear=0
shrinkage=0.05


Tree=90
num_leaves=8
num_cat=0
split_feature=1 5 18 10 18 15 17
split_gain=0.178489 0.290132 0.35303 0.146277 0.161561 0.177706 0.156632
threshold=1999.5000000000002 80157.220600000015 1877611155303.7502 22.500000000000004 216541994964.75003 9549000.0000000019 13679954500.000002
decision_type=2 2 2 2 2 2 2
left_child=-1 2 3 4 5 -2 -5
right_child=1 -3 -4 6 -6 -7 -8
leaf_value=-0.0037733893280986839 0.003430510354228318 0.0062587861390784386 -0.00633520606905222 -0.0044184886585836389 0.0047858207555049491 -0.0032348132750485096 0.0010620253204251639
leaf_weight=27 20 20 20 22 34 20 32
leaf_count=27 20 20 20 22 34 20 32
internal_value=0 0.000606438 -0.000157393 0.00080789 0.00225178 9.78485e-05 -0.00117078
internal_weight=0 168 148 128 74 40 54
internal_count=195 168 148 128 74 40 54
is_linear=0
shrinkage=0.05


Tree=91
num_leaves=8
num_cat=0
split_feature=11 12 16 19 16 15 0
split_gain=0.175019 0.128593 0.208507 0.226147 0.145455 0.138288 0.0787885
threshold=4.0000000000000009 1.0000000180025095e-35 244956.66666666669 28735.489800000007 143524.16666666672 16293916.66666667 788.00000000000011
decision_type=2 2 2 2 2 2 2
left_child=1 2 3 5 -5 -1 -6
right_child=-2 -3 -4 4 6 -7 -8
leaf_value=-0.00079162522602860849 0.0032027354690113241 0.0028495513199066572 -0.0058540461074915676 -0.0020085515688565052 0.0006989105265926232 -0.0062771023239474744 0.0047645046304051692
leaf_weight=27 35 22 21 22 22 20 26
leaf_count=27 35 22 21 22 22 20 26
internal_value=0 -0.000700598 -0.00126656 -0.00044317 0.00135807 -0.00312587 0.00290111
internal_weight=0 160 138 117 70 47 48
internal_count=195 160 138 117 70 47 48
is_linear=0
shrinkage=0.05


Tree=92
num_leaves=8
num_cat=0
split_feature=8 17 18 15 15 16 16
split_gain=0.173205 0.306447 0.201308 0.139914 0.158781 0.150522 0.0522622
threshold=364.50000000000006 27408921785.714291 1157451387421.0671 25854333.33333334 1.0000000180025095e-35 129148.33333333336 173488.33333333334
decision_type=2 2 2 2 2 2 2
left_child=1 2 3 4 -1 -6 -7
right_child=-2 -3 -4 -5 5 6 -8
leaf_value=0.0038079829700291157 -0.0039776351108836627 0.0059275521501979747 -0.0040936711876253997 0.0043215573648922147 -0.004124768189753273 0.0020701938354177399 -0.0011315908677016315
leaf_weight=20 24 23 28 21 28 25 26
leaf_count=20 24 23 28 21 28 25 26
internal_value=0 0.000558265 -0.000276152 0.000614603 -0.000171721 -0.00117924 0.000437911
internal_weight=0 171 148 120 99 79 51
internal_count=195 171 148 120 99 79 51
is_linear=0
shrinkage=0.05


Tree=93
num_leaves=8
num_cat=0
split_feature=11 1 16 1 17 10 16
split_gain=0.154372 0.140612 0.405094 0.241898 0.201454 0.169243 0.111005
threshold=4.0000000000000009 2007.5000000000002 133668.75000000003 1999.5000000000002 13224114000.000002 1.0000000180025095e-35 217315.00000000003
decision_type=2 2 2 2 2 2 2
left_child=1 3 -3 -1 -4 -5 -6
right_child=-2 2 4 5 6 -7 -8
leaf_value=-0.0029930208420846614 0.0030078947450965644 -0.0078745251394469629 0.0037369566012943247 0.0056767220160475482 0.00066389130195602779 -0.00039173145138192926 -0.0044293884268921356
leaf_weight=25 35 22 23 27 20 20 23
leaf_count=25 35 22 23 27 20 20 23
internal_value=0 -0.000657977 -0.00199872 0.000980713 -4.01228e-05 0.0030944 -0.00206042
internal_weight=0 160 88 72 66 47 43
internal_count=195 160 88 72 66 47 43
is_linear=0
shrinkage=0.05


Tree=94
num_leaves=8
num_cat=0
split_feature=1 5 18 10 18 15 17
split_gain=0.140369 0.252089 0.334037 0.121799 0.146015 0.147853 0.138
threshold=1999.5000000000002 80157.220600000015 1877611155303.7502 22.500000000000004 216541994964.75003 9549000.0000000019 13679954500.000002
decision_type=2 2 2 2 2 2 2
left_child=-1 2 3 4 5 -2 -5
right_child=1 -3 -4 6 -6 -7 -8
leaf_value=-0.0033462654514652165 0.0030744958855211738 0.0058065542299300431 -0.0061835416266694671 -0.0040892116952983828 0.0044913472840776457 -0.0030052361599518917 0.0010550175729804323
leaf_weight=27 20 20 20 22 34 20 32
leaf_count=27 20 20 20 22 34 20 32
internal_value=0 0.000537793 -0.000174202 0.000764757 0.00208231 3.46299e-05 -0.00104078
internal_weight=0 168 148 128 74 40 54
internal_count=195 168 148 128 74 40 54
is_linear=0
shrinkage=0.05


Tree=95
num_leaves=8
num_cat=0
split_feature=8 17 18 3 1 5 15
split_gain=0.164848 0.279157 0.183532 0.123178 0.228405 0.240606 0.182863
threshold=364.50000000000006 27408921785.714291 1157451387421.0671 1.5000000000000002 2001.5000000000002 7553.0040000000017 18804000.000000004
decision_type=2 2 2 2 2 2 2
left_child=1 2 3 4 -1 -6 -7
right_child=-2 -3 -4 -5 5 6 -8
leaf_value=0.0038797980902018029 -0.0038804929897499583 0.0056692701212697379 -0.0038968381563401116 0.0034364605731940986 -0.006239415674159924 -0.0032199703921963066 0.0031089871185831729
leaf_weight=24 24 23 28 29 21 21 25
leaf_count=24 24 23 28 29 21 21 25
internal_value=0 0.000544631 -0.000251766 0.000598751 -0.000305574 -0.00180481 0.00021968
internal_weight=0 171 148 120 91 67 46
internal_count=195 171 148 120 91 67 46
is_linear=0
shrinkage=0.05


Tree=96
num_leaves=8
num_cat=0
split_feature=8 21 5 1 2 7 0
split_gain=0.150307 0.260343 0.171885 0.150685 0.24185 0.0861505 0.0671384
threshold=273.00000000000006 0.03040212304030632 4803.9799000000012 2001.5000000000002 1.0000000180025095e-35 211.00000000000003 433.50000000000006
decision_type=2 2 2 2 2 2 2
left_child=1 -1 -3 -4 -5 6 -6
right_child=-2 2 3 4 5 -7 -8
leaf_value=0.0054059038792426389 -0.0032555470863978066 0.0036270065931603315 0.0027105917482086544 -0.0056875171822270958 -0.00078189059616609797 -0.0028537482244982608 0.0030893158078903245
leaf_weight=24 30 24 22 29 24 21 21
leaf_count=24 30 24 22 29 24 21 21
internal_value=0 0.000591918 -0.000227484 -0.00101815 -0.00188165 -0.000209371 0.00102467
internal_weight=0 165 141 117 95 66 45
internal_count=195 165 141 117 95 66 45
is_linear=0
shrinkage=0.05


Tree=97
num_leaves=8
num_cat=0
split_feature=1 1 11 18 8 1 15
split_gain=0.145861 0.228553 0.294368 0.443318 0.328128 0.198304 0.15483
threshold=1999.5000000000002 2006.5000000000002 4.0000000000000009 106418691564.50002 232.50000000000003 2014.5000000000002 27621333.33333334
decision_type=2 2 2 2 2 2 2
left_child=-1 -2 3 -3 5 6 -5
right_child=1 2 -4 4 -6 -7 -8
leaf_value=-0.0034111031891101182 0.0041432303566086509 -0.0083301310986280443 0.0040567392623854868 0.00086870445126502696 -0.0056372950924560433 -0.0024283238674979658 0.0068253688421100389
leaf_weight=27 35 20 29 24 20 20 20
leaf_count=27 35 20 29 24 20 20 20
internal_value=0 0.000548213 -0.000397844 -0.00163999 -4.70964e-05 0.00169984 0.00357628
internal_weight=0 168 133 104 84 64 44
internal_count=195 168 133 104 84 64 44
is_linear=0
shrinkage=0.05


Tree=98
num_leaves=7
num_cat=0
split_feature=5 16 5 1 18 16
split_gain=0.138351 0.14456 0.191439 0.0866635 0.17429 0.130565
threshold=4803.9799000000012 253768.33333333334 57628.109700000008 2001.5000000000002 216541994964.75003 173488.33333333334
decision_type=2 2 2 2 2 2
left_child=-1 2 3 -2 -5 -6
right_child=1 -3 -4 4 5 -7
leaf_value=0.0035549740927914779 0.0016614638023181923 -0.0032655521113475836 0.0037098202674138931 -0.0056429092684993527 0.0022967564566190252 -0.0025349013523423471
leaf_weight=24 27 37 31 20 27 29
leaf_count=24 27 37 31 20 27 29
internal_value=0 -0.000498944 0.000264971 -0.000771829 -0.00163629 -0.000205352
internal_weight=0 171 134 103 76 56
internal_count=195 171 134 103 76 56
is_linear=0
shrinkage=0.05


Tree=99
num_leaves=8
num_cat=0
split_feature=1 19 18 10 17 18 15
split_gain=0.137832 0.203012 0.316039 0.124075 0.135828 0.112629 0.142091
threshold=1999.5000000000002 80157.220600000015 1877611155303.7502 22.500000000000004 13679954500.000002 216541994964.75003 9549000.0000000019
decision_type=2 2 2 2 2 2 2
left_child=-1 2 3 5 -5 6 -2
right_child=1 -3 -4 4 -6 -7 -8
leaf_value=-0.0033158923473416107 0.0033187332935631277 0.0052610733779147271 -0.0059512314095627522 -0.0040393918789711526 0.0010641934402883634 0.0042528656475684223 -0.002641370922792703
leaf_weight=27 20 20 20 22 32 34 20
leaf_count=27 20 20 20 22 32 34 20
internal_value=0 0.000532911 -0.00010603 0.000807283 -0.00101505 0.00213709 0.000338681
internal_weight=0 168 148 128 54 74 40
internal_count=195 168 148 128 54 74 40
is_linear=0
shrinkage=0.05


end of trees

feature_importances:
Column_5=117
Column_17=84
Column_1=66
Column_16=61
Column_15=54
Column_18=51
Column_0=38
Column_11=28
Column_3=26
Column_12=26
Column_8=23
Column_2=22
Column_19=21
Column_10=18
Column_20=9
Column_7=6
Column_9=2
Column_21=2
Column_22=2

parameters:
[boosting: gbdt]
[objective: regression]
[metric: rmse]
[tree_learner: serial]
[device_type: cpu]
[data_sample_strategy: bagging]
[data: ]
[valid: ]
[num_iterations: 10000]
[learning_rate: 0.05]
[num_leaves: 95]
[num_threads: 0]
[seed: 1237]
[deterministic: 0]
[force_col_wise: 0]
[force_row_wise: 0]
[histogram_pool_size: -1]
[max_depth: -1]
[min_data_in_leaf: 20]
[min_sum_hessian_in_leaf: 0.001]
[bagging_fraction: 1]
[pos_bagging_fraction: 1]
[neg_bagging_fraction: 1]
[bagging_freq: 0]
[bagging_seed: 32458]
[feature_fraction: 0.9]
[feature_fraction_bynode: 1]
[feature_fraction_seed: 15412]
[extra_trees: 0]
[extra_seed: 19498]
[early_stopping_round: 0]
[early_stopping_min_delta: 0]
[first_metric_only: 0]
[max_delta_step: 0]
[lambda_l1: 0]
[lambda_l2: 0]
[linear_lambda: 0]
[min_gain_to_split: 0]
[drop_rate: 0.1]
[max_drop: 50]
[skip_drop: 0.5]
[xgboost_dart_mode: 0]
[uniform_drop: 0]
[drop_seed: 818]
[top_rate: 0.2]
[other_rate: 0.1]
[min_data_per_group: 100]
[max_cat_threshold: 32]
[cat_l2: 10]
[cat_smooth: 10]
[max_cat_to_onehot: 4]
[top_k: 20]
[monotone_constraints: ]
[monotone_constraints_method: basic]
[monotone_penalty: 0]
[feature_contri: ]
[forcedsplits_filename: ]
[refit_decay_rate: 0.9]
[cegb_tradeoff: 1]
[cegb_penalty_split: 0]
[cegb_penalty_feature_lazy: ]
[cegb_penalty_feature_coupled: ]
[path_smooth: 0]
[interaction_constraints: ]
[verbosity: -1]
[saved_feature_importance_type: 0]
[use_quantized_grad: 0]
[num_grad_quant_bins: 4]
[quant_train_renew_leaf: 0]
[stochastic_rounding: 1]
[linear_tree: 0]
[max_bin: 255]
[max_bin_by_feature: ]
[min_data_in_bin: 3]
[bin_construct_sample_cnt: 200000]
[data_random_seed: 4078]
[is_enable_sparse: 1]
[enable_bundle: 1]
[use_missing: 1]
[zero_as_missing: 0]
[feature_pre_filter: 1]
[pre_partition: 0]
[two_round: 0]
[header: 0]
[label_column: ]
[weight_column: ]
[group_column: ]
[ignore_column: ]
[categorical_feature: ]
[forcedbins_filename: ]
[precise_float_parser: 0]
[parser_config_file: ]
[objective_seed: 21231]
[num_class: 1]
[is_unbalance: 0]
[scale_pos_weight: 1]
[sigmoid: 1]
[boost_from_average: 1]
[reg_sqrt: 0]
[alpha: 0.9]
[fair_c: 1]
[poisson_max_delta_step: 0.7]
[tweedie_variance_power: 1.5]
[lambdarank_truncation_level: 30]
[lambdarank_norm: 1]
[label_gain: ]
[lambdarank_position_bias_regularization: 0]
[eval_at: ]
[multi_error_top_k: 1]
[auc_mu_weights: ]
[num_machines: 1]
[local_listen_port: 12400]
[time_out: 120]
[machine_list_filename: ]
[machines: ]
[gpu_platform_id: -1]
[gpu_device_id: -1]
[gpu_use_dp: 0]
[num_gpu: 1]

end of parameters

pandas_categorical:null
